60
475
-118
110
626
-206
-272
-223
-601
-496
-288
724
774
1003
748
1009
-454
807
376
-68
565
-750
-27
-345
-342
174
1222
414
733
-1288
1004
-221
-136
-229
265
-54
901
-380
226
725
-397
-236
-42
105
307
203
-378
-513
553
-809
583
332
414
-384
-548
395
-661
-945
-480
568
395
747
505
-162
-353
456
459
-663
446
-573
-70
-257
-165
-373
-93
-264
-649
310
-543
-98
109
18
123
133
-412
-136
-343
1021
-223
-304
141
-111
-838
-38
-95
304
121
-65
-35
189
-95
-4
-80
121
123
-712
-144
323
-20
-192
-484
-189
212
-244
-30
-284
114
-319
175
-169
109
-37
280
-22
12
202
325
326
69
-370
-72
-37
-204
302
-315
-325
42
-132
201
162
-26
91
231
79
452
-1194
337
465
34
-226
408
662
-243
166
274
-207
196
697
-813
332
387
-469
242
659
-817
300
-759
709
1596
-768
4
-1240
-1065
355
-569
-579
285
-1664
924
-606
901
-565
-887
-407
339
-874
-167
577
-658
-685
-897
204
61
891
302
57
96
-334
-382
-536
-700
-721
-341
389
605
67
685
593
-186
-44
46
-657
756
-569
-309
64
669
-757
984
-150
-297
-47
-792
-598
502
-432
914
-426
959
-1018
-639
-567
518
-580
-220
1257
-576
-955
-704
633
-283
788
538
54
-122
140
-530
74
-65
-495
-9
217
32
-213
-40
211
-36
-262
-2
-179
216
-313
-446
110
-95
-117
-255
-419
171
118
-175
-143
374
37
-156
29
161
-245
-52
-125
156
-229
-5
233
109
-203
123
11
82
240
-524
92
-138
-52
40
150
667
414
147
102
-935
-159
-1113
493
-503
-565
-19
642
-340
694
-442
690
519
-639
555
-189
-445
-765
673
174
-142
-1084
814
-22
845
-439
129
-647
712
-241
-137
973
72
-627
-733
304
-35
1596
-242
-1284
-351
413
-609
-374
942
39
0
408
-602
-1597
326
-592
50
-744
-284
-419
235
196
1046
-790
-199
194
-587
253
-358
28
-289
570
-1275
98
-399
403
-237
-187
353
-869
-366
-139
690
-186
-12
-47
198
282
-908
230
134
296
-246
-120
92
367
230
195
477
338
-153
-102
47
323
-90
286
242
-173
286
-39
556
78
-119
-70
25
-77
-393
192
73
273
-349
-40
-97
-65
40
10
-107
-312
-100
-37
-278
-155
433
-195
248
64
393
122
233
-697
-214
376
98
-29
519
-76
-289
359
-303
-1174
-597
-1356
394
-410
-295
-280
-145
-133
737
-770
-1101
-381
-449
293
394
-84
-10
97
-444
745
-91
-1195
-416
294
573
-164
-558
771
-1252
-485
388
-868
308
968
-341
-214
-766
242
-779
554
861
-600
679
1388
682
-726
-216
-19
-256
108
1266
-699
-261
-2
-619
512
143
-150
-618
577
-123
452
-366
242
292
664
-682
367
-414
647
-211
411
429
-896
843
56
650
-274
791
324
375
-489
-140
70
-123
-312
-133
-214
68
325
-62
-170
271
-291
-4
50
311
-14
-417
335
190
-435
-183
425
-269
-290
358
290
108
261
-89
14
-420
-31
139
200
346
-162
640
-427
-19
281
-136
-406
328
-183
-200
-179
3
-82
-192
205
-370
614
-130
-61
87
130
445
-23
313
95
-183
1131
-313
1475
-270
178
-413
717
-429
189
-734
1144
1416
-485
1949
33
-664
-469
349
-781
-539
-735
1294
110
1825
-1177
-186
-842
118
-1180
379
971
-120
-435
-464
228
895
986
834
-909
965
-808
-1403
-803
-1160
-1006
-1018
850
968
169
1473
-1075
-464
1399
358
-866
1289
-1156
666
-962
241
-784
-1415
-737
-838
623
-1099
60
462
-170
-388
-572
183
-190
-217
-236
275
-703
-98
10
-406
-218
-716
615
-276
18
154
82
82
-314
6
-357
-251
-117
196
327
309
94
-62
243
-95
371
311
-42
178
-115
239
-167
7
367
63
-120
217
309
231
273
278
-308
211
-359
70
-27
-69
28
-29
31
-104
-76
61
-267
-155
521
-305
1751
-491
-1106
59
-50
-841
-594
-93
-311
-551
536
13
-960
650
-1154
-297
-138
-118
-454
638
-394
655
-356
-314
-418
-1642
236
-1271
211
-294
1067
-181
670
-1408
781
-403
213
-254
637
-410
142
1042
-1159
-1185
-132
-204
-16
-605
-302
-547
437
-162
217
296
-516
304
649
572
-495
-286
242
-246
149
64
-89
-244
889
-805
822
-153
522
-301
707
-136
471
-42
-1602
1111
340
-60
355
-267
1022
101
-145
59
25
-1032
205
595
-484
298
993
513
-1276
226
74
-117
-185
-31
163
-102
10
-192
-65
-199
-121
55
-145
429
-153
236
-114
31
-39
-398
-216
20
-25
-67
-164
-244
287
-28
-306
-23
167
-182
395
163
-123
-297
159
150
44
-145
-88
-156
94
166
264
70
-214
284
-400
343
881
494
-662
-406
540
-542
-832
-403
88
283
1143
-105
1109
-285
662
142
-172
-7
-537
-1049
439
846
-1509
1319
-144
374
-53
-559
-1799
969
-414
1281
-1960
952
-1311
-1046
1348
-86
-1194
-1604
1141
-449
-906
-1503
466
-82
487
-353
-164
267
267
82
566
-440
-1043
-429
417
323
462
652
765
-230
787
-86
-144
721
-549
-967
-49
1097
-270
551
-363
84
468
470
-180
1010
-545
496
-249
-266
160
-456
290
1058
361
-584
645
-1268
-487
-606
-301
157
65
-226
321
-98
-92
-167
114
-90
91
162
246
17
-46
-223
-178
-135
83
-159
-66
-3
177
582
41
61
-593
-121
3
248
-98
-345
-196
137
11
-45
90
-205
-281
-125
186
-227
143
-102
-84
23
84
-295
15
-1482
1418
-1563
-183
-1699
1279
581
-468
1883
1559
770
-715
-1545
-1107
-1293
-616
777
-1035
-1037
1602
-1450
1694
298
-17
-1061
1938
948
1186
218
-730
1588
1933
-1688
895
-1069
746
-741
1229
2032
-1341
452
1704
1198
-970
1252
1161
1548
-842
-168
612
-22
-531
-34
-785
-690
-256
-575
30
-568
266
-39
-427
101
-352
-708
-127
198
275
-71
147
-209
78
-217
-21
-276
378
363
-50
635
623
-187
600
-134
322
-824
284
234
673
-310
901
408
-312
314
537
267
-411
226
-330
53
-87
-178
-450
193
-26
135
-38
-349
158
-106
263
150
-80
-160
-247
-98
-534
34
197
145
173
698
317
173
267
41
-409
14
-83
130
217
-312
-21
555
-110
65
-221
123
-144
-227
219
78
306
-63
272
650
-724
808
-572
508
-760
-367
-147
-310
-296
-416
299
796
-138
98
-404
-202
89
-70
-787
793
-470
343
-932
274
-787
80
-3
-340
-258
-492
-206
-771
-10
208
-884
1350
-1649
-330
758
-578
-1409
19
374
-33
-147
-1133
1705
-61
-438
-216
178
-207
248
552
292
81
335
692
-563
337
244
-181
-199
252
-88
-211
-106
88
299
185
312
361
251
-33
-278
-190
381
23
199
101
-814
-101
85
-548
460
-256
-509
628
596
318
173
191
59
450
-389
237
54
90
35
200
49
102
147
-49
-73
128
176
-598
53
-627
-29
-37
-34
-325
123
-246
109
41
232
104
77
-244
-463
90
-324
23
335
77
102
465
460
251
-110
-387
171
-295
-122
297
-228
-256
-156
0
-139
-988
1697
-961
-570
-475
481
-318
-1213
538
150
-55
-200
-975
-259
577
786
-498
-44
-550
664
-330
477
-279
170
-860
951
-33
763
387
-159
632
741
158
656
-735
281
-1744
677
892
504
5
1485
231
-474
612
534
782
-816
-308
763
-571
-234
-538
-139
486
-535
1173
636
72
-324
-979
-605
-714
-295
-140
-336
94
757
-562
1080
290
272
-330
902
-533
474
354
-987
635
889
-832
889
-817
622
-536
254
703
-488
59
437
650
-1059
585
427
339
-238
112
-30
-99
380
119
-27
315
-25
-147
491
-217
-617
677
167
-95
71
-419
-385
-269
69
-107
569
323
-471
176
-48
197
-73
28
217
-256
194
63
75
24
-559
-146
-345
-235
-327
-705
-398
-138
-235
402
-449
42
100
-7
-1074
-165
547
610
-79
-658
745
-1239
-1170
-365
21
672
1100
562
1416
-484
769
216
-218
484
-591
-1187
677
1514
-1236
685
-681
14
314
-47
-993
1335
-1055
743
-1635
298
-408
-1221
1294
436
-270
-875
1005
-1069
-633
-1350
321
-470
721
-1015
-273
-875
356
118
-921
364
703
306
244
-825
-763
-216
236
-353
-292
-241
297
-604
960
218
189
-1195
1120
-445
1464
-338
-2208
1302
1418
-1300
676
-1181
1324
-349
648
1472
-981
9
412
1739
-902
1143
678
937
-1077
182
201
51
-170
-611
-71
199
-124
242
263
17
-212
-64
-77
-376
106
-106
231
102
-386
27
-11
137
-310
52
-382
42
248
171
23
98
146
324
-123
-431
-258
-315
-156
268
81
37
-119
34
-409
36
263
-3
-320
-392
128
-1
-20
27
195
121
527
-124
-395
-170
-613
452
615
77
502
-73
424
-130
-80
388
-728
-534
-12
-181
-1156
738
-584
509
166
-206
-843
1120
126
522
-1443
-476
550
-828
917
152
242
-1682
92
59
-894
-810
78
-300
224
-333
20
-165
648
427
423
292
383
-29
15
52
-311
-456
-5
1186
-425
-290
749
-880
480
239
-439
-513
504
429
642
873
-5
1449
478
-502
928
-277
-71
-765
890
239
-383
347
826
327
-392
472
187
739
-722
217
-103
65
55
102
66
-98
-82
135
121
638
-51
-17
16
241
-177
-213
302
294
-613
267
-114
-106
50
-97
58
33
-320
6
-42
-442
134
-25
-199
-59
452
12
-72
-95
-400
-343
67
203
-33
-14
396
54
-282
378
-1116
804
772
748
-990
107
-12
-1577
-1164
-204
511
1088
1758
535
481
-291
783
1024
-843
903
-775
-497
132
-480
-689
858
-115
1980
-243
677
-1010
1224
286
653
-1540
-1300
816
-241
1949
-787
1521
-2701
209
-571
-521
-247
95
288
-184
111
-63
431
-198
-34
1015
-678
-1169
-117
338
478
50
398
333
-153
-61
-263
-272
342
-336
-370
-211
848
433
576
-318
-1479
-185
-4
-428
-475
-623
69
207
1290
-489
18
-607
643
-582
615
446
-173
423
-213
-132
-259
-79
248
-161
-282
354
-236
676
306
10
326
414
23
116
6
-397
-24
86
47
-492
258
-72
-107
404
-238
200
50
100
43
-454
-174
-620
-332
38
-140
-286
15
-24
212
-179
-292
182
37
267
-370
167
270
452
-203
1174
-100
-428
-122
1287
799
166
780
1007
813
-456
-21
-625
-275
-815
768
-34
-1008
86
96
36
632
-1226
-88
992
631
-251
-32
345
155
979
-195
804
-626
218
-998
1170
404
-1757
710
1274
-232
-390
710
60
752
-1040
-894
-333
-648
-4
-736
-331
377
473
266
340
-97
-161
-633
315
-48
109
-191
-226
-130
1052
-691
540
-687
683
332
-362
1038
90
554
196
253
-393
364
-320
147
-543
774
-948
-71
396
662
-588
-134
297
-341
402
-759
666
349
-71
-307
30
85
32
347
-165
-185
508
185
-397
-105
-362
357
391
304
416
-182
130
-458
573
25
-314
-291
218
294
272
-308
226
-92
-9
-145
29
13
-316
-17
-323
53
216
107
287
323
215
-279
425
217
-179
221
-241
244
-384
-54
-478
-412
75
161
473
170
-29
378
-328
-63
106
-529
-60
698
-486
713
-228
553
-311
972
414
690
-42
98
-161
483
-186
-414
-384
575
331
583
240
72
-408
334
65
1178
-300
229
1084
377
154
-306
-73
-1094
-1063
-306
956
709
-186
1037
1517
717
-679
-733
-2087
-966
-1662
1034
-678
-623
313
-731
940
859
407
-1511
1554
-1007
1063
-490
-956
305
1932
-1028
1116
-1751
1894
-1259
1749
1482
-789
-54
972
1589
-1294
916
1030
1539
-2137
533
143
-157
-167
120
-34
-330
-59
70
-290
-9
-74
-632
206
-230
-77
78
-147
21
470
-167
-49
321
-86
-428
-255
-27
-72
-391
-209
95
24
-311
384
-127
35
-337
392
-283
380
73
-5
267
-81
-303
-399
-34
307
-141
652
-901
146
-93
90
-80
-534
-350
-91
251
-202
248
110
354
-387
-362
-307
62
265
44
261
-610
464
-646
378
-592
57
636
229
-134
584
370
237
-383
472
-1485
944
-181
864
394
1468
44
-622
-24
27
892
-1311
328
237
-381
-378
-186
-400
-561
-463
-276
152
-679
714
-477
-463
-643
377
-1149
-52
-87
407
-429
734
-127
435
543
-208
894
190
201
-1475
1096
-3
-491
-462
289
203
1104
-982
630
-332
-294
-889
90
416
742
468
-248
774
240
-74
318
250
-136
-32
-102
110
-42
135
-440
36
198
-177
-81
340
627
-135
-210
472
-22
163
376
37
168
-28
327
441
-219
128
-17
-120
228
118
34
-372
-102
-488
124
-582
-173
124
-48
192
353
-49
-403
-252
-217
-96
-302
369
-647
-135
-49
66
466
529
-100
-223
-459
379
-653
632
-227
-100
55
231
-120
551
-408
369
-150
-96
-455
189
-175
134
386
560
-214
522
-527
230
-112
68
677
-686
332
-129
214
-626
-62
184
691
513
-240
1220
-317
-777
32
629
-8
-473
366
513
45
-327
-418
-1248
-42
-797
732
-1
-194
-193
-235
138
370
-935
-257
132
-366
-216
-705
120
-493
194
-1059
211
-25
7
25
-552
452
-830
143
13
-391
-143
495
-425
-95
771
52
-505
-330
299
74
-109
-32
-187
83
128
-85
-239
-261
625
200
79
-342
47
-63
146
184
237
11
-339
-116
3
142
262
-419
142
-99
-2
72
-372
-106
344
23
-35
19
185
-111
-122
-291
-203
-145
-205
205
29
461
-51
502
460
342
164
76
576
-444
-910
-385
-293
993
803
1294
-1074
876
121
150
-1269
1351
-898
401
-645
394
-285
-611
-362
-272
1041
-901
-379
718
314
233
-644
-801
619
-949
412
198
876
-485
-236
-1047
78
-45
-43
488
-1106
632
515
397
-765
-107
472
-157
-135
127
2
425
1057
363
704
-363
335
510
-60
-349
-431
-496
717
478
185
282
366
235
-513
235
-383
191
-16
152
168
290
-719
319
925
-1100
-496
287
-222
-601
792
-318
-133
255
-508
147
23
10
36
8
-223
-196
-78
-135
-271
-147
-55
242
-238
-38
60
308
-494
-285
126
-11
-502
203
82
104
47
287
96
164
91
-109
397
-395
-270
209
259
416
12
-81
126
-197
-542
-114
94
410
6
292
-639
-185
-418
-899
845
661
-113
950
1306
601
-1054
-426
-725
-1280
-1614
1070
-898
-514
-167
-678
888
961
-27
-1620
1322
-1991
1308
150
-92
-666
930
-1678
842
-1562
1319
-158
-141
1438
-1038
-222
-398
1009
-1142
1497
221
776
961
624
-1413
1123
514
300
-799
76
367
-815
-255
-510
-119
869
836
-330
387
-545
423
615
-528
511
-545
-353
153
164
-306
-125
-242
665
648
-637
-460
330
425
221
-494
-47
-51
231
64
-145
-40
-462
106
386
-33
100
437
-201
-141
-204
-255
-147
-145
245
-206
-431
-173
230
-19
-54
-5
-219
-200
-5
57
155
4
-237
331
-56
-194
148
207
40
-6
307
-101
-261
-18
226
281
181
-26
-8
-89
64
459
-72
-21
-175
-67
-51
-133
194
-21
459
14
763
-446
791
-734
-746
623
-1358
-636
-605
200
1294
377
825
-221
-167
776
308
-479
1066
-703
-210
-5
97
-690
-258
-420
293
806
-989
-765
1610
-415
233
-1083
-997
237
-1409
1160
92
500
-1460
266
-843
-946
-821
-115
-915
-536
-838
629
-818
675
64
37
-277
-147
642
-331
-305
896
-335
1539
-674
-786
-774
814
-460
902
-1681
1498
246
350
444
98
228
-474
442
-641
256
-290
364
-191
353
8
-171
281
162
-42
739
90
503
183
-210
-156
421
-415
280
-59
82
-326
423
-308
-211
180
-244
-174
-169
154
-164
-234
425
-214
-529
428
-345
459
242
-430
-78
127
46
-114
221
217
-38
-99
76
620
46
-184
31
-523
-97
244
-642
24
127
-137
79
100
113
-293
41
-1051
-85
646
213
-250
386
279
14
-377
73
-250
-77
840
-395
1061
-206
332
202
1187
-129
460
-859
18
651
-370
688
-498
200
558
-824
-1582
772
-1097
875
-1101
1154
-243
-729
472
498
-981
-1332
860
-148
-729
-712
860
185
-159
531
665
149
-208
45
743
-588
-541
-243
252
59
1306
133
1250
-272
361
-72
-673
686
-486
-720
-350
180
-290
471
-158
1065
595
-401
-966
258
-456
596
-1436
-6
-160
-421
939
167
-17
-997
892
-138
-476
-214
637
-204
-185
133
-195
45
338
49
-85
117
-132
-242
170
293
11
-189
481
-400
-134
40
40
237
203
22
-45
74
66
-238
-183
-216
-74
-394
168
515
-416
-176
-106
43
426
-23
-26
32
438
-22
228
-38
432
-471
247
793
267
-152
226
96
444
605
92
-124
-292
352
126
-593
-5
196
-505
68
-115
-35
311
-290
528
213
358
841
-548
-606
-822
-2006
988
-1172
-27
104
-752
461
937
594
-16
-1315
-1362
689
-1147
1143
363
-738
-863
48
-228
935
-82
499
508
1061
-958
-154
491
-536
-1156
-572
1103
938
1495
683
832
-829
1162
520
-77
649
-1025
-261
-81
898
-998
837
-765
53
267
-692
-1169
647
-622
984
-660
1163
-1295
-814
1139
-431
-1407
-649
1099
-636
-683
-766
327
-36
80
-184
420
241
128
124
-30
-145
-165
-141
-213
-314
44
-171
145
35
-51
175
33
44
100
-2
-378
-22
-206
116
243
194
198
39
-27
-38
-265
-261
-35
-125
163
-257
88
297
205
-95
103
-226
149
-69
-326
441
456
558
-108
740
-675
-569
530
-1551
-1641
-701
800
382
861
1097
200
-507
698
352
-697
528
-849
-266
-214
-233
51
-551
-241
291
587
-616
-233
1589
-15
-318
177
-784
1193
-994
663
-60
870
-636
-179
7
-182
354
-427
244
-1088
751
241
532
-1187
-449
120
-955
-1324
-541
775
754
1376
166
378
-1013
728
521
-538
598
-674
-134
108
578
-941
496
-540
503
-47
-1
-744
751
-679
761
-651
681
-651
-459
718
-652
-309
-788
505
-860
-437
-479
744
96
235
-106
217
-43
-132
170
-108
578
48
-79
-394
774
319
94
-215
335
-697
-306
172
-566
146
154
-697
-157
-336
-62
298
-232
-91
354
-410
-349
-153
-134
-229
249
426
306
-516
-206
-16
-517
224
-81
-264
271
-266
648
1084
-28
-143
369
-268
-576
-305
-1069
-848
-221
327
429
-160
1061
581
-588
779
186
-82
604
-399
-261
-193
484
842
240
-272
-940
-664
368
974
-408
-177
-251
1492
782
185
-84
-459
55
-429
1933
213
12
451
595
-1176
241
-284
420
268
896
-1168
-448
295
-1888
-1783
-788
830
1314
1739
650
547
-1218
1279
297
-223
1044
-587
-549
184
2119
-2090
665
-2307
57
2135
-2005
-2513
3446
-2528
1878
-2150
860
-972
-3149
3065
-73
-1005
-2076
1771
-2617
-1550
-2405
310
104
253
26
28
353
-474
399
-76
-3
241
-337
-99
-320
-192
-202
122
194
-117
22
337
225
390
314
-112
227
-29
-263
-17
164
-270
10
165
118
-75
295
183
-163
-387
-655
-14
-467
479
-63
-457
184
139
44
77
-5
-621
369
-573
-480
-169
724
-131
759
1729
385
-695
-119
-1140
-1158
-1020
-122
-525
118
32
-666
670
930
-361
-390
989
-357
474
255
455
-164
390
-760
558
-513
1248
-508
106
580
-1194
-192
86
1149
-199
505
1499
382
122
269
-785
-220
61
-556
516
969
530
1140
1258
838
-445
-768
-428
-1176
-287
1046
-1058
-354
594
-1152
777
129
253
-1027
471
-414
605
820
87
234
421
-421
1175
-725
-111
-869
537
583
169
-496
424
-276
-353
822
369
175
-314
334
-56
375
-481
122
185
-338
-220
18
126
-214
-209
-390
362
-555
306
429
-540
220
71
-259
-124
-102
28
-364
-53
189
-196
140
-290
138
-116
-104
-178
-79
-152
-135
-19
-77
-11
235
-365
115
-246
-396
291
-132
215
224
1
661
-39
420
-955
-701
-308
-911
-307
-556
217
981
111
191
-464
-423
1004
300
-665
591
-955
318
639
-37
-1880
-434
-789
594
692
-904
-1023
1161
-251
203
-1800
-236
8
-1015
1547
-40
80
-1966
325
-789
-1427
-1007
44
-685
-803
-675
544
-1054
466
887
861
680
617
1179
-767
-273
670
-375
1215
738
-68
-895
1179
-671
1254
-978
669
232
337
568
-643
139
481
255
200
164
-225
118
-346
356
173
629
-547
829
-214
-254
296
-42
133
316
-833
22
-97
-133
-227
195
552
-402
467
-364
273
480
-45
-324
-286
-259
-554
-194
447
189
-26
-152
-288
-77
-143
294
-78
-271
145
346
-17
-463
231
91
-13
549
-85
13
33
169
-5
2
123
-355
43
140
-63
-156
35
126
-329
-792
821
69
457
397
587
110
-943
422
45
-294
952
991
584
476
60
-445
-69
528
-289
-446
193
667
-174
400
7
-239
-20
269
-60
337
-558
309
263
83
-662
-323
154
-26
123
-49
347
-516
157
-528
-187
-301
521
-640
-331
-303
-341
-412
-858
591
743
-50
113
-1341
-583
-336
-66
-323
23
424
957
-1171
853
-93
70
-85
565
-426
555
178
-412
299
551
-538
62
-517
150
-116
-333
162
255
-633
-243
-159
-318
82
49
126
-58
-27
-202
-278
-127
-229
125
82
300
48
-10
-513
-365
276
-72
227
-459
-20
67
-275
-194
285
218
90
-300
156
-225
356
175
12
-224
-65
-232
10
-224
71
-132
-356
-161
-187
20
-72
633
244
-412
88
47
27
-486
-448
868
-735
-321
-591
-224
192
143
1060
782
-272
166
-1149
-1556
-1062
590
-225
-639
-338
532
-1052
968
130
-41
-363
1562
785
926
-631
-672
659
1290
-1323
311
-663
1513
300
44
1389
-1329
67
-15
1902
-619
693
1379
664
-500
320
633
-32
76
514
827
444
-271
291
474
207
201
-405
-122
138
-399
-51
-224
247
390
-22
180
358
-27
-128
-350
-467
183
267
-33
-362
-308
-242
-37
-160
-487
65
-13
-106
586
-491
145
-337
-617
-329
-300
-216
625
202
-230
6
393
-114
-210
137
-199
571
-315
-343
-250
66
-31
745
156
88
-191
-17
-391
-281
-442
-224
-321
-477
-37
-175
-553
-606
419
-95
-163
-687
-123
186
-149
-184
309
16
-137
-200
-11
-178
345
57
38
261
253
-420
155
62
94
-575
-323
-297
-445
310
-110
-641
248
-373
-272
-21
-540
-62
353
283
-194
23
240
617
-243
236
-1130
-1038
-130
-592
671
-51
96
-366
362
-5
-1602
-364
-136
-333
1072
-325
-21
-561
-474
-1182
-704
-582
1199
-703
213
-1047
-367
-378
871
1134
379
1088
1087
1124
-961
-1144
-1263
-1162
300
628
-1065
-1061
813
-889
936
-221
-216
46
853
524
465
-283
-1074
1473
821
-922
347
89
448
195
296
790
-1429
13
-232
969
-193
752
933
228
-217
-126
201
-138
-210
314
46
62
-45
-68
-98
-139
51
-37
470
422
176
147
-670
-67
36
36
71
-170
155
73
-161
92
143
-87
-140
215
-131
-328
-113
-125
-325
168
-289
-67
2
51
164
31
175
227
382
-236
290
1405
-1835
1171
530
492
-201
483
1363
-420
-1032
-255
43
1404
1146
-711
217
190
14
39
-748
653
-1214
-344
-128
155
-1465
593
-520
476
50
-68
-1584
843
-640
1013
-857
460
-194
-1232
873
-195
-237
-1456
1034
-619
-1113
-637
441
1032
-1336
974
1194
938
-899
-432
781
-1395
-1676
-883
308
885
2368
1155
995
-95
1105
418
-1195
1214
-1496
-575
184
1336
-1640
79
-1037
-1734
2006
-2323
-1673
1186
-1121
1027
-1053
1187
-1449
-1805
927
490
-1499
-589
1278
-1357
-1332
-1462
1538
-387
38
-172
55
-309
161
-506
353
580
-119
357
81
426
-218
-24
-277
-448
-245
-175
8
-371
-325
-694
-221
-155
285
20
-39
13
-414
-45
216
-1
-111
-58
-139
-41
-259
701
102
233
-189
62
228
-118
15
198
-343
466
17
393
-799
282
-1011
-341
-894
-420
686
-621
605
35
-996
-216
-546
-1026
283
691
263
-184
444
734
589
-853
-547
-1172
116
277
-338
210
604
-1281
201
-445
80
-280
-491
1460
124
-886
-311
31
-744
466
44
-51
797
-459
-44
-187
203
-384
913
1179
350
421
-73
564
-296
-363
-4
-544
190
920
-901
-1078
83
-290
120
-548
254
935
-278
481
12
-1128
136
478
243
-81
-359
442
315
256
520
60
-1595
738
-266
28
534
-69
-42
-3
-530
-553
146
-103
-471
-204
8
-382
329
-231
-303
5
459
-200
-377
-604
-22
277
-75
833
115
-443
-170
-268
407
417
98
-132
16
359
-452
-225
-14
113
444
346
135
108
-120
-214
126
-150
644
260
122
-115
-331
-163
196
49
541
-23
-65
131
-398
-869
-128
-401
-698
-412
54
-93
-445
913
-435
-246
239
-27
-436
900
-530
112
-280
16
-84
-93
-35
-440
-264
-208
513
-42
193
-371
601
-211
-152
106
495
-722
-474
563
-318
-468
359
365
37
323
-933
593
928
377
-114
647
897
-289
-698
211
317
512
713
-4
132
456
-172
236
38
33
-475
-549
339
28
-486
509
433
1434
-177
908
-183
1136
44
138
-584
-572
861
-237
974
-394
1318
-626
259
-319
-193
-521
-977
-301
200
-166
-237
-74
-231
-39
210
118
-384
126
-130
251
-287
-268
386
82
-536
135
1
53
-114
-178
-70
-168
-203
-130
-188
209
-190
180
225
31
123
150
330
68
6
43
-6
211
371
188
-43
286
200
-66
138
253
-135
511
-226
399
796
331
445
69
-221
101
181
691
-520
12
3
129
-607
-196
-1271
1102
-984
469
-650
-260
-83
544
310
960
-705
711
-126
82
31
93
83
-284
733
547
-161
-321
708
-306
424
585
-473
412
-717
188
426
194
-268
-179
816
689
-466
383
323
249
-356
-378
-121
79
-1339
1178
-353
-23
-276
61
-5
571
-374
576
97
-518
-544
-578
934
-964
66
-209
625
-554
-121
-221
169
141
-199
382
47
306
-669
-52
98
21
4
35
472
-453
140
-396
103
-190
549
43
-10
262
363
431
112
42
290
135
-39
-201
137
-30
-250
-593
143
3
157
382
-170
176
2
104
385
507
-173
556
-334
221
90
172
-288
-169
113
236
277
118
123
-6
-82
36
561
-645
-177
-138
467
223
265
1475
616
35
-388
-1170
-1049
-751
-1418
579
-988
-34
969
-1176
1222
808
-255
725
14
-747
-581
-1109
41
-1031
1026
-1635
387
-756
471
101
-499
732
-1139
-95
-627
1144
-737
-205
-32
39
701
313
28
602
-173
838
-288
-323
-330
337
219
-447
812
336
336
83
64
-846
845
680
-714
710
-785
582
-422
-454
-543
203
-36
1648
-1129
100
-677
27
86
563
-278
107
-368
680
777
-310
-14
-1065
146
526
-732
-275
48
37
-178
448
471
279
404
238
29
-88
27
10
60
-177
179
85
243
142
-62
38
-239
247
-37
267
-212
67
-215
19
-212
-496
556
13
-279
-4
-5
421
-5
45
14
-277
-439
-197
58
-39
-310
49
463
-441
323
-13
491
-528
-527
-760
74
305
23
1138
548
388
-255
-702
-811
-1093
-382
-135
-834
-358
-235
-200
447
455
118
-1166
1627
42
1375
217
-678
1068
1148
-1243
1004
-631
1660
266
527
1902
-1348
-84
193
1636
-917
1280
1334
1389
-550
912
-256
852
201
874
-486
-698
-285
-1129
-953
-384
-147
1417
641
1202
-1046
713
699
473
-1252
851
-1243
208
-239
538
-851
-907
-1056
-1591
1649
-1820
-837
1246
-876
138
-82
141
-315
-1606
949
381
-689
-352
303
-1447
-780
-413
-222
-180
103
-174
22
-372
19
-147
286
301
-41
741
340
-445
11
-77
-329
-285
-101
195
-374
50
-294
-570
184
292
230
-193
-394
418
-93
-118
366
-469
-92
235
-13
67
61
-89
-118
-238
57
-295
188
-206
-550
-107
31
250
-1371
555
234
416
-1366
-731
312
-1501
-1294
-396
669
1204
1080
378
1174
-586
684
429
-610
1374
-1143
-1209
294
466
-1351
627
-316
1179
-33
-396
-1927
1600
-912
1115
-1226
497
-1445
-1616
2393
-681
-805
-1266
762
-1176
-515
-1239
505
800
-575
130
186
501
99
20
413
-357
-926
-345
740
65
795
116
966
-36
143
52
-87
337
-548
-555
359
677
-302
-275
-172
-1290
366
-903
-514
327
-727
534
-110
1129
-1367
-403
773
-305
-1503
765
893
-347
-218
-861
703
-243
148
456
165
-163
-134
404
175
-107
-308
-199
179
-62
24
-310
122
410
-363
-468
-142
-51
-167
-190
295
226
803
63
-128
121
14
434
237
287
315
-217
-356
-217
39
-402
137
108
781
428
-91
-495
153
155
-168
456
-75
356
62
-212
463
652
148
891
698
609
-401
230
-296
-376
-782
649
-520
235
-251
-232
-220
937
-246
-841
655
-1210
257
31
-361
-599
769
-834
604
-830
799
-473
566
511
-714
-113
556
362
-649
720
-209
632
-48
592
-1215
666
108
-289
-283
-102
-193
293
636
283
-372
461
-2
-539
-1104
843
51
180
-581
204
-45
436
-306
-789
309
-485
340
705
981
-393
249
-481
710
-291
229
-508
364
-46
5
-407
7
574
-661
352
560
212
232
-137
403
282
-455
170
173
-207
223
163
-110
-183
-221
-59
33
-254
102
253
-144
-489
371
-212
-76
-25
20
-532
-19
215
-322
-159
-228
55
460
412
-359
26
-256
288
-11
-19
8
-281
-22
104
166
147
-225
1
-418
525
553
174
-7
566
-783
-975
-1285
-965
-734
-1169
921
236
557
944
364
-1297
1267
445
-947
1018
-688
-354
136
102
-1531
-1331
-922
-423
64
-1258
-1147
536
-364
461
-405
945
-1247
-1377
1241
-543
-1577
-345
417
-969
-603
-1311
686
-168
61
369
-225
124
-200
-7
-20
-719
-309
-107
-93
959
569
581
217
-79
290
247
-277
524
-699
162
-496
-343
354
184
-351
657
-106
155
-542
511
-134
61
301
-6
609
-130
18
467
509
-463
-90
218
-60
205
-462
122
-181
264
85
786
201
58
-382
-540
236
-139
209
-174
439
-457
345
369
-151
231
427
-43
309
426
-6
248
52
317
-201
-5
176
113
483
-31
-362
182
244
87
239
-103
318
238
25
443
-163
73
-3
-432
-174
-771
1330
-1256
133
-975
1172
671
-398
1287
1021
942
-672
-659
-301
-646
63
248
-645
-422
1087
-1076
1397
303
284
-1415
2082
-28
871
1247
-489
843
1200
-696
921
-873
1266
-1041
1141
2007
-1193
218
1178
658
-865
1537
1318
1711
-872
417
-299
321
-417
385
93
-71
513
700
1182
-287
166
-770
-1158
-925
-1083
602
-343
-96
-26
-591
559
710
-663
-423
234
-285
208
-299
244
480
475
-892
709
-728
148
10
-123
739
-546
-997
50
0
-691
182
-79
214
525
434
-278
162
-87
-100
172
-420
-69
-71
292
255
198
44
537
-494
-260
179
-98
-91
280
106
-110
212
-137
35
-68
443
129
36
122
91
-101
404
-450
-285
459
44
436
-60
28
-198
-318
267
-170
224
-228
-150
212
-43
-1508
-129
447
-336
113
1020
355
1145
1464
1142
-844
-251
-513
-1343
-1407
965
-593
-28
712
-1248
864
541
701
-1318
1245
-965
34
3
792
-601
1157
-1775
1137
-1110
233
-1042
234
1438
-1513
1093
262
498
-506
1379
-50
1263
84
127
-175
741
-264
350
-361
-720
-66
92
355
-494
176
304
-196
39
168
-879
576
396
-965
637
-384
306
-105
175
159
323
-192
1074
176
-301
-577
409
-291
60
-96
-164
203
-179
383
57
-40
-625
289
347
48
-276
-261
173
-56
179
58
136
124
187
-99
-438
83
94
-52
-181
-247
82
55
79
492
-226
-40
134
207
-252
177
122
345
-341
-458
-363
139
-136
-420
44
-153
14
-72
235
-150
210
-32
123
2
474
-231
-92
-123
37
-142
-143
-1406
291
710
34
-597
771
854
-702
-929
476
-315
176
1283
-114
2062
176
653
-59
605
-37
-445
-1356
1364
1295
-1314
1180
-595
471
-60
-482
-1828
1276
-940
1246
-1735
1032
-778
-1402
949
166
-457
-1069
970
-994
-871
-1233
161
-448
1130
-725
87
-814
392
102
-263
585
916
-300
-584
-1030
-768
-93
-152
245
-872
-534
416
-555
1073
319
436
-937
357
-963
685
-195
-372
68
720
-1007
909
-965
-259
-340
-155
1037
-772
-87
270
269
-663
745
301
234
725
188
-42
331
326
-409
-123
-67
-530
101
-334
-330
-218
981
27
245
4
-374
122
-664
143
-453
131
445
-226
-371
-103
281
87
-469
426
-183
-21
-385
-345
-53
149
-111
289
5
-597
19
-393
-320
223
64
42
501
-473
-730
-179
-1187
-286
-957
1444
707
-81
1411
1232
1285
-1324
-1201
-950
-988
-196
903
-1395
-1201
1059
-1371
1696
-199
644
-370
517
-730
83
-1317
20
-561
566
-180
-127
-483
1030
261
34
-22
-659
874
-937
1081
84
-40
-103
404
-868
388
721
-96
-609
321
-783
-513
-811
-827
63
-335
842
323
145
335
-335
-1355
952
545
-139
-55
-514
559
-234
-565
546
598
471
1761
-555
437
-347
473
571
-334
-304
-365
322
256
814
185
297
-373
107
893
-233
412
-1131
-77
-1
268
-443
-62
143
-147
-254
217
-707
136
239
105
-21
93
341
-374
528
151
-445
168
198
72
353
-6
-298
41
-165
34
100
-300
571
225
13
287
83
-137
95
87
261
-11
14
-10
147
330
25
51
167
-531
-215
15
-47
-430
-208
555
196
-403
46
141
39
390
473
-360
571
-312
80
-400
480
-256
-65
-1180
264
325
548
1181
-53
960
-212
692
-404
1082
41
350
-313
-574
784
-160
118
275
813
-561
21
327
457
670
-860
-303
1233
-891
133
148
-34
-417
-827
-131
-56
51
-428
-377
-889
582
132
-285
179
-176
439
-185
559
-39
426
535
252
-635
-64
-1632
726
-706
367
-2
-279
159
-53
199
-436
35
105
850
-549
198
63
411
128
-90
184
464
358
129
-314
-328
-436
-351
-1
167
-235
-67
-170
-109
-277
547
756
-82
163
-519
-289
71
-151
-88
11
-129
-210
325
-64
-346
231
-466
-484
332
-308
-607
-157
-425
-83
669
-528
312
-563
-660
380
-96
-459
234
190
-363
296
-259
-338
-327
-115
-358
196
438
249
274
254
-853
110
-815
688
-126
-281
-542
350
-522
452
-570
100
419
-212
857
-332
-326
-410
499
-44
-100
-331
541
292
815
-532
-242
-104
668
-812
745
781
-27
303
-414
-393
-690
1833
-834
-966
-589
831
326
-237
784
1260
73
-447
-1362
-1292
-189
-253
-154
-219
-656
-37
-852
797
397
-274
-177
145
-490
145
-1017
-417
203
785
-678
243
-663
-26
145
498
110
-324
610
172
505
-429
526
81
319
-683
-130
-99
-484
64
132
157
193
-416
75
-30
17
81
-61
-55
147
39
36
423
-184
83
427
-217
143
131
99
-76
-77
195
57
-2
-233
263
-154
234
-249
447
-268
327
28
182
246
40
92
-190
-12
436
64
-25
295
329
459
-816
99
662
30
456
411
485
135
277
-713
-749
-599
-480
138
-853
-70
-312
118
-155
72
-1407
-223
819
1067
39
123
-323
829
481
-727
559
143
1071
133
469
1041
-930
-268
113
1243
-39
323
751
585
-452
52
709
224
196
-231
572
684
118
428
-58
-129
-208
-289
-74
-51
-699
1111
58
164
-466
219
-3
644
-195
-93
84
-413
180
436
405
-148
57
331
609
-325
-199
-598
527
204
560
-472
392
-354
-594
-171
-82
-255
395
133
358
-140
741
-62
-291
-19
-88
496
42
-11
-261
607
369
10
443
262
-503
-268
550
-287
134
413
-268
20
-253
341
9
-291
152
543
459
-40
-295
496
282
725
144
10
-306
176
144
807
86
-497
92
60
670
-68
-106
-470
59
-218
-871
-759
106
-1420
-1196
-693
392
-154
471
588
722
-663
280
-468
783
219
-456
-1192
669
931
-710
16
-788
-1060
593
-500
-587
1323
-1140
485
-192
530
350
-1581
619
100
-463
1136
831
-599
702
-600
286
-115
382
-471
569
80
267
380
116
377
-312
444
-185
-259
506
-307
981
-98
20
-154
312
-299
102
-1062
918
674
-645
487
-459
-848
-564
1124
-83
-198
-937
557
-305
675
-16
-168
-362
714
-386
78
609
-427
-590
-799
-589
364
-423
-197
-79
391
-68
7
372
-53
-80
-158
34
-123
93
399
93
142
-234
269
135
-47
2
-63
259
102
-402
-314
152
80
-451
-59
-374
-107
262
-21
234
-27
77
-102
-110
349
57
-42
72
-45
109
-174
43
177
-528
754
-609
83
-174
-103
-239
532
346
-219
-237
271
-459
-202
-1033
-130
-53
351
-478
210
-165
1112
-121
-969
291
-941
796
181
-318
239
724
-818
823
-536
1035
-475
-68
1320
-239
-669
155
811
-1039
326
1157
266
566
956
-627
752
-11
300
-191
325
52
70
216
45
-319
333
-216
55
-856
504
15
736
-509
20
393
1154
-334
-738
337
-980
301
408
732
-641
440
-170
451
-470
689
-933
1095
64
512
-604
317
83
-360
341
559
247
-103
-91
-64
234
306
-6
162
-282
-94
-19
28
554
-86
-278
555
-206
-75
-33
-229
-101
170
-280
391
-264
-40
-224
418
56
-384
43
300
-66
-152
-103
-417
-20
-87
127
-103
19
25
248
-236
-26
-483
-372
-18
129
271
330
341
172
179
369
175
-235
-629
641
-166
103
-130
-5
-463
366
-1264
470
-50
-22
-919
871
-254
959
-809
-1495
435
-1863
937
-872
-620
40
1284
-1504
997
-1202
1016
-664
-381
1220
-229
-529
527
862
-1263
294
337
428
364
611
-379
1139
-709
642
-1284
-245
312
-1106
-212
-890
479
1003
-278
65
-40
-987
487
641
-592
145
-1012
263
152
153
-90
620
-175
366
-41
-121
-105
338
-470
220
-567
265
112
-311
331
180
-302
-11
75
-320
46
-15
-21
-123
-631
-289
15
172
86
496
-143
-514
258
-141
68
-442
-340
237
-499
394
360
467
249
-231
598
507
375
372
534
30
158
30
195
83
-5
-57
-139
644
-369
714
26
136
287
-211
216
407
-478
172
539
90
-321
