307
-289
-140
-207
-20
364
443
-427
-51
-25
347
152
1151
-406
518
-439
301
512
225
-294
-75
154
86
-791
109
-380
-81
-336
-790
-107
-404
-486
-779
-261
-270
-716
304
611
-255
17
-120
689
67
1108
330
412
2
-254
88
-229
87
201
-808
698
-117
246
-161
204
0
-946
497
186
526
-113
-691
441
1032
-177
-699
-37
518
-375
29
43
-202
-511
458
-182
-677
5
366
498
-340
407
12
-5
159
698
468
-135
-83
-336
-9
-1142
364
-944
-197
162
748
184
-179
462
372
-394
-276
438
-610
459
-534
-321
-61
292
845
295
-730
-110
909
605
-379
345
-295
-300
293
-323
322
913
153
-304
-443
-650
-690
-521
-35
-648
509
185
-765
931
-467
-272
-352
138
24
-2
-240
440
-158
-42
-217
-170
656
300
-330
-231
322
-29
-1060
194
321
192
416
-444
-61
-495
-400
293
-295
-624
347
-430
385
168
-191
987
549
-269
327
63
-1736
183
340
-871
203
-70
477
-723
-140
-498
337
-681
-539
-95
-313
150
-532
653
301
-424
408
319
450
127
592
224
527
103
-157
-161
207
64
699
-395
601
-523
-60
713
537
123
-355
-154
-448
-267
-539
210
-253
-176
-105
-477
159
-328
-946
354
198
270
-501
-300
722
-40
326
246
-94
401
354
-634
-301
-366
180
-737
-29
890
-479
243
-320
444
549
-431
-119
-319
-49
469
321
-52
110
-536
-642
509
296
-326
610
302
508
70
-495
-291
-630
288
-353
286
-66
315
-609
570
423
-289
-63
197
336
84
230
94
386
-618
-63
-823
282
-223
193
-200
52
291
-285
180
179
-175
93
-119
617
-274
213
475
-199
-19
-29
604
-471
1
751
250
333
-35
-464
-625
309
-410
-1092
-292
-533
740
269
791
-402
-251
-105
680
-7
630
913
-507
535
880
-467
-551
358
-50
-44
-316
-66
901
57
123
-435
-653
500
316
-776
95
544
449
29
622
-212
229
195
-77
104
473
-165
-310
-795
-119
164
-954
-265
490
743
87
243
322
-450
-289
166
-456
-203
-372
36
33
229
-413
132
-1222
325
631
76
-1
334
-357
-421
226
249
-285
-152
-129
71
-725
98
-159
520
-241
-458
178
463
-60
240
-442
-276
-173
-110
-580
481
301
51
302
-699
-224
1048
-68
407
-344
-2
212
602
-60
377
-138
-353
698
590
-939
-34
55
150
509
-183
-62
-540
42
-160
91
-475
-359
437
-217
858
-313
-25
332
197
136
-862
287
665
-241
90
492
-586
265
-138
108
-450
-348
382
-219
19
325
-243
-321
-9
-810
871
145
276
13
-428
168
151
47
673
475
-79
-323
697
-145
-169
-33
-66
-360
15
40
727
-547
-276
220
-101
-266
-67
-288
-137
737
-705
-173
111
-375
-528
-81
117
-581
-377
93
-148
-125
135
-148
-414
87
539
-102
3
134
85
-119
186
20
-241
-75
-304
-301
214
-552
-38
192
426
-368
-366
20
174
141
81
-45
375
278
-464
1140
143
210
-18
-201
753
1393
-292
-195
-164
599
812
-252
-222
-35
827
44
-375
-658
-275
-6
481
-226
-335
188
-682
267
-1174
-433
380
-209
-302
-109
-82
268
221
846
830
403
-33
444
148
-336
-172
208
114
-541
-176
-362
43
163
-110
713
-590
-329
162
222
-221
-203
-340
-432
-337
-475
-139
309
-593
282
41
121
-21
803
95
711
-573
405
-16
-215
-721
264
153
-37
-563
686
-382
223
463
291
419
-283
551
-41
-112
167
56
253
111
-335
-522
-1107
-166
-368
412
-179
380
289
231
154
-38
583
-717
-305
35
-404
-52
-84
-111
387
844
-611
877
-379
-201
219
-375
-285
-673
100
220
-133
-317
-222
-520
921
1430
415
179
-99
569
-73
560
559
-356
-84
3
-234
-1099
-200
-39
-269
159
131
127
86
-255
-274
326
-599
-874
-82
-220
317
46
-342
-145
-308
614
-125
185
-361
-312
347
223
-187
275
-105
-35
763
-483
517
-502
411
-641
80
-635
-305
-367
-724
6
130
279
68
113
188
-116
-36
624
376
152
479
-309
703
-460
148
-345
547
-145
-652
-677
566
366
-405
-531
297
398
104
47
-36
37
-12
446
-715
299
34
-364
27
-112
-437
-161
180
44
-491
-488
484
-113
-554
497
48
508
529
-618
660
56
391
107
-170
-246
511
-1118
-412
336
79
931
231
25
442
-191
-258
-364
-254
402
995
301
496
56
327
80
-693
572
-449
195
332
114
103
-523
321
590
231
-411
436
-34
-310
-130
-9
-130
-190
-289
350
-109
-290
-14
486
137
187
145
86
508
-306
348
-215
-879
-807
-53
118
131
411
110
31
-79
-126
-573
459
-424
86
374
346
-614
248
-762
437
45
179
-718
97
-19
-722
205
-52
-35
-42
414
284
793
-449
371
487
-124
-408
36
18
-396
-344
776
707
233
-465
936
126
-273
-568
-251
107
-30
823
-121
-179
459
-132
-32
-298
-182
10
53
308
-472
-417
548
19
408
796
-621
266
539
243
156
34
-33
-34
409
90
-238
-516
-341
635
-41
-138
-272
-168
86
633
-654
-90
-283
-72
458
-73
859
-337
-824
-389
-462
-63
193
-558
-207
183
202
686
-146
-321
-372
-327
-356
-986
-416
-438
-456
759
-415
996
-217
708
220
99
-283
123
-347
380
-605
134
-54
-419
-10
-58
-695
-314
-145
32
449
-29
378
-514
-724
-1379
-23
-160
22
201
-259
-47
601
491
306
231
-137
536
148
313
-209
-389
-1
439
326
490
-282
-674
-241
279
193
-173
86
-225
-820
-760
-191
-229
17
-290
339
13
102
-268
-354
280
756
54
-422
-543
387
342
730
415
-573
-301
-44
259
-591
755
-1219
141
533
1120
64
1221
-3
234
-445
-500
275
-790
423
-553
-345
-165
599
67
169
-436
-128
-503
340
-147
320
-20
78
276
-258
511
153
244
122
507
76
-194
-75
-148
296
-190
-427
110
405
420
630
-179
187
-335
857
-293
-264
-662
106
177
645
64
-534
113
-537
365
-468
125
-393
160
-135
560
787
375
30
-317
-13
317
833
210
-349
-158
475
385
428
-255
125
-36
-558
301
-507
-290
357
-415
770
-367
-182
-138
283
-813
-242
358
-239
-373
-240
322
-744
-332
333
-30
-368
251
-849
100
-505
97
-253
276
-273
-205
296
-2
-398
232
-723
298
473
52
-474
511
-212
242
235
408
12
684
-524
-375
-264
-504
-485
642
-245
225
827
559
-356
-297
84
146
537
139
284
56
442
598
-96
-116
-470
-562
-626
254
-700
893
-361
830
-60
760
-118
168
-425
303
-455
188
-627
-33
104
279
-160
527
-30
-50
-267
-102
-445
-85
-186
-141
692
341
144
365
-941
-397
-293
532
-473
975
-600
33
-205
-772
-187
35
678
262
376
15
222
24
-248
-303
335
-37
-288
-496
4
64
-531
-236
-89
-620
145
302
-541
119
-150
-272
447
-552
246
-923
-296
-671
-108
6
-446
-401
-49
269
-325
299
339
164
-42
377
98
46
1
207
489
590
119
-397
86
100
189
-549
-424
152
-689
-67
100
139
237
485
-127
-264
157
-101
212
-15
-204
483
267
-142
534
-73
-52
-678
562
-324
528
-130
17
-177
-464
-681
-339
327
702
124
208
-261
-190
-71
-126
212
-42
-424
-454
-503
-258
288
475
-308
-132
-57
-8
100
-223
-326
42
108
511
-38
-426
332
-166
-391
138
-511
253
-277
-179
341
-200
-267
541
128
87
347
-23
-354
552
307
444
429
461
202
1408
65
273
-600
49
135
-270
-1121
-573
-160
282
-420
-48
-210
504
169
-387
642
61
13
433
-231
206
-70
-455
401
-469
-196
56
-151
152
786
-78
-118
-274
-130
143
-294
-317
168
229
-245
-23
-64
489
354
-68
120
506
-223
1
-355
-325
-239
-325
-214
181
452
-91
-80
-46
-124
669
-530
175
-22
19
106
-121
74
-784
56
-339
-321
89
-494
-188
365
-302
654
93
663
-454
-741
-58
-120
375
226
-11
-127
-493
-347
209
-434
165
412
-243
343
889
420
-186
456
271
284
249
117
281
456
437
504
-679
1264
-592
-498
-50
-567
259
171
-1048
34
-516
-353
-161
-522
890
-318
-171
162
-557
261
815
129
-109
303
-115
363
-21
269
551
137
-282
838
390
141
-142
339
-330
-617
-294
46
-143
-980
282
-176
-818
-68
430
-105
498
-243
-6
550
536
637
-628
310
-153
345
615
-372
-148
-54
-172
-91
168
300
555
-639
369
469
252
-629
-175
-364
112
692
227
604
-272
776
-227
-177
-943
-111
39
-390
12
-175
-205
336
602
-490
-90
232
-140
41
-370
40
-48
-314
230
203
-683
61
-225
-40
-131
-6
648
-379
12
301
180
-59
219
279
353
70
-120
11
282
293
-367
-393
55
64
-742
-268
123
328
-460
-50
47
-162
73
50
-334
-99
276
-111
53
-324
523
-390
900
765
-210
-41
637
-199
-42
-229
-286
30
-361
168
139
-256
221
-215
-480
-423
-225
-59
261
-79
-65
127
-695
-305
-110
251
436
-237
11
-276
80
384
-391
536
-599
366
707
751
89
-80
260
760
-206
366
-203
-756
329
-578
135
-175
360
-55
49
80
705
460
-12
-478
710
186
94
88
707
-880
195
-518
-369
482
-406
247
-301
-325
207
-217
-275
490
21
86
-186
-743
911
-416
-40
-565
10
42
233
90
58
-487
-87
-128
-19
-638
-528
167
-76
-177
-70
111
46
1018
308
-297
-206
63
-106
404
-330
-254
-92
592
-560
782
268
72
9
1112
58
-218
811
-414
-2
218
-24
-443
-511
-112
-183
1079
-378
-178
150
-351
-41
233
-595
-849
223
592
-338
-645
-46
-952
-394
-87
37
185
-193
-176
631
-157
-178
195
434
-54
1
485
123
-175
13
-507
393
-320
108
137
1114
-340
513
96
181
197
-144
163
178
-1
-578
-955
-378
-233
684
78
-247
-185
331
817
-404
141
368
209
-279
-51
282
-78
208
-249
383
-273
-498
-433
-119
-386
35
-73
-7
212
286
155
22
137
-616
345
520
-73
-227
645
88
-652
37
-183
173
-29
456
189
-2
-653
686
-354
74
-418
-4
-268
-191
112
320
51
581
117
620
-217
-210
264
-274
-80
-417
344
663
-140
-54
-203
-371
80
-397
238
-306
361
-39
-132
8
-573
-452
500
446
-834
467
-113
130
-180
-488
-242
355
283
515
-279
43
169
617
198
-153
454
-304
-639
51
293
-76
71
-251
129
148
722
-262
-55
375
581
677
-312
-356
-972
-259
-512
-315
-356
538
368
-807
-1271
-554
-534
413
-129
-195
267
757
-156
175
80
950
-205
-277
858
215
105
105
-98
-6
-148
-281
-459
-194
621
364
8
219
349
295
-114
-139
192
-252
-363
103
7
-349
-177
132
-110
315
-56
403
-259
193
-184
539
-836
266
-123
-529
-560
368
-7
-223
-51
84
-41
365
-182
64
357
39
127
357
182
264
251
364
-913
-36
-323
68
262
-345
-233
-395
137
-186
124
500
-340
30
48
129
448
362
138
-92
-4
524
200
108
-323
499
-713
-39
52
2
-218
-928
-350
-465
441
204
114
506
383
-836
184
507
-753
215
-169
259
487
420
-269
-69
188
-342
677
191
-390
-813
895
-351
593
162
-818
36
742
557
127
243
147
226
-100
-407
811
-630
24
-339
471
-751
-202
349
-116
-892
180
109
-239
379
-315
526
707
-500
-150
-440
46
780
-856
159
465
211
-513
556
-829
8
579
-180
350
-990
478
802
272
-310
-587
81
766
1221
258
229
-148
146
424
-607
132
461
-72
118
791
314
625
436
572
-251
521
-660
-209
530
-522
-1090
-413
-234
284
-1118
-123
-69
-1011
-344
-219
-668
95
-468
-334
436
-522
-688
-393
304
-155
-70
361
183
393
-732
-234
749
183
-238
88
-114
-248
4
18
314
-648
262
-80
224
108
223
273
70
335
12
460
43
-93
641
-520
-685
-174
938
-221
-220
-214
-29
475
-76
-275
114
338
388
-79
684
152
-327
443
-373
141
482
-383
209
744
348
66
56
-485
447
-94
32
470
261
227
580
51
-367
58
-299
-558
-513
787
-407
-172
-704
-934
-343
-254
-91
456
528
-649
-73
26
-357
-301
-62
303
122
-84
-339
-128
-871
-146
-480
29
172
-298
-128
386
-316
354
36
-75
-113
-522
456
14
-277
478
-17
542
-191
337
-664
-294
-157
-95
-130
-304
184
194
-591
-8
311
-203
173
-103
1024
331
1024
299
140
438
430
694
666
-653
