-467
67
-623
383
-548
565
-269
16
-479
181
-634
130
17
209
-456
341
9
142
-171
-193
189
-595
194
250
572
742
472
-37
450
-494
71
-1162
-524
142
-1001
-751
-592
-751
557
345
110
359
-1035
29
258
151
186
155
762
80
-270
48
302
-421
-208
-145
246
-143
314
-1074
557
-1009
206
276
-709
203
165
541
307
255
21
-147
-219
-700
-89
347
-60
171
-95
-151
351
167
-162
-161
40
62
75
266
-63
321
90
-783
132
139
64
-106
39
42
1
189
369
110
-401
-467
-16
673
-197
563
-435
399
-466
415
-378
689
36
524
216
6
244
762
1096
-286
-176
-38
-361
836
1037
-288
47
-469
-278
-121
194
248
285
324
96
589
-261
189
-27
-88
-338
65
138
-75
-201
193
-411
-149
88
278
69
141
100
-43
-217
211
136
252
403
88
-36
-204
-150
-415
61
397
357
319
-163
-55
29
43
-19
-93
36
-43
-922
183
178
-398
121
587
-420
-41
225
-235
-548
-527
-408
-106
238
196
-617
133
129
-450
-824
761
124
18
797
-798
-100
604
-753
216
416
144
96
260
4
563
-118
-651
-361
-655
-104
389
-561
41
-168
331
279
-573
-845
-137
343
465
162
247
-305
-219
-109
-427
221
-55
47
-378
875
-525
-547
-58
114
736
-126
-510
-188
284
487
-392
354
-363
422
293
-204
22
82
30
-243
379
-28
461
-114
-422
287
21
351
897
547
318
-97
707
-79
-34
312
-146
-229
214
283
852
352
-634
-325
-757
-218
-890
528
-603
625
261
-436
346
497
912
-195
451
111
-593
717
-1151
-161
93
-836
-567
694
-231
-195
70
394
612
-293
-95
-288
48
-297
746
-661
-220
-238
113
-536
-219
-281
439
333
250
484
-186
-303
-149
245
177
-283
234
89
-436
73
181
-53
236
-50
-191
-306
91
-570
-128
-589
-178
-29
427
-210
-67
-85
219
438
198
-370
-59
203
474
69
247
-334
-407
62
444
-176
439
95
-100
711
-184
389
288
-146
-276
54
-228
244
-194
97
-52
587
-1003
151
-847
-965
187
-376
799
817
160
758
-654
652
-249
-325
639
467
-61
26
-129
-304
446
775
-507
-310
822
85
-608
-111
82
-1106
240
391
305
1095
-181
-534
-205
142
167
-302
-356
-323
-267
-19
487
-624
577
-103
-198
502
-238
-423
-370
992
543
-739
-182
-32
550
-448
449
-993
-67
-224
-56
-487
256
-255
-322
-324
-375
-492
169
-224
33
694
368
41
-302
-150
306
-306
525
-418
-451
341
-479
597
-201
-179
746
35
-184
93
-266
-883
32
-702
-132
-638
-363
-257
338
168
633
199
46
-360
-30
819
118
-236
-798
139
-915
-300
-90
-674
258
107
-307
600
-389
-227
-1105
-299
319
-125
-205
-114
65
-241
-764
116
120
162
353
343
83
53
-202
323
-490
437
-119
-208
22
-13
-208
-245
116
-118
196
-292
-95
-13
337
257
-39
92
301
-212
-148
194
-162
147
-464
191
-293
-324
249
300
83
139
-71
-44
-333
13
-44
-120
-581
159
-166
312
43
-84
125
-407
499
-339
-221
561
314
89
-566
253
-447
1282
-224
97
246
673
-726
-462
96
444
473
610
-621
1200
310
-139
-226
-527
225
-615
-724
70
392
-478
498
423
820
793
-845
-91
3
-138
287
525
-288
4
-512
-665
-306
665
-520
-709
-85
-343
1157
-150
337
223
-528
113
-85
60
-1269
-142
447
357
522
520
512
481
-511
234
-550
-187
-84
1407
-43
545
94
308
-794
501
150
-337
282
-577
-440
250
-594
218
40
-270
556
389
-338
1112
-1025
-287
-178
-33
-691
251
729
1088
441
362
60
22
-368
160
90
-348
729
-462
350
17
100
587
-1211
-77
-1063
-1416
455
181
701
340
1240
-152
-816
429
-509
-698
-810
298
-209
-38
-548
-178
-139
-126
-57
-216
-339
-176
-205
-3
-29
-168
-142
-110
53
67
-46
135
-18
184
-99
165
121
-250
-75
201
380
317
170
373
-590
179
45
-263
267
148
0
-59
-280
457
462
211
-104
143
292
297
-68
-210
-234
-702
133
65
753
-563
7
509
26
168
-323
571
-163
557
-280
-690
-608
-199
-219
-689
447
816
-374
251
-502
754
-313
-648
-168
-778
410
-262
521
-738
841
375
-1091
-530
-848
-1043
584
-397
516
-463
216
138
-390
-329
-381
-197
-256
-257
192
-562
-245
430
-398
277
-364
48
-275
636
-10
-201
68
-155
378
91
-375
-44
840
-436
-280
448
480
126
-550
677
-1091
-802
-850
-1337
-599
-731
1234
102
318
1193
-882
1031
-898
-542
1727
930
734
-1107
91
-649
144
1376
243
331
1385
-736
-293
235
392
-583
-684
-332
-733
-919
-988
-1542
-867
967
1436
-842
-99
-870
-469
1387
148
-696
1083
-599
239
1132
-549
-1334
-1225
1756
991
748
-416
1439
661
-529
-1447
-346
664
73
-470
166
-486
-272
329
-49
-208
-178
-426
97
-10
-373
-372
-172
-163
93
109
-64
47
244
177
145
-48
-848
-156
-246
321
-265
353
231
195
-283
-85
514
-162
-273
105
392
-110
306
-188
235
158
205
-410
59
10
175
-45
171
220
105
86
-139
337
-82
-196
-161
-47
-58
350
184
-40
-251
-87
909
278
475
-4
1482
-1045
50
-494
-545
357
-631
-373
241
-583
-316
-668
281
-346
695
-315
-1156
1260
-257
-765
492
499
117
-365
916
779
-407
59
458
1018
643
958
-711
-661
346
-39
1344
87
-439
-731
415
-843
308
20
-783
-165
-143
507
-544
-417
-719
-215
-1174
-13
1943
554
-83
-873
-119
878
1198
148
1261
614
1432
-1559
-909
-857
-1249
58
-899
1205
1366
-1931
-512
-574
1377
-142
1379
-1762
-1985
-56
335
-1753
823
34
161
-1046
1447
-364
108
571
429
1563
858
705
-428
-843
879
66
1162
110
-465
160
973
-870
1618
-1021
-1412
-1732
-724
1053
-941
-424
-1614
1739
-1192
-931
1437
619
-1979
-1673
71
131
476
-9
16
254
-389
-236
130
43
-169
1
424
450
-200
169
-377
40
235
304
-35
253
329
-152
-251
49
17
97
-237
-163
368
6
-353
-94
191
366
162
-219
-262
122
27
217
274
181
-45
-388
-237
-72
96
345
324
118
-49
-47
111
-262
451
756
-258
85
634
315
292
488
257
-296
-186
-374
-982
-780
-527
1032
725
1566
147
-270
561
-912
-777
1293
1763
-458
-180
195
-1102
357
331
-5
-228
1384
-388
138
-407
78
-1528
299
855
-1173
389
-415
83
-448
1291
620
-1079
-336
-1255
-385
890
-510
-1139
344
-594
-572
1113
-308
-887
36
1356
-138
678
670
380
-276
355
625
222
-389
148
33
-383
24
3
215
-178
-293
-216
-370
-23
319
-23
260
187
-111
7
531
-166
-115
340
212
182
137
95
-376
224
430
-321
-56
11
-92
-525
800
-37
-87
-132
34
-588
-513
340
603
378
345
-1
253
204
-131
-656
-165
-289
-119
666
-21
-438
-33
469
-139
297
70
-206
-434
47
368
-799
58
-69
329
-84
234
502
-23
277
131
324
55
202
85
429
-341
-27
-200
-287
-108
81
-175
105
144
-108
-90
-162
-24
-173
38
308
-36
-481
489
0
-293
77
-55
143
82
-174
-532
-634
198
65
-328
-46
33
205
90
38
-3
628
-330
201
-234
105
-257
25
178
79
-69
-333
-160
-662
1185
220
845
1264
-18
1140
-1992
-285
-945
-1952
341
-1135
914
1126
-2139
-2433
-287
581
513
984
-1401
-1411
-1069
-314
-2036
410
408
-369
-596
1964
-359
-330
559
669
456
207
734
-392
49
662
500
1176
-272
-350
-801
1371
-1118
657
-2266
-701
-219
66
1980
-1076
-64
-161
788
-495
-1750
1087
-411
-849
-1642
1011
-376
-440
-698
-365
-477
-825
537
748
251
506
-765
648
-38
-254
-198
-270
788
-473
-122
33
166
238
-464
-788
-491
11
-161
-320
576
200
638
691
91
-6
645
88
-557
87
-455
610
-563
-168
537
-23
269
-548
261
43
573
366
78
442
-314
460
895
532
139
-39
-154
-306
537
140
-407
40
-23
256
-66
778
332
-147
-176
146
-112
42
-214
308
127
-160
691
174
-286
688
-355
-19
-331
65
74
-87
-477
275
-70
-207
-134
126
-101
-36
-369
-90
491
-99
-257
285
491
-161
-156
-274
-321
-44
-94
-215
283
18
-169
111
176
-450
-140
171
-456
-276
-316
39
-94
177
217
-859
473
-553
133
376
-37
225
336
-271
460
-603
-836
-163
601
-130
746
9
82
596
27
721
-165
761
-238
-92
-46
46
-331
-102
-449
45
-98
390
442
431
-215
-469
-621
-55
-585
290
-97
-138
-518
-952
104
-57
472
-48
347
92
419
428
43
529
-606
193
463
-352
41
7
476
-1227
917
-189
-477
536
-908
-538
-133
-700
-579
-226
360
511
462
1145
-1127
661
-994
-507
951
54
-779
-709
-102
-827
323
337
380
-286
1163
-48
351
-50
712
-448
55
247
-707
-788
-1246
-566
-779
992
179
82
-238
-1326
251
805
283
-1241
1304
-8
281
161
1241
-165
-59
842
-1490
510
-438
1051
-10
510
-645
790
1288
81
-183
-83
200
-456
-184
-249
-355
-52
-240
-62
476
208
-226
-284
29
-196
-11
-625
-7
-295
-380
337
45
513
250
38
32
223
173
23
87
-152
-258
-104
97
66
-72
-12
22
-303
32
-425
106
-267
282
166
172
296
547
-223
336
22
-340
-346
129
457
-440
371
148
-279
316
62
-184
-760
691
346
568
621
654
-607
-393
-668
-518
-1061
358
84
196
62
-956
-330
0
101
92
-16
-338
-220
-116
-63
-419
-356
511
313
38
296
-219
-436
343
103
320
708
-39
-1010
-597
446
355
594
632
-974
728
379
-156
402
305
-120
-127
-88
223
-1219
-356
-716
60
-901
546
435
831
470
-1084
717
-784
-618
-267
8
-484
188
-14
744
68
198
-329
-59
-926
-298
73
-629
67
153
523
-370
11
62
-303
-249
-201
-561
463
-250
707
-376
424
694
-411
474
-893
-680
-613
753
590
-854
-296
-887
-666
909
-277
-648
515
-346
38
-76
1062
712
-210
43
-172
-124
-633
580
648
-399
-394
-359
878
176
-245
302
232
-120
172
-72
272
-425
-269
-82
292
214
-117
31
-280
10
-42
-382
-216
375
-1
-139
139
-355
472
23
-27
67
17
-224
-36
-611
4
147
-592
96
409
-254
-318
119
-23
-654
360
-243
436
-310
-370
-171
16
-165
-659
61
-122
-371
-178
-134
380
-357
944
-252
-564
286
-148
341
336
100
-425
734
-204
1465
-900
483
-838
-390
149
-96
513
1242
-1125
-1526
-1287
1800
-99
994
-2122
-1853
-148
357
-1669
959
-119
194
-659
2117
-474
-253
15
-176
962
709
975
-452
-248
301
-55
1143
-139
234
-516
478
-392
1153
107
-248
-275
-528
1125
841
-47
-394
670
470
-1020
1488
-148
-977
-1425
750
548
-222
-397
301
-298
16
-335
462
-837
65
-1049
22
233
396
-654
-776
629
29
648
-452
151
59
-723
-181
-921
-729
-120
-519
16
66
-36
346
-28
516
97
186
-474
304
759
23
-883
268
111
-63
-177
-219
-584
136
292
225
-764
-940
610
-388
-114
95
407
-488
1134
419
1131
-124
-1068
-226
-492
238
166
-201
88
279
-69
-188
54
-476
-99
-131
-110
385
-30
61
400
206
-325
205
-177
-273
213
49
-201
-159
288
-454
-24
57
99
185
-276
-12
265
-506
-220
336
-91
-52
-153
-326
-126
24
-217
-222
-49
-26
-330
-553
-422
415
28
354
-67
-37
229
586
198
-171
-268
-658
353
156
-376
374
-156
-434
-71
121
-156
-52
421
787
-293
259
35
-178
348
-13
795
-656
-30
-590
823
1056
-137
-320
966
4
-736
-428
14
-658
608
215
-229
265
-273
-357
-428
-36
632
-87
630
-74
-3
354
-317
-88
15
-1571
-521
204
-441
-3
-1152
-77
172
-593
310
241
233
-959
81
322
296
-184
71
63
241
164
347
-315
-857
312
447
-418
821
-92
-448
-169
-217
-227
-332
-196
324
-363
-573
-904
-81
81
-388
-95
620
-251
-80
477
-486
-656
25
-38
-90
498
552
-130
11
381
163
433
-401
82
-203
525
-736
-304
-287
-99
-92
458
410
-504
-455
-7
-390
202
-501
516
-45
472
264
-172
38
250
297
55
-280
-433
12
357
-473
93
454
52
73
201
-532
-6
-475
-434
372
-269
-42
374
-35
29
363
-438
-92
453
329
191
309
-394
51
-159
-67
-56
-27
67
-347
171
268
186
121
15
370
193
-481
198
447
47
500
-483
-335
-525
-20
58
-266
33
-224
113
-180
402
-306
-367
819
906
668
1193
587
-714
-1019
-2
-943
-1628
1082
-678
365
5
-1979
-1037
53
398
498
452
-1164
-449
-702
-66
-1410
-416
-29
-172
-539
679
-554
273
73
273
1024
-185
202
-467
-261
254
175
1001
318
-779
241
-291
40
-424
-1541
-475
-34
-232
2024
-463
-745
308
471
-339
-480
571
1279
764
-1517
417
-636
-311
-472
-1044
-585
68
605
482
875
482
-302
558
-802
-379
1107
1091
524
-529
36
-650
487
394
-233
-438
709
-490
473
-273
478
-688
285
-902
-1278
-2196
-579
-877
-563
1040
1473
-597
336
-950
42
1103
-449
-171
656
-686
1254
627
638
105
-585
1551
928
224
-1206
1316
849
-1056
-1552
-114
1558
-122
24
470
101
-312
157
81
-153
44
-5
-198
-68
-189
-189
38
176
-103
-78
-4
-54
-120
439
-185
-179
131
14
62
360
-188
120
328
-276
-452
-314
192
-40
-223
-328
107
-109
-133
-82
-48
168
-207
-40
-138
-222
-326
-230
-20
-157
-156
-183
31
371
-34
-623
263
61
499
-91
-278
98
240
-297
-212
-328
92
705
-240
92
-430
-597
-47
218
433
546
-341
-160
-1044
675
-461
580
-596
636
210
-708
-583
-272
-642
257
-518
271
-542
209
-658
580
506
-246
200
141
-642
-587
200
76
1341
-441
-720
100
706
-1188
472
-326
-764
-113
881
-373
-1889
-358
-412
-506
-643
247
392
425
-18
-706
176
289
439
230
531
-138
-600
-179
-344
-636
-400
99
209
174
-260
-296
-784
273
-164
224
591
-887
-788
-930
23
-1283
-341
-26
-169
-679
333
-863
-79
257
685
162
218
1427
-657
-106
355
571
1108
-821
-472
-1139
645
-94
379
-1694
-651
753
629
890
-345
-955
-162
451
549
-603
200
-143
302
-52
-222
-319
122
431
159
-391
47
-172
-102
102
-145
-171
-126
-154
-246
51
-433
190
-18
-273
223
81
374
-383
-164
253
-169
-297
3
-151
97
-630
214
511
243
228
149
206
375
-147
150
24
128
-210
-198
-288
-277
-121
-173
-462
20
57
216
477
-215
184
65
104
-154
185
109
174
627
-432
-390
470
-171
311
292
161
-487
81
-670
0
-312
170
-563
289
193
371
621
39
-246
-22
-234
299
65
-110
265
411
-485
106
288
-26
-47
-216
-349
164
-684
-978
-732
-517
522
-24
-174
37
-747
211
-18
682
-524
85
-685
-210
524
-85
354
-1352
-516
-576
955
-480
445
575
-367
300
205
483
216
-68
-143
19
-23
-697
266
465
653
425
560
-270
-254
-510
-483
431
632
-38
-551
277
-110
312
371
738
-380
841
-27
-54
84
302
-346
689
-9
-308
-177
1
518
85
129
-359
1
-565
-755
449
364
210
-211
999
8
665
105
981
328
-368
601
245
373
52
600
-77
146
310
30
282
507
-290
308
-11
173
-240
-608
-426
-323
2
-12
299
15
-277
-286
284
-48
-414
34
-148
-550
-246
219
335
129
21
344
-37
249
-83
271
-22
161
59
-163
19
-132
9
334
362
157
-232
150
-54
129
217
-115
90
-101
316
-473
413
128
-30
-138
80
-770
-154
456
647
468
-396
-143
85
41
129
204
462
941
162
-299
-823
96
-930
-328
-15
-167
-210
798
-1339
-1297
89
-410
489
-352
-839
-529
-438
-461
-705
-782
-94
-567
-48
-212
-675
-274
513
1098
13
395
870
-830
476
265
400
1089
261
-349
-359
769
-401
-1211
-367
217
323
563
195
44
-391
-428
-589
294
234
-704
241
-34
1100
-12
-701
-301
-714
-1029
-291
-896
629
346
935
-161
-681
375
-1044
-792
720
-65
765
-258
179
-965
640
568
-933
-833
-287
-731
382
-727
440
-932
1050
312
111
214
-505
-355
-885
853
1007
-456
-316
-311
-194
224
-302
-126
-423
360
404
-41
-53
-363
-462
1060
588
-121
-275
305
12
-92
-932
-789
229
924
237
246
295
241
444
-506
-122
-420
-189
131
531
-80
162
548
69
17
222
285
280
75
-276
-119
-165
277
-175
516
-120
394
-11
133
209
-108
42
-21
96
-403
-436
-473
-207
-44
-391
349
-241
249
294
7
221
-176
-183
-164
-46
-440
140
-264
542
-197
-386
-126
-409
-31
-227
21
96
-619
270
304
753
-109
322
185
-19
-1048
271
-376
537
-479
465
134
315
414
71
-695
-541
13
959
454
864
368
725
38
6
318
259
-203
-40
-1254
445
-1290
-731
255
-123
-172
336
-48
835
-286
788
-116
665
333
151
-386
752
-44
482
637
-1021
197
18
670
-574
829
151
-1263
-835
536
1471
-767
944
6
332
672
626
495
-414
-285
-948
-141
293
-948
533
467
-840
142
-347
738
87
384
-477
-916
408
78
-127
356
-445
-99
-394
328
-185
170
-151
-362
145
247
188
84
-59
95
-239
254
234
-300
-76
-125
-235
162
-107
261
917
-333
502
-670
-925
-554
110
-567
-2
721
633
-12
-324
347
277
-221
122
-7
-370
-293
172
-231
-67
-270
202
214
-115
-573
64
378
-65
331
337
-289
78
199
-293
-14
-348
-297
-479
143
-73
255
22
-72
-128
-746
3
-130
-20
-13
443
633
180
-4
-404
-163
334
135
-134
106
-8
28
-392
83
-429
-424
-331
591
41
732
-105
72
-343
-25
283
-1129
446
667
719
278
391
589
-443
-687
260
-286
1262
-431
359
-16
358
414
-391
-85
99
-408
-65
27
877
-52
132
-265
-83
368
309
398
-87
-580
625
-520
333
650
369
145
-409
397
500
-22
816
-156
420
113
262
2
1288
57
186
-163
-621
274
-411
443
-1433
762
215
28
-653
369
987
-154
527
300
680
871
624
567
-1137
55
-166
-402
623
-735
421
435
-1065
-125
-886
487
-261
871
-755
-1109
243
622
-585
994
-144
-102
-615
861
-47
295
210
522
963
1658
441
-675
-1208
554
-265
339
183
-778
-446
234
-439
681
147
-1032
410
953
462
-1119
314
-1097
100
-1388
3
643
1268
-1
-557
38
227
374
-273
146
-83
-232
332
237
-90
-230
-17
-353
221
234
192
253
1
313
-215
516
-178
114
-367
35
199
-35
-507
-17
31
-359
122
428
-273
-224
527
-355
-311
-363
232
-435
-31
146
-373
8
123
-101
-259
-595
-353
156
-349
141
489
-147
-195
-240
105
-66
-135
269
365
-361
586
-716
174
298
844
330
641
212
-482
253
-21
-683
179
-352
170
-146
-432
-626
-738
431
-495
528
-715
56
609
222
14
809
-344
357
-498
439
-642
199
-68
194
-277
-187
389
65
-869
346
-446
-515
13
401
838
-141
502
473
1106
-895
968
1473
28
276
567
373
-380
-11
-181
-184
106
-63
42
-79
-433
215
-52
183
115
212
-509
163
-414
-16
-131
7
-303
598
324
357
-344
287
-273
380
250
113
267
198
298
306
-335
768
-514
332
-121
-1014
551
-273
275
442
-419
-430
40
36
471
121
242
-358
130
266
-313
595
774
-451
-74
4
-538
-387
-948
-393
-127
-139
705
23
-129
284
-7
-134
-770
-34
-144
-541
88
-240
91
136
-242
62
-139
-203
95
-67
98
-202
-83
-307
-87
-32
251
-303
-104
-124
-28
250
373
-397
55
-75
-241
-236
291
434
560
213
-125
266
-277
459
-202
-105
-19
53
-289
212
-2
407
-388
61
188
-217
-110
-29
243
517
-129
-49
146
330
582
-155
-115
472
-398
-682
-692
-437
-795
-757
386
155
-81
-142
-884
1047
-260
460
-116
-578
640
-414
-334
211
831
369
-538
-245
-580
-23
177
-182
-335
-361
-146
-146
358
885
358
-690
-812
90
1235
181
79
1103
-479
491
-380
480
-170
-342
-1088
-58
-820
-202
-137
258
13
-1008
732
733
859
-1055
-941
-1028
679
70
-76
-849
-112
-837
-314
-838
950
482
548
584
33
514
47
-1056
859
432
594
-481
-216
-124
220
429
-28
784
842
-390
29
724
455
-167
-826
300
-740
-1173
-843
-1252
-143
481
190
-242
-143
-507
-103
644
-65
-857
1200
-1004
-37
895
179
487
-266
1047
192
1552
-684
549
1
-91
387
816
256
6
-33
-378
-196
579
-75
-98
213
498
179
-352
-54
220
-19
-565
379
-114
-348
222
-297
-507
-29
60
-337
-199
-409
-262
-77
-367
-123
663
-145
468
-280
-479
-45
147
12
-289
637
18
196
-225
-78
142
-28
390
152
370
461
-489
478
88
-616
-272
-642
-63
125
294
120
115
-341
-5
354
-370
704
261
40
198
26
784
-592
-497
-137
-252
-269
-458
746
1067
131
-17
-706
1133
-543
340
-213
-605
189
194
56
580
-767
411
-447
438
85
36
-157
338
971
998
-4
41
-735
339
-482
-747
221
-150
-172
392
-483
633
1426
-371
71
213
252
181
760
365
-734
-509
622
198
65
-306
-510
262
-78
400
-88
561
-95
691
-141
284
-390
291
-291
201
309
183
-314
-546
73
364
505
759
-363
348
143
-436
-326
366
-311
-82
-205
847
-148
473
670
599
135
-147
-290
-104
-599
248
-384
9
-11
-723
54
-276
64
383
-561
-913
-511
-285
321
-517
-677
25
552
-414
-226
489
587
35
-652
-11
-165
-161
55
23
-332
347
-118
-168
151
198
12
318
124
176
327
-109
-215
-31
-140
127
-127
-115
159
-400
-561
-361
98
-296
240
-150
-75
171
-121
-67
10
13
2
504
-198
72
102
-111
439
-260
253
31
214
528
248
-79
139
323
130
-69
-288
51
451
242
-48
-181
-494
271
-163
597
618
-166
-252
230
-601
636
-982
-506
-397
-334
-673
-278
-141
297
-965
-703
-373
1281
9
-141
-832
-725
-849
-447
-1184
453
367
-177
-435
1298
186
14
624
791
746
819
-688
-473
-354
460
-661
631
162
-512
-435
474
-861
645
-549
-224
-502
28
352
-805
-302
-353
793
-344
466
334
588
-377
-839
725
-312
-155
-245
-108
-518
257
-95
205
-152
358
-568
436
35
242
-113
-755
594
61
-335
214
135
-25
67
218
-361
80
-61
164
-131
564
-448
154
609
144
-15
35
-242
27
-110
267
-124
-107
-103
78
105
-212
845
567
-553
-437
-1083
-539
-38
466
316
400
701
225
-433
631
-626
-624
-255
3
-209
354
134
-64
259
224
-247
-24
221
138
-25
133
171
-288
265
-91
44
-102
-1
258
69
152
62
-110
216
-474
411
-257
743
94
133
427
-153
237
166
125
373
-126
-181
-18
-108
26
54
644
7
234
-129
248
492
-51
88
464
369
-106
-210
-297
441
-95
503
-338
-45
-88
228
-254
-169
-437
337
-873
-459
-2197
291
1
446
-838
261
487
-969
-622
177
421
50
-324
-118
-385
550
169
-241
-86
354
401
-252
-322
21
-844
-23
387
39
532
-1163
0
-380
43
-273
-42
115
-721
626
-325
548
-635
773
-822
18
582
751
781
-319
731
495
-106
-233
-4
451
-1694
759
-188
935
-237
-456
87
-14
-281
152
-226
576
-216
-114
500
-57
573
-522
-489
300
136
42
-7
-285
-836
753
886
-282
-537
961
38
676
-445
316
-444
428
-740
-5
-266
-1104
-95
-739
-3
960
-639
239
-441
-55
191
538
-55
153
-588
241
181
1151
1497
-1297
-139
-47
-352
-428
1021
1181
-1180
-834
-22
1283
-202
-129
-148
-91
-222
-325
-294
246
164
192
-28
-72
64
-262
536
248
38
-125
-241
250
-38
280
-569
-22
739
105
243
130
295
-31
-226
-85
-55
536
-39
-129
188
-353
-301
209
83
-121
263
-25
262
-55
508
285
-235
-371
139
-447
272
394
336
-202
-133
180
-384
358
176
74
61
-341
-443
-141
-22
540
-80
-51
-445
-32
340
93
-277
477
91
-878
-535
474
200
-492
-439
-230
83
-48
303
811
795
611
22
25
708
107
769
-513
-114
605
425
-305
55
6
101
-916
315
329
-1098
337
148
662
-321
1050
-1071
-125
255
155
148
-27
414
-79
1063
-1070
-96
-560
-7
176
1193
1115
-131
-71
1099
75
594
312
1333
-713
-200
-592
-302
174
-511
-171
807
-530
-43
-200
517
-840
728
-117
-846
769
533
-496
971
-251
989
-770
886
497
-959
1515
211
592
789
44
-853
-482
689
689
417
997
-1043
-220
1140
-85
822
577
-831
208
577
45
-642
65
-831
-493
-492
127
674
-627
-317
61
-183
407
563
114
-347
-155
-57
-78
43
-92
522
527
57
68
-28
183
-2
-210
-36
-257
111
-80
316
67
-254
84
274
48
-219
373
227
-187
-220
-102
509
376
541
81
-35
42
-221
-468
-557
-26
400
-196
-58
-214
69
-183
510
268
-381
299
322
-229
-167
-8
-182
-182
149
414
372
-34
812
-677
-687
-156
-969
-679
-101
553
856
1135
1276
-593
115
-1502
-409
1296
1366
202
-1171
156
-587
1047
848
563
-70
1530
-1133
849
53
829
-923
391
-277
-951
-709
-846
-646
395
820
854
-425
59
-677
-372
988
-656
-381
742
-1082
-23
769
147
-361
-668
442
-577
1131
-488
484
97
351
-382
1182
1358
-1222
79
291
634
-83
526
-216
98
-535
-274
-251
773
-122
577
-12
29
727
-68
67
-264
-164
235
-187
-224
-333
162
2
307
-176
233
-412
900
292
-333
390
372
-2
81
-397
920
-239
-48
83
-390
383
-412
400
-533
149
-107
113
395
483
162
356
1961
-1334
200
176
208
-1518
112
-1325
-433
362
430
-463
-230
16
100
-51
179
-59
163
248
-366
39
110
316
47
-41
-448
86
335
-126
196
339
141
232
-223
500
-291
56
-275
-160
4
-546
88
-1
-261
106
-118
182
308
-58
38
70
-28
-220
-143
-83
97
-116
148
72
-99
-368
-326
-244
-77
-14
-96
205
127
34
67
133
302
-293
53
-197
-790
-763
-62
92
1065
-293
601
590
-479
210
266
-194
965
230
257
-113
-403
-498
1243
454
196
355
385
222
-37
2
250
-690
724
-685
-88
-332
-696
-576
-760
168
377
-352
341
-584
-43
638
177
-207
-60
162
-193
177
-328
-5
-830
335
243
-157
789
797
46
-6
-502
-712
424
225
531
-15
322
873
-312
505
-504
-412
-433
-24
-310
-658
1015
-14
-971
-867
-949
616
1
1221
-1411
-1080
339
624
-539
1105
-568
264
-858
887
-1642
-155
-60
47
687
952
1173
-161
-478
18
538
798
96
-191
-623
941
-448
-221
-570
112
-307
21
424
-495
-829
-175
449
-612
140
612
1558
589
-376
-189
-130
26
95
313
28
-323
210
395
-223
-104
-162
30
447
-343
238
-3
-296
-185
-5
-493
-108
158
0
-196
35
-554
-91
-198
136
658
207
193
214
64
211
-115
495
-5
434
65
9
25
195
-401
306
-42
128
348
425
-700
219
98
-243
345
84
134
-157
610
601
-117
0
727
266
273
-993
-648
-238
-904
-333
-948
1432
154
619
1107
-119
704
-386
-244
1366
714
220
-486
-320
230
-61
113
257
1016
488
-328
-620
734
-20
116
-845
191
49
-336
-110
-663
-714
321
230
162
198
-1160
194
160
610
-659
534
-239
420
346
316
-132
-589
1026
816
1524
-361
892
-590
-892
-884
25
621
-238
-268
-219
-462
-419
-292
378
450
-515
1057
416
80
-379
-176
266
760
942
-574
124
-46
34
136
454
409
335
585
221
-342
233
443
-45
168
205
-290
-370
213
-348
-263
144
-533
215
-241
-289
327
291
306
-829
801
-278
777
376
-253
-912
-163
-273
-206
731
-668
169
298
247
-611
1513
5
35
20
-18
321
-224
129
-203
57
-6
-58
-178
-303
9
113
129
-367
47
263
-281
-97
-471
-138
35
68
388
202
-244
56
-487
-420
97
297
602
-355
192
61
33
-216
273
-177
-188
191
-146
-150
-89
97
-8
-27
202
-269
231
286
-132
-183
-789
393
-112
237
478
-575
-240
46
-78
-9
-705
-98
199
126
61
-116
7
-350
102
396
66
70
-213
-343
437
368
175
-137
-739
-109
-1013
624
311
-387
-148
784
-647
15
-59
461
-562
19
321
-226
45
-277
-293
-425
487
-64
70
-218
-358
-191
-68
-86
-464
760
-915
-155
604
190
-424
-255
686
431
896
-294
-679
139
-73
503
-71
-221
212
-382
-51
338
-110
-235
583
197
172
-380
-345
444
611
21
-106
-456
-328
229
-581
-462
188
306
185
51
243
134
-6
158
-75
419
594
-5
-786
1222
-107
-49
456
-214
-494
-179
386
820
376
181
-319
61
635
-5
-85
-486
-234
-411
621
-80
-478
156
224
-266
-179
191
-464
-362
169
-108
-392
-148
318
68
-322
-487
-85
-258
305
-276
223
-289
-60
-192
584
-86
-45
-23
-456
-237
201
-126
-191
249
133
-419
-13
231
257
90
356
-134
-90
293
-21
-247
0
-413
275
115
-52
-145
-123
169
4
45
-75
629
97
-388
-149
-186
-64
394
135
517
-398
25
-243
-54
-389
-290
-180
-220
393
-427
-30
-32
-169
-181
534
704
310
-527
82
-30
746
212
-776
-152
-450
-508
-252
351
222
173
-455
-522
-66
-1208
-690
530
-151
503
251
131
25
29
435
732
341
1295
-265
-143
-19
168
1361
-56
182
-754
1136
-275
1575
185
-374
-864
27
481
-664
337
-1208
971
-1594
-499
1717
267
-777
-2149
-838
620
113
495
632
242
-134
-358
-498
-430
-638
296
-164
138
338
-377
-16
-396
-119
441
163
-506
-601
-581
449
-722
-248
491
479
-278
829
-600
-202
-453
-100
1222
90
701
-344
-144
277
587
1279
-388
-148
-886
211
-393
-610
-402
662
-247
-801
115
-45
-244
-89
-176
-409
-184
596
61
632
-43
-114
284
-270
123
-172
-12
172
-40
-232
121
136
26
-54
-112
195
78
-109
63
-329
30
-490
-69
-162
-148
-305
-47
402
-134
172
-76
352
17
300
-128
83
-227
427
-179
33
298
-80
-123
266
-71
233
-286
159
-397
-120
63
498
-243
-41
-198
-108
12
465
-117
-85
-331
-455
-70
234
-804
-771
779
5
558
-4
760
-1787
-488
402
160
-1060
850
-48
-245
-1378
-1260
-247
-177
-303
-297
-106
-315
-167
19
-42
-355
364
-205
-832
-126
-511
142
591
50
1426
608
540
122
-141
246
-157
-146
30
-230
-237
-82
62
-236
-237
-889
-329
420
12
1852
-1369
-906
-1030
503
-957
-240
-52
590
57
388
-254
-405
242
-207
-866
107
-680
568
84
513
-76
240
171
88
-266
851
1489
74
-332
-260
-78
-107
342
250
407
1103
2
223
237
-58
-280
-397
-530
275
-88
225
-295
232
-227
404
-514
-1
335
-385
544
30
64
-45
-566
402
328
725
950
-644
342
681
1263
-546
955
-453
-760
-542
1129
214
-349
-75
36
87
144
-164
197
155
107
-415
179
-168
-204
44
34
-428
-97
-219
-45
266
-20
281
185
-373
-45
182
379
50
-400
71
382
216
-286
-131
182
-23
322
-353
-100
232
-2
145
-98
-313
14
-204
467
60
-25
14
432
-106
-57
-158
-156
-623
218
47
265
-274
-397
276
-400
-39
-1061
365
-394
307
-279
432
-2413
360
-927
842
-634
675
-356
267
-1063
-86
839
-123
-34
737
-1178
508
-238
-555
105
700
-1190
490
-563
894
-1638
529
732
-1018
-388
-1579
-512
-616
1027
1433
-1037
-718
-1894
-525
830
228
-735
424
-392
371
360
768
-451
76
1213
-27
46
-130
656
111
-1349
45
244
1227
810
-588
-1166
-348
-803
-183
793
446
677
594
1005
-626
64
-901
-383
1275
2465
-397
-386
-837
204
109
829
1021
1063
2753
476
-1082
947
-353
-681
-794
-100
-591
-1487
-381
-195
-699
100
172
-465
88
-1299
868
-100
1216
-602
288
-949
1257
592
393
380
-1467
1290
642
758
-714
785
840
-290
-1212
911
977
319
-22
377
255
-459
-93
-41
400
-143
-127
-32
449
-128
-244
-468
233
173
-409
-189
-207
-102
235
353
-500
-514
457
-271
269
-43
220
586
-116
81
-57
309
633
-97
-115
467
-496
204
-469
260
140
-419
100
331
-25
117
436
-29
-277
-474
539
-223
-555
-155
-214
-314
-477
-811
428
-148
-33
-584
317
117
102
229
-231
-493
-80
-543
298
-676
156
-398
153
-24
168
343
287
487
-210
156
-316
-433
104
508
69
-138
301
-203
-350
-279
455
-497
-19
-684
-1058
855
-559
115
336
-217
-95
-892
621
-73
452
-191
75
-140
-320
-305
155
388
-70
417
48
-265
-492
860
813
-1326
-1005
-376
995
-367
95
6
226
-285
220
234
668
-120
221
960
-4
-378
551
-615
499
383
-133
-190
-176
-485
507
874
35
-165
812
235
-614
-6
-16
-1075
145
1486
-488
90
-600
-456
-508
858
-425
-331
-1033
-809
158
652
811
-887
774
-106
71
221
289
530
-719
29
-242
-81
-230
384
287
-93
538
77
551
316
158
-315
-338
490
80
206
500
-134
39
-67
-244
397
-360
-145
366
-284
-160
509
-302
120
-16
-36
-399
-207
-604
204
90
-197
-72
-445
178
-31
-173
136
-272
78
168
-459
354
548
320
91
-66
-169
-32
-57
125
128
450
-151
-88
334
-171
-397
-742
582
304
-10
67
-145
-48
38
260
-860
488
1175
615
357
887
97
-218
-347
-639
-1192
623
-200
656
-802
-950
-187
-712
505
-229
630
-979
-1270
950
-820
-699
585
-322
-165
-223
718
275
222
262
246
1009
987
1026
-1139
-379
-132
196
839
-245
-560
14
469
-862
1383
207
57
-44
-98
373
-642
215
-1104
319
-1005
-481
1351
1207
-674
-1958
-191
275
422
393
586
-73
223
-710
-253
-105
-790
514
-470
-205
136
-470
91
-171
177
239
600
-507
-685
196
307
-278
-332
317
137
233
103
64
-438
-669
-282
147
-47
785
-85
198
-35
233
199
-83
148
-361
178
-419
260
236
-415
152
-229
218
-662
107
-245
-260
-131
-266
66
-143
-57
-131
243
-245
9
218
-1
-7
68
145
-164
177
96
118
-345
32
69
261
335
-416
-51
-12
-137
179
-124
-228
-394
278
274
-285
121
-84
88
-339
28
-92
-306
-439
-363
-265
369
-59
214
-187
316
-114
246
19
-8
15
-298
-185
-683
443
-310
-349
167
77
9
-462
364
-95
-587
377
551
-11
302
-93
268
-9
262
-187
1168
-212
-536
-1253
510
-720
141
297
1419
115
-1188
156
-107
-167
980
-287
-369
-127
263
-294
-81
-66
-51
-409
1313
-650
-439
716
-1127
1153
397
82
-1358
-567
1148
791
453
1177
-818
293
512
320
-5
-794
56
-1156
-569
776
-125
721
610
655
-316
-167
-393
-193
290
-2002
202
102
-132
-604
-206
-805
765
-546
52
674
232
-138
14
-315
-566
-88
-373
-684
10
125
-670
483
-63
-79
-374
188
-179
574
-191
471
-281
891
990
-462
773
-485
-274
-77
872
-127
-10
-569
-919
-574
834
65
-648
-571
557
369
-154
120
453
-52
-302
-192
-494
-597
12
1003
238
306
-1023
439
136
341
-482
214
95
-380
71
263
-501
-260
-46
120
-28
-133
102
-95
195
834
-71
139
263
-70
90
80
212
307
329
-9
320
-272
-192
120
-107
-425
-475
-381
56
-357
-249
-431
-457
404
140
-14
-16
117
43
-136
203
58
454
-779
-541
330
-442
-168
-77
525
-104
412
394
-305
671
-228
-198
299
297
-43
494
-258
-561
-631
-263
-292
-173
-299
-364
0
389
-517
265
237
-242
132
661
-433
-48
-485
164
-697
-177
-13
74
-391
134
-323
363
414
642
-346
-395
-536
-152
-401
303
-164
-370
485
-2
575
-878
559
-1139
600
805
683
-3
-555
686
-1504
118
-921
624
693
9
689
980
2091
1005
-841
-937
-849
-1088
-124
-804
1331
334
502
1285
-664
714
-359
-710
1538
323
385
-558
-218
-829
951
1172
-71
-325
1153
5
-23
122
895
-928
585
91
-596
-474
-677
-1185
-1057
848
874
-660
-344
-871
135
544
296
-1195
944
149
159
300
251
-63
-538
961
672
480
375
726
-579
-638
-1860
-100
429
-68
76
-311
-123
-230
381
-69
-153
-93
76
-197
-85
33
-475
-214
184
-264
420
33
-21
-78
-60
-67
-165
483
-504
104
6
256
-82
-281
379
228
-184
-33
-27
3
-5
-324
-111
210
218
-275
60
111
-24
-49
72
207
-238
125
-176
18
-289
-149
127
82
-334
13
-323
-16
153
-20
-3
-163
-109
275
240
192
84
491
105
124
-353
-288
828
-287
631
30
-278
-572
219
-111
-378
782
44
159
339
164
-485
842
-513
-261
167
407
-119
-653
737
-106
680
684
356
-795
-930
181
434
3
182
-981
192
952
110
765
-720
-99
-99
-546
473
-708
298
-6
981
-893
-623
489
10
-460
-2243
-729
753
-39
974
796
103
576
-863
-761
379
-876
602
-1075
554
483
-371
-145
-719
85
-102
307
-1015
-609
115
-251
-49
-325
304
305
151
550
-269
132
-269
-154
67
274
764
-130
140
749
-32
575
-51
192
-129
344
-465
174
608
-22
112
-423
269
-301
-660
-569
-162
-118
89
624
526
364
-385
402
101
218
217
182
98
145
-59
-471
38
-42
81
83
650
-245
127
-46
175
251
-283
-254
32
99
202
154
-6
-20
172
498
-267
320
-217
-209
103
-524
-148
120
-135
-21
-358
-212
-18
161
376
-214
231
431
-123
-270
-53
-137
-175
84
-350
-494
58
482
-903
31
143
-129
695
86
220
84
-722
-640
-365
-757
-459
-790
954
509
1390
444
-277
447
-1647
-1144
1532
1513
-370
-1109
219
-354
-1
703
340
-2
1168
-533
447
363
1136
-514
446
547
-1026
-391
-1125
-690
-410
831
82
-644
-170
-880
-373
508
-383
-486
724
-163
886
1179
-91
-799
-545
1005
1
754
274
208
4
513
-470
612
1005
-911
188
694
917
333
597
507
-531
-600
-155
-120
872
-213
136
1083
143
582
94
196
-417
774
282
-290
800
515
-152
-2
407
810
416
254
432
-948
438
-377
744
22
520
-632
-190
1042
966
721
552
35
702
157
0
123
752
-236
-99
359
-367
-311
989
-123
-684
-160
-410
-195
-95
-259
72
-98
432
-28
323
-132
21
301
-142
317
323
317
-764
-149
-425
373
-331
36
-165
256
-101
98
239
171
147
-84
138
230
199
499
-162
-7
203
-477
182
-377
-640
-66
-37
-206
251
-135
-78
-541
72
316
253
-223
-164
-86
-42
53
290
-81
-266
143
-128
248
-190
-697
52
-313
-58
3
-83
298
-698
-904
-133
-711
-746
-1298
723
-142
490
450
33
1122
-323
32
1380
1260
114
-730
-234
-259
696
479
23
176
1966
-713
77
437
254
-530
168
-466
-614
-1661
-1499
-1671
-648
729
1886
-891
179
-1396
-356
1030
149
-117
550
-1390
1533
919
338
99
-1812
1518
297
988
-1098
1547
638
-1418
-1327
458
2744
-774
-103
-307
533
-260
770
-1154
383
-518
81
14
836
315
265
-699
-38
2300
64
-785
-18
-769
1153
753
550
448
2440
-406
358
21
179
-1276
523
-119
-586
-148
-545
-639
-264
139
1075
-765
97
-230
-402
530
494
-466
709
-1480
-539
564
1013
-187
-213
566
318
867
-301
519
-258
-1454
-863
505
1222
-56
98
-259
207
13
-71
-79
310
-10
160
-268
-113
-176
-108
247
-201
93
-26
-338
255
-38
333
-371
-100
-98
-206
369
405
-133
-174
-239
-161
221
549
16
-206
545
-133
120
361
520
251
-248
-592
-492
-78
459
237
-186
-188
-106
-142
227
-31
465
524
136
-178
258
-224
101
-308
472
-304
-643
375
374
215
913
532
-310
-133
-1016
-115
-720
475
-679
307
662
-396
-627
605
-93
45
941
-781
-176
-286
853
-190
-18
-640
221
-745
980
-998
-282
399
289
180
-157
179
-170
-621
420
-151
695
66
-150
-812
979
-307
392
-321
184
-417
202
615
-594
1521
288
33
-920
-411
134
555
-1199
-2094
-326
-280
-467
-253
-159
211
-702
146
979
-237
353
198
383
-382
-12
61
-189
210
-836
-189
-156
866
608
-174
-660
229
1
-209
-236
718
-530
366
199
295
-476
-1133
-580
-606
137
249
-27
194
-785
649
-88
670
-515
1149
-371
-80
-111
509
408
309
63
-559
125
-266
466
-107
-681
-660
943
592
-398
-271
-78
-170
-66
-8
-175
-323
206
-131
-76
-209
18
-303
256
475
28
121
-354
-509
351
-154
-73
824
45
-72
519
-457
105
-12
-148
-613
-117
94
-95
-304
-217
-105
-144
258
-145
89
-333
202
-650
472
-188
-69
-266
344
124
-300
145
-113
-372
152
273
-81
-177
181
885
-714
73
-161
-9
188
253
201
384
-710
1337
-561
41
352
-605
-159
-558
-61
296
-306
61
138
109
459
-229
327
-63
222
-633
-807
-202
526
-868
512
-381
1155
-61
-427
-309
459
514
883
-19
456
-297
204
513
-128
328
-1522
763
-346
-317
182
438
85
169
739
-651
649
-987
-271
-1099
194
-91
761
-405
-1106
797
102
-394
188
112
409
-402
-212
255
-432
-217
-379
-99
-166
-217
-381
-1130
167
-470
414
-201
36
-338
-271
-491
-853
-455
883
-156
295
473
-143
-176
50
610
-69
409
357
-274
-277
-9
-289
437
-757
-224
-237
840
-1078
-38
-837
-324
168
908
619
-439
-336
-530
402
-503
-116
-92
469
-270
-326
121
26
186
-58
317
-62
-414
-95
113
-556
-66
-80
355
132
223
101
-125
-408
87
469
-313
-162
-128
-71
308
351
-221
-224
555
138
115
94
176
-509
-178
-116
271
-47
340
102
52
462
-61
131
-461
82
43
154
-161
47
90
-278
-64
542
116
-811
-221
-118
595
-52
95
-456
-117
248
182
174
114
-136
412
86
791
-422
-219
-206
-253
-486
-207
294
483
6
-119
-311
416
-63
-59
-212
-306
197
475
-218
-223
228
575
-400
141
-394
159
194
-12
149
289
-250
443
-890
554
-203
-737
494
-228
431
-32
454
-291
-203
58
-558
-282
1107
-288
33
1128
-379
-117
-275
500
-601
217
-45
243
253
216
-204
396
406
757
-24
81
-144
253
-648
-266
63
365
-292
-363
-444
-39
-261
-275
61
-21
11
-34
-41
380
-905
253
36
621
-307
201
498
1085
372
-47
-310
108
-430
161
-240
-162
233
149
478
-630
-20
58
-134
-178
-810
-414
-152
-258
66
-361
813
-595
65
512
469
-327
-708
180
-127
82
297
-223
260
-197
304
-418
300
266
-67
144
146
180
110
38
126
47
-157
-96
-225
-166
385
274
-11
-465
439
-190
-23
143
431
-16
-200
184
67
302
-261
44
-313
-60
264
-330
119
-79
157
-87
460
417
-150
137
-221
-24
374
-838
139
127
267
-690
56
36
9
263
184
233
-338
-417
-405
-154
87
-746
614
296
-47
762
-453
464
252
-337
17
-451
315
-472
-201
-314
285
526
-256
-357
38
-434
-165
-112
-171
-570
-15
-34
-505
-755
416
-357
515
38
874
239
50
507
-321
212
-383
553
-225
366
-999
-97
149
254
-210
-61
812
-728
338
-16
-522
-1453
-403
-573
-797
104
-693
-518
-263
-897
-332
-1335
810
558
1065
286
-115
782
-1024
-918
1057
934
853
-1003
668
-1000
334
867
-53
291
1510
-919
91
-420
530
-1203
231
281
-862
-332
-1128
-1014
-398
1036
640
-976
-642
-653
-78
873
135
-617
363
-1215
-356
527
991
27
-775
361
-697
378
-699
774
953
-1055
-341
562
1011
5
-31
-136
108
-181
78
-369
-151
19
-143
24
-130
-101
-74
88
-85
22
-236
-169
1
71
-93
13
-152
-122
-102
-79
30
-115
-166
277
-242
-273
-20
136
323
-244
-340
300
402
-41
-108
411
-100
-110
-93
-223
-215
-24
328
65
17
-254
-227
-237
-276
272
47
28
110
205
53
-44
-278
-497
856
500
789
-67
212
959
-256
-473
606
422
512
-737
237
-269
246
1100
-274
334
-149
415
250
-265
1051
489
391
427
-405
346
22
-310
0
13
-51
246
-51
80
-136
343
-588
-6
-166
-582
77
568
407
-614
98
84
763
-242
920
763
-737
-116
90
-338
-682
393
423
233
-296
263
1549
-382
886
606
447
1138
495
449
-933
-858
-1137
-1008
537
-586
699
487
-1610
-644
-608
1039
-668
1227
-625
-1218
129
524
-765
1450
-753
140
-1125
470
-154
-132
37
-122
836
968
626
-478
-917
589
454
538
610
-383
203
832
-237
1041
-1077
69
38
-273
1130
-971
-425
-33
812
-994
-1091
914
646
611
-1124
336
-164
-198
-97
79
-208
49
318
372
-308
-150
-59
115
221
-319
-53
298
-575
574
-95
-43
-198
46
-595
-255
95
-57
-32
128
-83
-34
-373
-272
3
-387
45
-122
157
-396
21
-60
241
188
-255
-551
277
-386
-212
-160
-76
-274
444
-371
-141
47
160
-164
-202
195
-314
196
-122
217
180
312
-75
-698
-206
-648
-326
-238
942
-189
-631
549
-143
464
130
29
700
-144
241
555
-792
681
467
329
484
872
159
744
-154
161
-492
362
12
-757
681
-408
-487
163
36
-352
-497
-193
364
94
149
-730
299
143
-61
475
1179
-725
-76
-281
-531
49
633
64
-332
906
193
-840
-479
-99
662
-471
905
292
390
668
989
179
-475
-1021
-366
-655
580
-288
1031
420
-687
-302
-676
565
-185
-268
-668
-270
-329
-447
267
502
-1172
-190
-525
163
-322
1117
-14
869
847
715
95
-495
-31
382
-495
319
244
-412
206
-178
193
218
-1458
-321
-27
-281
456
-695
-1430
-873
556
-425
-461
291
1254
-211
-439
-72
388
-587
-365
360
39
445
105
-205
136
-403
31
-52
255
-580
28
-293
-2
-5
1
-110
-91
-67
-143
-13
155
113
-13
-168
-439
-168
314
189
231
9
-197
-96
-411
-235
62
-67
313
548
-103
170
24
40
-275
13
529
334
277
268
0
-474
-37
383
195
-14
-101
701
425
203
198
-509
51
590
183
278
497
302
-266
54
-780
-528
296
684
464
706
-560
-467
290
-450
233
512
-40
297
6
134
-39
292
-392
-463
-837
618
-880
-528
684
-88
761
384
350
-1423
-483
514
434
860
805
-458
-23
627
-199
333
-938
-590
-1231
-500
886
-948
9
1055
490
-584
-480
571
-366
-67
-1393
-643
177
442
722
226
-56
578
-736
-798
403
-888
810
-624
-363
319
-433
679
-1060
792
-257
616
-521
-13
536
-192
-234
501
-44
338
-100
560
51
-128
715
423
410
970
226
-595
-354
-166
-158
509
179
-283
-282
87
-790
386
364
-745
308
1320
505
-360
-282
77
-461
12
112
358
-144
-237
-75
85
-155
425
221
135
-396
-198
219
54
156
83
-189
151
-27
294
-300
-112
226
-23
-417
235
10
514
330
263
4
296
-279
-14
-217
-47
153
73
456
-116
-189
-33
-317
103
-204
164
19
33
126
-81
330
-118
134
-558
653
-261
-183
223
314
-336
-602
-263
212
-219
-173
-62
-439
-52
387
1
-215
1151
-16
272
446
1445
-1364
-424
-828
-147
-174
-244
-481
874
-869
-666
-60
332
-229
-25
-73
-47
746
-531
356
81
-245
263
-321
854
13
51
380
469
838
-655
-403
-338
-66
277
11
144
143
-338
102
-446
-155
-223
-865
127
-75
180
553
-1334
-1188
-189
1
-566
-159
1349
4
164
292
261
-201
21
156
244
75
-466
-424
645
243
-615
838
741
-96
-488
-574
-323
783
-13
736
-33
573
-163
-525
-337
-851
-130
916
-561
836
-334
901
-436
793
908
-138
-133
582
-229
-114
848
475
311
613
-410
96
290
39
601
6
-760
128
737
-245
259
1331
99
-89
302
-602
-180
-809
-1314
-297
-138
299
-18
-10
-379
-429
-177
-287
279
-156
331
-149
279
-293
112
-273
101
188
-167
178
-77
-132
-25
112
345
-183
26
-36
37
-111
-326
189
-205
-181
-322
79
183
825
-174
-190
207
241
-585
122
-21
60
-90
261
264
-245
261
457
-42
103
154
257
-573
-3
-308
-27
299
71
-356
236
257
-441
179
277
-197
335
-1038
201
387
-636
370
-33
617
455
-569
-126
111
621
-600
667
-725
107
46
-762
-45
-82
-1028
970
-230
845
-759
515
-268
-358
-683
121
-845
-534
107
1520
-575
-22
167
40
344
172
3
-307
30
-931
-69
-304
-1184
369
790
-568
295
722
1103
-702
-102
-1077
479
945
145
-32
-167
-439
42
-230
-346
-155
-52
800
145
-74
188
-583
195
746
67
100
45
382
-568
-43
164
-69
-159
456
-336
16
-6
178
-549
-181
657
-892
-527
248
-604
-90
441
383
-696
-519
-540
-233
607
37
-653
-242
-365
1648
1490
-58
-356
-1147
987
971
-47
-602
-131
710
-399
529
-38
778
379
304
568
174
277
398
-210
253
11
-176
-3
398
-13
233
-24
-182
593
218
201
189
-155
42
316
-193
-474
162
-356
-179
91
-528
76
287
-308
-31
-121
211
-60
421
-211
-46
-94
-244
57
-322
184
279
95
-639
-2
128
-486
-156
172
-547
-35
115
18
-514
-43
-309
-214
165
309
187
-120
-19
-275
337
-957
124
-626
532
-541
-247
-438
321
353
157
-468
585
-206
-91
-36
18
819
-638
-484
481
1061
-724
604
102
240
-737
1067
-837
-813
64
-291
-738
-51
-56
188
227
78
-128
113
-37
530
284
341
165
1191
1614
-623
334
212
-385
-670
-576
-232
-173
-542
51
1489
41
211
-335
-118
249
600
-1
1239
308
888
-778
-444
-834
-405
113
-478
802
573
-498
-1550
-418
1327
-112
376
-635
-957
-466
-250
-1681
89
408
32
-131
416
-31
1142
953
1804
2099
1925
1243
-1338
-2096
1321
-437
1178
657
-2076
-281
716
-990
1543
-321
-737
-1143
-1404
1813
-943
-849
-625
1036
-1313
-1019
1814
816
-35
-1051
-219
7
229
-31
8
321
60
37
-327
72
-20
-39
-7
-109
-45
46
-247
506
207
54
157
-53
-107
125
-64
503
-7
33
-119
36
42
210
167
-217
710
-141
388
380
-165
82
269
-150
-44
34
144
-144
-163
-244
135
57
325
-51
186
-81
14
-32
-148
69
-168
-312
-161
-300
-165
-133
297
-821
-724
-545
-1127
-507
-131
1013
799
1046
1204
-741
465
-748
-922
1890
1751
11
-668
-355
-856
1718
1530
755
158
2467
119
-616
156
565
-1127
184
252
-743
-358
-1361
-670
-833
756
603
-704
-107
-1738
56
556
292
-933
889
-1388
378
815
678
625
-1684
505
-87
1190
-676
934
433
-1193
-170
1032
1855
-856
479
750
722
468
851
64
-461
-815
-719
-940
856
-990
184
65
-741
-659
-830
625
-170
862
-863
-819
99
664
-926
637
-186
180
-529
383
-114
-222
571
-446
892
617
907
-1052
-255
39
676
337
247
-478
254
628
-284
1201
-472
-526
19
-753
1572
-77
-644
-364
239
-144
-1278
830
297
328
-149
28
18
121
-307
-307
172
-153
-101
-33
73
-157
346
-298
-160
-183
-23
-88
-33
48
229
-109
245
13
-124
-74
108
-41
12
185
-240
200
115
-384
290
-213
228
120
-332
-175
-76
51
-236
-107
187
-270
91
-104
-258
-658
-108
108
-40
389
-475
-174
152
86
-107
179
196
296
-184
154
490
-615
-367
-192
490
-588
290
-1680
284
-678
19
-448
868
236
51
-836
136
-191
1035
-864
-458
-98
265
743
-72
329
-263
-355
723
257
-144
537
279
-1036
490
-307
-1344
-677
-956
-253
378
40
496
-114
-163
-171
161
211
775
13
203
182
-539
-931
42
650
460
30
33
423
215
-1236
-204
-342
365
-133
-324
492
109
-522
91
663
692
-314
607
284
40
-127
-9
28
1017
1973
-858
223
-630
-236
355
430
973
418
2439
638
-759
758
-5
-306
-176
206
-304
-1233
-1106
-635
-1277
1222
-226
-608
24
-1519
842
874
870
-1462
1638
-588
1290
830
1121
1505
-2034
439
328
29
-650
533
533
-329
-769
128
972
370
350
-155
148
215
101
183
43
-26
-136
-227
-168
131
-436
164
160
48
100
-176
434
-126
402
-230
-331
-159
-25
-303
226
-404
112
-179
-368
116
11
259
-178
41
424
-553
182
48
-17
182
-47
240
48
334
-234
146
394
291
5
-104
216
-491
-453
99
585
-196
145
719
100
299
-100
1201
-194
-560
-198
350
-272
1005
-94
659
-304
461
-708
199
55
293
-209
-342
-582
544
459
-387
-273
-213
-589
-641
-965
-62
257
-368
94
139
500
475
-208
166
832
247
536
398
-66
147
-385
452
-239
50
-505
-88
-277
1071
431
-416
-271
-287
189
-113
-460
-215
294
334
-295
716
-264
-544
326
473
-349
-449
-280
-275
-430
443
385
245
107
143
-289
14
370
-64
577
318
484
98
-530
745
-96
364
414
753
372
377
-463
226
-287
178
-468
87
55
339
323
-539
85
-279
-35
-185
167
465
-81
268
26
-10
47
-430
369
629
-1173
-300
-354
-16
564
285
-83
-98
525
262
565
-180
-338
-12
-178
-74
-188
-533
54
264
-121
94
19
-80
-157
-97
-168
-384
198
22
-67
32
-300
-257
-134
-311
186
-137
43
-282
182
-207
-183
102
159
11
67
30
517
193
263
45
215
95
256
-375
29
301
-266
16
-130
114
-184
9
512
8
262
71
110
76
53
204
54
-79
125
-209
-400
25
-735
-148
30
-550
-78
431
611
287
774
135
8
287
-1120
104
1190
856
146
-1183
106
-847
564
1008
829
355
2516
6
-379
132
181
-2050
-328
-633
-58
-836
-1340
-1193
-867
352
1478
-790
199
-1209
-29
713
-392
124
351
-917
27
196
-110
187
-1615
1069
1117
409
-787
1154
317
-1416
-1330
-961
2144
-764
-156
708
652
399
549
-522
-185
159
-102
-234
350
-324
376
-514
-571
527
-119
145
220
-54
-205
-70
208
-431
-150
-159
-123
-364
142
19
260
54
234
400
-1
824
-155
12
-446
-30
-366
336
23
-327
188
248
-445
946
-90
-544
1049
1021
249
-253
-614
-140
-458
-185
-493
-256
167
348
-422
-90
81
-327
-53
549
-533
-136
-320
-73
-214
218
7
-455
-188
490
-303
79
192
45
76
218
41
124
148
335
-446
479
-534
206
-139
-265
352
-43
-58
-247
-97
-428
-124
115
187
315
368
148
-472
-22
-323
-244
-224
262
-358
-98
258
8
-138
-95
-273
438
96
92
-166
378
-226
225
80
-435
-160
725
626
73
396
482
-89
-430
278
-916
802
-352
-498
-504
99
755
-1016
761
-341
594
-158
-306
826
937
699
464
-390
-354
-552
195
-255
766
411
171
-437
-488
-592
634
-410
-130
-714
-1595
23
349
473
-1331
681
685
348
-609
330
197
70
-235
174
473
263
-599
-264
1097
63
339
-213
-482
615
801
169
1071
768
1893
-1059
-410
-1119
-792
-33
-643
698
1517
-1110
-1060
-797
1523
-529
877
-857
-1152
344
-241
-1359
960
-254
219
-889
1080
-233
-637
1693
812
1981
1581
1692
-1603
-1843
1433
410
1516
919
-1830
-66
1566
-1204
1621
-212
-1492
-847
-1126
1537
-1250
-669
-338
785
-1098
-1768
1485
35
230
-1634
29
-173
138
-197
0
170
69
78
-226
-271
-189
-20
315
211
-350
-588
-251
-118
-342
111
-194
227
-59
-146
89
-41
5
29
-24
268
-8
465
145
297
520
35
95
85
-10
-373
608
-414
-293
158
77
43
-114
-230
-589
76
285
-388
241
201
508
220
303
-63
202
164
-19
17
-428
203
524
-774
2
-721
-260
-315
304
333
549
-138
231
-907
337
-417
-172
220
354
181
-320
-327
-35
-321
238
-177
255
260
-28
-278
-95
-141
-360
-351
-38
272
963
806
418
-55
-459
65
-305
215
298
-127
-479
-80
-573
-236
-38
21
795
-40
-842
-569
-329
-935
-1289
591
-1152
1364
732
1227
-4
-491
181
154
-387
174
-174
-270
387
183
184
256
-80
116
-297
-13
-355
156
-339
164
0
592
-270
493
428
-362
-467
-675
-318
450
-411
375
-105
11
597
107
57
-180
-633
-288
490
-428
248
-896
33
-230
396
130
-107
137
505
-234
-230
-316
189
-357
285
1006
171
418
1087
-609
-191
-1723
-605
373
130
-102
-331
-529
-196
-271
455
-78
-797
-71
105
-52
166
-251
268
264
-45
226
47
79
556
348
-189
623
16
201
-55
118
-84
87
-265
310
-184
162
85
-632
-86
542
-156
-176
-77
253
-406
345
148
233
-55
35
83
-205
-381
137
802
-114
345
-108
-381
309
18
790
-367
231
-280
-152
-478
-26
213
361
-14
-119
347
-224
307
246
-715
387
-664
-230
477
-174
28
-452
433
-127
-278
-507
-179
217
144
727
557
-310
-112
-341
-185
347
563
125
160
75
306
25
124
-562
697
-195
-725
755
311
403
-323
478
-134
-19
257
730
1085
-228
229
359
288
-248
-321
123
-255
904
94
395
-104
61
236
215
690
397
479
-745
-468
-808
312
-43
161
335
991
-394
-58
-327
44
-214
496
-12
-203
389
-250
-414
21
379
554
-223
842
36
-925
732
-362
184
735
349
-50
-516
445
314
382
324
-319
-384
387
-309
680
516
-668
-502
-53
209
-717
-767
-333
-363
-570
-117
452
182
626
-376
-452
-155
5
62
-410
148
-6
-4
66
124
77
-196
-227
-17
192
278
-417
153
127
-101
495
356
-505
-54
-200
10
88
345
471
457
276
-629
-25
-195
319
167
300
-598
143
-170
79
379
216
-189
142
-440
264
887
-30
-61
-375
316
265
-186
-471
95
691
6
-96
-242
-300
259
-266
-152
1277
-161
308
-754
503
-585
1605
-600
182
-264
-151
-1243
366
443
992
-96
-1075
408
243
246
321
85
354
-128
132
-1337
-6
-324
252
-119
886
28
-307
995
848
1321
808
781
-541
-1011
321
272
1618
56
-1009
-484
1313
-508
582
-239
-185
-1026
-1160
757
-1134
-249
113
301
-1144
-405
1397
360
118
-2217
487
172
-485
-777
149
-198
-404
-197
388
-788
-566
-259
330
53
7
-950
-2372
27
-213
524
361
-968
-673
-1325
-1033
-1961
-478
19
-572
229
959
-433
450
487
1564
622
360
-137
-681
-502
822
23
929
-5
-584
-210
-172
-576
21
-1449
172
-1247
-569
882
-862
-31
111
152
-946
-457
395
707
-129
-1006
150
107
-237
-446
209
-62
-45
-327
-53
222
138
-173
-272
358
152
175
68
-435
325
283
240
51
-122
709
-6
-408
165
-54
27
196
-231
395
197
-334
-382
-308
-414
-401
-235
233
190
-82
-205
293
-153
254
-283
38
373
242
-166
168
-213
301
-417
330
129
-190
-32
153
-227
-402
310
163
38
-549
-737
33
-374
399
-737
778
136
-617
1077
-156
726
211
-197
764
239
87
-446
115
-81
160
-233
-308
-320
718
-384
158
178
488
-528
51
124
-578
-909
-484
-274
113
122
988
-11
-55
191
165
379
129
-63
195
714
-406
46
574
-233
-151
2
-859
-895
-92
728
-314
-276
-510
455
1543
127
26
-338
-298
-804
-504
-916
1077
221
980
38
49
-224
-602
-543
1278
286
520
-519
484
-916
724
559
-636
174
588
-721
166
-636
-202
-857
344
312
-1327
-213
-728
-225
-242
488
736
-913
-244
15
-580
998
-886
-266
53
-940
1535
1085
558
466
-984
1158
1688
450
-1152
693
1547
-1152
697
23
375
204
-9
-89
17
-257
-270
-566
0
-57
-217
294
253
228
80
294
-49
248
-208
-74
64
174
195
368
-557
-165
342
201
-234
-3
-11
-233
13
-236
-286
33
820
-153
441
4
76
-232
327
-119
-51
-123
-62
77
-235
-365
-369
-342
-78
267
-319
288
-262
41
-95
59
119
-251
-74
-118
171
436
-562
-924
-667
-168
-1217
-196
506
1320
-162
455
-909
948
-73
-578
21
-593
-315
305
358
-121
-223
-141
-677
30
-940
-361
-240
-333
-14
-150
539
376
167
673
623
436
1310
-418
-335
-207
-319
745
70
-394
-443
722
-553
681
1212
-529
-491
97
-525
85
626
-476
-363
-384
761
-319
280
-1106
-248
359
-311
-852
-659
-303
-596
-856
852
-527
489
545
-920
408
270
-278
741
763
422
-402
135
-406
57
549
-1095
325
436
-268
-556
44
248
-261
-451
316
-562
184
-241
-636
-873
244
660
-829
-1075
3
-429
74
438
-340
-469
-70
69
1296
-629
-1424
-687
472
-164
92
757
870
505
-717
130
178
467
238
-278
-292
113
368
72
187
-289
-57
689
330
-232
-37
301
59
402
448
-173
114
63
-64
193
-66
-138
34
-358
-116
352
87
235
206
-70
457
-410
153
302
-54
-144
401
-469
169
-174
287
2
696
-262
354
35
20
-373
80
282
-61
224
209
-109
347
-77
360
-481
-442
633
-518
8
521
-226
677
-459
402
216
2481
228
200
-1032
831
-884
203
868
1327
-193
-538
-553
466
-1033
1147
-253
-591
580
-74
-348
1890
-2222
670
-1161
1296
-416
375
227
434
1546
566
341
-373
-949
274
-400
621
776
-961
-116
-32
213
646
-594
-391
-497
-524
1136
-993
30
-59
807
-1494
-1032
1062
179
357
-2137
-224
411
-184
272
49
-221
-795
-542
272
1
-753
-345
163
-276
-58
-588
-824
200
324
852
-429
-69
-828
-501
-404
-927
-607
892
-461
424
65
524
357
2
722
-20
39
391
-329
-25
221
14
1027
-138
270
-727
238
-601
365
-299
-584
-1016
-626
568
-678
208
-535
623
-331
183
-6
159
-1087
-739
75
-101
-304
-224
-225
-258
-115
-907
-349
122
188
276
374
232
410
-232
383
200
-463
-67
-376
-246
-157
519
135
60
-262
-248
419
-414
-456
396
55
-8
-67
12
11
-144
145
-46
-61
-551
-441
281
-237
590
-8
5
351
-565
217
112
213
-589
-132
201
298
-94
-40
270
-486
20
-268
162
596
-64
-128
-54
-101
-162
305
25
17
729
285
-379
18
-628
-251
146
878
-102
343
100
-525
348
73
88
-594
316
28
528
-430
-148
-1053
678
564
-41
607
465
544
-336
824
-654
-37
-349
-277
-475
52
-344
387
-81
-201
1157
227
376
345
-542
-108
-445
-822
-827
-181
1062
240
26
-963
1130
-173
-30
315
-68
536
403
-208
52
-461
-483
83
181
503
804
287
-399
-549
329
24
-192
416
-135
198
-279
-156
-132
239
-486
270
-416
-235
-844
-129
533
-156
55
-161
115
-726
28
538
-11
702
571
-585
141
163
-62
474
-875
-215
-773
292
522
-1056
-323
-516
668
-521
-382
-469
356
191
-763
-392
-316
-72
124
-39
364
299
299
377
359
-442
-240
-57
14
96
406
-208
-232
237
-410
215
344
-723
232
-188
-57
-123
313
36
89
7
325
233
176
64
80
33
-5
29
96
422
-26
7
326
69
-86
26
405
832
180
271
330
415
-272
324
124
-200
-58
-329
149
81
265
179
-366
471
-619
-1008
-793
-1145
-246
-1731
1749
274
80
1424
-852
950
731
-832
1871
1285
613
-48
-54
-278
-33
502
235
855
1267
-79
-493
133
-1026
-1563
-410
414
-776
-399
-176
-950
-439
855
644
-714
-247
-775
-203
778
-134
-1271
592
-823
-246
556
401
-357
37
1130
1122
389
149
1417
483
-1280
-593
-574
495
-69
34
-785
-248
-737
-519
-1108
746
-398
988
392
-201
-153
-452
-749
1022
1973
1169
-222
343
-1299
1563
1077
-208
-287
2103
-980
419
-780
1246
-1944
1104
1346
-1020
-1194
-900
-1207
-451
1259
1227
-870
-412
-1129
-505
745
366
-808
863
-179
8
580
31
-1475
-504
1398
24
186
-30
1821
525
-1128
-1257
857
1120
-148
-132
76
-254
383
120
-63
-207
-131
-218
213
-398
277
-131
135
-84
20
687
413
-207
-31
-27
-87
594
-81
-196
-336
-491
-193
245
-155
382
-184
13
266
198
287
303
429
-621
-243
77
-534
148
56
-137
35
-262
-165
158
245
247
50
-392
-148
-213
-190
845
303
-180
401
-426
-314
93
-47
468
50
-265
652
463
-1394
-504
268
25
-886
51
-180
90
-17
-1501
-999
207
603
612
-125
-1432
-677
-1358
278
-737
-506
-195
-854
-310
46
-27
611
263
1653
942
854
44
-873
-495
381
-10
1380
-64
-748
-103
157
-810
490
-458
-30
301
-140
1005
-1006
-692
-611
-28
-541
164
298
712
-377
-974
-42
-376
-514
89
-718
-375
-779
376
257
606
321
106
218
-806
-362
694
47
382
-718
602
-979
1034
1020
-389
-353
391
-732
554
62
672
-481
198
128
-396
-452
-500
-1382
-508
308
623
-768
328
-365
-211
523
-49
-275
370
-522
618
-32
-20
212
95
996
-155
1021
-567
1022
-117
-471
-1371
387
927
-175
-2
-403
-69
-275
-57
263
280
185
267
83
-155
-39
-349
172
88
-445
127
-170
-167
219
-7
-88
314
-115
-146
-312
75
1
-154
-75
-218
237
552
108
-253
-270
-15
379
-234
-22
18
-171
-113
33
268
79
606
-381
-15
-71
238
171
-157
-47
525
-23
-206
-506
-157
19
100
142
-443
-262
82
494
645
509
-224
-21
-375
478
367
-391
969
-339
-175
-333
-177
-795
-193
-200
582
-260
-112
-521
12
-288
-566
-711
525
-378
753
-124
317
-134
211
505
566
472
1101
-196
-39
251
301
755
-645
527
-908
736
-448
-35
-206
-110
143
185
-74
194
799
-769
-555
-565
48
318
-106
-894
459
-391
282
282
-46
154
413
354
-430
-31
-596
-410
184
-616
-184
528
-565
131
284
639
-318
433
-371
-761
-391
327
-574
467
740
-134
-456
343
43
-752
27
187
595
437
-15
-81
-148
393
134
458
-194
15
-797
1022
-819
753
-120
-386
-166
510
48
7
438
-94
-169
220
-123
306
-753
-1149
-347
-4
560
97
649
80
-359
-327
183
427
-269
434
-175
369
300
580
116
-323
-99
91
144
-111
599
241
-172
-193
421
400
-61
265
390
185
-55
-34
-373
65
25
190
-190
-465
81
-523
276
113
-96
22
-349
93
158
-144
-169
329
-369
-477
-230
260
-300
88
12
467
-123
154
-449
-535
322
-387
730
-114
625
305
103
-227
-808
47
-501
-843
581
-169
648
203
-1308
-1754
927
-894
273
400
-35
663
-1327
-836
-1449
-501
285
34
511
948
-328
-531
676
-225
590
-335
754
-1309
-600
1014
889
1658
129
-552
-572
481
370
-210
-1026
-471
-55
-381
1632
-1234
-1416
583
635
-318
-539
1179
156
1240
-466
-42
-483
-98
-542
-144
-464
-185
364
887
481
521
-293
739
-168
38
701
242
586
-294
374
-543
723
166
-643
-586
11
-562
930
-11
482
-75
995
76
-1000
-979
82
-423
-503
465
768
194
-314
-443
225
783
-653
35
294
-148
949
583
558
978
-997
1273
2195
-965
-288
510
1180
-1045
549
-1684
535
-409
-58
283
46
-88
223
-144
-15
185
-514
96
-102
178
-25
367
142
125
49
127
-354
-699
-7
3
-135
27
88
-242
-46
-185
25
-354
518
-429
-360
65
396
-474
491
-440
173
228
104
-565
273
-53
82
-141
171
500
-314
-128
152
232
-203
481
-386
-75
-198
-636
121
801
394
270
247
