-330
481
760
113
-854
648
-46
-714
42
580
-92
1079
234
-676
15
-157
1385
-81
-172
-1058
621
-819
253
-579
53
739
156
-521
231
-1116
-662
-699
-289
-1338
-2125
-1703
1834
26
-565
908
-1186
-587
180
-315
-2990
-888
-1477
-1868
-34
-267
-434
109
-303
443
262
-317
-7
-193
-241
-183
-580
586
-468
-471
457
486
66
211
-111
495
835
61
-329
-5
-44
802
-110
-107
45
-262
67
-308
-39
440
95
-67
-1194
1211
-341
142
-160
90
654
-1287
-61
1244
58
-109
37
319
612
-414
83
181
-410
225
382
327
575
-182
293
52
38
-645
-118
160
303
-896
-427
-81
-504
-59
-293
-94
516
554
50
267
-780
-32
-34
74
-204
-26
336
-92
236
222
-298
-650
-116
118
191
-555
-1291
422
-1414
660
-1
277
-235
-678
-918
852
-23
1012
-1519
-257
-732
448
324
-1256
-542
-388
781
-1059
618
-50
-1224
156
166
1691
-1507
-341
-912
-1332
733
1045
724
-108
395
987
-305
431
1352
449
822
467
-1806
-39
-1041
79
-294
349
128
-189
-294
235
-270
-122
36
191
-513
416
-146
-9
-92
52
250
-27
43
-356
400
-339
679
-997
-256
584
320
-704
-649
112
606
-558
135
253
-273
-503
366
-136
1012
-444
490
-162
540
-272
-591
1262
-639
-355
55
-154
708
791
-372
224
352
785
274
64
-217
43
-342
622
587
539
-459
214
637
82
525
-664
-153
447
767
312
437
-78
-224
-253
-250
-361
159
-225
-739
619
-217
143
-520
305
402
559
887
243
-33
65
-442
460
-158
790
-410
56
-167
18
692
-1012
-764
1844
319
119
-504
-2133
138
1083
-317
-775
-1229
33
54
226
939
-809
-544
1559
-1271
-236
-240
978
-370
-410
-519
468
-519
128
1670
-1276
237
-1025
212
-761
128
121
-800
-766
56
-1179
1218
423
-247
478
-242
211
-531
-79
-45
785
-235
112
-387
136
-421
509
-143
808
-156
95
143
-55
591
-614
-114
-56
740
-506
131
425
942
305
-135
-405
-173
222
-5
201
-693
832
-488
788
133
-307
1475
-658
-355
1697
224
220
-156
-435
845
-28
372
596
-63
536
436
5
101
23
251
-263
-412
135
349
-10
-362
-63
-324
283
-175
178
-238
227
606
24
-46
591
194
600
-225
553
1153
-164
-124
-324
-28
87
-352
19
-197
326
-152
763
-1031
-736
-605
473
-1432
727
-1426
66
-329
-220
-737
515
409
2036
21
820
1312
731
35
-222
1483
-471
-453
-24
-259
595
-237
-156
-444
715
634
-891
-102
1007
-1246
882
697
-182
551
-682
643
31
289
144
523
33
-287
-247
-36
460
474
-641
644
-1125
556
454
432
-954
489
-197
-95
-803
1028
-483
189
-622
453
282
-619
640
-443
1160
393
767
-881
911
-216
164
-262
283
-24
-341
-368
-661
475
516
-272
-34
151
-1203
156
603
-788
554
550
-931
658
478
-361
74
-3
-194
548
87
1228
-64
541
-165
-750
-321
104
-570
114
63
138
234
137
-481
431
-495
256
230
-208
476
-30
389
-78
308
-505
304
-269
172
-9
-17
194
-756
429
-575
-8
-253
-100
-380
-110
56
451
281
281
361
-661
1268
-836
-222
-1443
755
278
1160
4
-1093
-829
514
-15
-1033
-332
-716
-213
-1065
536
-476
-1138
1492
-1610
531
-582
788
1042
284
-167
520
-1564
595
1057
1052
-461
263
-120
-1929
372
743
-337
117
219
249
864
770
-413
669
216
-245
53
-571
-74
1095
-16
-327
-172
-873
-588
228
-487
423
-656
-176
162
88
323
-1120
199
-359
164
-117
-149
-379
299
414
-786
-812
561
446
-161
-410
-1447
1230
-872
758
-525
49
627
-295
-25
1827
-197
117
526
344
64
-473
-39
429
-708
-184
-88
420
-159
-142
-421
-17
0
298
463
-365
-278
317
-280
686
6
290
-560
-457
201
-329
161
487
28
-335
329
-46
-402
-432
274
-234
-235
-41
275
80
-48
157
-257
439
520
-64
-66
424
267
1088
-20
1618
-708
-1601
746
240
972
1873
368
-125
-661
-135
1175
1427
179
621
-703
791
691
-1100
615
-650
493
-888
-228
239
-402
-80
324
-1179
-337
-1242
683
-816
623
1253
-1880
-1224
902
-316
-1204
847
-163
-309
378
-472
129
-921
-43
-937
764
629
-1095
262
-163
164
-428
-91
329
378
-983
-740
-314
119
-6
-851
674
-539
1452
-616
616
-899
-540
0
663
-859
126
-1916
-1499
614
1104
937
-608
-51
419
-814
-1805
493
-766
-2334
409
-35
141
-230
262
-82
193
32
355
-738
-189
-450
-42
346
86
-628
-355
-74
-289
-205
-58
47
411
-301
-15
485
-93
-236
-851
-289
481
-159
453
147
308
-317
541
152
-310
125
-449
-158
-424
-139
-326
-737
-187
505
959
-1021
829
-868
1261
-728
655
191
1104
672
-818
-1439
-477
-1155
-1261
-154
-2055
823
-1563
-1012
-1562
1676
301
-1434
982
469
-1281
648
179
371
-1311
-125
385
485
456
777
-1041
142
-339
375
-477
-1033
1370
933
-1299
1134
2141
-1487
720
405
588
-279
295
203
282
594
-895
-425
-42
-244
1424
-100
587
344
-53
562
344
296
-180
476
-198
276
130
418
-1769
406
580
485
-55
732
-873
-273
-1038
682
1054
794
-1280
331
-193
-1072
-944
-170
1430
383
642
1888
-101
221
568
380
-279
13
145
46
-103
-40
-7
-92
-142
322
349
-191
-418
-295
910
114
111
-242
-600
633
293
-488
154
302
389
-119
180
-270
-156
733
-496
364
-631
464
481
-260
-385
-37
337
232
74
108
341
223
599
950
127
-683
447
-694
332
158
-382
-239
366
-451
127
131
95
810
-682
-422
-284
747
379
-604
10
265
62
-209
-1467
600
300
366
-373
286
-591
-335
143
680
-75
289
-1724
513
-1359
-359
-815
354
-63
-932
1776
1255
527
166
-228
349
11
173
151
6
870
-27
-653
-466
-462
-63
-338
-1229
315
1132
220
-95
-309
-26
966
-1016
-94
54
223
-596
173
-467
460
1072
-465
-60
-531
509
-280
232
358
-589
323
-478
-684
-26
1743
646
-27
1040
-276
-397
-127
-479
-78
-120
149
494
175
448
-16
186
-299
234
30
586
482
-493
167
179
-96
387
-632
-597
-15
273
175
-14
-159
-228
169
-117
-638
375
-316
-481
76
-404
265
91
246
-150
-108
-344
135
-223
525
320
922
-705
697
49
1090
-721
842
-80
830
845
-758
-1037
741
-480
-661
593
-1433
513
412
-335
-666
988
-491
111
392
414
-700
451
393
-31
-471
374
-135
574
540
1495
-148
-581
-320
-109
262
-1537
50
870
1216
276
2148
620
727
-1344
-554
1585
425
343
-313
372
-1183
221
-499
371
1117
919
-831
2456
-535
744
232
-796
750
312
-1414
962
-53
-379
350
-1085
288
-894
251
676
-653
-259
-866
-824
653
992
-255
757
-383
785
-754
-609
-592
-184
-1494
318
-543
-328
732
126
-245
409
462
155
89
61
-649
1
-444
30
-299
69
194
-38
-67
-35
-564
265
271
-54
498
-422
397
55
303
-460
-466
304
15
190
-517
233
-101
92
-23
10
-150
92
-563
-403
244
-375
-407
323
-439
-133
-1010
1182
-860
1244
6
-998
-161
498
-772
343
-718
292
-1261
78
1292
444
-126
242
491
-145
1382
-134
332
544
1523
136
-1032
430
1388
-2175
1273
306
-167
-1945
-539
-3
1360
-889
1110
-307
878
112
1073
85
-693
-585
-659
985
-144
-901
48
-113
36
255
-74
-297
595
104
-676
-297
872
196
134
-980
-373
592
2
-43
464
-332
-197
-215
-126
954
-674
-411
-284
-490
683
210
151
538
-364
101
-186
581
397
51
699
1205
-801
-485
1033
-244
23
14
-292
198
361
-290
-102
380
129
-419
334
-102
-415
-432
-188
69
-41
313
-418
204
-313
210
181
-71
-52
-25
240
255
135
125
-158
610
-248
-3
250
-182
-131
504
-402
223
-68
475
395
-344
-708
39
-186
-191
960
-14
1864
-342
430
408
2594
1613
-916
-870
838
-120
1550
136
885
-1610
-923
-482
1184
1016
-1690
1375
-74
940
1332
206
180
-689
899
-984
203
992
-295
-456
-1048
333
-281
187
358
-496
-65
-681
-655
98
2021
1489
207
523
612
-449
120
-263
933
-1066
-639
-536
713
1346
-864
-261
-290
-820
-1376
1192
-1122
258
-1677
-744
-451
-265
-127
-1451
1127
-1185
64
-680
1254
-237
-701
1190
-370
-1296
476
-1074
-1021
359
-487
1014
-1740
216
-650
-889
-513
-718
1193
-1338
-792
83
-183
320
55
-37
-276
-998
110
266
-79
-199
505
111
233
453
-163
-186
509
29
503
-146
285
459
-39
-312
207
-294
350
-394
-607
713
256
151
75
397
14
-490
76
-419
-256
-156
-301
145
289
-529
-51
-658
234
729
308
-403
1392
-1488
1842
-228
1348
-75
852
-1167
792
-837
1130
-599
-744
388
193
1474
-760
671
41
-447
295
-1248
609
467
532
-734
-1210
306
391
-803
1503
-549
-651
-114
222
1057
-131
1304
-561
-330
-1307
-792
548
-348
-575
-1924
284
218
-1064
1002
-888
-682
-192
95
-2377
1413
-446
1367
-988
-322
1579
837
72
-1260
623
-336
472
149
85
-579
412
-91
-389
12
-362
4
-396
-993
215
-1265
82
-504
344
-74
5
1293
-563
-1657
-1392
-1011
-1601
552
-433
110
-242
65
-544
53
-413
180
454
-66
-232
150
-25
431
81
-302
-356
-323
-488
97
79
-1088
736
-372
-148
120
-34
-567
-461
168
-167
-259
395
662
82
61
-172
666
363
75
-36
201
-417
-199
355
115
-159
-89
849
189
600
-516
1005
-1056
1097
476
840
415
540
-782
724
-707
112
45
-1460
417
-293
852
-918
-87
-415
-498
809
-1729
594
-772
1361
-640
-1499
1638
-357
-653
1451
-72
-1266
-11
-857
1127
-1184
1088
-1341
-595
-100
-887
1339
731
472
-728
634
21
630
-68
525
623
133
-245
-1082
22
293
239
-827
-491
-713
690
376
-319
-122
353
116
120
118
-1030
-103
-694
405
-332
-72
741
-485
-296
344
-744
-642
1122
-296
192
-102
895
-1136
-994
57
133
-210
1451
-289
-375
-9
163
-137
-189
-225
216
-578
-322
68
46
246
239
342
-7
-152
13
-764
293
-314
62
-179
-312
236
-409
219
-320
-114
222
474
198
-191
-6
419
137
-100
197
51
446
32
402
-15
26
-471
-92
-236
-94
51
-827
-677
-227
382
768
-19
122
63
671
-631
-709
-928
-456
-1029
1800
-2636
-127
-658
-453
-798
1458
-310
-318
-162
1088
-1201
1307
-1202
1677
702
-983
1315
1909
-995
34
-91
1624
1034
-1515
2295
-2160
1441
2351
843
1321
2454
-2248
-187
1846
-569
270
49
-528
-44
-610
-672
350
939
588
-42
-594
535
79
329
-1220
-355
451
569
-1080
502
50
-1117
293
-329
704
-224
671
612
-415
1099
530
-106
735
58
1014
-331
226
477
-37
494
-185
704
922
-403
394
568
413
-509
183
293
-16
-470
-158
-66
-357
288
-366
-285
489
414
-156
-139
-501
810
-168
-503
-178
-106
173
-431
-122
408
-116
-192
-46
-186
561
413
456
-408
78
-199
-45
165
219
659
180
224
-126
211
-109
-13
-248
118
-645
-1687
476
-540
-571
-1451
-523
973
891
-762
233
-61
1826
-956
1182
1321
628
-387
66
1444
-1006
-319
159
-1123
-827
396
-7
-781
251
530
-614
-509
-66
1387
470
-594
-788
-545
398
52
1525
182
-119
34
-1563
-135
1404
-331
-1569
-938
1421
-1055
1897
-1090
-862
-1339
1240
-1609
942
-1236
1328
-1727
834
1045
231
-935
-1842
1028
-962
1108
-1083
551
896
534
-310
-406
-324
-428
-331
-1009
-1213
-908
-2418
1582
-1282
613
-164
-160
-690
-200
-812
-2261
-1142
-2439
-1443
524
-64
585
-640
-519
36
-335
161
-528
-498
-363
-340
-75
52
-504
-418
627
42
-27
344
731
182
124
231
481
568
-479
-393
0
483
-397
263
115
-20
-132
-35
143
493
7
139
231
-182
72
520
-287
-46
-306
-43
220
275
2070
-1658
223
-763
745
1736
654
-1561
425
-601
1156
782
1565
-668
-15
-163
1225
1670
-1590
755
-1291
303
481
-411
-1006
37
882
-223
-178
987
-175
578
128
2421
-1736
1367
-499
-521
-592
282
-471
-124
1900
2041
2268
2280
1524
-1120
-49
-573
1320
-1129
796
634
1618
-214
-86
-1545
178
-1034
-443
-722
-1567
1567
276
-499
-702
1381
-1188
-503
1365
-572
-43
-1440
1805
-969
-612
1636
-765
-749
450
-306
-1124
-485
-251
175
-1115
506
-1307
-604
121
294
1449
-397
-446
-159
143
360
432
-427
230
-211
35
128
335
95
31
-92
-20
516
603
131
341
43
-1
243
-239
441
-57
76
514
-343
-315
155
-197
-406
-3
-464
222
-284
168
-67
0
-30
485
-128
-8
375
-145
86
-500
189
-884
-755
-296
544
-319
376
629
-457
-643
80
468
296
-656
-1033
180
-850
-293
-863
-192
-1218
-1335
-734
-435
780
507
834
470
-521
-179
-983
250
553
-590
-1173
-666
-379
383
236
314
213
329
354
-457
-718
-1218
242
-1424
-24
-308
-547
381
265
-419
460
-525
-749
-10
204
-706
866
30
1213
-417
-172
978
324
117
138
505
-1056
843
29
332
30
1032
-542
-335
-125
187
-714
732
460
-475
-1385
89
-809
1063
-1428
1012
-28
246
61
294
-389
-904
-363
105
120
91
-69
-146
348
-522
-13
273
497
-419
-169
-94
274
-207
-65
-490
-133
-340
-34
107
-189
115
-36
-541
72
269
225
393
542
163
-165
70
-307
243
-199
-91
211
71
249
472
87
1
-45
31
76
-56
6
-320
-387
77
-72
-88
-754
-119
223
1515
-670
90
-1230
81
1093
1117
468
692
1314
223
546
61
685
-374
313
817
-1086
1083
-801
697
-1211
647
427
-229
-303
738
627
-786
-524
-51
345
-34
1185
-338
141
1674
-953
196
645
-276
-457
-120
295
-450
19
-470
217
74
-732
-316
452
-33
162
-455
-532
431
-25
865
-534
-604
-545
-909
986
-106
865
-269
419
-661
515
382
-572
454
191
-588
-460
1010
110
1103
-1090
1249
-708
426
580
374
380
-115
-1993
-71
-241
-661
-256
-14
14
-73
-882
701
239
251
-475
322
330
-103
442
331
-605
-216
203
-460
333
192
-78
-382
-238
-503
-102
216
-62
-475
285
-586
-232
230
-78
436
-51
388
-585
446
-95
-131
6
741
82
-305
-567
325
-1172
-120
1185
-1111
1079
-1838
-769
-943
1326
-1219
1094
68
933
-1182
1286
673
271
-551
-1791
1372
-971
95
-710
-219
466
-555
590
-355
308
-432
-221
56
681
659
1847
-73
-728
-196
-222
146
-597
811
931
848
582
1055
649
-141
340
-208
45
230
219
-292
-261
-126
-209
399
-340
7
-177
313
800
-894
-504
624
523
119
516
-344
636
-427
163
-980
-79
54
-680
-360
-21
-776
176
-1263
691
915
732
-1288
1131
-412
-394
97
312
-1009
-220
-446
103
-185
-592
552
-270
239
360
524
114
10
685
-162
251
385
-327
-153
173
189
-188
-692
-753
266
19
722
200
576
22
74
-526
-109
377
91
-475
587
-873
-465
438
-309
-383
140
-221
-228
263
384
-581
-576
58
54
192
840
37
100
37
1000
-595
248
-726
441
1065
-1037
300
-42
115
-1407
257
144
468
-1087
-80
-231
-365
436
-377
-411
-142
441
351
-807
480
144
-1065
1085
971
1019
864
-315
-158
218
-594
979
-16
1166
894
717
612
400
-950
-35
-499
-326
602
44
576
-332
536
-951
-24
114
131
298
-195
-231
370
-348
-355
50
-154
401
-30
-360
573
-612
-59
-949
-164
428
-77
-522
427
-1007
-59
-304
69
825
-272
-560
420
-352
-247
-590
22
-875
-1069
-292
208
141
-995
380
-400
102
137
-132
166
97
-238
6
-21
525
-55
-79
-137
133
-26
-4
447
317
236
-109
260
43
-152
-104
98
-63
-178
-311
-313
99
-399
-630
254
-81
619
-172
417
-335
-123
122
-539
218
443
-511
-171
-317
-771
704
44
-748
405
53
240
531
-280
-1084
993
690
1531
-336
-1022
2087
850
626
-303
156
-291
546
-5
-368
-370
1056
188
-605
-733
116
-1332
1347
408
-770
-1130
-716
1039
708
487
721
88
1574
411
-1228
337
-505
-1012
92
480
31
-230
44
-534
384
-186
23
-322
551
-60
-655
-360
41
-164
20
-10
69
-59
-266
81
208
489
-281
469
-281
570
-452
154
429
70
214
308
166
550
-454
679
-708
1072
354
-267
630
662
-216
-285
1068
337
-587
498
-696
680
-391
-28
311
-106
247
-76
-31
-11
-347
-142
-136
314
378
-212
137
-142
-710
-690
198
-636
347
-141
-70
11
-213
-252
221
452
-615
-38
49
-306
219
-61
77
297
-22
316
-532
-67
-416
-636
-53
56
-169
894
589
-553
171
-948
-76
742
437
-1581
1215
253
-296
-100
890
-1061
971
-512
1068
532
-327
-468
-293
958
-139
421
-335
198
-692
1026
633
520
-324
-353
-729
-325
1019
-427
-84
-521
78
378
-1083
-693
1296
-163
-1110
1695
-888
-863
-1002
694
-936
247
-654
-1242
-63
1359
-765
366
-727
395
-599
752
772
118
-1294
-1302
897
-1148
608
-1100
249
272
1463
-145
-161
-1502
467
-1231
709
-985
-878
-832
761
-1113
2633
-923
516
48
824
-307
-588
-572
-1856
-2937
218
220
-108
-31
63
246
-64
260
307
180
149
-204
44
70
-339
-236
-307
325
-142
-338
558
48
-14
324
237
-113
-322
234
-8
198
-78
-103
193
-109
96
-49
70
-383
356
-380
-309
96
190
359
279
106
325
-72
-1127
1208
-704
-7
-1785
909
-767
-410
-403
4
1462
204
-769
-5
540
-556
1568
-1154
-318
681
1043
-1380
329
-287
103
-1013
990
-91
57
-400
601
-863
477
-965
149
-1534
-1156
461
-261
757
-1253
1516
-16
-842
-712
-990
-252
386
494
378
622
-425
-88
-750
-504
53
1035
-959
-199
-63
-632
196
-161
-1720
160
200
-166
-285
-252
-474
1053
-374
-324
-193
261
82
-744
1141
664
69
1021
794
9
416
-969
48
1618
-1108
1528
-110
659
835
1997
1048
763
-472
-63
646
-130
-433
233
105
-134
35
-183
64
230
325
180
26
452
248
157
-112
170
19
35
-158
-46
-560
203
661
-236
-144
-237
220
-127
163
-211
24
300
643
-74
197
119
-258
478
-59
384
-197
-76
309
518
277
-659
-450
470
-620
-465
173
129
128
-270
-237
-1011
523
335
2193
482
307
1476
798
12
735
420
530
88
587
133
-502
709
313
-228
-1368
-557
-976
661
1193
-315
470
277
-140
1210
-198
1141
97
429
684
-697
230
-519
-1366
10
-994
-188
826
20
-512
-265
575
918
-832
206
-484
617
472
785
-570
94
1260
1317
803
-156
219
-911
810
-138
894
-1084
-395
209
-7
179
714
-400
-1079
-1022
-72
1107
557
-777
250
-666
-1262
-90
9
-979
1078
-82
-308
-564
227
-134
118
-604
226
616
-677
474
-174
112
79
29
-297
-156
229
66
886
397
555
359
154
258
-26
2
44
195
-54
104
-270
454
5
204
431
-370
-231
498
-200
239
-105
-493
-372
-182
63
334
-307
-49
322
583
-405
1686
-365
-156
276
48
669
62
68
-610
1355
346
526
330
-780
1054
-353
-502
-581
-960
-253
415
-339
-463
986
625
-245
340
-476
370
-441
-487
-881
-968
-741
1127
-787
118
561
-138
-177
739
-375
-837
-492
-1665
-1450
-910
-70
-1628
711
-612
339
-492
-603
-226
-67
-486
-231
-436
716
-608
1071
467
558
205
125
1155
-391
-337
318
-1049
824
-234
305
-910
543
394
-282
-117
-139
-574
-135
872
374
-1247
1020
-260
-5
685
358
-863
-1405
-1132
98
51
-426
217
746
-249
55
606
-315
-647
67
84
-119
517
55
-238
-107
42
480
-68
-135
-269
-73
-351
-330
547
411
-534
346
22
70
275
540
-111
-70
-118
-664
212
-368
-32
12
-541
-699
-139
183
110
-510
-246
-231
1009
-576
27
292
204
658
-229
304
-71
-148
-1446
-218
-165
551
-1115
-1205
144
1288
706
-863
113
1284
146
-347
560
93
1603
-176
-206
-554
85
-1031
1202
-320
716
-895
-973
-876
1774
-1046
611
70
823
-486
-391
496
-892
-2003
-1224
201
-1268
613
-966
730
-1300
-731
-681
761
222
805
-1397
627
277
1539
593
-1082
-900
-705
441
-1736
63
-167
-648
377
-231
1137
-659
170
124
-1416
14
630
-425
267
784
73
397
486
1053
196
1093
869
-1199
79
-1214
-1272
-307
-206
-1134
160
204
-464
47
-71
748
-64
420
-258
284
-61
150
670
-499
-8
-411
649
254
115
86
318
-436
-655
484
753
-147
-159
144
211
-50
-47
-327
67
-153
-26
1
109
-592
417
-136
373
68
-308
311
-169
1520
-782
-280
184
1624
-1048
279
1316
984
-432
29
-1383
1050
491
-526
399
-1754
884
715
389
-193
792
-2191
698
1143
-1936
-701
-866
1160
667
-592
1399
-313
284
1722
-283
-2007
609
-466
124
-635
1244
-1619
-1015
1449
430
1762
1455
47
973
1052
34
474
-328
1328
-75
-622
67
810
140
1198
-796
874
-594
-779
-1063
36
-155
-916
-48
-174
85
-82
-337
-1402
129
26
96
-81
1118
-408
1301
1629
2299
-1296
217
-375
-1606
70
-78
-76
608
2307
1767
2521
1495
193
452
35
192
-104
-164
-73
-635
-180
-436
-387
42
-75
561
-67
-146
282
-693
146
-207
-258
34
-54
310
283
473
503
59
-591
20
15
-258
318
338
-35
-53
264
31
-506
261
-525
-138
-142
-116
598
147
613
84
-292
1255
396
476
228
521
357
55
-1569
-47
923
1458
109
-1491
584
2
-802
-1653
-593
-461
-713
-296
372
432
-666
908
-1542
163
-696
1149
-254
-180
29
696
-1413
-787
1615
814
791
-1578
1051
-1027
391
137
-862
284
-762
-642
-388
658
-1072
796
-179
326
-215
-29
-650
1214
433
353
-227
-291
-382
-658
486
-1098
-748
-121
281
-1156
975
-384
-203
-221
567
-491
539
446
-365
40
205
-778
1383
-214
-735
-685
-144
107
-536
908
-365
-877
26
-554
-749
201
-175
271
-177
-243
-565
-66
60
-326
-252
-368
-611
333
-11
63
244
-84
173
367
154
-682
271
296
250
-371
-374
566
-142
-47
19
101
-84
-406
336
-43
104
237
62
-301
-415
65
194
-303
-165
-345
-18
378
218
-59
196
380
44
-1590
-139
-721
-9
-377
1496
-208
-34
-487
-1130
69
72
-82
-178
525
-627
826
-699
1293
1157
-1063
329
-45
578
-31
-61
-1408
-326
203
347
606
196
306
-640
160
625
-386
212
73
884
805
41
718
813
-1920
-774
844
-221
-709
-377
-642
-269
35
815
-982
545
-586
-78
562
1672
-119
631
725
992
1154
555
518
-426
802
-925
1155
-954
904
-317
490
355
-291
724
-48
-901
792
73
1855
-266
1284
-267
-330
937
795
-500
811
-156
-89
473
-181
494
549
593
245
-49
39
200
-339
582
-317
179
9
-27
194
53
-183
-290
313
-48
-136
26
-121
-603
446
81
-441
-697
-89
-155
78
513
376
239
-416
-230
145
-466
-233
62
-128
-232
-441
200
173
-526
-617
-661
563
122
-114
784
-104
719
1113
-1193
-389
1035
-81
584
-1095
567
232
-988
-959
236
1089
-529
679
-1192
1482
388
-84
-101
303
75
-337
-499
-526
-555
-60
-672
-1025
845
-35
-184
165
421
-331
-527
-652
-1550
615
-1243
-403
1097
628
1722
-1887
1139
-1615
1723
319
1230
1098
745
-744
979
-1343
750
-464
-1422
-150
-1255
890
-1974
1395
544
-1558
1313
-375
-234
-191
764
-30
-669
786
-798
-695
780
661
-1594
-657
-648
-1120
-1303
-118
-774
-220
1126
1597
2090
1013
-763
-136
-330
6
5
-55
-190
-281
108
-339
-28
-519
235
223
-270
-9
-609
348
-322
419
56
-162
-7
435
107
351
432
-75
-22
-160
-96
132
-341
-114
522
319
291
-285
212
541
-360
-610
-109
419
98
-254
-97
-9
-41
284
273
-1232
683
-2084
179
-329
997
-1256
-189
-433
-538
-871
301
-1227
47
-219
264
437
-1617
563
-209
393
745
-1584
546
-293
190
-90
-432
997
418
-633
1480
-326
-1649
-14
423
-309
-355
1228
-829
-744
366
474
1025
222
350
-683
127
284
-198
233
-545
-33
368
121
-362
128
20
578
-452
487
420
2
-304
-507
143
61
-290
36
576
10
286
-417
230
-707
-417
355
153
397
-126
-432
-98
-713
992
-132
120
533
-12
42
-333
210
-517
-922
510
2
95
-55
112
276
278
146
114
-156
-38
-40
193
-125
517
667
314
-67
-44
384
205
-141
16
201
332
-443
159
-44
-359
-61
-56
-459
713
-432
18
527
-1057
-68
228
-516
-131
362
521
502
-548
53
630
112
871
1340
-109
45
150
49
307
376
-312
-242
783
-1158
-178
-917
1293
59
-885
138
645
1096
-128
81
213
-197
774
-820
488
-1046
1007
331
-99
1736
-1022
-727
11
-152
-394
-571
-773
348
-439
559
-1468
-803
1200
-729
-148
1928
-213
-375
-613
-103
-210
-172
-462
-438
218
539
-660
560
-362
470
-828
501
477
-274
-559
-299
149
-148
388
-721
306
-789
1479
152
256
-1164
-172
-1022
1075
-231
741
-1008
-692
56
1060
394
-271
1280
-151
-401
-870
63
-765
-1204
464
-314
59
595
-226
-652
-187
364
99
-684
923
417
-376
-453
-214
340
514
39
-31
612
-323
225
169
417
-276
376
466
285
232
353
36
685
383
384
196
-301
-426
15
537
-332
469
495
126
-242
152
-712
411
-843
-2103
-641
-1124
424
-971
536
-530
-723
-564
152
-155
243
-836
31
-40
810
619
-642
246
-564
573
370
-1003
764
21
75
289
-587
1048
-1933
-711
915
-1611
-2060
-969
-15
779
20
-649
1957
-1792
-24
-964
-604
-1911
-1120
-1361
-50
688
523
1467
-1142
634
-695
681
495
1356
-1022
626
-706
1210
-155
1318
-647
-105
973
281
1462
-410
285
-643
-177
525
234
-599
174
9
1063
646
62
202
512
567
163
-1078
344
317
-1076
-13
-633
514
339
1481
912
1632
1077
278
596
280
167
213
117
-16
173
312
361
261
-353
-114
647
139
780
-464
-43
-319
-30
340
266
-317
77
-54
88
-132
186
472
412
79
204
320
-323
-31
-344
-147
-149
489
58
822
105
-307
488
-67
-56
-104
-28
-257
-425
-222
153
-115
-391
-1390
311
540
-388
-579
206
-417
725
-531
21
312
22
494
-67
25
132
-125
628
-177
-362
820
-80
-742
488
584
-1002
892
579
1182
-263
-731
-90
930
-204
227
833
329
-164
412
46
-411
210
-127
5
-53
-144
-617
19
125
-60
-683
313
654
272
128
-262
438
-177
330
-353
23
-237
450
-253
-615
203
-453
363
-822
-196
-131
766
-460
-362
116
799
57
462
1085
-417
-116
-325
182
-331
366
23
-629
-83
-27
-887
86
-60
-64
-263
10
139
286
229
518
-600
-315
-282
227
452
116
242
522
137
-279
-28
505
349
15
125
367
408
-137
-15
-672
-80
-162
-22
578
228
-73
223
-13
349
-460
-448
-69
-330
-167
-118
424
141
51
132
-917
148
-1344
854
-99
-111
-880
-787
-322
736
142
-212
-632
-687
164
550
367
16
-148
-289
805
-1099
-399
-106
-192
-362
116
361
63
-97
-317
871
-512
-644
247
451
348
-378
-871
807
-639
75
-724
-373
403
-381
292
1349
940
-986
-328
1235
-164
656
-469
19
-264
-130
-1302
905
816
1775
-1299
-347
830
670
287
-671
864
-901
231
-420
799
-284
1098
-691
191
-715
510
-573
255
-659
-54
-1713
72
-897
2130
-1893
345
938
-900
-1199
-97
-395
-1786
-952
-32
-134
433
73
-370
-119
-21
-163
-450
17
292
49
150
251
165
-124
390
238
181
413
-229
387
-100
352
63
-354
511
244
224
54
587
-328
-308
-106
-381
65
-60
-66
-101
176
426
530
86
339
184
-88
5
414
-1022
497
-2227
1348
-1382
779
-1060
399
-1174
-842
1068
-482
-1018
-462
835
-197
842
-84
1975
1117
1263
-68
-248
784
533
213
144
-676
264
727
-46
493
-169
-507
275
-1005
-720
124
310
-680
-445
-298
-786
-548
839
134
-166
616
-293
-754
162
-449
-70
-187
-287
-432
1013
701
-800
188
-321
436
-452
699
337
30
-1049
-380
160
-473
439
-484
720
-560
1895
216
-190
-1696
-337
-406
1243
-44
1016
-1088
-951
-204
1210
-2
703
552
182
-507
-1290
781
-425
-1286
45
125
74
218
-192
-313
-438
222
24
45
242
-343
37
-481
-251
94
95
221
-93
-467
-169
-11
3
87
-177
234
202
432
-135
-267
-253
-148
-167
30
-165
169
234
105
-291
146
-229
419
-61
-23
-311
-96
-160
133
1861
-137
1492
-2
1105
-1287
324
873
1284
-417
-135
-1587
1466
-584
316
-1293
-985
1278
1255
209
-1073
1469
-1216
315
1292
-892
-895
-1682
1242
-46
-734
1903
-355
215
294
479
-223
-100
702
-1176
-479
266
-993
-725
1400
1392
1325
445
468
-954
526
397
420
83
490
400
245
-34
-677
-473
223
-87
-943
-817
-436
623
266
-522
-1209
-36
-331
-224
755
-604
1143
-394
584
-280
-750
806
-459
82
1464
-194
-733
-1585
423
-324
892
648
-1013
-309
1567
80
543
407
-84
82
-482
-483
265
-383
106
-238
435
-138
415
-15
-61
57
-58
-303
341
-414
-509
-358
364
-128
-117
172
-398
-98
-282
756
158
-83
-447
-167
35
177
-24
-164
-79
362
112
589
859
-194
-83
119
-161
508
185
-155
1928
-379
-608
1389
1252
88
-281
-834
-358
1722
-795
-654
1229
-673
-1110
1851
-2599
1409
-17
-771
926
762
-685
-402
351
540
195
201
-225
219
-899
-695
-837
-478
-224
-341
1396
-1437
-967
657
136
-253
-218
485
-1083
-1574
-374
-83
-135
411
564
369
-445
524
573
-439
-999
256
276
428
-525
-1022
-272
-85
192
-1243
-691
-242
-715
187
1161
-373
484
-43
-56
-409
655
-725
-32
628
-650
-350
-127
1239
-167
-534
-573
158
-545
466
-562
-48
1267
-89
80
1052
-139
-53
-361
-484
8
114
283
94
92
219
245
29
-226
267
-239
-207
-30
-150
-399
109
-66
-567
312
100
-283
26
49
719
-128
442
-68
102
-56
-22
-624
-28
79
239
416
52
309
56
-406
194
639
-452
1112
-122
-245
584
806
-978
374
-797
1461
397
849
-643
1269
-1314
-108
-1612
1512
-2173
-154
272
876
1314
-2072
1207
-81
319
1964
-1446
2173
-1435
1605
-877
-331
1467
16
-837
1430
-2059
-1615
-665
802
-784
-415
654
-1134
-2002
617
835
725
-929
398
-291
1055
-730
347
-688
137
1873
85
-1632
322
-256
1194
754
492
-10
-153
131
775
1275
-402
-26
-1204
1171
472
-385
-955
528
-63
1116
-389
220
300
888
381
374
-699
1131
141
-1126
-140
308
-565
246
835
1064
1859
443
594
-578
-301
114
-469
429
-167
-70
-260
-1102
-32
-108
220
-277
380
-172
232
634
105
-352
215
298
-700
-400
40
-132
-22
342
38
-630
-77
217
-60
730
772
60
-555
537
-372
-476
-750
243
710
108
-47
735
-172
-16
-1913
1317
83
-1124
-719
-456
-95
-369
-286
558
1605
716
-69
-1516
1621
796
298
-1445
-1154
1468
-596
-775
38
-351
-1611
482
-1717
271
422
699
-42
1119
-594
596
-1359
1299
1254
1208
-1279
1173
85
-537
-481
615
138
-1041
346
848
390
1186
-243
-305
629
-694
72
394
69
-713
483
42
289
-131
530
-1556
-104
-206
762
275
24
270
230
242
-550
128
-1162
114
-439
1522
768
-130
7
57
465
470
-711
731
-834
-252
-290
440
-101
-100
906
402
334
1629
-243
314
-554
-209
-517
63
55
241
-358
252
16
154
-438
94
-111
-440
-49
-34
195
-659
15
-141
403
-254
459
326
-422
-556
488
105
-163
427
-207
-55
85
-233
391
-177
-443
-119
741
119
-3
436
266
692
39
-136
-453
-286
-837
745
-364
695
-1120
-148
-551
113
2
351
-26
602
-534
148
-255
-359
-326
-834
713
-397
-543
187
-54
304
429
164
-507
1032
649
-452
277
-520
-116
-894
-54
143
71
-12
272
-146
239
-282
139
278
-900
515
165
2099
895
-2115
155
-597
1201
990
103
-1069
1602
-185
322
-909
1757
-688
-748
-1039
-194
1535
-1391
836
363
140
-162
259
-1530
483
-169
876
-379
45
611
956
199
1017
220
1191
-347
-1515
889
-762
548
268
1096
1410
2001
339
-20
271
-309
-196
-337
66
-592
151
221
110
-766
-621
-2
-398
-373
-146
27
7
-248
-642
310
429
-639
-414
160
158
220
151
93
396
-251
34
-138
-166
53
39
-44
130
-12
86
-199
149
-149
348
140
388
236
220
-672
187
-142
172
-643
62
310
-41
234
466
-360
200
-953
-151
-894
1
1108
-580
-527
-208
-1087
-301
784
-86
-1696
1158
-422
1039
-986
425
992
-518
615
-103
-1021
1517
629
762
-359
997
253
-641
886
883
1129
-468
-1251
502
-403
688
-966
-14
-335
498
-559
-201
-958
-142
633
194
-1063
-284
-366
304
-149
-1620
-280
541
-18
-650
67
-144
-762
835
-136
448
-644
235
1107
-1333
346
240
-1074
59
812
35
128
-215
286
-939
905
805
-213
-643
7
-854
301
-334
-351
211
281
-415
-157
-578
-316
383
114
-152
188
-67
-391
-808
-383
-175
211
-55
-265
167
31
514
-230
-334
-247
-268
545
-10
-824
171
-81
-676
-317
236
328
250
176
72
458
138
72
206
376
-520
3
-65
-952
-292
-1590
708
-1880
1278
-1306
-1258
-628
360
-562
810
-686
1504
-513
957
2166
-54
-148
-624
1117
-1892
274
275
-1053
328
-633
38
-380
228
793
-397
59
-169
-313
248
1076
996
-897
98
-425
235
412
-281
580
-423
-862
1406
153
950
485
-1148
955
-1489
1155
602
790
-1149
1591
-1007
280
-958
2062
-1000
-777
-375
495
1569
-1516
1088
-549
1043
481
-347
-206
493
790
-806
-968
488
36
472
869
1016
-639
140
-744
1172
-512
-560
-38
1247
-214
130
1904
510
-321
-683
186
-277
483
-279
-158
127
-31
368
-249
354
-399
-823
-675
464
807
-317
-542
-191
92
-237
471
-59
-140
-35
-30
-553
-218
515
151
-172
-251
-383
263
-477
-404
-432
-23
-656
-380
15
-121
-689
-578
557
-324
-142
1585
-391
320
398
143
154
539
-202
504
1077
-771
-56
162
-137
-796
-1160
-55
672
-254
-820
-710
-331
461
-1189
735
184
-179
-1156
1133
-55
-218
1471
-552
-897
-514
-968
-521
-107
449
229
-1039
-476
-556
-1006
-577
506
-227
-1258
-667
-1036
-800
621
140
41
102
-361
79
37
-1098
160
-648
1150
-904
471
384
779
-286
-428
576
-161
144
528
-180
-910
826
580
109
3
-420
-115
332
-367
1463
-1175
-682
-685
-75
1029
139
1013
-310
-441
-896
-1920
-359
264
-205
99
236
138
-199
-624
-326
-341
98
-439
-643
537
-488
-402
-562
-59
469
-94
279
503
15
-674
-20
268
-96
-459
-193
202
17
287
556
-349
-180
152
76
-403
-185
438
118
312
-143
194
-489
-667
-379
292
-56
-53
-266
-1089
-507
778
-529
146
-1496
-78
33
408
-948
1081
-166
1734
-1198
176
1211
390
-158
-1735
1269
-2186
-735
-429
-1645
780
-341
224
-835
1238
1030
-1507
781
927
-285
-185
247
597
64
939
433
427
1144
-314
-749
194
-1083
-678
-474
1508
312
-51
-94
1135
137
-87
-2198
-637
1255
826
-678
-633
516
-1733
82
-2323
-56
-252
-259
-678
375
-101
-1099
1082
-1882
1073
-1363
1999
1388
-1280
822
2000
-957
577
771
616
-343
-792
1124
-936
965
1189
1046
430
666
689
654
543
-781
-741
316
-424
-238
-399
-648
-218
-190
463
144
-203
151
-992
399
-553
177
425
-619
361
-346
408
48
-517
-73
-137
11
123
2
-159
-294
-113
-2
385
308
-362
275
469
491
-638
144
263
279
122
487
-61
1569
892
-175
-344
1144
-1346
541
-63
1039
618
-247
-72
303
-754
-321
-1093
-1171
-128
-1204
-183
-1041
780
888
-1380
-271
254
-653
436
-1171
940
242
-606
366
1073
191
706
236
302
172
-1137
1084
-415
596
179
1347
1262
340
32
-21
-100
631
276
214
312
55
-379
-763
979
59
134
-278
-1391
3
226
-73
-565
128
7
-590
238
-25
266
789
-120
94
-597
869
-259
-1015
671
-1157
-1191
234
-185
222
-1218
-986
363
-983
52
-1189
-474
-865
-702
-135
361
-245
-171
-122
255
-169
-164
-270
-23
247
-61
104
63
96
72
317
-341
179
-187
64
-60
344
-454
399
524
-244
-231
-674
-3
217
-68
-79
-486
-253
-102
169
425
227
449
-76
-53
-118
-537
207
41
-42
501
-321
-184
-1527
449
-1168
-245
-616
-19
-1143
-766
207
136
-126
410
-1223
1143
-252
-77
653
-591
-872
117
527
-1259
1092
-392
-1361
356
-28
1052
-879
334
1044
-1660
664
-131
332
990
-217
454
-794
350
-271
300
941
603
164
-325
166
919
-73
241
477
-332
-234
464
142
919
-279
-1408
679
-329
-111
180
1136
-1007
-103
-208
1036
656
-679
679
-425
357
-547
599
-1030
560
-116
426
274
27
-47
500
-652
751
291
772
105
-355
473
-1047
199
321
-150
153
488
188
-155
-614
296
-672
123
209
806
630
632
343
-124
52
136
-283
42
-202
49
-14
237
-210
230
-151
-317
-473
269
283
316
-27
-236
-63
579
-568
196
-87
-490
139
-21
174
16
44
956
123
-340
-436
-455
36
186
498
778
-849
433
361
1248
-363
747
1185
-117
-801
-366
-13
1044
258
-48
1322
-1335
579
865
93
-383
808
-1297
942
1330
161
-480
236
465
-169
-198
955
-508
-272
508
-192
-383
-426
-190
-400
-265
-648
-488
-187
-388
-94
1590
725
-109
-296
-832
1538
-262
1071
-124
-842
-1485
1459
-816
952
-293
-116
-914
930
432
-987
-1209
-787
487
-1133
463
-244
24
-116
257
-90
-201
-853
-303
-394
-299
-225
300
704
-35
-229
-392
-104
108
84
453
66
184
-269
-647
103
-679
-51
155
-129
-252
362
-354
-396
-527
8
-622
314
-314
133
-63
-129
61
-224
-297
-657
177
-57
223
-263
222
496
-407
149
-372
-128
-458
-111
47
-61
-127
-238
-119
-662
-131
73
-433
-249
88
-525
85
-142
124
-198
