-457
23
293
325
-325
-105
13
-217
549
70
-228
337
-160
-6
-133
-153
105
-401
-48
74
-76
-389
-299
-280
167
156
315
73
-160
70
-801
-638
-554
318
-263
-56
250
291
183
-210
608
-32
-374
464
340
-268
58
73
-374
526
100
-178
-116
222
-331
17
204
265
217
-27
425
-471
-467
66
313
78
526
-237
-80
-423
-255
-213
-279
-160
-369
-158
-440
82
132
76
162
-45
304
-368
559
-69
129
59
262
275
665
-252
342
-356
-388
-35
182
50
-189
-6
-429
5
596
-313
-126
-267
139
414
258
243
196
-110
117
252
-192
-357
-186
237
3
452
-380
214
-28
400
293
-26
-33
-22
-289
728
78
401
35
-302
-59
163
136
-183
384
88
-102
334
164
252
225
498
-239
-207
-274
217
-79
-145
154
-56
61
-49
47
-45
80
-208
3
-183
-23
-168
-242
115
-62
48
30
63
191
105
-796
778
131
-92
405
-460
136
-570
21
-152
171
-5
409
155
236
81
371
102
-343
341
76
343
106
111
313
-198
133
-110
-353
80
276
405
-117
182
182
-27
-112
37
20
8
31
132
94
-14
-383
21
-40
-51
83
203
-106
-18
22
60
151
-145
-291
-315
-475
47
134
365
-195
238
6
8
19
-9
-56
-232
122
-297
-403
255
-16
495
-119
40
-231
-81
-133
-100
-569
473
-219
-472
-71
-337
257
149
-543
255
-112
85
-316
455
99
-40
-505
-252
98
44
99
52
-258
-86
-338
-95
33
-203
62
362
257
-136
-494
-95
-242
219
-256
327
129
-222
382
-416
562
-63
-29
83
557
397
-58
346
61
44
138
-6
66
27
-78
776
73
105
289
88
-110
-46
-53
352
-378
-568
152
-162
322
-74
-38
4
401
-27
88
48
337
-18
-431
56
293
59
377
-165
-257
8
-160
-111
-100
-551
-314
-237
194
439
492
-363
-138
-98
-76
42
-369
335
23
-61
239
93
234
-47
-319
-28
250
460
-513
-399
-271
-194
66
-84
-77
220
-62
19
-320
97
110
453
407
-236
509
-363
-215
-84
-18
426
200
-207
7
-123
-388
-595
60
-296
17
14
-211
274
95
137
106
-27
-160
-66
189
-208
-392
-159
-6
806
-9
376
161
-297
254
430
-288
-136
-218
164
63
-202
268
309
-17
-111
-60
87
32
-276
-503
178
633
-7
17
-188
-239
173
-478
-420
28
509
392
-212
-55
-387
-20
102
-200
-459
361
24
-269
-165
-686
-152
-137
185
296
-257
-203
-61
186
-34
-52
1
283
302
-379
-381
249
528
-124
148
-338
45
44
-386
-66
4
-364
-265
-440
87
-67
214
-208
214
369
31
512
-276
32
250
-376
-148
8
-379
-428
379
-259
405
124
-43
107
240
-65
82
270
-355
-260
-133
3
-578
-278
244
-175
332
-496
-78
67
-45
280
171
119
146
354
40
-247
429
186
107
-115
41
-294
649
102
40
58
-140
333
-96
270
18
-161
1
-331
-124
-544
-247
3
-434
-91
-266
-198
-135
285
43
79
14
-227
-220
-220
490
-111
-40
210
624
-168
72
255
-140
559
-172
-531
105
-150
374
200
485
6
52
-234
-30
3
80
-316
402
82
-28
273
-53
269
28
-295
-112
46
-86
-128
-229
58
428
-68
276
95
-379
234
-20
-271
64
-187
-20
-143
-322
46
-40
503
-370
-181
435
78
-209
-442
232
662
-103
-292
109
-334
-404
-61
-617
-14
43
223
153
464
665
-43
-127
208
24
-24
32
-195
433
60
343
-154
62
-2
202
147
-50
-179
-149
51
118
-209
-299
461
483
-211
-201
203
134
-211
325
97
-191
190
40
187
-152
-103
-252
67
-60
36
-108
-66
-260
-107
-372
242
-151
69
233
-185
230
147
-155
440
-156
-314
140
108
346
-126
-194
-295
356
315
222
225
-320
168
-42
43
-246
661
281
-201
231
425
-376
212
-492
-75
66
224
-237
218
-223
-403
327
322
-38
-378
69
25
-156
-260
172
-288
-97
-13
-30
-323
-26
190
240
-342
64
-553
610
116
-87
194
267
211
-82
-125
-51
108
468
-71
549
266
218
-59
-277
-462
-88
-121
70
228
-26
294
115
-371
-110
-167
123
-12
-98
208
-42
-37
-67
-160
298
-167
-27
81
-150
-484
-115
239
-33
90
-67
132
-137
-338
-36
69
-111
-77
-459
307
-54
47
187
162
-361
289
101
-149
-118
-99
113
527
-37
88
-274
27
-237
-332
-101
257
406
-177
259
70
108
316
-201
-81
82
-117
55
284
-309
-148
-193
38
-62
218
77
-601
-72
-94
56
163
-123
84
-285
-150
123
-202
114
-44
321
157
342
54
-39
-261
-128
-160
28
-481
-15
107
43
-284
107
175
-12
211
238
155
87
-215
441
372
-127
395
-204
298
199
19
85
-38
-551
48
165
-275
140
-180
-447
420
451
19
-16
202
402
-23
79
-43
-55
-24
572
65
198
-418
217
74
-142
-217
-312
349
340
-161
3
272
839
-264
-296
-245
-156
-132
453
76
-86
289
-196
-355
-727
283
-255
-402
-79
-73
60
335
-436
310
-427
-91
-31
526
-399
-503
589
209
-223
178
15
-166
171
56
251
70
342
-20
-549
91
282
160
368
-210
3
381
212
102
611
45
-97
-278
-261
-228
-48
254
-150
100
-91
-206
-24
-24
-34
-316
266
-58
344
158
-184
-32
-111
-422
-315
394
231
96
198
44
113
-8
135
-198
-162
254
90
-173
394
-251
-156
212
-6
-463
236
222
-223
-118
-9
-59
228
653
53
155
-159
-257
86
187
-412
40
-260
-59
-52
44
-55
-108
-208
-171
144
-129
286
-107
-108
47
617
-50
-15
115
86
258
356
90
-369
91
-59
-162
316
-9
352
-65
-293
623
31
272
349
-379
114
126
-239
82
-30
-407
281
-278
53
-44
45
-42
293
261
104
166
-88
463
-214
474
323
-374
-206
-20
-245
-236
564
561
405
-506
193
395
340
230
131
-8
226
381
110
382
-158
52
-302
31
-62
-292
-170
-92
-516
-264
-195
-89
10
-6
-55
54
-29
-152
-10
385
210
381
7
-5
-349
496
-15
-210
-74
-549
142
6
-126
-485
-371
145
-153
126
86
-123
56
311
752
19
35
-386
-370
-107
-426
-273
183
-519
60
54
67
-456
141
-286
-22
-81
69
-98
-318
506
-272
-61
-36
-225
-10
252
-442
257
159
102
-233
-4
-523
-421
24
-488
178
152
464
-1
194
223
-164
105
216
333
475
-107
283
-123
-43
216
59
550
-230
316
30
-111
102
54
-161
-362
19
476
-267
42
-256
261
-216
643
-295
-146
-169
197
164
-293
-26
-761
-117
-181
-90
-40
33
128
-203
317
-191
-132
531
-213
687
87
-128
252
-279
203
-159
-227
420
107
-432
5
-135
97
-499
-16
-80
-42
142
-43
-180
-1
169
-30
-12
-110
183
-171
123
-26
38
-573
-155
290
581
145
-360
-70
149
-220
-200
-229
684
-640
521
110
148
-560
-288
75
64
338
125
-57
111
171
-293
749
-285
-20
-143
126
189
622
-58
-272
-830
-401
267
-93
-112
-55
-34
58
39
-35
-261
-512
352
-169
-520
22
188
106
402
288
-211
37
303
-197
-309
140
29
-228
-496
109
112
131
52
-182
-175
69
63
-104
-423
356
425
123
-356
-333
241
163
277
-38
-243
-720
37
199
-136
167
8
312
-161
-100
-131
112
344
329
174
-37
-221
115
-116
-424
-348
-33
-275
-69
-155
-170
32
-342
-309
-181
-260
-710
54
-264
-116
184
-278
-154
44
-111
65
-193
-210
-332
-361
200
260
64
218
-8
-185
48
-88
-70
313
-197
-338
-445
-211
81
-114
-30
-406
-232
333
-139
27
-113
78
79
394
-339
586
-164
74
135
183
-322
64
422
306
233
-430
-474
-115
132
-111
5
80
100
278
102
-489
251
350
-329
276
-249
417
-387
68
239
201
0
216
166
-144
-88
566
-146
-238
-66
-122
-69
-110
-88
282
134
132
-707
250
-247
516
198
64
-132
6
682
122
844
177
-227
205
-147
-300
-212
-299
168
-87
-584
-381
198
-285
-418
-940
-92
-428
118
634
335
-137
185
60
-580
-641
486
89
306
-458
369
-294
-194
-213
117
94
-49
182
-270
-3
77
60
277
-376
74
-148
-92
-257
-375
176
-320
-341
647
-362
347
-408
-14
696
17
104
-141
461
143
501
-78
86
-158
155
-298
-512
17
52
-162
-159
-64
-176
-179
716
231
-264
-762
-443
133
193
-434
64
669
-56
-180
322
387
-393
264
-335
731
-350
477
-640
-130
338
-454
165
-186
-58
-259
-19
551
-92
-121
-144
-231
-769
32
327
-346
-159
-176
-8
122
-79
202
-454
391
-95
-706
33
-17
-560
-641
187
79
-617
598
669
-86
173
657
258
435
148
-171
392
-70
-73
490
-258
-316
237
334
-126
67
-49
-419
-228
-407
230
-298
213
-231
-225
37
497
-70
-381
-222
551
-163
127
51
-61
71
128
-557
-96
-192
424
-373
-287
94
639
431
-122
197
-144
-63
391
-31
270
60
98
140
628
4
178
-621
233
-20
-210
-143
-35
-3
387
-319
-28
21
87
-212
-259
-325
-225
-10
-161
-111
311
29
149
171
352
-500
-318
-306
-47
-284
-28
420
-399
98
125
-227
373
-372
-185
-199
278
-411
-63
-139
-144
144
-55
-26
287
-160
411
93
194
-207
611
-37
9
17
-135
509
-66
-31
-196
51
-14
523
-166
253
125
84
-260
135
-19
61
-29
393
-353
-128
-240
140
310
242
238
402
-127
-58
43
313
251
-604
590
-40
112
-149
-198
-346
-157
371
-157
-327
84
-37
-408
-63
-263
-85
-245
406
129
-188
212
148
33
256
92
1083
237
528
-29
-52
476
227
103
-440
233
140
353
-490
-1
-279
-131
139
-399
112
-105
313
463
-201
405
-73
480
-495
-229
-131
-583
-5
46
140
108
239
93
-481
-170
666
-495
192
-295
-42
-146
15
171
-117
636
92
130
-312
2
110
566
87
219
-390
-412
308
-124
15
-281
8
479
-162
636
-175
478
77
260
-168
162
-77
-11
336
-140
-41
498
417
249
-382
-44
454
-230
-204
-320
-42
-182
61
308
-539
-9
17
99
194
-39
284
10
56
-355
117
-216
-266
519
-190
-70
-71
23
-437
-245
-239
-79
140
232
-163
-344
138
-98
-131
-393
-263
-110
-440
503
-34
-132
147
161
282
142
-198
480
-17
-169
-158
-217
126
-39
-223
-12
-432
32
413
-169
238
-162
-367
182
101
-331
-19
-321
-277
-176
-288
283
633
-371
-319
-411
656
-312
-46
-438
635
57
-599
56
69
276
-230
34
-311
430
-91
200
280
-409
23
-3
-432
48
-319
235
37
-382
-187
170
-411
-450
31
219
-89
-418
164
-153
-52
-272
-464
-565
446
-196
-186
-717
-240
-31
-173
-32
369
252
-61
-337
423
-43
-268
13
213
-367
227
-108
141
-273
156
557
37
-20
57
380
-181
-196
836
-211
144
-414
592
176
156
-375
357
381
31
78
-133
423
112
-233
478
380
152
-365
-222
114
-31
406
217
-205
195
409
-314
61
285
-120
549
-44
-25
269
-183
387
95
-452
22
-257
-138
-31
-122
-173
101
-163
-669
-67
330
-71
-89
-138
-6
491
195
192
-382
-69
-303
477
514
-262
-393
330
-164
211
395
250
104
-258
125
168
-14
-10
-225
-104
474
292
195
-16
-83
-324
-384
-37
309
-32
76
-178
56
363
-302
597
-562
-381
432
249
273
-356
385
-323
165
179
385
-423
331
134
143
14
-236
309
316
-117
-279
282
-259
499
-763
8
108
71
392
-79
-19
-268
-284
-4
-317
-219
-289
217
326
-336
-740
520
131
-73
219
357
77
-198
-214
-327
61
-134
-32
-604
-134
-309
-169
457
-239
96
-481
653
25
434
-98
-106
343
62
485
-175
428
-33
-69
273
185
549
-148
-27
493
-283
85
-325
118
-260
163
182
214
-183
-6
622
83
-469
-19
-129
30
-376
37
42
-905
149
-27
131
251
-524
-193
109
258
-342
188
-273
204
-385
-75
-75
142
-255
843
389
-121
292
154
247
-129
-355
-444
-257
72
-184
-143
383
-494
-25
-155
-133
-217
322
93
106
-12
338
33
-150
389
76
-35
120
-269
2
27
187
391
499
-171
-4
28
-745
-985
-34
-245
173
312
123
-731
-423
-559
-830
-78
263
17
-323
-33
276
51
-744
-47
-211
-45
112
-224
355
402
541
291
-654
83
829
213
-345
-23
-342
108
346
-23
-138
-26
29
14
-7
12
-50
81
208
135
662
240
422
282
-478
-59
-294
-8
-353
-470
53
-228
-215
43
-140
203
-29
240
-155
179
-17
138
-330
-282
412
-417
120
329
0
-186
202
109
266
405
-88
-48
-416
-217
70
-382
-45
-273
7
-53
132
224
499
-279
-171
-940
17
804
31
-251
394
-123
-10
-52
-142
93
-994
93
-51
806
-404
-185
307
-21
45
-207
-460
321
-74
-39
-153
318
79
-36
-261
68
186
-279
-180
299
-47
-292
79
178
168
-451
-430
113
102
225
-388
-64
-293
281
437
-168
274
143
-201
-131
81
270
834
14
217
136
-407
-65
-299
257
478
-1003
-72
130
36
459
-79
410
93
200
247
64
-596
218
79
-36
232
-113
-134
-202
90
-43
-39
208
-460
-177
-165
113
-201
284
-327
193
92
174
-207
423
85
-180
-352
301
85
-108
-15
-168
-215
-119
-239
389
-624
38
-219
-108
143
235
-23
107
-231
285
-546
5
-815
150
104
-31
-92
-281
-340
351
-115
-535
140
570
93
-739
-213
166
429
-164
142
225
212
-183
-409
-504
410
-181
116
-89
224
92
-112
-202
76
135
197
-362
88
-333
185
73
139
314
-214
-545
560
99
432
188
57
-116
644
-197
329
-621
170
162
-422
-33
382
-313
-471
-207
-271
-40
301
135
83
140
-203
-181
129
-219
-193
137
208
533
-17
-174
-536
319
255
-77
-30
268
23
285
-92
-435
1
11
-50
113
-209
367
239
-349
547
595
-395
27
78
-70
-302
-211
-234
-210
70
-233
-129
503
-52
116
-203
205
361
88
-167
-511
165
143
47
383
155
114
-583
91
-173
-206
484
261
127
-342
-1020
-326
-572
41
-278
164
228
-80
-210
-580
-193
-13
-498
55
38
-100
23
-162
-114
-49
-416
80
163
-487
477
-92
352
-7
208
-306
159
-45
-123
-199
-5
19
-56
363
78
-474
246
-279
48
112
28
-249
508
-158
133
-475
-49
-60
-1
-438
-179
-178
-141
-255
379
-156
462
366
35
194
-184
59
114
-124
-299
248
-6
100
-25
89
719
-184
-105
-224
-86
-349
-138
366
-59
-528
-131
97
306
76
700
279
1089
-288
-339
-371
-662
-388
233
-179
-265
477
536
-139
38
212
17
-298
250
243
90
128
283
233
4
-369
352
525
108
-30
-64
-364
-692
35
-55
184
-95
92
364
-179
137
161
300
151
312
385
-468
-360
161
223
-150
17
-183
270
-22
217
-156
-181
-149
158
-168
-39
214
246
228
137
-280
119
-358
128
249
452
-98
77
-186
-536
-280
474
-3
-57
-431
174
-84
-449
86
-213
-158
325
169
446
-51
139
-72
37
48
109
144
-345
106
-458
-458
457
-460
-118
241
337
320
-96
22
11
129
304
29
-265
24
-442
-311
-554
-37
-351
283
-130
-42
-47
-539
86
-370
98
1
-121
-165
278
13
-22
159
189
-75
-543
-164
575
85
-281
43
180
147
-65
8
55
-383
14
54
212
-447
272
41
-212
-91
-202
-113
409
534
-5
849
148
-481
-281
4
847
133
475
-25
600
408
435
-5
-619
-47
22
23
-58
255
-130
-441
-82
84
-294
298
264
-13
-43
252
-112
-58
100
20
32
444
-23
272
150
154
13
240
-808
-365
260
278
637
-137
-9
-294
12
-471
-157
-310
-127
543
-285
509
193
-96
237
244
-213
210
-58
-350
-4
-112
-27
348
168
-245
5
21
272
-234
246
-279
310
323
-373
24
226
-347
79
65
30
-303
201
137
-384
-141
192
-330
86
138
137
704
-220
17
151
-354
292
-106
-264
-140
250
520
-415
363
-165
309
-61
75
-30
-252
116
-184
-117
55
-10
-11
-303
325
-363
159
-255
613
-371
3
214
2
135
-127
509
-92
-198
337
156
567
-431
172
314
319
75
-138
387
-350
3
242
-52
-191
44
-344
116
-19
71
-216
389
-228
-626
-290
583
407
128
-29
290
-27
-20
-167
569
114
-218
373
85
-257
320
-111
-286
-261
-310
2
80
-239
-31
-25
-25
153
-255
-825
164
-268
-558
-414
-87
176
966
205
-118
307
19
85
228
471
-605
14
146
436
-181
-346
408
43
-472
255
207
307
-464
-112
-332
416
-243
-512
224
-352
-72
-533
-34
82
522
-49
-359
-96
-253
79
341
-163
77
359
-310
-266
438
229
-132
51
-141
116
110
-167
386
321
284
-128
600
-451
706
-426
-228
84
-170
187
85
-646
-256
-581
367
4
89
-225
-739
28
326
131
-465
-1099
97
-217
69
-405
656
583
-422
-91
312
129
203
332
-207
-1390
-232
18
46
338
174
459
-322
415
-302
-41
373
116
305
164
481
10
83
586
-196
600
-253
181
-15
326
-137
-60
-451
2
-250
488
334
758
-707
425
-306
-218
-140
-443
-143
-289
325
158
101
226
-318
297
-135
188
289
451
-36
49
426
286
431
264
-53
-54
514
-488
-418
42
-575
626
-69
-153
-106
-495
182
11
439
145
452
-139
679
35
777
84
-675
330
336
-437
350
-196
-85
-82
263
12
-342
-73
-134
262
257
77
-258
-272
-552
115
-431
-188
99
-390
455
373
-102
533
-129
-252
-434
-178
-140
88
-867
-2
-265
-102
-1
205
3
-145
-5
-18
-336
270
167
-56
569
-648
-546
169
559
369
-22
103
-160
-145
14
-158
524
56
23
266
453
31
214
-133
117
-206
-336
385
200
-184
490
359
130
-57
44
-158
212
-80
-234
142
22
-31
-50
-367
-500
-12
-4
-6
-299
-274
362
-227
-366
-195
471
-642
25
291
-269
-571
513
52
48
-1
3
-651
191
446
-125
-286
102
-68
134
536
324
249
98
-552
-55
-43
464
182
-3
599
-639
17
384
-106
-450
-81
-24
217
18
120
431
-73
318
-308
-759
71
179
608
30
136
-213
679
414
-43
-185
-477
99
552
-122
342
1028
48
-58
-142
352
408
-168
-680
-225
172
335
-115
-271
-660
312
-438
-300
-407
13
80
356
221
-913
245
-110
-17
104
182
144
-135
422
-517
-259
-220
-773
-91
-90
49
-167
0
52
-208
12
-15
-1017
237
89
335
275
225
232
-528
45
-90
238
-373
109
-72
-177
260
-155
-268
12
-271
-181
344
41
-263
102
-376
-365
233
366
286
-120
276
229
-149
-600
54
323
-183
641
398
-24
1041
-219
461
-208
-473
316
-317
31
-291
-430
4
-604
94
-898
-110
-73
-124
145
62
-301
-406
379
-215
61
-316
279
-373
37
-362
-162
-362
479
313
159
585
215
-98
81
213
-333
1048
-181
-28
512
-152
574
-290
297
132
-344
-127
-717
-284
-72
289
524
308
-489
324
401
478
-141
223
267
-534
328
677
128
-192
178
-56
-708
88
-462
185
-929
404
781
442
387
-626
-443
-516
159
343
192
-233
258
-130
-170
207
50
344
-712
-596
-139
-226
-262
-125
-298
-34
18
-261
24
-833
-234
-266
-236
-94
-20
-112
-382
75
246
-323
593
-288
502
36
-68
66
562
-45
-184
67
-304
321
-240
-116
739
-338
11
291
-127
-447
176
153
-574
-226
468
-15
221
-103
179
228
137
703
197
396
146
-145
39
68
117
-165
351
-331
-473
112
-850
377
-386
-448
850
392
-891
-76
387
-67
-12
-26
-102
409
-230
-30
-176
179
270
360
-322
-86
-485
105
-890
-166
177
-529
-346
-181
-285
112
-125
142
-446
28
443
44
15
-108
-201
344
548
-76
524
368
-267
254
215
116
457
249
96
277
198
-309
-396
264
53
111
-233
-158
30
-135
-83
196
80
-17
-259
-164
184
-151
-334
-440
-437
-724
-529
197
-127
-66
-98
-491
-241
332
396
-144
51
249
265
-201
-394
-282
48
86
-318
138
494
556
819
-78
-220
246
-331
-147
-121
-48
366
437
-619
-57
294
-452
191
488
197
281
0
434
-138
-70
329
-35
-20
-158
35
629
335
-236
265
-475
-136
-133
-299
658
-340
26
470
-15
-62
487
223
333
-189
-418
250
-348
607
526
-462
-314
163
186
-419
267
61
67
51
215
276
-329
-319
319
25
3
-44
258
197
104
-354
-52
-433
204
-352
322
-28
-457
247
31
-351
340
-279
-310
286
118
-408
374
28
-466
75
-215
274
358
299
-85
-530
290
-167
79
222
-777
668
14
47
714
-320
507
388
-70
297
253
-2
39
-307
-76
-194
211
-534
304
-700
530
531
463
-459
89
-216
56
-587
-653
172
-214
165
14
-348
-333
599
121
842
37
-189
153
-334
-27
-19
337
-315
377
-555
125
-73
146
22
184
-94
-134
-644
-288
-345
-36
-84
14
117
35
176
746
-187
442
-150
311
146
-506
715
363
-376
191
368
-386
389
57
426
-399
717
-359
-44
-160
-154
-250
360
-166
-200
437
507
-380
223
40
186
66
884
478
246
-50
612
-216
500
-321
-63
-558
199
467
253
-132
114
-163
210
-166
-122
-526
292
-741
-25
-207
26
43
-229
-255
292
-167
-31
661
227
199
196
-186
-27
146
-23
82
-228
-183
-653
-616
19
-753
188
488
-786
536
292
362
568
338
17
-105
-131
-76
-670
343
119
-93
50
517
-366
-159
-339
522
179
241
1081
96
-139
161
-57
255
-250
-316
-81
401
33
-143
178
-340
461
110
-586
-213
-254
147
-457
-930
-28
-303
135
-378
32
-171
-149
329
-315
-466
-159
118
244
-95
-308
240
218
-64
-99
98
256
-253
-153
-216
-22
256
326
-51
2
-66
-232
-512
-323
-135
-61
-156
374
16
207
-180
108
-334
11
-52
284
372
-15
761
-249
178
91
64
-2
56
296
343
-354
390
121
-235
258
-3
-134
-48
-369
-1
