-66
-164
696
159
-277
57
-463
-676
-123
-119
-146
-141
-123
232
113
-454
129
120
-98
-12
208
-138
-95
-89
-292
-106
66
221
-85
480
17
485
565
-480
-256
-110
-14
-213
-519
-148
116
-227
-49
72
218
-105
-98
808
-109
75
-287
-5
141
-284
-273
21
186
-15
-82
-63
-621
-475
360
-4
610
-335
-101
710
-237
4
-356
360
73
-336
24
42
-335
43
-41
-517
-292
20
436
-298
-517
-14
421
-276
-152
104
516
502
380
-25
179
-650
19
157
-197
-425
-557
-271
-475
-411
-290
106
-81
-278
221
-284
212
20
438
-411
565
-192
-92
0
187
-90
397
-415
383
-115
306
-14
-103
71
159
32
125
-36
17
164
426
24
421
-76
-153
-263
14
-444
-99
130
-294
-84
-557
-21
68
0
203
-116
446
-360
126
-189
207
-55
363
-284
21
277
139
274
553
-47
-570
-106
718
94
-75
487
-48
83
-630
-238
-285
-159
161
227
66
117
290
-355
27
-12
-121
-331
19
8
564
-147
-29
-416
187
-91
-200
-137
691
-347
-322
195
-222
-241
-71
-129
-57
-182
501
278
367
-249
370
254
286
355
-195
16
-49
-229
-43
-58
38
398
-152
63
31
-25
508
344
-111
-54
-107
-283
161
-592
114
-298
346
787
-116
233
62
-52
-280
180
145
853
81
-129
-124
-162
-92
-386
248
305
342
-117
491
-204
14
167
178
329
-107
101
76
-486
389
-121
1
266
-209
-19
-195
30
-99
129
329
458
-57
-218
-270
-454
46
-160
-39
-42
33
-126
-218
-239
-534
206
-125
-405
137
69
-471
-41
951
62
-445
-318
-532
-76
204
149
799
-76
210
-80
-136
74
-110
336
167
255
-418
44
495
41
-234
-171
369
41
255
267
45
126
-266
-312
-104
-277
648
276
-300
-53
-83
425
-154
252
24
520
159
-276
330
-139
-59
78
112
285
389
-9
-40
469
-731
64
234
805
10
235
148
83
262
-100
109
-304
-964
266
68
-232
-657
35
9
203
-39
140
-106
190
-195
388
-156
-566
-721
562
19
-11
197
-471
-155
-75
-103
-216
201
117
-521
121
78
21
-289
418
322
448
80
158
-67
-118
278
-215
-111
499
-177
208
-251
205
120
-626
-309
-64
143
-222
83
624
133
123
838
194
-203
333
-37
-688
100
-274
-262
621
681
364
107
-369
88
-92
235
-128
73
35
37
71
43
356
-231
-218
261
-96
356
143
10
187
-14
141
-151
-98
31
4
104
987
256
-126
71
108
-165
203
-141
-81
-260
-254
120
-426
355
715
393
166
-175
337
311
-72
435
792
-239
219
50
-278
80
-246
-326
385
122
7
-248
-35
322
-56
48
-75
-240
149
-139
144
38
45
98
-684
-781
1066
-488
135
-180
-208
174
117
-80
-302
336
40
109
49
-105
-636
-340
-218
-24
-88
145
-146
-11
363
-211
342
154
469
-84
-193
13
451
3
-52
-67
120
-25
393
254
34
-51
-130
176
110
-28
-201
-107
-7
-858
237
116
-320
-121
144
706
-495
231
188
22
-56
-314
146
6
-163
-529
426
-424
-301
236
-437
59
-243
524
-97
362
-99
-51
62
437
-87
364
560
304
108
-138
361
203
-167
648
157
127
164
-192
-74
-282
-627
163
-582
415
-195
-263
-631
-238
360
-405
-77
104
-149
-11
-177
348
-713
37
-400
153
-80
-361
122
239
-184
-5
-119
679
-182
-445
31
592
16
-65
231
78
-441
325
-144
-320
-153
223
-62
223
241
-18
-215
153
189
-5
-291
-82
-122
54
-189
-578
38
149
52
-678
-271
168
-137
-23
223
-476
732
-331
-5
129
-357
34
-114
17
-409
215
349
17
260
64
61
-41
-344
-57
8
80
-599
-256
-511
-187
381
-374
-84
-424
256
-199
637
322
155
-183
33
216
256
-150
691
-101
-125
203
-167
382
-162
405
-278
109
-398
-134
-163
209
-359
-236
-269
72
-81
37
388
-717
-263
696
-58
366
-205
152
-155
146
73
-39
-63
41
-269
-2
190
-631
-44
-121
28
57
-126
268
-244
425
60
410
-462
228
-92
-43
-553
115
-405
524
-772
262
-582
231
141
276
472
-44
-653
-66
-83
-214
-260
-326
129
258
-11
289
-137
105
115
-117
-147
129
43
22
91
-19
4
265
189
-366
210
-117
-532
130
-28
-62
329
-77
-243
117
61
5
149
-226
2
157
700
-141
742
109
-33
447
-125
-506
646
78
47
-213
-4
803
-76
-566
387
98
-310
-265
-31
715
-311
-29
-294
-417
-38
-265
96
-303
-219
-71
141
-365
1074
85
95
55
-60
347
-341
-160
-170
-194
-162
-40
-124
123
-358
-109
-596
5
-193
-79
-77
575
477
447
40
-165
499
19
-89
-387
355
-279
104
-52
-326
148
73
68
35
-336
600
-258
-593
-195
-40
-276
34
-559
148
-498
76
-43
202
168
-87
194
-324
58
-220
17
217
-229
51
664
-501
108
-154
-15
313
-198
-312
300
-212
-61
95
-154
-107
241
-479
143
594
208
253
-30
88
-402
855
-354
-243
230
213
2
192
447
-179
70
-412
-126
103
359
-109
22
-401
-151
-368
-202
155
151
-106
197
526
-280
-32
85
-280
62
-80
-210
88
158
-37
282
384
153
181
-413
37
268
-263
282
-383
-172
198
226
-476
336
86
66
92
-365
-135
-242
-307
0
564
-65
-216
332
107
728
-205
-143
-159
-19
-287
-218
66
147
-453
627
-203
-455
379
-113
332
-499
-447
71
142
-392
-373
548
-245
-309
95
-446
235
-599
204
396
26
84
-430
132
85
52
277
-54
282
129
117
436
353
164
28
749
28
-556
-65
-115
-60
-507
-745
-85
-521
100
711
-205
-472
-7
161
276
23
-191
-397
499
259
-180
578
296
157
-137
28
26
743
242
-299
227
-206
197
-286
345
-154
337
251
-209
79
-69
96
512
-62
181
-65
592
-12
-222
-144
-361
-40
167
-193
-371
-140
308
239
207
-495
330
-230
-186
268
-281
760
-163
-43
379
385
195
8
1
240
325
-60
291
-29
-278
104
280
-124
-155
199
196
115
202
-367
-165
111
-655
-61
-68
-15
12
-178
715
-280
-207
-130
358
41
-69
-385
-295
13
365
-352
78
-94
39
386
226
395
-91
296
-597
-47
151
130
-155
374
14
-103
-60
-159
-214
481
63
-225
-93
69
-118
-84
141
-344
-137
83
-326
-98
-384
412
-75
-32
246
-223
-246
-123
-276
-37
-151
-9
-136
62
1102
-133
-243
-123
-205
487
-398
-170
-120
258
337
-87
534
-389
407
180
-239
-52
-220
131
-253
-111
-92
-25
-282
-68
104
177
382
113
-45
-99
129
182
26
199
-43
213
94
-442
286
-272
-474
47
188
-327
425
-106
-485
202
309
117
190
-32
-283
-641
254
62
238
506
206
-40
389
133
-83
54
-319
-130
224
-175
215
-208
218
-343
8
-33
84
104
-108
122
-282
89
233
184
203
46
-67
330
161
-175
-164
181
-333
-294
204
321
-393
464
446
-115
62
47
200
-261
-314
-3
146
119
169
245
-237
331
115
-68
-166
149
-486
-145
-192
-426
-560
20
-81
179
-550
-106
-239
-131
-198
-371
170
71
-182
-235
-298
235
162
-173
-172
150
-504
357
69
100
544
-332
367
-135
173
142
-319
-134
-14
50
-294
-408
245
211
-525
94
195
-209
-523
50
37
155
143
622
-492
243
-293
-114
147
-232
75
-125
344
-152
231
239
-174
101
-196
-182
185
-112
-31
75
-14
159
-133
309
-76
-107
-904
-70
-137
-255
-154
-442
1
-245
334
40
511
-106
420
-313
-311
369
56
17
-9
-172
-83
-169
447
-378
107
-368
-429
356
-201
-4
14
25
-424
202
187
-37
177
279
-142
15
41
91
19
-16
292
-394
-417
-92
-163
555
45
141
11
-712
105
-369
70
-134
-199
-89
-506
-526
125
62
449
176
-162
-99
389
-191
-428
254
235
-51
212
-27
142
63
212
-46
-107
94
35
39
307
95
322
-125
-48
-188
51
-286
270
646
-165
-418
-16
15
-34
-350
-107
57
-50
-2
-236
87
278
-473
-451
-222
-143
313
-289
477
624
-543
137
-354
-114
-6
-108
216
-102
1
171
-346
319
80
75
-119
10
432
291
-30
-594
-195
188
-223
-136
242
117
-46
-271
-180
387
-308
82
-203
-244
103
-483
128
-119
-16
363
-332
114
-181
237
330
-205
-169
-359
417
100
-118
414
-168
39
256
613
-85
200
185
-52
12
283
81
190
578
20
-20
-120
250
-387
353
-267
-15
-313
-228
9
-34
409
19
75
115
162
308
141
252
-402
-19
-8
512
-45
-124
77
-317
-29
329
-192
-312
-321
295
-159
270
44
28
129
-22
441
-477
68
90
371
-128
-118
-47
-355
73
-116
81
-53
295
234
-373
-446
78
810
-192
-248
-154
-153
238
16
550
200
35
-273
130
421
-364
-294
362
190
122
-394
100
293
-34
37
526
33
205
-231
-61
455
44
-307
404
-161
141
185
-170
187
290
-50
-382
286
-130
-197
-611
-299
-736
-95
411
-577
3
104
-68
-103
45
-7
301
-515
-393
67
474
-198
-264
-323
192
-694
373
-220
-138
315
77
447
-32
-137
99
-125
-141
190
-39
-20
227
38
-201
-557
-427
196
99
82
-25
169
-64
415
-66
6
222
-611
-558
486
-117
-382
-210
-77
827
-88
503
-162
-9
228
-470
-65
-405
16
-2
-203
84
106
-292
497
-105
-65
-317
-111
95
386
281
427
217
384
187
-61
-331
-185
-163
-6
-189
232
11
150
72
-370
-102
-29
-337
19
401
-693
-99
-102
197
14
-302
57
-341
156
-338
220
285
67
519
-190
-207
-307
37
574
-25
616
-56
475
-481
160
111
-184
246
-218
242
-155
103
191
-710
-484
-359
404
-145
256
-62
-75
-343
662
-41
220
169
356
-431
295
638
-240
165
59
77
2
263
-97
-99
339
-123
-135
-53
528
23
355
-596
-53
67
-275
493
155
134
-333
38
-30
602
167
449
408
-544
-440
151
222
-354
9
-427
116
606
326
237
68
130
-83
-180
179
-166
564
-166
273
475
219
230
47
14
58
25
208
-241
578
-224
-526
51
-492
21
-241
-54
-145
-485
27
89
-503
-190
-54
10
115
147
553
62
251
611
-296
-139
-66
275
-386
-127
-350
-287
-161
218
-20
-391
-351
277
-319
-64
-193
16
-424
-304
139
48
172
-714
-52
349
-251
-66
-3
-322
-208
-11
263
486
39
423
429
103
-318
-275
-110
41
-238
5
226
109
-297
14
-293
-227
-335
-193
310
550
275
-48
521
14
75
87
-435
236
-304
-580
-96
-372
-112
404
223
-208
-295
-125
-180
-110
483
283
-196
14
-314
-6
445
70
-591
170
245
132
-298
-135
-212
95
20
444
1
54
79
238
50
-32
-41
191
-221
276
-417
162
-214
-53
-29
330
170
481
492
-91
373
138
-68
173
286
-327
-427
-202
183
154
329
-197
-238
18
187
133
-324
53
28
-210
320
400
-321
-149
-1
241
-31
238
160
59
200
-66
-96
201
394
-17
31
-560
-612
-206
-407
36
-97
-408
-213
583
-209
32
-29
-276
-7
-102
-78
241
-406
-322
60
-367
-401
-124
698
-204
540
200
-78
278
-385
-9
25
306
178
-129
-198
290
-215
-327
73
-6
-165
-868
424
-211
-356
-76
374
495
371
126
393
-395
-247
438
34
-602
-528
323
334
-127
221
-154
-80
-207
203
435
75
6
313
23
171
175
63
35
-98
-151
-589
-123
162
10
-187
261
77
-288
140
67
17
-33
-24
-374
-89
-137
-101
44
-7
491
206
141
-145
-192
-10
525
381
-335
-531
89
144
301
-333
12
-191
-97
-135
-209
-152
288
48
216
-218
91
-189
-269
171
372
129
-1
368
-247
-174
-199
169
310
115
55
-99
141
-374
-111
116
-11
502
-284
-239
953
-295
-18
-562
100
-12
-74
-464
463
-61
376
-267
62
-197
189
-288
-147
202
-39
162
-171
75
-121
122
133
-54
-466
-238
213
329
4
-187
-349
-380
-117
-216
356
109
142
-85
198
-72
-45
264
172
-192
77
45
-85
-102
-200
323
251
20
-41
299
-267
-5
-219
-78
-291
-188
-156
512
253
209
-157
132
402
-404
-77
276
78
177
233
272
-439
503
-55
37
-31
378
-114
190
64
-290
-35
-260
332
199
-357
-164
211
537
344
201
-57
559
-197
286
-220
-236
154
-84
194
