390
-651
-340
-164
-245
-321
244
-425
463
-294
-15
476
180
-46
-38
274
-120
-433
661
-295
61
-484
-141
-327
70
232
-695
48
-327
-159
-137
-52
-288
219
205
-56
488
214
-171
-180
453
-17
-109
-84
470
-525
-357
-192
-28
-546
-23
-351
429
796
-787
-4
-784
-690
-108
-200
-45
-36
191
297
321
272
-540
218
-235
-125
-198
-106
-169
-254
73
-300
633
-88
-77
-123
221
-68
-124
51
194
-252
105
88
246
583
592
-415
-53
-395
-66
-1
460
69
-712
-265
8
340
513
-339
-248
231
318
113
-82
85
-87
-462
269
272
257
7
171
-145
-531
-567
113
-338
-525
19
426
227
-85
-104
211
-482
-311
502
649
90
441
-159
-112
-464
-237
-89
-24
218
-135
-258
-330
148
-346
-430
-562
-136
-241
37
-365
-95
532
-49
-499
-157
456
159
-194
566
137
-27
-470
-64
-106
-399
546
-258
631
1051
224
66
-50
-673
91
267
-182
-110
110
-429
-115
-381
118
-18
-236
232
-255
-31
-42
127
277
-33
164
0
107
257
432
-30
-61
354
-239
30
-671
669
245
277
-511
-438
-237
224
-743
365
32
-168
249
-516
-364
322
20
-503
165
454
88
-126
35
54
-388
-208
601
-267
40
-150
263
-254
-781
326
-31
305
609
79
-64
117
59
-90
422
11
446
-280
160
-92
418
-637
-41
-196
413
-139
-579
-51
-68
-124
-251
359
602
-7
-511
307
190
-230
105
409
95
170
-506
-156
625
-126
445
147
-328
492
22
225
-395
555
189
-580
-101
-371
-228
125
-353
641
12
-229
-197
192
-162
90
-4
-648
68
149
-191
-58
-46
-480
-298
2
-821
201
279
-288
547
-663
-1
32
-93
85
-77
113
59
-358
-289
-15
-611
550
-83
348
225
239
191
-53
257
-347
143
363
156
-304
275
-59
112
97
36
210
-614
374
-38
167
-410
-92
277
391
28
-78
-197
419
-131
600
-415
181
251
-739
195
-74
288
946
251
406
-153
11
158
266
-61
424
34
-245
-823
71
-417
162
-148
31
429
10
282
179
-102
-138
361
-236
-649
40
340
-275
188
-271
495
-220
-110
-447
157
-18
-415
144
452
-162
353
44
-331
-441
-123
1
503
395
-193
-38
-279
108
-15
-147
-151
464
-110
-35
193
-421
-65
-460
20
370
258
-309
125
100
28
-86
-61
358
321
36
468
152
365
-527
-570
80
84
-146
-25
-197
-137
202
885
-418
350
-4
330
74
-38
43
-306
-170
-192
76
-376
-116
-22
-23
455
-384
-427
796
867
251
223
57
529
-216
70
430
-15
-252
125
272
-53
-119
-174
135
-198
33
-258
-965
-411
134
-260
-93
-464
-311
-818
-234
-187
-127
16
-41
-81
-169
61
341
196
515
320
-239
-243
-7
-324
232
-180
103
-22
250
-95
110
116
399
-274
84
43
-30
638
-54
288
56
-202
-56
-27
-285
86
-244
-461
-166
35
-13
105
-58
-167
482
-207
-164
247
131
-59
-291
-233
-508
432
556
-25
668
-227
-155
-126
4
21
-193
29
-103
177
221
-106
253
170
94
193
-136
-541
501
-4
-624
80
-227
-183
293
-43
55
-397
-787
695
519
73
-79
-67
467
-102
-212
29
23
-360
295
504
-390
10
-767
-600
-279
-84
-211
-62
-264
-48
34
225
-107
-625
92
41
88
252
413
-171
432
67
533
514
426
-466
-23
-240
-190
279
287
-172
-173
-416
-160
-34
194
-817
-76
-818
-824
221
-615
209
-119
13
-175
273
-235
432
-155
-362
572
-521
330
-348
-650
11
361
261
169
26
40
26
-192
-172
-261
-238
126
-189
-264
-169
-123
-129
216
487
-12
130
-411
-348
-117
-340
72
-371
340
-322
-29
-47
-76
-68
-62
111
-108
-252
-415
9
78
-220
-240
-125
-446
136
383
66
139
-237
-246
-301
97
-186
-303
-574
-162
414
-282
221
-418
-781
259
336
-27
-411
-240
440
47
296
-289
231
31
-629
-519
234
197
221
380
302
-372
17
48
-337
576
399
-142
-115
105
-942
-529
-333
14
260
200
212
-106
-337
-59
-217
414
-359
-477
-199
214
-727
7
-193
-542
-375
-64
782
-600
-54
-66
160
284
400
-73
-406
-22
-294
-235
-223
-186
709
-492
6
-161
-71
512
52
-29
-26
197
-437
533
33
-89
-460
-59
349
240
-426
-130
-149
-560
-31
-307
55
168
-381
640
-262
-500
129
-460
-220
581
406
-73
375
270
-45
244
-553
16
-198
216
264
187
478
-643
-608
-38
-236
93
21
306
-1216
215
-193
441
115
-40
0
374
369
-185
-265
-157
-179
-229
-40
13
66
-9
231
-108
-518
-186
-1
-393
231
171
238
144
404
408
236
-132
-91
402
179
-2
241
-219
-137
-975
359
-839
202
259
-336
400
277
-473
-270
-247
-811
513
-89
-497
379
10
275
276
-43
185
625
144
-406
42
285
-65
-76
197
-114
526
-61
-141
109
658
320
147
-204
219
559
219
-358
315
326
150
-9
-213
-599
-176
-283
163
-347
-141
-254
-43
-156
-326
-796
-255
-83
536
311
-140
-53
-49
991
-761
-297
-11
32
-128
145
-561
393
-147
-111
-245
-24
191
470
294
-228
-12
139
174
349
550
-404
167
-543
-331
-367
-106
468
-229
-80
389
-911
56
511
-402
205
233
368
-79
91
-165
-96
-208
292
-152
-95
-83
-453
-421
-73
-1
36
-104
-16
381
-261
558
31
777
-321
-760
-174
280
470
409
-412
-393
-154
-463
-406
-514
191
190
56
-217
-330
-142
364
-400
-214
-143
460
73
455
-549
429
304
370
-44
512
-492
-291
-114
-443
-321
-497
221
214
-501
-524
493
60
28
-400
-420
-593
-174
160
361
174
48
-273
-353
-99
-394
189
-351
-702
311
57
76
271
557
20
-3
60
1127
-218
263
0
-57
179
497
167
501
279
-280
500
-724
-469
-391
-877
307
71
534
34
-579
-408
23
265
221
512
91
182
-576
380
-395
-102
30
57
-64
-443
-435
59
103
-428
329
-22
-191
-62
-208
165
-330
304
223
523
-186
425
-103
48
-344
435
367
-636
-465
445
-708
-248
-55
434
-175
-211
-504
1066
-241
-207
-74
10
404
-406
239
-57
172
-276
180
-437
-461
-419
275
-449
190
87
179
271
343
-176
-340
-138
-154
226
-187
389
-39
-278
-124
-272
62
-240
-118
139
71
-29
-72
-335
-128
-155
249
8
186
435
435
318
-36
140
-373
502
-54
-87
271
-210
67
-17
11
32
225
-652
344
119
52
-150
-273
239
567
-337
-175
-18
-262
-26
127
516
-204
78
-130
-429
-149
-424
-133
-314
-79
249
-49
-450
108
-459
-289
-117
361
207
161
-384
281
-112
-79
159
-284
372
283
311
205
-308
495
321
-344
268
-273
-472
-235
-451
-42
305
-22
99
127
-92
-168
-96
74
382
-704
-95
60
-118
-42
-12
-136
302
-350
104
-72
-450
-221
127
-55
-406
-266
-68
-191
157
-280
-29
-689
-224
11
98
-359
496
-230
-498
-401
-394
89
-115
-264
-41
86
-109
338
-30
-277
-193
165
197
1
-90
-129
-640
-349
-73
164
142
373
-245
176
-95
82
-383
-261
-377
-412
96
-32
-30
16
13
-372
-253
-438
154
-767
-882
-124
-70
-167
-19
-262
580
-319
58
-179
-87
163
324
212
303
-378
-451
236
-574
-270
341
0
724
91
226
178
456
735
611
-117
-153
304
162
-8
590
164
-147
209
-55
613
83
121
-9
58
-206
-259
-149
-259
-276
-241
547
-118
366
23
-108
-615
137
717
627
-87
14
-751
-205
86
-668
-328
185
-101
-400
-25
-150
15
678
-77
-209
264
361
597
-285
832
41
-12
314
-168
10
19
-99
109
-202
247
5
152
-50
343
-494
3
-243
458
-224
149
27
-455
-265
94
253
-235
-352
45
-227
913
-268
78
-463
-191
37
474
-3
-485
140
-626
220
-115
244
1087
-74
-75
475
-80
-565
268
454
-621
-32
419
-464
131
198
258
-553
255
29
84
-505
-110
249
219
-397
-551
1009
574
718
226
-402
-161
-97
247
-331
-416
-255
150
112
37
-341
368
-319
127
-152
-48
719
322
553
187
-81
-397
123
-235
-613
37
129
-70
-76
352
-358
-217
22
914
105
388
593
-67
89
250
1
804
70
521
667
150
-705
-72
-341
450
113
-87
-274
123
-208
-312
53
419
490
-97
112
421
-416
-793
-177
-740
-155
-134
-253
-183
163
1007
233
278
998
114
-301
463
-6
185
226
-303
-599
237
-287
452
199
-310
-159
-803
635
467
-37
-106
-191
166
24
1166
-667
522
-75
-566
-131
-455
120
-104
756
-170
-146
101
179
379
-63
-247
78
74
-113
720
-67
-65
400
-326
-540
-642
296
563
624
-384
-455
-242
-271
22
-30
364
-117
-468
693
-245
-170
365
50
-201
-53
-548
-594
290
-14
137
40
32
257
-353
31
222
-389
-683
-124
-309
-446
-295
56
-1068
-11
423
9
191
-476
57
-48
183
344
521
-14
-64
0
-302
333
-275
-426
-708
176
25
225
-71
-790
434
274
-74
273
-509
-706
24
224
-116
-22
39
90
144
-9
-176
-315
-31
-447
-229
303
-131
-90
-436
-212
-1193
591
534
235
-36
155
-128
-1355
444
-238
271
352
204
103
-50
113
170
56
-162
-483
-512
364
102
298
-260
315
569
-1049
-157
-185
-599
17
-19
134
69
227
229
577
-189
-118
214
366
-118
-305
-640
576
-322
344
-116
927
711
-612
-160
308
-146
669
268
281
-117
-132
-85
243
466
-245
165
338
-349
299
-223
109
35
69
678
854
-397
-131
-1
-369
-623
-706
727
-208
194
-694
80
324
-248
256
123
-420
216
-122
685
-349
-405
244
-89
223
354
548
90
229
541
-335
-48
65
-116
-742
166
-124
-40
397
-783
-7
260
422
353
-554
-145
149
-43
14
-74
-396
-318
153
174
14
-422
-81
-490
-80
176
-202
26
-78
-118
-11
-120
103
444
744
-180
136
415
-136
1054
552
-431
151
446
66
303
39
137
293
-134
-178
774
-64
335
-201
-47
84
94
-201
315
-453
749
-210
239
348
569
-465
190
154
-260
77
774
-157
11
225
-705
259
460
305
-220
243
-275
-513
-155
1030
-282
401
87
211
373
-167
500
204
199
-48
-428
583
-255
453
-455
154
1277
-355
-4
788
-286
170
-511
-192
331
-60
-521
30
-377
-25
-123
179
-259
-43
-34
-412
25
-202
-87
-573
-247
16
277
55
-85
125
156
-439
417
-484
494
62
-133
-196
-536
-95
-179
15
-188
147
38
113
-97
-297
294
-234
146
-153
-277
43
194
-413
300
149
-495
436
-503
-308
-452
104
-314
30
102
28
58
194
-85
-353
220
-118
-83
-104
-306
-148
-408
-107
-72
-290
382
424
-80
115
173
-206
138
-496
461
-211
-112
-885
-421
271
-222
-129
113
-218
321
512
-94
-227
64
-339
424
-420
372
376
198
-264
-905
28
-654
336
-220
163
100
-110
366
-579
182
-510
-402
54
-318
181
396
490
-329
-135
-432
102
-321
17
-5
160
-707
-704
-116
172
105
-207
-427
-486
-9
-459
-159
-135
150
341
-530
-658
25
-431
332
180
44
208
479
-266
-472
-175
-318
192
-177
-149
-310
455
262
157
-75
-130
174
25
-237
-243
-290
-289
-140
-94
127
192
-111
14
-302
191
-344
410
-238
35
-307
-339
-5
107
187
620
198
514
-306
-38
308
-122
419
-339
177
-497
480
57
85
-220
268
143
370
373
-106
-255
330
-208
-43
13
321
9
12
-29
165
-213
216
146
404
-162
45
-18
-122
182
760
320
196
-196
98
385
-585
345
-113
-69
-783
-139
-464
-727
-446
-830
599
-182
116
108
183
583
-242
-29
91
-394
72
342
252
84
-44
355
441
-161
429
-358
-33
583
507
1
-131
772
-158
84
144
-332
-202
323
-442
-22
-25
-392
97
-798
123
71
65
111
-149
493
-115
274
63
31
147
-865
167
448
-96
-140
-121
156
-448
-478
-123
-91
454
-145
196
-515
-322
-202
-77
467
-393
152
161
174
353
-113
107
279
-308
51
90
104
-7
256
148
99
-89
-516
51
-260
471
22
343
485
-31
-825
-149
379
-61
-65
208
233
-464
105
-168
-335
276
-87
93
132
-194
69
-353
453
-516
-280
-42
-205
467
-201
146
-132
502
-153
125
-712
-348
-17
-544
386
80
-157
224
-355
-183
-185
-244
236
-130
-310
-338
223
15
97
-239
878
275
-142
77
203
89
222
-528
152
-17
-285
-209
-319
6
219
-13
-89
530
102
-217
-415
84
-131
-26
286
80
-291
-847
-418
-192
-1096
-68
-245
294
549
47
-408
-190
-660
-310
-594
-663
301
-272
-103
358
67
234
-341
-312
49
-448
-298
-776
73
-980
137
126
-740
436
-248
-573
179
235
3
312
193
402
-269
-387
165
804
-121
-444
-602
46
58
-244
332
-111
308
-532
-9
-217
208
-192
-297
498
-420
-935
-289
88
-387
248
29
-430
188
-59
-396
170
1049
-329
-137
116
269
-563
-498
-325
-19
-922
442
-226
612
388
-387
-112
-571
-116
197
-156
-271
-611
0
15
-744
150
-892
-840
-340
191
-137
562
-323
138
38
81
11
77
-103
-346
257
-331
-293
340
438
-734
313
-214
478
-409
308
365
-308
-348
212
62
87
-74
102
-261
174
540
385
702
-10
-389
-526
494
52
-141
494
-441
-239
-302
534
-207
200
-557
-444
78
-570
142
838
350
142
-233
-3
482
98
318
453
-374
-937
259
-291
549
-410
-311
-248
-547
-549
114
-440
785
-114
-77
-302
633
52
-342
393
26
259
-184
-595
-209
-250
715
620
1020
-664
262
-29
-78
-112
454
100
-429
-46
318
307
-156
681
-225
-187
-250
-139
35
-1072
-200
-318
681
-464
1018
-121
-344
-160
-18
794
908
390
98
446
125
-84
248
730
655
20
-350
-704
138
-399
607
-334
-946
289
-1031
-1
-82
293
-212
-555
-989
-508
-608
27
43
430
-465
297
305
433
-199
736
236
154
-131
-259
450
-360
232
295
567
659
-557
-286
-423
369
-54
1154
50
-42
556
216
650
8
44
-776
519
-109
397
-30
-370
243
519
289
-122
-117
59
1295
534
-38
568
-227
-288
46
-274
339
-89
754
-49
362
439
253
394
638
215
-315
109
-77
-297
551
-565
-146
-320
143
236
-483
234
152
-28
28
460
-83
80
-1215
-145
535
-392
-319
138
-585
128
1017
91
274
27
133
133
-429
-184
-731
-495
-26
-64
-160
434
-585
-719
-437
234
-355
406
423
-184
876
131
-5
-89
145
312
620
-502
-100
-214
228
-226
-268
-119
464
-164
-148
-87
-438
-208
-478
60
131
-565
377
-93
16
105
-246
-463
110
-451
-80
-305
467
186
69
-36
419
110
292
299
15
-283
24
-216
798
-187
191
522
-196
68
364
-235
-413
-520
217
-131
142
321
146
17
-119
-217
181
-184
-206
-178
116
-196
178
-164
618
145
178
156
111
-289
-405
402
-53
88
-305
-409
709
-4
-29
-286
476
468
89
-23
305
-74
142
146
745
137
-378
9
-206
-744
-146
558
794
-294
-77
337
-179
477
-86
69
140
334
-455
-356
181
-192
348
159
248
-262
444
-180
-242
291
751
-59
183
47
265
-114
-106
335
166
89
778
-222
-341
552
-163
-67
-368
87
-210
-10
-404
116
496
242
399
207
-316
378
-34
-178
148
-199
22
359
-105
8
129
9
-229
26
-445
-50
-413
501
220
56
-577
166
48
451
424
140
707
-67
-443
-436
-533
0
125
578
-29
-539
-268
417
479
-444
252
-47
364
-122
12
170
0
-26
-136
176
-6
898
154
366
-258
-129
377
329
252
284
333
24
-144
-102
-192
-267
114
-326
-633
120
-96
-114
28
116
-568
-114
-44
-389
-378
-564
370
358
90
319
272
-4
77
-432
-563
-733
-119
363
-358
-57
455
131
-462
-239
410
87
-385
-187
493
373
15
-154
608
-481
0
129
520
159
510
408
-527
-234
552
199
-272
-699
51
-159
21
-294
-56
8
127
-74
-56
-56
-442
-168
-336
-287
48
234
203
413
505
-571
36
35
-147
-135
-333
-414
-161
-245
241
90
-313
348
338
183
-43
407
-195
-576
-286
214
626
499
-524
723
-279
331
138
-324
-153
532
235
404
-3
157
215
215
-566
264
578
823
-6
-226
215
136
131
-201
-64
127
45
93
-147
-87
175
-322
631
344
321
-299
75
-2
-511
342
959
-549
-445
-363
157
-399
-217
-51
301
125
139
-338
3
-414
152
-4
422
686
-241
-194
205
220
-13
-237
-31
348
-174
-349
-16
435
507
20
433
253
-206
-400
-439
469
68
-119
6
-5
255
-348
398
417
-95
137
149
-561
507
-207
247
-299
-117
188
-474
-164
309
1
-388
435
179
-75
-334
357
-6
-607
107
-693
362
-157
117
-128
-1044
146
-199
-827
0
312
125
-275
412
-89
-331
-162
234
-136
-207
-315
-335
204
-207
-356
511
336
-34
-436
235
-15
-167
-471
-79
-705
-181
-208
-61
102
-59
-561
432
113
203
610
571
-136
152
-421
-38
-60
-40
-330
-21
-405
486
619
-278
-432
174
-370
-568
251
-21
-183
-358
415
100
-324
-95
-148
213
-228
-232
-166
667
-335
-264
-353
-376
-78
-391
131
-321
505
549
230
-959
-15
-62
241
287
310
-289
366
-148
248
517
-247
100
-93
-95
-352
-245
-77
43
337
294
-390
170
674
184
118
-15
-199
313
-238
-188
930
-138
205
209
-56
-529
-330
-573
167
-240
-227
-167
-234
-131
52
-379
-251
197
299
415
-20
190
-69
699
63
-1004
516
-492
-422
199
-130
220
220
231
197
-453
247
635
-270
277
83
386
-691
-720
167
452
-510
-118
311
398
-684
366
-57
-613
-399
316
496
-102
124
361
641
-403
43
-270
-129
-424
-1065
128
-596
77
-527
69
-19
416
20
413
236
625
96
-265
-164
-299
-23
82
-172
201
72
79
-76
204
-10
-282
773
-57
-480
275
148
534
237
-758
-440
-892
198
-414
515
18
-150
-526
246
-56
-483
485
276
-457
255
240
-153
397
-408
-285
-413
-458
-237
-301
-606
17
141
-423
-179
-17
-445
504
-351
-310
236
209
-273
-293
301
353
-325
33
-276
-133
-585
-209
-78
-97
-221
-556
221
373
374
18
220
103
-29
18
-53
-280
10
665
97
-426
394
-274
-277
-511
163
205
3
-452
312
220
378
4
545
151
-77
69
-334
-960
404
146
210
361
615
563
-71
-26
315
75
300
-206
6
-211
181
20
-218
530
-486
-313
-570
-382
70
495
46
887
70
-112
-196
-359
231
144
-393
-366
227
-423
315
-105
222
-91
378
340
624
-394
696
509
-166
-252
-14
-330
77
-311
-354
-165
191
-315
-28
-240
525
-161
138
-237
323
98
-269
326
-104
-286
-80
436
847
74
19
122
367
-26
28
-96
141
471
-238
167
-40
-124
-211
124
-114
-470
208
-277
663
530
418
66
756
333
-28
-557
553
-74
155
276
-75
334
173
323
47
36
-176
407
118
231
-263
-35
1286
156
505
-195
-223
106
-136
-683
88
-274
-35
617
-475
61
-233
288
152
530
42
-87
-166
51
-209
74
20
-130
44
411
-342
-255
-241
93
376
-243
494
230
-258
216
-279
-140
-234
-50
188
374
542
273
-230
-496
452
-285
162
-117
-212
270
-83
-1
-71
1350
257
186
249
669
-323
61
-616
239
-70
321
260
-174
335
-413
-374
-342
-49
-94
333
177
-74
-23
-102
83
-274
106
176
-152
86
-50
107
-180
-147
-136
-406
400
-473
75
129
399
97
494
254
-352
162
185
599
-286
291
-18
124
141
871
-136
229
-105
-403
-190
128
-64
-359
82
50
-318
-724
242
-398
488
240
238
-145
90
106
-302
-392
-947
-393
-342
720
-61
627
-557
384
274
-107
15
-152
-789
-731
-629
-320
-165
-1085
-555
114
50
313
-48
-76
463
-480
-713
-78
-271
-654
-117
77
-731
132
-405
-435
-604
203
338
-1330
160
-314
-451
2
-118
161
58
-444
-546
45
-426
-336
468
102
-318
-512
-157
-447
-812
454
-526
-421
-1268
125
71
-193
-228
-88
-321
-338
-19
-664
502
-3
-538
-713
-397
116
-352
-209
-112
-22
-607
429
-294
848
-14
-339
-172
-339
369
-440
318
-95
-41
-590
-81
5
341
-98
67
-386
-153
-242
-86
136
544
415
224
-264
57
424
-734
-5
144
-610
-114
-89
-473
-28
-327
405
127
-630
29
-123
-670
-169
426
-657
-259
-112
-88
-97
-6
-257
138
-64
-354
-269
44
-95
-73
-498
-1135
26
810
403
287
327
613
872
-155
-971
-477
103
-79
258
-550
-1015
283
-496
84
162
178
-710
-343
-69
-365
175
-186
-61
-214
127
313
-1021
-742
-118
42
139
-329
483
-475
372
111
245
94
-783
-411
239
-59
-13
-536
282
270
-2
-162
-413
115
-279
84
534
264
-599
-561
-25
-288
-147
-263
206
-8
465
-752
-410
-4
337
33
-362
550
134
353
220
88
-94
-15
-144
71
-374
-210
13
-95
-13
-170
-223
-634
-441
-556
220
220
28
-119
457
108
-334
-219
89
141
187
352
354
-12
120
-640
574
107
-120
232
-45
155
375
-101
26
-360
-106
394
-340
-114
-276
187
355
-15
-221
-288
205
486
297
-93
296
127
-448
-111
-111
-326
-179
-677
208
194
414
209
-467
-447
332
10
85
346
21
206
-356
-546
-252
11
-583
293
-184
-30
-314
23
-207
-350
318
201
-35
-59
-233
-42
76
-332
-220
-689
-42
21
16
-353
34
-127
48
-205
223
-493
322
-479
-604
288
-180
46
-404
150
359
-484
-161
-266
460
-339
-110
-1
-311
-330
-588
315
206
0
82
533
-206
-52
447
-427
-451
419
-78
-20
1044
-176
-150
-42
59
-174
212
-3
23
71
-77
-482
106
-298
-298
318
166
-324
3
150
-328
-210
231
-264
-58
-180
359
-52
-759
605
334
162
411
-476
585
174
444
-71
256
-304
-191
-264
219
-20
243
-96
-299
190
-35
-223
-129
415
635
-171
-166
-18
504
-763
-274
-302
130
-474
-497
104
205
544
222
-411
356
233
108
-480
-499
-73
201
730
386
-209
-15
-65
5
20
-264
-55
-366
310
-306
-284
155
474
-266
212
-102
-59
-316
-233
-96
-52
96
-186
-82
16
297
334
580
-480
-39
-112
-300
56
313
-75
59
-507
-109
-139
124
186
369
289
381
-506
423
56
148
-518
-301
-158
411
-36
-888
-278
188
180
65
-219
-263
-168
-387
328
-134
-209
-95
364
-215
88
-37
-159
-335
-49
-184
227
-208
-347
-156
-790
59
252
-324
-1
44
-2
-299
-33
-902
121
287
327
-351
723
-207
-257
87
-250
181
-37
175
-315
19
-160
-834
414
-149
138
111
-880
289
-155
-229
-73
150
9
-551
-263
143
221
552
-271
-155
49
277
72
420
520
387
199
-1
-219
-381
-143
339
347
21
-65
892
-35
158
-315
-115
-86
-372
484
-374
-226
-646
476
412
-141
-235
202
-79
-421
576
137
281
-87
-347
-330
125
-113
335
1114
113
639
18
370
508
-161
733
230
-434
65
346
60
-388
346
280
517
-66
326
-815
-565
-322
131
-407
154
19
476
387
-101
113
-472
-59
507
57
232
-131
-104
162
-21
-169
942
-249
266
-394
182
163
24
-363
-509
-157
87
205
-631
-67
-394
-145
-79
120
-110
114
454
184
319
654
-25
107
-362
-414
-152
-880
-383
1090
-671
-664
-199
461
101
-308
-300
184
156
870
-239
109
38
521
-105
-239
119
169
950
-239
-164
629
532
-39
191
288
-31
180
-1194
321
201
397
-157
110
266
-270
395
34
-549
367
582
306
-767
266
74
54
194
-754
293
-344
-205
-154
-175
258
55
1097
-231
-307
-426
-76
164
123
121
103
195
579
-426
-155
-105
-80
-279
-43
-146
-407
-86
-45
-243
-685
-7
325
-54
147
814
-326
-276
-264
-704
11
-308
-432
122
-335
689
-755
383
454
270
-589
-406
52
-227
111
465
-673
-108
-48
-24
-173
-58
38
163
131
373
-495
466
58
-396
403
29
-311
-443
-474
375
67
32
444
767
102
178
-539
337
-251
463
-372
-26
290
603
-425
-559
-505
-356
-471
-196
-363
-72
279
-397
-288
199
-383
-271
11
230
-400
-27
-287
191
77
-451
-393
-310
-47
-613
65
118
616
629
543
-90
-420
17
159
356
149
-121
-236
-118
140
64
65
-86
479
678
-37
193
-780
368
43
-183
647
-434
-204
180
-228
-89
-126
-280
-494
-265
66
339
-161
-155
-23
389
-500
-308
81
143
738
-147
-304
-92
506
-571
119
677
157
64
-74
134
541
-32
188
482
-67
387
-286
319
476
-319
-331
-522
-68
-329
1053
-108
223
66
-284
-123
-318
425
62
554
-119
313
600
-578
-422
96
-330
-258
-35
383
309
-321
-243
-65
-42
344
71
-80
390
568
-557
3
277
9
-134
248
-242
-41
-433
582
-443
-307
346
-382
100
-208
67
-271
215
-341
-26
205
-52
-165
-513
-389
-652
-59
-17
133
484
609
-978
-961
-50
-164
-203
60
-383
269
178
-582
-423
-53
-484
561
532
123
296
-67
588
-29
770
-211
-448
340
46
131
232
136
-81
-13
-458
-465
-528
307
-307
-126
175
279
538
-436
-148
-490
164
-326
264
564
714
-298
177
211
166
205
255
481
-26
267
284
151
346
-270
102
454
-238
-70
-213
-122
886
378
239
-494
-412
286
636
39
129
423
-565
-545
308
-183
333
-146
873
211
-13
-165
679
-495
-888
-92
153
458
191
-59
-887
138
559
272
80
-552
-88
608
460
-441
-232
315
659
16
-200
479
-182
85
-93
59
163
-258
-525
432
71
-12
-294
-231
376
25
-428
-200
647
-214
-273
570
581
831
-266
236
464
-107
-20
-913
328
-534
62
25
103
329
-234
342
-295
371
545
290
-48
961
3
-546
-141
225
-270
430
-648
-289
252
-342
511
221
-230
-565
-787
-138
393
-245
850
401
-552
459
-206
94
-100
-164
382
-790
53
607
-370
138
-105
-900
389
-352
259
-198
-13
-124
-436
-663
442
675
1190
50
340
278
-368
424
484
584
587
324
-229
-242
213
-286
468
-335
78
200
-541
-115
327
-255
-264
509
-582
-92
623
-435
-95
678
-379
-341
-408
674
73
176
-404
448
-455
488
363
-876
-258
536
162
32
-159
809
-12
239
119
-486
-657
455
-495
86
-570
212
129
-970
501
395
-140
-142
-729
-78
-1
255
-333
-218
-651
-195
-11
-133
-303
112
161
377
-616
267
-67
107
459
489
-104
-234
-18
161
-345
-1049
403
-318
343
343
36
-442
-6
-341
176
-131
-1058
-303
169
36
-690
-109
-40
-888
-174
179
417
-190
5
-54
-61
120
12
590
-6
-890
-469
711
-650
-109
350
-81
-584
-14
-450
138
-236
-452
92
847
-720
335
-604
396
-418
-81
275
-122
-195
413
415
182
61
-144
499
423
-650
-818
-595
6
449
453
53
62
-513
340
-465
682
-141
510
-287
-596
-291
-732
393
-352
-426
196
-289
-316
-224
202
708
-586
765
-306
293
-54
-624
699
-135
-162
-188
93
89
-155
-84
313
331
69
-392
159
66
20
-1513
-216
181
-672
128
701
403
94
-514
173
506
672
56
139
81
203
233
-46
-283
-332
404
-526
278
236
318
571
-53
-347
-427
-696
917
-244
-295
-262
-562
-488
1
-883
173
218
-45
-341
-368
-601
509
922
256
-648
424
61
-265
-251
-399
692
-370
234
465
329
-159
61
79
-107
281
-976
482
809
-33
-364
-507
169
-381
-284
952
-183
235
-387
-10
258
179
10
1003
84
260
133
92
-571
12
278
-491
903
839
116
-481
-85
830
1092
-7
76
618
632
225
-363
-278
-182
-475
658
-76
88
977
-549
69
710
-36
-53
18
-651
385
-384
-138
-198
391
281
-360
87
165
1198
204
-539
152
-833
200
60
-91
-459
-1304
-382
445
-86
148
304
-202
486
-65
-440
334
257
108
0
895
-841
-713
76
225
-607
-148
-228
463
-717
226
-147
113
230
-354
436
47
-24
-24
-15
171
-50
405
445
-262
164
47
250
-333
268
-12
151
-87
-669
-48
-22
219
18
-432
-9
-276
353
209
234
-97
-666
-307
40
414
376
262
24
199
624
-236
-937
-460
486
-63
-259
-78
-183
106
-437
-215
805
-369
26
-34
-111
-280
-169
115
96
648
-235
302
-3
-7
78
196
-157
-614
-361
-618
215
93
-153
102
461
113
-172
-256
-169
284
-743
-8
-260
-553
-21
-282
65
729
51
-54
63
103
10
-176
-126
16
322
-14
62
-399
-155
-299
127
-15
254
-268
-143
111
-187
163
-460
39
414
71
183
-396
244
84
-288
579
-9
-794
-168
-87
1292
276
-297
-90
371
178
133
319
319
-347
-167
273
72
512
630
-522
-695
83
-91
234
-73
-269
305
152
-16
-167
-113
438
115
21
-564
265
-351
-120
192
-64
-397
622
224
-705
-262
-8
-225
288
308
-260
-41
-144
54
51
-63
110
-606
-856
-140
-219
-125
-161
364
304
148
-22
-27
-122
360
-33
271
-24
-185
5
209
267
-22
-158
-358
183
-614
160
-483
-817
121
141
125
-45
-204
374
208
-323
-1038
-387
-517
-339
-101
-474
-20
-637
336
156
388
-653
-105
569
333
-155
-228
-211
-270
242
-102
-332
-643
671
223
124
761
-1185
221
237
-345
325
568
-429
54
-181
-390
-557
54
207
-145
-13
-111
209
105
-330
-259
-244
288
115
-546
-189
530
272
513
-188
400
-164
183
44
147
-80
235
464
123
-175
-555
-156
-281
-29
-470
-271
456
-17
-17
89
-495
-318
-450
309
-303
37
173
54
-667
135
148
-14
149
-182
-538
58
41
263
119
192
-133
214
537
132
-154
724
-69
300
-749
-334
-136
581
-282
305
442
-121
-460
170
-425
-349
477
-113
167
-88
162
186
469
112
20
116
262
-186
78
318
157
-291
210
-73
-322
134
-322
38
1
-58
-58
149
-151
243
152
276
-99
-881
-439
34
488
-212
262
-916
-63
76
-307
-168
339
638
402
-126
243
95
-818
-212
-247
76
-107
257
-331
-140
26
-203
-401
-301
-367
47
-508
-427
115
-189
-98
713
-21
559
-281
144
-610
-422
145
196
99
-393
105
-400
-129
-329
-581
-298
-376
-111
210
-395
367
-426
-747
427
272
-278
-655
124
-474
2
-303
377
-128
606
268
362
98
-253
203
22
-278
172
-219
-106
106
-280
-504
349
162
243
595
-30
-385
409
-25
-460
-844
81
-465
-101
-52
-488
-515
71
-580
293
554
-112
182
594
408
22
-452
255
-34
227
100
-118
13
67
246
-413
-66
300
81
527
225
386
260
-288
192
-169
118
164
210
-282
-51
-17
-241
-108
-208
-55
-376
-697
-63
751
-159
59
-148
-588
175
12
-1005
-475
-112
-138
128
-27
560
-70
-139
-290
499
-100
-54
-223
-129
221
-826
-591
-78
148
335
-26
131
-278
-873
-609
-106
370
-471
-330
186
-155
-174
139
283
-302
-427
349
-74
47
-117
355
538
-218
-119
-555
-503
457
-613
-151
-623
-57
-22
-1048
392
154
279
-116
-278
596
-478
-476
180
556
-304
-356
-431
-174
-563
231
40
527
291
-411
-540
-424
239
355
15
-615
-318
191
-251
-260
-198
427
-238
-352
-542
466
-205
-697
-192
-36
-170
-37
629
906
-85
-251
488
168
337
-524
-477
475
-103
-739
258
-88
-984
932
525
-956
598
-486
-223
-205
145
-224
-366
-160
-22
-619
-118
-432
69
-112
340
14
250
593
-99
114
490
-1052
-151
40
372
-59
495
83
331
423
308
-40
-51
153
198
483
291
510
-651
-1134
-110
163
202
223
54
-461
263
431
-345
547
523
668
-634
207
652
-597
-200
345
-601
-317
690
131
299
-463
-361
-207
19
300
-869
-803
139
488
76
-439
-212
-39
-154
295
-728
-1008
-241
-350
-237
176
258
14
359
434
-4
75
-162
-580
457
-160
-43
-355
-79
-520
1013
195
36
-300
20
55
-496
200
-97
-405
-136
195
274
-74
596
-9
-503
-272
-953
421
-294
24
324
1
-111
-6
-577
38
886
-856
-154
40
-447
-704
515
468
-208
-354
-101
341
-596
-103
-61
-813
-33
-209
-204
-104
-220
-190
-368
257
-349
6
549
645
209
410
-211
65
-352
-447
255
-269
-537
-112
-471
-245
423
-164
97
-313
188
279
129
-261
-192
194
1
19
284
496
1041
446
485
945
-613
231
95
25
277
-25
18
267
239
-165
64
404
105
319
113
-463
-168
-138
204
-89
382
100
-32
-9
360
661
-361
463
286
-134
538
216
1163
-53
146
-315
477
-241
153
196
-137
-155
-104
-181
128
-559
56
-472
7
131
-100
4
210
-453
37
-45
-102
428
820
567
174
172
-279
-29
314
-8
89
206
57
82
-530
265
-42
-128
-16
-124
109
114
346
-376
174
205
-179
175
-18
724
205
-410
-23
92
-170
664
521
-11
-204
-8
-767
-118
-330
174
335
264
540
-216
229
121
-236
-196
457
-527
51
13
241
54
36
4
-77
-264
-231
-155
-116
247
269
300
-32
52
413
154
120
498
66
20
60
-151
-273
-124
426
23
554
-68
-695
205
320
-237
269
29
-25
166
154
-138
500
-238
248
-128
-97
-234
-166
-562
-139
163
206
-774
691
-344
926
330
-70
75
-348
8
-237
-746
-341
-84
392
196
-370
-157
-378
180
-278
-40
-642
116
146
-49
457
-432
13
446
232
126
118
-45
-529
238
-267
-220
36
125
760
440
218
-416
116
-178
-361
231
114
-86
750
-187
21
139
97
-251
-559
410
-475
195
365
-361
-324
-190
-9
-113
154
-266
-366
-88
161
-195
-37
36
-197
53
63
-299
430
-155
153
-75
-440
-71
-368
-310
272
-90
-36
-155
790
801
668
138
290
161
-324
-694
147
28
-40
-341
145
-272
-566
-50
-551
-76
278
-133
-497
460
-654
253
48
-335
-317
-284
-352
-505
-158
-352
-67
54
614
-36
137
380
362
201
210
-375
231
-27
-657
-589
494
-118
494
-67
-119
328
-341
-513
-62
457
-529
-267
-107
-127
-347
-175
238
-504
-288
492
-66
312
-19
-303
-485
-174
-6
-249
-437
67
273
-33
0
-372
-229
-830
452
-164
-164
312
62
47
-79
-585
222
585
-221
61
-431
-723
-449
5
-23
-274
64
107
459
54
-315
-119
-656
-316
-426
-409
151
84
-115
277
296
289
622
-11
-289
-52
111
336
131
38
258
327
173
213
-270
336
-857
-640
-92
-37
-227
-107
8
-103
88
-97
210
-485
-404
617
-59
301
-201
219
-258
393
-516
258
-223
6
1130
-499
498
339
315
-543
463
-335
169
148
21
72
-235
-17
-89
221
497
-16
-191
133
-9
-428
203
-47
-500
247
64
97
-149
-6
-364
275
363
77
-151
-29
147
-164
-620
39
-552
-245
238
-127
-76
-122
394
201
-16
-15
178
-794
-239
56
-628
139
52
424
128
-561
640
-345
-1
-353
173
60
216
327
-95
-40
121
-695
138
-329
-164
-115
-181
-52
101
-58
-26
-23
510
719
-380
283
83
158
33
-745
-736
368
419
-561
178
-399
267
-733
-243
-402
290
-3
-417
-473
246
354
-87
-82
538
-117
-60
55
-40
670
-214
1242
270
-72
218
490
-130
170
628
-164
-62
-78
-304
482
-131
-35
-401
227
122
789
-889
219
-79
164
-360
-288
428
-134
981
54
765
-238
417
602
-187
-51
37
-329
-417
-375
512
82
-366
156
-29
470
349
-344
-50
404
-467
-9
265
71
41
-78
-167
-37
127
-258
189
-338
-143
128
-595
-444
527
789
328
-239
551
-384
51
116
101
-224
129
141
43
675
-316
-401
354
-64
-428
252
680
-478
-478
-660
458
72
60
290
58
9
-150
-388
1170
115
-149
45
243
-499
74
-169
151
489
-216
-152
190
-241
495
-554
-116
269
131
680
-17
25
171
-220
220
-166
271
-4
376
-258
39
-85
407
41
-146
55
-89
-292
180
713
-485
85
255
-755
-131
512
324
62
-228
-582
196
181
323
-394
544
101
1185
-357
-133
137
906
-248
-398
216
-188
-87
363
-582
-104
551
371
94
-288
440
-193
-237
-420
395
134
-322
544
-175
-215
87
-15
95
-154
63
346
-424
-337
63
-421
161
-227
440
59
9
-347
-689
425
-457
-126
-75
511
86
302
90
414
-142
-107
54
-69
-43
-243
209
105
1131
30
-559
52
-632
-491
97
-240
-8
100
225
-360
219
203
991
142
-20
423
423
42
-625
385
-353
-296
305
46
-999
-133
-212
509
100
-996
345
-290
-641
79
416
9
-254
72
447
185
-674
-175
-19
-649
-299
75
-119
-175
159
242
133
191
580
140
-155
33
-70
-670
-646
437
-309
-374
6
-3
231
-155
578
103
-18
213
213
-127
53
-217
-191
-707
-40
185
-111
-78
-575
435
367
370
138
-219
360
33
157
-560
-70
135
-504
44
-242
-79
-1
174
-312
471
-680
282
93
61
-274
189
-161
181
-159
-64
-727
75
290
-243
-311
-332
229
-292
-749
-1121
-138
-51
-536
-766
498
164
-79
-125
-774
563
-97
194
-533
316
-659
-315
224
-303
154
-86
205
-151
-171
560
-948
44
76
-557
390
207
169
-554
411
-39
-149
379
-656
-206
229
308
-73
-245
37
153
-76
204
-270
-261
166
-123
-618
532
-146
-372
628
-42
121
-214
-111
426
-419
-34
121
-475
215
-195
-326
532
252
572
492
-484
262
-58
-38
257
316
489
250
33
41
22
34
-174
-232
-226
-239
356
240
-55
-186
-179
-201
-330
685
-40
-598
-123
-467
-86
-21
-713
192
212
101
-219
447
109
317
-480
108
496
513
321
395
-201
-443
-105
142
-174
450
98
585
390
-231
257
197
-111
39
-169
226
-250
117
119
579
196
94
-131
-669
-167
107
-124
55
129
0
618
248
-408
-204
232
199
-151
-289
141
6
87
-70
-24
-755
-251
-60
367
-167
236
129
161
395
122
65
73
-21
-32
-69
-94
-210
462
116
-71
309
197
-216
-47
-183
-44
317
468
146
553
-333
-36
-193
682
-88
-40
37
284
124
-331
-137
-62
90
168
-328
14
531
218
-93
139
-284
261
184
-242
30
-94
-297
-119
-281
-183
-189
-230
254
84
-281
102
35
-46
-345
517
153
-244
-505
-397
19
-373
519
-56
-337
-70
316
-7
626
-579
174
420
221
-528
-107
-345
-389
-29
846
197
-172
-101
71
-96
199
-219
136
185
231
260
178
-38
-466
315
-85
-50
87
-163
-369
-1234
107
-661
-221
-103
327
-206
-44
-34
-73
184
289
-104
78
327
76
388
72
76
364
148
134
614
-419
12
328
460
166
-272
-314
-930
169
294
230
-168
128
-105
-532
-319
-529
150
51
-189
-76
1
-110
471
-514
-168
-698
-156
-357
205
280
-131
62
234
-468
206
14
149
288
-465
-666
233
-470
-379
-493
-10
38
-388
520
505
-463
256
256
155
-344
211
-513
-10
-1
-1123
355
-618
-313
-68
-273
204
15
1015
566
79
61
607
116
-113
-331
451
-261
364
270
214
-85
286
48
-211
-800
1022
-44
34
345
-151
177
-221
-114
-1008
317
391
-303
-480
225
166
570
357
-915
527
109
-63
563
111
152
139
70
-517
-682
215
180
-231
-216
148
377
372
207
231
119
665
-532
356
274
-513
-159
446
1
1
-144
80
369
-100
-874
270
-169
155
419
318
395
411
54
-10
-158
-124
-1189
278
-653
72
-658
45
53
-623
917
-130
-372
312
358
-192
37
-723
-66
393
535
17
-20
56
243
75
131
591
-51
848
-323
131
-364
429
22
-172
-433
254
-266
-259
-324
-99
308
270
-127
760
4
203
-458
318
-18
559
-177
-503
-145
-193
516
-303
-79
-98
-305
857
-320
565
124
-294
40
186
-293
-470
793
-260
-47
-28
439
666
41
-499
299
415
-507
-42
-85
111
107
157
-578
479
-674
401
156
-232
-76
-12
159
300
-141
-261
-17
381
-128
221
-121
94
354
-197
245
493
-174
-499
743
58
-52
175
65
128
106
-379
368
502
689
569
-278
160
-113
-777
-411
324
-181
-169
616
-88
399
-33
-57
691
225
99
592
1706
185
-648
55
25
-145
406
117
391
479
-294
19
169
-114
420
613
-403
-588
36
673
100
28
-378
214
638
597
10
172
176
-304
-659
-494
757
631
-435
463
165
518
476
534
-709
-155
46
233
564
65
-98
160
368
304
-34
85
-389
255
89
-598
376
84
-216
274
-1
189
-371
-681
826
-130
433
-315
421
105
-307
214
412
-48
157
-163
-73
363
-473
270
-566
-280
23
-339
551
-386
-111
523
-710
-168
43
440
-2
316
99
81
239
336
219
-57
461
-10
-52
-90
-357
-174
65
-212
649
39
-216
727
250
-128
-933
215
345
-278
650
1086
212
524
315
-223
129
80
95
-59
-28
-14
-157
781
49
457
139
118
-280
-60
-545
590
59
5
456
15
670
328
585
-102
30
-44
-289
-90
-457
-3
162
-2
-452
-274
232
-341
-215
-88
-233
-55
82
-25
-162
-207
142
-141
-359
353
-17
394
285
355
-295
33
-151
623
-258
326
-208
-780
-302
-702
-265
-325
197
1157
78
272
330
-321
-51
22
107
103
-122
-36
28
-524
-61
45
432
620
-116
400
60
16
-619
-550
280
181
82
-511
120
272
-533
502
362
97
148
36
-343
-351
351
50
-107
122
46
-363
205
377
795
740
166
768
238
25
-476
-540
7
218
-242
-411
-244
994
347
-174
9
-621
-297
550
362
473
1
388
-21
223
89
-351
122
140
-487
-321
-370
72
268
-322
324
178
117
92
-151
237
219
9
485
282
85
-117
126
129
-472
-148
-618
330
-812
-365
-411
648
385
-260
-227
12
-172
-454
35
-219
-461
188
-365
267
-45
275
260
432
53
168
360
-472
272
306
-805
-57
87
-144
-57
-109
417
113
-371
136
-227
175
-143
328
-65
180
-359
160
-110
626
-308
183
-109
-208
445
402
-57
256
305
125
393
-8
69
85
-242
-107
551
-178
-56
-477
-233
-182
-124
173
72
218
537
672
-810
187
142
-191
735
238
6
-428
-127
6
-53
-227
130
24
-142
86
-101
-144
-896
360
-105
-491
-24
276
-130
69
-241
-203
157
176
-194
-504
-369
-194
-939
-207
-274
335
29
182
42
37
76
-486
56
-160
-282
227
-364
152
-95
59
-779
381
180
-157
189
-293
202
411
-20
65
190
-140
35
-423
-376
-169
191
-46
180
465
68
-22
150
148
-213
-28
-71
141
-222
466
334
20
124
-1
276
-80
572
55
109
13
717
493
305
-826
354
162
-17
-566
-1150
427
5
802
16
372
173
165
156
-12
552
36
339
701
267
-604
-306
50
-146
139
160
-166
-542
-44
215
641
-76
811
-6
-354
793
59
-631
-131
-375
-212
-762
619
-107
433
1071
758
-126
362
-60
-813
354
-199
-483
44
891
-41
-489
452
639
478
443
238
-360
105
254
327
8
-12
-28
-133
180
45
-310
4
36
432
106
-167
11
-125
-75
522
24
-173
188
-21
-421
-584
370
227
217
358
9
354
327
-63
-299
279
-242
437
555
68
508
1133
362
75
41
3
-581
-766
73
261
440
-502
1146
1020
-399
-60
99
454
319
-75
166
-262
-246
372
483
-233
-465
330
-964
651
-701
619
-317
552
-436
-418
423
-106
284
-367
156
818
-1
-309
147
373
-550
-9
1676
-974
268
-639
-43
-96
-120
132
254
-391
1068
-292
-82
864
-268
-337
897
279
-69
153
823
306
-96
14
468
-232
136
292
-276
325
-681
93
18
299
-136
-157
10
654
-177
-555
-530
-60
333
233
492
130
-968
903
498
-157
261
-187
831
-185
568
102
-53
269
-205
-119
-585
-187
-386
77
692
-402
422
22
210
-294
63
-52
-733
-936
-279
-85
-208
716
-525
190
-436
349
441
-292
-79
78
6
284
-424
411
-469
-100
-51
-101
78
167
374
-96
-245
692
-618
-56
519
337
139
-262
-955
-384
-491
-317
-920
-53
42
199
-334
32
-168
361
70
302
183
-90
518
349
-118
776
-177
132
142
-436
465
-263
266
138
-417
-347
356
611
148
26
79
-642
185
3
93
-1238
42
503
-42
-366
-244
352
83
479
537
-94
-669
761
7
-402
242
23
-363
-326
245
-317
264
-337
596
-434
-215
-467
-556
-184
384
-157
-56
-523
703
202
401
-270
-129
-206
-560
-341
334
210
406
511
-146
-134
135
213
-50
154
-96
-48
-377
473
-5
-281
-116
-276
-109
-524
-211
182
-43
31
-117
-140
-444
244
-507
-368
-347
-957
305
-52
636
299
616
-427
426
478
148
-89
227
38
575
344
-17
16
-422
476
95
305
-463
374
345
347
-662
-81
-498
-241
332
-369
575
-752
276
-376
434
-115
-211
-14
-193
269
-106
192
-296
308
-8
-361
31
222
201
-239
-254
79
-161
-271
370
223
76
-29
-7
-154
558
-451
-75
449
3
188
66
-370
-304
280
111
-16
-183
-437
-592
382
-339
-140
307
-224
147
-352
628
312
-211
261
-63
557
-422
350
83
-51
46
2
15
187
-378
414
258
-70
-384
-644
-420
22
252
-173
-85
-104
63
176
-38
411
80
292
-185
175
302
-123
674
307
-122
-54
237
345
348
-180
566
195
375
302
-189
138
-254
-117
-63
-125
306
-178
-165
-162
232
-336
323
-151
-307
241
-122
181
-82
-213
-250
-100
451
-203
-23
-32
1
116
20
-77
195
120
-339
-58
196
-225
168
61
273
195
85
145
-34
-270
-454
118
-658
-272
209
-231
-325
119
-118
115
602
405
387
632
273
-566
-80
349
-70
-267
395
-20
190
247
-61
131
275
-89
440
447
662
311
462
-532
119
84
-452
102
146
-225
-85
175
-11
127
135
-68
-277
-147
482
5
159
-228
-171
-299
-587
-252
-133
144
-341
446
601
442
-284
-46
-175
-88
606
-144
-390
-97
-32
546
436
228
548
413
-211
-195
18
-538
249
-88
137
-175
-392
-150
-198
901
-214
754
-235
-828
-587
-154
178
159
-12
-405
-210
249
-200
710
11
492
-242
296
49
-143
12
374
254
486
33
-74
-121
217
255
-377
-375
-133
-59
57
414
275
-122
453
-175
322
-575
501
-190
131
-489
-145
-74
65
-690
-138
436
-278
-880
181
-397
-400
-142
-283
135
-108
85
-456
106
51
34
-593
253
46
650
382
-292
-457
-258
-554
191
-286
-690
-250
1110
-140
129
-199
-182
-709
-595
237
-309
302
128
-343
107
0
503
-297
180
-591
-37
1089
93
-77
-204
205
-136
143
282
-511
-537
937
76
621
-105
188
-168
-354
351
7
-215
268
44
-343
-168
18
-10
737
448
-129
92
-169
-426
-420
287
124
-168
-173
-164
428
421
-305
-112
302
348
438
-648
-281
587
122
82
-486
-587
436
411
903
70
214
660
103
121
-87
-194
-139
126
31
154
99
176
2
48
287
-300
-809
0
-166
-36
530
-339
-1383
151
-10
547
-44
25
-647
20
-113
102
144
-572
456
375
212
85
815
490
183
153
64
70
-199
-258
299
385
-140
-77
-522
60
272
-265
257
-224
-5
-395
189
178
539
-93
181
203
-64
-408
-148
-41
200
231
-91
-464
315
76
202
-127
-259
41
-492
8
153
-614
-995
-564
152
266
-66
-403
-204
-442
-176
749
325
131
23
266
908
392
209
128
246
-389
55
30
450
-539
247
314
-122
-688
-175
202
-100
-110
268
-313
641
329
92
-11
55
407
579
-74
324
154
-236
-108
208
-320
131
152
-475
57
-45
165
1016
373
-87
-84
-195
-376
-4
-16
-95
411
-579
-381
-464
-413
8
49
-320
51
359
172
218
-572
-1404
-160
154
249
504
62
374
-340
5
231
456
57
-593
-361
493
-152
221
145
-527
59
-283
-22
341
237
-489
-440
-11
-659
67
366
132
110
178
-396
-307
579
-27
171
175
240
-73
157
-187
153
-150
-462
-82
385
171
-53
-25
334
-668
-141
-137
329
552
283
-257
59
-100
535
-350
178
128
90
12
570
-195
-246
168
-36
-212
-274
-222
5
-236
184
93
-265
-293
-22
-211
-27
-829
-212
-273
479
-411
-420
-20
255
269
-224
-9
177
106
-124
278
398
-377
121
-625
431
-177
-702
300
44
202
68
367
-518
-155
18
-215
465
-387
-25
-205
445
335
-71
-154
-122
-3
286
-79
-376
142
269
-27
-68
-351
412
470
-152
-193
73
-164
-589
-14
-116
387
116
-296
-569
167
414
-152
-177
116
-510
43
133
132
178
428
212
194
62
132
-170
327
-196
470
20
99
366
-698
96
-225
362
-184
-236
-265
-253
93
246
-65
-214
457
502
845
30
-324
157
90
-218
-167
-379
-400
-180
608
806
-241
-17
-195
-527
134
4
-102
-298
-315
61
337
20
233
-119
256
-42
707
-466
-18
242
445
687
-282
-18
-3
-256
160
83
-350
353
283
259
-110
-202
304
316
480
-17
-312
-483
-277
99
-256
-236
-550
-54
-220
-162
500
-68
205
258
159
439
655
92
311
-11
190
-174
-325
-132
661
-315
-545
1053
-50
282
251
-278
-13
-212
-224
83
496
141
290
-913
-228
-330
221
326
275
-118
416
212
177
212
216
574
117
-107
-675
-340
-187
320
-38
-572
-473
291
-341
305
-79
-67
204
134
-260
579
-3
-407
-28
-542
-248
251
-97
-154
720
-113
39
-82
645
596
190
22
-183
494
-188
-131
-595
-777
-211
729
158
-469
463
-760
-110
881
-85
-135
-437
-678
336
-233
252
863
635
1031
-130
-442
-19
259
608
594
-412
-154
-440
14
-132
-151
101
-418
193
231
-233
362
242
32
97
-232
-348
225
-208
-281
-739
584
430
134
197
276
-29
-388
169
-638
277
-36
81
369
-571
112
568
-112
476
361
-380
-44
-194
-38
757
54
-65
-308
191
549
-141
