-505
-363
364
-368
-207
354
618
-55
-302
-229
-156
170
485
-282
110
-11
61
-32
360
-137
-420
419
329
-258
-207
-34
-236
371
140
-177
272
-508
103
-97
-475
-418
-745
-14
33
146
301
439
-245
394
250
-473
-101
80
422
42
34
-93
555
296
-241
518
728
150
558
-169
221
306
249
79
7
419
-147
370
106
278
-499
14
-255
-38
-180
47
-255
168
-230
-299
885
628
255
-247
11
-607
-204
-116
478
399
231
-306
-24
-548
-172
110
84
-179
371
110
-51
-61
-167
147
-617
672
234
-224
69
839
-122
631
84
-108
227
134
-130
-1
1452
282
509
76
-154
608
118
108
242
279
120
208
293
415
1082
-159
470
-235
-278
12
14
-119
274
361
-181
-341
327
-278
292
871
-29
-200
315
594
-151
267
494
29
293
810
31
107
-48
754
-40
-36
696
-17
-223
146
232
-493
746
-246
127
-346
-96
23
-661
426
-268
294
137
731
109
287
-121
-217
288
-48
-592
648
-4
-28
48
42
-67
-209
82
-646
-295
210
-60
-334
-126
1367
-233
-165
116
38
1062
821
609
-364
-21
-16
727
917
-203
-509
-283
-182
36
486
345
767
-362
-101
-774
35
217
-570
449
873
-86
-293
206
350
-76
585
-236
120
-711
499
-601
-419
-245
-766
406
-442
-19
-104
-318
382
-150
200
-488
243
463
5
617
-625
-10
-170
448
165
-362
404
-145
783
-783
-128
-41
311
-907
-320
-859
451
664
-226
283
-196
-576
-317
-587
1057
223
-528
-46
-185
53
89
744
-207
-68
-613
-498
-325
962
213
-689
163
-907
-1157
-384
730
-14
117
215
11
-445
114
-317
452
-78
102
220
1324
-102
-72
-312
62
-63
321
487
-405
390
-485
-492
172
84
-709
418
782
-16
-291
857
184
250
559
438
-581
69
-480
-311
-622
661
-189
-159
71
-644
-6
-814
-755
578
-826
-513
111
-353
-113
-234
-405
-131
492
-275
-96
205
72
843
-684
-78
-830
183
985
476
-424
-41
266
-392
88
170
-200
-162
-108
-144
-294
-132
-199
655
493
-108
-435
-132
299
-185
38
-893
-179
252
195
-504
254
295
139
-617
-263
-358
98
545
-300
157
-620
-9
-311
-335
-488
-126
133
-62
491
-361
429
-31
-422
-231
210
-33
-235
-198
203
279
-385
565
574
-366
387
-101
547
345
-461
-548
465
101
401
-501
-354
184
174
830
1159
373
724
183
-286
54
-127
-88
-144
-253
-627
-203
-35
905
397
-216
368
520
427
-231
57
-40
-659
-721
367
138
-376
-140
167
-405
606
-101
-458
351
291
-14
94
27
-362
124
410
27
197
-306
16
-357
1045
-9
567
-524
106
-317
-429
-549
125
228
507
-373
305
-472
557
-422
-574
881
-292
16
-115
250
130
-108
-341
233
-627
-666
89
-359
-26
422
-469
77
166
140
-32
466
-413
-584
-133
447
289
303
-215
-24
-201
669
332
207
-1062
306
86
-18
240
-48
-160
-249
-135
-402
-413
10
31
598
-57
233
710
-744
72
-185
630
301
-228
-138
-15
-581
-274
-73
-122
-244
-162
-156
-59
-254
-130
-337
-281
-80
167
277
-182
1
-243
75
494
-23
-126
14
298
186
-670
-179
63
74
143
-145
-301
-218
-58
383
100
12
575
-129
500
-154
456
-293
-63
-736
-24
-154
-612
-470
8
-206
-43
-360
-350
257
-197
-275
72
176
293
17
261
333
-9
-782
253
80
441
166
-298
471
1104
-323
-82
-354
166
-98
295
-324
-343
-250
291
-474
157
446
-221
-297
154
112
591
109
-226
123
-14
-525
565
-320
297
212
1677
222
311
57
-171
612
242
102
137
-175
9
-372
-197
445
-129
548
145
248
265
116
71
-354
-396
591
928
-206
-212
-781
-183
182
-585
-170
-44
-110
321
150
-555
45
1325
1011
-877
198
435
349
1060
164
140
-175
-501
-391
557
407
-326
-315
-357
-582
675
-46
-471
-387
-48
238
468
447
-141
-115
-271
362
324
330
-7
177
-154
52
-640
962
-255
776
108
-235
-27
332
23
13
50
132
-202
362
-32
-505
-176
117
-383
107
212
25
320
80
303
243
-260
214
176
400
99
-203
65
-143
-360
-718
326
-124
-494
219
-198
-250
447
49
144
-403
-263
77
447
-580
-343
-423
-449
-448
27
-37
-365
-455
-535
-369
-630
59
616
355
159
-161
-593
-22
-79
33
214
-117
-220
-599
-291
102
-607
-46
-328
628
-220
257
36
907
-606
-422
185
190
441
-116
-294
-52
434
215
179
-176
-552
-307
67
648
-21
-225
463
-173
7
-92
995
291
-682
228
189
-248
-472
367
-424
125
-521
-261
-293
-355
92
66
-208
-354
739
-151
-306
396
-223
281
335
-301
-196
-443
24
-162
314
173
-320
210
-378
78
-160
818
-67
456
204
236
192
-260
443
242
-113
427
123
-44
-67
-264
180
473
-127
578
-71
-187
-6
-294
289
68
-125
-373
-47
-107
-66
-327
-219
-366
213
174
478
317
-448
513
-14
667
-366
257
-56
145
740
115
58
89
-119
-735
746
16
-819
831
-100
-860
-242
-230
-445
-119
548
472
346
262
569
-241
379
348
-63
567
-253
0
-79
-233
725
243
300
-70
164
153
200
542
-100
33
-1433
-68
477
187
-56
-113
301
-62
331
-251
46
-415
173
-150
-308
643
727
216
-797
498
-150
-308
812
314
-220
-61
225
-4
1
72
-364
168
-351
-115
-489
-288
241
304
-463
-277
-444
-91
222
131
465
296
-506
-408
-502
-746
257
227
163
-196
443
47
-326
-11
315
-102
1042
-88
205
505
598
131
-68
151
265
22
-256
-976
78
-486
-66
-210
-62
-578
-811
-220
318
659
-472
256
374
125
101
-111
-199
-831
126
245
253
156
-178
-664
-166
493
710
190
-495
189
253
-329
111
-212
413
-704
-356
-587
-1202
-43
-342
115
-552
219
-60
254
-193
172
-206
691
60
-852
255
-636
569
-137
-97
-253
-990
-1
-28
342
-338
-486
-379
562
388
124
-274
-2
-57
45
718
-498
369
466
857
-105
82
-104
-232
760
-653
-21
159
-88
-46
425
171
-403
-22
540
-144
-643
150
425
-471
-350
-880
-915
-501
126
-168
-69
319
-778
-121
152
329
-119
365
-334
80
278
72
364
-306
-131
-153
-348
648
-790
-468
158
126
-414
-804
-51
444
40
-42
368
-285
-6
211
-92
172
-426
121
-535
-76
-416
526
-116
617
-403
-33
368
-749
221
897
-513
190
641
503
-708
-213
-317
577
-290
614
-36
793
204
-280
51
-130
521
454
-37
565
371
-144
347
270
429
532
281
-425
-230
-367
-490
-9
-871
-437
396
367
345
280
-373
-215
-15
-230
-532
498
551
-30
-359
545
-39
-447
-387
881
108
111
120
26
441
397
-554
228
212
-339
-595
-141
-281
254
28
-726
-678
-53
-1
223
-250
-317
-133
269
-663
600
-640
128
-651
-258
-818
639
-187
-5
-263
97
-101
58
240
-697
507
-29
-160
-612
718
645
901
-430
-360
-448
535
-288
81
547
286
-110
-1465
391
-190
-1059
493
-531
425
-131
-304
-283
-619
-822
-526
-219
-437
-31
93
356
-132
-922
-269
-700
-197
77
-11
319
-135
-366
939
-353
275
27
688
425
460
-846
-371
95
372
344
119
-213
-411
409
254
-568
628
48
-313
265
-416
-371
-64
-94
-266
317
-30
-534
367
-527
-488
199
259
-427
-255
463
-622
469
-581
275
-383
122
-201
945
175
-170
214
-172
-34
126
387
-347
-380
428
-276
-127
207
203
-74
255
-287
82
290
-800
-127
-538
201
276
52
-66
251
-668
-14
-156
305
-262
446
-941
535
568
-52
-34
211
-725
208
-151
-382
222
487
-139
238
-167
295
31
579
-557
42
19
-408
-299
-729
-236
117
-200
225
-734
-354
-188
-181
-1
-495
-186
-514
301
194
290
-80
-128
-352
185
-179
-497
358
-513
415
288
-125
355
-523
-151
-576
256
-26
121
-209
-450
-99
-399
-545
526
-182
69
-31
-694
179
-205
-115
150
-508
-507
102
-179
-135
-367
287
-196
15
-6
541
-181
-408
-58
-396
-135
414
-27
260
-367
746
-38
431
340
-438
134
-30
108
182
258
330
-36
305
-226
70
-830
350
-129
188
-28
277
527
71
555
169
199
-49
543
203
-188
-267
-579
-860
-173
233
125
160
-78
-89
-533
-490
59
404
-684
92
544
39
312
-164
-968
-200
235
-250
72
-589
41
-117
198
224
-304
-857
198
33
56
-154
-159
-557
69
-821
-581
-237
-103
-188
473
136
292
-539
-560
389
-286
-283
88
624
-1052
-674
445
-189
-186
-146
257
103
278
353
422
-382
-470
-346
151
219
34
-188
44
-175
-475
293
-129
370
-268
238
93
-51
-1163
369
-208
-347
515
-115
-244
379
-326
216
-457
114
-201
-786
332
189
-361
11
390
190
877
132
-163
379
-612
93
-46
-136
300
230
-45
-414
199
233
143
-327
-18
-131
-618
-374
-378
-184
179
-200
-311
-46
527
-346
-303
-409
-51
-180
-1020
524
948
-151
31
-551
-120
-218
168
-41
-346
336
26
-313
-117
252
-54
-507
-263
146
-212
634
-288
-423
38
-258
-149
209
-71
-261
360
130
17
-216
150
-201
-524
532
278
603
-361
-199
-2
295
285
-13
-179
-474
741
-334
243
87
-48
-154
304
167
346
394
-351
253
685
-37
-20
315
-44
-269
722
-23
1097
303
-167
230
-147
565
356
-127
207
510
-634
374
-274
70
187
191
-138
272
-316
150
-633
964
396
-66
-123
26
-173
457
-629
328
-102
190
54
150
31
57
237
-64
-510
-350
502
-82
-2
294
-210
487
-37
278
469
150
-333
-295
60
90
269
276
278
297
-260
-311
844
-158
-1106
-42
-149
98
275
-337
46
-26
-304
-21
-174
294
-108
-225
28
865
573
-19
65
24
1031
248
33
93
-409
45
257
200
140
689
387
164
156
420
-18
169
-185
-312
-231
179
425
-10
-301
-29
675
524
571
-413
-376
562
149
452
-468
222
-741
258
156
407
-182
-615
-220
238
-214
75
-482
-422
224
-469
-137
663
676
336
562
224
-102
-69
343
-8
605
54
-243
-194
-722
-308
176
97
-181
654
485
-430
-29
157
-282
334
-252
-103
162
191
354
928
-513
-223
138
-76
171
661
638
250
-226
-473
-82
496
238
-409
-173
73
-118
222
-314
-418
-272
86
-154
207
331
-314
-269
-187
172
-219
-744
-141
-93
677
41
714
71
-334
-2
-286
60
-312
99
645
28
-387
-40
335
80
-135
-70
-1031
-235
9
-192
-106
254
231
-159
-58
223
346
220
-139
3
-516
330
-479
327
-241
-384
118
-756
-132
-1254
-737
-271
-510
-341
-255
-80
-2
73
-227
-116
198
-694
-692
-286
261
-137
-535
-525
-402
-219
-185
-92
327
35
483
491
-110
203
115
338
-360
-388
12
192
-497
-1019
-298
485
-497
-546
-81
-134
449
186
326
1
123
61
-78
537
82
-276
-416
-311
88
-510
167
-182
-233
-781
135
-843
-16
-466
-303
-484
0
-575
-156
-245
-53
538
-294
-127
312
-53
58
100
-357
12
-490
-395
894
-481
-938
-147
-338
-207
-326
746
401
171
87
-1051
-263
-467
327
-304
-350
-286
-102
557
101
-698
-17
-256
-183
125
242
625
188
230
127
634
142
-399
380
-288
156
94
206
-317
515
-582
61
108
-340
228
-112
-677
455
40
688
96
502
2
145
-728
197
-154
-170
293
-268
893
-644
578
10
619
301
232
516
-529
23
540
-237
130
-309
595
-65
338
-290
-46
-239
-435
-170
-213
-101
-282
172
581
-396
369
514
-147
-222
358
1087
314
-153
-102
-182
-37
-724
84
-81
-660
179
647
96
-347
-445
-203
-296
406
120
618
487
-177
-446
-106
-487
372
83
-62
151
-245
-185
-131
130
-156
54
-15
302
-389
-35
528
25
-24
79
756
-123
-127
104
219
110
-522
-17
-195
-96
251
497
469
-821
-108
350
373
127
-530
173
87
27
-157
383
-530
-62
130
-477
-463
208
-175
106
336
-156
-227
-276
879
153
514
-338
-10
-214
562
-114
128
267
-135
-1220
-230
205
127
-188
46
-258
130
207
-122
-20
845
428
313
-579
-230
30
-12
-343
-147
810
-481
447
147
119
75
603
-52
-59
631
309
316
-79
-502
-127
350
-163
-257
-70
-77
-96
-873
2
-325
250
-150
-283
104
-283
221
-184
-5
383
197
-59
20
-121
-640
342
-200
-222
700
-476
-172
-564
-195
-966
409
161
-305
-402
-445
406
-255
-278
76
378
142
171
896
-147
-291
123
-429
27
-11
130
-101
-846
-488
243
-52
-157
199
-76
-560
385
48
203
122
195
-14
317
-661
766
215
130
567
271
-128
74
-290
597
6
-290
613
132
300
-290
133
251
191
304
253
-200
-202
-112
421
178
186
133
-86
144
255
-302
-14
-649
-365
-387
-174
-4
-205
207
252
-64
-26
-131
603
-189
364
-339
298
-167
-562
413
-222
300
623
-267
-15
496
-34
478
-533
32
-262
48
259
-427
-903
275
-341
-457
-333
-204
-247
-779
178
-252
-440
591
184
-48
-111
103
51
-200
-169
72
158
605
361
-53
204
419
-310
111
-56
-277
438
207
-407
-1050
1031
-483
348
-915
-279
-97
-540
-267
-533
-406
-438
-136
154
-91
-233
197
-230
-232
-289
47
-116
-344
-333
22
515
-243
299
111
-126
97
417
183
284
-5
417
-501
-143
-476
-3
-63
-401
-664
535
-392
-396
-129
362
523
-427
58
665
232
-261
-59
-396
-258
588
188
-427
-410
-522
631
564
-595
38
237
-806
-166
-222
-38
989
-278
111
-299
-439
-366
-191
391
425
-347
-584
658
-993
59
1569
-224
261
-178
-462
340
-731
-549
-109
-288
476
-45
-253
531
10
-269
882
198
204
74
498
344
488
337
-690
-12
950
641
-218
-357
-667
-91
-21
121
-127
236
-778
664
307
-479
-148
848
-265
388
4
-459
-193
254
355
-126
-51
201
-47
216
328
-513
489
-8
-643
-130
-274
415
569
387
-537
-129
-631
-721
-317
608
381
-13
672
276
149
639
-108
159
-231
138
-154
-172
-919
-571
326
-121
-436
-398
591
-168
178
280
852
-194
-249
92
634
37
396
174
-315
5
-228
-73
-466
61
411
230
-388
349
499
-182
-496
-306
104
121
835
359
-41
198
-7
881
517
-612
-949
22
762
101
-515
155
-368
448
-452
293
-217
240
543
519
-243
-519
-12
-407
-5
574
-556
21
-452
-142
-453
-181
89
482
351
-248
226
3
214
-72
610
-208
154
-69
-586
-107
661
1027
-856
-18
-82
-303
221
22
-72
459
639
407
193
149
-294
-228
-515
-254
249
73
368
108
-174
-211
792
-559
11
-106
-477
125
304
-160
72
-761
106
330
181
156
-21
442
59
-88
-351
-85
137
613
62
166
48
-86
414
114
-128
165
94
890
481
-178
82
-408
-351
-313
76
-251
75
219
-670
-230
134
38
-381
-74
88
369
219
100
-271
-486
-402
421
-760
143
339
-135
133
350
-585
-553
-175
179
373
403
547
764
165
220
396
948
487
-76
-849
186
653
98
270
-511
-151
-527
373
122
207
53
139
77
-215
-6
-433
304
240
43
262
283
-273
-656
-485
-209
-213
148
128
-46
125
-562
-292
573
-47
-84
-649
-886
15
-873
-411
215
402
221
-986
508
177
-136
860
264
-205
-32
-67
-72
-66
-832
-936
-61
388
258
143
-199
113
-75
354
-341
-524
520
470
943
-134
365
-917
51
286
-496
217
265
334
788
199
192
333
-110
-119
502
172
478
194
180
472
-14
756
178
-16
161
-344
-614
-20
-908
-273
170
-24
49
396
111
-203
-121
-112
-151
350
102
191
-651
647
261
4
-128
373
-631
-847
-57
-284
159
-314
128
564
2
506
198
-363
174
-417
344
-195
448
303
-178
-374
242
283
-373
67
-854
446
62
-433
-648
-481
-521
-391
-239
-574
-943
-565
268
81
-327
181
-660
-501
-259
-883
-362
158
246
-594
-17
-147
27
377
65
-39
-782
-422
-61
331
-1008
-527
757
-126
-111
-314
-41
269
109
-229
-42
-500
-234
-236
-12
249
-721
379
-1084
-378
60
-43
332
-355
-567
734
274
-731
-719
-469
-1
-856
296
-186
-598
-522
88
-514
-421
-409
-174
-73
283
-82
264
-427
-396
288
65
-553
96
214
-793
516
-861
403
-107
-58
-177
-1067
-194
-310
-839
-572
-679
-76
117
360
125
225
-855
-431
229
64
261
-264
854
-234
25
109
227
300
-319
432
47
-126
-49
180
-46
-390
-715
297
77
420
345
73
406
-29
-20
-353
225
-289
177
207
300
122
-729
-107
-71
792
143
-175
-36
74
-8
242
-54
-49
-275
-65
397
36
197
274
261
-107
289
-15
-323
-569
-98
134
114
306
735
142
-393
-264
-28
-131
52
1
322
86
336
-240
205
-215
321
-249
-80
724
-362
-341
-9
131
-92
469
-129
-180
-25
620
-83
141
-184
-234
495
-36
561
-455
295
132
-364
331
-594
-674
-191
543
53
-113
-618
99
331
-86
-348
-17
-394
964
-977
-155
33
-110
-288
260
-773
-173
82
328
37
292
-244
-141
167
557
-27
-19
-57
114
-486
-211
232
-371
9
-15
-466
-402
-7
-74
136
-310
-125
-544
-166
193
-205
713
180
49
-625
-225
-372
88
-198
166
589
126
152
117
-336
-609
-281
305
171
451
-501
-85
464
-833
-18
-126
115
927
-256
260
647
-278
-332
-6
5
-179
-87
249
-455
98
-228
-214
-154
356
-924
312
-590
150
1
353
-62
-480
-396
314
166
-537
-634
388
278
309
-466
-538
103
-664
-554
8
-535
535
184
-76
-253
321
40
510
73
-35
-132
-497
-410
628
-527
-718
-263
-1274
-99
583
-308
16
-5
-406
-243
37
279
-25
296
-305
-590
-796
-331
215
-637
389
-342
-115
146
647
92
329
542
81
-708
180
587
156
317
-289
-382
-92
-385
115
114
545
55
-4
193
-757
28
347
329
-208
-2
302
-353
27
122
-626
-470
806
205
-200
61
-674
79
-380
337
-422
-579
195
334
652
345
105
-658
-1
-248
-620
-191
470
-454
442
-310
423
-104
-397
-24
614
10
503
256
89
424
1305
-176
-15
-258
-167
441
-344
94
191
-329
135
218
-119
3
32
276
70
300
-365
-469
-20
-121
-346
24
102
-139
452
-412
-117
318
88
61
-1146
90
164
-499
163
450
162
386
-324
-682
360
619
135
384
0
229
-595
-700
-50
-85
-154
13
-67
-94
250
357
182
-28
-555
-352
-196
-146
-132
135
-35
-177
277
431
644
-207
136
187
-225
802
-891
-312
-437
-429
-2
-254
123
153
661
572
-76
302
-487
1
-62
187
-501
553
427
-399
115
-94
504
-318
-295
394
-739
-196
597
76
339
110
-48
-233
352
-197
9
-152
233
-62
-112
357
-142
-192
903
-608
-169
-256
-667
92
-207
-519
878
-534
93
-391
-529
-205
204
-474
443
49
852
420
-776
194
-105
-775
-118
-435
223
338
-10
-33
-606
-138
-63
-279
-219
-152
144
-585
-913
-102
501
310
1427
-384
-112
525
126
-79
-361
280
-137
242
-687
466
68
342
180
46
298
113
441
-308
-696
313
-93
-223
-419
-612
1070
371
-341
-246
-634
194
336
-61
-619
-872
-633
348
-143
195
-272
-453
-694
343
338
12
600
281
-61
-57
-201
632
223
118
-219
-185
612
722
1152
138
162
410
434
46
-310
1007
183
15
400
-543
235
1158
219
835
257
429
-206
62
109
270
-261
-1180
-288
129
21
-176
74
347
-559
-1157
257
-146
-329
212
-1147
-85
67
265
-66
681
-491
125
380
291
-638
495
-71
-31
-313
-828
535
-247
325
-65
353
280
112
355
347
841
-18
-43
21
-186
-199
-261
46
66
448
386
-69
175
570
-109
249
-53
-56
-401
488
247
748
-34
-172
172
-49
-502
402
291
186
22
337
217
-432
-86
277
-118
442
-63
-361
-207
-3
-291
857
-487
496
54
131
381
165
-259
-564
53
621
185
-66
460
-162
543
945
266
-205
-348
80
-343
64
-145
322
-343
844
3
-809
76
252
-82
180
60
-546
-423
-85
62
-600
389
-186
-39
75
206
183
176
316
696
-142
-336
871
585
38
163
185
268
680
349
-439
-656
-756
-77
-191
-20
-385
276
-42
-406
254
-329
710
-357
-156
870
1168
22
-312
-431
-161
548
-463
56
-185
222
489
-37
-22
663
168
128
179
-209
406
-342
-251
-52
216
4
-773
-24
169
-750
-312
-18
326
-325
69
-15
-694
822
137
-188
445
754
-23
29
-618
-259
224
-406
190
171
-358
93
465
-332
64
-374
83
-518
-375
-505
-495
71
95
-221
11
-833
260
113
606
719
913
532
-148
-41
-123
-385
32
254
-215
789
144
-565
509
103
-187
-75
-174
-281
-103
-103
-135
492
152
603
-127
92
628
168
73
550
828
36
273
214
450
-358
195
82
-356
527
-6
118
-579
-492
-72
495
-175
396
103
1007
0
111
-284
89
-85
-206
-591
-35
-469
139
-22
226
-599
-186
-194
-198
-42
-101
38
-206
34
154
224
-229
159
-187
21
136
-69
-308
-543
84
116
-132
552
275
314
199
-42
-256
365
163
103
-252
103
-363
137
615
-193
31
509
55
183
184
-372
-398
-76
-212
808
482
77
-91
285
194
746
-125
214
-106
125
-60
-143
376
228
-432
-245
-67
-880
-103
417
-231
86
79
-289
-523
399
414
-412
-361
768
16
-662
180
309
28
73
-637
-669
-215
469
149
-79
-64
19
619
-16
-26
86
-36
-50
-265
-440
-192
62
-80
187
-748
834
-482
362
936
190
751
-62
298
-146
-38
219
-413
351
-443
839
-5
-414
-332
123
331
1015
554
40
255
-162
-431
270
-31
-263
426
46
553
240
-136
-20
-175
41
213
-578
79
128
214
450
191
-250
109
94
593
296
85
457
-268
-316
25
-266
-270
812
-81
87
310
-411
423
-60
-106
-77
-637
-147
12
31
-192
71
248
-434
-918
240
359
-27
216
15
-64
-277
473
-165
71
666
-182
-233
-59
7
-36
508
390
288
188
63
-52
68
-484
-366
-157
-9
-90
-12
395
103
653
-43
456
122
-57
649
568
-51
-20
793
-192
-154
-353
365
43
222
348
-95
-167
-200
75
-455
-26
-653
-32
-72
-165
-576
-387
-153
300
551
-620
155
-125
-73
109
390
-292
-130
-434
294
-544
-172
-472
295
-13
-385
-380
323
-194
625
181
579
282
-135
-487
136
-975
-756
361
11
-404
599
145
268
-99
735
14
230
614
-388
441
-206
735
180
-834
-176
824
-287
120
410
667
-109
-565
128
-32
143
-44
156
816
522
109
-315
-409
-280
-1068
-185
155
-840
81
-12
-120
327
244
512
-166
-108
-701
-307
251
-280
302
-281
-179
-377
-568
230
-753
146
-690
-139
-92
201
-72
-521
-134
-546
-107
822
115
-243
192
-978
121
144
-639
-185
-53
-1606
-38
387
290
-82
-78
-516
318
58
609
-189
194
165
246
477
611
-168
368
-235
-705
587
612
428
304
-548
106
-420
618
550
-268
-981
135
819
2
-237
75
231
96
-302
-436
-204
-360
-226
-441
200
55
380
399
424
372
-640
-188
272
408
-1076
450
-1002
-425
-628
-203
525
-392
-549
335
116
14
520
-224
-733
-726
165
212
-107
-305
1016
86
549
-670
162
212
-153
-213
807
110
587
-6
-468
354
208
146
-24
-444
-9
-523
-66
23
-155
264
-503
-246
629
306
-781
-201
352
209
-23
-37
-805
-631
37
514
97
775
119
68
-1002
260
401
-333
-1110
-221
502
744
-158
-1220
-156
-141
-247
94
114
-99
446
-402
16
344
850
-13
-338
-1581
34
-62
-21
293
-645
-114
313
701
-1397
-244
119
-648
406
44
-217
278
-498
-13
-246
882
-545
173
-537
-307
-145
-391
-49
264
256
758
-337
-1
-686
677
-168
371
763
-420
74
-335
-280
-245
131
-213
-540
-144
-286
294
-784
299
329
-170
634
251
226
-256
621
-139
387
-128
-602
-35
563
-191
-250
379
210
83
884
-61
-169
387
-511
-248
551
491
166
-189
-49
180
-170
-112
899
57
-118
-258
-240
981
-88
-126
-274
393
56
147
393
-565
315
186
-199
-240
-331
-373
48
-221
-3
1
-529
251
974
-282
14
-14
-561
-406
106
-181
195
-662
1071
313
271
699
-422
-453
-251
176
33
342
-154
164
-87
359
-195
-376
45
-10
-169
-160
52
-445
256
90
1048
134
-24
-8
276
53
207
-339
731
357
-57
-479
547
-32
44
-528
395
-50
-358
-114
-479
-528
147
-146
243
-135
564
-136
125
-151
433
-76
593
592
-136
733
-253
490
477
-97
75
490
90
183
488
90
141
-36
662
610
273
292
598
31
-152
-125
348
-908
538
-9
-497
279
-486
-90
-2
-448
324
-265
63
239
351
-328
-249
-16
-401
973
-200
-346
-99
1203
416
-127
223
-427
-294
78
-57
-122
123
195
-127
-159
346
219
0
-275
91
457
185
444
672
222
506
-367
-250
-503
-387
-422
314
16
-68
-66
1010
-104
227
54
44
-374
-243
348
-428
59
-158
404
-212
149
-700
-27
-127
-145
-358
23
128
-353
-4
-29
594
-276
233
655
-80
234
-328
-131
-320
258
-4
739
187
-135
-399
-415
240
-92
-157
762
783
786
336
185
197
-86
-33
495
-169
74
20
115
0
530
129
911
-23
-476
-208
987
134
93
164
-48
-606
1005
97
198
-79
-121
-531
-687
402
-114
-26
495
1068
625
-479
430
-653
766
651
-186
-105
804
219
-347
176
-228
-87
92
184
118
-314
748
513
-80
701
777
225
-329
366
246
-150
547
22
362
289
-745
316
1067
-209
410
146
-180
-271
-248
406
-238
-560
-329
-290
53
78
145
795
-41
19
-69
489
-10
949
-427
125
275
350
225
-152
7
563
-64
762
-91
266
-394
815
775
-675
827
7
-159
699
169
-88
543
-146
-244
103
-262
474
-178
-249
-230
9
289
-210
-197
265
-301
485
458
80
-234
-196
-192
-624
-376
88
130
272
-65
302
-48
-96
216
337
553
286
483
-218
450
-312
86
701
-2
-76
145
-165
-245
-456
391
-203
-307
453
-679
-370
-236
282
192
-178
-68
591
-294
-32
610
-202
619
178
301
408
-23
-113
-132
-55
-304
214
-169
386
18
-375
-93
449
317
484
128
288
719
-363
-615
-86
-66
-128
223
-240
-430
519
641
-313
59
-393
464
607
-117
-82
-117
122
387
474
-869
322
-414
-65
141
37
249
193
380
391
902
350
-383
-327
269
73
723
-90
755
663
-92
18
122
52
70
179
-84
-251
409
-33
413
712
265
-33
-130
-132
-345
-288
222
67
56
498
-602
-191
973
500
-312
566
73
197
258
1177
-502
-81
-184
-658
-194
641
-346
190
851
-108
619
-381
-115
-262
-362
-729
-84
-456
-154
304
335
-154
32
90
-232
102
-408
465
7
-526
-106
3
279
-354
-159
-55
498
-279
-24
469
256
-540
-364
-398
-633
-394
877
-388
-175
-231
706
-283
-328
-553
-99
-6
-496
-272
-38
115
519
-931
-82
-203
257
184
11
410
-445
369
-462
194
58
204
-315
137
232
357
169
80
13
19
57
387
-95
-859
345
-865
293
10
-291
-238
-230
108
242
195
-150
183
-232
87
-116
-799
-33
-286
590
-428
237
-238
311
-598
22
187
-493
-619
-270
-237
-93
-288
-256
294
208
-97
-125
400
145
-189
166
-381
-558
-104
457
-158
270
-201
-190
-280
-236
-155
-301
-282
51
-250
587
-623
195
43
-520
-562
140
285
-746
246
183
396
-164
-341
96
-321
-498
95
-478
-160
569
64
247
-127
112
-190
-186
-542
-325
-383
-743
-86
129
-658
127
550
326
205
-364
-693
-21
-214
-498
-27
-587
-713
96
-273
-3
-1231
-32
228
303
620
435
332
-170
-254
202
-268
854
-488
-79
23
-1011
711
537
-707
-126
-281
49
664
123
-177
163
552
-5
70
113
155
-196
357
454
463
-5
516
-263
-73
-281
-238
-704
-387
216
-432
-218
374
126
-11
168
1
-683
46
142
132
471
-87
-33
324
-432
-97
18
152
-241
-18
-331
-465
-629
-93
508
606
-249
-274
-344
-287
99
517
-391
-203
257
-111
246
-499
333
271
-43
-261
-896
-82
90
230
86
82
240
-337
-353
251
158
365
144
-244
91
-334
333
-960
259
166
84
-302
815
-81
-588
-53
330
320
-488
254
537
527
201
-336
-5
72
133
404
628
98
369
526
-319
-118
-270
-316
405
50
-620
9
49
-257
223
-420
-9
-99
-757
-864
-143
380
265
158
192
771
231
-209
561
230
220
232
-182
-308
-310
413
-327
243
142
153
-40
-222
-59
-140
323
486
799
-36
-133
71
-301
932
-56
51
982
165
93
-865
213
469
781
49
674
-555
-308
149
-318
675
-128
89
218
-227
349
43
220
-73
308
4
180
87
330
218
-24
-447
896
252
413
-377
471
-147
-187
-180
-394
125
-595
845
271
-453
275
335
322
-208
82
-517
-554
212
-68
732
-325
-66
-682
-221
-246
-83
278
131
-37
-178
-375
330
191
77
-231
-418
-3
428
-453
56
266
630
-215
-304
-78
-77
-147
-461
733
82
36
178
629
-184
-205
-38
278
-258
-484
-203
-137
-8
-174
713
144
338
1
-506
178
-173
-63
592
146
3
737
419
-65
340
264
-669
99
140
-312
-26
-415
-748
-356
-547
98
277
-493
-222
564
-360
-368
378
-251
-69
-154
-85
-67
182
-151
241
188
-459
187
49
701
-450
-324
112
-437
191
415
10
48
-308
237
135
91
67
-558
12
-637
107
259
-45
-388
577
266
171
-177
295
519
68
-208
435
79
153
-62
-80
-27
-361
-150
201
61
-14
306
-575
562
416
-108
-379
398
257
-391
253
345
563
-177
97
-397
164
121
-56
-52
291
304
301
456
-352
-298
-198
197
585
152
450
28
-179
-277
955
129
-515
112
-259
60
-467
-472
404
246
-483
-31
133
-768
744
19
163
-244
-58
-296
-381
6
-100
176
-435
-122
84
357
267
-8
156
67
76
-254
36
49
-178
5
-6
-309
-370
374
-80
40
297
236
599
-321
625
-570
124
-590
-272
207
517
648
-11
-70
74
-589
5
-251
145
680
-676
622
481
-110
1
692
-134
247
-350
412
150
962
228
559
-434
31
163
-112
273
-308
-286
-51
-299
-240
883
-49
-486
346
-6
329
-87
93
-47
-433
-480
305
-241
-379
-101
-360
241
-623
166
-493
684
737
-256
-15
1002
-272
-503
-562
54
-190
-112
-49
-127
-337
-593
220
33
-539
-55
9
-160
108
-57
-450
-57
441
-178
243
81
125
562
109
353
-373
-262
260
-159
-609
22
-236
187
171
128
-631
193
626
116
-316
-41
-113
317
172
-255
-408
-233
-778
-372
242
467
386
-125
100
343
-489
840
382
90
147
313
-108
-531
247
-535
24
2
175
-358
1155
141
67
-78
-158
288
-24
-220
583
364
-82
219
-480
866
1
-194
-67
-154
-191
110
-45
-161
-253
265
-595
-124
-27
388
329
-339
402
-61
-169
-653
-803
-380
-470
659
-515
271
-288
-269
661
-289
38
-270
-139
656
-511
436
324
854
-92
343
409
-496
-344
237
-140
453
-446
282
-322
-304
-60
-316
-15
129
-208
454
326
-252
-456
-423
179
-1
-293
310
-1318
424
326
-386
-906
-133
200
-80
486
75
355
24
-516
-217
97
87
-162
483
-523
2
562
207
-169
-167
-981
-232
-82
-143
-90
-263
440
-141
-310
173
29
-1008
-628
417
370
-497
613
-74
505
313
320
-412
-168
-70
-627
-346
101
-711
-836
152
516
293
-436
79
-155
363
-761
-182
-309
-163
116
-514
-259
441
-571
328
125
-342
-363
-374
-46
-54
-212
-121
-129
-204
41
461
-222
-444
-169
73
18
-44
281
-142
180
70
-36
218
-60
-82
-88
479
-646
310
261
-103
154
-347
532
-90
-245
250
-39
-93
884
-533
-379
-108
-147
-172
-509
412
17
-720
-132
483
168
428
-6
190
-636
-143
-967
27
-27
-363
57
-500
-269
-514
218
318
77
345
-848
-132
73
582
-118
-232
578
-118
-261
-303
-630
-89
409
-244
-188
708
-345
238
-912
36
-31
-562
560
-637
351
458
-127
427
-75
-103
142
-57
142
147
271
-1261
266
238
149
86
-293
-97
125
-1010
-298
-226
-137
110
-114
123
-18
89
555
-954
-548
-620
127
-14
236
-480
-1039
203
121
243
36
459
-62
-264
-89
-260
545
-538
-36
-47
-5
-16
-10
283
-68
824
487
-200
40
235
289
667
-295
-1856
-71
-647
-53
536
-71
219
-468
312
594
-724
-21
226
569
-104
-351
-119
397
-566
-555
-851
-696
318
-59
-510
-12
518
515
-716
-133
596
413
-366
97
-165
119
157
-267
266
123
176
-177
-920
425
-140
162
-85
47
-60
-398
-119
-170
374
130
496
145
576
4
490
-260
-232
137
401
775
154
120
59
-204
122
66
62
-190
546
26
621
-712
75
86
301
-55
-42
348
-94
-230
-58
-257
-10
-322
453
-512
217
189
-33
436
26
411
382
302
-170
472
414
268
177
79
212
810
-425
193
-238
-388
-308
-563
93
314
-532
-31
-418
29
910
19
511
405
-604
292
-67
-246
-1070
19
-146
-107
576
-471
-523
299
-58
-83
756
157
168
-508
392
-399
89
266
178
-959
57
-59
164
-545
476
488
344
376
-320
771
542
-640
537
-160
-222
92
-526
-53
-472
452
130
417
1209
-240
-395
-23
375
-159
602
-203
-773
-419
186
-154
-306
336
-192
9
-415
-339
112
-727
-469
-61
142
-200
243
-170
24
-26
-141
-269
223
72
-28
-677
357
-129
497
-11
-320
-373
-169
-7
-361
172
28
287
-390
721
212
-24
-262
480
669
291
15
-159
-170
57
52
195
162
609
5
-65
171
-126
-907
12
-170
345
73
-328
261
-183
86
190
-314
501
622
-765
-702
89
-289
-267
-775
-136
-184
-28
326
-225
254
91
-590
584
515
-48
39
-102
-278
24
223
-870
-205
1008
-30
-65
238
1257
-150
505
472
-761
-167
-434
1160
-918
492
-358
148
127
-284
-191
-503
319
1
-563
48
-160
-187
-314
361
-126
-62
-419
-302
-795
565
-218
214
210
-144
49
-82
268
110
-56
-82
62
148
-417
44
-299
540
-482
-181
33
-90
-17
219
-153
-460
14
521
81
-95
-63
-290
-492
376
277
559
81
992
649
-254
-74
-296
400
883
341
-616
-195
454
-135
766
-182
11
-99
-399
269
470
-186
-171
-312
221
565
-167
75
11
482
-459
-165
-523
57
106
-431
-8
-161
-505
-736
236
42
139
52
-360
-6
687
125
-591
46
151
678
-379
600
400
186
-129
72
-215
65
-45
-250
-551
406
355
-253
227
41
-35
646
1063
-328
-325
-642
-298
-152
-110
258
-2
757
762
-124
-315
-239
585
479
-119
1116
-414
-61
141
127
-233
666
-329
179
144
-98
344
310
-309
-20
-331
-217
17
-337
-509
312
-300
715
-188
-85
305
212
-102
267
-259
86
-46
-235
175
94
-141
15
346
-102
105
389
791
-61
-12
532
224
-9
-196
-44
593
-105
94
254
-723
30
-344
-313
-328
246
-216
-406
-480
263
333
241
-71
139
348
525
93
872
52
472
-165
-140
-111
-52
-107
443
-31
-89
581
873
-416
22
111
-325
-151
95
-334
-12
311
-599
-901
-316
117
538
-177
113
-357
-28
166
366
31
-691
-482
70
-65
308
409
-192
261
-198
-147
165
12
-169
168
197
-296
127
163
58
-559
339
-169
318
292
-301
121
299
48
403
-280
-897
414
-160
-259
-272
132
-259
359
219
516
-368
-28
358
314
171
-567
-423
-294
224
-23
-353
-163
-215
35
-93
506
150
278
-551
672
32
327
-397
-211
330
-449
323
-191
122
-319
-397
-192
98
-82
-129
270
-530
-702
40
-310
-322
-1299
116
419
33
-65
-670
-158
-523
-195
-40
-394
453
127
-216
-740
-25
-482
74
-356
130
32
94
178
291
456
63
202
189
394
-669
145
142
144
187
19
336
-92
-485
-319
-194
2
195
458
33
-358
303
574
-88
-23
793
-70
143
156
-45
-41
291
-342
-395
-162
-488
82
-221
-176
118
-88
-363
-27
-89
31
-146
83
-252
-96
143
-273
-510
-215
-293
-112
339
-198
-172
449
220
235
-72
364
453
-197
-514
-481
-136
317
79
105
318
-237
-611
179
130
50
502
-162
5
-542
1055
-808
315
273
130
-223
410
18
489
-646
279
308
48
1190
647
-105
-176
358
428
-264
358
126
-85
-70
178
-130
-317
-42
118
149
76
-286
-111
644
105
-192
-356
-373
-507
1272
-271
437
265
-122
-16
236
474
260
-345
-30
158
763
-49
-443
506
456
362
723
-649
612
-164
-579
-175
-1161
154
-955
-333
42
588
-64
-116
228
-40
266
-207
553
211
-645
-59
424
157
-472
160
-1
137
56
-17
-116
383
-67
871
-165
338
-288
629
-599
266
361
229
-218
-1009
-621
-202
264
-186
-701
-338
-395
-62
34
182
50
192
-446
-9
474
286
-149
-120
-526
323
-183
-298
278
-381
-221
-384
8
-68
597
-195
-289
-14
596
-162
174
-606
430
-67
-367
728
102
-290
-52
-1
-151
662
297
-48
131
262
-491
444
144
175
61
472
-108
722
104
458
-690
151
-665
-269
387
-316
-111
-352
377
-436
-283
143
14
668
-204
269
40
166
-77
-166
-98
0
-893
-539
-165
-11
227
124
-707
-136
-138
-274
-556
78
274
418
578
561
147
-56
376
-330
479
-458
-495
-178
-210
-213
-107
87
278
-621
484
119
93
-94
-26
-769
-902
-458
270
33
75
304
-540
-115
-387
611
761
-192
-219
-20
-676
-25
55
388
593
-488
258
-140
466
142
-64
-70
474
-177
-67
-195
205
470
-684
198
160
776
-449
-11
-29
-666
-184
124
211
-216
461
-252
-468
-369
-316
-511
-167
134
252
-311
-374
256
34
106
136
243
-802
-680
487
-71
20
65
-437
600
854
-286
471
193
-145
575
-201
376
-190
-174
-440
-151
-200
344
-83
-773
-729
83
-618
-139
372
110
650
-193
-554
249
-572
-941
68
765
-133
140
157
-274
-449
-713
-52
-474
77
128
-385
304
77
-275
-467
510
-176
89
577
23
-60
833
467
-452
-154
-234
409
-103
158
247
-236
812
176
407
697
-32
105
-90
91
47
81
432
50
-269
-310
-278
239
530
-228
-194
275
335
175
-159
-485
-228
125
-393
508
536
363
273
-131
-59
608
-537
72
96
623
44
-116
201
622
-62
-499
-2
-203
-515
81
242
-212
-819
-458
-279
228
56
313
-544
74
-83
394
-442
121
19
467
-429
26
230
429
-88
68
-268
0
1201
-142
242
-315
1125
-46
-114
435
210
875
496
3
-93
-500
85
195
465
325
267
793
-182
84
364
-944
-87
-258
324
97
137
224
1218
711
-842
-318
1059
456
288
-674
-328
-97
-936
105
472
-28
559
-156
176
185
-88
-174
707
-1540
-242
-4
58
-415
-131
-7
-281
606
-628
575
1001
434
426
684
-333
-321
75
731
-309
624
487
417
-47
242
-510
-455
-262
130
892
-201
-485
-96
-305
-16
-44
41
-252
-453
446
-215
44
-774
256
289
-37
-595
570
-119
1311
154
92
-869
192
204
-39
-87
-190
627
812
617
699
-84
-385
113
-63
90
15
-58
-179
-652
214
820
-589
-205
230
436
-573
577
-401
151
-54
-75
236
-38
-446
30
-239
-217
-141
174
364
86
-51
-76
-52
114
-92
551
-78
-58
107
-469
-78
-691
723
-1232
963
-371
270
-598
-562
80
-352
391
223
-914
566
-111
544
77
65
26
734
-656
-194
251
367
325
613
-446
-554
-782
-225
-210
-356
-157
275
157
530
-678
-959
-200
-262
379
-635
426
-169
267
-103
476
-533
435
-277
-836
-796
-57
220
10
-272
253
299
452
-205
344
-91
23
-134
-1021
-138
-212
-906
-310
-467
-711
134
847
43
-137
102
-229
-147
138
-557
196
579
347
-236
-222
-83
736
99
22
659
312
-86
14
121
23
-626
-139
292
-953
96
313
-536
-1046
230
-105
-180
478
152
-854
-342
350
500
254
882
-657
283
-341
-708
86
227
-258
-211
276
-229
-619
-93
434
431
-289
-409
101
-390
654
803
734
-137
-515
-139
-209
332
476
987
543
190
345
-223
124
-940
-123
-468
-28
-19
-61
178
-140
-130
306
-562
253
-481
-300
574
155
703
103
-740
102
59
53
-17
20
-93
16
-103
102
103
368
-134
81
457
-111
-175
674
20
-193
401
228
574
-167
-439
308
-219
367
-533
830
-342
206
-517
345
-390
-74
-486
-594
-699
-424
390
-143
103
-339
100
200
-527
-395
487
-760
413
-655
-662
-48
6
-280
-134
-413
826
743
-534
-143
33
52
-543
15
-136
181
322
-637
-304
939
227
200
-166
289
-411
15
425
-34
270
-254
-155
686
-891
-118
-317
-92
185
-613
224
-133
-118
317
225
311
171
-441
785
-566
-367
-281
-33
-554
426
-661
294
-380
-387
-13
-475
470
-132
-129
51
-115
510
-658
-629
-102
492
-71
-155
-508
-295
263
-16
499
-567
503
274
-34
188
-423
528
112
-186
332
1022
-17
110
187
104
130
-278
-700
176
508
501
-279
420
17
307
-886
-140
-240
-148
1183
283
-984
188
469
75
124
-682
-683
123
308
-790
450
-362
418
-495
-352
-481
-457
-197
-101
70
-80
-242
272
-312
101
-558
141
-347
-506
-623
229
-423
-37
308
218
-400
734
260
-58
-236
1222
-160
195
-169
-430
-86
63
113
-85
-325
-136
-205
13
326
98
-386
287
19
-676
241
-651
541
-348
645
-299
149
-56
18
-554
349
30
675
-618
785
530
390
-98
-161
236
332
19
254
-144
-294
-369
317
288
17
-422
-309
409
-409
455
-528
174
-137
287
505
-301
-6
471
343
-122
-463
168
-332
971
-196
-2
419
434
-450
-191
146
-140
-171
236
-22
302
36
-105
212
101
-721
-606
-293
-160
-473
-274
834
-323
527
-83
-380
403
204
172
-361
-472
-146
21
82
1144
818
-250
-66
225
968
-457
86
-140
63
461
-441
-554
1106
-381
-51
-317
-41
107
-19
80
489
-385
-5
-649
-303
234
-46
-314
874
-242
-130
316
235
-430
-475
-816
-499
409
-98
195
293
53
-86
-232
336
-4
534
1131
-261
-298
391
46
-315
-376
-600
-200
1366
-630
85
-261
-293
257
-19
-154
-394
-327
-315
191
-162
-333
-355
21
-66
263
1025
-533
197
-65
259
-14
58
-111
543
-70
-114
47
-458
308
331
-385
-33
74
403
90
514
-358
-370
239
204
20
-251
230
499
-199
151
973
268
476
100
-126
-280
-81
-35
-27
-512
-265
421
-608
-19
334
-246
-13
60
44
55
-151
-675
-116
328
-163
-480
113
364
-223
747
-84
140
-122
-111
239
-122
73
-187
-301
144
282
408
-191
76
74
26
-488
529
-244
387
-93
190
191
32
60
-40
5
-185
14
-316
-42
-392
336
372
14
-72
181
-301
-395
-511
-39
233
-74
-108
396
-404
181
-55
676
-472
147
309
-288
-271
-204
-135
897
300
-268
218
-17
-163
-268
194
-28
-97
-304
119
-421
-28
-574
115
71
-476
-437
-359
252
261
432
607
-21
363
-106
-179
33
1077
164
51
-90
289
-252
-480
-526
645
221
33
168
-1093
-324
612
303
113
232
81
-29
-148
-403
-22
-520
74
-500
-307
651
505
59
-80
165
-152
-904
-96
373
-484
-56
-117
115
-81
996
-402
-618
-566
273
88
105
-227
-186
78
-192
-55
-39
78
171
58
-489
-49
-432
617
222
276
199
-69
-58
485
119
-480
74
169
-45
13
-67
-246
-235
-729
-180
267
-295
-69
-360
297
92
459
-114
-3
-395
96
-449
238
-169
-256
-5
447
-572
289
-79
283
505
357
-565
-367
172
-502
-791
59
-181
-651
859
-149
-774
312
-644
-471
-37
-399
233
34
-286
151
-258
626
-455
-229
172
-289
-178
610
-294
-29
-486
192
452
-121
-759
62
-449
-575
-154
-123
196
-273
-575
214
1
267
-210
-208
-454
263
192
-287
-274
492
263
222
159
-66
-341
-29
256
13
-295
-3
-137
5
-222
-87
-636
210
-153
-525
208
-483
-449
440
-498
-255
378
434
-72
-60
-272
-57
-153
-16
-217
0
660
961
-685
177
-215
120
-17
90
341
-349
413
267
-275
557
443
408
-259
-280
-32
-611
66
-152
-58
-390
286
-580
87
-315
-631
-467
413
263
37
224
122
-203
636
214
49
646
-81
145
426
297
-285
410
27
385
-17
457
-286
-103
72
-316
21
-146
-387
7
844
-428
0
-140
-585
-842
-456
60
-641
161
-178
-33
-192
-295
239
-361
-519
123
172
40
-351
-49
-707
488
91
429
83
377
-784
57
-322
-300
238
-680
-265
108
-838
-698
83
307
11
-322
361
390
91
412
-529
-380
107
-221
-49
269
-223
-465
-439
-7
31
-69
253
-549
245
174
-735
225
761
-290
404
556
319
465
515
53
451
562
347
142
-241
-63
358
359
-72
-131
-780
-638
-159
-620
91
-390
-280
116
184
-320
225
-367
202
-141
203
102
186
36
-520
319
617
377
135
132
559
296
-1056
386
349
26
195
-107
-470
-590
126
179
139
-72
262
-501
233
-13
69
541
314
391
-501
96
-136
393
-712
-80
-127
794
-591
-413
-1
136
-385
249
-133
-390
-646
1
-892
60
23
273
-546
-150
145
-598
-150
-703
-593
-408
324
-627
-253
-147
-867
-169
379
-1520
1162
-183
775
56
371
-417
343
733
262
-66
497
-206
-697
312
-192
434
-3
-411
51
117
1016
512
-368
6
-188
-663
94
-82
-131
-441
-776
-245
-300
705
855
-240
-46
74
-21
-106
-795
101
441
-290
-384
46
600
-175
274
-593
-221
273
170
717
149
776
68
-55
-56
46
-93
605
629
204
-73
67
115
-30
-72
0
-401
566
-134
629
-91
151
-557
865
475
-46
-259
126
-619
-96
440
153
-132
714
498
282
420
-89
-5
-346
492
110
548
808
976
-587
520
-163
200
-203
101
-117
487
394
-67
-139
545
348
94
311
68
190
-140
1
-496
-359
260
1040
-652
57
16
-17
1039
295
496
291
283
150
59
407
142
-117
-976
-46
-735
122
-239
2
305
-66
-196
148
-131
714
-378
440
-922
511
-557
450
922
658
479
302
199
427
671
144
73
386
48
-160
-38
316
-336
-428
-351
-409
496
265
32
-243
-356
-571
-681
213
416
-323
563
546
-146
-115
641
144
459
-217
-17
24
740
-82
-137
-202
-319
-141
-299
-429
-79
-31
148
-464
225
-142
-53
-162
-278
992
191
526
575
-81
536
527
137
1137
-118
-69
7
108
-134
511
708
-289
259
443
816
603
-344
-67
412
113
-12
-149
552
55
-451
65
-653
-57
-17
-306
420
299
-4
-627
-319
-257
136
403
-123
-225
-469
674
337
-535
-268
-621
268
-138
22
-317
-190
-132
219
-809
-123
-344
16
184
800
25
-319
-56
-52
-506
-505
-26
266
371
586
288
-204
474
-234
-308
-536
317
-354
835
604
95
227
-46
-321
-144
-21
12
-655
-622
-1054
148
-581
-113
-242
-177
147
151
528
482
272
-131
437
75
57
374
-18
252
495
417
-116
250
-48
-853
-661
213
211
473
-322
299
17
-1240
52
-150
-77
-58
12
155
508
-125
202
-131
698
569
-122
349
-319
-165
513
17
-370
229
-1082
-340
268
-433
-135
-117
-272
85
101
-236
-55
-353
-3
-494
-384
-176
431
-104
474
441
-523
444
195
-53
-911
299
489
-372
-365
-364
-37
-72
-353
61
-84
513
16
183
-234
782
-286
-292
-399
-464
-1
375
-133
-132
-281
29
-185
-397
102
-269
208
-263
86
-205
-399
-13
-19
461
-248
-36
-459
-537
97
365
345
23
-491
141
-37
240
319
2
-149
-685
-289
-78
-381
224
312
592
412
-35
-68
72
-54
154
-495
324
717
145
766
776
423
-122
-234
143
26
-455
1007
-19
-219
-364
-12
-4
41
431
-2
188
48
-58
-468
-215
-19
-52
1311
75
-113
145
414
300
-177
-663
-133
47
285
-98
102
703
584
-498
-230
-272
-305
103
-441
-846
-97
-5
-381
221
22
-227
232
-558
-434
120
-252
678
-81
-468
123
-145
812
-37
212
-187
516
-494
33
-310
842
-120
-367
319
-184
93
-345
8
-348
-562
217
-470
-195
812
371
456
10
304
-44
-100
-99
371
213
-115
154
137
272
149
-2
7
-123
382
-279
474
462
-464
-312
231
381
17
-386
188
-332
-362
619
93
540
275
488
81
520
-455
251
-164
-144
-161
-105
292
-93
-101
24
-115
196
49
87
55
-64
414
262
-139
-599
-591
-653
-362
-441
869
-515
3
92
-317
474
-196
-303
520
-121
-291
8
224
-168
746
-174
-25
-135
-164
166
-455
-334
-100
-304
519
-323
40
-333
413
315
209
-168
619
408
-66
109
428
85
-424
232
-71
228
-421
-242
-603
52
-36
268
-1007
107
-1050
736
209
46
-69
-358
-193
-369
-26
-7
-319
-675
206
539
55
-500
-334
-814
-90
-167
-256
-136
-721
-367
26
-1023
569
-447
592
-235
-206
-640
-194
-1348
199
18
-70
130
-335
-285
461
-1
725
445
204
88
-49
-15
318
-229
291
-688
-409
30
-526
-795
-442
-1176
153
-910
-328
423
-70
128
-27
-254
189
-938
458
297
266
-240
-210
465
171
-110
539
526
541
42
-1522
-316
-35
-158
-262
431
-235
-571
187
-308
-156
755
-186
-675
-181
-538
-1152
-525
52
-513
-144
-381
-150
359
-70
-140
-922
198
-21
99
-682
-448
-84
292
-329
-594
71
261
-698
-1305
190
-134
654
201
33
-309
184
71
-392
205
-210
779
608
-543
461
-18
-57
340
438
-269
-395
-14
-402
158
588
-499
431
97
146
-432
-442
-209
-548
437
454
540
-407
-185
-406
-253
60
-414
-1017
-347
485
448
85
59
