277
-45
343
-326
-406
-171
18
221
188
-40
315
272
119
-136
438
427
-232
242
116
-93
16
-231
452
-328
198
-141
470
14
131
-204
-205
243
-245
-180
68
-260
-526
278
-282
28
-75
-346
-409
200
-2
-347
-113
243
278
33
-260
258
-831
-943
48
554
249
394
-295
-4
98
884
-55
-526
332
77
-2
-91
-375
391
-163
147
-207
531
-62
253
310
-215
162
537
-321
-171
-254
266
-245
-399
-169
86
369
-257
-316
-85
-449
-165
-28
98
-5
202
407
40
118
-187
568
-478
293
-415
-368
-249
3
38
-19
-470
29
13
-4
45
-673
430
-608
-232
-62
-170
98
-112
29
9
78
-107
144
54
-137
-62
425
521
127
64
-302
-140
-491
-160
55
-27
-384
339
44
52
-204
293
-109
590
-446
89
534
255
297
131
-1070
45
189
192
-246
429
-272
-214
39
-216
114
400
-167
287
562
-145
260
-363
-330
-227
194
-211
-369
-57
174
-128
-241
-2
-117
123
-408
127
-221
-372
-165
163
-360
197
35
-119
-628
43
-246
86
52
-365
-305
78
0
-88
-4
2
363
616
-105
-141
-588
42
267
152
-20
26
28
115
475
-136
114
-92
255
177
686
-377
-255
-169
197
-183
257
-18
529
-408
157
-823
455
-78
296
135
449
133
-677
527
-122
4
-184
436
188
313
-219
349
-225
654
-395
232
-203
234
-276
92
142
106
-561
388
-371
-564
316
-246
-16
-143
-4
-568
30
539
334
149
-224
185
-470
-211
-181
112
-60
116
-360
-402
-491
11
-196
250
87
-298
170
528
3
-330
418
-523
-422
174
127
216
-450
661
265
56
-140
-67
20
71
212
431
-135
87
33
-142
245
-253
-7
-49
-518
-308
365
-51
-497
-403
-457
701
158
-208
-101
19
95
-255
50
578
-210
-394
-556
-586
-42
-129
291
-246
-512
455
-33
27
-61
-552
382
-146
403
-286
275
-53
-323
78
-630
508
-140
431
-149
-178
460
3
-70
26
532
-507
427
-522
454
521
-41
-251
-87
-159
-42
-435
703
-269
24
-9
229
-738
490
-231
-86
-86
74
22
197
21
265
-111
90
-212
449
158
272
-126
47
-70
379
-407
377
64
-458
-43
-177
82
-7
60
-341
48
-169
35
-140
24
-252
-184
-97
-218
-96
264
170
128
134
-90
-65
-419
93
57
306
118
13
427
576
548
-469
-1
-118
-34
159
325
107
507
205
-413
76
-283
-190
-364
829
-86
38
-30
-355
-525
-536
-128
-479
-512
127
-426
693
186
213
195
-278
290
127
200
-601
166
-183
-48
155
213
585
-337
349
-255
-84
238
431
-156
-127
486
196
-144
184
70
83
452
-139
195
-462
74
-263
-234
-117
-208
-1
-195
451
-251
-9
43
343
-283
667
-767
-113
280
-294
33
70
238
-406
143
-471
-365
-167
99
-515
-408
775
-251
-444
-625
828
-258
1139
332
39
209
102
40
-16
-440
107
-240
510
432
-297
163
-15
-291
-490
821
-195
207
-309
-277
278
-313
-750
-9
245
-84
885
116
431
-24
-6
-484
-285
364
255
689
-266
-183
-635
401
-112
-86
55
157
38
-174
381
-321
-237
35
-236
-228
-81
119
47
-303
119
-107
153
-158
79
133
-141
-60
4
-52
721
-318
135
176
311
95
246
-547
-12
-255
-127
634
-135
295
-10
558
-457
398
182
277
249
119
-220
-52
-139
40
-190
226
-68
99
-102
398
-354
-78
-252
-398
-53
-241
-477
83
334
55
313
328
67
120
-131
266
-67
-325
405
-179
-212
68
399
-296
219
13
246
280
-324
255
369
-194
153
-466
-6
-155
-110
193
55
-200
-100
71
353
239
77
-226
-104
293
3
74
-95
-205
62
25
105
210
-246
-536
-132
206
163
-276
119
926
39
204
-203
-68
-495
623
73
6
76
130
-314
138
15
-90
316
-100
-403
503
-157
306
276
234
-322
7
-470
-415
111
323
-196
139
105
-89
377
-571
129
-90
101
-20
370
-395
111
216
-109
189
409
-441
-175
37
135
-79
4
-356
254
51
-303
265
282
-381
275
-176
96
324
533
-538
-95
-122
469
-309
14
266
212
-256
-285
90
-127
449
147
-478
-168
350
418
-376
57
198
117
71
266
344
183
-59
534
-389
-91
133
260
-723
-494
-131
574
-159
-44
319
274
176
327
-99
17
-94
-26
-632
-185
-83
70
-252
185
-416
-255
309
-498
434
-114
-20
-275
-123
-432
-766
-530
131
294
-309
-52
-108
750
-148
298
18
-79
-470
-154
-282
-33
-320
239
-415
129
146
606
-508
592
567
332
-593
-463
-312
-507
453
129
375
466
-384
368
-261
725
12
-107
-91
-241
-128
136
-120
63
-144
-130
-312
-277
-169
-264
-88
70
-89
93
636
-10
-113
-19
129
-106
387
76
-304
303
584
110
135
-339
-155
-107
141
440
-306
47
20
37
336
211
197
-43
-244
-121
387
34
250
630
-88
144
-650
461
-222
-209
143
-40
68
77
-103
313
325
174
26
171
-408
-212
-133
-240
512
90
-370
319
-435
-373
328
-14
-220
-36
840
-574
-582
-296
-163
195
659
-519
422
-201
-6
252
224
-16
19
-533
-51
309
-350
-194
652
-294
-217
-189
-32
89
166
-276
-460
-93
421
44
395
-498
339
42
167
325
-10
294
-180
-44
-523
-117
-58
-68
-622
42
151
251
-22
-451
-377
142
17
-139
456
245
25
-122
404
-225
-438
503
315
-122
-431
-394
144
-62
-419
157
193
331
-83
-202
217
81
485
62
-280
-192
-289
-75
335
134
278
-417
398
212
219
289
-67
121
408
-1
479
-398
426
-445
61
-152
-32
379
-144
154
-336
-52
209
561
-210
-1097
2
114
-527
-1026
501
-31
-322
-507
79
-144
353
-349
43
-99
-594
64
322
-161
282
-590
40
499
-65
-108
421
1038
360
-154
-804
830
-231
580
763
116
-186
173
-66
47
-50
93
135
229
414
236
60
272
-194
10
-151
177
-889
57
-67
167
113
425
-60
294
215
255
-39
194
47
321
-129
179
223
-372
-450
485
-239
588
-216
-21
-278
280
-1028
-421
-330
-485
189
-126
-472
-85
2
421
841
-236
-166
181
426
302
525
125
-416
-397
51
539
354
-235
284
486
204
-404
13
-761
82
93
-627
-250
271
-440
374
200
-542
136
105
-160
49
-413
-26
141
-54
-232
73
45
257
-372
210
-268
-479
-188
-636
-27
324
-186
243
-85
282
-80
288
115
203
-76
-89
-201
358
125
209
152
-486
-104
-271
-232
223
161
-306
228
-402
115
176
52
-110
-458
-160
64
-112
46
-33
282
312
130
-254
-500
-293
-31
351
68
-852
253
-133
-142
282
57
130
229
241
140
290
629
-84
496
-315
216
-463
125
-790
238
-292
0
61
187
74
-125
-276
227
-92
-460
-143
31
840
530
-322
-238
-301
248
-10
351
548
162
-378
-590
-189
217
-29
-119
16
-50
4
-283
-26
447
-132
283
485
-155
141
-37
161
292
-269
-152
439
-73
-420
52
583
246
158
-118
-221
-125
-103
16
458
-92
-181
44
-106
-528
-482
157
-137
204
-197
-260
24
540
146
143
543
-57
-68
-100
300
-178
-108
189
337
25
75
170
-221
10
-205
-224
-691
-204
-153
58
82
485
222
326
-268
420
408
444
-737
-241
276
182
-3
156
168
-544
-413
125
479
-29
22
-435
639
-398
74
-445
234
89
-228
88
-442
156
-146
250
-139
208
51
-466
332
-638
-441
-6
-270
-432
580
61
458
315
-156
486
-510
253
-77
-144
310
-124
161
25
53
-27
235
104
-516
-252
75
273
78
-327
-8
-468
-235
-444
116
33
657
-18
-89
-15
221
-727
78
295
434
-169
-13
384
-172
-105
-706
400
193
155
69
-446
630
-416
9
396
-409
606
46
223
74
54
-319
500
-594
-908
-51
-166
-322
-476
457
20
206
-283
508
178
-362
222
290
-102
801
-158
-267
43
-466
-310
239
-282
-68
89
-812
12
201
102
460
-174
-268
-40
9
302
250
705
-294
-70
-418
-35
15
61
-275
241
-295
-180
-208
435
350
-49
-634
537
-247
-247
-479
162
508
660
-224
-428
-117
400
131
-1041
580
143
139
750
-291
-159
-18
307
-76
263
-50
804
-209
-247
-7
82
-308
-17
439
202
442
422
249
-262
109
49
173
-67
-469
-104
643
-126
60
-161
480
-136
-139
250
238
468
-34
208
-2
-132
160
-38
81
279
-425
347
-231
-10
-133
-92
-97
70
75
-272
-94
-600
-344
319
212
-352
279
213
-389
443
121
-164
-269
59
45
-51
303
-178
-265
-85
217
63
-184
-98
41
63
240
-140
-613
189
395
-43
218
263
-158
54
-396
-267
-184
-410
474
128
-127
188
-12
-364
95
10
58
278
101
59
-769
-384
-475
-334
145
454
172
225
-18
229
616
517
-138
152
-472
-290
-61
-156
-19
58
628
25
-347
359
-123
-144
-51
-23
-351
-40
-638
-235
297
-138
-473
-450
101
122
-303
-187
-39
-15
135
-135
634
-447
-460
256
356
93
528
16
132
-240
-28
82
178
-191
54
167
-33
-235
703
-341
-40
245
431
29
412
613
-119
-156
-528
367
129
250
175
-389
-97
199
-333
211
74
32
314
-5
-248
17
184
-272
-301
165
-509
164
117
68
46
-402
-370
-122
-107
-366
12
-312
482
15
370
288
160
-58
-212
103
-241
-488
308
213
120
-414
220
284
50
146
248
-230
494
-263
160
-335
-26
124
-239
-6
678
-222
-72
-489
360
308
257
-85
-548
-570
613
209
-291
-67
155
-350
501
-473
290
-191
-181
-4
-362
-261
-952
-105
335
94
215
-307
55
-71
169
-384
208
250
912
51
-197
-27
-364
-117
531
-62
286
3
-433
305
-172
-226
189
21
-166
159
-136
284
302
274
106
1
662
212
-74
340
-471
146
135
-456
19
18
-28
37
766
-181
-296
-122
-259
-552
24
592
-171
-421
162
-11
204
19
316
0
168
543
-303
198
38
328
292
-484
209
-158
220
82
-163
-107
-49
-61
-72
-41
-155
-14
111
-343
197
79
469
-236
-160
-712
467
-143
633
-584
85
111
169
95
-19
255
-368
981
-366
-369
321
243
196
159
-343
-401
290
-223
-484
844
-284
-149
-85
-469
-334
35
271
-482
608
79
63
-467
-789
63
-178
566
-10
687
-101
79
107
-344
-128
-27
249
-287
100
-29
157
-241
195
172
14
-406
252
-78
417
197
73
-102
-176
-46
-182
165
-203
307
-71
350
129
95
226
1081
-368
152
129
-86
-204
73
-390
489
-314
407
19
-285
16
345
-235
32
-88
-412
130
64
634
-136
21
243
-56
286
-238
170
-214
-4
22
-118
68
281
-194
62
-859
115
476
54
485
294
265
-146
-308
57
-72
-59
-56
285
271
-97
245
-334
-769
335
-403
-26
-351
203
274
-368
229
-251
580
-125
21
-4
493
-302
62
-209
215
-194
-338
-243
-366
213
140
-141
-61
-263
-12
62
-270
171
-1
169
-416
-67
-340
261
-44
-709
163
-21
59
99
-2
-149
267
-407
-202
61
479
364
171
315
-178
369
79
283
213
-465
149
-408
-308
-318
292
-99
-350
-183
-23
147
79
-217
-99
148
-267
65
-356
78
135
407
-39
309
8
-292
16
-10
-64
86
-204
-147
697
-415
380
-61
57
117
-236
-45
-165
-74
-43
-210
449
94
132
30
-243
-305
-145
361
96
-119
286
289
156
-354
-169
385
246
215
-528
255
131
214
55
129
-261
269
-117
-158
214
-168
-172
76
354
-107
152
-17
189
-678
136
-117
466
153
-340
-286
-788
296
-384
-144
-55
-114
355
-446
169
542
16
27
-375
-130
-580
196
220
344
542
342
402
-338
-218
145
-62
239
49
-135
83
198
754
195
-101
168
-164
-506
-266
305
-240
-442
424
-490
-490
191
115
324
314
89
-258
-112
104
-618
-205
-806
-3
-1345
481
180
391
-627
-198
-354
241
-102
-61
12
-197
-15
-1
-649
-50
-183
485
-196
-181
-399
-336
-176
-612
581
-11
530
294
194
148
262
-114
588
351
639
246
612
373
-142
-249
1043
35
-51
-319
-533
-282
114
-283
-302
-33
115
50
-218
-87
423
620
-30
-28
-481
-161
231
-66
48
292
10
-107
-216
-412
15
-299
29
348
33
52
175
-186
198
65
-2
315
-248
200
12
20
-55
552
-770
-189
18
-294
-61
-288
148
-459
-233
96
-4
-129
281
303
245
229
71
-176
-9
-99
-145
31
146
197
-224
444
-115
83
-371
-214
62
-24
-323
309
-341
500
229
25
442
568
376
125
-171
33
132
39
564
-153
190
42
-132
188
-61
134
-227
274
-394
-12
-250
226
252
-361
-351
-286
-542
514
-739
35
-112
183
-35
178
-608
-49
276
-236
-61
578
-40
-561
100
442
456
-288
165
113
-251
-360
466
-447
-267
722
-73
-624
66
458
119
11
418
40
-393
250
227
81
-87
-555
-101
-148
5
-17
-69
-386
97
-179
126
-371
-530
-1
87
-370
-385
401
-249
-207
87
-183
-242
87
-264
-44
595
-501
92
207
-149
76
355
-449
-133
-228
1047
-174
-216
-191
-147
-246
46
-36
324
49
-451
-254
284
-462
-364
-196
-3
73
44
-28
91
-108
-537
-83
24
568
257
649
132
7
-345
45
-47
-158
310
-204
-391
645
7
-356
211
94
-243
321
-85
-148
-646
216
-268
-438
171
118
384
-175
-501
375
105
293
561
-18
-593
382
-2
443
-194
329
243
-58
-89
-778
104
54
217
441
360
250
-70
7
275
-11
520
-232
571
379
-441
314
-438
-241
371
406
-799
163
-229
43
71
-389
-94
-39
11
-20
99
167
-56
-112
-101
-301
-236
-457
-122
229
-353
-647
-167
286
148
-33
221
-37
460
-94
-588
-487
218
158
85
230
23
145
620
-117
20
-507
-362
142
-252
-117
-386
-330
266
-355
137
-227
89
37
202
28
-205
-176
549
-239
-243
-547
-155
225
-390
137
-479
148
352
-115
100
33
-34
75
417
106
55
-487
-456
-220
-23
100
37
222
505
112
20
1
13
-176
91
438
-257
-271
33
-60
-140
-366
-35
157
26
424
86
-70
-58
175
-114
-109
374
-299
72
-264
131
-170
-295
160
-431
21
-750
103
-667
-1
-414
391
-9
-130
230
497
77
466
-143
219
614
293
453
778
-582
-513
-228
-293
-243
314
7
-463
69
-47
316
158
-377
-518
29
39
119
117
-95
-630
-291
-245
-351
183
-152
442
-291
466
29
253
-74
-36
-221
-11
-395
-290
-280
-154
353
552
-395
24
136
557
88
-413
-35
-440
-83
383
152
100
-248
-422
338
-79
81
-538
95
126
-178
456
-288
191
227
-112
230
674
144
612
-41
214
-371
133
290
-427
-709
-284
143
160
272
-493
275
-45
436
491
-5
-152
600
76
-87
-674
110
137
61
-49
-92
-1211
-249
284
124
975
-107
-8
-157
-410
125
-7
248
359
-45
-610
-367
-77
147
-414
332
-259
-728
254
408
-109
-398
98
-564
2
19
485
-19
-93
337
-113
-320
-179
-203
-428
-64
283
-259
-255
613
-453
-13
-187
-90
130
33
-253
259
122
186
175
-236
509
877
-147
-107
146
403
343
193
164
-328
-64
-175
261
-429
23
116
-178
-47
-108
-266
271
189
-358
-334
-309
435
-434
-209
216
141
113
162
276
-219
101
498
-72
86
-112
-300
55
8
224
-390
-42
154
123
67
-24
-9
47
321
311
278
-25
-94
193
-108
247
407
-24
-593
-359
525
-555
-316
-57
-306
257
-411
31
-78
675
-107
-26
477
-102
-25
-219
105
-99
-447
-165
191
351
207
356
-493
60
248
83
59
-15
212
-341
-208
-773
-41
-223
565
-107
151
201
26
-139
-129
21
463
-324
417
98
-513
-28
-227
-366
-86
-244
-374
-320
128
346
330
487
-353
234
753
-438
627
-358
-106
81
90
-176
-352
-166
-37
-81
131
-354
62
-97
-388
-302
177
343
-252
-367
261
142
-245
455
-129
14
-256
-435
186
393
67
-642
-432
-56
-33
276
684
346
400
-479
93
-465
450
-78
161
-440
565
294
0
-424
-330
23
209
-137
27
111
130
-94
-278
242
-580
-337
295
20
-318
791
263
137
2
531
402
364
15
-17
-26
10
7
-242
-476
112
-320
75
-267
228
-351
236
164
456
213
-280
181
432
503
583
-37
-496
369
301
-189
-30
67
-345
64
75
-170
-868
143
-78
262
108
-19
-1239
362
596
511
-259
-496
-613
112
-215
334
-163
16
398
-332
560
-107
272
-251
206
-806
394
33
143
-322
-169
-266
389
59
321
-131
-102
353
-274
170
-185
237
-67
32
-303
-75
-67
-92
398
41
-191
130
139
-193
-84
-205
-256
214
253
-161
-140
34
295
-218
-198
290
-172
31
-110
204
156
-510
149
212
-208
161
-496
13
271
-183
199
105
573
-109
-794
269
44
513
-156
1
174
1002
-14
191
154
-36
90
-1061
540
-310
238
318
-322
-262
620
-225
234
111
312
186
88
10
-331
-90
40
-387
-427
-279
147
-73
6
147
707
267
-274
-430
193
-692
147
-231
448
-462
281
84
-18
505
-350
-554
-37
204
603
-119
158
30
-102
-83
14
105
35
260
-176
312
-398
-76
140
467
-171
-322
616
-269
-231
267
-114
-395
-302
-115
255
-154
-370
45
-115
746
319
524
924
599
-197
-157
163
143
390
239
33
-27
105
-47
-99
322
16
-180
5
317
215
-283
-321
-251
29
-418
-106
-253
68
-387
-312
123
-294
-230
-246
480
-119
-29
-2
-409
-16
-589
291
-139
235
-357
708
-144
-49
311
-197
31
-253
374
65
-113
-112
-620
595
-36
147
-658
119
-94
-509
119
-53
-229
81
275
540
284
-3
-43
188
-136
222
103
-136
-305
-32
-85
-635
-55
388
-4
304
98
243
-153
210
89
-29
-43
-251
-125
-614
233
-467
-263
102
-49
-267
-310
-129
-432
640
177
203
348
-312
-364
549
531
-15
-481
20
660
274
530
188
983
658
26
-845
-706
82
76
179
-313
-341
-302
-50
403
-88
-457
164
-209
571
45
185
-244
-55
-35
-187
173
7
142
-87
130
92
332
-257
-71
-73
194
132
-45
-325
128
46
147
-460
21
-109
-76
481
-140
30
-21
73
91
303
-61
-213
-184
571
-354
-479
126
104
-161
384
-20
-404
-40
-38
313
522
128
106
275
-174
-561
-239
-284
295
-161
29
-322
131
-548
515
-388
150
86
-228
342
190
17
-46
545
-228
17
-93
489
169
32
241
-386
72
-305
94
-48
21
189
-286
-166
221
-167
106
94
-160
211
-176
675
308
310
-184
-92
-238
410
-584
-513
193
-297
-174
44
-51
45
287
38
303
165
-526
356
-323
-382
268
344
77
191
100
-7
-12
239
-220
554
-467
-634
-168
6
191
6
367
-100
-134
261
151
93
447
-79
18
-28
224
-59
-242
175
-437
-125
-40
1024
-4
-69
-212
566
216
817
-69
-84
-96
-317
58
-467
31
-308
-588
313
-221
-388
-16
-203
30
-543
8
-555
-171
256
-275
364
413
-474
-245
-554
454
-541
-67
197
66
482
-324
-333
382
-336
277
-596
-194
39
-268
13
10
166
-248
-423
-180
-236
-220
181
304
-75
39
8
258
-150
240
-84
234
283
148
29
-104
-343
-135
181
-371
68
136
597
12
-78
95
313
376
247
-493
126
78
111
158
-457
-90
-4
-5
280
-358
166
417
301
147
-528
357
27
86
378
-92
101
77
-12
41
24
202
-684
157
358
287
-632
-317
-190
-35
-962
-332
-535
-68
520
188
-138
300
7
-96
144
85
-66
631
252
103
-212
8
-216
350
-149
264
66
-322
51
470
30
-32
354
-347
294
-33
-4
-282
-585
-171
-709
220
-806
648
-56
-90
69
-377
129
139
505
-155
344
-235
-129
242
14
-388
30
234
35
397
686
-479
-392
-350
286
7
282
74
-494
448
253
-600
-696
209
-277
335
-395
185
-310
-209
-138
291
-78
27
283
-187
-263
512
23
25
171
-199
-503
-412
-251
247
220
256
-75
263
-278
27
257
-70
30
243
-78
11
-154
48
-174
-547
448
20
402
144
73
-282
-96
-149
91
-380
-99
266
188
274
90
18
42
506
-424
-840
243
141
-353
268
-565
376
318
-23
-23
-533
-49
134
913
309
-4
-469
-619
223
421
5
-208
-186
-303
235
237
74
86
-234
681
-110
-387
-31
20
489
-406
266
-75
-130
-643
-599
361
-330
-56
-212
461
-103
508
72
-174
-447
-276
-388
-122
-281
196
-381
-199
156
40
-412
415
-94
-143
-227
-107
-273
182
166
213
-166
32
345
115
381
-421
21
308
-400
693
-352
-143
159
-26
-132
40
-97
-98
14
-21
382
133
24
1116
-46
163
-542
221
-438
-617
222
-327
-35
447
163
-595
-75
-301
369
128
468
-45
-214
-170
530
327
-141
96
-186
119
370
-579
24
631
-280
-103
-210
-84
156
-403
424
-240
476
-179
550
319
-214
-618
-11
476
336
-359
-148
357
-735
833
-426
507
26
192
294
-912
348
156
300
-164
183
-198
296
834
-124
125
-120
262
-72
313
36
87
610
332
-463
-195
-205
345
30
-726
90
85
-793
301
-60
-38
275
-197
137
-221
-300
-21
418
-54
-329
302
-443
185
65
-417
-168
32
-212
166
-194
174
-266
374
-494
-558
617
373
449
230
214
-263
-4
-336
756
-437
299
229
-317
20
232
281
-503
4
-25
-330
183
-337
-300
-306
713
34
-167
-139
159
399
-36
218
392
-548
-655
-397
-839
78
157
-310
80
154
111
47
-15
388
310
34
65
-264
-412
136
416
-31
-118
-64
357
-842
81
192
-268
-435
-653
157
530
396
476
229
6
-255
6
546
156
118
180
-62
67
-100
-93
-223
-135
238
-30
-1
198
84
-575
-272
-500
519
20
35
30
-77
219
-463
-50
-142
247
-497
384
-86
208
-48
571
-429
-234
7
495
-81
275
250
-110
421
76
-110
459
-330
291
401
240
119
225
33
-159
533
-496
-235
-215
-127
155
266
-120
-257
-286
-46
-341
293
-42
3
-2
424
-203
240
150
396
-186
-384
-106
164
-268
3
-139
279
-669
590
-211
-234
25
-39
71
-142
138
-1
203
-195
236
55
-871
51
18
-406
948
-460
201
198
132
-169
207
-252
708
375
203
430
-83
413
96
-115
-145
817
198
-81
176
-1054
-121
459
134
-264
92
-597
-532
-301
4
-636
-97
40
-3
-695
-182
249
-320
79
-247
-347
235
47
708
648
-402
77
-597
170
261
-157
327
-240
-26
-154
56
330
114
186
-195
-591
67
-346
-233
-67
354
450
-218
603
-372
177
132
-53
-74
59
21
-639
-514
284
-324
144
-26
-301
610
-365
533
436
-163
-48
-90
-435
374
-312
143
77
-1
-408
256
277
-131
-107
-344
223
-161
-155
421
-113
-209
163
225
-515
274
300
92
193
418
-65
539
-90
-151
-54
124
495
-509
-5
243
-46
117
-343
-631
813
313
288
267
-193
-533
198
-349
108
-179
-291
-75
281
51
438
-71
75
404
155
79
-43
11
-73
316
-19
251
-353
265
226
350
-244
337
-488
105
175
143
28
-14
348
46
-258
-84
-534
550
-272
-401
196
76
-423
-183
-269
195
120
-8
-489
259
50
123
135
787
90
-175
93
-403
143
254
221
-651
-149
90
-143
-108
-585
299
-149
85
293
272
-82
-234
85
8
-178
39
-242
-102
269
-324
-216
-224
-699
46
181
207
416
-63
-597
371
-227
-73
-111
317
-502
519
139
96
65
-775
-556
58
-799
-396
-328
498
-666
-549
-82
506
368
-303
258
11
98
-13
749
588
289
78
-474
186
507
176
295
-208
-92
-544
976
-29
115
612
15
-649
29
373
283
284
-424
-883
-83
-780
309
371
91
525
381
-78
-248
-66
-225
-373
-280
-14
88
-16
192
-534
323
-209
-398
261
329
386
163
-145
68
135
435
-323
103
-545
142
144
296
-231
290
21
465
-201
59
-292
236
4
201
-63
-183
204
299
-407
217
-575
273
-124
2
-189
83
-415
908
-361
-311
398
-151
-574
91
-382
302
-547
-50
403
379
6
-343
24
-346
413
251
-159
47
-502
93
-411
343
296
466
-5
133
-99
809
275
385
-729
404
-475
-335
43
244
-353
132
5
317
218
356
-203
-274
191
340
-406
198
157
-112
193
-415
5
-123
58
346
-517
-126
154
86
288
-274
-14
-109
-321
173
-15
-24
87
52
-134
-184
-148
-311
-254
136
-281
-339
93
-123
67
-45
67
-218
-114
206
225
181
-156
197
-551
109
471
-361
455
-58
159
-427
-510
-163
-454
-120
135
-331
225
-309
385
4
127
-186
-578
155
-66
38
-298
509
27
34
-319
6
219
215
407
77
-453
-745
-158
478
-186
-198
-322
34
-1
-121
-139
340
359
525
-4
114
-75
178
-270
537
603
406
-340
153
-178
73
-582
13
727
233
236
-21
-631
154
-585
-213
-83
231
-236
-460
-295
272
-168
-49
72
309
-503
-165
-59
724
84
-61
-459
-504
-255
-243
335
-714
84
-248
87
-475
804
-823
-229
-445
-24
-249
3
55
-209
-221
621
627
167
340
29
931
313
-511
-36
-67
-98
-246
-40
-158
-65
1030
-397
-358
697
-40
-699
716
228
198
-237
-236
94
-707
92
306
-81
348
-138
-450
-27
-13
45
359
-121
-624
-344
-324
723
-165
-319
-488
-49
409
-132
-116
-198
-431
-136
425
-163
-810
-285
668
190
226
-13
106
241
-196
-396
-258
700
-436
465
134
-359
206
544
120
-234
493
-151
419
79
218
94
92
-140
-344
-47
-75
-9
-206
-143
272
-259
-276
-617
-111
258
512
-354
147
-118
-100
-20
215
-199
-122
-381
-287
-22
164
-61
186
-49
5
287
-190
-68
-91
158
-263
473
-241
-98
189
-165
57
226
40
58
306
-312
-451
255
124
-30
26
288
-258
345
-323
-300
206
-432
-102
-725
454
218
-181
-34
235
144
128
-78
72
114
-338
425
-124
128
37
591
-324
-52
-505
121
223
-153
247
143
-544
-360
146
149
-243
280
-368
-238
-20
-56
605
-24
352
218
-231
138
495
49
513
-275
-222
-124
235
184
134
332
604
207
-651
-59
153
52
18
-342
-95
-403
52
-35
447
322
-101
-172
-300
-276
435
546
-124
-200
268
529
-10
354
377
194
-301
355
-362
-417
150
-279
-86
-433
262
-505
-531
324
-145
-260
-112
-233
128
-138
-89
-368
914
41
445
-443
172
44
128
137
239
299
85
-156
-266
-214
214
-230
-156
151
-43
-419
-2
-219
548
-206
-107
207
468
-335
46
133
183
-323
-133
256
501
157
-141
165
-470
51
-118
-163
218
-35
236
-114
-120
197
470
147
-82
-29
492
98
169
-436
-426
415
-71
-108
206
191
14
197
-195
152
185
-58
176
-207
104
181
372
-46
-158
-334
141
-226
175
-173
-339
148
-49
162
414
427
230
-112
-835
202
628
470
68
-503
-18
-384
716
-456
-303
892
-734
-129
101
-292
-116
-167
337
656
64
7
-475
187
-119
62
928
-339
-107
-777
643
-456
462
-447
718
67
-486
-531
-408
184
-256
237
25
-152
746
250
-591
111
354
117
277
212
-631
6
212
-16
598
179
20
-229
-195
-345
-137
-185
677
480
-17
16
-46
-185
216
-105
-127
399
-65
65
124
299
485
584
-657
0
270
-902
3
-221
272
-29
-303
-297
-414
448
168
-402
57
-248
283
-112
-63
245
-628
105
227
13
85
232
14
144
129
370
223
-262
-493
787
179
-113
-135
451
-369
283
-258
-96
-473
510
-637
-37
-265
35
-146
308
-324
223
-30
279
-323
115
45
-305
-444
-269
218
295
53
156
-190
-97
175
256
-354
-261
309
36
410
-362
440
199
-73
-772
8
363
371
-3
0
-325
11
84
-21
-486
-97
-413
395
-279
-93
401
-306
12
-280
-247
670
-114
199
-817
109
136
884
-482
382
48
23
861
-282
-585
2
-6
10
-63
392
-450
277
-313
195
388
179
-224
283
135
-413
10
152
149
-498
-475
-303
60
519
17
-267
353
-150
-381
556
297
109
-189
-224
-49
-431
-657
174
118
282
107
-574
-82
-50
390
107
354
-444
-466
446
261
-90
141
69
52
508
-57
-261
190
372
-214
183
502
426
108
-1003
578
-606
-160
-36
409
-154
561
-262
-333
-112
221
-238
30
7
-339
372
-81
229
-149
-153
157
236
-187
-722
544
-177
917
723
-137
-269
-266
-21
-126
-16
65
-555
643
-241
-272
-269
-18
-341
605
-253
393
-23
-654
776
89
268
205
526
-206
69
-393
386
100
-124
119
90
-636
-254
303
-19
-470
-37
-32
-240
-137
150
-340
159
-42
-161
-78
-201
-440
382
-114
-48
-348
293
-759
775
454
-222
-45
-258
294
571
-82
119
21
150
79
-12
-376
-111
380
281
149
-600
-302
254
-61
299
-339
-11
109
30
-187
18
260
659
484
-141
-50
-780
656
83
305
-669
-468
284
-293
-109
372
-332
63
-342
-44
-269
-307
79
-4
-338
147
-89
-196
462
144
-725
-188
145
329
305
47
-337
-174
-228
329
179
-190
61
252
-43
-40
-383
286
123
288
-316
-337
-33
279
287
-307
-172
26
-115
232
230
28
-93
-236
440
305
271
-320
504
-117
92
250
-130
138
334
371
-196
114
-140
188
154
204
192
-245
-47
221
-154
-245
58
-159
41
189
-482
-235
481
107
101
-80
-706
-60
-139
-23
-335
154
37
-220
-587
88
-289
67
-291
-346
-428
13
-16
52
300
-40
-157
5
-73
-260
-9
127
90
-328
4
56
378
-17
25
-28
20
18
137
-406
0
-339
-56
309
22
664
-245
242
-100
169
202
167
351
-223
-160
-549
-285
99
-175
372
-20
167
276
-181
124
-622
96
-120
-506
42
89
-268
-497
-88
-572
28
327
250
-255
-458
260
-289
595
-583
207
-107
-256
-391
-44
116
-196
-49
104
-205
247
-475
55
-62
-36
235
882
358
-342
132
80
-529
-45
-49
-79
489
-54
-27
-943
601
-242
-406
85
472
-57
136
238
-509
-116
-263
698
86
-92
-589
-327
189
-69
97
-602
-196
53
101
-761
277
-546
298
-345
58
-294
-308
-13
-317
371
306
114
173
372
235
-8
435
-164
329
278
194
-231
408
-231
500
-31
-235
68
73
-425
-40
396
461
146
15
165
-183
-190
-394
-361
-639
-250
392
-96
-9
216
33
329
-84
-288
-217
-40
365
-352
-179
-21
514
176
179
377
71
-458
602
-126
446
-526
25
25
-430
-529
362
-746
-33
-177
-338
93
-75
-381
436
656
361
388
-84
41
122
-106
268
792
-530
-478
95
685
589
590
-230
-620
-41
-4
39
-147
583
-516
-303
450
511
26
278
-180
-409
-412
-89
653
393
-143
38
-274
-127
-401
-157
286
51
7
-14
517
702
195
-36
-44
-474
-51
83
319
-154
-415
-759
416
-275
89
9
-281
450
73
-426
-154
672
-714
65
3
-115
229
780
-264
-426
726
-604
554
84
6
42
363
-152
-122
440
-50
-313
-107
938
86
165
-335
370
-641
-207
375
22
-96
-319
-106
-99
310
233
100
-168
150
153
-380
166
-372
160
-47
170
-173
296
77
65
245
418
-946
537
252
-422
279
-730
141
-350
455
188
144
309
300
89
-489
30
-114
345
198
581
217
283
-128
-266
42
410
-261
60
3
-112
68
3
-311
-281
282
28
142
-175
-165
-275
-133
-68
192
186
-80
-95
-282
-100
-581
-67
201
46
-416
-152
29
88
-153
618
17
22
-269
125
-8
86
588
-149
14
-95
52
-27
-59
-204
-96
-50
-305
-589
-571
380
-462
51
-245
163
97
47
211
368
300
78
-170
142
-314
103
-31
19
392
606
267
-601
91
256
-760
-290
29
-62
-13
297
-135
-259
-362
155
-177
972
-3
-356
297
530
549
-563
419
214
-156
-218
662
183
665
-838
937
-446
318
164
-45
-221
-389
-296
-408
-188
140
38
117
317
-621
-56
547
-104
337
-327
324
317
-340
-720
248
137
-97
-108
-181
228
288
337
300
72
-99
235
7
266
13
438
171
-301
186
81
-3
79
134
-154
-32
-103
104
21
13
281
-4
-115
48
108
-145
-184
231
-43
-23
321
62
-482
44
36
-143
-180
-13
77
-434
140
-80
386
-239
200
-470
160
-108
205
690
-93
367
-128
-383
111
176
323
-258
656
-189
-228
305
-199
-831
-21
-184
37
271
35
245
-96
-183
-151
72
296
-36
-136
-209
280
-35
46
-305
15
-16
-244
61
76
-64
-519
414
-4
279
1
-302
132
9
-320
-168
-13
462
193
-73
106
-407
-602
355
-26
115
-341
-207
42
-495
437
60
406
317
-142
763
227
359
-218
184
-438
18
-477
431
-346
322
15
415
-144
-134
-846
64
-69
-465
-25
-241
446
405
149
451
-155
294
-34
-7
354
-277
-218
-69
419
-938
-329
-246
89
-327
-29
-204
43
343
-158
-440
574
612
-214
-84
122
348
-198
94
189
28
-206
245
365
-483
-86
206
20
-518
-82
116
273
-463
-74
-534
17
-244
-89
-177
-105
-178
204
-74
316
159
-42
-357
-51
-413
-131
31
-79
-151
75
-37
-42
334
448
15
34
336
16
349
-43
181
-135
79
93
404
78
-27
42
-62
-133
-253
-23
230
355
-57
21
372
-123
-209
-23
430
-97
-215
-806
781
-332
-18
24
170
-296
25
-360
-192
341
-180
112
240
181
79
185
-774
-60
525
139
339
-346
-309
-245
521
111
253
-312
-332
0
-49
38
-364
590
-566
159
-939
22
41
298
-182
-452
324
-189
449
-143
-276
-32
-83
-359
542
244
244
167
-258
-913
485
194
8
69
646
-299
321
-651
42
-571
368
175
-53
-128
-66
-555
366
666
-554
-697
-376
331
116
-203
-346
-325
42
271
49
538
541
-172
-273
-371
-53
220
805
455
-258
-325
-85
26
-23
473
-871
-372
234
-75
376
-101
99
65
-726
240
438
60
-223
367
-147
248
79
-147
-92
-111
-33
87
541
158
-522
-135
469
-645
-120
379
-262
-384
464
-179
-83
449
-407
-621
-672
188
162
-116
-306
191
-41
309
102
-3
700
53
220
-692
-263
-408
25
-541
-430
537
-382
238
-107
-850
-114
231
56
-412
-368
-357
820
-789
163
654
-111
-297
-132
67
-174
225
-253
-368
-574
-152
-557
489
249
329
-102
322
60
330
575
56
100
186
510
-69
-204
-1
-142
232
-232
-536
441
-347
426
-454
-226
-253
-769
-465
47
-172
399
-239
103
478
143
-432
45
266
-205
-122
-40
343
97
-73
231
-84
-420
-566
223
447
-614
-469
327
-305
-609
63
579
359
-355
-39
307
-275
-170
712
-461
-137
574
42
427
-408
524
-640
-84
480
-697
-209
-65
704
-59
-291
-223
-81
-370
155
124
-134
635
-171
-20
-480
343
-63
247
432
-577
683
229
-375
-407
-37
132
120
272
299
269
72
-756
-363
31
93
385
-338
98
-303
-201
116
-199
-530
-856
514
101
56
426
410
18
-3
-856
-104
47
205
-75
410
8
283
117
285
46
-82
-506
728
-159
-184
-46
-33
-598
-155
906
221
108
122
475
-210
-131
-1
626
-210
-25
333
177
382
-289
356
-424
-195
209
-48
275
394
-267
60
185
-68
56
-587
133
2
179
-150
74
-539
-142
-81
-528
-287
180
-173
-3
-28
342
124
-107
-116
-50
-77
4
-80
334
-144
-107
-314
-38
393
-189
232
-230
27
626
-527
-376
57
-125
-50
-367
-476
112
61
203
-221
-62
377
110
249
-721
-2
227
0
332
38
124
-230
-151
-261
430
-94
-210
110
-372
-198
283
-50
-90
123
-299
302
173
25
-39
69
136
-327
-318
349
130
22
-40
45
-257
460
304
9
-84
333
-138
-478
277
41
415
248
582
514
-229
451
-224
-88
-608
156
292
115
-478
-643
-11
311
87
354
152
-14
-96
-194
-220
-309
126
-65
5
-425
-257
152
329
569
629
-1203
-677
364
-95
488
320
-41
-526
652
336
13
20
-313
369
51
-736
-132
-555
-402
1416
-152
181
75
250
-303
172
-885
9
459
-413
523
-416
-544
-509
438
-271
-611
782
181
98
366
12
646
359
-296
-391
-361
-775
-42
-191
274
65
403
272
-102
83
-21
-157
-234
-170
304
-346
-118
223
-83
-220
8
70
3
88
30
-394
739
118
-100
348
133
116
-465
-458
-242
-396
37
-122
-413
-60
-559
527
-90
-69
-273
-132
-343
-333
13
-273
-97
-36
-356
-15
-237
106
-308
314
21
-258
-36
885
195
-302
113
208
322
32
65
106
-70
-39
-882
895
479
-131
-133
-43
151
391
365
195
12
429
162
-51
-321
-45
48
343
370
-705
-131
-46
-367
-172
-396
203
-737
-364
125
-144
-179
-376
-279
329
124
-173
-52
-145
-272
540
349
-642
319
503
610
339
30
-273
-275
265
239
-7
-400
-442
-238
309
287
-227
422
-816
34
480
286
-119
-494
-134
-140
295
412
8
439
-16
75
92
109
676
-322
90
100
-198
149
12
421
-331
-472
-780
-288
-826
510
-276
-249
195
232
-551
-9
-267
132
-5
610
-559
-107
310
-585
135
-268
-279
-55
-313
87
-85
-11
178
125
881
311
302
436
321
91
16
-40
-413
-317
157
303
182
-421
264
-301
21
20
368
41
-276
6
-94
-257
-111
189
-690
-571
454
-72
257
67
-52
531
-45
-197
279
58
239
-207
-48
-76
187
252
336
-242
267
-104
114
-67
-216
85
557
-321
-263
-295
-315
74
-234
172
-108
196
91
-80
198
339
419
-251
-165
110
333
270
-295
377
-146
-179
-351
-268
108
76
-427
-443
61
-278
-583
-482
-405
-362
91
-255
-453
-494
-36
-134
-563
97
179
463
250
382
-361
-278
689
-91
-17
335
-381
502
-255
-504
-254
558
-448
-591
-512
-40
278
123
-270
-100
25
38
-24
214
-9
-302
231
16
-615
-13
-380
105
14
32
53
-315
-78
373
64
348
-37
-119
179
272
-296
-232
180
197
1
173
560
-275
-454
-257
89
154
-81
-390
191
-132
96
595
-28
-68
-342
213
157
21
-276
543
218
101
-53
139
167
17
154
514
-324
-210
32
-400
15
67
-734
-53
-804
279
309
162
-171
-502
-368
54
-185
36
-317
283
-46
-355
-121
-592
183
-20
-537
-496
7
347
-270
299
38
-216
21
140
-526
-161
47
-213
-415
-195
240
-69
-125
-237
-609
363
14
92
127
538
282
211
65
-235
-155
610
-45
-273
308
-870
31
-631
141
213
-99
-16
-59
279
-119
-157
-74
669
-124
712
-185
251
-506
456
209
282
783
-268
-240
414
-231
718
-58
-552
-122
-259
533
-137
-195
-140
-346
307
-985
-347
-542
-118
-958
-248
73
584
183
-221
-508
-102
23
35
155
117
-253
337
570
693
-327
-184
-466
183
-51
280
-30
-590
264
150
-26
120
-140
-224
779
512
-382
-395
525
586
11
-302
-479
169
-76
-330
771
-41
-169
-40
258
48
16
90
-416
-1011
-108
806
-269
511
-53
-430
-182
-17
123
128
-497
33
-476
-335
-51
99
-770
435
-187
-256
539
-124
495
-273
97
51
745
116
-315
291
192
190
-336
155
-308
-915
-125
-131
492
-210
-73
-589
-134
4
-50
503
-28
401
-118
-78
-221
-70
-490
-332
423
-227
-153
277
251
-28
93
103
153
205
-70
246
125
187
-361
379
-9
-278
664
-122
74
-353
435
-132
15
-425
-228
-415
-364
179
-66
-187
39
-214
141
362
-233
254
373
-15
-3
256
19
-260
-93
-182
107
350
195
-279
61
-294
415
482
389
-143
-19
170
680
-382
254
897
-278
13
-908
-168
186
347
-74
19
582
171
-16
19
-510
577
66
-382
191
-14
-253
-174
-356
316
-76
127
-287
123
-24
88
30
118
-692
-574
242
141
234
-53
-74
-471
72
392
-345
-462
58
125
211
-673
50
224
-69
-35
-520
-183
163
440
-691
-776
59
374
-228
-283
394
-302
274
-8
337
365
545
-647
-257
-161
-118
-732
590
332
103
44
-70
-16
-84
272
120
297
1
-221
39
-431
510
-353
-5
-134
62
345
-568
-417
-160
113
-169
-18
-543
-194
-101
-273
-422
68
293
126
413
145
692
-12
223
-605
18
647
-203
-471
-312
-92
149
-430
-258
229
72
139
294
29
335
68
406
-175
-149
47
507
-263
-15
-423
220
-539
-211
-377
-34
-333
288
186
-195
-322
-49
-366
-99
-907
535
-37
-284
-40
505
522
-46
312
-241
219
774
566
-216
-873
255
-69
726
-461
543
-170
206
-374
-23
-201
-99
-258
67
102
161
-382
738
35
47
-272
-522
-71
-101
966
-567
52
-289
-698
-216
-6
-80
357
139
6
202
718
-285
479
-20
-164
-167
-158
-89
89
61
213
118
-539
-79
101
-257
-134
178
640
-78
-118
-146
-95
72
-168
202
76
-134
147
-148
-242
253
-650
-581
-7
-182
-152
-123
-59
153
-207
-245
247
330
-100
-456
-19
8
81
263
237
120
221
-518
134
415
-230
180
469
-395
13
-248
-401
358
76
256
590
42
-254
83
-291
-171
567
436
469
-714
-90
140
-175
-59
-12
190
817
441
-9
178
0
400
60
136
-108
-162
-394
-108
-366
-247
508
240
180
379
-32
-94
-22
258
329
-180
-735
10
473
342
-451
-198
-470
260
83
123
-71
400
-262
-382
-363
-65
545
-101
40
-132
274
187
-64
-70
-70
-50
325
294
686
296
253
79
-17
-415
-125
85
-349
156
8
39
-552
-104
-117
532
-445
45
-230
-11
-372
522
142
-236
-94
-5
-349
188
-179
-17
-134
267
-311
110
-98
230
-377
152
270
208
32
-63
-311
-39
-206
380
-10
-676
158
-40
4
848
145
23
198
-40
-180
183
68
-258
-269
399
140
-229
-153
-208
512
-196
-147
-404
43
-67
52
-85
-105
-275
-671
-291
-112
76
260
354
-363
-672
-473
-5
-5
-356
186
-66
560
248
105
59
-303
429
-426
587
192
344
-416
141
-217
166
-50
-123
768
-71
-53
125
67
193
160
146
109
807
-154
332
-25
7
-822
404
-119
-396
-727
239
-435
173
-412
-557
-343
-237
134
-190
60
-671
-232
73
-94
-194
-241
-490
339
30
441
410
-70
-658
-117
-13
-9
-387
201
-387
53
231
35
-542
696
-45
-66
420
315
-248
182
-172
-213
186
24
213
176
233
89
419
66
-69
-388
273
-11
102
9
-286
-90
-119
-415
135
-224
-276
-585
228
-534
250
39
-170
-367
-551
414
134
-465
84
327
-109
74
-227
86
-224
192
402
-214
-8
483
173
-118
186
32
128
10
-455
269
42
207
-140
164
-189
-291
245
85
-547
1022
-75
-601
-38
-378
-70
4
-38
-110
-11
280
-9
111
-111
223
-197
198
-149
706
-387
233
-63
191
-478
-57
189
-46
-81
-375
57
-259
-137
120
298
-144
144
-601
160
149
77
35
-55
-297
5
257
-517
267
-295
-11
173
-261
240
-273
-151
8
-33
591
549
-128
419
-49
159
56
135
-573
248
413
208
-337
-388
108
242
-79
401
74
-451
-353
-160
-630
-339
-210
186
474
450
-512
505
-268
-178
169
397
-412
-112
-167
549
346
-869
-765
127
10
-494
340
-51
178
-479
19
-284
-70
-366
333
-719
-570
200
204
117
218
395
-423
553
-274
302
-57
451
131
17
-87
-222
-532
-360
-551
550
-352
-241
-173
157
66
-54
194
155
-564
-153
221
-257
569
-133
-191
825
-134
304
355
184
-411
339
610
648
207
538
-657
282
641
203
-267
378
-11
132
-219
160
289
-195
20
576
392
-264
668
544
-10
-380
175
-443
-146
-258
-670
153
-147
-237
-162
-416
-170
374
274
-252
-260
-301
373
312
195
-404
272
1
-76
297
138
-134
-67
212
-423
-217
-641
86
9
-497
-131
367
-760
-497
-111
900
-230
403
275
-36
171
194
-115
658
195
-303
-620
-129
-393
227
-258
669
236
411
-382
-81
-298
598
113
246
190
-463
-141
-103
50
435
157
-254
199
-461
220
-414
513
47
7
-144
-48
-83
704
33
-178
689
344
4
-353
87
346
81
-362
104
-204
-1069
-45
187
-96
-304
-62
249
-261
-57
357
-98
-72
176
359
-515
-179
-61
-519
-297
-119
85
149
453
96
334
-44
-127
-423
83
-71
-118
-74
4
164
185
74
315
403
367
-275
-176
-256
-96
-374
-149
43
154
-124
92
-375
-185
-80
181
-259
-380
230
-652
-401
-234
-87
199
-107
-256
-7
-390
347
-338
432
398
-126
79
175
-87
-313
-132
-151
640
35
471
-411
240
-143
-18
-719
106
435
-236
-202
386
21
-610
-504
570
-401
311
-484
-28
-162
276
-246
-195
611
-399
-273
69
-128
-3
-217
85
20
-337
348
587
-177
70
-55
72
-460
-265
-163
-48
14
-474
-388
-83
775
-289
126
-263
200
-72
50
-35
4
-120
-93
656
-494
7
-753
551
264
179
-409
-701
383
-127
-227
-13
-12
-28
193
-173
-133
79
412
-185
-779
309
339
34
113
-336
-68
449
-574
57
-342
-27
246
2
-217
176
-332
379
-213
-213
-419
136
98
389
-161
-261
-146
190
69
232
-102
301
501
185
-228
86
149
-413
-100
250
-433
-42
-377
-203
-393
27
258
555
-95
315
6
-125
321
-68
-122
-237
873
505
-856
-218
174
-434
-612
779
3
182
-574
1
60
-77
-161
374
99
316
-483
-49
-630
228
320
-73
-88
-518
6
-159
-18
323
499
631
548
-8
319
-34
465
464
-179
123
-244
293
82
200
1
-42
93
-54
-397
524
404
10
-317
-380
158
-544
100
-1144
-380
-8
210
-308
204
-112
448
276
-453
178
189
-68
-91
-126
238
119
-501
-448
112
170
256
-369
-536
280
-72
456
286
130
-410
315
-63
26
234
432
-356
-102
-222
381
-337
319
279
-203
-160
-253
-12
-910
552
284
-406
-205
-260
148
236
-117
0
-465
-154
-373
-53
-268
-46
-144
61
-199
-183
696
164
-194
179
134
-266
436
273
465
14
265
-296
-44
261
-103
-484
-558
243
-280
-234
-116
9
51
38
68
-296
139
61
-386
60
93
-25
216
-468
-258
-571
22
-245
85
253
410
-28
3
-387
-51
-231
403
-104
-34
-66
100
-179
-503
388
432
-126
222
-75
-60
-318
119
290
342
140
493
368
-79
50
47
-531
358
57
-448
484
-371
-194
-176
563
371
-7
30
197
686
-447
21
-159
-21
281
-54
190
-370
149
-557
343
-280
-8
-596
-278
-122
29
-540
263
-521
-132
35
-70
-354
51
284
-122
-672
-966
319
391
-144
183
160
437
778
-64
536
-603
-366
-182
8
423
-89
-152
-233
225
23
-381
634
-103
-98
-11
383
448
-26
-337
4
216
178
-242
180
-202
434
-100
-645
-72
-504
-185
27
-424
-176
88
164
145
-414
-119
239
72
664
89
207
97
-452
177
-207
31
191
432
-472
261
277
-5
308
-74
294
-152
-357
360
230
-160
168
495
-54
-301
-206
-146
371
33
-384
153
113
237
162
-41
278
-36
352
-225
233
-118
-59
89
534
-81
257
-455
-357
331
-276
54
-147
-274
-242
31
153
-79
706
-11
-249
-581
-568
73
37
-305
-132
16
-271
67
160
-211
66
-77
4
738
-261
-260
419
-68
87
589
91
165
128
250
-203
20
60
-70
-236
-212
-18
-166
-405
-111
-239
-288
394
-55
191
126
-160
-243
208
-28
-345
234
-246
369
268
97
198
-66
37
-552
655
-29
-472
258
-299
-218
-45
-217
-52
-263
479
271
43
-90
394
-30
-727
-182
-68
-144
-119
168
590
-359
-343
-237
-230
166
-50
-39
174
-175
366
-553
-122
60
716
-207
49
184
725
145
74
268
132
132
-7
248
-16
283
-202
-529
-199
-56
-178
-29
283
-119
-38
38
92
185
-64
-16
197
-231
89
-31
-36
218
111
-113
-172
384
-652
-148
-45
359
-552
-74
-388
423
-74
-126
-75
-529
304
-61
59
-201
-268
-133
244
19
710
265
-126
228
188
-94
134
-324
-257
233
88
-452
252
37
-357
241
-119
215
-149
313
149
-422
322
-75
214
136
0
247
177
389
407
-38
219
159
-184
258
-143
476
-109
188
-633
309
270
351
153
-455
-17
549
-17
-533
-148
407
-258
-258
320
146
-18
-483
24
888
-485
64
-9
-564
-279
179
129
-589
-93
-293
-91
114
-2
28
392
552
-64
-333
410
206
-420
128
174
118
229
-64
-62
-116
-210
-40
-68
-23
-360
104
-137
-280
-118
-131
-293
228
-8
412
-244
209
-175
317
512
-435
28
443
349
-315
-156
-26
222
313
863
-136
225
77
-402
-317
327
34
169
-69
41
249
135
-709
293
-66
324
-37
-130
68
125
-83
151
173
108
278
351
93
18
-674
-532
54
2
216
-257
-134
60
-496
573
108
42
230
-91
-240
-47
243
158
524
115
-236
57
-172
-178
-256
-122
-128
101
332
118
60
23
-402
191
-238
-595
-244
460
187
-335
-256
-210
-7
-303
539
352
766
275
328
66
-839
330
61
-221
-38
-50
473
-211
-182
18
581
-174
65
18
-273
297
176
-51
-239
-302
563
330
104
215
214
-57
-260
-335
640
-8
249
-300
-664
-407
19
24
-327
-76
-381
-219
268
186
186
-281
268
-348
-64
-64
-3
255
141
-119
265
-663
-101
239
-123
349
9
50
19
180
-128
-312
62
-185
847
-79
-109
-18
74
-50
-439
-151
-390
283
-167
-211
-220
-433
-171
111
-15
600
33
-403
-317
-8
111
61
-564
56
260
184
-451
85
312
-283
151
55
200
-130
114
-158
466
-107
264
-474
-28
-539
220
673
-189
-154
172
17
321
30
102
-60
-363
-329
-599
-65
53
-83
168
225
137
