288
-688
-98
417
-450
-227
447
-51
127
133
-70
-364
-214
438
-75
330
136
-5
423
-195
-114
406
-274
33
244
68
-184
-179
315
339
181
-25
-94
-310
-90
-255
177
760
700
-492
-119
-200
296
33
-410
291
169
-35
342
180
-147
-1024
64
-548
600
33
-417
490
275
15
-674
210
366
-819
-92
-362
-370
50
424
11
28
69
-72
30
415
476
29
-122
-172
210
-195
-268
176
89
-270
375
136
-220
421
-129
-19
97
216
-449
16
-402
-339
-344
33
-125
-57
590
299
458
-397
-240
87
620
-175
342
-490
-249
-253
944
176
566
166
444
-117
-65
375
-291
513
-227
741
-79
-263
251
-679
628
-844
114
129
12
205
-622
4
68
272
77
-338
-91
176
-83
233
-235
15
376
-157
-17
-57
-263
-326
279
385
140
122
-156
272
-809
186
642
404
-87
-376
633
89
51
-29
285
304
-334
283
150
200
-235
-167
91
-35
-21
-660
-662
-283
-438
347
570
-463
193
-26
8
442
217
-57
-24
196
-229
-83
308
-497
471
-24
-189
-212
-232
30
74
341
-317
94
7
-113
-81
-276
304
-90
-566
380
-639
-67
120
512
97
-172
-4
-352
562
123
518
-190
-252
143
-452
33
186
184
438
59
-138
309
105
-234
145
106
-54
391
16
24
-6
60
-282
169
51
142
-448
-65
-301
-313
-518
-97
-237
471
-61
288
-444
353
106
-287
111
241
-1
-249
-147
-9
-151
392
125
76
135
-145
881
219
495
293
-406
-486
168
707
242
-457
461
-79
57
208
348
-187
-359
202
3
186
-276
-83
-203
253
199
-473
-438
-310
73
-284
6
73
343
415
66
-571
205
18
213
605
-235
301
704
314
-50
-23
104
-61
647
-872
220
-206
-44
92
317
177
-642
404
193
4
-645
-78
14
19
212
-508
257
-202
211
-36
10
75
571
-537
117
-319
239
339
48
292
159
514
-290
-93
11
667
-321
562
405
-381
106
-526
-226
-227
161
-411
22
-346
951
157
-484
-452
17
-306
4
-241
7
81
364
747
-305
160
11
371
150
478
220
-218
-319
-68
-536
-368
136
-564
-65
-283
175
84
631
-23
-194
-291
219
-81
290
10
-90
155
-273
570
-51
-639
-463
-385
-540
-71
42
206
145
622
229
63
-440
-254
234
-30
234
458
38
162
316
392
-246
-139
-69
202
26
145
-107
-95
100
-450
267
162
128
-468
-265
-174
57
-112
-347
-36
-28
648
-305
306
-418
278
-231
-6
86
-104
332
-118
99
-438
169
29
-7
167
72
-88
-218
-203
223
141
348
-85
-296
-75
-166
36
-632
323
-355
200
156
-224
306
63
302
-457
3
301
-376
-448
11
412
-422
127
569
223
216
-157
2
-5
-356
26
-211
-47
60
-602
170
-368
97
-310
-559
410
-98
155
688
106
433
96
-125
172
67
272
54
-402
186
349
67
-418
416
-1061
447
-266
131
295
-55
424
286
-82
202
-146
-178
-321
270
-248
112
1054
348
-58
-365
524
-587
-12
342
9
-585
-42
-417
112
229
-616
76
-345
-250
-56
-600
-107
914
-144
-477
6
-525
-229
-605
-254
-190
75
166
25
-573
97
369
-623
49
-259
-43
-168
-226
121
484
323
193
157
70
209
2
173
372
636
917
-27
-490
-96
46
92
269
-844
408
458
190
208
-83
39
-492
748
-289
204
-278
131
-121
-106
-35
770
186
-232
-825
121
-363
-118
334
358
-208
125
19
-48
150
165
24
214
117
-30
-4
335
-251
250
-239
-85
-263
188
-452
343
-348
-251
-192
-380
72
4
-288
-149
-230
-122
-171
-175
-40
442
-350
336
-605
100
38
-88
-391
147
-572
319
-450
213
-254
156
-27
-329
-340
376
420
-413
-28
1058
446
994
-255
-366
56
233
-472
221
366
117
-73
62
-441
-571
153
-318
106
183
149
-100
-272
-4
156
463
-72
219
507
105
-570
-527
145
172
130
451
20
-633
167
-157
190
122
156
341
-42
200
-78
-250
-91
287
607
-735
-98
-262
43
-222
37
-214
46
385
221
-187
-275
216
-79
141
-152
-451
22
257
-124
363
-14
141
225
-246
266
-503
91
140
322
348
78
-450
128
-240
337
63
349
630
122
-585
-152
82
7
429
-135
176
-28
-301
-398
7
-55
147
-15
123
51
85
367
15
222
-367
-301
-354
-715
-139
-359
527
-318
151
-458
1032
477
487
374
-724
-28
-472
-147
979
179
-10
364
310
391
-416
-62
29
271
-744
117
-112
-83
237
-479
738
-58
-119
36
-353
-599
-167
-47
453
463
82
62
147
-250
494
-227
-400
-282
-225
-165
-137
19
-435
279
-345
27
-62
359
-123
-47
-119
-164
515
620
-35
510
-83
433
137
195
-185
-205
-95
-146
-142
123
90
-470
197
-340
-216
-596
342
-28
-7
-228
661
-1
478
532
-225
-356
555
-100
-407
-171
500
479
713
-45
77
513
-390
-117
138
-385
-212
-135
-301
-130
137
-149
-172
80
387
145
-245
370
122
60
-54
24
472
96
-182
18
681
166
-348
-910
-192
-370
-562
140
71
16
432
-152
276
-54
364
65
-233
-84
140
-329
-93
-311
436
387
648
126
395
-171
-165
-78
-276
5
108
107
693
3
588
300
314
-47
-250
206
-515
-16
-88
14
190
-111
-178
-111
477
120
-6
-263
240
-171
317
36
264
-559
211
-565
-91
230
-138
-969
-230
181
-87
-32
-93
-171
-40
-119
234
-126
62
48
-109
137
7
-258
10
-141
-450
-658
183
184
-142
-465
214
-118
169
573
-17
28
-131
-142
71
188
116
48
590
2
-316
4
46
-32
207
-397
240
-385
-128
-171
315
-642
109
-165
-146
-170
173
105
232
268
36
-158
-39
27
-304
426
89
62
213
334
-626
169
190
-364
-491
-186
543
-257
362
-297
-391
-270
-439
88
460
365
-473
-611
-195
16
-96
-133
180
-167
19
-510
62
-142
131
204
238
194
139
-279
-146
-112
532
238
-521
-191
387
133
102
-128
-139
423
-279
8
-650
475
390
-399
326
102
-3
-462
387
4
802
-239
-193
240
-389
-448
-446
107
70
-55
131
-401
-226
45
518
-118
77
-325
-536
-101
262
109
73
-33
96
1
-595
139
235
98
-132
241
-313
-116
376
-22
157
-268
80
-71
202
-246
-271
-164
473
-303
175
296
-130
-147
280
42
142
109
38
528
145
78
-14
-33
658
-30
218
-75
120
149
-61
87
-65
-122
318
468
-121
391
-264
-199
-168
-237
1
-355
-60
172
-5
-84
266
752
-328
202
-411
637
72
30
439
-622
-78
434
745
131
252
-332
-223
-387
68
564
63
76
194
-822
58
-22
407
-17
31
-511
57
154
442
136
-85
-225
-211
-311
-228
175
-309
5
-396
-64
499
224
380
42
-233
147
121
-48
-492
508
282
508
63
-395
83
-347
-294
397
-512
-4
-19
141
-104
-719
307
131
259
-359
537
-210
-224
362
-119
302
-315
-121
289
-384
-59
527
-535
-185
171
120
204
100
50
108
-425
21
86
-220
196
-42
249
-116
615
-165
232
506
-38
161
-21
86
-697
-3
262
261
442
-35
-153
-83
-621
105
-113
-410
72
-358
-248
294
293
-142
144
-214
-54
-236
318
131
-470
80
169
-381
-200
519
942
-301
69
-119
-147
-63
-114
-1059
380
406
-51
-55
580
327
231
-140
234
291
-110
-219
-178
-262
-94
62
320
534
-64
66
-270
-762
635
722
-760
216
683
-228
-18
-907
23
593
173
127
53
303
-358
322
-99
726
-212
657
-191
481
193
183
-112
-375
404
-292
21
40
256
432
-143
-272
-97
-244
-496
-311
33
-182
-312
-285
-94
-137
66
-281
58
297
-51
304
490
-484
-308
197
376
446
-286
-19
-239
187
97
168
-172
169
362
108
321
128
272
21
-379
-18
-105
55
257
327
-143
-136
-259
-381
225
85
206
-16
62
126
92
-135
41
-183
109
-27
131
-66
-27
-58
788
272
216
-12
-314
237
200
115
-133
-430
-366
207
-135
-214
160
273
-560
471
-207
316
125
356
-312
362
447
122
-160
-303
151
-341
182
69
79
-89
256
-415
-4
44
-953
-736
110
-65
-434
-171
-134
46
298
-485
728
-4
292
0
-296
265
-195
190
-61
-16
-250
-24
-15
140
-60
-55
282
-68
172
24
-368
42
51
-419
-150
-735
-150
488
358
-101
71
-443
-5
-123
275
117
47
455
189
432
-33
285
-303
185
258
-157
-289
-388
35
-233
-446
4
88
-230
-218
-66
46
390
-78
-121
-109
69
628
265
150
-74
-142
20
-13
447
-286
-393
310
-505
-265
563
387
-252
-263
-83
-521
-52
48
11
-32
-102
74
106
147
193
-138
-375
-309
-178
-482
127
-204
-384
504
-8
-93
-437
-95
563
-203
-575
421
6
-221
241
288
-307
-293
-332
-316
190
-145
391
308
-408
-198
334
357
-33
-98
222
15
-232
484
-204
150
195
394
161
67
-171
-148
283
-437
-346
-61
-415
-193
-84
-372
37
-314
454
-1
109
-24
367
446
196
467
83
-10
121
120
-245
-449
-24
-175
158
83
583
198
-129
280
-221
-428
-382
-470
53
-455
245
-446
-4
-255
218
-187
11
439
60
290
-612
666
206
161
49
464
-403
190
-667
-54
-137
183
-258
-402
-12
16
-19
197
-171
351
-311
-101
154
-155
-72
-259
-709
-89
304
340
490
473
-115
101
112
-440
-508
16
178
102
-479
98
-126
646
-30
-68
-450
277
14
862
21
288
-364
136
-334
-312
-390
468
-239
-691
494
43
474
48
278
-86
393
-535
-134
-329
-45
-72
378
289
699
251
-86
518
-203
-273
315
-163
469
5
172
-158
271
335
84
-227
-388
-320
-177
-221
377
445
-484
-146
-167
64
-137
227
104
-360
26
-38
-201
32
505
414
283
66
-390
-46
523
149
-13
501
-197
198
-214
7
754
164
63
-392
-167
660
173
-50
170
-304
-59
158
245
-254
605
-338
-532
-292
-141
356
63
592
-328
642
47
-137
-98
-81
-568
202
-377
76
-7
-50
121
138
-39
-324
-289
58
-299
350
-293
-147
65
-293
-93
582
375
-21
-367
128
640
-331
219
-75
-198
-18
-72
-215
-385
-29
1031
-55
167
-679
-439
-97
-5
-225
-503
-24
303
-101
328
-141
115
696
498
113
-454
6
22
33
39
-258
-518
-463
46
-456
544
-103
-9
297
364
152
273
-352
165
260
271
-231
-114
478
101
-517
-156
-43
56
281
74
-350
-188
-296
-162
108
-14
269
-438
-199
289
-401
-106
-194
-401
71
160
-180
-368
-78
82
45
80
-507
162
136
811
248
198
-378
-303
48
-680
249
-820
204
-297
-436
-503
-270
727
373
486
595
-443
-926
-504
16
533
-432
-505
493
408
630
-607
73
297
-69
-787
614
-32
35
96
-230
-671
-552
236
441
-499
718
379
-133
-137
-224
-106
325
296
239
-122
-333
65
-257
-58
-62
-362
-123
202
-214
-11
-36
-110
268
10
22
403
-341
457
29
328
28
-410
666
-96
-402
-591
35
195
87
201
402
-371
145
188
435
-285
-574
189
-502
-60
68
142
118
-328
965
15
-5
-123
-164
5
778
-772
-37
-143
30
-432
-193
584
119
9
71
-250
13
-173
-104
-299
180
-60
709
38
593
-587
-301
-620
20
-185
193
-473
239
-330
146
-490
-350
302
-58
199
427
388
-477
489
-275
583
-236
-36
245
-637
1186
-452
66
165
-468
-602
-45
115
-289
-118
162
-109
54
-43
-392
-428
-48
712
-558
328
430
-193
166
-197
175
515
138
-573
-694
606
-73
552
-343
-238
-347
240
209
549
253
-188
44
-72
313
-97
618
-74
181
303
-104
177
397
-75
220
-212
-62
-682
-110
268
-498
32
218
-5
31
298
-152
641
-327
166
133
48
364
-216
-394
-681
425
258
-153
-91
-159
-89
365
-379
314
7
-101
8
-27
112
559
49
-285
-333
-86
-264
-124
-48
-490
415
-287
-155
-553
-120
511
-158
15
-429
103
188
1054
-3
-317
41
598
-349
131
-85
-475
4
-74
-62
309
-213
-487
154
155
48
-11
461
-66
433
-132
6
-4
-90
-611
-34
67
116
-230
18
97
-644
360
72
226
-546
-248
385
139
170
134
-658
105
311
142
-892
-13
-242
-423
-323
180
39
-568
-307
-165
235
52
65
343
300
41
-98
-355
96
-50
7
281
-295
-119
516
301
166
499
-9
-393
236
-406
73
56
-202
98
-10
127
-78
397
452
-432
258
235
-199
179
-83
77
139
-170
107
-263
119
-368
448
-539
67
-178
-219
176
125
-252
-78
296
-70
-717
131
-484
224
-148
14
-90
-323
462
-38
87
283
-239
-353
112
271
96
-140
214
-691
441
-591
-352
-208
11
188
-164
-44
118
-249
321
-163
97
-732
-363
-69
259
598
-166
-235
-242
39
532
-665
401
68
85
107
226
76
414
286
-378
-117
-218
-195
-550
194
-67
-788
-147
-33
-2
423
-238
130
-208
425
-47
-160
119
34
217
818
-77
-592
-128
706
-75
309
326
322
-379
-174
6
-230
279
-106
-29
-137
-150
-356
-383
-118
-153
-100
59
-687
35
-130
130
461
836
166
235
-142
346
-47
-96
262
363
122
-52
-364
-286
342
335
-89
5
-119
130
565
126
-574
28
257
216
345
-337
-45
-178
461
-314
10
-247
-53
197
259
-162
-603
327
17
79
-48
-161
-642
-272
285
-298
40
10
-183
-85
-388
117
443
-254
182
-38
170
-221
14
-163
167
-297
111
215
20
375
-350
67
131
188
29
169
-235
-17
-991
172
-283
167
144
628
-216
191
526
572
57
433
-786
-144
184
779
89
243
-193
-5
152
-166
-395
-493
-126
374
-597
-886
185
397
105
100
85
9
-160
431
-98
50
-7
-789
-398
581
-114
26
244
-134
275
-432
515
-33
-163
-156
-234
-528
25
132
147
229
353
-103
548
243
464
-204
186
-1014
-43
308
756
-155
408
47
145
351
38
235
18
156
-346
647
-566
221
-133
-94
-520
-59
5
535
-227
91
-103
-231
-320
-244
-182
470
-280
-208
92
473
18
-216
118
401
29
-351
-6
155
-359
426
101
-266
-1
188
-288
68
-355
379
97
118
-78
-98
-256
-74
-6
-209
-143
206
-140
-238
-221
99
-667
68
-686
205
-227
343
5
-50
171
-262
115
20
-317
53
-260
-109
208
341
395
153
-223
-324
-66
209
265
479
440
-275
20
60
457
115
71
374
133
-49
148
49
-540
674
-168
-454
-158
-232
78
22
-61
-110
-464
123
-16
108
111
-621
101
103
513
-128
1178
-160
88
205
334
227
-388
-416
-268
34
-146
276
137
174
-174
53
228
-118
338
239
188
118
107
720
24
75
72
-166
1
-244
-168
467
6
-148
-110
-277
264
-283
575
168
-25
-222
-182
83
313
-405
-56
-274
-89
148
21
310
-178
-177
230
-32
-110
-258
-322
-344
-217
-226
-93
-368
303
-125
-234
-12
-74
342
-258
456
-448
-532
-209
-136
-556
-235
95
59
494
-308
344
-591
-143
426
209
153
75
-217
-107
197
46
-671
722
-248
-2
-993
213
381
96
-365
336
81
-345
-43
833
125
-124
719
-11
-93
-47
239
-62
-270
-147
-644
-270
-53
-583
-138
-296
6
618
-176
-335
-14
-138
-559
156
56
489
-170
210
-475
157
-95
165
-255
290
286
21
-1
-213
-379
-236
-216
-649
-130
-229
351
31
-210
-282
-809
-108
-106
-89
-367
-179
-607
-457
31
490
484
173
-82
219
-131
276
-193
104
91
89
-250
15
-278
271
203
371
423
248
16
-131
-9
148
-83
-299
307
376
-209
765
221
-133
213
-190
428
-252
384
50
841
142
-174
-319
60
-51
-641
-14
-259
19
345
-152
358
477
389
-143
70
28
-192
-581
-96
-175
320
-197
54
-228
-248
-343
-422
-317
-107
121
-413
-690
-573
362
512
-805
123
458
195
-137
22
-300
218
260
49
70
40
113
56
115
506
-14
-426
549
-23
1318
276
-62
372
304
242
120
-322
111
-264
-511
-326
528
675
642
72
-424
330
-293
-746
-245
-55
427
348
824
-399
120
-33
-69
-570
-486
835
158
171
-181
-215
-441
130
-265
-36
882
152
-188
159
277
-24
-356
-393
-209
-423
-480
334
-239
-137
607
188
-74
-911
-486
-314
482
208
-32
303
-101
-24
-367
-135
163
65
364
6
-206
156
81
34
138
74
-125
-63
182
-52
65
-289
497
-336
80
206
-159
176
-565
428
-419
651
375
-181
319
91
-21
-149
137
-80
-308
-380
474
78
161
-65
8
-421
802
-210
-235
206
349
228
232
170
-117
-343
427
-461
-276
149
576
53
821
874
-495
136
-131
513
201
-183
148
225
198
-498
-811
250
219
-1126
-466
-196
50
86
-156
221
192
98
-140
690
-188
-170
-399
-183
196
281
743
128
49
131
-200
-101
-141
-537
-647
370
501
-103
292
300
-679
67
-50
-345
-221
262
588
-137
-340
131
-487
504
174
105
-90
707
458
15
-57
299
-466
332
-398
-308
-817
336
44
12
-256
104
-41
636
207
288
-153
63
-143
-429
20
-153
214
-249
171
286
289
473
216
-148
-145
-142
-597
-610
-213
-742
-64
-178
41
142
-333
-276
-217
-394
230
530
-388
-384
91
156
-251
-183
-156
94
47
-592
70
137
315
-33
-65
-245
-10
53
668
-16
88
72
39
158
343
-293
367
156
464
-121
-31
-52
647
88
-82
134
-180
61
172
108
-330
84
218
-548
139
-478
161
46
-212
-9
-560
-177
27
-250
36
-55
21
-404
-329
701
112
1
-169
200
183
201
-250
-126
-379
283
-593
-241
-491
-80
142
91
190
400
-666
-622
-204
189
203
-395
756
420
669
144
-97
6
222
-337
344
-34
410
-259
172
90
-50
-467
-549
50
-366
58
-241
-425
303
552
-92
-218
-310
-166
23
186
108
136
-63
413
266
489
413
-312
55
-443
10
-124
-249
207
-629
146
-538
-240
28
-127
80
-385
195
-175
38
273
-119
71
260
401
-198
-15
-194
-52
245
-74
25
-388
-2
188
-91
-88
402
309
-67
-386
-318
113
48
157
-10
313
32
-93
789
399
-5
-375
-78
388
462
-124
-225
-235
-203
92
-539
-312
-163
-167
253
355
476
-258
112
-261
450
635
-473
-63
102
-236
-269
-217
117
212
220
256
-553
133
-197
4
-14
-31
-11
217
563
573
6
101
-129
435
-19
-115
139
60
334
-328
-60
147
-55
1
-448
-149
-167
-114
-89
-180
9
-189
-16
-147
-473
-419
-473
-228
-133
458
170
-306
-155
195
320
-213
4
-197
-3
-735
178
-16
380
-297
-304
-242
-131
-356
746
-8
-394
-290
-242
-25
-189
80
-196
390
-192
-417
487
-257
-64
-288
88
-148
9
473
315
268
39
173
-238
395
326
-116
-339
205
470
-344
198
165
-622
-768
-96
20
8
-406
131
557
-592
-224
-352
190
215
-45
403
194
-288
162
125
277
75
-746
14
172
497
18
251
175
50
-364
-302
-56
-325
-175
643
-23
-63
109
-161
-151
111
-80
184
105
-208
-102
403
58
44
-21
-81
48
-359
-327
408
358
-351
-374
-66
62
-45
-100
152
207
-314
85
-443
-258
-36
-433
-72
-163
91
453
-3
-294
-145
-224
-155
64
-111
203
105
211
401
-118
-325
-89
-449
466
-187
-338
176
98
614
254
-161
-76
219
132
341
-2
150
-270
-264
-369
7
627
126
0
252
483
-123
-439
205
-192
-72
183
133
-429
375
-110
313
-364
297
381
483
41
284
384
-44
-254
-165
92
-363
384
194
-213
81
39
-423
-489
247
-67
-179
-176
-122
-52
367
-7
260
-426
254
-592
-29
243
547
191
62
-283
-574
882
193
313
441
-40
-250
-14
-256
-231
341
365
-18
-806
262
1
167
-416
595
-465
118
-492
215
-88
-15
-24
-45
258
-217
-490
-148
-559
244
-202
-273
-357
563
213
178
86
0
-57
20
119
-354
6
229
-718
97
118
40
143
250
43
-144
-192
-5
160
102
-267
340
-206
-451
-318
-306
-576
129
-114
-11
116
-79
-199
346
630
-410
-4
359
-217
-252
117
-38
101
133
241
-222
-263
34
-34
95
262
-82
282
612
-98
297
189
157
-499
-29
278
-79
-534
78
-197
176
12
627
-400
134
-247
64
-37
-343
-40
-190
-46
-288
-229
272
155
29
-84
-663
259
-206
439
-62
101
-255
498
416
-59
99
240
-529
129
-658
-181
-370
-361
-315
126
227
-103
-26
111
174
-126
-57
344
238
805
-412
377
100
481
-127
-183
-246
-816
-543
-307
-159
-366
170
-56
-160
179
-534
-8
-277
412
57
399
51
309
144
271
5
67
-67
-326
-385
181
641
-379
-105
-142
410
-171
-32
182
193
108
-21
13
381
-52
-143
-387
89
262
121
-37
-136
-86
207
-230
-163
-245
-53
-188
44
-44
-9
-13
34
-127
293
-448
-641
-320
-573
402
570
-117
-112
-27
315
-12
109
10
837
284
-154
-207
417
-40
-25
-87
124
317
102
64
98
-712
-150
-31
237
-33
16
416
304
89
-1
93
0
-78
466
133
-290
-202
-310
-89
146
-165
585
39
-442
-230
233
-361
-235
55
-424
215
-78
89
453
-79
237
394
267
241
417
204
-4
-120
-212
-755
-131
59
96
-39
-3
-313
226
-586
783
-17
-455
611
-32
194
-381
-419
-10
-186
-195
153
341
-608
-350
149
125
-295
-282
246
-172
-248
18
-17
-11
-193
-88
-299
-234
-4
410
425
487
-173
-474
222
-87
82
-114
-149
35
-200
390
-52
-86
-14
304
-292
72
-143
-281
-350
-329
-147
144
-27
242
-109
297
87
241
-292
-101
-113
-109
72
-78
-159
21
4
71
-81
33
-431
-42
149
-32
-151
-117
250
-361
-16
131
-213
-403
-591
-147
188
-266
335
-197
-66
535
-84
-148
188
267
102
435
-88
70
220
9
79
-333
-35
-238
855
100
-61
-165
406
-293
-195
-211
-91
-29
266
21
-84
-79
-44
74
738
46
-273
354
-207
121
-81
146
-142
-654
-71
-434
189
-466
201
-398
239
-278
99
-352
450
-311
319
-162
-288
-453
-252
-156
-262
155
-169
-135
11
-72
213
-417
232
-97
586
-43
238
-224
-87
522
-152
-204
587
-129
-336
216
231
741
-76
50
-85
8
-256
623
-93
-17
-102
-11
371
5
-475
-226
-413
91
66
-420
-121
138
286
153
101
-53
-124
338
394
-23
66
-122
-113
283
-256
-159
-409
-364
-233
-115
-243
411
-23
203
25
364
-37
350
-530
-538
-497
162
326
177
-161
-535
228
-480
-16
-173
319
-49
293
-503
-143
-333
375
-322
162
93
414
40
44
89
-178
-216
-196
-9
-42
276
284
83
426
138
-256
48
29
357
-227
-294
-34
191
-12
810
-119
-301
315
455
-235
312
203
-321
354
-81
473
-39
432
-350
108
-110
-308
209
-241
310
375
-141
-587
321
-377
-96
144
339
-182
41
-98
165
96
-16
-391
-110
-369
-278
-135
456
-543
554
-661
-133
-395
-460
462
-64
96
-50
-204
372
350
-390
-62
457
117
-203
168
216
133
-110
-440
-224
-230
-54
-7
-437
408
138
234
315
125
-407
-356
307
382
637
239
15
-61
1
-232
-540
340
136
-306
12
251
25
68
-25
281
-261
-147
337
425
-666
-220
-221
118
-95
-435
373
45
-135
132
-58
222
-442
-758
-434
-325
-41
326
-301
323
-41
440
-419
-285
69
-677
-135
-146
572
91
-19
177
282
-157
-1102
-107
169
228
-561
-134
-5
62
68
538
-347
433
94
851
-137
762
-219
283
53
-91
-101
2
427
11
-183
-340
487
140
342
420
-202
-492
157
-336
791
16
346
140
492
454
-459
-558
-20
300
298
180
-13
-535
3
-23
-339
-425
887
225
87
207
-598
256
625
-130
-358
-496
-304
319
11
35
-237
-330
-226
-129
159
-584
239
34
-33
-203
122
177
258
320
-430
101
-129
397
-45
23
-151
32
-557
-51
-115
-745
126
-403
-239
-104
-390
-57
25
252
70
365
-736
88
679
433
274
232
-61
-515
53
162
623
543
-559
-341
-222
-751
135
-95
451
-80
555
-97
30
-38
-223
449
-76
-642
294
-472
-446
-149
-16
42
195
123
279
100
-219
-21
-594
-105
174
-227
-112
100
378
-191
-184
134
-174
-23
219
232
-280
-256
404
258
-441
74
-422
24
-220
23
159
522
531
-163
-313
-300
232
-378
80
-20
491
202
-125
-299
-241
696
80
-122
-79
79
-280
52
196
131
-194
91
235
-117
-15
-158
-33
-239
-37
217
-329
-326
-165
-196
9
577
96
-17
-373
-108
209
-113
41
141
457
312
122
458
375
407
-95
134
524
-173
532
-32
74
-596
-374
-615
-419
126
306
-525
-191
135
-254
-179
224
10
302
132
103
-350
69
171
-105
0
40
342
-484
80
-115
-686
302
-216
308
-199
20
-261
238
-160
-312
-29
139
-108
-4
-263
424
178
96
-404
-204
311
8
367
-72
171
-64
-21
-235
128
-198
-64
-466
-501
-54
-254
193
368
252
-469
-22
-41
265
-254
174
204
229
140
-338
223
-180
-143
314
-202
12
-63
441
-380
688
244
319
-209
63
-787
285
-195
212
-167
79
-81
26
-20
245
-63
194
-189
93
-417
198
247
-23
188
52
-163
354
202
38
-536
-485
-398
353
-173
-69
197
225
-116
103
66
-221
142
179
108
553
-447
167
95
79
-203
-115
348
-700
232
65
263
390
-142
-365
-254
337
-11
91
392
36
59
-505
154
293
89
-282
-52
291
-245
-440
152
103
-360
39
76
-306
-421
10
-245
-252
246
-155
355
-186
139
101
70
-304
278
86
203
-28
-52
149
36
359
240
-123
11
-81
73
43
310
504
176
-390
436
-602
-337
-341
-150
-83
-191
222
107
-387
-41
94
-266
-487
-28
5
-155
-130
-93
-332
-140
-291
-151
-80
-150
34
174
-2
370
-338
-6
-305
-458
252
-122
282
277
-36
273
-95
132
39
699
178
-255
249
123
-295
228
-330
-76
-378
324
-302
-520
157
207
-552
-384
186
171
-58
-590
-79
114
-347
36
8
466
-51
-328
146
-14
243
-131
150
60
-338
-210
382
159
-367
-121
397
199
-230
-128
430
-34
1
-220
-586
-29
316
-35
-282
-70
320
102
-69
-103
4
-210
-170
-398
324
109
-121
411
-335
264
-690
-175
343
-301
-543
-31
-489
-194
-35
463
139
-22
285
41
-422
149
-81
-329
-282
-460
-89
-209
-239
186
375
-529
-183
411
191
-394
82
-363
-202
-229
345
-391
-109
-33
-177
6
-23
-160
345
-167
381
379
-125
205
343
-262
64
132
-101
17
218
-453
634
851
276
18
-205
124
90
220
-39
-83
9
137
97
-585
-534
291
400
-385
386
344
-277
107
-143
-409
-377
71
267
-66
83
-151
25
-293
304
-181
-246
61
-26
32
23
451
322
231
317
-580
46
-47
156
10
-65
-130
-239
159
-581
107
-50
156
-106
-330
-296
-150
-188
-105
20
382
161
-70
135
-38
1
260
13
90
-246
-334
405
12
-109
-335
80
492
270
171
-256
-295
-312
938
-441
-611
214
30
-415
-580
-178
157
146
276
-983
183
-513
-102
-325
-73
-160
-86
436
287
-230
-274
169
-47
44
642
-255
-449
-10
-190
-129
31
254
-378
-38
-140
-145
155
134
-194
330
-64
218
-102
-591
238
295
-306
56
72
-251
-477
238
-492
332
-116
66
269
-87
56
58
113
-119
-464
27
2
467
-268
771
90
-302
42
161
74
75
141
-43
-330
-427
-262
214
236
346
-69
216
644
-95
-531
659
-75
-276
60
194
414
-2
-89
-149
-113
48
24
-238
-248
-95
-115
-120
-1
-373
64
-102
-78
432
134
56
149
-262
153
196
-182
152
-782
-82
-403
38
674
835
252
-236
204
-4
-163
-673
343
187
-297
726
402
-46
450
361
-297
20
-66
207
460
-316
-54
122
420
-629
25
-237
490
-136
-91
-484
572
-977
-539
-439
153
-599
75
-102
-47
-305
-201
324
248
485
-524
-373
451
-167
48
591
251
-705
523
-714
493
-378
-215
-650
155
-418
281
-157
-60
162
301
-427
138
225
-112
-240
230
-276
895
-78
281
-824
52
-305
-221
316
-138
-337
517
-77
-70
-436
504
-364
-216
-178
99
-267
562
-646
-323
-839
265
632
669
-743
75
161
126
-293
-945
-79
-635
-45
610
-233
295
101
265
-440
-325
-598
-248
146
-98
395
685
-331
695
-332
43
-117
99
16
240
-266
334
-23
395
419
-173
-169
111
-201
298
-343
82
41
-16
324
-107
-571
538
-79
299
-159
216
453
-213
162
-169
138
389
-134
-480
-85
-144
-374
-170
689
-81
254
-1
-338
-262
104
42
282
-85
-86
-57
-262
130
-22
106
-288
66
-464
108
359
20
106
-276
-194
94
155
86
87
-228
-142
-213
-157
-41
-23
116
300
98
16
215
94
-40
-113
-335
-667
-217
394
-677
150
-573
-203
-170
112
89
-470
46
138
146
-402
-568
599
47
-64
-81
186
546
-38
362
139
370
-27
-378
151
35
301
304
12
-391
-788
-127
178
47
-443
-355
517
644
5
195
-288
547
360
-439
77
-262
-137
-103
58
74
455
-804
-325
-182
-361
-173
83
-481
91
121
339
190
-116
-387
435
39
-131
-7
-26
-258
125
163
-356
657
-408
-137
-457
718
-232
94
59
-300
-365
-81
566
-225
143
-138
-160
-362
87
100
243
107
-337
-283
-70
447
472
104
-164
-298
372
29
463
-38
-4
-18
-137
12
-242
13
-391
606
430
177
-808
-2
161
-83
252
358
976
345
-21
-432
-106
624
484
388
193
500
-114
-679
136
19
24
211
-99
-330
-2
-35
226
-85
603
-524
-8
-149
-121
96
-227
504
-15
81
-75
190
-434
-80
490
-318
420
203
-74
98
-221
-216
-403
-290
-301
-292
-203
130
-184
128
409
-335
60
168
48
203
-448
-280
-132
-275
589
7
-137
-16
288
658
-732
370
486
436
-147
417
210
-106
426
-283
-343
-372
-205
-195
-259
-67
152
-159
231
358
222
85
-107
54
-201
-399
32
307
-138
5
-198
-46
-257
-198
254
409
272
-55
42
-590
-51
-159
28
-40
-439
-81
42
366
-76
-206
-610
144
-376
-66
-18
271
147
306
-618
220
195
-150
-299
41
342
191
-355
395
392
-82
-9
123
-477
-233
-89
385
275
-186
-418
51
-796
412
-159
411
84
-30
220
24
-124
352
-509
214
-335
-386
-151
237
-267
-281
2
61
356
224
241
-54
-382
-294
108
-342
124
-389
100
40
541
391
-188
-153
-550
-191
-7
-49
173
-446
-334
113
230
-128
-68
-33
183
-156
-380
-1076
8
-32
13
-14
488
-376
-1058
428
378
-361
221
166
266
394
-37
-217
508
252
1165
-253
-53
-280
110
647
176
-147
-197
-152
-209
322
-121
138
296
-262
-53
435
-483
-40
-208
-98
-132
-403
489
-17
259
169
149
184
94
140
118
-21
189
386
114
-359
-199
-67
181
-63
-552
938
-89
46
271
55
50
-352
616
-497
-76
-739
-682
264
-585
73
-590
-221
-216
-141
176
-254
-51
-804
516
42
-77
-88
-102
-21
71
-260
-247
107
-152
41
457
19
12
154
-189
-116
-197
-163
-193
228
96
175
21
190
-345
103
-161
-63
-69
-17
53
525
50
212
-38
66
64
119
538
230
212
45
181
65
122
29
-596
-358
-257
-21
-73
-367
-320
85
-99
188
-414
51
256
-284
295
-30
-477
171
-344
523
144
-436
-3
492
285
-238
256
728
175
44
260
-3
-459
180
244
-431
496
-513
-84
167
-273
-58
-260
-527
-290
-710
402
-548
421
-379
498
189
-418
-233
-107
670
463
-317
73
-136
106
-701
-70
339
361
86
-78
735
520
684
3
25
227
-315
-406
263
358
520
-81
242
-75
-384
339
-225
-678
18
-44
48
-156
-403
547
25
199
-149
195
-394
-335
72
-42
410
-361
46
269
216
118
-100
-38
531
370
-194
363
-232
106
-286
479
-293
-435
-214
252
392
-234
330
301
-132
-499
164
-434
-413
96
-468
-21
184
50
436
-432
261
-33
-31
-640
321
-411
140
167
-107
281
7
262
-53
-651
371
220
-112
132
-29
55
127
-1
-72
413
-243
11
-503
492
50
-238
-964
180
-146
-426
-38
-38
-195
-139
570
462
28
134
164
411
-96
-404
78
9
58
324
-90
-6
-349
137
-175
-262
183
9
591
272
-617
65
-287
-283
-250
-44
-89
-236
109
84
268
144
-106
142
190
388
71
153
299
-175
-94
149
-4
270
671
-100
-429
-41
-130
-170
-259
-105
249
-165
245
-77
-77
-277
-4
-42
-202
-397
-176
200
-130
157
142
-246
54
-17
0
305
117
238
-299
563
-324
141
-116
200
475
226
283
-387
40
69
263
-96
-265
-117
5
267
-152
281
4
183
215
-46
-132
-46
-7
-122
-110
-16
364
217
-236
-35
-467
26
-205
387
281
-20
-36
-88
189
-59
-221
-310
93
-172
58
-2
-472
-130
112
-279
-294
-59
311
-313
72
280
33
-109
-342
-34
238
-232
-627
-97
78
-268
349
16
268
-37
504
202
-377
122
-645
-36
-278
530
113
427
-1
92
-307
45
-73
-582
-36
18
136
-192
-248
-285
-250
-109
-619
424
-119
615
160
287
84
3
-833
-131
-55
44
324
770
-334
154
-323
-168
-30
-23
-443
-200
-290
163
-391
691
189
98
-203
582
159
-117
281
-102
213
222
406
-11
-147
-1
-222
-339
365
-256
-134
-406
171
-259
235
236
100
215
-244
-892
151
74
310
-11
49
-79
78
-17
330
-302
177
-112
354
-132
125
-482
-309
246
376
20
99
-395
75
-320
166
5
310
375
369
-546
285
-355
306
107
-178
-307
17
-417
286
-58
-296
-744
162
-56
281
-207
-371
-291
-62
33
112
-404
-391
108
609
279
305
-402
-191
-260
-102
-55
43
158
182
22
-514
-339
169
-108
220
115
-366
199
21
-192
195
243
-254
149
-70
-327
501
146
167
-6
-40
-174
-146
-9
-743
400
-350
833
95
326
-37
-685
-89
12
-19
-28
-142
-60
-289
250
176
441
-98
183
-232
-329
-222
554
504
213
-86
511
-209
165
172
-386
-128
-68
-529
44
20
284
320
-267
-154
252
77
-412
146
-349
-129
327
539
644
440
-501
155
-489
-338
292
-359
-308
-241
89
-54
406
985
-461
-366
20
287
281
-405
149
-256
-3
18
-52
-179
-438
422
289
28
114
54
-21
179
162
-75
91
2
0
-69
162
-204
289
-120
-225
-33
-196
185
-166
55
-129
-39
23
75
-177
-20
472
-65
-166
-586
-326
66
-94
219
639
335
11
-261
228
100
320
129
-10
-278
-148
184
-8
-462
-113
567
422
-375
260
-654
-429
-330
39
1129
37
-200
-199
372
-154
206
-130
-387
-258
-204
458
-182
-529
342
-850
255
436
27
-42
-8
-141
-320
30
-104
462
-239
-204
-223
-518
783
322
30
684
178
338
721
-283
464
-174
53
745
-23
10
-147
-240
234
-61
-318
331
212
587
341
-517
409
758
-338
109
153
-107
-385
-10
-119
294
325
-122
-341
-60
-138
398
879
109
303
-198
-37
11
-79
-125
142
-304
-348
-323
350
-262
199
-119
-195
-151
-212
147
609
96
198
-111
319
441
-58
34
-394
-138
216
307
307
-494
-165
-289
-111
-12
305
-133
123
1161
-184
224
-307
-93
138
167
-129
167
104
-216
-300
-91
-154
-159
508
-199
-516
450
9
331
290
-33
143
-247
133
239
-538
479
316
-375
15
-91
-27
-406
-1
-19
259
168
-297
270
-46
93
-159
170
76
-124
228
279
387
179
-267
-95
198
-328
-12
-51
569
-2
-218
264
-364
23
131
100
45
-142
610
-386
519
86
378
-254
-206
-486
-243
281
-57
579
-358
-203
253
-7
246
286
319
223
83
174
-728
123
440
-41
319
71
-192
-264
-277
-1
309
-216
-138
388
-353
-599
-420
-89
-52
-126
294
-463
-115
-135
7
92
261
53
-147
-205
-54
261
-300
154
152
-351
221
131
21
170
-20
142
397
24
-150
-476
269
-499
204
-575
71
-95
196
149
-310
-32
-173
-248
-81
81
504
-206
354
-119
193
119
118
-118
-191
-155
-223
-42
745
136
-108
272
-280
-461
-122
175
-12
-193
184
-15
-487
-516
-137
40
176
36
-174
-459
-430
-59
-458
283
-197
207
180
-720
36
14
270
356
-81
160
175
-194
114
-389
122
36
-88
377
26
15
96
524
-86
-77
-353
-239
80
76
-104
-473
-499
602
-213
-414
-475
427
-60
-322
552
-97
221
-344
-595
-86
73
399
-214
-146
-554
246
-333
-105
102
-210
74
-443
223
311
593
165
159
-7
-239
672
-53
667
77
-62
-625
-226
-685
313
302
-117
343
-62
-20
-589
-523
386
-327
259
-741
-48
139
-212
252
-77
244
408
291
529
72
-6
-170
74
-110
174
-545
466
449
288
-14
43
-150
41
-505
854
-400
-52
470
396
-361
-512
224
-729
-686
-108
52
-97
-763
-292
550
210
-261
-127
296
-396
376
163
-354
69
300
-496
113
-87
-142
-662
-618
232
110
-299
1217
-333
402
102
-36
-56
-229
-41
254
-299
495
-134
-64
-270
663
-381
216
642
-115
241
450
331
189
-359
-314
-389
-155
640
-735
123
-294
275
76
316
-151
-108
499
-425
146
-134
-48
31
-391
36
-345
382
440
-469
121
-261
-143
68
189
-257
-97
-330
-34
-8
78
377
-409
46
-5
-361
165
1
87
103
11
445
356
-54
-66
-343
454
8
-222
300
-195
-97
-161
-198
165
-218
-190
-302
-364
-65
59
35
-226
110
330
57
-355
-243
-208
-71
-142
55
268
283
-345
-182
-7
386
-371
-76
94
-137
-221
-174
-401
300
41
-13
320
382
-373
-70
426
313
-155
271
81
809
-177
-102
68
-761
-380
505
-408
728
44
-80
285
171
-271
-193
-454
-21
-92
133
-536
378
-126
-188
-195
-303
-248
-234
589
108
304
489
83
-483
-445
-118
-224
494
232
-134
131
-285
-346
-153
53
-61
-146
-60
-48
425
240
-381
259
365
465
174
-6
341
-8
11
-179
73
394
397
-205
506
308
221
163
-231
192
-280
-194
442
-248
-447
145
511
-30
-65
-494
149
-83
-47
785
307
6
-39
64
54
-817
342
149
262
468
-346
-43
106
-119
-570
121
-220
167
156
718
-272
542
7
-108
-114
292
381
228
-85
-98
-626
271
-383
408
-274
205
-518
-266
-412
-421
-573
-117
-154
109
-90
8
121
-198
-453
176
-198
72
-198
122
-93
274
-263
-77
343
-243
408
-82
475
-560
160
-176
-369
-587
207
102
-152
244
-111
184
431
-2
2
-199
124
-223
-324
-38
-81
-43
203
140
511
-39
6
338
-228
-349
130
302
318
395
198
-166
-584
35
-47
-237
35
-414
72
-171
-303
-188
-202
-375
-258
294
164
-133
-505
213
-174
-175
736
-93
-330
-145
-106
134
-249
-143
274
335
137
-136
346
595
225
103
2
126
-394
143
290
564
195
156
-113
-202
215
-421
185
26
-494
-187
-262
149
-103
246
196
-245
-67
-192
44
29
152
136
101
-114
-263
-87
-101
193
-160
238
402
-169
-180
-204
-43
-90
-333
270
-7
54
-152
-144
-70
-499
-46
-179
31
-130
684
8
111
498
738
-2
115
-410
-29
378
130
-229
-127
-175
241
58
292
64
80
462
-307
118
-406
-172
424
73
158
-359
189
-349
255
111
228
99
653
-72
-142
170
-89
459
401
72
-297
536
-740
344
-125
845
-277
-351
626
20
151
-611
280
211
143
395
-281
249
208
468
-495
-184
-54
-710
323
141
223
269
-291
301
-425
277
-353
179
-23
-37
-409
274
-143
-34
-614
1
-743
-26
-164
232
-37
269
-99
-214
-101
90
-18
154
278
-77
-297
486
257
12
181
-255
-76
117
-183
-313
-153
-361
463
41
-154
-1
-343
-220
985
208
-72
129
153
397
-384
-711
-356
-168
-556
477
655
-1055
895
-113
-3
-309
257
-83
15
-36
-212
-589
-20
214
-439
-268
306
298
-429
142
-316
-149
-276
343
-375
16
140
188
-74
171
-658
-426
-780
-392
-90
-206
-366
335
215
401
461
214
-472
591
710
432
28
-393
-78
-111
219
150
83
414
375
302
-26
45
-539
-280
876
-89
335
-345
-234
-345
99
-636
44
109
-79
-280
333
-639
24
631
485
64
-201
129
460
46
-466
564
-230
-109
-159
858
-468
61
-66
84
-145
-16
148
-14
11
622
101
289
237
-178
-396
192
-377
-337
367
363
406
234
-422
58
-82
-49
-46
-320
-75
468
-12
39
-154
590
-121
209
-443
365
-165
-17
-296
29
35
180
431
193
-447
-150
-33
-193
379
-358
-174
653
243
184
111
-149
372
-75
-292
-529
294
219
-212
-8
571
48
-215
306
233
-72
-158
-52
-23
-317
-418
-614
240
163
-80
-413
-417
-192
270
309
40
3
217
158
-221
-436
245
-81
-35
-171
-151
-95
-72
262
248
15
174
-249
-165
173
112
-492
402
134
375
-335
245
195
-423
-413
376
227
246
-103
-153
281
-149
20
-113
100
327
454
78
146
-58
-353
367
80
-82
-342
135
-7
73
0
9
266
176
-458
60
-128
296
74
-329
535
42
271
-74
-324
-142
-12
167
512
-281
-124
331
-116
24
-475
-16
-157
641
-190
-142
-85
33
214
-485
-172
-180
-143
7
-208
37
-297
420
127
534
53
-208
-32
684
502
-213
-663
-266
-5
30
27
-236
59
10
-552
200
-97
-54
210
183
119
437
270
178
-251
-300
271
443
-122
-206
-306
12
41
-186
-58
361
189
-640
-306
238
207
219
-26
-200
-24
-231
172
-374
76
250
63
-119
24
-242
-77
387
-286
96
-64
506
-221
-38
310
539
157
265
-160
105
-112
436
-245
326
427
-203
663
202
378
-831
262
-310
667
-160
-752
-873
165
-71
-204
-15
-19
-525
240
356
177
-61
173
-33
-22
-353
-529
10
456
-321
-283
-287
-185
-159
39
680
310
98
-142
-218
-420
74
84
-424
49
-303
-278
-68
-281
-556
45
285
-553
-341
-191
237
-116
123
-493
341
949
-110
343
121
-14
-397
-68
-65
383
133
790
443
675
61
-128
-110
82
6
-170
-19
442
-87
53
-54
-98
99
558
860
-112
191
85
-121
230
192
83
571
-14
104
-328
-256
160
103
-28
87
251
75
260
1
383
-173
-516
-97
358
9
-19
-324
191
379
26
-56
137
332
257
-239
466
18
23
169
-162
-212
530
-654
445
-313
-537
-22
-344
274
95
30
574
-1116
-264
359
284
-165
-618
-56
-182
113
-34
-197
-562
502
66
19
598
220
125
328
353
314
-11
29
-246
514
-174
578
-24
-81
-303
-571
-36
214
-328
-188
147
172
-410
-286
-5
86
202
-633
284
-62
283
133
-327
478
151
111
-800
-166
200
353
3
284
93
29
213
-266
323
-133
-42
-357
229
229
159
188
324
101
-61
-322
-96
-290
-21
145
442
56
165
-178
230
103
-232
-50
-101
525
8
-376
570
353
-296
-192
264
212
473
-284
-48
-498
257
-405
-333
-398
346
-144
327
48
38
-165
23
45
196
-302
-63
69
256
-215
-397
30
139
-104
17
-89
401
-525
-332
119
-425
-657
499
450
-432
753
-91
-560
309
-493
-261
-526
32
-148
303
-163
214
288
258
161
-76
-240
-252
108
-34
481
152
142
376
52
1097
78
94
-447
30
-403
227
84
325
-79
-745
-822
-135
-205
-375
-553
46
349
-110
-139
62
570
-122
-17
169
328
130
253
138
-34
-507
99
-377
-511
183
280
56
242
-760
-61
223
183
80
-410
-179
-84
254
205
364
29
281
-65
-432
-203
225
73
186
-602
-207
-297
-26
385
-48
203
-441
211
15
-443
207
-256
-59
35
118
-399
-370
713
94
-105
244
-515
-565
-82
-116
-259
27
-72
386
-11
200
-253
469
-36
72
-506
-176
330
530
136
258
-31
195
421
95
-217
180
206
0
-53
47
91
-288
17
121
451
-110
153
313
634
-184
-7
-10
472
-196
-185
40
399
515
459
-288
377
-48
108
-309
177
423
489
102
279
47
317
-60
-605
159
-230
289
-434
189
6
-651
-329
85
-285
-506
-40
-139
-351
94
-345
18
82
-223
100
-548
91
744
11
398
973
-396
-23
-655
505
456
-67
-84
-129
-316
154
251
545
-552
-183
-806
960
175
-149
-22
-665
443
231
154
424
-173
84
-205
-35
-143
611
167
146
195
-408
134
121
-1
-369
-437
16
-243
321
-418
-193
139
128
-252
171
197
162
103
-138
151
-110
-267
-105
-331
36
-323
-44
-576
190
476
418
-22
-38
-212
-422
250
159
183
-209
3
243
-295
297
-395
325
-312
221
-215
-210
17
177
318
446
-226
427
-325
-185
513
-174
68
-267
275
198
110
-333
118
-40
4
229
247
183
379
743
-699
-406
-496
56
63
-624
-292
268
26
746
261
151
-589
-322
275
-60
716
300
-5
183
168
292
-197
-119
-566
136
405
-52
35
349
-117
12
360
462
105
-143
580
-237
-54
-401
149
527
-43
-689
271
433
91
66
-203
1197
-353
-233
-460
130
246
99
100
-39
244
-115
-269
268
-471
-489
530
-293
499
88
513
-115
287
-279
85
-550
-130
-408
15
-486
-100
-336
-352
-619
-163
157
494
-366
44
-99
562
-131
176
438
-128
-31
135
-449
493
-567
238
-185
-121
-163
-285
-149
-56
113
-101
-38
-169
205
179
52
-308
214
309
201
367
647
-401
360
-19
113
293
156
-395
334
582
200
179
-283
35
-219
-318
-189
-180
344
207
299
-227
442
389
157
17
425
783
-288
157
5
-74
38
-76
79
117
-406
-20
-78
211
74
686
-38
610
255
-238
-229
-8
120
-268
-151
236
-462
189
-251
-117
132
332
215
-305
-322
8
732
332
-187
443
-1031
410
58
-254
-169
-3
-210
157
-384
267
158
599
-313
-609
347
535
-254
225
885
-64
25
56
-272
500
29
189
-118
921
-542
61
249
245
63
-576
-426
-511
-316
334
32
521
-34
-343
321
123
-165
-411
710
923
-228
-198
-3
-402
-98
-95
435
101
90
160
134
208
57
606
125
499
-476
309
-44
154
352
410
465
493
191
415
136
-9
-606
-140
-95
-89
-473
-196
-33
-356
-259
347
-500
-363
-320
6
182
-10
-415
420
476
-226
-172
38
19
244
-98
-23
307
522
-894
-351
-89
-237
-350
-254
514
-14
259
442
-39
280
264
156
236
1
269
19
-417
629
-6
-353
-232
-97
-164
-24
-298
-161
9
483
59
459
-304
-252
-95
151
-20
66
256
-17
-282
-23
-3
-521
-161
-193
1
-6
16
-136
-292
172
230
403
245
601
-86
756
-337
11
217
216
3
-312
-263
-117
70
-178
152
-272
-26
223
87
-82
-2
17
-216
-354
-13
-202
-973
-73
-16
-45
-416
429
282
-142
99
-6
295
19
492
-510
184
460
-86
-348
15
-171
-379
-400
35
-218
-16
-300
63
370
78
-297
-560
-6
73
-660
-257
-17
45
224
216
162
503
-151
-544
229
361
-544
277
243
248
273
-476
-110
224
-404
286
66
-346
524
469
629
334
-125
-962
-518
-218
-95
323
536
348
21
-110
0
-380
-250
503
-184
56
214
-414
-290
188
-48
-147
369
-205
-368
179
427
-195
239
-241
-380
149
488
-107
410
-291
-137
154
-353
162
235
-386
238
148
85
2
-674
132
-187
433
430
-331
-173
-880
637
-435
204
-494
-277
29
-117
90
-296
-337
-807
481
-34
274
251
198
-15
-16
271
110
-396
-80
-199
-120
-148
41
-162
383
162
-126
-409
-185
-182
-16
-220
-234
-550
16
236
-198
494
-130
-233
-99
410
-636
8
576
-260
717
143
-544
143
239
137
-438
-245
55
261
0
-101
157
246
18
-49
18
-31
29
166
469
-91
31
182
29
-305
645
-164
96
236
-151
-154
-666
-513
309
164
-63
-194
158
268
122
-279
339
-186
313
-384
457
-303
-440
491
-82
143
-299
20
-256
619
182
89
-174
-799
170
644
-12
-82
439
-142
-57
271
-540
399
102
134
-165
121
-21
-337
-455
-510
471
1025
431
-612
342
-327
-386
-524
209
390
302
214
408
-290
169
-407
-74
-108
209
-412
-246
468
-153
-231
-150
245
-201
-395
296
-21
-173
573
125
-245
-51
205
218
-587
165
67
325
-27
218
-169
-145
38
-297
-351
384
88
-131
168
-238
-147
-323
200
28
-411
-254
448
-215
81
-252
454
-286
53
-201
-134
118
50
-237
202
-103
-282
-197
150
-130
61
-25
368
-114
437
288
-104
281
72
-137
-317
172
-107
-422
277
-251
373
180
-193
107
173
238
-60
208
237
267
-327
-101
155
239
134
25
311
483
-320
114
-215
5
340
377
68
-233
-551
-74
244
-110
-17
82
-21
248
-96
-105
-59
-286
119
-417
-343
75
-104
312
-238
-192
43
-240
71
629
-140
-145
-174
142
-201
97
96
-303
552
-239
-432
287
184
-475
17
-336
-26
86
300
458
14
94
-57
-186
-229
914
-99
-408
24
-273
33
469
9
-51
-836
-377
-51
278
-144
123
-149
201
-247
-139
25
172
93
89
-445
353
96
476
-28
342
-278
-172
-509
-291
73
-96
241
-197
-483
315
-146
386
456
495
99
-6
-236
-255
61
594
154
179
-66
78
140
201
-390
-278
126
75
27
-116
-252
271
201
244
199
52
474
38
-98
-58
-484
674
358
89
22
-316
25
34
207
-74
-91
151
31
317
114
-9
160
-28
51
44
98
-115
-89
-224
-372
386
-17
110
-222
419
272
45
357
-23
501
-450
441
-447
-128
150
-129
-322
51
-277
12
-89
371
395
