84
75
-28
-151
-100
319
200
-26
-108
-174
264
340
-39
-538
106
-64
406
-43
-78
117
270
-703
-268
317
316
207
15
-326
14
76
67
-188
-321
-470
101
193
43
218
-518
-218
-283
-335
286
-326
-97
390
167
183
410
3
231
191
-89
2
271
-341
119
-145
672
-537
-240
-569
135
132
31
132
155
125
-66
-168
-29
-102
169
144
-380
166
249
-161
3
-112
-216
0
-100
-412
-401
-21
228
-149
83
487
49
-79
-218
70
225
-337
-131
149
-535
-111
143
583
15
9
-457
62
-215
253
173
-176
274
230
-107
-229
-161
-145
90
252
-551
288
387
55
-142
104
183
-23
-79
86
-59
112
429
130
346
469
449
-190
117
-425
-133
296
87
-2
-194
-254
-8
33
-89
350
79
-476
238
171
158
199
-286
117
55
245
-182
-32
159
-196
111
523
132
179
-649
273
-330
-432
-137
90
144
-26
-44
15
-36
-282
-242
211
-242
-214
179
-299
-21
281
127
-144
135
-570
450
38
165
190
322
91
17
491
-411
118
-109
-193
473
196
-342
323
-215
348
-91
-174
551
-138
-81
160
68
-277
253
204
61
-56
202
-187
-339
160
-9
-67
-416
292
-138
-178
-450
422
82
-306
-18
114
187
245
94
-158
149
-344
23
-124
-370
-117
-81
-214
358
110
24
260
-68
204
-41
203
492
281
179
-14
85
12
-474
-131
12
407
-215
-55
-55
153
24
-67
254
63
-58
161
107
-177
297
191
-333
407
240
-66
240
78
209
154
-202
-22
-232
-106
-262
-315
58
-277
-250
-9
458
90
105
121
33
129
-8
-155
483
214
-69
-26
160
-45
-81
-85
-135
193
-217
111
75
-201
509
606
-134
-10
-170
-289
-297
-108
125
161
255
164
-10
140
273
-295
-46
-34
253
-7
21
48
-393
-98
343
318
-126
-86
-801
-110
134
266
17
-174
385
-734
-318
302
328
-44
-331
223
290
293
-258
-105
30
211
-53
134
-54
103
-402
88
-160
-16
-41
-79
-15
254
-310
78
-260
57
-77
-123
40
-284
-170
-134
493
-323
51
68
116
75
-143
-248
-63
176
-634
32
383
682
392
-23
33
8
73
-373
-22
-223
114
439
-19
-114
79
313
704
-266
273
-54
22
308
-47
244
-306
-290
416
-225
-175
292
-46
-191
-187
291
-17
-193
-7
283
-210
-327
-116
474
-57
-139
-157
-269
-179
594
-18
764
-350
6
820
356
1145
-95
-255
-708
247
454
42
-216
298
-653
-136
-277
-118
-380
-172
-15
-56
-379
84
-250
-177
-274
127
264
505
155
-274
-93
161
141
643
-29
215
-372
275
3
243
332
-548
-435
84
101
-202
-422
111
-144
-35
212
-187
-265
580
-354
609
502
-347
103
220
439
99
96
-269
-429
-474
229
-434
-410
420
56
-205
30
3
-197
-218
101
-469
278
19
-383
-86
-503
209
616
41
74
108
-718
471
523
-46
-141
-263
136
-298
-160
70
-15
125
-483
295
225
-194
-51
198
-119
160
126
95
192
-253
298
-351
-168
408
541
117
220
383
-19
-252
191
280
184
-610
-6
-38
154
86
-464
-499
-349
142
-204
194
-285
32
248
-82
177
-262
1
88
229
131
164
7
-2
66
40
-99
-72
90
-94
-724
34
-81
-241
150
113
-284
-254
-78
-218
-83
-196
-150
33
-188
-212
-549
310
-86
-200
-138
579
-260
270
26
88
102
219
158
6
-27
-1
257
493
-286
-127
33
-109
-73
-179
-580
344
62
-468
75
-326
-101
-42
158
778
-302
-107
416
-70
94
258
-5
291
-116
-15
-269
-299
81
-218
-202
13
180
308
-24
187
122
-158
7
407
50
115
-387
-365
-73
27
-96
384
-84
-229
211
121
94
-184
540
-103
102
171
-22
91
-108
273
-121
92
-454
-628
91
-367
616
751
-476
-665
138
186
-95
57
-18
-268
-628
213
206
-2
584
271
-102
318
115
210
652
125
314
-388
194
22
-162
109
-119
-216
-133
-379
69
97
-388
389
110
-64
144
147
-401
194
97
134
604
-452
532
-25
-195
-83
1
31
-163
-65
-369
-230
26
-157
-34
189
-62
180
275
45
-112
281
196
-323
66
-81
-21
95
-56
-253
43
214
-78
552
-197
-38
-418
-168
57
-45
-14
38
-182
249
314
-4
-78
-204
-14
-63
-130
-372
188
202
155
197
58
201
98
-101
323
206
-55
311
-105
89
-244
-466
-285
-323
259
-485
315
149
116
-73
-164
-61
240
-191
190
680
379
2
503
-148
-53
-113
116
-298
-364
246
-91
-475
6
-78
46
-208
-243
-12
-362
-237
42
-61
234
517
-60
313
47
-400
341
3
-260
-340
290
-456
114
46
152
55
154
-102
-211
-317
-712
562
141
-102
-499
-99
92
290
19
-18
18
211
60
245
-322
-229
-254
20
96
230
-331
450
-44
26
-173
45
-72
69
35
52
140
-278
70
-415
-188
394
194
-528
-181
-12
-81
-489
-6
265
-86
-146
-2
-56
-43
-58
-222
44
-154
-24
48
175
-224
255
-194
115
-189
276
138
-152
391
-192
-70
-29
145
112
-62
136
5
-402
47
401
-100
364
40
-233
-104
-17
-110
-409
232
-187
-566
-113
580
4
379
33
-338
333
-179
235
35
1
208
-396
357
-81
-99
-314
62
36
-138
-107
-124
199
121
97
-243
343
-105
137
123
-358
363
129
-31
205
-265
108
-360
-292
76
39
-570
-198
-107
104
32
264
44
124
323
-86
-320
135
-392
-52
233
-124
-116
-13
-99
392
166
665
-246
350
-536
45
-147
-15
-292
-360
43
-405
106
-155
-5
-56
103
186
-49
473
-150
173
212
174
112
-333
-51
-192
205
-80
-635
215
636
-558
-446
151
-57
-401
138
312
317
567
-169
188
-116
36
-220
307
329
-479
-57
-243
-346
370
498
-140
-241
437
-135
-229
78
-117
-235
-335
14
525
-203
739
-504
-80
-555
70
-116
133
263
-173
50
564
-165
279
414
180
163
-317
-34
456
711
-263
-180
-167
-58
164
-122
-672
-215
-168
666
-559
158
609
-455
-177
253
-389
-56
101
-363
148
603
-358
76
-377
131
448
88
-538
76
344
162
-25
404
441
-196
-213
-120
-330
-184
-160
250
-195
-204
69
-187
132
81
30
-348
-253
-101
94
-233
142
210
-127
334
-274
-318
130
46
-1
-247
-25
517
-523
283
-19
145
121
-172
-162
-70
-326
219
-103
378
125
-458
-572
-99
204
-436
156
-390
-334
-65
21
57
92
-86
220
33
-343
259
-118
-143
-535
421
330
-44
97
3
148
-89
-215
191
-64
-69
102
146
-432
162
-344
559
221
19
410
-3
196
-75
-356
-79
-130
-58
-471
-800
62
-339
39
180
229
274
-160
364
144
-623
240
281
-453
-347
142
-209
-205
18
-574
353
-410
543
-243
-242
-6
761
-27
-34
-455
-27
-154
291
209
30
-396
102
151
357
-50
343
-438
-404
161
136
381
-24
-493
-231
-96
33
-389
24
65
47
147
273
107
-151
-4
91
-135
386
39
494
32
-258
106
-208
221
15
1
22
-6
239
196
126
31
-245
-116
302
-27
153
-270
-174
-39
-41
-191
-36
293
-151
-106
-188
-39
-388
-237
113
-354
300
12
233
-175
-413
-105
-13
20
-423
-349
-56
-518
-292
-307
-39
-276
-41
-92
-505
118
-282
-154
359
-328
656
40
185
342
582
476
123
300
10
25
45
315
-139
754
-149
17
-321
-30
-38
-625
122
-154
-375
-442
345
-41
-454
-165
1
84
-86
46
-166
-254
-378
123
331
154
32
101
147
13
592
-375
-52
-253
-41
-133
295
-38
67
-190
-170
61
98
-75
193
-2
-151
-119
217
-93
393
6
-293
-631
234
219
518
-157
190
-193
308
24
-310
19
215
179
460
-189
99
-240
-53
-234
43
182
-380
-238
368
-205
327
74
-95
421
117
-83
-184
-3
-356
-91
-117
-35
365
-326
156
-24
-288
156
-9
-254
-125
399
472
-77
657
567
232
-541
558
-27
382
-374
-39
149
-863
-511
-584
18
221
78
-127
204
-82
-50
590
227
75
-457
339
-136
-44
-107
-98
-127
-284
-207
720
400
-143
-246
-433
-554
-162
84
41
-294
-69
45
91
-115
287
72
87
390
-293
-300
766
434
4
182
322
-113
-285
-679
250
-123
507
-91
65
-446
171
300
151
-142
223
-328
-163
-349
389
73
-151
-193
-245
319
218
-289
-251
-146
-164
-85
10
31
-109
15
26
313
-36
-321
-180
79
53
136
63
258
312
-127
-1
204
-136
-47
63
-122
211
-251
-656
-157
-242
380
318
-242
12
-37
-199
-277
100
212
-191
446
-122
73
216
476
-47
48
50
-63
119
-389
90
-275
28
-453
389
123
54
-230
138
-366
310
-145
138
330
281
281
-230
150
-631
-105
33
370
-32
138
319
-352
194
69
48
410
441
-128
-106
-156
-42
-236
-210
-194
73
-263
-287
-254
-129
353
-98
-45
-95
-105
-424
409
30
82
104
-16
346
-620
-36
-371
-8
115
268
376
77
-382
-83
75
128
746
203
-123
-70
-456
776
-273
-298
-296
171
-636
14
224
-455
-385
-182
-107
233
-480
-195
259
-516
-729
210
197
-217
-107
381
336
-144
-206
-122
19
496
17
266
404
335
176
145
-381
22
-305
-101
55
220
211
-61
127
-279
294
-220
225
-32
-424
-225
-22
375
-412
-34
78
-124
330
-266
-119
-106
-50
-162
-252
-236
-122
368
290
-168
-191
210
-195
293
961
108
-492
-221
64
-411
408
194
-90
-242
735
-245
-124
108
218
55
-216
188
340
-504
413
-371
297
229
53
-29
-113
334
139
-400
-186
132
81
-6
-318
344
-240
614
152
-66
440
210
66
-349
-639
291
-404
-115
510
154
358
241
261
538
169
-126
-256
-577
-415
663
290
-36
94
-636
-547
98
-197
343
-34
73
-512
-159
271
-207
24
120
390
-154
84
-182
137
2
99
301
137
276
82
-603
420
-162
108
-334
-242
-326
-239
459
-274
42
85
-196
-84
-19
30
-47
-181
244
-127
18
126
-517
152
0
-162
200
248
-436
-96
-127
33
111
36
-423
84
472
-30
144
603
-17
68
37
174
260
-5
368
312
-164
296
-119
628
387
-83
-265
339
108
-34
-276
61
-91
-141
151
-239
366
-240
167
-423
-187
-43
31
57
-80
-412
-316
-176
-422
63
-192
-216
341
62
179
-286
99
-74
656
49
-301
100
306
102
-87
-323
359
-518
-45
246
-201
22
163
-448
-316
421
55
67
88
-310
-68
203
-15
-243
-245
396
-28
-63
-18
728
-358
-50
-78
184
198
381
-551
11
-19
-7
-215
562
-97
472
122
94
-256
277
-216
133
219
133
128
-387
-95
330
-113
-123
145
-12
97
28
-234
-238
-484
167
214
-257
122
318
-67
337
-380
-43
-174
187
146
-116
11
-193
-285
223
286
-221
341
-167
-45
-140
228
274
-152
-393
381
112
147
241
362
-64
15
-303
259
340
98
-418
127
-181
-32
-55
-511
73
-213
155
-103
232
-238
-104
110
-223
-549
177
272
-125
-133
-49
319
-454
-147
335
-68
-394
115
-101
653
-230
-244
-104
210
-210
33
435
424
142
-29
-270
-253
-33
-80
-143
-534
244
-337
91
47
161
178
-29
358
-81
-244
46
393
-401
246
320
-592
-133
176
-49
-62
-292
-184
654
225
158
24
-124
-159
637
83
38
224
376
-65
418
294
18
158
-185
248
17
287
151
-230
-70
289
375
206
-513
71
-39
234
-232
104
416
68
-78
-163
21
-105
217
-468
-181
142
385
-486
-149
-176
-416
-91
210
-192
77
-72
119
156
-62
-108
-54
38
-52
-8
241
179
-782
-46
104
33
110
4
195
-12
12
-26
-583
32
18
220
-239
167
-159
-74
-125
86
-95
-111
220
438
58
-520
251
92
-48
-67
28
81
356
277
-40
-519
32
-207
-229
-69
-302
-24
-106
210
-165
214
-39
-108
86
192
-309
-101
103
-4
266
-120
-404
535
396
-260
-168
-301
-5
15
347
-606
-68
-179
305
106
30
-344
-362
291
309
-82
-519
-20
-269
114
-88
-248
-57
206
-7
21
-135
297
-21
217
98
-268
-82
-134
111
-328
-347
37
203
60
161
7
209
-182
38
-351
157
387
-63
393
-36
-115
200
-140
23
105
-361
-237
-241
149
237
100
24
-21
-155
-41
-413
-80
-253
4
109
198
-298
-230
246
516
-284
-224
-254
-243
-254
448
729
-156
-70
-286
145
-293
250
231
-398
302
-132
74
-127
73
131
383
-144
431
171
95
233
151
56
109
170
112
-38
394
-490
-386
-7
127
119
-156
-64
-245
-201
-396
-220
-67
-63
-33
169
80
-42
166
-65
-104
28
67
-1
-289
-380
-84
-510
276
-123
202
156
169
158
252
28
-314
87
-278
194
575
27
-233
-160
113
-39
-209
-110
509
-18
-572
371
-480
76
-262
-351
139
43
541
94
476
-275
134
193
-399
-65
45
-203
-102
163
191
-170
-391
-16
623
155
197
392
-476
369
-124
126
-180
92
42
-5
-252
-115
295
115
144
937
-805
238
274
297
-60
-11
64
233
-223
257
143
40
128
244
49
-421
-193
-52
260
-186
-50
24
-127
95
-459
319
142
-342
578
89
185
93
1
103
195
100
-72
-356
-167
-696
492
-5
50
18
-14
283
153
234
-120
-11
-369
-130
-31
-611
119
232
138
-268
-117
270
-66
-203
-149
33
65
120
63
203
221
-82
204
-332
410
258
-123
140
216
106
40
431
-32
133
291
-92
215
-44
121
-259
250
-15
-304
30
33
-259
-349
-233
190
203
183
-192
-56
-24
148
26
18
-153
102
157
78
-90
41
20
447
-118
-146
533
-359
-25
162
-475
295
95
234
156
131
-42
-108
-374
-141
-188
29
50
234
-119
-495
167
313
336
-187
-366
-326
174
-44
39
252
110
-96
42
-17
225
-323
8
-104
-107
-285
-361
-146
33
-42
-138
-133
206
94
480
508
-87
100
-38
329
-206
-373
133
146
-216
317
-161
-248
-235
-150
13
-374
-327
-137
217
54
-305
70
-205
-272
14
-215
-46
115
13
-320
-297
128
295
-52
93
673
142
-305
-55
268
-32
-280
-84
-157
-142
353
141
-305
368
463
-276
178
-112
-101
176
-258
-413
74
44
398
461
-245
-344
-585
125
-267
187
7
-54
-145
-150
91
47
-756
-373
352
-174
374
184
-380
142
655
-128
-20
-246
-173
304
-110
-438
-201
-307
86
235
190
151
199
-449
-55
0
54
343
-201
60
10
93
69
-153
-266
198
-126
-73
-86
318
-188
-58
-154
298
-399
21
257
390
-112
125
-280
246
154
422
31
99
121
-171
446
-91
441
-67
112
138
-209
-350
98
26
-148
31
110
-443
-346
-57
-106
128
40
-377
339
-174
-211
-98
-200
55
436
-90
-18
437
152
-21
104
-721
-155
-487
-468
-113
-132
531
-4
325
45
-574
10
-202
-341
-6
-68
-10
-574
120
-168
644
419
80
-42
-331
85
-43
147
188
171
71
-283
44
130
-43
321
93
420
143
371
-190
149
413
-138
-179
279
332
-245
-270
-257
-118
77
-124
-192
-93
415
-82
253
-35
143
-44
306
-127
-134
-353
199
467
-293
461
497
151
92
133
-124
-28
-370
-227
241
-174
-225
69
104
-196
318
256
-240
135
-228
-34
-228
-99
309
80
-362
170
88
131
321
-127
55
138
-416
-475
176
-123
-95
-146
206
54
3
-20
-166
332
627
-67
267
-449
-263
-59
-40
157
150
-331
117
415
240
-212
-21
-141
221
265
364
53
5
-377
137
-65
-381
-752
-204
108
-116
91
313
-409
-61
-493
-243
168
716
-411
102
-10
-391
365
-47
99
165
-150
533
74
-171
404
403
-77
-181
340
735
-689
68
-129
362
101
-126
-644
-240
146
-409
-302
-102
366
-113
8
-498
111
341
-166
236
404
-507
114
-134
-71
397
-85
70
-311
-388
-118
-12
-293
-155
-214
72
-187
-55
323
-229
-317
196
-403
-1
103
-339
20
-238
75
-140
16
-292
180
-48
-98
222
41
-365
140
246
-202
218
232
-136
100
-463
30
-219
-95
265
-125
220
-86
0
-33
75
-189
-316
-315
-346
-24
2
7
-385
21
123
524
-158
-337
-21
-322
-225
112
-155
-58
-153
-56
71
473
-209
353
-109
303
-254
-494
18
-118
-114
127
27
332
152
60
-12
-148
-117
-181
-277
-102
-527
-76
-108
17
307
-495
165
-240
172
116
294
1
633
91
229
110
120
128
468
66
137
354
234
202
371
-147
-269
172
32
209
58
38
191
332
-33
-29
-343
441
-139
-143
-67
-96
-359
77
-129
-281
-428
456
-64
-293
239
-404
7
-433
-238
85
45
-140
-184
38
-53
-325
26
-563
114
184
83
-78
-443
150
177
-260
374
427
-265
274
148
-374
-15
-145
316
235
304
-2
178
-200
19
-46
-140
94
102
47
-184
68
-211
-255
-615
-131
447
545
432
-79
19
-155
-197
-125
-50
-91
143
-755
-149
-311
7
-416
180
138
373
350
-237
53
171
-508
499
620
-218
13
-244
233
-113
-112
116
-134
-118
176
188
303
541
102
-503
74
88
-102
-39
-7
-189
-102
-461
-96
-131
156
243
298
-313
87
72
455
-425
168
-278
-116
268
-156
178
6
-357
-220
-60
42
-459
-80
243
-70
196
-80
51
20
-241
296
-102
134
-115
381
201
7
100
9
201
-57
-495
402
205
429
105
135
34
-945
-176
23
213
-588
429
124
169
119
-243
-19
175
-113
-311
151
300
-419
-67
118
-16
141
147
5
338
225
86
-154
-228
126
-68
-293
58
-28
380
-96
-196
-21
47
-107
-24
275
-239
-152
45
102
243
192
454
-81
-266
-406
-13
123
-144
109
-81
-129
183
80
52
-240
63
-516
-225
287
330
245
-166
240
204
-622
442
-303
110
67
492
117
87
369
-41
582
307
-475
232
9
-43
231
-251
-61
81
-454
-363
-306
-243
595
-164
133
-216
-670
-151
-64
-180
-90
-328
52
190
60
-37
-43
315
33
-465
91
-137
111
290
-273
-22
-218
-97
109
151
-127
-145
103
-43
63
-41
238
217
187
-239
26
-327
370
146
388
303
124
5
-243
30
-25
66
-234
451
-189
-690
98
-14
-17
-125
-72
-134
-169
384
-152
150
-681
234
222
432
-403
-281
55
-206
7
507
-125
-260
309
177
268
79
-103
465
95
38
-94
-114
-23
-209
278
234
47
-220
-326
-97
-52
455
275
-281
131
61
124
-280
12
70
400
-408
196
204
133
205
61
92
418
-688
105
12
-98
-130
609
39
-65
485
287
54
444
-854
-366
-281
-18
120
-56
-90
-444
-197
309
305
-29
-59
248
17
760
91
13
-461
-21
-4
-423
-133
269
-123
-68
-397
33
462
259
-179
-448
138
131
-109
79
133
27
-236
157
5
127
-333
-6
234
-225
-200
43
-356
478
363
-242
278
-452
35
43
382
38
-57
-273
114
-197
274
-184
-614
87
0
-368
178
167
-153
261
195
242
-127
-352
-37
-479
-192
-589
-61
215
101
55
-5
-87
160
310
-360
90
48
-157
324
-38
130
-613
-380
-102
-235
153
145
-439
148
197
-36
-70
-275
-348
242
-19
-160
237
-337
115
-262
343
481
-57
352
138
-145
340
-473
259
-108
85
426
-298
34
-216
-317
-231
-62
477
-86
-260
-77
-4
176
-137
-303
-339
150
160
300
11
-57
-325
63
-265
152
-45
320
-51
-75
-114
63
432
-266
-383
194
292
-259
390
-38
186
-28
-264
132
181
696
-434
306
371
172
-83
-212
-20
106
185
-153
65
-427
0
-222
95
-381
-174
382
241
-68
199
-243
-373
161
-65
272
-76
15
203
-239
-294
-341
61
66
343
-99
261
-140
423
-85
210
76
222
155
-550
14
-50
-53
-186
-148
-145
210
-309
-38
-140
-138
-251
73
-55
250
-404
-95
154
-188
332
63
292
-152
23
212
267
-87
-38
-33
-175
476
9
28
31
33
-41
-195
-21
154
-264
-235
111
-246
233
-401
-120
403
91
112
-393
-7
-402
-231
-272
92
380
65
619
-315
385
-77
-325
60
3
152
81
-207
-357
16
5
-111
-366
448
-210
-345
192
138
-141
-278
-294
56
-209
651
136
6
117
316
-295
-93
148
-69
-77
420
-255
275
-84
98
-78
7
-150
22
-134
-235
-223
-15
-81
-148
109
-238
122
16
230
-90
231
156
-232
-695
50
377
149
462
263
227
167
-4
-459
-346
-165
500
746
441
227
-323
359
243
45
-491
-224
-65
44
466
-355
-12
-443
96
306
-130
564
360
73
-209
83
145
231
295
237
-83
68
-42
90
-252
-370
172
228
-54
-625
-8
-127
-307
435
-49
115
-67
61
-259
-141
-137
-2
-21
-332
-301
-100
139
-200
-40
11
-173
-113
-203
-72
-100
378
109
-451
-115
111
40
-468
-440
-252
-336
112
-59
76
-20
-286
95
126
-87
-190
-58
78
426
-38
57
-259
-131
211
98
144
344
-605
-164
-241
-38
-221
-266
110
406
155
-41
130
-6
26
185
116
51
-33
11
148
-566
5
-100
446
-425
-310
-119
142
595
-89
-63
-223
-93
-313
32
86
73
-503
597
229
87
17
-181
-174
480
-16
-361
-420
137
-138
207
-196
-159
-178
-67
-139
55
-204
-329
198
299
-296
225
191
374
-138
-165
-43
-409
34
157
210
-290
164
424
-10
390
74
-365
0
458
171
55
604
-183
-274
93
208
-335
-54
-226
-485
40
260
226
33
-188
148
-93
69
388
-125
-31
-201
-89
-54
-31
84
-28
-351
-74
-151
-272
443
-447
-119
354
-5
-75
288
184
332
31
-28
132
361
-99
265
-196
166
-57
-96
6
-388
160
78
-276
-228
-53
326
587
-37
430
-63
14
280
343
-132
124
116
-11
370
307
92
143
-58
227
-745
-120
-118
262
465
-247
-210
-381
-175
-4
259
248
-141
-215
229
18
-10
559
292
152
-497
-222
371
-461
-551
-170
610
-405
-331
-285
-120
455
470
185
-133
657
469
165
-137
-351
-162
126
154
303
166
211
-341
-366
-175
-177
-159
200
-470
-175
173
54
-311
495
197
11
64
356
-359
-155
277
-135
264
44
-298
443
-620
39
23
14
16
-119
-295
120
79
257
-433
371
239
-182
72
48
637
-151
65
-630
-113
-107
0
587
23
151
-45
8
-329
-284
104
139
-317
-230
-93
-42
-49
-245
-43
157
-130
71
-47
-430
187
-25
374
-440
220
116
-53
-210
-179
174
-101
-21
-784
-275
-545
277
-341
-93
-193
179
-265
-23
-45
-24
163
-140
66
51
19
133
443
66
3
-269
179
-201
16
-184
702
-313
-103
165
288
-150
-177
100
-241
-243
-41
-172
154
-79
387
344
141
-255
45
-190
76
-382
-379
-245
1
430
804
-410
116
-14
106
247
185
-61
189
247
-320
226
-220
112
-141
420
-190
-171
-100
-209
-89
86
-384
407
465
138
-345
-324
253
-351
575
347
57
342
402
89
-38
-424
363
52
508
-159
-106
-3
-410
155
-421
287
-244
-175
142
323
-37
154
-199
-151
-151
407
-93
-23
-364
89
-53
68
101
-238
-8
-207
-29
200
-43
-213
289
1
-259
-266
-229
-70
107
-65
-449
157
-18
402
140
471
191
-545
275
502
134
-67
-448
-9
122
-54
-446
14
-111
331
467
79
-298
-83
348
39
360
-176
274
-40
16
437
-52
25
102
340
260
-211
143
-401
-506
323
47
-187
-267
-250
-6
-244
53
-138
539
-262
292
232
-319
-396
159
-154
247
480
-376
76
237
305
-342
66
365
267
161
158
495
80
691
-30
-138
177
192
-223
-443
-119
-417
-250
-27
-474
170
-169
76
-550
46
-45
141
-180
-186
280
-263
296
177
-2
-158
-414
-11
282
-566
5
-237
532
158
187
77
21
451
-22
-95
204
-357
248
271
-227
-220
-126
-153
-272
126
190
-268
-300
-178
-55
-159
-44
-22
-296
-190
8
403
109
478
-264
256
77
49
-60
-351
98
-426
43
558
411
-221
-276
-379
-96
-633
-45
-105
-67
-582
68
235
23
-35
263
-10
102
119
181
-563
314
215
521
-284
-50
-438
-16
276
67
-644
365
244
-14
-386
360
232
-67
-305
10
19
31
-87
-35
-282
-254
-40
-149
27
-179
-195
81
-277
-29
-344
136
-19
41
-115
-183
800
-88
304
21
-70
84
170
17
-49
-273
-123
62
-76
126
-42
-339
113
44
-183
33
250
-210
25
-67
-264
79
-9
505
169
-200
27
-37
502
-355
27
28
257
-255
330
33
-118
-343
-319
-511
148
-397
147
212
-157
239
-258
-141
218
409
-164
59
111
217
138
-199
265
-161
-68
-174
277
266
17
103
285
128
-177
-106
227
423
-92
46
73
-527
512
-318
48
-43
-9
-540
351
298
273
-308
190
-43
-635
-190
109
-63
-251
-108
387
-133
154
286
636
368
26
211
21
65
-457
-156
147
120
350
12
46
101
-35
166
231
223
111
126
-213
-128
575
-496
-456
-14
-339
28
-245
208
-121
21
332
-287
-18
-309
-58
24
-144
-125
259
412
-89
75
369
149
-18
-76
-618
32
-81
138
-227
-496
-207
142
420
-242
89
-94
63
-282
30
-174
-264
-747
255
-27
-91
-177
-106
-153
144
27
-300
54
253
-36
372
57
162
55
-520
378
174
-197
-175
-107
18
93
-617
17
270
86
-300
128
267
-60
200
-19
594
-173
-309
239
-182
-425
-133
21
156
40
-578
87
484
51
-218
-106
222
-75
-323
324
-265
167
-424
-67
283
-85
541
-363
-156
-213
-187
-366
141
-51
-478
-187
101
-63
462
-357
418
-187
369
206
119
368
-53
-168
357
-45
577
295
-128
-321
3
-255
18
-28
-312
0
-515
287
293
-178
72
239
-423
175
-326
-133
185
63
-115
103
37
137
-39
-354
24
-152
-127
-184
155
-78
-11
-245
292
-495
453
65
408
-71
-734
-157
-286
194
-363
-154
-251
-234
23
115
281
-136
130
417
2
161
-427
69
125
-174
59
104
-482
-66
-678
-100
-178
73
271
347
22
85
229
63
-55
-21
-64
379
-66
-315
-125
82
-238
-174
154
345
54
5
-171
348
462
-65
194
99
267
187
78
-40
180
132
185
154
524
-16
24
-522
513
124
624
72
-299
244
15
324
229
35
158
424
-259
-628
242
-270
11
-270
-688
-414
310
-133
-422
302
-378
-109
-166
248
46
-63
599
-148
-450
-149
295
-365
292
337
90
-200
250
504
369
-204
156
420
13
-104
-270
-152
-427
-107
272
-159
-642
330
-407
344
-83
-16
557
-66
-144
-62
146
385
-203
23
-689
6
449
-150
-441
-84
-2
-43
-23
-64
261
52
-72
-20
359
547
212
-31
681
502
-397
215
238
-71
-77
-16
-308
227
545
-162
-181
428
-592
90
-437
-163
29
-230
345
-39
-42
649
-230
157
-337
94
-112
-35
253
59
-188
176
-379
223
-151
104
-263
85
-380
86
-365
159
167
119
155
-151
-71
168
-200
370
-245
-107
-94
0
-109
157
-734
9
-126
66
-302
-167
282
-40
-303
-101
-153
5
-408
107
-393
53
217
-117
-97
48
212
108
47
245
271
420
12
-136
50
371
411
-182
366
-74
92
-207
-171
-176
332
139
61
258
199
322
-69
-21
209
-125
199
-425
-283
351
451
-71
418
114
-227
133
-154
55
356
215
-435
-176
-614
-68
-412
-58
-234
152
291
-217
-319
240
376
448
-380
223
66
299
353
327
-23
40
-449
-47
-238
625
162
-256
154
-36
-147
-133
-80
-696
599
-313
167
160
277
426
564
-143
256
-422
-41
111
-186
-314
94
-81
-159
563
111
194
136
18
-112
836
62
91
-66
229
41
16
-14
-64
102
318
-114
17
-99
526
-33
-345
203
-2
113
-163
-108
413
17
15
-182
-9
32
-167
-115
-223
-535
-114
-427
-496
-221
-587
469
-107
524
-297
-180
227
-198
-273
189
-496
169
20
-265
142
314
18
370
1
278
-99
-316
648
324
179
-39
-15
-320
15
-416
4
-368
118
360
-498
-153
47
-76
-69
46
109
-215
211
-170
-78
-102
-76
479
-64
43
-361
-224
-232
-30
33
-230
170
-12
123
13
-164
-68
-114
-381
-90
468
-72
48
-48
-251
303
315
240
83
-225
182
14
-136
-782
-46
351
-192
-41
158
221
-448
-165
-56
-168
37
135
-639
107
397
136
156
-81
-214
585
-69
-442
48
54
-236
-164
-61
-172
28
-10
-670
242
-2
-8
-55
-189
216
518
158
-318
-35
301
-189
200
3
5
-142
305
302
-497
39
-44
93
-4
-41
225
247
-420
-134
7
138
-372
-212
25
193
-227
121
275
342
-209
160
-232
-71
19
-2
-199
-156
-46
274
332
-42
-207
93
293
-209
-457
-231
-54
161
288
-157
-78
336
10
-57
-376
262
-322
-248
-160
101
307
271
100
-445
43
58
333
185
14
214
-10
-235
-337
-297
-68
130
-21
334
-36
-291
66
185
-385
117
95
95
54
25
-177
-218
285
-306
88
163
264
-33
-83
-331
-76
62
-321
206
-444
-58
203
84
12
-97
230
-240
-84
-184
-46
-220
-330
-217
173
-22
-735
-229
-60
129
3
136
129
-204
312
-384
269
-110
-175
235
245
-193
239
36
389
201
94
111
17
-293
78
129
182
-168
45
-284
-242
214
436
81
1
-305
408
-50
47
-52
-273
177
-597
105
476
44
-550
94
-97
149
390
-90
36
-122
266
48
-335
191
224
-239
25
-55
-4
-131
-58
412
163
-260
-52
10
48
-313
9
269
-24
3
416
-608
215
313
-344
413
891
-235
-436
267
597
356
591
67
-312
-132
-110
-349
-501
93
111
401
170
-330
-250
-495
119
-266
738
-12
-222
-464
74
102
-258
-677
-307
-108
-548
-257
53
-173
256
-55
-220
94
-129
263
253
219
753
-702
45
-11
179
106
608
209
605
40
49
-89
244
182
-101
156
-4
579
-91
-403
-77
439
167
-197
167
-231
75
44
-166
-3
-272
50
-117
-272
332
-314
-255
131
-210
636
-268
286
503
66
46
228
-230
-84
597
-518
-7
-37
157
-161
-256
154
-461
20
-8
-101
530
-85
-438
-248
-151
263
-292
385
326
621
556
-142
282
-181
27
-298
161
-362
-25
-200
-369
128
154
215
-48
252
-267
40
808
477
-262
-559
386
-479
298
8
-60
-533
-154
449
87
333
-282
218
-187
-67
152
-199
109
357
292
-295
133
-127
-54
11
-279
-205
-145
-339
17
30
-29
114
-136
-209
-317
384
-330
-491
85
333
-151
161
-14
-464
220
350
-16
-242
268
-50
-105
-147
43
-26
-109
-214
-82
-15
105
29
-93
39
119
287
-64
-371
5
-2
37
-37
6
167
40
-53
-202
627
31
-249
383
515
-209
-446
111
-26
228
-132
258
-390
49
78
-265
-36
-305
-77
-48
84
481
81
221
3
244
-128
12
-164
35
-215
32
-16
-167
-449
425
12
713
26
150
15
-94
-2
-282
-106
391
61
-184
-482
-36
-161
-247
137
157
48
-26
275
-76
230
-101
94
-90
4
264
-435
-60
57
624
-330
-37
-67
-493
235
160
174
-123
-264
-46
-140
186
336
-536
145
-718
39
291
-24
34
-50
10
176
-42
-151
-6
9
112
15
-344
460
576
-66
-222
149
195
-393
-225
222
-173
-78
-97
-424
-574
181
-154
488
327
429
209
10
244
143
310
480
-195
438
214
377
-357
-138
-50
175
160
-60
-275
560
78
137
-147
-161
217
118
422
235
-349
341
122
174
-17
-459
16
133
-153
-208
58
-375
-26
309
-399
-131
-199
266
-635
-161
33
-27
-71
514
225
256
143
-156
101
-204
-314
69
124
29
-188
146
84
-11
265
179
-249
-212
110
-189
227
371
132
19
13
385
292
-238
384
-330
92
-44
-78
-135
-47
-75
163
-602
-157
-53
-70
131
-90
-411
285
-246
522
108
-11
399
-688
-227
-331
9
-357
27
-535
249
-34
-307
17
480
666
97
-87
-256
-152
233
-94
-324
420
132
-319
109
404
-109
424
-263
316
-172
-289
-84
320
-262
60
-328
-618
-57
419
512
-513
78
164
-218
187
-48
-315
380
-323
-150
-430
528
536
44
235
90
28
-233
121
-81
-459
97
-72
-144
-281
-157
-72
559
-413
-191
-46
89
-253
439
-66
469
47
-408
361
-55
8
130
-14
-285
290
197
30
369
-90
123
96
-135
-518
316
-268
-50
637
128
589
-279
0
-4
262
-442
-291
137
12
108
150
-350
-632
-255
-25
-250
190
-82
-133
-58
-294
124
-315
-127
97
542
176
46
-1
348
264
-292
67
-58
266
-248
-171
361
-222
-297
-262
-23
-97
37
283
267
-30
-180
388
55
-61
-157
-63
174
-151
-242
157
-359
-166
-41
-150
46
230
-120
142
-103
-809
276
760
110
18
431
252
-124
254
-239
-408
61
-378
295
59
107
-480
184
443
-436
-150
234
289
-187
-497
-486
102
393
204
-439
-27
-168
610
-281
601
-258
-388
348
221
-313
-618
349
54
-42
-256
136
-608
194
463
-165
168
-200
25
346
-10
-78
-186
-254
-196
415
-490
360
-244
-580
216
279
110
-350
120
-142
162
552
476
-9
306
-340
116
97
-18
-16
-502
-126
192
161
132
294
375
-149
-306
142
176
-491
306
96
-275
-102
-30
-437
102
-536
-326
-34
206
-447
-206
112
-59
523
108
281
-215
-186
182
-316
252
-284
-259
-148
139
-202
-80
117
-78
567
-373
110
457
-324
80
218
180
522
-90
-9
-5
-261
-37
-28
-273
-107
-25
139
181
-39
-219
-264
194
388
104
203
-27
-36
395
52
126
228
62
-341
-321
434
124
-288
-67
136
-193
102
-185
20
-172
-442
93
-5
-142
-105
-156
-221
-281
245
-205
-290
2
-240
593
-236
168
275
151
-15
260
136
-40
327
-338
-317
-208
-276
167
-134
185
-20
46
-139
-119
390
127
-96
-110
-105
68
-156
-319
49
-401
131
38
-339
67
-377
-27
-401
-29
-255
120
153
-437
-5
305
-434
257
-46
-145
325
473
-44
-86
-97
-188
-306
317
344
103
155
384
375
175
172
-16
-88
-77
-269
-122
-82
77
264
120
-218
-141
283
203
71
42
-194
121
324
-55
28
90
36
218
-65
19
61
-178
304
-15
524
-275
-194
34
259
-422
-65
-312
98
35
-420
-47
611
98
-36
-65
599
-117
-267
29
259
-366
389
-268
-174
-81
-185
217
-109
319
66
225
-279
165
134
24
-25
-487
126
50
355
-421
-175
-609
35
159
138
133
315
63
-14
-443
-28
253
-286
-153
-133
-353
-253
322
64
265
119
-218
-30
-34
-37
142
5
157
138
-58
161
49
26
557
103
-60
-36
417
-365
35
-354
284
190
66
137
253
-101
-580
-10
24
-179
22
436
2
238
202
-3
157
-377
3
-178
121
-285
-116
-326
211
99
-81
-217
42
-66
193
-766
-21
28
385
485
27
16
-254
107
233
-641
364
31
-88
-291
-331
-447
123
-151
-294
536
-649
328
91
-694
439
377
335
91
-678
-118
35
447
266
-176
-355
76
426
-95
300
237
254
32
194
367
-237
197
202
259
-31
-107
-22
-368
497
404
-584
-377
-404
-78
126
-97
-396
75
-353
619
-183
41
208
-248
-306
-218
-355
-17
224
63
359
63
-185
54
-135
-472
121
15
215
-233
407
-122
124
-1
210
-61
235
-218
185
455
-47
-76
318
41
269
-249
139
-424
-46
-21
71
150
-26
85
-265
-74
40
-80
-342
-99
215
-91
77
-408
161
78
-336
-143
84
-342
-192
-157
63
-456
-185
202
190
-704
140
-307
54
142
159
267
235
-522
-115
176
103
671
-241
-236
78
314
-5
398
-279
-167
-193
289
-152
1
107
-163
-325
-396
-258
-229
-228
310
61
-165
107
76
-290
125
-91
-176
72
-23
188
66
-420
-42
-56
153
-100
109
-178
54
-399
288
7
-105
1
76
79
325
-105
321
461
-253
236
-118
-141
-166
176
232
-103
140
-121
-18
328
22
-251
258
-22
19
15
-234
346
33
-260
-348
519
321
-243
457
253
36
-114
204
398
26
-139
66
-417
-70
-215
-7
109
-489
72
230
47
327
-421
433
-172
443
170
452
-22
-27
-137
381
156
306
67
-186
-98
-427
-216
633
73
-69
24
-263
-509
90
-63
203
-287
-219
276
-69
-439
-164
54
-552
-81
-197
-9
473
122
137
-22
12
115
89
95
24
42
138
-75
167
215
7
186
147
-229
250
263
90
-317
-27
-77
-388
458
122
-96
95
88
124
93
-2
-228
93
75
160
-36
-174
-314
-245
-42
-141
-88
102
30
82
-134
-99
143
278
350
-154
-134
-127
-124
-240
106
-28
398
-123
-40
-203
-90
-92
164
-328
-270
-376
-20
135
-75
20
553
-343
-169
101
-134
139
390
5
316
-161
25
281
81
-306
542
-153
-272
157
-252
17
347
209
-437
-121
271
-296
-178
-205
263
-658
-142
-330
5
-99
788
-1066
21
-103
-266
634
-119
19
240
-519
-92
450
-17
525
124
39
-352
-264
-54
150
-954
54
493
703
-345
74
386
-333
112
32
-99
214
-110
-40
-174
16
143
-193
276
-516
25
50
-203
-362
38
739
119
249
-317
25
173
305
-99
-133
-164
358
646
102
109
-56
-378
-393
-277
58
211
-340
-177
84
440
94
102
-245
132
-169
-35
178
-358
94
21
66
-89
19
42
-35
194
-153
46
489
-285
3
-362
352
494
-799
251
-32
110
-476
122
-149
153
-365
-603
108
367
-5
-418
-92
62
-180
132
219
296
-330
290
-482
-111
209
441
116
57
-127
48
273
-463
201
337
-9
-108
-355
-467
388
-255
-117
-384
-308
6
210
27
30
13
-312
-146
520
305
268
85
-169
112
97
-380
158
-225
176
-590
-146
506
-354
-478
383
-76
-123
355
-14
106
-99
-580
419
564
-220
523
400
95
-235
344
-224
-274
-150
482
-498
-66
16
-202
-268
263
-4
222
-104
-44
129
226
321
69
-55
4
368
-63
-152
-521
79
153
411
-348
-115
180
-64
535
168
-188
-115
242
85
-110
-9
175
-210
-193
501
-223
197
131
73
-99
-234
189
475
-392
-91
58
-168
-60
-140
2
-86
-212
100
454
100
-66
-606
-304
180
-115
175
-304
-89
278
39
36
17
-73
-467
-403
262
-249
-512
-169
-980
446
337
25
396
-183
479
-187
-111
43
-176
50
-412
76
-57
79
223
-224
9
191
-308
-66
-155
-128
-19
321
210
-920
76
102
157
241
-358
-173
325
-29
-6
443
-492
-597
-80
-200
-80
154
-123
224
99
140
191
-229
15
45
303
-156
102
-280
47
224
-243
-429
-307
37
-262
-303
254
-195
-178
-290
131
-595
-106
-127
103
153
103
226
170
287
-375
122
258
175
-322
-249
63
0
-236
-99
204
-129
173
-58
-96
27
77
-94
223
-83
206
301
-121
-135
217
-63
-202
-190
326
-13
574
121
-76
58
20
74
-230
-181
-538
125
-133
277
218
-55
452
-45
321
-135
-108
625
61
264
-158
139
4
-183
90
240
-388
101
-100
-271
-241
-129
-363
-189
-8
-216
-107
156
330
-572
132
48
24
-53
100
316
213
274
-411
268
-213
-132
231
143
10
-71
-14
-152
-233
41
-299
-6
166
-209
275
-39
-44
-133
-18
273
5
25
-41
-66
253
165
301
-228
-71
23
290
225
-285
-36
107
554
36
-448
219
223
11
373
-88
361
-285
112
-512
20
206
242
135
366
421
72
-76
-70
195
-563
101
-110
82
105
-197
154
50
209
412
478
38
210
171
31
-360
-63
-259
48
-44
-191
-121
-104
22
-192
20
-93
-148
129
29
203
123
157
-7
101
-177
-376
-405
6
-774
-41
364
320
341
-129
-251
-94
-78
60
-187
117
215
79
82
-324
319
-143
263
-51
18
-104
160
249
237
-461
-236
-110
-179
-143
113
-30
-59
82
429
226
-277
-197
7
85
-80
-25
207
-14
227
1
-337
97
137
485
-124
-228
122
337
359
-99
-219
-182
-62
219
67
129
254
299
-210
-63
-119
-238
90
-2
-337
-199
341
561
-22
84
47
440
258
-133
-261
602
-184
21
-455
62
-162
-147
-145
124
-92
235
-96
-7
-93
-757
307
-22
127
-204
-141
-19
-460
44
-103
257
-116
288
-360
292
-59
-406
312
428
41
-557
-145
217
-29
312
-118
22
9
-333
-39
172
-236
27
6
-329
-174
30
130
-111
-120
102
-377
347
295
-218
168
558
184
-263
-552
25
429
-98
117
170
25
138
160
-288
-141
106
-214
138
-240
257
89
275
10
405
117
-685
-154
-223
29
231
67
-29
425
38
-28
237
254
104
-477
69
-100
-38
-289
-130
615
-414
126
233
167
-15
3
-73
413
727
-115
20
-732
-93
-489
18
376
-473
-992
-11
229
-374
-42
353
148
-143
-723
416
-253
195
-435
357
-96
-5
-145
701
-481
337
34
-152
302
189
-35
-38
-145
204
323
209
2
-466
67
360
-385
25
43
112
-459
-127
43
113
-41
265
74
237
-90
159
485
-176
18
-344
-245
-328
-160
-280
233
86
-270
-114
-232
115
-373
1
300
-152
125
360
208
2
86
-398
29
277
54
-137
-347
92
202
-618
110
-19
-288
-167
-444
206
-385
276
92
99
198
-495
-174
-234
82
36
476
10
-315
-203
-711
-339
123
285
-190
-2
266
387
-75
-298
363
294
260
-352
416
-153
-368
-106
297
204
-116
55
-118
-100
209
165
-216
-301
117
-308
-76
-286
-196
457
-136
458
372
105
-324
111
-427
-166
357
-103
60
-226
460
244
-285
86
-257
78
156
97
-32
105
-404
420
216
21
7
508
-119
-403
76
-239
-111
72
56
-96
22
-347
-210
-47
104
-285
41
-98
200
-152
-339
-443
-198
-121
213
403
-143
-540
128
-29
-45
153
-74
139
-179
169
-465
-27
-64
66
-50
407
-44
-42
-338
62
442
-429
-175
-47
-66
-174
-7
247
-159
-57
-57
68
229
-8
-37
-216
344
39
-50
524
169
-254
479
43
153
72
-103
-91
88
236
318
73
-82
-97
375
164
21
59
176
120
234
-95
-58
-220
24
530
259
301
-98
-310
74
-42
-166
-116
-84
-12
-120
-152
-194
231
298
32
-261
88
94
471
-142
-109
166
258
67
101
67
373
-493
-217
-127
369
-426
46
-277
-4
-22
-178
-96
74
-299
346
320
-41
-61
-142
67
-201
241
-12
-321
-278
575
203
59
74
-95
-75
-126
147
-354
49
-276
-444
-457
-357
-372
92
-11
259
374
449
327
-424
-526
-384
-317
219
466
344
-441
-382
319
26
343
110
-572
-321
182
-41
416
-118
32
401
611
-531
193
-555
-227
-20
114
227
-59
-31
591
113
141
-494
269
-400
457
326
208
893
-57
-221
138
624
103
304
213
-64
3
-149
-155
681
142
262
-24
-52
365
188
-42
288
-379
-567
17
65
-232
223
84
-57
-303
-72
265
-251
112
388
-190
-297
-409
188
-123
-404
133
118
-260
286
-124
188
-265
79
-229
421
36
140
229
-242
187
27
265
321
191
-315
590
94
-77
-230
-276
418
-52
94
22
99
-392
268
-669
244
359
224
357
262
618
97
-274
433
46
338
88
-298
-301
91
-787
-424
413
-118
-626
-132
-319
317
242
360
-551
-345
672
218
-614
-167
-55
-234
17
-6
-92
138
-173
57
214
225
128
37
105
-290
-77
0
-326
-148
-1
-215
507
264
205
-393
96
363
-172
-184
-281
287
-144
-515
-677
68
-69
61
-89
-115
32
20
12
258
82
367
-61
-478
425
414
232
223
378
82
-267
-425
608
462
48
-512
-581
465
-149
-343
200
398
-306
-160
51
42
233
-634
-104
408
-256
-307
250
-443
126
24
-162
-147
-144
293
80
119
57
-418
-63
219
400
-66
-480
31
195
221
50
538
-107
-586
266
210
-154
-167
234
-128
54
-81
166
-663
291
114
67
-193
-254
272
-355
85
-146
185
312
-294
322
-11
326
84
-249
216
-261
-31
-616
255
-138
-284
148
-323
497
2
204
-67
-123
-290
110
3
-421
-174
18
35
85
-64
-23
-169
117
-178
304
-16
-21
-147
337
-334
-560
-82
161
-371
-920
-179
725
169
73
-423
202
-347
631
92
89
98
449
203
-417
-204
88
-278
456
630
-113
-141
-18
-65
168
318
228
204
-294
32
491
256
-182
179
-166
-707
-283
-298
177
-184
531
679
-382
567
-207
32
35
679
-78
-420
-88
390
-353
170
93
-66
-208
184
-188
205
-454
96
101
-491
-418
224
-448
134
14
-11
160
-24
-320
451
199
133
294
105
26
-61
-142
-105
-11
-82
155
-33
-478
19
-13
276
-67
52
154
-32
-255
175
114
-195
-79
-540
20
195
-11
150
-49
-167
-274
-36
-254
125
131
357
72
-253
28
-217
-427
-145
198
50
140
189
-97
-75
-259
61
148
326
95
462
232
62
-379
-350
-432
266
-193
-27
49
352
143
-60
39
252
-5
-28
-24
50
-19
-151
406
442
346
327
277
-459
-116
-533
500
-86
17
-93
-191
-286
-46
124
-131
13
-130
-353
-42
-70
173
40
-64
-381
-34
-151
77
19
2
-86
69
151
-116
207
642
221
-300
-30
548
60
-110
-42
-306
-267
-72
-221
337
-50
-66
3
200
0
441
195
440
-91
43
117
-123
-268
-97
5
39
74
-200
-242
-108
-10
-311
185
-92
7
-99
-263
-163
-391
107
-278
-333
175
123
235
-531
25
-244
-263
286
130
161
-45
-173
-210
148
36
358
-210
-54
-109
321
113
404
-103
501
-380
-198
-212
-110
-504
81
-164
-188
127
79
-309
-347
74
247
71
482
307
184
-38
399
157
-358
-383
279
54
19
315
-481
428
-234
-3
367
633
-95
195
-100
-104
-290
-281
-180
-74
-252
-81
-306
-81
70
-268
109
-268
-24
-114
6
-346
281
-96
475
-127
434
332
-246
-24
204
35
-103
81
-272
-27
170
-103
285
-103
-170
-61
-140
-196
-526
-159
-439
-121
-120
321
345
-10
31
732
55
93
-366
-163
366
-190
295
158
121
-179
254
-330
-126
-279
-121
-214
-142
268
157
260
40
332
4
259
-309
-216
42
82
94
-5
-54
46
-130
608
119
61
325
-244
-168
162
173
-128
-173
53
-73
-253
-6
-234
-448
-182
-124
306
-65
-30
-80
-271
89
93
202
376
267
97
162
-292
183
384
111
87
27
283
-303
116
180
444
340
194
-6
384
-231
-102
107
95
-76
347
-79
-230
410
124
76
-28
-495
-427
-50
20
-70
21
123
78
151
-202
-146
141
-156
-349
151
277
-254
289
-189
247
394
205
113
488
-47
-199
404
553
-9
-147
-143
120
-231
-267
-504
-38
-31
-36
-257
-117
266
172
-46
-113
-186
251
396
-515
-443
-664
-133
-143
441
85
-204
-3
-19
58
-54
504
-74
-211
25
78
-112
360
152
-87
-197
-351
-307
53
-195
87
289
13
207
56
-127
328
101
-103
-214
-92
-158
-100
-285
166
169
36
251
-202
327
-165
-342
-104
-45
-377
-51
217
292
-14
217
-228
115
-170
59
373
-478
-73
-35
28
-178
316
11
61
336
-37
-257
-453
276
462
-303
11
-59
-148
-134
204
-257
193
224
-144
-80
61
76
32
436
3
590
-3
70
164
-112
200
34
-148
-439
-19
-566
146
139
-311
254
-82
166
-46
-347
-273
243
-180
129
240
-244
286
-542
-97
14
-76
182
-60
-316
261
201
-122
106
-117
-70
293
-73
612
384
-453
159
-62
-240
-51
-311
58
-475
-69
224
136
-292
321
-219
228
159
-141
79
-145
59
411
130
205
-229
85
-63
164
276
-252
-62
12
33
-250
-188
-251
-329
-156
-225
-206
-51
-247
134
-60
-157
-106
79
-220
500
-100
171
548
-94
263
-397
237
78
106
153
-47
-152
-111
-130
-26
-49
-317
68
-92
171
-443
194
486
142
-444
-403
-300
-396
-358
-27
-261
19
103
47
265
40
6
325
-23
363
-182
88
-96
-132
116
228
242
-193
-499
-841
23
-190
-353
-373
431
112
78
-38
-390
257
617
11
349
117
-180
173
106
-84
224
88
107
-358
-99
-159
-204
246
399
431
-174
-383
-313
459
271
-163
14
192
-560
408
236
-362
53
-221
27
-318
210
52
94
-314
-62
111
85
-334
-32
70
-439
-82
-18
36
414
213
-420
-10
142
91
-418
292
-228
-221
726
-137
-325
516
102
0
-311
-56
215
-378
-79
-332
136
251
-305
85
141
-34
167
118
220
109
159
703
-259
-133
144
-383
-304
-78
-346
317
43
-467
91
-246
329
-351
-38
154
-437
171
144
-55
379
-170
135
59
-363
104
274
-40
-200
-11
58
-512
177
244
-151
-229
20
-120
-138
103
166
-118
183
-23
153
500
164
2
-482
11
14
-87
208
62
5
-372
186
-98
299
-316
-258
229
-180
186
-296
-139
10
-62
-91
471
-57
263
42
-107
141
-383
-248
61
-115
161
-27
-64
-107
-357
-67
533
99
133
46
-72
693
184
44
237
-20
-215
-203
-307
79
199
-400
-124
-599
-284
386
57
-321
740
115
-221
-147
-450
331
-502
739
194
82
-28
195
-479
488
-377
313
-154
127
-360
-227
-67
408
162
-19
340
153
101
148
-97
307
-301
315
258
-151
-597
-176
20
-64
549
-39
269
182
-452
311
372
228
-515
-94
112
-239
-262
-173
-91
259
-24
-105
-175
-331
-297
-80
87
-177
248
202
-163
-288
-49
294
407
-124
-56
-251
384
-175
-222
-191
-283
414
-63
106
271
-642
-628
292
177
-231
184
101
-405
433
-452
326
284
11
444
163
-38
-33
268
157
146
-141
-66
288
227
-142
200
-285
189
-460
-163
-280
-39
279
307
141
201
-148
-356
86
-54
109
140
-63
225
267
-10
-55
-156
-68
239
40
-88
-25
-211
-237
226
125
113
223
42
17
-362
-128
83
286
-37
234
-82
185
9
-181
413
22
-82
173
63
-586
226
248
177
563
-169
279
-285
111
-330
-310
105
-346
-50
86
225
-260
-173
259
184
-103
151
-80
775
325
246
299
178
656
-46
-478
87
-280
502
-289
73
-489
-269
76
212
-104
147
-4
-203
180
-17
-390
-368
256
-180
-353
169
-156
-1
505
-536
278
2
60
244
484
8
-6
-129
93
-53
14
136
-346
-498
806
-482
116
439
-264
-430
-50
-29
-42
321
-467
-65
240
-28
-686
-106
-198
266
334
123
11
-347
-178
-136
12
796
-122
-58
45
133
495
374
330
141
235
-106
-128
59
93
323
-93
-158
-22
-198
-421
160
350
-285
0
-117
360
172
89
-279
-104
9
245
-5
-241
-161
-158
-96
-277
-217
497
13
-63
212
-59
376
-15
-178
-353
-228
419
-83
-218
522
-546
19
189
-320
-154
-127
-18
-143
232
282
342
228
-89
-315
-171
-183
337
65
-10
196
-169
-2
56
405
327
-187
-48
195
221
108
-211
326
-1
273
-373
-271
-109
51
-180
319
-139
62
72
210
-224
-6
63
-33
-147
83
245
-116
210
-66
-431
52
42
-260
-311
-851
-537
381
20
15
-188
-298
264
169
327
95
-218
62
-180
24
217
-373
-26
269
-232
-17
57
493
56
-362
-152
390
-31
244
-303
-142
-118
196
-237
-147
-33
-76
429
144
-413
148
-153
-136
467
53
-465
325
-106
68
328
199
241
79
132
39
287
143
-166
-68
211
-169
49
-276
48
-329
269
76
-574
155
209
306
-187
-249
7
61
-205
6
-505
-206
201
91
-40
-135
34
-237
387
286
43
123
494
333
-272
-227
-178
228
191
-75
256
-543
130
479
-115
73
7
-200
126
69
-174
6
143
110
319
-254
-156
-126
-62
-427
-61
7
-180
84
150
38
39
-157
128
-43
-310
271
-81
34
248
-22
497
248
-107
39
-261
5
297
187
-361
-246
-69
-374
-336
188
-56
53
-104
296
394
-444
163
-102
-462
42
-611
-126
251
-30
-117
29
328
47
308
-592
-43
-94
-332
-63
466
78
26
48
458
-355
-276
-540
119
137
-225
-206
-326
-230
-38
315
-307
-62
-309
107
287
320
-31
159
-364
-2
-456
593
80
-415
365
172
-283
-302
-272
-247
-280
218
18
-243
-148
535
-344
244
-67
-270
260
-16
35
152
72
176
55
-84
202
-592
-432
90
181
-108
-9
-71
306
-179
-335
493
12
-95
63
-258
372
-313
9
233
-232
193
369
-130
348
30
377
177
-209
12
-25
-451
-15
-65
-204
526
690
-349
423
-10
343
-162
-77
-417
290
-223
-273
-116
-168
485
151
374
-340
-328
-170
-127
-147
306
265
-178
-226
-20
268
-128
187
-361
294
-431
-255
-174
-30
-289
-94
-42
302
-249
-384
6
-492
-29
360
65
-424
-134
50
-19
-215
467
210
-37
39
179
258
306
154
183
-262
304
36
182
-27
158
-83
295
393
-309
-26
-252
-124
412
-266
-134
279
181
-287
-112
69
-84
-60
245
96
307
20
-33
103
387
-91
223
148
234
240
-136
39
-276
-254
229
78
-212
369
310
-10
-44
-134
-269
207
-48
-122
1
591
137
-567
381
-35
-13
-165
215
-50
305
239
164
-233
-36
294
395
-33
265
-240
122
-274
-290
832
294
-387
537
-42
-18
-508
-413
-247
249
-25
419
194
-94
-7
-616
153
363
-178
-286
-333
-39
-170
225
-95
-141
-410
-177
570
49
21
530
-21
-146
171
298
-370
-326
10
-183
43
554
-428
-244
78
201
680
185
114
61
-46
-26
-77
292
208
88
-20
306
56
-121
259
374
-371
-42
76
-106
-239
-193
44
272
-237
280
521
-214
-129
101
50
317
153
100
437
10
189
-56
-183
-347
-132
37
57
-147
4
-66
88
206
137
26
163
-337
-156
-110
-154
-74
-61
144
-82
-213
-331
130
-502
226
-6
34
214
379
11
129
-52
301
-224
71
-22
-92
312
552
-154
-119
380
-222
-225
-57
-86
-387
187
155
568
232
-234
-61
242
-217
-554
-426
-39
-134
-8
207
-291
12
-280
-43
473
-518
205
112
-128
281
455
160
114
-339
-159
-116
291
-258
-165
-243
533
86
-95
-36
407
-132
-162
-63
-152
316
-20
-253
46
-61
63
351
-221
217
198
-371
-260
82
310
-246
-399
-194
-522
180
83
496
209
109
46
180
-177
-67
-193
221
-26
-549
89
45
119
474
251
-413
-253
4
395
-259
431
3
105
78
-245
-313
-43
-68
-483
639
-208
-105
500
193
281
491
450
-443
81
-69
-91
-201
-202
-194
-139
99
8
-146
185
-357
-121
-57
-183
-549
-170
181
35
-448
318
273
152
-283
148
-89
-79
554
-611
-69
-87
297
-394
-3
-40
-14
344
-197
322
4
56
-81
-472
-106
158
-32
-416
-190
-37
284
-148
-274
267
-119
268
195
-116
-401
-303
584
268
95
40
-1
-445
-43
348
-54
-312
-222
-33
30
234
-29
-165
-569
-19
-19
106
-223
497
-385
-83
71
47
202
-20
-185
149
119
140
107
103
322
1
164
455
-31
85
284
82
-327
-353
296
-257
580
-69
258
44
-324
-37
-386
-215
-219
213
129
-19
-244
-313
-259
-284
-120
68
-187
-39
392
-84
185
-80
-95
121
154
309
820
113
86
-238
-161
-171
-131
-13
186
-48
-142
233
-70
14
108
-130
221
91
193
292
-52
-301
-1
-319
-13
-294
165
-45
-22
-30
561
-160
430
-185
-35
346
10
-220
-169
71
0
-134
215
93
-65
-93
16
207
162
160
-55
-199
58
448
-256
-45
-48
86
465
-44
221
-99
-667
-128
98
-511
219
-170
175
211
-502
-63
21
151
-200
85
-64
-84
121
110
117
-74
443
134
424
-317
-138
579
-168
139
42
5
69
-379
-530
168
517
84
143
-95
198
-315
93
-104
-124
198
130
228
-125
842
-233
-104
117
-89
-17
-336
12
-60
65
-101
435
82
75
88
220
-121
-414
84
20
288
433
128
-68
-22
-204
155
-440
-416
-86
450
-12
53
0
-13
-608
22
322
229
-41
214
226
-73
258
130
389
-235
-104
204
41
270
-449
82
163
96
246
-157
-104
295
389
471
-378
-67
257
251
125
110
59
-53
-7
-245
112
62
-254
309
243
-71
356
-345
276
133
115
244
238
79
-160
440
-135
115
-204
128
-181
401
-349
-180
-102
42
122
116
278
-15
-193
-45
-191
-25
-140
-43
292
222
138
-303
30
-46
123
-84
-165
168
52
-382
-129
-525
211
125
-234
57
-20
-400
-282
446
335
-145
-33
28
361
-142
99
-372
508
204
248
122
108
-113
-104
113
-180
150
-184
-295
165
-119
229
97
498
-114
-530
-91
-427
-331
64
220
20
197
141
111
43
-68
-81
-167
403
40
285
-182
166
290
42
-223
-249
-35
215
96
-48
278
137
-324
-213
-268
-460
-281
41
-62
-486
-248
117
-115
-101
-108
388
278
43
-264
389
163
88
210
251
-313
-184
-212
-89
-88
279
37
-324
92
13
71
-915
-383
-261
-176
189
-24
250
447
-301
-289
325
252
64
214
43
-325
130
321
-182
-188
-541
343
133
220
-114
-246
-231
240
-246
89
-175
-76
-33
-61
313
242
-253
531
109
-259
-28
-17
-143
284
-107
305
104
268
211
96
387
-16
-712
259
-790
-119
-166
117
-262
-96
-486
78
115
-186
-130
-480
-347
-223
289
66
42
21
295
8
-203
-196
-751
-20
-203
244
400
-253
98
64
-129
268
74
289
233
21
6
93
230
-148
-38
-155
151
322
-136
38
244
-118
359
487
-45
-352
1
166
-10
22
22
217
-41
-276
62
-522
352
-455
29
-377
-56
212
292
-22
406
-355
110
-292
-50
77
230
-257
-78
323
-919
-66
897
-124
-199
-254
-395
551
-12
-114
639
2
663
153
2
-188
-9
193
148
286
414
273
-197
-242
-128
531
-40
-235
138
-346
-189
-494
149
-200
316
-513
-232
374
-369
-150
-31
-209
-123
-8
513
-342
55
-111
9
-70
192
76
85
-6
318
10
-179
-272
-185
191
505
-314
-283
180
-364
-277
506
168
-117
-286
167
240
-171
470
178
61
-71
103
-456
36
35
-14
189
327
-330
81
-690
-283
309
-197
156
-569
464
7
-41
-66
75
-330
-28
-75
249
-111
310
-18
46
19
351
355
208
129
-129
-257
586
168
176
199
-222
122
-104
-504
-280
188
-183
-252
-757
-208
33
-387
156
-59
-374
-284
180
-167
-371
-126
577
546
279
6
186
-12
-75
1231
519
-104
22
17
-138
53
-131
-72
126
-622
-448
-243
-75
113
298
-212
150
45
-243
31
371
-223
217
365
-85
86
335
-487
373
-346
106
-19
46
-552
-86
-618
-466
-340
-174
577
23
11
-209
-188
226
231
-134
370
27
45
174
-123
119
350
75
399
254
32
-165
87
-20
8
230
103
141
163
616
-387
-4
-88
-170
51
277
-133
-107
20
-27
460
-58
290
28
320
-4
-77
-386
156
-312
-275
-8
-119
-60
-239
47
357
-76
65
-143
63
8
-23
-624
-222
-457
-134
-21
-122
-408
235
-109
-28
-418
247
-147
-101
-108
40
23
543
84
-116
-66
15
-178
356
-10
112
65
-225
-103
-94
144
219
-268
98
-337
-214
145
181
262
-3
432
43
-53
-312
-277
-206
-216
65
-191
51
49
284
-101
88
-118
136
-139
-136
148
-48
8
118
-15
545
87
212
-333
-32
47
-196
630
-615
280
-15
-452
432
139
-185
-146
-114
-207
399
-200
23
-369
201
406
114
223
104
-264
170
257
184
425
-54
-50
47
-508
275
543
-354
185
81
-31
-212
21
-28
-265
437
475
-164
81
83
107
45
-2
-60
-507
166
-458
-205
-31
261
-344
317
-117
301
89
-440
104
-132
-258
-329
381
123
-5
29
82
52
-271
-85
69
253
-141
-91
-647
-109
-183
28
593
-116
-51
121
-422
198
-146
-16
-261
-219
304
-177
123
199
-518
-126
168
112
-115
-282
199
12
-38
-89
-70
-1
52
-73
237
231
273
-272
168
147
165
-255
-277
-341
103
647
-47
273
139
286
-382
-65
-230
6
373
-442
233
-243
-598
-150
242
0
-287
428
-449
-610
-42
159
-348
183
252
-239
-18
-52
-53
17
-76
156
-446
188
132
179
-589
494
140
-244
-170
290
-170
-52
-457
219
-196
185
-142
160
312
-501
-246
-317
-400
-179
-15
339
39
-14
-148
-363
-489
218
-64
-43
261
3
-22
9
120
222
-152
140
323
139
-449
200
324
-500
225
185
50
257
-117
202
-346
53
40
-478
-271
88
238
-166
-572
270
-349
270
37
-130
-395
-70
145
83
-115
361
263
-177
-19
-170
-267
218
565
138
448
-220
312
-203
-217
108
-9
-121
334
-134
-284
-249
46
416
-331
-249
11
258
-135
-514
59
24
145
-238
-336
123
-174
472
-453
-34
961
58
267
-209
114
94
-10
38
-450
-608
-24
-406
65
-632
-589
-11
465
-211
-221
391
-173
-230
-680
406
78
-410
344
-109
130
148
-407
-564
41
238
-218
432
524
-56
509
-95
-91
560
-838
-412
-275
-429
172
69
-146
737
-448
66
275
-403
108
130
51
166
-110
139
378
258
-290
-239
-167
-350
573
58
-283
-150
12
206
428
-32
74
-287
-517
229
417
478
324
-295
246
135
363
-567
41
-183
-762
-13
-27
107
40
-614
-154
-195
-495
-185
-20
65
-59
568
-223
225
120
-139
154
49
-37
34
-182
-202
-6
85
13
446
212
-170
337
74
580
-316
-536
32
-144
-90
-227
22
374
551
364
-121
47
-98
-440
-15
438
570
242
48
106
51
34
66
183
222
87
106
-40
-212
141
-1
38
-98
-431
-140
211
-394
-2
149
157
-14
46
-374
366
222
11
-64
108
347
-104
359
-146
320
90
46
-228
94
5
-208
-530
-65
-33
520
37
-657
83
207
-639
-209
117
-334
445
343
-274
-515
-202
442
-273
217
-176
104
-79
170
139
-34
-249
-772
65
421
61
53
-94
364
91
193
195
189
33
-70
-180
214
-143
519
256
162
683
-632
-18
146
189
-159
269
-64
-302
-326
-128
-169
165
131
-289
-144
767
-167
124
-234
-402
-328
95
169
-207
-260
17
2
-89
408
-727
-322
383
-132
240
-56
239
485
120
-261
23
61
-407
126
-115
3
405
-222
-361
-55
-7
-70
-212
302
301
-249
379
219
-140
36
492
-274
232
42
-198
-24
154
271
238
89
15
-18
343
-136
-7
-580
-422
140
-238
67
-76
110
-426
200
674
176
665
-363
281
-346
-147
41
28
227
53
-215
-355
336
-594
-50
33
132
174
212
-375
-55
466
-11
-54
-211
-150
328
263
166
-583
297
949
351
142
-355
331
290
-27
28
-252
-348
-18
108
117
244
-82
-305
-322
-373
539
356
-398
-122
277
191
226
197
447
-146
597
-226
19
146
129
514
-229
-93
246
-262
-486
-353
-100
147
-367
-254
207
-290
-533
111
-335
-118
236
-552
14
128
174
-56
-300
-427
-192
54
118
564
87
292
246
-422
149
26
-356
359
346
539
-181
-149
-141
246
-636
-415
-276
-137
-16
-152
235
872
164
20
-377
-180
459
71
250
-17
-394
294
156
208
220
-294
-108
25
77
347
236
63
-302
-66
39
703
34
-369
-52
-4
-536
-433
-198
-1
-43
-171
302
28
-55
94
355
211
85
-165
-234
-237
-422
-351
235
-112
-275
-144
-23
260
-480
-54
44
-143
114
-110
-138
184
202
-8
197
269
-368
-247
-107
-727
-63
46
-82
250
-133
-63
260
-360
-101
-16
115
433
111
-311
243
193
4
-72
232
136
333
-37
185
-268
-56
-77
577
-275
186
131
-592
-410
-295
-483
51
651
-5
156
-2
59
-501
118
127
-184
51
-224
-106
281
466
-573
260
170
-60
449
111
221
302
-190
-108
259
250
145
-68
-747
114
130
138
94
-6
397
-204
491
86
-183
-515
-333
-531
-94
104
-155
-406
203
-269
173
397
349
185
188
-224
-76
631
40
124
236
-165
-26
-175
47
-280
-126
-320
132
-544
174
-218
86
143
-102
275
91
-16
139
176
-79
-119
303
222
368
246
268
250
240
-118
-33
116
-380
-233
342
-625
298
373
166
-26
328
551
-121
-258
323
710
-74
226
159
-519
35
-230
128
53
346
-27
-84
372
-459
29
83
-95
-101
-146
162
17
-198
-30
-191
238
246
-525
-121
-235
362
586
-81
-366
95
-307
286
-40
-157
-225
-106
189
-56
37
-29
-194
-98
-336
-24
78
361
-180
-330
509
2
73
-363
-142
-402
258
-315
560
-438
339
-16
80
-53
-189
670
-98
-171
282
-245
-78
122
-189
114
-294
-335
-243
493
-411
-240
188
320
-488
-330
-75
353
-324
-300
-37
-298
-268
235
-319
95
105
-32
314
95
-96
130
-97
-16
4
5
346
353
99
266
179
-138
38
-40
-453
121
36
-195
224
-228
-549
-79
-9
-124
281
-272
-69
84
378
52
23
-69
-325
-322
767
13
140
166
-173
209
249
-238
-273
-270
210
285
-164
132
-60
178
180
-290
367
212
-113
-390
-313
252
1026
128
136
469
-48
-157
-201
8
-12
-355
837
131
-91
261
-679
-287
-22
138
-105
21
-332
-146
-23
297
32
-182
122
-136
239
288
250
-471
62
-101
84
-205
79
309
-426
-2
-169
-136
144
648
224
247
-59
-169
131
-136
58
137
-108
128
161
95
-98
52
-299
-257
159
-41
41
-221
56
53
64
-38
-854
292
-133
-292
285
259
-108
-462
50
-53
135
343
-489
220
218
391
276
224
-136
381
85
542
-61
-336
190
-17
62
-305
-120
-10
37
-367
490
-122
-178
47
-35
-193
68
-138
-321
-60
-228
-49
1
83
84
-472
9
405
250
-24
75
-138
-376
116
-222
-239
-492
-46
589
131
-99
37
67
68
-82
9
-285
-136
-367
-57
147
158
125
-139
150
24
43
-157
-564
-347
287
177
63
-499
-151
155
27
-10
-16
-98
407
160
-476
163
-402
70
-264
166
520
119
38
334
75
-12
-263
149
-313
-200
-171
-52
-345
71
-110
-44
-99
33
-42
-168
12
-208
116
173
49
-251
-2
88
-390
-65
369
89
11
152
245
217
-310
-295
-144
270
222
39
19
50
-42
129
-184
158
-201
-81
188
-131
229
145
-184
-506
-488
-66
-141
435
-11
-54
-17
91
-345
48
-378
81
234
-289
-191
-85
-402
-46
-279
94
-116
153
-150
17
-216
485
152
8
-190
214
26
234
-613
-249
-206
-142
-93
106
-306
15
-220
-374
-137
-70
45
-133
-197
-23
-125
210
-368
114
143
77
26
-92
369
-366
-201
519
70
-175
-278
22
-205
-747
363
-29
470
-234
227
295
-326
330
570
-399
458
-335
-291
-172
-22
195
107
347
-451
-22
-814
-120
-51
-359
-763
388
474
-403
78
297
-472
-132
257
28
100
-466
359
-186
383
-557
797
-202
-515
-160
-39
-336
-204
384
-329
236
408
192
-297
36
166
-377
-192
102
301
-80
-791
-15
-76
-315
302
-213
96
20
-66
-137
91
-237
575
355
259
229
339
-219
-535
261
173
-195
262
-4
-185
2
-57
-270
-289
45
-199
149
-176
-56
145
158
41
51
-572
-46
154
-142
-264
-53
86
-165
-107
39
42
469
133
-3
392
793
362
282
-9
-245
-216
474
-183
-234
-188
-54
-67
254
7
-95
199
549
207
-81
353
-108
-268
81
-112
-136
-84
20
157
6
182
368
304
-213
-157
-50
401
130
63
36
57
151
165
-491
54
62
-125
284
94
-191
-240
-189
-86
-24
-330
189
-74
-18
-149
526
104
7
-135
-78
-345
-380
-421
66
-200
-114
441
-197
90
377
205
328
492
-508
-36
52
-726
-60
-282
164
353
-81
-464
534
237
876
555
-296
-365
-127
31
354
-73
67
1035
344
161
51
99
-727
323
-116
-288
11
350
-269
482
-250
-37
126
-247
-632
620
-779
562
-606
271
-54
264
-101
208
513
-437
-322
248
467
279
-361
587
105
-165
-355
352
-247
-41
-13
-257
519
364
-292
397
-228
48
-24
-192
-359
300
-33
-141
-173
-90
-1
-381
183
341
-440
330
-209
211
170
71
209
-398
-493
134
92
216
74
-87
377
-152
239
-18
91
1173
75
14
-409
-29
420
-218
199
202
-198
-450
-256
27
54
-179
253
-523
-172
-278
118
-33
-233
-54
-168
175
61
76
336
-369
-128
59
56
334
251
169
339
-61
-50
-393
152
84
-30
-25
-107
125
-195
137
531
-12
116
187
-41
-71
-214
-20
-146
40
-244
-614
52
269
191
-458
-162
176
-23
-166
-113
-435
28
-206
131
59
42
255
30
-117
-367
294
229
-19
-235
45
25
-69
127
146
260
-337
-80
-32
-78
-284
-470
79
78
-287
231
-485
89
-324
97
141
502
66
-282
295
423
-92
-272
-5
-330
-94
-98
255
-405
-395
-20
298
-6
-152
366
-248
-119
341
425
-510
-170
252
-39
390
-165
-129
-172
417
-102
95
117
-62
241
-184
206
-355
648
288
-27
177
-266
-306
453
170
233
-98
-49
334
-208
-354
434
680
-405
-37
12
-377
-568
485
-225
249
5
42
138
-254
564
-3
459
167
-152
-64
244
311
-91
-70
272
334
-349
-423
-17
-154
-108
63
-514
-275
264
280
-221
-91
-78
-189
461
-76
281
166
-377
101
468
-44
107
363
82
-241
-202
-394
-84
-319
254
-48
-161
54
350
-506
-134
-102
-142
-141
-129
62
-47
-115
91
78
-287
188
105
345
-138
325
-76
43
-74
-248
434
-644
-354
160
-20
-185
170
-136
10
-159
3
-439
218
-57
-421
-110
83
217
343
-469
-35
437
99
-14
72
121
-371
48
189
-207
-133
391
130
687
3
41
155
-204
19
-206
-118
-6
175
-242
173
-125
-93
-53
-216
-182
-58
472
-200
-265
-142
41
-9
-510
-88
256
119
200
-227
-128
-28
-474
-107
256
427
-185
-164
-137
224
156
487
-357
414
139
589
30
115
-70
172
-564
254
-95
810
-271
57
123
162
-86
-447
-219
103
-646
-231
-154
45
-55
-74
134
-196
332
-179
-42
-370
531
-52
-403
463
-424
422
288
-653
246
-816
-108
266
-142
-463
94
-132
307
135
700
-96
249
-176
261
-211
-500
-14
169
226
96
-250
-90
-394
-236
31
254
-158
-893
-224
521
87
259
237
-626
43
-137
-97
5
-319
249
207
-165
178
28
-137
167
83
45
-392
-304
208
-119
455
-128
155
87
-442
-20
76
279
-373
45
104
-292
56
-276
-401
117
189
-223
108
-24
-372
-177
134
-144
-258
-348
111
132
-363
-3
561
395
-165
114
190
-97
180
-22
-112
98
-689
199
191
239
-64
-123
-360
414
8
517
-98
-316
122
234
-212
-408
493
-333
-319
-92
-320
104
223
-102
7
-41
88
47
-46
-69
75
-589
-14
-96
-33
0
328
-394
79
158
149
-418
-213
-1
253
-10
-82
-122
242
71
-143
-87
-59
-154
-72
-220
221
-94
56
-198
225
400
490
-219
-196
401
83
-338
-116
-34
46
-90
-172
156
138
307
-52
237
485
-104
-1
226
-112
-244
-95
224
22
514
512
273
-84
-165
-82
-498
424
-5
-295
-12
-34
-178
19
468
190
343
66
62
163
526
-78
-469
-117
264
123
-383
297
265
-66
503
-106
-150
112
58
142
128
365
-403
-612
-85
-5
-202
148
142
-41
-285
122
466
-47
237
170
-416
41
307
-54
42
-111
-496
326
-500
-289
399
-396
-232
386
-12
334
-137
-487
255
-280
-386
-132
-185
113
167
-691
-199
-755
-90
682
-42
18
-245
289
383
-66
351
424
-407
64
-11
243
-217
209
423
-290
2
-631
118
55
-49
27
170
368
-53
20
213
-195
-18
199
-620
-452
357
313
490
176
-89
564
-40
20
229
-236
-123
116
64
99
150
-12
63
-521
145
-374
261
309
-225
-313
424
141
-221
407
236
-191
-166
-68
-336
124
-551
-252
-123
-303
119
-367
-127
455
198
356
-255
-114
5
419
567
-232
-61
367
95
-294
154
223
150
261
-236
301
519
778
-30
-315
894
-200
-342
8
-627
26
100
-260
-88
151
-197
-215
495
5
110
-228
327
-189
72
-48
170
-353
4
179
383
212
-165
598
551
-665
-53
-93
-317
-166
-165
-201
-44
-688
180
427
-298
96
366
-213
-131
87
-163
416
290
-64
-324
-140
300
130
322
714
-488
-67
134
138
-73
117
218
162
191
-341
305
-8
316
-723
-230
417
-701
-18
42
-104
-183
-124
-69
-117
899
-516
-404
127
-391
-54
-210
4
371
214
-100
860
-29
-328
-266
5
-235
342
-316
-248
155
29
-242
548
-15
193
565
92
-332
-564
-102
195
-471
-131
-5
-54
250
133
19
-28
-19
461
-556
45
-123
57
-364
128
489
39
-36
-17
-219
-148
-263
296
-429
62
-77
61
59
-346
-145
-76
477
115
393
-56
-388
-1
-17
-246
-164
192
362
148
-72
-16
-453
264
241
-129
-331
-226
-154
33
-444
159
295
139
-259
-352
321
139
127
113
108
596
-180
-90
-604
-345
172
-550
148
208
305
-332
-372
53
98
170
-34
284
-84
261
62
66
170
601
625
299
-151
-105
-25
11
-240
160
-239
285
-584
-88
69
134
345
-413
-19
136
379
138
94
34
-331
345
-416
241
242
27
12
-83
41
14
-257
11
-630
-207
199
-637
262
462
139
132
149
60
186
-237
-174
41
18
-60
-150
-201
-221
116
-186
-100
-278
318
-6
-88
74
-14
281
248
71
-346
256
100
259
-181
-2
-179
69
370
-387
-401
-32
143
128
-143
249
270
386
489
-35
182
402
-28
-167
384
-193
-142
-168
472
346
-377
28
-331
-313
25
-98
196
-116
279
364
6
47
85
37
-67
628
236
120
156
2
-167
-426
51
-126
-208
151
-178
-379
302
-69
10
59
-245
-525
-595
207
26
193
43
326
639
50
276
-51
-521
-233
373
-239
-193
330
-138
84
71
26
174
-167
89
-157
29
474
-119
326
107
-419
61
424
-58
93
-156
-516
39
-337
-51
-46
-2
-88
82
15
-90
-217
60
154
105
-136
-546
-480
313
97
-271
-60
192
254
116
-11
347
236
-104
-156
-111
2
68
144
-17
286
-230
288
298
-148
-197
-100
7
-562
-216
-87
-88
-430
151
-273
-3
-7
118
371
53
76
-218
142
-429
216
847
-326
630
200
-269
-256
-9
-282
400
131
157
-556
-15
85
-192
-32
-106
-178
75
271
297
-133
93
334
-91
96
95
-61
56
438
180
-283
-353
518
270
-245
312
-224
-333
-382
-225
48
82
-239
-328
-647
42
458
-41
113
-151
192
150
-46
268
-262
-77
-279
-67
-418
-411
398
138
169
178
-21
-423
-69
151
197
-43
63
20
-50
-36
109
-155
-182
-109
-196
28
379
-405
-372
-299
413
3
173
160
239
-291
-148
296
332
81
-88
-370
117
-214
-307
-27
-267
-344
194
38
-128
271
130
70
-209
582
260
-276
-359
-70
-509
-520
497
-210
454
180
-31
-115
1
413
128
97
516
-258
119
-300
-211
214
184
201
240
-15
-386
-36
155
230
157
-653
-312
-12
-174
-565
-198
89
-237
-25
402
-94
302
-400
292
480
-290
-51
-51
141
-78
-255
98
-102
28
111
-254
-295
651
-257
84
-247
21
-12
-221
572
-640
351
168
-129
70
608
-531
-527
503
-453
503
65
-34
146
-785
192
281
-455
-308
34
293
-26
239
-237
-90
-35
-123
38
242
-306
-148
6
371
289
-50
-487
263
-334
-309
113
-243
-196
12
59
-462
23
253
-400
533
-250
180
38
-259
125
-248
83
-496
190
-534
286
581
-207
374
-272
510
29
-14
453
328
579
67
282
-635
329
-93
-120
-197
492
83
-300
-164
37
-257
47
-425
62
380
86
168
54
-384
-225
412
-68
-508
18
278
14
-37
70
-17
-21
263
-475
197
248
-42
-90
357
-101
-106
342
-136
-569
371
-86
-463
-242
37
-32
33
227
278
333
-19
234
-134
338
-671
20
166
75
-207
94
159
297
-209
220
-77
-124
134
-80
-33
507
162
14
751
-95
-342
-142
261
-342
226
22
217
497
170
614
-207
-433
-45
31
-85
73
-24
155
-518
-137
9
-108
-202
96
170
340
244
-272
95
-178
47
143
-659
265
403
207
458
-161
-313
136
-271
-273
109
274
4
367
-16
-281
392
31
-343
-325
236
342
111
-200
-631
-50
-63
138
-61
77
-194
-184
-177
16
-223
-253
-475
-403
376
40
219
-17
-389
136
50
134
-11
-494
400
-330
-88
-85
-176
309
-118
-101
48
171
-311
251
-27
-411
-305
-307
12
-13
-232
14
105
299
-415
408
321
-271
65
-213
-9
92
-315
56
442
-17
240
-143
96
168
-91
50
-239
-240
291
70
271
100
-255
262
52
31
175
97
-11
-66
-6
475
-147
-147
-347
338
335
-195
53
302
-30
43
-224
-307
2
24
199
-165
178
-49
635
-206
-154
-179
-10
-174
-67
-137
-73
-57
258
-44
-231
-269
-137
-142
-188
-214
290
146
347
302
-451
103
-430
242
508
102
-88
-58
30
197
-9
325
-97
26
-601
318
570
328
-137
-6
-118
-319
-378
306
-177
-81
-229
585
328
334
188
-117
421
327
-653
-69
-522
404
-126
46
210
-415
-237
-495
-127
-121
314
-5
-80
-55
-66
107
-81
-360
-410
618
122
-31
141
-74
-185
131
392
-56
265
147
76
231
92
257
164
118
-258
-19
-26
-44
-29
-102
-23
20
206
27
175
-33
-1
-137
-261
-95
-425
-47
-96
-35
167
-56
-36
90
-471
275
-137
142
-384
86
38
213
96
-350
-32
133
-20
180
-422
83
285
129
68
79
339
405
-265
-161
-166
89
276
-213
162
-143
30
-23
221
-72
75
403
-509
-163
-269
95
-285
-430
-93
45
-212
-8
193
-2
-228
-49
-186
-269
213
25
127
-69
-101
-256
-100
-216
-104
-33
-111
189
669
-87
60
471
200
105
517
-104
127
-481
-59
-215
-88
298
45
8
230
-187
-162
-306
193
-73
-214
-117
-65
45
164
-227
37
-24
-271
376
-133
156
-310
207
249
270
-59
-437
-223
309
86
72
-337
-347
13
-121
-208
-394
-164
114
57
64
179
-103
132
-628
112
326
147
469
-244
-163
283
-47
36
-133
56
-105
519
-158
296
-19
-72
276
-450
-27
11
499
-423
-49
112
-89
-285
194
352
-264
-122
-424
-128
-413
-99
298
-272
-80
732
-254
94
279
-341
121
-393
-229
41
-226
70
-227
-218
339
-29
77
327
41
-414
441
304
-127
-221
13
106
-253
-218
20
-253
-459
-401
-290
-109
334
104
-345
-109
-281
-141
167
80
406
219
-44
-66
143
-230
-254
-223
-102
-132
-294
-101
26
200
205
131
428
-43
-525
152
-30
156
407
196
2
-334
127
-98
106
239
166
17
-187
-332
127
-120
-187
-114
27
-423
168
112
36
-151
-66
-319
49
-562
-151
85
1
38
-108
-280
-267
-240
18
417
-221
254
-65
77
88
158
-23
473
-2
99
-3
-179
-33
-276
-44
241
0
381
-70
-55
-36
-39
-49
-6
179
-247
-269
135
59
-169
269
-233
22
-237
206
278
-149
114
-262
-143
-222
-208
13
355
240
45
109
-195
-95
-36
-179
205
-14
205
-84
32
-106
-3
263
13
-191
141
-316
231
187
-240
-52
241
31
-218
-32
-214
84
90
-210
1
-70
108
345
26
205
244
14
114
67
74
36
-812
90
-87
-472
395
66
248
-296
-338
-173
261
-181
-163
-104
485
349
-301
-21
-260
261
-296
-239
292
-278
236
-86
-89
-203
-128
-379
622
198
-492
278
218
32
129
356
37
-534
-664
269
-148
145
-219
-301
94
185
-225
12
115
147
202
87
68
-326
-99
167
-88
225
-286
-274
43
-298
5
407
17
32
-275
13
-428
-90
84
182
748
92
428
44
-224
91
277
460
-164
-142
83
13
-32
-328
-147
14
-75
200
-297
57
44
-250
-372
-649
-229
-105
335
76
-45
307
-54
-171
-103
149
-314
-372
-211
-410
524
-67
310
-64
260
208
-350
157
-81
-156
-60
177
-84
-235
-155
-87
424
372
96
-273
-388
-92
452
81
-214
218
-347
-303
-138
-312
40
-57
37
-613
14
45
626
101
-340
304
37
342
284
-228
-211
95
334
429
60
156
163
249
37
-66
-125
159
-361
-46
102
-210
194
47
-258
-149
-497
-145
-527
383
202
-117
301
160
-373
160
289
-188
-37
-336
67
315
268
-126
223
-68
-337
24
51
533
-452
403
108
-206
-393
15
22
310
192
-429
204
151
64
154
135
-282
29
477
388
-123
303
-33
-434
-48
-299
33
-353
242
35
-46
284
-247
152
-521
43
354
-92
269
302
-101
22
331
89
183
-343
-130
77
-220
9
-196
-277
80
73
87
82
-150
-407
-222
27
-6
-53
290
342
129
86
-38
-158
376
-243
27
-35
-40
166
-289
-170
-162
-188
252
49
413
-153
-252
-142
-43
61
135
134
-239
77
776
-524
-28
-32
110
-209
472
-124
274
-45
-201
127
-19
-155
491
48
9
200
247
27
127
-443
181
-8
-516
29
214
189
-519
211
-57
100
259
66
-30
-108
301
-295
-1
14
126
-729
-438
-186
260
-215
179
-264
787
-99
525
68
20
-406
-356
-99
137
180
-140
-341
313
-18
181
-32
-458
-83
207
-156
210
-267
351
-249
70
60
112
-496
138
-353
-238
28
-297
519
298
48
622
-46
136
257
94
313
258
34
129
-380
-113
-284
554
-123
3
89
48
-72
-60
42
263
818
-379
465
134
57
-324
-388
927
-187
-289
-389
-155
-212
200
-131
-105
-380
307
-190
43
170
61
229
-595
-390
94
43
-35
580
206
103
2
-308
388
370
91
194
365
-162
480
296
-478
61
459
-506
127
-67
-257
-129
-130
553
-107
-162
199
-352
127
153
262
-240
16
-453
19
105
361
5
-224
-295
187
142
-233
151
-114
-273
832
289
131
-35
5
190
342
706
-77
58
266
-374
-105
157
45
46
41
-1
-198
53
633
13
-90
356
-41
-346
-388
-489
-211
-87
-309
161
83
-248
-13
407
-517
275
430
495
569
-132
175
-36
268
612
27
163
148
-358
-185
-404
-120
333
-139
-148
-166
6
378
11
380
57
86
-448
155
482
333
-165
-206
-72
-114
85
-291
-273
239
565
47
-30
-251
-157
177
-8
232
-4
93
-62
220
-28
-229
115
-124
-127
-8
631
-17
-222
-256
452
280
37
191
-80
-393
113
205
-170
215
-258
-111
-116
-398
143
11
-160
-164
64
118
206
287
316
282
48
395
-84
212
-45
318
44
-114
-425
-171
-330
122
129
-401
10
112
-153
78
-15
35
-125
-95
-85
-208
-217
-26
298
274
89
194
56
376
-116
-94
201
-182
-436
-29
536
133
-131
34
-388
100
181
-396
192
48
-101
-115
-133
814
-248
442
419
222
-221
-193
79
-11
186
520
-7
-273
-94
286
-135
-89
402
-254
360
98
-271
-522
-10
336
313
-181
15
152
60
42
-126
318
-319
-227
-602
-539
-337
-465
-77
185
315
209
-177
71
314
-420
-513
79
274
-161
481
-214
-32
-783
194
-29
-141
71
386
-79
89
-324
-512
95
-382
375
-182
106
4
548
276
252
-19
-152
283
-132
67
182
-423
492
-152
-242
144
-90
-130
365
106
-420
28
-346
-260
-192
-170
97
-107
-102
-22
-157
443
100
161
-187
173
-301
-90
-80
59
164
45
18
120
-178
190
-625
-53
-555
295
236
-128
-307
154
143
-62
-4
141
-85
-132
129
-471
110
-74
-404
-456
-484
-95
-26
401
52
410
164
-297
38
511
139
-235
128
-137
219
445
-108
-98
-156
49
-153
-130
388
-470
164
-30
-168
177
-70
-163
-196
389
-13
-206
284
368
-495
-213
-224
-148
112
187
-75
-34
-29
-107
215
-403
-72
-151
280
-119
-238
-243
-42
128
-167
-85
75
132
-819
-6
390
-312
120
-240
79
-296
376
65
-453
-239
31
-115
70
-104
258
-222
-248
-175
-115
-11
-160
117
-44
-91
-39
-144
-4
223
-9
-235
-439
100
-58
-285
-36
-387
381
42
-246
91
-42
-438
-212
270
-89
183
236
338
53
-305
105
570
125
339
172
163
409
-259
-317
-178
114
139
-1
267
-167
-165
-40
37
-289
-279
-186
-72
-258
-27
309
71
-155
-259
41
-72
17
246
-395
176
397
211
274
-78
-191
-415
-237
392
-172
-364
8
-524
-160
355
8
11
263
421
-58
-153
20
554
-217
-258
184
59
27
540
145
-163
-17
186
277
212
-174
248
-223
816
-258
14
132
-2
-204
420
216
-293
-558
-100
-173
116
-170
315
-124
82
79
275
143
271
-119
217
1
-459
-259
-105
136
318
-316
-345
365
-103
-326
160
55
204
-47
-193
230
-365
280
574
-68
112
-102
297
-270
184
424
-180
260
-384
100
165
63
73
-357
82
205
-45
294
-264
-44
-249
-105
86
137
367
-493
29
-2
-484
-241
-194
70
181
297
170
96
469
102
-53
-131
-464
-260
270
-184
144
113
293
-79
134
-165
-311
178
-40
-242
-20
181
-77
350
-535
245
237
138
143
-265
214
-40
44
-455
43
46
304
69
192
-52
-108
96
34
-67
-290
-38
-203
-399
-221
25
-432
-275
-165
-69
-155
-134
-274
27
-565
252
-381
112
72
186
40
-337
-9
-210
-3
426
-37
-7
-24
221
31
76
-386
1
240
80
-327
222
234
116
-24
309
-77
-296
273
-102
114
23
365
155
92
-243
145
1
-324
-123
29
427
182
-135
177
-14
287
-546
150
-210
-52
25
-215
18
408
125
-7
5
-164
61
-58
586
-275
218
28
118
17
222
124
-210
45
-206
-134
259
61
-393
-462
592
-397
33
40
-629
254
42
30
127
296
120
-57
-71
215
257
153
-203
-114
138
8
-48
167
69
-269
304
-299
177
269
75
135
135
-224
412
303
-351
-11
-206
167
183
-299
-71
-215
152
-89
-256
511
252
-68
-271
-438
-194
-40
-52
188
57
195
-440
-380
466
-176
108
-375
-146
62
-28
-3
138
-356
431
48
-126
-247
-263
370
-190
397
-245
52
517
-243
233
233
411
206
401
-81
102
0
-515
212
86
332
190
-84
-326
-116
100
85
214
5
82
-104
-218
-70
176
-270
262
27
-169
-118
-67
-137
74
-450
36
441
265
193
-245
-65
-350
159
121
-171
-232
-60
-351
18
467
46
8
254
-192
341
-41
-172
529
397
-125
-81
35
-57
27
-178
-188
-62
-256
126
454
-55
342
-105
54
-95
302
119
265
-64
139
443
122
-206
294
99
0
-206
136
-476
14
-393
351
123
400
54
155
-133
-107
-367
606
215
-337
402
366
392
-436
120
92
-475
-36
-39
-174
-383
95
-330
-283
84
-164
270
133
262
-88
-247
-167
117
86
-210
163
-547
-357
241
-264
-116
-453
73
-1
-481
208
356
-346
282
124
293
228
147
-48
-175
-548
252
717
9
-94
580
12
-156
73
-340
129
-99
-251
105
403
-256
279
-213
400
526
291
32
232
-209
418
-722
191
275
110
324
-273
-783
-202
-327
-437
172
-395
152
-64
-35
149
427
537
107
-382
362
73
-15
348
75
-235
-546
138
-471
10
-305
-114
-277
145
252
-162
529
219
50
411
-291
82
-12
-249
-475
-412
-367
131
173
96
-311
-452
65
142
197
-396
-2
159
-128
250
28
-146
-382
122
-164
-161
-178
32
350
-538
-292
-362
532
447
388
-205
80
217
72
-145
53
31
-374
-432
28
-71
163
-251
263
-157
-543
363
79
13
112
163
-104
185
67
152
159
-193
-190
4
136
-149
-72
-43
-77
-27
-379
131
-197
-210
-21
-892
221
18
6
-196
25
230
-550
-252
3
180
152
304
-192
-18
653
60
-226
130
-287
399
-2
-398
-425
-42
256
80
-462
227
-197
-61
428
474
501
540
-441
751
-394
34
66
311
-334
420
-397
10
614
326
-224
467
-379
153
-437
-137
157
-330
365
-143
-11
319
407
-340
-200
-337
-16
-325
-200
-655
-253
-181
-98
-41
-388
-150
168
131
-416
-12
424
123
440
-20
-285
-111
-702
100
296
-13
-52
-225
644
317
-357
428
-604
29
161
-148
393
261
175
35
-47
-100
83
-371
-131
-56
175
-73
2
215
-627
-74
-77
-449
-199
-78
-192
-139
713
494
-324
42
-399
156
84
