85
-273
55
-252
69
111
318
202
-498
-323
-84
-152
-32
358
-210
334
-300
160
247
-342
44
-291
-73
134
-166
-156
-427
-196
101
1
443
534
-117
113
-196
29
-196
678
34
-453
196
-536
204
460
-315
-543
-120
-101
212
646
-815
-60
-366
-432
705
-182
527
73
95
-71
255
-143
-11
88
261
233
185
23
-548
-57
85
670
1
-45
196
-169
690
458
-283
371
539
-369
227
157
-162
226
-208
-55
190
365
-42
-188
109
64
-226
-131
-392
-234
358
-89
643
759
258
110
95
-308
248
681
-281
-368
171
259
-112
-164
379
-638
-89
-115
-450
-828
-85
-314
215
-678
-367
-750
-675
-244
-61
51
-30
20
11
-26
-8
-469
98
412
-172
-356
-139
-235
-499
-363
232
487
-576
-336
470
11
-77
-222
-122
210
-198
576
-92
-242
-636
-42
-55
447
-298
60
-381
301
-124
319
167
74
127
61
170
454
-730
28
680
116
-99
-459
573
13
-412
406
-57
-131
268
342
325
-315
137
-240
125
269
-103
-484
-171
485
-121
203
-42
333
-21
-497
-103
-30
369
-359
438
207
146
284
220
467
-59
5
239
-308
278
-53
-535
-421
433
80
46
-275
413
7
-58
-442
153
128
-516
27
-132
-83
188
529
133
378
-40
113
169
-91
103
-755
150
415
278
192
85
-851
334
-3
113
186
68
285
164
-26
-123
-443
-77
-757
-341
-78
-487
-535
43
-17
-23
471
263
406
-25
-223
14
-120
-143
-673
214
-2
460
576
-268
523
316
17
-115
-14
294
425
-103
-36
-36
411
-464
41
-169
944
266
-22
33
-103
129
-68
-147
136
-162
476
114
60
251
-27
-299
271
143
306
-324
-112
-64
-190
-217
22
435
385
165
89
74
11
11
-106
182
-387
-47
-290
226
-450
-130
-74
14
-95
344
28
-280
49
-231
53
435
196
495
-541
119
-152
165
-83
-123
-310
-289
723
338
-75
16
-93
-63
39
91
-236
124
-701
-84
-317
-8
175
-513
-117
33
-308
-455
-606
145
318
-45
261
-96
238
-55
201
-3
365
-393
204
-150
-276
-190
-173
344
-431
-203
-227
136
-23
-23
-164
-36
207
-90
-153
5
-125
66
-173
25
-456
182
-4
-9
540
338
-33
-425
563
-56
-72
-173
-390
-21
254
-273
-153
-519
279
-137
-23
-386
-116
-13
-161
60
-161
-92
642
-42
207
-129
-68
-113
412
452
91
-215
-247
-122
352
138
-233
36
-38
-34
45
431
-185
-275
-171
709
-322
334
485
15
-389
62
185
-250
-21
-17
-279
153
94
-257
193
125
-309
-28
-294
172
93
448
-244
-506
-116
47
458
-81
383
-415
538
-194
210
354
-512
119
261
-376
104
-17
-486
230
129
-563
364
-674
-78
641
84
-120
-378
-64
-31
214
368
95
331
83
506
512
-632
287
-81
-241
-320
-179
79
-61
232
51
-629
-156
-380
-405
-129
85
62
-9
-21
-312
-24
-3
-74
-137
374
-698
306
40
455
43
-137
-220
-238
-37
287
-156
-136
284
313
-409
188
-244
-131
-338
-43
-31
-207
-77
-416
-585
-43
-458
229
228
25
-203
7
-168
-532
26
-108
-256
24
358
-23
-17
-431
-247
616
194
-471
-229
-300
-303
611
110
41
615
-54
-455
-222
-335
-260
-106
-368
41
50
-529
239
202
-17
387
65
373
-173
133
-67
-376
297
210
374
130
227
-633
529
496
371
-240
283
246
64
-7
-155
302
336
-141
-242
214
-436
-305
-94
695
-189
7
-134
279
38
-305
-111
354
330
42
-233
353
-308
520
-270
121
-600
-3
65
-282
-557
-144
326
169
-139
228
-357
104
31
353
-240
508
-526
143
49
26
-188
377
-365
393
-287
-389
185
374
699
-188
265
175
-223
-2
29
-65
-109
-69
63
316
206
-121
-290
254
495
612
-224
-140
102
-141
23
234
60
162
371
743
-51
-62
-407
-550
335
294
72
-49
-43
82
-115
-238
478
-231
-379
141
-69
6
133
26
143
-140
-338
-38
-124
817
111
-162
-568
-605
-289
-295
21
-206
165
-59
275
-67
601
162
137
-19
-230
406
141
186
124
613
-277
614
-148
1
-201
256
412
-195
-257
-756
-603
1
-280
-85
-2
-43
-69
-793
-584
211
501
280
-931
-435
-153
-118
-527
224
491
-196
188
247
103
-171
-110
238
106
-370
-501
-276
-172
202
463
-349
290
237
-280
-96
-160
14
-185
45
152
251
-392
281
-433
-333
311
-318
-331
-21
-404
-347
119
-292
-714
103
-126
-628
293
-261
-298
-279
263
22
264
-730
-599
-95
-579
-594
-166
192
-137
-123
-420
692
-785
-401
-151
-194
-138
-285
194
483
164
588
-304
282
2
312
-33
356
-57
554
84
466
-789
429
-453
432
-766
245
202
-499
215
338
-121
624
84
-218
80
-166
-99
95
107
-173
-244
215
227
-672
-524
-328
-62
-322
319
174
-374
-162
164
329
-309
578
96
-49
-54
-388
332
-1024
520
-643
201
246
-279
-54
-95
-153
176
239
-278
-185
-240
617
-9
276
-80
-170
-863
235
-877
-147
-47
1
-198
97
-94
-1199
-16
205
-591
206
-579
428
-313
-6
54
253
174
73
-474
-236
-33
301
-417
601
36
-215
275
66
-205
219
165
-830
-397
25
116
-515
-780
49
390
357
192
-252
-78
98
-203
-164
-323
-139
-440
251
174
-179
-278
121
-216
-4
-429
87
59
-447
-144
-867
33
19
525
-412
-22
-307
-372
-57
-173
-377
-54
-339
516
209
340
-510
-9
394
291
72
108
-473
67
78
52
427
-213
-87
335
-39
152
-575
262
91
-30
-390
-417
282
367
202
-460
250
-235
-120
-130
-278
-253
-95
-364
736
196
-192
30
-190
-397
-148
-409
94
257
499
-339
112
-167
494
73
508
162
224
-444
-240
348
190
-421
67
-136
68
-69
-89
42
-380
-202
42
-103
66
-334
99
-352
131
126
-325
-471
79
-55
103
-266
-834
-393
315
82
-249
-46
154
418
240
55
-411
191
28
-412
460
-29
-15
-489
62
43
-172
-284
-180
122
-75
162
-98
-39
-163
-38
129
-124
-246
-3
255
53
60
0
-182
324
99
-249
-231
397
-51
8
283
143
-47
150
103
184
-403
-502
78
-110
-390
114
-430
-176
383
-35
26
460
-336
-374
-27
365
190
-353
133
419
-12
-384
-36
-220
219
262
-212
60
382
8
-424
649
-74
-468
56
-25
285
107
161
-191
90
444
393
440
50
384
-285
-69
-123
-189
-202
-30
-381
209
-257
184
4
305
-134
-534
115
173
216
-359
329
-188
-130
212
-70
531
195
-104
40
-237
-170
-460
-43
56
-275
76
20
-94
-137
-246
-152
-376
178
388
-253
-11
-103
136
416
-6
-265
-124
-60
-281
127
213
-147
60
-226
-550
-13
327
-146
380
-271
113
-56
1
806
-297
-405
319
63
135
242
-278
128
-173
-9
10
-789
88
-55
-6
129
-194
117
494
-439
35
41
-12
413
52
-218
1060
81
-104
220
366
99
-122
-151
130
616
59
195
46
-662
-75
248
-450
-15
801
115
907
-107
3
-22
-130
381
-68
383
-68
-106
-749
521
-142
-160
437
35
246
-267
-278
64
-68
-39
-583
201
-201
543
181
457
-257
106
222
-85
131
147
-413
-267
-256
141
384
299
-149
80
-8
296
-38
441
88
360
480
-9
107
-238
-82
350
505
-93
-529
-2
656
521
758
-317
418
-90
300
-144
294
-253
226
-42
-338
354
325
-491
767
25
145
-229
-108
61
391
-287
-110
-212
296
37
155
-737
224
-282
473
56
-9
-60
686
-20
181
146
166
266
499
329
-144
632
132
-169
-193
277
-240
-15
233
-32
-87
957
455
511
125
335
-352
227
306
219
134
531
-89
-758
-337
-136
-43
186
675
840
410
55
-724
271
-115
-291
-177
-315
240
806
-124
-140
709
290
-304
83
967
-579
-22
354
430
-21
481
-104
-528
303
183
352
111
87
344
121
62
111
-296
456
-98
922
-254
-204
67
396
39
-569
-28
469
202
-89
350
-429
94
5
-261
-180
-336
72
316
-75
-169
-338
257
-439
41
-43
-332
-288
159
55
23
-243
44
652
583
330
204
-155
-21
417
-587
-197
323
329
-277
136
276
-321
291
31
664
598
228
203
27
582
194
-163
81
649
162
75
627
-14
45
-482
21
73
293
277
-257
397
-389
148
-498
186
1209
-576
-22
-167
-28
-107
-939
-208
266
-390
-25
11
2
-369
-1
58
-314
264
-9
506
-108
289
-139
-41
207
22
-242
-18
-409
53
-320
-213
-206
223
177
34
192
187
48
-244
734
-400
653
-242
420
-271
-447
44
307
513
-101
-229
67
-519
42
-538
-391
166
458
146
86
-66
-385
7
16
-68
-299
-804
30
-712
299
-148
178
-725
269
-435
-906
6
-156
-214
51
-187
2
97
46
472
371
943
119
303
-330
28
756
206
-183
90
-138
-28
66
60
-103
-488
197
-131
552
-120
-233
-115
-112
-139
397
386
34
-20
-128
255
311
203
129
-282
97
-436
205
-178
-7
-302
117
167
122
528
-365
-20
-523
345
301
-629
-49
-412
9
159
256
160
-270
-38
-409
50
41
129
-33
151
-511
473
736
-201
-9
66
192
178
-18
-590
501
-3
-149
-131
467
474
-400
230
140
-231
283
728
232
-45
-231
-248
-996
-133
-261
-580
149
-181
-214
268
99
-85
-18
187
-83
-56
569
-570
229
-239
-43
116
22
-370
-1097
403
145
-426
204
-337
86
-311
248
-118
-74
-4
395
-89
11
-1148
-95
-10
-3
-364
-663
-665
-327
159
44
-224
-508
-74
204
249
150
88
-223
-207
101
-176
-353
111
-145
-93
121
-105
81
-29
305
143
-420
-117
985
345
391
65
64
267
-428
116
571
227
182
90
221
359
67
231
289
-113
-187
471
791
120
-276
-272
236
127
-258
518
-7
89
0
260
36
-7
-436
19
215
-2
310
269
-46
-133
267
-157
57
223
392
-29
-342
-127
219
63
-183
-12
161
358
-249
711
-76
-118
-202
62
33
-265
99
324
210
-67
-15
352
-96
192
81
221
-56
674
287
-150
694
621
199
69
560
-135
-121
192
144
608
187
-276
300
-170
-208
354
119
466
-96
-89
108
-185
37
-52
89
-207
440
-73
-25
-120
296
40
-161
963
-636
53
-153
354
481
149
-209
32
285
-86
-8
-296
-63
-503
-54
34
563
-256
547
486
-443
265
-4
121
-204
-202
-402
28
512
187
123
862
-466
375
229
646
-359
-423
357
-51
-303
-313
696
74
123
188
876
304
-193
31
229
138
10
-206
264
-129
47
967
-169
-112
-19
377
91
-155
29
-75
221
113
695
-97
128
359
-134
-70
-101
103
422
826
247
501
636
-330
131
315
788
51
550
224
40
32
-85
107
111
-246
544
161
369
116
-97
362
65
222
-75
-149
232
223
-33
108
-254
244
253
247
574
547
672
28
122
345
664
156
140
-505
379
397
-31
-18
-110
18
21
151
287
-332
-460
-66
-151
-222
711
141
30
106
-43
51
-464
-139
-362
-254
12
35
-32
120
16
98
-496
344
691
-10
67
434
-168
124
-139
-72
-441
2
-87
-643
255
-371
95
22
-129
231
-203
312
-344
272
202
-223
194
129
172
154
-499
-183
-5
-507
-510
66
-135
109
7
-319
-90
-350
55
135
-83
-172
-534
-79
52
-57
-617
188
131
75
238
-101
-173
-530
726
-225
107
-148
-479
-299
-406
-1
-448
-43
-257
-420
-460
230
-216
40
17
-292
222
-372
94
145
-27
-535
-284
-395
-334
438
-73
-199
-135
-136
-445
379
-485
219
-82
144
-235
175
47
347
127
479
-191
657
-16
-420
9
-259
-288
206
-981
-135
440
-119
226
-66
36
145
-330
-326
-308
28
293
202
44
-458
-139
-243
55
-324
-73
-309
656
-286
58
80
-346
127
-125
53
156
-25
-51
-488
717
18
-443
449
-269
-402
137
5
84
231
-954
-211
-48
257
276
363
132
-785
196
142
861
-123
-389
-225
-144
100
-127
-734
-14
-523
-6
66
233
153
-266
-19
-43
-772
524
-359
282
101
308
186
-255
-4
264
-38
241
-357
-150
-170
257
-66
-377
-45
166
-153
292
-605
-596
-58
92
41
27
-247
29
-246
323
-74
-31
-484
-394
-253
-237
233
-374
-269
-211
-124
-188
174
-403
146
194
1
-3
-101
-123
74
107
-9
122
-145
14
266
222
-419
375
95
141
100
369
448
-599
242
762
-226
449
257
29
274
-423
962
260
-78
835
71
123
236
870
-352
473
-197
-1020
397
-16
-35
133
-317
-275
-520
-25
339
822
-518
-234
408
786
-18
-162
-39
1102
184
267
71
463
434
241
-83
200
-268
-30
163
-243
709
512
149
-2
-249
102
-357
-320
170
82
61
-171
-319
65
-375
-814
500
-99
-478
167
-186
175
181
-296
508
-132
111
-123
-6
87
586
21
81
129
-418
52
-196
831
-289
-194
-71
-365
-147
146
197
349
6
-194
119
778
-252
555
204
-443
-54
-101
-354
-236
340
308
-72
-37
-423
-557
303
-18
115
53
911
45
-255
198
-324
368
840
-91
270
-730
-236
296
17
233
78
558
35
209
187
-196
112
200
185
-323
-305
316
34
-15
672
261
-5
619
-30
19
-176
-11
-210
156
-245
-678
-317
438
-180
611
-265
-134
-222
240
-424
-615
-406
-280
42
-32
465
-117
-407
-53
-97
-537
554
-9
-72
287
134
-234
-66
-609
-515
559
-208
358
274
84
546
-286
551
310
-144
-19
-256
676
754
374
542
-401
23
-392
451
-441
126
-151
-429
-835
862
-69
-486
-39
359
-253
-185
-136
-136
-6
-336
-336
216
87
-25
-53
-238
516
-89
-449
467
-56
222
189
-86
145
365
99
190
-525
131
-612
98
-198
199
-409
225
581
-271
189
-238
-372
148
-816
273
-19
259
126
-25
78
311
-63
134
242
-27
717
-254
552
214
-295
142
511
-663
587
577
371
-81
563
245
485
-293
554
-10
247
560
-341
36
-229
401
-86
112
930
680
-293
519
79
-163
-118
355
-88
223
-152
-104
-5
333
898
123
-4
704
186
518
313
331
134
-14
371
-52
293
436
612
56
307
474
-22
-225
-162
-257
-297
-16
98
-128
229
488
-152
-238
110
299
-295
-23
-176
188
264
93
10
-487
82
-48
1123
142
-363
-34
26
92
4
197
487
303
89
81
-118
-247
-402
244
-48
974
-233
160
404
136
618
-172
-96
-69
-74
-9
-81
209
685
450
142
-25
520
-9
234
285
-48
388
163
1005
367
47
-205
125
97
-148
-156
-130
372
289
293
413
187
-167
615
-601
-454
137
-41
-74
-380
-470
-90
12
29
505
789
-59
131
288
-175
-480
27
160
117
-207
-462
217
669
-33
-96
107
625
125
278
305
-693
240
-197
6
-9
111
-228
618
359
56
-236
-446
-379
234
-138
488
9
-362
-55
279
342
448
-151
-80
-180
212
-380
306
589
661
-74
-314
332
43
-96
-296
-138
-185
39
196
181
278
71
35
9
-542
151
-182
-181
86
-302
391
299
89
-295
-164
20
-16
190
-4
1
-338
-88
649
-127
74
199
-403
-301
68
120
-103
65
-146
932
514
251
25
737
557
-343
-400
231
16
345
3
550
-15
-446
357
2
-449
82
257
-178
184
-306
-865
-19
238
97
-73
-100
313
-232
-195
173
82
-171
-119
408
-17
-162
-97
180
-287
612
-47
-325
-497
-33
146
476
168
-186
364
430
69
100
429
374
-415
-174
397
249
-119
-208
42
-9
210
4
253
-269
299
95
159
-370
47
172
-521
-226
268
67
-110
-160
284
-80
-309
311
193
-198
31
-316
-296
172
312
68
-279
1285
323
413
87
136
273
-908
-285
235
377
545
72
175
-95
-246
118
135
-467
73
-285
-183
274
-24
-195
-580
-144
235
-378
-14
270
-171
656
-351
178
-413
101
-40
145
626
698
519
-510
-60
291
498
-108
-566
51
-179
-12
-153
-184
93
175
123
455
-38
83
3
60
46
768
-69
-548
-517
111
-317
633
113
127
330
41
67
101
-155
770
-258
-102
245
-270
651
-226
-58
-84
-111
445
-285
-30
308
255
-122
-455
-132
246
216
-420
-288
-233
318
-178
127
596
476
-289
278
115
643
-79
-51
-129
137
308
124
-36
220
292
217
-47
970
146
73
-352
178
154
277
484
166
213
36
-184
-82
346
-314
58
-189
393
175
-57
-870
277
1
-169
338
357
-35
-255
-174
583
49
753
-621
841
-110
811
-35
109
19
-147
124
651
147
-539
-110
676
130
-129
-167
298
749
123
546
255
765
66
74
-251
-522
-78
-169
-87
-237
534
374
145
-188
46
-313
134
-46
258
-424
-1
-718
156
0
24
216
-306
347
-104
-215
-120
-91
280
-245
708
192
-180
537
-146
178
-166
2
-181
300
-173
225
429
-120
615
85
-120
-68
-48
-256
-26
491
54
-104
75
-268
-63
318
61
669
645
293
-291
197
82
256
-1
472
-340
-170
-90
213
325
34
349
291
-285
-96
-276
138
453
-231
-109
-222
-5
190
42
391
-86
382
138
223
250
25
168
-68
-98
316
238
862
-10
-132
-277
650
562
3
510
314
755
-606
-31
-38
128
135
-151
174
-60
32
567
-208
59
-107
329
401
210
142
171
-20
67
-49
3
551
-409
384
4
-259
479
-166
78
326
-365
-55
-124
-150
-218
289
201
501
79
274
-484
298
-203
70
240
-110
273
-213
209
716
374
162
813
487
302
610
-427
68
-489
102
-177
-3
318
564
-221
36
980
-489
55
646
373
436
-132
37
137
35
-296
-72
100
236
-304
-83
-129
31
-469
148
-312
-129
112
-4
302
215
451
-251
-12
-46
109
199
262
-251
193
168
434
-347
-171
345
706
-234
-315
563
574
638
297
223
98
354
-441
359
-185
126
157
186
169
-33
-421
-256
225
140
90
-364
-83
637
352
300
146
444
246
143
680
-337
-179
-2
228
-209
-166
27
490
-376
655
561
75
-113
-261
140
-157
442
237
216
164
-379
-520
708
48
891
-133
124
-338
859
286
-347
22
53
250
-248
264
571
463
395
-109
-57
-138
242
-38
230
882
823
263
176
572
972
323
-305
-175
12
337
-82
-142
-95
275
687
327
-278
381
103
-26
-346
-41
-9
-34
-206
65
388
-412
-96
298
-264
322
-13
-257
-104
76
-214
-177
-220
-551
-94
1
-469
439
255
15
-232
232
-161
-239
117
-294
153
-133
298
-116
150
416
-236
-339
50
-480
7
566
112
-186
364
587
81
-91
117
-223
154
321
291
20
-151
-53
-73
90
848
84
-407
-344
-20
213
658
167
427
-49
101
251
272
-175
47
-212
-231
64
-88
83
-530
131
-475
-398
-182
184
-77
-232
-176
81
269
-283
-273
-255
362
-79
-42
428
16
405
410
-306
159
19
516
702
-170
-56
-49
-69
-234
-239
-140
122
482
-286
941
-148
212
65
498
492
-335
420
115
-136
102
-424
256
-257
-181
-265
45
102
100
-522
232
25
257
531
116
-97
78
-52
312
70
60
-241
86
-602
41
170
10
209
467
-597
-396
-687
101
-244
-440
534
342
64
-72
-106
91
-35
-151
609
-114
573
-85
-180
462
620
734
-68
74
-398
526
430
62
271
-354
57
-250
-300
-109
237
-169
-22
-369
-117
-301
172
-209
-21
-266
-370
697
-319
204
219
-14
-166
153
94
327
129
-37
-214
160
131
311
71
223
-46
149
219
-123
-150
115
-28
-404
358
-143
495
-343
-51
-186
105
-110
-5
215
-358
-482
17
-231
256
594
-372
-570
-164
388
-143
-361
-200
-313
-70
-202
372
144
-213
787
-56
-427
135
15
190
441
393
-604
-187
-347
53
-113
-104
-134
-151
-150
47
-219
-5
467
-89
-109
63
-537
-26
350
197
99
-403
-924
-205
-380
-236
21
236
-486
3
-508
-183
307
-289
-317
-468
-640
-314
-138
206
-152
-72
30
-18
-34
-80
-464
102
-87
39
78
-126
468
28
283
-302
4
-125
-291
-239
-310
-238
-52
510
343
359
481
467
-324
-14
183
58
-163
-191
-835
-201
-37
-177
-91
-176
319
74
108
-952
-382
-143
-385
162
375
90
-33
-75
-479
118
-104
286
-207
-263
-87
420
-150
-90
21
-124
-287
114
106
-645
698
-168
-248
-812
395
-172
-285
133
-18
-220
-222
-109
-51
-160
-847
-22
-317
-48
-432
126
305
-128
122
231
-512
-326
-278
144
199
68
-361
-119
-231
-234
206
-69
-134
-391
-364
-111
68
220
11
-7
94
-59
-7
188
47
-248
-74
200
223
-83
-77
57
-207
-6
-182
-727
-256
-14
3
-79
97
-115
334
266
771
251
-104
95
-45
-148
116
238
-166
-10
542
390
-992
143
51
63
93
503
707
192
-288
-9
857
901
-478
46
160
190
-247
91
-191
-260
-900
15
-645
17
-88
-376
105
-19
26
273
244
-443
-243
107
5
-399
259
59
-534
1
71
-741
58
-148
208
-176
698
-60
-124
592
258
-117
-105
146
340
5
19
210
423
291
207
52
923
125
240
114
365
-156
-61
237
-345
-32
-96
216
-239
368
549
282
363
247
252
344
-142
24
1520
97
-12
84
-103
-96
121
602
36
-394
-10
-443
-88
-165
-53
20
-185
630
-708
-573
-112
-117
253
455
-55
132
-50
-5
-363
557
-343
-115
-87
452
-26
-44
64
393
182
695
-41
296
6
-384
878
282
154
-328
382
-39
-55
496
-155
135
-93
240
272
-99
717
-64
-155
-32
-164
284
-94
500
-75
17
102
99
322
-81
361
-11
-506
486
-265
157
118
-91
-297
-257
49
195
435
143
-290
306
220
-65
187
706
-205
96
541
540
-265
-19
416
-676
369
-219
547
-415
321
422
-140
-170
286
-133
-61
-65
25
-36
224
-513
1198
854
-233
148
93
-43
-277
202
-112
-74
-211
-145
94
664
555
-270
7
333
206
452
30
256
-149
494
208
114
-377
122
16
285
-61
63
320
79
145
606
-316
-450
-383
-978
66
-523
311
-46
50
369
-471
-711
23
49
293
59
99
44
-427
366
199
200
-371
87
511
-70
329
357
-304
200
-28
-941
-94
-124
-15
-227
131
-215
-28
103
257
636
-192
-335
-138
213
-2
121
-430
102
125
-209
109
-557
-416
-351
419
-25
-111
-57
-204
-139
-447
235
-515
-465
-308
342
-261
-146
116
157
-711
-54
14
84
364
335
-238
-503
63
-13
-51
-355
-440
-299
-11
369
162
167
-134
-16
147
218
41
47
-127
-37
20
14
-267
-106
58
-79
-434
-657
2
-425
409
291
-415
-523
-111
-71
119
145
-412
340
252
-99
-22
-503
-135
236
24
-249
-75
67
-579
-221
-110
-57
-119
259
109
71
-36
-461
178
101
545
289
-155
13
440
-225
-729
-101
-383
443
-91
-172
68
-209
121
55
320
-26
-532
-254
17
157
-1
-135
184
-333
-100
-220
738
-392
285
-387
-163
-136
25
-86
-111
-47
378
-249
-827
-113
-147
-426
-4
-361
-79
-13
-114
92
-178
488
-102
299
135
-226
-127
-33
-288
487
407
-96
362
249
414
-38
-901
159
686
-138
-237
-9
-32
-362
-262
273
-225
78
16
12
-106
-626
-576
-74
-148
-197
-402
-104
347
-102
238
384
128
-468
87
-80
61
220
81
211
25
117
-35
-573
-90
-280
-265
122
-220
68
-426
-229
-375
641
139
-151
-123
234
409
24
52
-272
-79
40
-45
262
-452
605
-825
-280
-174
-358
45
-220
-150
-484
-189
285
397
-193
113
-12
286
108
-70
-431
92
188
-218
763
-365
47
66
-511
-130
-165
-7
-144
-186
354
-541
-421
66
-232
344
245
168
8
552
-629
373
149
-245
-162
22
965
-185
-86
193
-46
723
-164
-297
-182
45
117
648
567
-470
70
298
-62
-532
-101
253
409
248
-23
-107
-579
-193
-4
-72
-157
398
-339
-523
4
-392
310
-308
266
193
54
-200
262
28
31
28
293
-203
-414
498
-183
160
377
73
-159
405
-31
403
162
-272
84
329
262
-310
-582
-200
231
63
66
60
274
38
-207
-513
498
170
83
-378
228
53
-143
-329
126
24
14
-117
-191
269
307
-166
-359
326
-326
548
235
370
-434
152
-100
-53
-318
-472
-377
63
-230
-218
-7
390
5
-241
-48
-259
-623
-502
-341
-74
179
157
18
-333
-55
-193
619
-572
-307
-11
21
17
303
284
168
-528
-77
-411
134
-60
47
-178
-373
-733
-211
-50
370
-293
-214
595
-478
519
-50
84
59
391
-119
-149
-20
39
176
-495
-599
-846
280
-264
-223
55
383
-216
266
340
-122
-239
-181
61
-135
-279
-358
172
292
-123
-329
-221
-124
284
-259
101
367
61
-604
-167
-301
188
-27
-219
-165
160
-308
-116
397
66
-181
-248
-452
-113
530
46
170
-370
-348
-34
-256
-87
27
154
554
-455
-41
-195
-173
-263
-33
-125
-234
-305
637
99
-112
-154
-234
-31
-165
34
15
6
-162
147
508
-6
-377
216
55
-60
210
-156
-69
126
283
326
681
123
-155
30
22
-155
345
-415
93
107
-274
6
49
-226
15
-487
72
100
57
242
97
471
412
-6
232
527
284
657
-64
301
-357
81
490
-389
-18
28
287
159
-440
63
-200
792
-112
-387
213
-223
-372
226
-412
-60
330
-345
-265
176
32
99
758
171
-182
425
-163
-332
398
888
297
-31
-283
858
141
173
-340
138
228
-417
-772
22
-121
-63
14
-278
-84
-635
-369
573
-7
-399
-311
-173
-156
56
-449
6
91
326
-120
-265
-325
-382
-552
363
78
503
41
190
431
134
432
264
59
261
173
113
-108
393
154
733
294
-137
216
179
-367
493
-77
159
528
-461
275
576
473
-315
-155
-130
236
491
-458
450
779
362
497
152
-320
363
-210
-21
84
-54
150
128
25
-449
375
105
-17
49
-258
392
-430
195
129
355
-15
281
-657
-56
66
-620
-267
435
-463
521
-333
-17
-507
158
-165
212
-214
197
-105
-65
-74
-271
-207
363
-100
-107
371
273
308
106
638
-591
-148
-341
52
-274
450
84
-14
64
61
-415
-32
17
-195
-2
-167
331
271
-178
-60
482
127
446
90
-363
-150
-59
746
271
227
-356
78
116
188
171
309
507
-82
427
-396
-59
29
-547
129
-401
-232
512
-279
383
-104
-214
-160
124
-253
149
-118
-190
21
85
24
530
-94
-240
164
-113
77
-6
-330
-180
201
213
-840
-233
-109
142
-594
243
-711
-516
791
129
261
206
209
-369
204
-580
200
77
-363
-119
314
-969
-374
106
-60
218
-1
-234
237
233
814
467
-206
-37
233
-602
610
-11
-73
498
128
-272
49
-310
86
-139
105
-420
69
-152
-179
185
166
83
384
4
459
-57
-547
-338
-118
78
85
910
202
-499
-268
193
114
-8
404
-268
299
-467
129
-18
-335
-257
-21
222
-117
-274
173
436
-24
268
-42
287
-506
-80
193
98
102
-356
-8
-141
153
-260
-66
609
-102
-13
-397
-42
-91
-61
174
-731
324
-382
324
-248
390
146
-153
40
540
-121
-316
-371
-393
268
179
17
351
955
284
376
61
164
7
407
-252
-127
170
-343
155
-525
495
-37
191
14
-149
1441
-321
98
-708
-320
-44
232
-94
260
202
192
43
649
560
296
21
364
2
-179
-193
817
-44
377
2
-356
-178
259
-255
-164
-168
102
-269
-163
160
-26
421
196
-22
421
360
-98
-67
-20
58
-222
-415
-337
-642
308
-354
-70
-129
250
-216
29
574
-247
167
394
237
-207
432
293
-124
178
528
107
-173
232
123
-211
-13
-363
230
-281
-281
350
157
-220
-312
759
31
213
33
-567
279
-266
373
283
-95
-1
-470
118
56
-85
15
71
182
245
-138
281
-39
-293
265
-200
239
-3
337
204
-416
221
-466
-246
510
138
-134
-453
265
-305
342
-530
41
11
-3
81
-120
-179
-134
-386
-213
-493
-395
431
-49
380
1
-307
186
82
-53
-559
310
-536
-156
-15
314
-247
-165
451
328
189
-31
652
-377
41
571
-331
-40
227
460
-15
183
-30
236
-114
-299
-101
-574
-52
164
190
313
1074
-292
-290
-294
527
-163
-9
19
-286
81
-314
-70
371
491
-24
-274
562
-95
433
393
-304
-431
-361
-113
144
120
-61
539
-42
-184
-504
-380
-79
597
112
253
621
451
-352
309
-230
284
447
321
-285
394
27
115
86
476
-513
-143
-221
235
-135
227
1
68
57
119
-191
485
-378
182
-15
24
103
-70
350
-285
-1041
-55
-480
-343
-284
-148
-327
322
-304
693
239
115
-290
-131
-474
331
-1
-459
353
154
-136
-630
634
-65
-780
219
-558
118
840
-68
356
160
158
42
-68
-204
-441
-229
216
-505
-126
645
104
171
281
-158
86
314
-207
-59
72
-736
124
-53
0
275
445
177
-150
67
-195
219
320
-276
-343
325
-58
333
236
-12
177
57
401
271
308
90
-84
589
-286
269
85
-78
109
-24
55
-35
-177
-176
-342
82
-18
-317
-36
423
199
282
30
194
-116
-315
108
220
183
164
876
-288
-261
33
-131
-415
-214
-141
151
-4
17
190
123
-3
154
-388
-45
-262
3
-59
-168
900
-471
223
362
16
409
-288
-708
333
221
110
244
-111
-164
158
163
-142
-159
-13
-159
-377
209
-44
92
13
443
30
113
404
-227
374
519
504
-146
477
76
329
190
543
-202
-405
40
108
164
16
186
-97
588
560
-292
152
118
255
-209
226
-20
44
0
-365
606
109
36
331
37
155
-51
305
-147
-150
-136
1090
-73
-108
101
10
304
-557
14
-388
-87
-234
5
-320
-330
-230
17
-40
74
144
-259
-87
-62
-227
-383
790
405
232
71
417
231
-140
-432
-99
-259
96
240
-308
74
-143
268
-319
-147
104
-256
17
21
-33
138
-405
162
-120
148
76
-37
340
456
127
-135
194
646
10
-493
283
-605
-501
-272
529
-447
198
577
161
-321
36
-349
75
644
49
-202
-214
79
-78
94
-12
-431
-236
199
-389
-253
195
-167
37
662
257
488
454
239
-134
-434
140
68
-379
-274
51
-560
-34
659
-209
-396
-18
146
-35
-109
-36
-471
131
13
190
504
-59
-134
-344
136
-5
224
-365
34
-139
105
172
-40
76
-606
231
301
-10
262
432
132
412
-449
-78
-9
-269
341
254
-25
117
331
-160
-74
-60
-585
-287
543
449
-512
252
-203
204
-190
-342
154
24
176
86
-284
-577
-190
261
-521
196
456
-22
-659
481
-388
-509
-306
-505
268
282
-247
289
-719
151
68
224
355
254
300
-70
421
41
497
-159
-307
109
-346
226
-197
-909
415
-314
-372
280
-57
43
180
178
136
226
71
-33
68
-69
-359
-213
142
-317
-96
159
412
-230
-259
-480
-509
232
-185
333
-598
-47
142
-175
-278
33
457
-410
101
412
-177
-565
378
216
755
-362
-440
-18
-309
-191
28
84
110
286
187
17
-478
-722
-229
-37
-150
-181
-137
329
-308
493
-282
-733
-89
338
316
-101
-102
-20
-331
192
372
97
724
162
-75
-446
58
61
-556
-427
76
-17
-265
-125
-30
395
182
270
-375
19
-403
42
60
-9
104
-91
435
378
156
-280
-464
-87
-200
-155
272
207
-253
180
-427
-136
86
132
89
316
273
-257
290
-512
-1088
-261
98
-169
-213
151
-271
460
-602
92
550
91
-323
-47
-197
-279
-41
52
-659
-508
887
-75
-480
-427
-801
-281
293
-271
66
-34
-231
94
79
-604
-209
20
-179
-23
-325
-140
212
-546
253
-129
80
-408
377
122
-609
403
-494
-554
-196
366
-447
-76
69
-243
181
-27
-484
232
-166
-37
-239
87
242
-317
93
-446
-198
-249
-123
-57
-512
-71
10
26
-344
371
347
168
-26
-459
127
111
-691
-259
-6
215
-465
-144
368
-29
233
-143
102
-182
146
-60
-324
434
-283
-31
-150
-382
-121
-195
146
-50
-191
-53
-482
52
60
-131
91
189
-50
90
4
-42
318
-65
-30
9
590
-167
32
-388
-155
404
151
422
-222
26
183
-93
71
-390
-82
-46
-73
150
55
-576
9
498
-77
20
908
-305
213
-121
189
261
-240
-343
117
-163
-96
153
-158
-295
63
-203
347
-123
30
315
-43
453
-21
16
-47
-105
407
-678
187
-235
79
343
-20
56
-58
-333
-67
40
462
-924
234
120
358
-175
872
-66
247
-274
-278
616
-62
-21
-220
-51
30
226
-98
-167
-154
-669
-128
-104
-481
-102
-409
-113
-111
417
298
-5
265
-586
174
-637
-84
-587
-246
-162
-68
293
-246
-127
-532
231
162
-71
80
231
292
342
198
-209
192
12
390
363
112
307
-127
-188
227
368
116
580
-323
252
270
111
-202
386
-65
298
-156
533
511
-324
118
201
-668
-132
-57
-396
264
-340
742
-245
338
-420
-37
-877
104
204
-288
-141
660
237
179
-110
-241
148
78
39
-139
74
-398
-368
274
-67
-336
294
-542
526
-63
354
-339
-354
-89
-66
-817
192
152
-123
-3
338
295
284
-331
-261
37
150
207
-244
-358
-114
-251
-1054
-211
-94
-103
-324
14
-57
-347
-731
122
83
-444
-251
-353
-303
-94
-40
-195
123
-1901
-81
-618
-273
-271
168
9
-456
-60
124
-163
345
53
-173
-81
108
360
477
22
260
-460
66
-248
-238
-315
266
-223
261
-402
86
-282
644
-433
-493
-228
70
307
324
-4
-154
-128
30
-42
-322
-154
-189
-49
-56
-280
-6
5
126
-337
-177
-21
-92
-120
220
69
-88
72
-198
-62
-250
144
-198
81
-250
-248
-32
-127
-293
38
-549
102
-149
-119
64
252
-262
125
-455
-62
355
-515
220
-376
90
-170
-500
269
-219
-398
-184
-204
-79
235
-311
376
-471
-43
-540
533
-123
40
416
14
-12
269
98
-169
4
-112
-274
-338
194
199
25
612
-111
-40
-434
234
174
-31
-469
-245
133
-710
-116
-17
-286
-197
-283
-242
-299
-522
329
-373
185
-140
70
-232
-397
-91
-148
-559
-343
48
-526
-280
-87
-301
-114
-94
-220
-806
-24
-49
-451
-685
534
-17
105
72
562
-483
-462
220
451
-452
489
-473
282
-88
-324
-530
183
63
-137
219
141
-975
116
-291
-273
-49
37
-353
-164
-690
-472
-216
231
183
234
-700
-154
-45
-243
-669
97
-163
60
116
-705
-444
-105
9
208
-385
60
-345
240
162
-252
-16
-680
42
31
-528
185
301
-190
-186
-81
-377
148
-231
118
-111
118
274
-147
49
-415
-251
-780
-453
128
-153
580
13
-476
-422
102
-125
-439
44
59
171
-44
-444
110
338
664
-710
-217
-303
-294
-40
156
14
-491
-401
431
280
-76
-227
-796
279
-110
-278
-2
-205
511
520
320
-8
-138
511
-121
68
174
-744
158
54
558
153
15
115
408
-84
-150
131
64
182
134
-66
-161
-453
-164
-61
-231
25
87
64
-667
75
-132
-312
-275
111
-75
-141
-343
-310
386
-272
-548
-281
-524
118
-130
115
288
-269
177
101
405
82
69
2
7
-341
-18
-44
213
-104
-653
295
-384
-187
111
456
384
90
-150
-600
-75
143
461
-215
445
-206
-163
-289
-609
-212
-300
-126
315
-422
-339
-710
38
-351
-1053
-241
247
95
443
-57
127
102
367
52
-341
435
405
-98
210
-228
-42
-494
-108
-369
224
246
-230
112
-110
65
-115
259
469
-626
64
-239
-137
279
-209
-358
146
295
-45
-243
-24
-580
-201
293
-201
160
-473
504
96
-95
-103
499
19
575
-487
-18
-385
41
-356
331
-44
-18
206
167
429
-406
-3
-440
-1063
219
-114
-394
11
94
377
-447
179
328
-280
-635
496
-471
169
280
-315
52
-87
843
399
-189
-655
29
-423
-352
-600
88
-346
428
65
409
335
79
141
-82
208
-328
-537
131
-153
306
-484
-311
7
-668
-55
-227
-165
66
-41
18
225
-481
-227
-284
512
-12
96
240
-91
-128
49
-375
-414
153
620
-186
366
-512
161
-390
204
-39
-131
-257
-1222
-234
25
51
330
-186
-20
-693
139
-182
-112
-726
-98
192
-285
-406
-41
-265
5
193
-5
81
43
-212
253
-290
-179
-311
-526
-162
-134
109
-52
-84
-368
-311
-351
-629
175
-158
255
-238
-50
-101
-779
626
-88
496
-44
-472
258
-9
-725
149
133
-172
-185
230
100
-681
74
263
336
-867
-246
153
-504
-1
260
-290
-600
-620
88
-156
407
-285
285
-315
28
-592
94
-63
-118
-196
243
-159
-99
73
369
-283
64
507
548
-705
111
89
-42
265
300
-108
-410
209
439
-71
-43
163
-356
173
-369
-6
-821
-155
450
-78
-325
-524
-232
4
-63
184
190
-353
337
-332
-596
473
-333
485
-201
-132
-545
-197
55
-30
-633
44
-280
9
-1116
28
-186
143
-143
-212
173
140
-106
-93
-12
-109
131
-187
111
-386
268
364
-74
294
-140
-544
647
378
-152
-638
-310
-447
396
-249
313
8
-69
-457
-95
-495
-230
-70
245
118
-134
-961
-497
-629
-91
-143
-348
184
3
-671
75
-74
97
-386
15
76
-461
-180
248
17
-400
260
109
-3
-249
456
-398
-13
-304
-335
295
-66
-58
112
-289
30
-221
-408
-681
638
427
-147
15
-9
40
11
65
-55
159
-193
238
375
112
-294
221
172
-25
5
-55
-436
-358
426
417
-135
120
219
-126
587
489
-306
229
28
-13
394
-135
-264
138
-584
-848
-750
563
-165
-181
-297
-83
517
271
251
-251
-1146
603
-182
-293
-335
4
246
152
-676
-34
98
-438
-377
-219
6
-68
-18
107
265
-147
-87
-51
179
-8
295
-53
65
-208
-13
-166
252
166
302
236
152
77
90
-746
169
577
-143
-566
163
0
-170
-92
-653
116
105
90
131
-15
-62
21
-123
-226
317
-345
-51
-411
-419
-88
-233
254
-111
49
-767
-629
-250
134
35
44
53
145
172
-112
-371
-25
-119
-316
-210
709
-195
338
38
39
-266
-274
227
238
71
-788
-434
-248
-50
-197
-161
287
75
-158
-248
155
19
83
466
-199
113
293
253
-31
-36
-261
182
-706
-310
474
-274
166
289
-215
-209
-621
-780
247
-93
-123
416
-205
-275
482
-547
-157
-159
111
15
281
-162
35
-45
20
-868
-166
555
-82
-27
141
-637
-145
-23
246
-262
106
-156
335
-164
175
195
-474
-119
87
-17
136
-77
121
131
-168
-1436
177
42
-440
-391
-50
-32
-104
246
22
357
-260
323
-424
-443
43
-241
345
-298
-76
-661
-270
-210
396
170
-614
222
-530
222
235
478
-106
55
71
32
68
632
-720
-270
17
-538
305
-105
-420
-68
169
43
191
-347
-219
333
-44
71
-91
188
51
449
-101
-92
121
-288
-176
-433
94
47
102
-176
18
-132
-376
-104
-378
316
193
-113
-167
413
-36
-592
-601
624
2
9
77
514
-308
-362
124
-54
-55
136
43
109
-145
-83
629
261
133
-7
-601
385
83
146
-132
-32
74
-11
-373
-41
-57
-101
-86
154
61
-131
412
80
51
135
-156
-233
133
376
526
205
121
-33
-271
183
344
-361
-26
-168
-241
65
-328
-152
212
-2
137
-257
167
246
-130
111
-279
344
-135
98
-306
-104
441
-83
-47
-24
504
-76
-152
504
-319
170
135
-138
-191
128
-108
327
-94
105
-48
459
173
379
28
135
-6
-260
383
238
-296
-56
-317
2
176
143
207
-645
137
94
171
258
-412
-65
-31
60
-87
-50
15
-168
179
-33
-241
-530
-278
174
138
-45
268
6
290
-162
191
181
863
-287
-6
218
-67
28
-108
364
-65
515
393
73
89
12
-32
-94
238
793
395
464
-185
172
110
375
-277
17
-135
-11
-221
-228
-144
96
-81
-472
145
115
89
592
7
685
75
152
-31
1050
118
93
233
150
-132
-120
-247
-8
-32
-236
166
44
427
590
121
-667
-525
-366
-305
-39
154
-62
-43
76
248
219
-3
106
-10
-101
-31
452
131
238
-50
214
334
-213
18
-137
-1
-319
327
-104
396
207
-224
-93
-433
4
126
77
53
-96
-49
178
-530
400
138
-448
-320
-108
12
-29
210
272
-212
-74
-201
1130
422
-394
-69
528
54
231
30
-134
94
342
-390
161
-262
249
164
-37
-29
65
556
154
415
70
-243
100
-268
-257
-60
-378
-116
0
-318
60
-26
-346
-630
-27
-496
-196
-232
144
54
22
-198
244
69
963
161
-109
368
30
-203
377
-147
155
-91
250
-332
102
222
11
46
-457
326
42
-11
145
590
-440
23
330
141
104
391
302
227
95
-727
109
481
195
-26
559
-301
-53
500
105
-251
10
7
-227
451
189
410
-491
-1
74
144
4
319
-625
-382
-56
-39
-122
149
291
195
-129
713
-330
37
-498
247
184
-77
-191
567
441
-144
-405
54
-195
300
84
125
10
-102
199
374
311
39
-300
270
-65
-500
396
68
-370
-175
8
173
-202
49
-102
-640
57
662
-112
309
116
117
-401
-217
-54
-36
-435
214
305
-320
-185
207
656
383
-124
27
54
470
486
-574
-308
-408
-191
-182
23
289
161
-14
382
531
60
578
23
20
-193
31
294
-58
240
693
325
145
108
-57
404
378
582
36
129
323
-626
197
401
-161
62
-174
150
176
66
270
284
184
979
-475
645
-128
573
72
57
373
356
391
39
-218
163
-32
134
348
449
151
-390
-66
491
-530
-196
205
-214
663
500
72
-286
-400
-116
-473
186
-105
-160
-43
-107
721
-406
469
425
15
8
-610
72
-151
113
225
-358
317
509
-212
0
-252
78
-319
620
430
-138
15
257
259
-335
-118
717
-509
-616
87
181
-151
-284
4
-330
317
-178
113
-282
-5
107
-380
822
12
850
217
362
-33
103
-20
258
20
65
-324
-168
217
-273
229
191
-127
-459
356
-733
-111
45
138
-71
-572
187
-482
276
-296
-279
327
167
-915
-330
-10
-183
-91
-261
-63
190
201
-167
416
173
-331
188
-333
-56
517
61
-323
-404
-541
104
139
-163
308
-367
38
-374
-89
189
57
154
236
133
-66
131
333
-303
49
-89
122
-417
305
-656
143
-40
493
-516
983
-530
-143
-193
49
189
-183
-8
132
251
-237
-432
-217
52
-312
-514
35
-197
-895
211
-251
-211
206
-156
-48
-474
-16
11
-734
-453
530
-208
-406
-527
223
212
-31
70
174
91
-59
126
-156
150
-460
-255
258
-383
-461
17
-350
36
-1177
411
-267
-224
31
-15
105
-72
-339
-467
-65
-30
-585
476
62
577
-100
-476
91
-283
-183
259
-327
-167
-358
-155
260
-186
12
177
-914
86
373
-431
-553
17
-123
-6
-131
-61
359
162
-853
-329
9
-381
-484
32
-28
-214
143
71
-175
-139
-1033
130
-782
407
64
58
-126
221
267
14
-217
-636
-183
-97
129
-422
-173
135
-21
36
-176
194
-12
6
251
-378
-171
-431
282
-299
578
-111
-178
-94
-529
16
1
123
96
-105
44
-366
675
205
44
161
-31
-9
73
-216
-183
131
-111
-48
-264
38
-53
-38
179
99
-123
-325
-114
-273
263
122
633
155
203
-140
-66
336
-117
16
260
52
-246
372
20
-310
-362
-33
199
-93
279
-140
421
-219
-130
-153
232
-277
-540
315
621
-147
-286
-255
632
-163
211
13
-338
-243
139
-381
433
-338
411
-511
-193
-305
377
147
-607
642
-284
-182
392
150
-50
-274
84
-83
104
48
431
-952
-489
-431
-71
-370
-99
198
-479
-624
-162
156
246
-97
-38
-192
-338
-11
-454
98
478
-737
107
257
-283
204
-157
-68
-392
-305
28
66
-152
-38
-437
-330
-8
416
-17
-355
-106
136
493
-353
-296
-765
430
174
104
-75
224
-94
336
-185
296
379
93
-235
-345
-183
-588
-327
-178
-1
-347
250
218
696
-903
-337
426
-237
-163
-301
78
-151
-271
-166
-138
62
345
-570
-987
55
172
-27
-516
130
-110
-402
-543
-307
211
164
-238
207
-118
218
-52
-92
304
103
-30
-753
-89
-119
-117
-21
-250
320
293
179
-112
-35
97
102
-8
-243
-593
-265
205
164
174
479
272
-325
-106
-9
308
-201
-183
66
160
-110
-154
512
-388
134
-14
0
89
265
-246
-296
-279
-403
-285
629
-70
-416
-213
-88
-576
87
291
158
181
144
-567
355
574
529
-346
-625
-66
202
190
-8
777
83
307
-108
-159
139
-19
510
227
132
-311
187
-196
-704
240
-204
196
452
147
176
-317
28
-231
-104
448
161
-513
643
597
354
-57
-63
-373
-382
177
-485
-182
500
-264
480
714
-81
-20
-164
207
83
-413
-283
-28
-362
179
38
53
215
540
-203
-396
-461
59
-609
-314
-195
227
-385
-89
200
574
121
75
158
-115
-379
-78
-131
-209
30
105
-40
-182
446
356
-197
-189
231
-123
-332
-68
219
147
885
239
-118
187
88
93
1114
45
64
35
-565
-26
-77
-182
144
-20
1147
-279
-269
382
-18
-323
-186
399
0
420
183
-327
237
439
-164
283
163
458
-1
-29
89
344
346
-94
213
-563
138
-276
306
-114
224
-59
-215
-12
94
-190
4
433
70
552
733
-26
-32
238
-149
-255
-137
90
140
172
-2
62
596
-158
142
55
-170
188
107
-252
-67
249
466
-416
-224
183
-149
347
-143
631
959
-378
384
40
173
-250
485
541
-276
1092
543
-418
-322
390
117
-873
-79
543
-136
109
-636
276
-532
-556
-201
-47
256
318
-83
84
325
855
-141
-144
321
119
-453
-141
-264
248
189
-390
-263
-116
-117
91
301
61
-485
165
152
251
232
532
-208
480
159
255
766
329
353
451
31
570
28
547
-244
-402
272
-480
63
-6
-211
-32
487
286
-899
330
263
572
52
-41
63
199
-237
575
733
104
-178
328
-232
-337
198
183
311
41
-769
-208
384
337
-186
40
40
239
227
-193
365
-413
-545
-440
-394
13
369
222
-79
214
192
134
506
-238
-198
-125
-274
-85
496
-98
-45
-146
305
127
-14
-31
-108
-242
-264
-123
500
826
-7
45
-465
-471
-413
347
189
-368
511
202
36
-100
-17
-300
202
728
-188
-615
-250
517
-308
471
7
-70
97
203
638
520
156
-39
-9
-207
515
-157
-196
117
-406
-317
35
421
237
-185
348
-1
-428
-261
237
47
349
174
205
-598
-240
-629
1119
-108
320
893
-55
412
297
50
71
546
-260
470
-131
432
-106
379
561
247
587
438
31
189
20
513
-247
-266
282
-494
531
33
113
265
13
503
475
343
208
86
43
69
14
318
-361
240
111
-279
669
21
-1
25
329
-429
-135
407
68
580
-367
-253
566
707
209
-87
86
257
-251
297
449
876
-368
35
256
105
-766
1426
-464
-213
532
-153
-27
-666
-550
-80
-558
206
596
91
738
413
-390
60
-51
-76
-449
17
264
57
-422
-147
266
-181
125
-514
-383
44
139
-6
153
-358
75
-273
-110
6
327
-128
263
302
17
263
-126
302
203
132
262
70
49
40
310
633
-308
181
-522
-590
-432
573
632
273
351
183
-303
-200
-455
42
-7
-386
-71
169
-262
109
239
-714
-373
582
175
171
-156
1
-351
-1
-735
-594
-214
-444
-323
46
165
55
-212
169
56
457
-443
-46
238
170
327
-409
-29
-124
171
46
290
-240
-484
-300
206
53
360
-134
48
380
-153
-65
-326
-409
62
-191
-632
577
166
48
-47
-509
388
-403
-216
-7
309
122
82
299
-563
28
-105
194
458
352
-100
-202
-69
68
-600
-417
-349
6
1134
-26
689
111
-729
25
-184
-345
-230
118
-112
179
48
231
-176
496
705
70
-560
95
252
304
-581
67
69
60
-218
190
572
-176
580
101
-375
186
-4
-178
218
339
-229
-408
-171
-678
174
-651
-47
-328
-600
-228
-267
-220
-313
-157
80
-219
-102
-275
69
137
-38
-345
-203
386
-179
-201
173
-366
-80
495
72
-183
166
152
-235
229
439
-251
426
588
-287
145
178
-78
-256
213
42
90
990
-82
272
807
347
478
-735
-467
274
498
-197
-232
-499
477
-554
243
-361
-90
38
-271
8
342
-620
465
155
22
-131
467
208
510
-154
-533
253
180
588
408
-215
551
-329
-553
-126
-459
-179
-29
-826
-80
-106
-13
186
-270
-565
273
-50
-455
-34
57
-238
-246
483
-103
-352
310
-533
-163
61
187
124
292
-315
-55
358
-8
-499
3
35
-548
820
-406
442
-519
-343
-439
-65
262
38
-214
539
-36
356
-633
143
-40
95
127
59
43
597
244
-142
-456
1022
-95
208
302
-509
606
-530
407
-194
-548
-152
10
22
-411
-72
175
12
-171
232
297
278
-231
97
-338
-157
-33
103
-312
-375
425
-699
-58
150
234
-3
-417
-147
305
-80
-240
-397
-96
-95
159
-176
-304
-130
-58
-566
-25
-381
-325
-109
-127
451
-71
847
423
-36
-100
-26
-146
-305
395
205
-408
241
66
-12
-17
262
172
-537
104
151
240
-242
276
-182
-7
860
258
101
-275
32
495
346
-133
-77
-13
341
-127
144
38
40
22
506
479
726
-155
-224
122
675
322
-492
807
427
-24
493
-141
-395
-62
-540
191
92
205
-26
67
-127
88
423
0
20
498
-115
-49
-471
493
300
115
342
-175
-81
273
-373
-217
470
-159
551
-169
564
-324
297
642
-92
254
165
-113
989
209
82
60
-346
326
-248
208
-408
448
729
-504
-426
61
151
13
492
-473
58
-258
519
-499
300
-417
472
128
-8
449
-467
-229
296
569
-111
272
-93
-210
191
-385
654
209
-3
-166
-277
-473
117
-114
899
86
-114
533
120
25
-358
-355
-108
290
-7
201
6
182
-77
702
587
-130
233
14
165
698
-288
122
328
307
-474
276
271
473
107
336
-228
37
-67
489
-82
228
82
274
-147
-38
-118
256
151
-11
-34
-827
-22
-355
-17
-29
-599
-90
-289
76
-302
-46
252
-340
-611
549
-190
1
-960
-399
449
257
-215
-38
-47
-583
187
299
275
-181
-184
-61
-7
-316
144
-108
-342
33
-418
-272
-540
-629
-394
51
-193
123
302
-74
481
62
-79
-657
-153
-534
38
-229
-343
282
-271
-241
136
-133
-236
-295
86
-153
-134
-291
-524
-209
24
-457
120
-294
303
-443
238
-495
-164
-634
-511
147
109
-76
266
-160
29
-222
-609
163
264
-135
-48
-408
182
364
325
-249
287
-289
216
-401
-20
-240
-110
-173
72
-414
66
0
-92
113
-507
-132
-182
-525
292
-149
-279
233
-527
-46
-9
-213
-53
325
-392
-735
162
-319
113
-195
232
-420
-217
-493
-181
-395
145
-135
-426
-117
269
-350
-232
157
-243
-523
-261
91
-103
-259
-366
-149
182
-466
-614
-705
-273
-341
-74
-231
197
740
192
-312
68
141
129
-216
141
-522
286
110
363
-318
-85
-75
-90
-117
448
244
19
-111
-74
44
-186
9
297
-30
238
-138
-372
-42
-12
-91
-114
-545
449
504
127
-21
-320
-583
-260
-376
8
-91
-37
-90
-137
217
-54
-295
187
166
-291
-291
-10
249
114
-234
252
141
-139
-366
-418
-31
-197
-12
-361
97
-396
524
23
-512
-632
124
-44
-181
-108
-84
-43
-428
8
-448
459
114
-159
-800
-630
-345
115
-364
-130
219
-422
-270
-809
-28
-219
164
408
-391
-256
285
195
173
-166
-305
-177
-261
-310
-127
-886
232
-767
-480
-377
253
-667
133
395
-509
143
296
-49
-887
130
-468
-338
182
-705
334
309
-18
849
-117
257
-545
266
-255
158
298
-508
-387
211
331
255
477
-258
227
309
101
-207
-478
-324
-219
172
-175
340
81
-22
-356
-255
-25
-494
361
-248
193
169
7
-90
174
-40
-104
-882
-531
-599
169
-178
60
-380
141
53
179
-1111
-796
-84
254
-74
476
77
-144
97
-200
350
214
135
-95
75
-322
-586
81
-926
-484
-300
-338
10
-585
-278
144
-550
240
-1033
-114
564
-565
-494
33
-116
5
106
305
-104
-464
219
422
65
-156
-269
-46
107
-583
655
-626
434
6
500
-106
11
-425
-58
-141
210
-10
-56
187
-208
-39
-548
-78
103
-389
245
32
-300
-474
-293
-499
-274
-419
140
189
-160
246
-72
-89
351
-167
105
63
472
-170
-378
-575
39
609
-353
-188
707
82
-415
22
-456
590
-40
63
-195
263
-262
-503
223
261
-227
127
-618
45
-13
246
-1294
-635
-70
257
-802
509
-119
-180
-182
130
83
-184
-451
-63
-162
-289
280
53
781
2
-416
503
-458
-215
49
448
-458
-299
-88
385
16
-284
384
-132
-144
-317
-140
193
-344
-65
199
102
-165
105
-366
-12
-321
-160
141
443
-52
28
-82
-325
-565
371
299
-131
33
66
593
114
-20
-268
608
-566
248
527
-296
-385
548
-30
135
-388
-39
-666
-328
602
-85
365
422
-506
344
35
-86
-132
46
76
861
-17
-362
-123
-324
16
75
-2
56
137
-5
-27
-741
343
82
-85
-167
-311
-184
-3
236
-214
576
-166
-96
-157
400
2
42
-199
462
113
-140
-119
297
684
-43
158
-567
132
38
31
-300
397
193
209
292
214
-150
-137
-40
162
-525
103
402
-447
-47
212
307
370
-318
-459
-95
-18
-111
-44
-384
-118
-668
-165
-494
170
50
306
167
116
154
-566
72
-400
-544
179
333
-203
659
-167
39
-135
-278
-17
-225
-730
-41
-294
235
-55
-166
79
-93
-188
-213
-153
102
148
167
-160
-202
9
-65
-23
-277
123
54
-192
-82
-68
-43
-104
-100
-581
-57
431
410
457
132
265
687
-518
-268
-3
25
-225
318
204
-44
677
498
323
-164
-675
-345
66
354
371
139
-318
-92
-147
316
-154
-66
-509
507
239
-478
-74
119
105
330
226
21
-549
-246
-466
-999
101
152
-110
-113
298
101
-166
595
113
-590
259
-287
-229
73
219
112
259
375
213
-23
-185
-86
60
246
-305
-221
563
-99
36
478
-291
567
-77
-37
685
649
261
-601
141
-286
-17
-195
48
-40
187
187
-386
298
-669
-230
64
-194
-302
59
-37
-371
-342
311
331
-162
335
206
-210
348
-201
-230
749
234
32
300
-219
-181
-59
343
-6
163
659
214
77
356
-316
-3
192
302
285
163
8
-396
-142
-197
309
-134
343
-251
874
225
200
76
85
-317
656
-269
-129
329
-344
-307
-316
-329
733
730
238
812
549
-294
-175
-143
-327
-432
455
78
-142
-135
21
-308
91
-350
-402
-49
-253
-32
116
-203
365
316
391
5
-163
483
-223
69
-92
97
102
-274
139
375
156
176
384
-124
208
-206
233
-128
31
48
187
-563
411
1001
237
-146
72
-226
-82
178
-509
-156
69
234
613
-92
201
130
141
227
27
702
738
52
-220
326
-6
-13
35
468
10
392
194
-424
-178
454
-168
-102
281
196
358
218
123
-188
1011
202
332
42
592
-259
-316
332
147
-199
344
-23
-16
-5
467
-266
-541
-538
-18
720
221
-276
119
162
474
12
-756
-397
-70
-144
-604
89
574
56
-235
-118
-435
85
-91
376
-252
527
-124
555
355
452
165
-27
470
117
-359
-58
279
53
-235
226
-696
289
-898
-137
273
-46
94
-271
496
260
-25
204
262
2
141
347
-130
-91
435
-200
-131
821
152
-542
-324
12
398
-159
251
125
308
-123
-137
235
59
-302
4
-360
-193
-300
-120
131
222
357
401
265
105
-55
438
-120
-65
191
582
62
466
357
132
41
-165
-27
119
392
-381
661
-236
27
-544
630
292
-606
-266
-303
-55
-66
-155
-316
131
-505
219
162
100
-438
-47
0
-278
-377
-150
-217
-191
-719
-79
-125
-226
-611
102
373
214
-298
-573
-40
220
-601
-162
-18
448
151
-61
-21
-281
-237
-223
-4
248
1
-226
-295
-231
136
-73
12
205
174
-652
-207
498
-193
625
-232
80
1
-37
-115
-95
53
571
138
16
-460
55
-185
78
-239
124
35
248
862
270
-7
-408
126
161
-376
-394
-264
109
-411
-93
-780
-201
-186
191
103
170
-182
-211
-261
98
-317
476
-184
-101
70
-452
268
-29
678
-393
-198
-437
-71
-91
68
-79
-170
2
435
147
-563
-15
-12
-302
-45
83
289
-40
-48
-74
-180
374
-199
-122
12
57
-174
-523
224
-173
551
102
-159
-97
-185
110
44
246
592
-284
-22
225
-304
-99
140
-167
130
83
-609
-98
347
367
-949
-89
-137
7
-155
419
155
625
-189
412
170
165
-73
4
-181
-63
-59
-486
-521
200
-523
-533
-5
-944
-307
-135
-424
169
185
26
569
534
143
-43
-484
-494
-458
-192
-5
-678
-329
128
-167
475
-18
-223
-237
235
-109
-277
8
-366
-152
-509
405
-183
379
193
-51
27
253
702
206
119
-650
511
-20
455
173
-157
-340
-51
-116
-788
9
-211
-337
23
-70
98
-175
-348
-530
-93
-96
200
158
171
-77
-115
-331
68
-74
130
547
160
265
-192
601
116
598
-19
277
-253
-472
-563
-407
-176
-270
-49
11
-158
387
134
131
-177
98
-39
22
0
283
-15
-224
-259
202
-417
132
150
308
89
-301
-268
129
-33
-267
-79
246
-255
-207
-192
87
394
34
-228
-555
116
-107
150
-317
171
661
192
127
419
829
-252
-331
608
305
4
-153
33
-752
-186
304
-99
-16
21
-290
-279
86
-278
-706
-31
394
187
-572
-364
276
-183
-230
283
-45
-167
-286
421
-5
-176
-565
-579
-65
-286
-432
148
-92
-436
-962
-279
-206
271
-273
-399
-11
-18
-63
-207
37
92
-68
219
-591
302
153
-219
213
297
-334
-332
139
-314
-331
87
-78
235
37
60
532
-31
201
291
-297
217
-7
-172
76
-28
-658
292
-93
-11
-375
-341
-232
23
-293
-134
-22
61
-172
190
542
113
-204
322
-28
-447
-334
-759
-161
-136
547
467
350
197
-125
-511
61
533
-237
20
735
-188
-674
174
165
382
-120
-199
-478
-7
-416
-397
7
-186
178
119
-117
138
-834
54
516
-358
96
-13
-54
219
-106
290
245
417
576
166
21
105
108
-255
52
516
7
-508
158
328
-7
-130
137
-388
120
-383
403
-297
-147
-321
452
23
-514
53
68
150
-525
921
-16
-9
275
460
256
24
-358
-338
-511
106
-202
-285
-43
-390
-402
156
-164
605
-108
-507
-159
16
573
-286
-364
-416
284
-124
-603
-152
85
198
-217
406
-120
-134
67
-150
-153
31
82
20
278
245
219
-348
305
-222
51
212
-187
-88
420
-168
83
-555
-210
-164
-22
-88
-71
120
146
-460
-261
-396
27
150
295
-40
-203
201
-350
119
268
325
213
-171
-158
-740
-301
-223
-180
-222
38
-79
-209
-362
-51
369
840
-208
-298
78
218
-2
354
141
-243
-1021
105
-84
300
-286
-147
233
-854
-260
-443
127
-446
-147
-736
-73
-59
-183
208
-436
-22
12
-87
-333
492
47
-441
446
-203
-34
79
168
-131
551
-25
-108
-146
-722
-35
-107
-262
-337
-619
239
-131
505
-284
-382
-640
398
-727
-337
-204
62
-67
306
-600
57
80
235
117
-281
168
-207
-47
-280
-172
-168
-282
-316
53
344
-51
-82
-787
-101
-132
-5
-79
-304
67
-719
-25
-233
357
133
-68
125
131
-363
-416
-264
293
-401
73
-17
84
125
-925
326
-396
401
234
55
46
211
99
50
-287
75
75
253
219
973
-62
-389
-232
-207
-172
290
409
-235
-563
-614
208
31
353
448
150
-7
-570
16
-466
-25
-208
-488
-41
-497
447
-321
15
-252
355
-22
107
128
-337
-95
-40
-52
122
-100
467
46
-57
-358
187
803
-127
242
-64
-233
37
446
-78
56
-308
48
-96
-412
113
-67
119
-752
296
-20
197
-77
441
-351
-562
471
88
255
-92
-35
-614
241
-23
-684
78
218
-201
-653
328
36
60
-29
-164
9
-143
229
254
330
-636
125
176
-75
525
26
268
138
-207
265
-153
-341
137
-155
-52
-124
-970
-86
-387
-357
-184
248
-707
-151
29
-119
287
204
-12
-364
640
53
-306
-337
-21
164
44
-344
-370
260
-303
94
558
-22
-593
49
-63
554
-520
155
125
-169
-473
3
-73
-296
-97
533
-663
-656
-69
-286
9
-75
55
179
-121
-557
-511
303
-309
-146
452
39
36
-14
-413
-184
-622
-23
-205
66
700
-389
-365
-59
556
221
78
-93
151
-322
-59
35
-183
-128
212
402
68
221
365
-19
-216
-89
271
169
-25
-249
-158
-449
-123
-877
-245
17
-347
-220
132
573
195
-652
220
-115
233
-140
-121
-650
-472
70
529
-91
-213
-814
81
577
557
260
-49
13
-536
-107
332
-358
-103
-107
-606
-527
265
-154
417
120
229
-9
-331
253
-170
192
-107
-180
-120
12
-614
-141
-257
-297
262
26
-259
-541
31
65
-529
163
300
-418
-444
28
-424
79
-423
-139
-72
97
78
-213
517
-66
140
310
-174
-184
-314
-6
369
223
308
-680
-143
-147
383
-121
-132
28
-410
88
-358
-80
-170
-246
-23
-674
-6
-36
433
-465
-296
-206
-326
477
474
-87
699
655
301
326
621
60
-246
-361
-204
665
-55
200
-82
-223
147
-16
-45
-460
338
-452
-386
250
127
59
363
-28
137
-202
39
146
-29
-274
-39
336
-270
400
887
-92
-286
-120
-16
165
-35
581
-221
-29
-394
512
300
-40
-28
-295
587
420
492
281
75
-130
-124
-103
319
165
-89
15
199
-151
-70
429
-139
379
931
40
-66
-86
73
213
-16
25
-279
-112
483
252
347
731
-302
48
-63
-95
278
-67
58
-5
-63
-103
-145
572
-348
12
267
-103
646
186
507
149
98
-60
318
-198
-56
-497
335
-298
576
80
-298
-53
326
78
378
-78
-105
480
-211
-314
167
348
-89
345
-150
45
195
295
608
144
2
224
293
271
267
380
153
-168
170
-386
926
-627
-226
716
253
-136
704
107
317
229
527
-40
567
416
-276
-493
557
-484
423
-237
-300
205
-190
503
196
1009
264
60
-133
-164
150
715
673
156
-4
-258
-419
97
-182
-141
377
56
149
-295
-35
-493
180
-92
-72
137
-176
213
676
-195
56
574
-38
-594
272
-276
-154
-255
75
-840
371
-30
526
437
-120
-2
-256
6
-874
237
-31
304
709
-293
-117
176
-707
366
-67
-96
-40
158
-128
47
132
434
267
5
169
814
-229
115
229
-186
633
-85
-160
216
-623
-265
-130
58
202
-296
12
494
-147
569
-231
176
-230
-102
367
463
-776
162
-313
255
23
-398
394
223
-553
26
96
157
217
-414
-710
-77
-219
387
266
-152
163
-273
-381
-33
112
85
92
62
-205
321
69
24
583
207
31
211
321
29
68
151
159
-77
-301
105
-52
-252
277
326
8
176
664
-308
-347
245
-277
293
283
-148
-523
251
86
10
189
-20
448
-123
422
226
649
201
-53
15
-274
-696
-59
182
-68
-183
-70
-159
61
324
263
-66
202
-200
62
208
-268
-4
259
435
-441
170
-78
-170
-129
39
644
-584
37
-144
-736
278
236
866
230
284
69
358
243
100
576
-502
12
-278
220
240
-16
312
-48
-204
471
94
-285
127
-27
-43
338
-180
178
-535
123
70
229
-262
-101
385
-417
738
-436
369
130
317
360
134
-168
8
-144
320
-165
-230
-49
-25
-269
184
153
444
109
-1
96
-125
129
-148
-316
-32
193
-223
83
228
80
282
-99
-10
-368
460
-306
262
-64
-110
573
-142
517
31
204
-87
130
119
-311
-358
446
4
13
807
244
254
140
-123
-8
475
-113
247
-105
-203
-138
476
-149
396
73
-179
112
106
-395
-464
109
-99
0
193
-272
439
884
-191
378
-768
292
123
89
-441
56
297
144
-398
411
-305
132
376
-283
631
-457
-322
206
40
-203
119
704
-139
259
41
-330
84
-31
-4
214
143
101
-412
247
411
147
-20
-516
-22
664
-114
1037
-173
-155
264
-351
661
83
887
418
64
-237
395
-191
371
-277
48
401
77
-313
-185
-668
-85
-179
-94
392
-224
-42
430
351
67
-549
117
368
488
79
500
95
-135
-254
-147
290
-96
-437
321
36
14
-378
182
-211
16
7
-496
-163
346
303
-122
-176
-39
108
15
40
-705
219
337
-88
-692
-386
-174
-58
121
335
148
223
-5
-219
-249
-76
51
-89
-117
619
-219
322
287
-28
198
348
-255
-652
2
481
115
-137
336
101
321
51
103
78
-353
282
105
-107
553
138
678
-198
-252
-124
-364
64
-43
-195
-206
-283
314
-72
239
-321
824
339
-559
-465
-2
114
462
-224
243
108
-131
-138
-418
190
34
188
35
-549
113
400
69
325
163
332
-273
-75
-212
163
213
101
150
196
95
338
-357
57
259
-395
-203
-253
-134
834
111
-293
-78
419
622
-475
231
296
-130
-206
125
780
104
316
166
319
-236
-63
-174
222
133
542
189
-132
-278
-121
872
2
-248
-139
283
-366
115
1275
-450
-212
766
11
-289
83
-76
-283
-360
-143
134
-83
-234
86
-130
521
-877
458
-337
348
698
613
135
506
185
-354
183
380
389
-166
-242
352
-241
-264
-302
314
377
-205
37
0
-345
142
-85
-253
261
-692
-647
530
-613
134
-119
216
-209
263
21
-431
-258
913
82
142
-93
-239
-39
-206
333
295
16
-66
-579
253
-129
-112
587
717
-182
-19
-481
300
-575
413
-141
-144
-116
-2
-617
593
229
564
-183
224
-369
153
213
139
-364
-193
-33
-157
-110
162
-188
271
270
-370
37
254
-314
139
266
280
-195
1132
-370
17
-258
-454
-338
-211
-66
-440
-101
45
-9
475
-336
852
74
262
352
201
-260
181
65
-53
-96
-532
-374
137
-211
-511
327
155
-63
-10
-31
243
-209
695
61
-403
-21
617
200
77
334
-100
-297
96
459
-267
-302
181
-7
-65
-118
-131
-546
-360
-239
181
117
369
-163
-192
65
-282
-359
169
-358
-269
366
-318
80
442
-11
-507
-89
23
-165
-114
24
-522
-625
107
-264
424
-306
-57
89
-90
-204
-235
-147
253
-174
-233
432
410
-397
-336
-89
-306
-187
207
279
338
245
431
210
84
-11
331
72
320
187
-293
384
-170
-240
413
-372
-88
357
525
-300
-15
176
-73
-274
154
-48
271
159
-131
-164
162
571
221
894
-638
-254
152
-7
-44
-140
-3
29
-376
259
213
-241
298
-419
290
-80
-70
-229
240
-212
259
-193
-438
194
165
-96
-409
294
246
314
-303
-246
-83
95
31
524
-203
-405
313
113
237
-153
-106
-188
53
14
-72
78
-271
-151
496
138
232
-180
-271
-66
339
-15
-284
147
-513
-33
1
-169
-449
-70
-124
-206
227
-410
-146
-298
-96
-507
487
-79
-126
155
-77
236
-122
54
-4
243
-236
247
295
-148
-36
52
377
211
-445
-641
-97
-93
-446
368
261
147
-121
-503
159
-284
-245
-274
226
96
-380
-95
115
-170
23
-333
-421
-422
-259
124
83
197
-401
269
-512
-443
85
557
-8
-553
-130
-134
282
-387
-751
-462
-32
-27
-433
201
-9
-271
180
46
-438
-77
378
379
-106
69
-535
112
158
10
-140
-321
-762
385
-168
-124
-187
140
-39
35
-237
-468
-35
-723
260
192
-91
-189
-603
23
49
-27
171
-164
-494
-46
-360
-417
158
-264
108
-208
-339
179
-290
527
-200
-561
-416
-179
351
80
-444
24
-192
-113
123
604
165
661
-24
373
-491
13
516
-71
-271
-150
40
-59
-249
-299
175
-214
201
-115
-18
-169
33
373
-202
-293
-114
6
351
-180
6
180
-605
-9
54
-374
-74
-1157
-360
-538
15
-507
297
-327
-59
-304
242
52
-835
42
219
43
444
-4
-237
-836
-238
-350
-493
-762
-142
69
-18
178
31
-478
-54
-297
-86
-117
-268
-165
-64
174
-24
278
125
91
-135
261
176
-17
-32
-626
61
-396
-146
-435
130
-191
-120
254
28
-290
-114
-406
-319
-206
-263
-534
127
-372
43
-72
-206
266
-389
480
-35
238
-502
-228
-130
-73
71
-527
746
-353
-312
-293
74
-160
-376
215
-260
289
199
-332
-56
76
-153
-489
-327
-587
268
-151
-206
-130
16
-194
62
240
115
-281
-417
-25
-71
-101
-393
-334
241
-154
151
-158
372
-11
-129
320
-404
-159
371
285
-486
-183
-662
87
-512
-67
-68
388
172
167
331
-381
89
-19
-611
-36
-153
-652
-148
-265
-252
-284
46
-566
9
-404
9
89
-641
-350
-844
75
-291
265
85
-100
260
434
-490
-316
41
216
569
190
-350
-401
-13
-105
47
156
-272
-419
-1116
-202
226
371
-215
117
-440
77
22
-196
98
92
-348
197
123
-124
236
-335
-695
-620
523
-26
191
-156
105
-433
-102
383
25
-405
-172
145
-56
-161
-228
-179
-944
-308
-353
-142
24
-186
-428
-788
458
-427
144
-2
-1143
-218
59
364
-201
-359
380
-274
317
126
116
-546
-537
218
-93
131
-80
58
308
-306
8
207
415
382
503
-272
161
-253
-46
-346
-441
330
-313
360
-263
70
251
-6
-122
171
-366
-158
126
-323
-324
255
-919
40
-285
143
-214
-265
-198
-45
-222
147
703
-170
513
188
-353
-650
63
-249
-242
-26
374
-30
-351
287
334
-242
238
-274
-84
155
136
388
-145
-16
193
284
332
-717
268
103
-292
-402
-223
173
-59
-465
-374
-352
-165
-438
27
-184
258
179
435
350
409
-418
-69
490
-180
-141
-156
153
-706
-228
373
-260
-376
-125
-147
-167
85
-130
326
-54
-355
232
539
-870
189
135
-76
245
95
213
164
-26
-14
2
372
186
-505
-36
40
26
275
-221
1035
286
-287
-325
328
-79
-235
593
266
-201
-581
88
-142
-124
387
-121
348
371
-562
479
-112
-313
-338
-30
427
306
381
-102
391
-225
-107
-21
-511
-269
358
-45
-556
662
540
-201
-153
690
41
-151
-119
-15
100
163
-246
213
57
467
595
-276
311
-313
-1
-105
93
-87
152
-288
145
271
-171
-179
-193
-350
-178
-74
-18
-425
97
263
152
-318
248
217
24
-77
453
165
-17
-35
337
326
-177
-340
465
-123
-222
58
22
-342
186
-452
-214
412
-324
-46
-117
1
-28
406
432
-153
-338
248
115
-502
132
-386
-76
-310
-282
572
-331
443
138
128
-336
37
349
325
540
125
326
289
249
-610
-202
-47
138
-323
-446
-296
-219
-139
-252
121
363
-21
-338
-44
-551
83
-229
475
580
94
42
-120
411
-37
-425
186
-75
290
436
414
-38
-102
89
299
38
511
248
-339
210
160
258
271
-504
670
-568
156
8
79
296
-143
-235
-433
-229
-224
-192
406
134
-222
-305
-465
421
-313
589
380
-220
81
180
-394
-356
389
78
-202
42
-21
341
-62
-177
146
-105
-61
91
-509
-485
-510
-177
-245
387
45
383
117
-223
638
357
13
-66
0
-110
407
-450
-31
179
173
-198
0
-136
-86
162
-344
-515
-271
-110
-290
68
110
10
-324
-47
-452
-61
-133
-60
-174
-554
-207
-224
-121
-488
58
-400
104
-70
222
-434
206
7
249
109
-37
-82
370
131
339
28
-171
-133
-176
-102
145
232
364
-897
-47
159
504
43
185
98
222
316
-265
-25
-276
235
-92
422
-104
-251
123
179
-45
555
-337
-397
242
115
88
42
115
40
-188
423
-235
295
304
100
-48
-123
-126
-35
48
294
-796
215
43
96
-91
-274
-723
44
-605
-419
365
-146
135
-529
4
55
-364
-15
-461
106
-64
59
-22
-627
-145
-37
-208
350
239
-261
-145
445
-49
-232
-189
-33
-256
-195
-106
422
224
221
-38
45
-259
-148
386
-297
-339
-429
265
-512
290
42
111
-308
-613
-105
-87
-258
-148
144
582
-103
-126
-94
718
-54
179
-272
-1
-77
-523
458
9
484
-109
-197
132
128
378
70
-572
-33
39
140
-110
202
185
100
-320
-242
100
476
-510
-335
90
-370
-100
336
330
-1058
90
347
371
125
-210
277
-247
286
-364
89
457
66
137
-215
207
105
-51
-218
32
-93
509
104
90
-77
32
-474
-131
-314
-634
-467
-201
-96
142
-650
-49
-67
158
37
-252
-221
71
-282
422
-145
281
-189
303
-63
75
-74
-283
102
150
256
-704
-545
-16
255
371
-32
354
89
-10
15
143
70
423
-384
425
-18
-354
77
-395
-212
427
-136
248
-36
-213
-106
-3
-178
-124
327
356
333
-439
71
-495
280
-399
-161
-93
-246
346
398
-449
280
-152
-306
288
-290
-136
-332
-47
52
47
-384
-636
314
188
-221
290
151
421
194
-71
20
-67
-195
238
-143
415
262
-331
-8
160
303
-97
39
4
-238
192
107
379
56
-109
-112
204
-7
-92
52
-63
46
-67
-923
-52
-94
25
-183
-138
273
-256
-520
-117
-415
-143
79
206
102
-719
352
192
231
174
-170
-190
-216
-2
361
-126
375
-677
210
76
28
-311
-351
-180
218
-439
240
160
3
3
-393
49
625
-66
-340
-67
582
-278
-314
431
80
-302
429
61
338
324
273
-350
92
-121
487
-47
136
-77
-51
531
916
-668
337
148
-348
-15
-185
-155
218
-31
552
-417
249
368
157
-366
90
-236
237
-127
-162
-169
60
-243
182
227
-290
-532
473
153
-220
234
-170
111
-124
62
-319
85
128
-710
-110
173
-546
-396
8
246
137
86
-268
265
-9
86
365
-147
-115
154
242
157
-338
42
177
340
191
-38
24
83
-224
309
-102
501
-109
265
121
478
380
43
-291
273
-236
-507
70
-436
-163
-365
50
-143
401
-54
-176
-168
-114
0
24
-67
520
876
190
-790
19
-344
428
414
-374
15
-79
134
-385
-639
519
310
372
-148
-128
-318
38
70
-563
64
198
-313
-225
-147
14
72
-331
395
41
-334
626
517
272
-93
219
358
-410
-323
152
-188
-123
-358
502
-107
59
407
-121
-448
265
-256
633
-104
-400
100
418
-343
-68
420
242
-111
114
-87
-206
276
-73
110
-142
-242
277
-124
-756
350
22
438
-397
-213
-437
270
-24
-153
288
-112
12
-331
-153
-373
41
633
51
166
-58
-31
-38
166
148
429
-112
156
165
-81
-374
758
174
-684
291
8
85
-165
299
1075
185
74
108
-133
269
25
-337
540
293
177
376
-327
350
259
104
241
-6
-51
66
67
371
280
439
596
140
-205
-231
-403
-330
-257
-60
-171
-382
60
712
-103
265
-364
599
-495
-605
-425
8
-21
301
-53
-379
-79
-190
222
514
123
240
-487
-496
16
479
23
-286
548
175
-157
-278
147
373
-650
-277
177
25
208
-270
-237
309
72
-465
-147
27
-497
727
-177
-371
392
-9
195
402
70
36
798
7
427
711
362
195
204
-199
461
-603
395
-342
480
62
1
127
-596
-401
502
-184
129
-172
596
-103
78
-592
-11
199
-497
-50
178
452
-338
97
432
-409
354
772
56
547
511
-476
-218
267
0
-478
664
-226
1080
-266
349
-106
480
143
-153
200
-43
-49
256
146
83
-235
108
-437
-178
113
-402
129
-563
-42
363
306
67
-103
30
-25
332
25
-164
225
-518
173
298
-54
-87
-137
-91
-360
7
11
-109
185
-32
-240
-4
-484
38
7
-235
-701
161
-190
-461
185
421
-430
-133
119
86
-192
125
256
85
-75
-95
113
107
21
101
-32
88
477
-223
1
724
-43
-30
-71
324
-202
-146
345
-244
237
184
287
278
-91
4
-54
-747
-407
-104
-406
47
584
605
-330
-54
289
64
618
-89
300
252
-68
302
65
384
941
-81
358
-41
-25
124
81
323
-321
-58
75
558
300
-327
457
339
-600
-75
342
416
-88
259
222
-210
327
-451
109
140
7
-239
-555
-120
-60
304
308
-315
508
435
58
105
-325
362
99
178
-237
302
-215
12
376
-205
889
-237
32
0
-273
528
857
-266
-203
312
380
427
239
528
-116
352
-23
-56
-28
-109
-118
144
210
-755
-130
-88
-177
260
-112
267
158
26
293
83
-602
184
85
-137
-507
-119
217
-320
37
-12
-320
107
76
99
431
-375
43
156
438
359
512
-365
-401
187
570
-312
336
137
126
129
790
29
-25
-193
126
-25
-42
-801
318
274
-102
570
-414
588
-472
94
61
114
-620
269
96
577
-21
-224
-303
213
46
290
113
149
-53
271
562
315
-601
-348
189
-160
3
50
80
362
62
269
378
-181
1173
-146
255
-484
674
628
-664
17
433
173
699
-112
-97
381
-153
94
-330
-79
-286
-374
-171
-144
122
349
11
-93
284
33
169
-471
517
-177
85
107
627
79
413
57
35
-397
-203
109
-145
-182
19
239
107
-547
159
246
107
-252
-405
60
-202
-109
-35
154
-21
-47
-199
119
-104
873
407
-78
65
759
-45
324
-40
677
653
233
-204
-608
14
689
-53
-138
-523
-12
37
228
-115
219
-267
-159
158
118
-73
-8
164
60
-512
778
-172
56
-189
93
-107
129
187
-43
-55
662
203
73
185
-179
278
-399
437
460
-195
1324
824
-192
147
-95
-296
371
78
37
-10
193
-470
-255
-94
746
-711
202
336
-23
271
16
-21
-448
-75
83
-245
-282
-532
-91
485
263
-415
-40
143
-259
261
432
-11
40
116
-132
57
-191
13
-199
79
84
-90
445
81
-359
-238
-64
-476
409
398
-245
440
-318
-133
-36
118
29
244
-156
846
-483
-327
40
-490
2
199
208
320
12
252
-110
-296
-240
99
-187
1256
216
170
-84
302
400
-20
194
4
210
185
633
-173
101
246
-189
-416
57
-109
419
-93
1
284
-573
18
-140
361
206
89
195
-72
-230
-64
59
-368
-166
-107
778
-133
-52
-145
-154
225
66
88
-276
-33
-171
136
-29
-12
-277
31
24
55
-326
455
137
-935
-313
54
168
-64
-138
-114
-249
-65
-385
544
-96
-360
219
-11
-1
520
310
-114
446
259
177
63
207
-30
-902
494
298
418
556
-473
65
21
209
467
-11
-552
279
-50
-427
-168
-29
-156
-105
-211
156
59
-318
203
221
166
288
-603
-212
-4
-52
-263
959
-509
-95
-433
365
-373
112
174
-369
280
-180
220
-122
-658
-44
-110
-337
-281
-44
284
204
-91
232
-300
270
283
268
306
-15
108
-663
83
-507
-310
-12
34
254
117
11
-664
121
166
71
-71
-431
37
514
-187
159
366
-284
-49
205
364
415
34
169
91
200
443
-280
-409
-56
-152
183
-63
233
-212
221
36
431
-384
54
-326
-135
-428
43
68
490
-229
-304
-78
488
-339
235
245
383
-50
-416
269
-505
280
-250
-83
282
-467
149
-178
82
218
5
315
-148
55
-18
-431
-426
129
253
-480
-495
-567
-50
-299
-261
-637
186
395
224
159
-211
-317
58
-557
475
-37
-260
333
687
456
-45
102
-318
-145
255
699
372
161
-596
-133
538
-309
-145
48
124
130
26
-78
-336
-143
282
165
135
461
74
-265
-52
54
4
-624
71
65
168
269
-7
234
28
720
-69
349
181
454
-405
-241
-330
-203
-214
295
-164
279
-2
369
-144
-133
-418
-106
-335
-113
64
8
-117
205
-4
-6
-107
131
-123
21
257
-171
0
-165
-590
245
-314
-678
-159
60
-50
970
426
-82
-86
-205
-288
511
133
196
195
-59
683
-321
-271
-43
-542
43
-33
-19
148
-211
76
-303
-58
-429
-317
382
-48
-102
502
243
-117
-43
209
-231
-465
243
129
286
51
29
14
254
197
120
-237
146
241
140
252
105
22
28
-278
-128
75
-570
172
-195
82
111
-215
-19
209
398
544
408
-181
302
196
-167
339
135
-255
390
-6
-332
-209
100
-48
-259
59
14
112
323
87
-34
164
41
-334
29
300
121
204
-40
159
343
7
155
387
178
210
-47
-141
272
110
326
-101
34
246
95
328
233
-8
-95
-473
-127
-218
-280
-112
106
591
-225
120
101
-62
-325
247
-43
187
320
-56
-263
163
-550
-148
247
-198
6
906
186
121
235
367
59
-133
-368
-65
222
-362
-30
-37
-474
184
722
-392
-496
103
29
25
-804
241
206
-1
40
-648
502
60
-179
-165
53
322
-574
399
304
590
26
-189
-216
18
83
-14
287
55
69
-36
9
-481
-16
14
525
-597
-156
295
419
-540
448
374
-119
-114
59
265
94
208
383
-185
270
-352
46
428
676
387
-201
-408
-54
218
-485
56
-257
705
265
-283
-390
382
96
278
-52
-348
292
-2
427
-340
252
488
-315
-479
-180
-276
47
-83
-330
650
188
242
207
37
-71
367
-146
3
273
-121
260
85
-353
108
626
283
-395
322
85
-178
-169
-142
-497
135
-335
-139
-40
946
-346
-96
-28
-107
148
64
-115
-97
88
144
-311
-457
-21
282
581
164
-284
-444
-87
166
-154
-108
-252
-83
25
-343
325
299
-123
-165
169
400
317
-150
-416
66
109
92
-638
-263
-171
570
580
-561
-89
825
375
248
-296
421
569
-489
156
170
647
794
173
212
432
-526
-187
152
-105
472
-47
-374
259
587
102
58
-430
-94
-346
646
-307
449
123
-278
188
158
402
924
746
114
366
-346
613
33
803
-90
209
374
667
903
197
1102
73
198
40
-27
-267
369
182
302
978
-470
-133
-47
244
40
-347
178
71
40
35
-501
117
-37
181
-651
-119
429
1040
605
-536
-133
290
104
-171
-273
-196
35
-700
342
576
-245
126
233
-15
197
261
456
-146
237
7
-104
310
1011
-52
58
166
-284
471
-133
286
-456
-689
-114
-1096
173
212
678
55
183
-533
56
-111
98
-278
492
260
-52
471
893
110
340
-24
82
-271
-128
-312
62
-104
810
591
-395
-163
-144
-270
-283
-544
-56
387
-172
34
537
203
212
-249
-35
-7
-100
400
150
-133
-26
-24
-22
-55
145
102
257
504
221
-258
430
7
467
-410
-334
-738
742
-220
519
314
245
132
273
-221
247
-242
-121
79
150
376
194
326
-211
-957
114
36
184
-207
216
-193
-479
124
200
322
15
94
-132
-78
-774
8
136
-109
-267
93
-26
16
-233
44
313
-702
593
298
13
292
-107
16
-179
464
-121
490
-125
-78
247
-107
244
258
180
50
-90
282
-405
113
-177
-425
-63
956
77
389
153
-176
244
-266
-163
-703
-225
21
635
-68
608
-300
-70
394
423
134
-375
-72
423
38
247
278
-257
148
-47
371
63
-558
197
-26
-87
-54
-137
185
12
-470
-186
-471
-110
-165
891
-184
207
-91
391
342
-652
-339
-689
-92
-15
-549
489
192
-330
119
-436
-458
134
-5
309
247
-102
32
-181
-4
-291
-57
-285
-273
145
-103
-308
-309
-255
41
-27
-21
-81
-38
184
-595
-297
45
264
-489
-256
-62
86
28
-210
-143
170
258
-74
-45
183
-925
394
344
111
-97
-298
87
-701
145
339
-461
258
-555
-538
259
-1
-132
134
-85
46
-828
-291
98
282
-138
388
219
-464
-360
312
-335
-54
225
5
-263
195
-217
70
-582
-70
209
114
699
-185
160
263
-46
-172
-72
-61
-519
21
395
202
173
327
-58
201
-124
55
-164
-168
532
-78
-284
34
701
-137
28
-225
-79
291
309
91
-106
-134
239
406
36
221
-141
274
329
-301
548
308
78
-112
-253
380
-237
457
-198
64
175
-455
-568
-585
78
-96
-494
106
-379
-562
193
-16
-295
-333
-1078
84
-137
-166
174
-505
-113
-599
340
-178
-74
352
260
-588
526
-268
-94
-44
4
-129
214
52
-68
-97
-456
256
-2
17
272
-70
-73
118
-761
-15
-274
153
-151
76
403
-46
-219
-242
-653
-92
158
49
523
-238
57
24
69
317
-177
-61
-163
-560
-188
33
-855
400
21
-172
-165
-26
-718
131
535
104
-448
198
270
109
-147
-253
269
-90
-46
193
7
-139
-137
-78
63
250
282
-473
-382
95
-513
-194
-177
-336
47
-665
-69
76
272
-694
153
113
-82
46
-388
-440
411
-314
271
-337
-292
-111
-268
-251
89
141
508
184
-82
-331
418
-459
72
69
480
148
-316
-519
-203
-604
133
470
-222
-485
-230
-553
-417
-53
-32
-145
-519
439
162
-282
194
-262
-434
-357
-562
-622
-567
-137
-469
92
-427
174
-179
-376
36
421
82
-257
-133
-313
-165
-739
-671
-128
-285
-261
16
-111
-24
309
-971
-637
-337
-523
125
-84
-315
116
-516
42
-1019
-234
-286
-224
513
217
-446
-90
-276
-463
-339
-445
-395
-81
-642
-69
602
238
-90
-11
-10
-348
111
-402
-209
16
-335
-55
-219
21
-317
-466
125
-218
215
-348
-161
168
285
202
-526
663
26
-541
131
-436
347
61
49
87
-546
-325
220
208
533
-11
26
-288
287
45
-61
374
123
-305
399
443
394
299
187
-176
204
-256
408
67
467
-182
17
-197
-392
-91
249
282
66
-187
278
154
310
-231
184
509
-166
246
-78
55
141
-304
-107
-706
377
507
-125
-116
286
855
414
-356
84
159
107
-253
432
-58
723
-7
114
418
405
213
-271
121
-90
-29
353
16
434
340
32
358
-420
-39
430
296
-73
912
41
556
252
-660
99
117
-157
1
-399
-134
309
-21
-192
179
720
3
19
11
102
74
-368
58
-368
-462
-76
371
1179
19
206
533
118
-367
-83
-116
307
67
-208
455
252
-29
-136
-13
851
146
673
320
-163
1144
268
-357
-472
-402
172
-121
155
-271
-192
515
316
-66
85
242
837
-113
29
-61
-16
278
257
165
551
-908
-239
-99
257
228
81
147
272
-134
-609
-574
-262
362
-259
-318
422
-71
683
387
148
-225
623
88
-352
-182
321
423
214
-42
-634
426
-71
45
-330
-467
-354
45
-7
-447
240
-5
-22
-132
35
241
-337
109
-27
115
-40
29
267
2
408
692
76
89
721
20
-343
292
33
-77
-94
246
-67
824
109
232
257
301
-39
120
-170
-6
-88
149
172
275
7
-141
356
68
-393
-357
51
-295
-118
496
11
-119
468
-410
28
294
-246
-23
-585
-111
-280
936
-23
203
95
-233
8
-231
-395
36
-149
-250
84
265
-71
-322
-156
264
-26
404
111
770
-602
748
-319
-97
302
24
349
216
155
-24
261
628
267
530
474
329
386
70
-245
-586
-531
-344
475
303
-729
-291
409
211
-259
180
97
20
-249
77
584
372
190
288
11
-390
41
228
553
72
358
-330
-191
-26
1
185
-422
1008
-161
-126
265
-277
-43
-92
-157
222
20
108
334
-460
39
-347
-58
-41
669
313
528
-114
253
-617
-449
-104
194
-264
368
303
-241
-13
324
-111
12
1
291
-130
266
-208
1090
373
425
-109
-282
277
341
-213
166
-101
-96
-622
382
12
-140
-89
497
-210
311
81
475
73
-217
-185
-294
-274
-398
39
-488
-78
376
-93
138
63
73
9
-52
-139
173
180
21
296
-422
861
307
-7
9
595
707
-206
491
222
458
430
-121
-254
-359
364
-213
93
397
357
93
370
-405
114
206
269
314
223
112
-353
180
392
-264
148
-37
-60
-59
-83
301
371
320
-300
-73
-525
-452
-159
72
1293
136
-97
844
144
257
325
590
35
-6
48
-400
-502
-458
-89
-309
-161
685
-309
166
221
626
66
378
-154
28
471
-81
-56
574
212
-25
115
176
643
-265
754
109
120
-579
417
-182
-355
306
-325
-107
172
-234
5
709
87
-186
72
661
38
246
-217
-36
-22
-154
-346
-224
100
-26
193
-471
478
446
69
-117
-318
179
117
-474
-122
333
380
63
447
-209
-352
-39
70
404
-546
571
325
-257
-76
92
55
145
519
67
388
151
-59
-20
348
381
-442
280
-126
-393
292
-32
-20
213
245
269
-332
199
-160
442
515
360
446
-243
154
365
-306
66
156
-181
-139
-368
-470
426
224
-122
-363
15
200
-326
-21
-2
-38
656
-150
-125
821
-20
-301
196
582
-14
-283
300
48
180
254
575
18
252
-33
-73
29
-78
428
-53
-181
599
271
118
285
-392
111
114
-232
-206
548
511
191
-229
-577
158
154
754
298
810
-182
214
271
877
-13
247
112
-180
282
421
-127
-263
35
-221
220
-53
-559
-171
-187
537
-165
36
434
-334
-190
190
-391
346
228
-190
-75
-169
32
109
-421
-431
-271
238
88
26
-127
321
416
-46
-636
641
-83
-352
521
-450
41
201
202
0
247
323
826
-505
226
65
-132
549
402
-253
-252
682
-283
-210
650
313
109
196
-213
-967
-212
-128
-151
-83
73
344
1190
434
-475
330
-197
542
-41
89
263
73
120
-8
-149
913
59
-237
-56
-992
74
599
379
261
-1
111
394
-98
19
-8
202
110
19
397
951
-209
-421
234
648
-80
675
201
-630
-44
66
320
254
-44
-397
-2
237
-355
-97
-228
21
-165
-158
35
