-76
125
370
136
339
-179
-238
335
-634
131
-25
238
-917
-100
-96
-176
-66
-280
75
223
409
47
-504
-542
290
-516
179
-283
226
-275
-42
163
159
-3
-308
-443
190
8
105
607
-409
170
224
247
-326
-196
-327
-224
89
-135
-56
-56
53
257
-300
26
575
-287
-193
257
109
91
474
-42
-180
-253
81
235
-44
-538
279
966
-275
-662
194
-398
-196
-970
-214
-390
-174
-275
251
509
663
1252
-222
533
-309
-228
410
431
-273
-267
33
406
-533
253
-124
-340
-121
116
-158
-90
288
819
-122
-434
-35
180
194
76
-220
-156
151
-219
106
-232
-176
578
-438
-77
244
-363
-21
-620
-13
235
64
-300
-446
-681
-196
121
-303
-32
-117
389
239
-103
355
-63
-270
178
633
92
-168
239
-539
-265
-33
36
-59
39
33
-121
-188
-81
714
290
-89
-58
423
171
566
203
638
-89
-678
106
644
-442
-636
-228
-72
633
-671
108
144
312
648
303
-57
-565
-23
-254
-538
-440
503
91
-258
-446
5
402
646
524
-442
650
-171
495
-206
-617
318
38
-108
-348
-795
-56
141
459
-177
-19
-71
-157
102
296
136
462
115
-595
-90
52
119
-190
679
248
590
179
-382
-55
212
-29
-361
335
-15
-66
-319
-401
116
-369
142
80
75
346
84
-204
431
-539
49
-287
-226
-404
-528
44
128
-637
-150
-303
50
91
722
-125
0
-965
-329
261
-459
-406
43
635
297
273
611
-405
89
-752
-442
-440
-250
-531
243
-214
428
391
-231
349
-117
51
12
-504
385
125
-184
-183
-507
-425
134
-412
220
346
-250
478
-138
-62
327
46
-359
-71
337
578
-19
318
430
15
167
-360
492
597
166
-247
132
-758
347
-54
-228
-256
-541
634
-338
-113
206
-461
136
163
69
-185
323
712
-305
321
376
-838
425
195
-186
-179
17
189
236
-540
-159
-261
465
-488
155
303
-665
-60
402
-210
-12
-582
-71
-119
119
441
286
-619
253
618
83
158
-397
-37
-543
-239
175
914
-274
142
-172
45
403
295
129
-149
-157
-585
-193
498
5
780
-127
70
362
-261
168
-403
-401
395
-271
-364
-143
47
80
284
-276
-302
-203
-189
-329
-728
-53
125
457
561
182
196
-99
59
285
-406
231
-12
453
3
-122
110
197
-146
45
-12
-251
-602
-51
244
114
459
481
-431
374
-32
-596
-178
548
-387
65
-68
-797
-357
-247
-353
60
710
-656
-421
209
296
-325
-487
-38
-66
-36
-654
1075
619
-590
362
-727
62
265
103
75
-180
-103
518
-563
250
309
212
-636
-84
-111
538
-36
784
3
548
142
-340
196
156
-151
302
-181
567
-619
91
-337
176
394
-164
116
64
-521
-35
-327
173
-339
164
385
51
-269
-743
243
-372
-473
110
954
-57
327
-152
15
-9
-470
-480
-62
80
-138
-682
-439
-20
294
277
-587
175
-225
-194
306
546
-67
213
-105
71
55
226
-146
695
458
-73
22
71
-304
-347
-528
-60
445
126
-521
110
99
-408
28
-115
6
332
117
849
-533
-48
843
-713
364
254
-332
163
701
-90
-238
18
200
449
30
-426
-212
138
-493
352
-347
-282
421
391
-357
-502
484
-835
269
-37
355
-105
-182
1241
-630
-791
6
-636
325
-282
503
391
370
-510
759
-173
-69
218
22
224
270
-518
-56
-176
-310
-207
323
-705
-681
272
-424
-126
103
127
-214
-272
491
611
210
555
-98
-144
97
517
-413
670
-184
-573
11
-699
379
-300
-641
-314
361
-105
-38
97
1052
-242
491
668
-700
-869
148
76
-35
-224
-90
-582
192
362
-81
89
149
248
-181
19
255
76
127
45
616
489
-147
-796
-70
-58
-6
444
505
195
388
156
392
84
-294
-140
-327
-4
143
-391
-209
-893
-174
286
-77
493
-513
284
-415
254
73
-447
46
293
-277
429
456
430
187
457
443
-280
448
-458
3
-56
-264
-9
449
149
495
-488
178
628
1
-417
-306
151
-34
336
158
-711
256
56
-402
488
-69
-9
307
-105
432
136
166
-386
-194
155
58
-203
361
-428
589
31
-34
-338
14
183
450
-356
125
214
-904
-344
47
112
-486
-307
-298
108
1022
350
78
-21
315
451
247
74
-392
-231
553
-540
-509
-117
529
721
-476
-495
-79
-614
-664
244
-1
213
0
453
-15
-479
-719
-351
455
119
-89
-2
810
-305
593
266
539
-370
230
-110
-263
-252
296
-462
139
-322
388
-64
613
-380
173
601
-18
144
412
-364
127
-30
64
372
45
384
-159
-214
-2
-393
18
-497
151
-430
109
697
41
-167
-183
94
-439
33
-114
23
-381
383
-116
279
282
203
298
-170
553
523
-48
267
-119
28
-614
-118
-103
289
-376
48
21
-289
458
327
146
26
136
-210
-83
-45
-374
-68
27
-27
-102
-659
-117
932
-747
353
-434
228
625
580
655
-341
-18
21
45
-464
-622
-260
343
541
-48
-424
-725
405
-25
-434
456
-369
434
-179
-307
601
88
44
-566
122
-29
273
-375
451
-980
-89
-9
287
97
87
-62
-165
1053
-564
-226
-229
-64
-47
247
-156
491
445
724
-380
204
-89
161
-523
-97
320
341
-719
101
-488
233
253
-161
-437
-175
346
165
-57
63
-263
314
310
-559
53
-247
-634
203
-75
-298
-177
258
-185
600
870
137
-10
-278
-44
-541
-270
237
-326
-204
55
366
-866
277
-154
448
302
141
-40
793
80
-372
47
-970
81
366
29
259
163
-155
-1
-72
61
362
421
152
-511
70
-381
377
259
145
88
-24
-319
-36
75
158
38
-282
-190
-147
-26
66
-104
51
164
281
374
84
-4
339
234
-298
589
-353
231
-169
-147
-163
113
191
-449
230
86
58
-123
320
-585
-168
-135
-86
-283
-240
-115
140
193
-75
167
218
-275
404
-500
-54
103
325
129
-105
626
-159
181
114
-156
-173
154
-138
-124
-20
-434
463
235
-43
89
-546
148
247
-171
-255
-211
-217
399
360
230
-245
-32
2
-194
192
349
861
-249
-2
111
-225
-445
-71
-726
439
275
-6
217
-586
608
-467
318
20
194
-209
-148
62
-493
422
271
-331
-322
-228
99
-448
-57
-75
-26
30
-18
189
256
892
-619
-400
-18
-267
-101
136
-921
508
102
30
-474
-539
114
142
-183
-27
-460
357
349
751
469
-545
-114
-162
790
502
-283
238
-33
-85
357
-445
234
-271
-119
-636
148
372
-541
-48
318
-57
389
600
133
-417
-92
-20
304
-213
1017
-172
156
41
273
-127
-108
297
-249
72
152
60
420
-67
-509
-218
-395
153
953
-288
-363
185
622
433
484
-122
22
-265
-63
520
-267
-543
34
87
-130
-254
-100
289
110
-141
110
-251
175
-414
82
194
148
456
-539
-121
424
-273
241
360
30
-192
-627
-47
74
-8
-149
242
-494
257
105
357
167
-139
65
-218
-204
-98
106
-39
404
-320
148
-112
-694
586
-287
216
-330
-537
-160
-251
-161
-24
552
-732
429
-622
165
-253
107
-218
-214
389
-355
-114
-327
456
428
-483
-92
-304
-401
30
289
586
-647
184
128
265
335
-92
-20
-184
441
148
172
-230
103
486
-43
757
-344
441
12
-40
-82
-537
94
-498
91
268
247
413
274
-488
294
-459
-194
403
-307
-566
-107
-366
280
-167
478
-220
294
-313
353
-413
156
62
83
344
-86
-18
116
274
88
329
-894
181
557
199
183
-16
-317
-212
101
194
227
336
103
60
100
-395
433
27
-46
-468
385
-232
-173
-488
-280
659
-758
-96
-676
-308
-130
-108
-203
-273
45
501
127
107
120
386
-140
-44
131
121
-815
0
-278
-116
-475
-231
-594
-28
-30
204
-281
336
-755
-58
-89
234
126
32
229
-239
577
186
174
-104
-81
-183
342
131
-398
162
183
-590
180
271
-315
16
-156
254
-30
432
141
157
-220
358
384
-189
-94
422
51
200
-460
-514
283
-197
-246
-16
-176
-482
-56
-178
-685
527
-164
285
-542
-132
-35
-364
70
-129
58
-40
236
132
200
153
455
30
56
287
-86
-270
-43
33
325
-584
595
-260
-191
-151
133
9
-255
-88
237
-435
-153
251
293
-87
106
-430
222
-401
-275
-249
-421
80
222
-89
393
-18
-7
-320
-52
249
349
-256
452
-351
157
35
-83
-361
-312
568
-414
-27
-237
-345
89
134
224
-392
109
14
245
-225
-21
237
477
-57
11
-250
60
364
-136
-27
-12
237
113
-168
176
107
76
-79
196
-42
314
-14
38
-56
467
-232
489
-38
-214
-456
-120
-41
-100
-438
-226
158
88
-318
-50
-109
-156
-189
331
-247
-33
17
325
389
-235
103
-657
42
-433
-241
275
179
21
-69
268
-139
-434
-175
25
171
98
228
-443
-212
287
311
463
-130
595
-113
-8
233
-58
-153
-54
-483
45
3
337
116
-264
-219
-83
5
-178
-114
-54
30
39
-159
-2
-186
376
99
-228
-4
179
241
-213
92
208
-451
77
64
355
-334
455
-274
262
-111
147
-385
-257
-157
356
25
-110
-69
-408
293
-272
638
-198
169
303
-37
-172
86
330
-447
-277
-402
60
230
-280
323
-189
-115
58
-493
378
-107
-237
95
125
-198
-193
210
-22
367
-79
339
50
361
-48
240
-151
-148
3
-296
51
-226
718
288
185
594
162
-247
-901
625
76
145
-205
-236
-438
9
-222
-11
-232
-46
460
-151
96
-176
-14
210
129
165
150
-41
28
-168
151
227
-46
-54
147
-202
127
-112
179
9
-36
-190
165
455
179
-160
417
-872
20
287
-321
-175
-322
644
-194
196
-137
-85
-46
374
-259
-492
-377
-320
-21
586
-251
431
186
492
189
-132
399
-444
-486
217
583
-115
227
110
363
-569
-697
328
-137
51
70
10
-5
153
-5
103
113
-166
-526
-385
-399
-5
-298
32
791
-123
-29
3
-509
-359
154
233
140
164
141
13
217
-361
714
-173
504
-381
-83
-168
-211
105
-253
96
-343
7
235
-78
262
-278
188
-89
-120
-417
-462
-82
-500
410
10
138
98
-99
274
-36
-189
-670
-123
-200
485
24
163
410
121
-221
317
387
-251
-418
330
241
-223
-352
163
-557
117
-217
-474
-493
-130
316
561
-81
310
-39
336
-813
14
617
188
264
-184
301
-22
332
7
-103
626
-368
729
563
-247
89
-208
-614
-201
102
-215
-435
15
129
382
-421
-361
-304
-394
-98
-360
-654
-425
314
-224
127
496
-76
-177
-289
-258
391
184
-359
-342
346
-25
157
48
133
395
132
-639
104
816
440
-3
-192
-383
-774
-1
-202
-169
1209
287
321
-146
45
208
-200
73
-141
563
-222
-248
-664
29
-54
258
229
-350
360
347
-341
-134
191
-310
-38
229
-362
223
100
-147
66
-456
142
7
333
596
-247
-256
415
136
-216
109
-170
532
-221
-287
-107
110
17
791
-343
-106
-420
-336
196
-154
-236
-194
182
202
-17
266
340
190
-58
-408
-48
307
172
149
-157
168
-327
182
251
-114
132
-806
11
-487
-726
26
-226
666
21
169
506
132
-410
-180
-449
64
-349
834
8
708
438
-136
-104
-39
69
-781
226
-19
12
221
76
90
-81
148
-59
-365
-167
-310
251
-671
632
173
-216
-577
239
78
68
-69
319
155
-234
488
290
-193
-396
289
418
40
11
515
-260
-405
325
-216
766
-437
285
99
65
-494
-322
-670
487
116
-176
87
40
-547
427
-47
206
-209
-14
30
-302
12
128
-288
-142
280
-250
272
-316
49
13
35
129
106
-15
141
-63
15
-10
-17
-106
487
173
288
-166
-290
126
-237
-234
-34
103
-314
233
474
311
-94
156
-188
62
1
-6
314
-71
310
145
-153
-346
-173
222
-62
82
-447
-86
-616
183
69
79
237
-504
-125
-246
287
-485
1145
-296
-693
-452
-539
418
-559
-219
-38
-198
-111
799
-240
118
208
912
-313
-41
-29
158
547
57
-96
-23
236
475
698
-120
-194
-329
-200
-603
143
-357
-212
-707
185
-334
178
-13
-202
-616
-217
626
-87
237
-275
-129
-407
29
-607
-191
21
327
-105
235
-70
327
-673
480
487
300
168
-963
-291
-201
680
477
9
-44
164
83
348
587
230
-348
371
3
-275
137
-521
562
-175
-681
154
66
176
-501
-751
-39
-525
205
55
160
-202
136
-83
2
-60
647
-8
99
-103
67
-17
863
-184
234
-226
-231
11
-195
-578
-308
128
-115
-29
107
-417
0
-549
134
72
-168
420
-478
145
186
191
48
-504
-271
-38
198
12
-398
-201
-160
675
-258
-266
237
559
458
319
-131
181
-173
392
451
-705
182
383
11
105
72
11
-504
-199
31
-153
-365
56
-141
91
259
18
23
-283
-161
558
31
-15
-288
285
327
-381
251
-170
258
-106
92
-142
373
-121
-372
58
-140
251
131
132
-680
-171
-191
-112
381
436
-99
-200
427
146
-352
-511
-37
-83
105
-7
339
-567
169
17
-366
110
282
61
868
43
40
727
14
120
-247
208
103
-304
169
-118
-32
3
-197
90
-275
-345
-99
40
89
-366
-216
-337
-103
243
124
185
591
-257
506
-7
161
-160
1115
-586
291
-348
-517
-524
442
261
345
88
-317
19
607
189
-255
81
-10
-445
-17
176
178
592
131
-189
-661
-95
145
-259
347
-116
541
-340
-258
249
331
-312
-114
185
-188
-206
585
401
-706
165
124
-101
198
395
-149
-385
-34
-264
105
-442
-132
14
-177
628
-465
-152
207
-33
-153
-22
411
38
-191
-424
856
432
-513
-609
-681
482
472
380
-85
207
112
719
-177
-28
-236
-398
-192
-386
246
-453
-408
284
-431
234
-164
674
-366
-589
-54
-76
-4
583
-217
-204
-251
-396
-264
191
-76
-35
-66
-105
298
-198
869
-4
216
356
57
-445
-559
140
52
-418
-42
-145
164
-413
364
-362
781
-156
12
498
-177
-408
90
-639
117
-64
-553
-320
421
478
-354
-576
474
454
90
-251
-107
-117
-250
-320
-587
-288
772
-278
618
-114
217
542
-168
906
347
-289
-33
-102
-190
140
235
110
321
176
33
-844
375
-61
27
49
-619
-178
36
-193
-155
841
603
181
178
-190
299
80
-154
235
-541
663
469
-826
-251
149
-38
-177
-228
-6
-285
165
-84
-217
50
522
-191
-89
135
-321
165
-274
79
175
-147
-15
-86
-335
-92
168
-267
24
-56
-141
331
53
663
-388
125
313
-160
103
-259
154
-553
538
-174
-20
-477
-134
158
180
440
-258
264
488
-737
-24
-181
270
-525
-46
281
261
-113
195
87
-240
-406
126
-272
374
400
100
108
-159
-261
312
19
-507
326
-253
-398
86
-235
-43
-638
-122
-156
675
279
245
-55
-787
398
-103
-11
-136
-269
-274
-772
758
-357
-393
509
366
-73
-260
677
-89
-263
165
-71
800
-162
533
-484
-18
9
-394
28
350
225
278
197
-183
-394
256
-404
251
-96
-109
131
-31
295
-400
106
-542
408
7
-255
390
-166
89
-122
-31
-256
-616
-292
-306
2
342
13
353
243
394
-233
-143
71
877
-133
-304
-301
-362
-411
265
20
-288
152
557
396
-390
8
298
-455
144
-21
-91
-647
-152
-491
297
80
-86
-91
-160
-332
830
-592
-168
-190
187
-36
571
-381
318
-97
137
-107
286
-160
373
-283
-143
231
11
-177
87
301
155
318
-175
155
532
-216
-535
-190
-28
270
6
69
-186
-271
321
26
486
453
-108
-177
-562
-441
165
-646
158
-511
908
-569
198
51
-37
-16
116
-61
-654
225
41
185
118
117
-178
-345
-35
158
752
89
-89
-295
-149
600
-277
-159
-534
418
-349
-341
372
9
-212
188
316
360
298
364
-62
178
225
-191
56
-382
-133
-524
-122
-186
-271
-200
71
-187
-393
16
125
-104
-272
-273
-16
-56
-57
652
430
10
-289
-108
-186
577
298
182
15
162
309
-184
-198
-91
-158
-117
96
-539
-152
428
199
-40
-113
318
982
-142
-216
-75
6
220
243
42
-335
-524
-276
84
26
56
106
-351
-221
17
133
605
359
-237
-97
-302
-225
144
21
942
-108
112
180
596
8
-427
-418
-517
19
-335
-19
272
11
-205
447
80
115
-235
134
-185
217
-384
-280
322
-84
595
263
241
-198
-497
174
374
-247
152
-220
52
-57
-165
7
-156
40
375
39
-109
309
326
164
-52
181
160
176
48
469
199
144
-160
-72
-344
2
483
101
440
-356
-317
502
-126
-232
-11
-632
193
51
483
-95
39
52
7
164
101
4
160
-446
-299
83
3
-205
-167
-98
-524
-37
203
77
-729
-227
-175
-33
-417
171
-279
330
-104
228
-215
-201
-407
-227
-95
476
181
228
-68
-409
9
-190
773
-497
56
-480
-129
29
53
-339
-483
508
224
-25
-389
-137
328
-402
174
31
69
-153
-318
168
58
743
-278
-63
-85
157
-695
-494
106
-215
-466
-157
277
-343
62
-112
-74
1
-156
-401
-141
373
93
-147
-69
370
219
-136
435
-70
276
120
-23
74
-231
-104
391
-450
-85
-262
145
-429
147
108
-518
699
332
-16
34
-101
215
-338
329
-215
-152
-147
-348
676
-68
-106
-101
-170
-370
137
-55
237
-54
-356
312
-492
-324
-236
53
369
-54
81
262
-33
354
29
422
403
109
-399
-221
-10
261
162
-25
-205
95
-232
200
-214
82
165
231
132
-289
-592
-452
-469
-242
287
43
-2
-143
372
-298
185
367
171
185
586
-48
-192
-168
-289
-346
-124
245
252
-458
486
416
180
-131
-57
130
-53
-309
389
-256
-41
-220
-174
170
226
-309
-267
588
-491
-459
-465
129
-275
-384
371
136
-80
475
188
307
-195
299
88
267
-153
439
6
-173
601
162
247
248
-606
121
-169
39
335
-65
-67
-127
163
184
-81
45
250
-354
-202
204
-303
-196
-271
162
-53
81
-22
534
-276
7
-145
66
-210
-85
-226
461
-210
120
233
-89
100
-63
391
-364
-99
229
-128
273
163
191
-17
-131
-1
-225
-210
-159
-376
-160
164
-205
203
191
157
-302
-710
90
-11
541
369
-456
-212
3
76
78
246
-51
-54
0
79
-409
-154
-130
234
140
-79
449
174
-24
-216
46
-217
363
-368
-8
45
78
80
-251
194
224
-180
-453
249
-336
210
-103
28
-198
385
312
104
90
115
82
287
261
503
-60
-209
-143
-127
131
-143
219
419
274
-88
-7
936
216
-424
-365
-553
-157
36
51
243
-362
13
493
379
-93
-14
223
-2
496
112
-309
95
438
44
-868
34
-218
227
177
655
191
-172
61
-382
127
44
-475
-205
535
243
-694
588
153
-86
-25
3
-255
-72
74
-34
-387
-182
385
-292
325
172
94
-358
-470
279
-339
-430
50
284
-171
-590
-116
360
350
-26
-356
-92
-141
-85
193
-331
-120
24
-210
231
126
332
-928
351
-26
64
-81
-22
572
-36
-58
159
158
-302
364
227
193
-155
-86
-243
58
-384
-275
330
442
-346
432
-149
-248
-375
74
209
288
238
230
407
216
-82
-12
-8
142
198
-150
-87
108
542
113
-181
-117
113
-250
156
-256
-285
318
66
17
-313
-207
454
-43
317
-340
-42
449
-181
576
136
-104
-45
-371
334
-133
-39
-201
-135
-472
-56
269
-340
-131
-153
-65
149
163
-252
53
161
21
-225
-87
-19
-97
331
645
624
-378
66
183
-231
-216
126
-63
-142
178
-152
15
33
112
-150
-175
59
432
-246
-166
-595
-174
-69
282
-70
377
110
-155
-437
-3
-271
301
-211
-111
-272
290
-65
-552
324
300
341
-240
282
-132
198
-233
378
669
312
260
337
-80
371
530
-56
313
-310
-371
-118
83
171
72
161
-165
-22
-209
-203
-391
125
-62
-225
104
276
200
-15
-226
161
-283
321
-227
-308
308
268
394
-315
-286
-354
241
85
28
65
-333
-55
-295
156
-232
-289
-64
177
56
176
113
562
125
28
-247
-63
-121
228
29
179
-76
435
-68
7
122
-259
-369
-278
407
-87
-188
206
366
-346
14
-383
-634
138
278
-97
19
35
183
-235
98
604
-104
11
129
123
-53
-35
64
-91
20
-544
153
130
-195
-91
-23
39
-81
106
-456
471
108
-158
41
-63
175
356
-447
-37
-350
161
240
-112
450
158
-80
19
124
396
483
195
-91
23
308
256
128
-55
23
252
-222
251
320
137
214
-53
-20
-279
18
125
-255
242
-164
34
-341
-85
-309
53
-27
-432
346
-52
8
113
391
368
-301
0
149
188
-480
-170
-1
-110
152
94
-313
-80
58
-234
58
-283
-298
186
101
522
109
166
331
224
-270
39
405
-363
-205
-203
-271
412
54
-60
-296
-156
-165
133
620
159
-178
210
238
-261
90
-69
-16
-247
280
57
-124
311
57
148
-122
-36
366
-253
438
-50
138
-21
177
-10
-126
-116
99
151
-192
251
-204
-202
68
282
-209
-260
-33
117
409
-85
-480
322
-63
59
-192
383
378
-274
270
206
-125
72
-269
134
-485
14
-230
55
-297
422
-232
49
16
382
-125
178
14
-82
-715
28
291
-35
143
289
156
210
-579
-128
-172
129
223
-455
-31
341
435
-8
-46
865
-300
-16
-65
-48
321
316
-53
342
-513
121
318
173
-223
12
403
-448
-137
-170
-419
162
-165
-238
2
-18
-192
-99
66
543
279
216
-340
98
278
-108
-307
-166
331
310
-45
237
214
87
87
201
161
-89
193
-98
-82
-302
736
-45
159
500
153
-222
62
-483
-109
47
91
65
222
-694
-142
-102
-294
148
65
82
586
234
-206
-265
-62
-459
190
-388
-312
56
-175
574
-648
-87
-209
-234
621
15
-153
816
250
-213
-250
274
6
616
-146
301
-240
469
75
-332
360
-230
367
148
141
23
-12
86
-220
304
-530
317
613
-254
301
139
-155
-419
-8
-161
-248
-126
357
21
-553
-632
-189
126
65
177
335
-16
556
68
362
-274
10
-350
517
310
-58
238
130
-35
168
471
-227
81
-157
-322
181
199
-114
-145
-78
-291
-297
312
-190
-267
225
-201
-198
-567
198
-498
151
287
308
143
189
456
-400
-237
65
-181
71
49
500
-141
28
-270
312
-141
352
62
-288
16
