253
-118
-543
630
-556
421
-143
809
300
804
-230
276
-610
-245
715
-458
26
-7
76
-123
519
205
259
188
-625
193
65
-191
95
296
794
-161
116
-34
1190
-472
591
497
-103
-316
17
-408
488
-462
-500
-99
-462
652
256
114
57
228
627
-22
604
-300
-468
-493
-249
892
-247
1054
262
-119
704
620
-319
-11
409
732
-204
412
889
416
-590
403
466
371
-770
4
-247
-354
149
94
508
363
-122
644
-287
-459
12
416
-47
397
219
-504
-238
-384
-221
674
307
256
-136
-287
-452
-108
-102
6
386
597
-341
-867
1226
300
392
-9
265
-61
831
216
-284
-42
-160
569
-76
1603
31
-351
-474
-43
-670
-13
335
131
-451
68
178
-227
438
-18
118
-217
619
-435
-278
-211
104
141
333
150
-76
212
-315
-412
475
-555
144
389
-613
-266
241
6
364
152
246
-304
-19
-92
-22
-154
-222
174
210
-322
410
-201
332
552
-134
23
-118
-134
370
420
-470
-114
-146
-60
-432
-190
-87
134
-418
-766
288
-167
-89
-262
650
-232
-323
-238
229
-202
110
-669
-190
484
-1165
-387
841
540
11
-390
2
-89
668
296
-910
245
1224
-762
-112
-6
85
449
368
-362
-558
-65
484
437
364
252
-202
-639
-449
242
-290
801
228
-474
203
-93
192
231
-797
1609
492
395
-556
-620
303
-1136
-93
-64
27
184
421
-199
555
-246
-232
24
181
-310
-489
295
55
880
-36
-192
255
278
405
46
-426
-137
14
-271
306
-601
-22
34
284
-210
-385
434
-450
79
-358
-293
89
-288
-312
-168
-131
422
-414
158
242
159
49
-338
-565
-340
-366
161
-244
288
-373
375
200
66
-358
-75
-331
-1271
61
40
709
-286
-298
112
43
325
-261
-74
307
-8
-217
-262
-568
238
-191
-120
68
426
276
357
236
108
-207
-148
284
142
65
464
-253
28
115
292
-221
6
-7
-223
-22
98
-97
-243
366
313
-56
274
-196
124
376
-209
-29
109
-166
-112
92
161
122
-15
63
-33
-482
-283
-178
-557
-261
-137
-970
-251
-483
495
-380
-517
-15
65
-32
-358
251
114
-488
-190
22
260
-138
358
-479
656
-395
-51
548
-904
-322
38
-242
-602
-735
-864
-433
510
-564
-79
-698
1007
-266
-710
-22
-17
236
778
-294
963
775
-820
953
-629
707
333
241
166
-494
-455
-766
22
960
-664
598
-637
-465
300
309
616
-481
-434
-121
-339
-150
-402
727
-354
-681
-309
585
-186
51
-494
-73
297
1314
32
-398
-600
63
-362
-136
75
-21
706
671
-409
-236
667
247
339
455
-173
358
-701
624
-222
92
-251
26
260
-32
306
222
185
99
455
-678
-394
-148
-598
177
418
-157
-424
111
310
-349
883
417
-377
-794
-205
406
-234
306
27
-284
-288
-298
10
-245
178
260
359
421
-214
423
-149
280
-248
-397
-46
181
149
46
487
91
-480
-281
73
-307
104
489
-45
385
-383
297
230
48
486
156
-148
13
-219
23
-39
303
-124
200
-347
-93
-127
165
195
-191
440
168
-151
-79
-160
323
4
24
155
-7
-491
-258
-830
-158
-401
20
373
592
-645
-150
221
676
-653
1213
-337
-109
64
-201
-8
1029
-36
-221
15
-195
774
969
-272
-667
401
881
27
-86
-238
591
212
985
-977
108
241
-204
346
251
-416
-97
-1358
-729
309
-302
884
-1988
-1096
91
-271
416
443
672
-32
-981
676
-517
645
46
-1162
-466
-185
455
984
-86
262
1083
372
48
150
316
666
-504
136
-339
424
925
-591
-324
326
-67
257
-495
-538
406
-21
540
-496
-193
-466
64
318
22
-29
134
49
-408
105
-105
246
247
201
264
630
-413
70
42
103
-381
-421
726
743
-149
574
-651
-297
311
537
397
-212
500
-863
-835
392
447
604
96
-53
-319
-31
43
-248
445
-119
-20
-293
-321
-437
2
132
259
-12
-269
-134
503
-509
285
-118
472
572
-26
253
311
361
-523
-177
333
528
-654
-109
-689
316
-47
-254
153
384
565
129
145
382
-324
-75
-441
-25
94
-71
78
-632
-156
-196
244
-154
452
313
124
198
-285
108
368
172
-944
-205
-392
378
-804
-521
93
1040
-223
-819
382
17
-1621
-793
449
-269
968
471
-722
84
178
-1052
553
-882
249
468
40
-1201
-1030
-480
-39
855
-505
239
-67
266
-1074
-1
308
887
844
636
-275
276
413
-884
-49
152
-237
159
31
-104
-314
237
-259
590
-54
-117
-103
-510
-293
-214
-117
573
-297
289
686
-114
-551
-557
471
-481
-117
42
416
-144
590
-31
-1165
502
-172
-216
975
306
214
-430
-11
-616
124
-423
-338
-195
587
-471
-418
371
613
170
613
-205
56
-274
892
-107
-327
487
-203
-570
-276
-549
638
94
-1095
-821
340
-596
851
833
470
-243
-851
754
-851
432
454
-866
-634
-746
249
-305
-731
522
-25
229
-231
169
-415
-260
-78
4
80
-226
240
-507
57
-233
-151
-386
-248
-84
-264
-618
108
121
6
-382
253
-213
-165
-430
825
-122
555
-230
-216
-113
141
-98
-320
-135
21
-134
233
160
568
-52
-350
191
-190
176
64
109
-135
16
-155
-255
146
41
-90
23
-49
-486
614
851
432
654
162
-465
-169
-179
738
-269
-609
595
346
738
-94
274
399
960
-852
532
-737
-463
397
-486
95
-1487
-1008
-975
-506
-314
-622
642
-380
95
181
1079
-246
-612
258
80
-66
969
-187
650
714
-750
287
-1330
-537
647
-1016
560
-649
-897
-341
-796
693
-743
701
113
-597
-952
763
583
-634
-716
32
69
-267
-712
468
-305
-695
-734
642
-18
87
-94
-487
566
158
181
-582
-75
-474
184
-1
-279
82
163
-285
-201
-281
-74
-444
253
334
94
9
224
233
54
-344
-461
-565
349
-140
284
-99
-574
-176
-128
-384
449
-382
314
-406
-295
27
-253
392
-42
862
512
-167
100
-102
426
16
-127
637
294
-93
283
111
263
-398
-636
76
-239
-285
-83
-61
329
220
124
-258
-608
147
638
-392
-256
356
-150
-608
-31
-208
-402
174
-206
572
198
87
-834
438
-142
349
-405
74
156
163
-89
353
54
226
-32
-58
13
541
188
-325
603
-282
36
87
315
378
-297
-21
86
-183
-825
399
19
82
-448
-284
-606
611
-407
361
92
343
-130
-260
-1194
-1697
1551
541
-493
-119
-1171
-418
-510
-851
701
1149
1064
135
517
656
836
-324
-324
544
86
996
-40
222
72
871
-662
49
592
324
-175
-289
-165
360
-76
-801
-1201
589
-676
780
513
-1159
-57
-590
160
-1105
-657
630
-1854
-585
-692
-980
-639
-777
-482
-144
191
74
-393
-1041
-333
207
-556
-379
817
187
-238
-621
-298
-24
17
-284
-81
-402
616
-139
206
-97
761
912
-76
160
-383
363
-359
2
-98
17
5
-9
-853
232
-289
30
-498
-468
51
-615
53
247
-215
98
-233
163
152
156
-579
333
504
-184
138
288
390
127
-146
-235
-596
235
-324
194
-463
255
650
-289
404
44
337
-46
212
-462
43
-196
19
-34
187
-284
193
-193
127
220
276
83
-35
104
338
67
-129
-18
95
-158
79
72
-393
443
-309
378
176
205
117
176
381
204
338
-272
-562
-347
-95
120
173
187
-12
269
118
180
-438
233
315
89
-132
125
215
-440
272
411
-128
-560
638
666
-622
-665
769
-708
-4
518
37
1515
999
-1422
-83
126
-945
774
-317
80
-727
158
-731
-1232
649
290
491
-730
-563
-1491
841
197
246
-13
-633
-38
83
153
-19
1172
-4
47
-1047
449
330
427
-45
-216
382
997
291
-642
-383
-585
291
92
1050
-397
-305
417
672
331
325
422
104
-192
28
-467
101
-285
333
-188
471
84
5
45
70
13
188
-383
-36
-33
-177
597
-257
-35
6
-232
-513
-534
221
-294
-862
-82
125
44
250
-194
-280
-320
-194
418
-209
215
-151
-342
-126
217
111
-796
542
-368
-521
-338
351
973
-329
38
-274
-771
-184
579
320
-119
-639
337
-607
564
-361
-300
308
822
95
265
-311
-98
173
-1041
17
-57
-266
159
416
50
-140
-177
-411
375
202
630
-60
446
-186
147
147
-68
178
-95
-237
-253
-510
126
-207
674
-158
274
64
68
410
13
-316
-43
-57
-101
-168
287
-14
-336
18
126
80
71
-64
-141
-64
99
146
818
933
1601
-1373
-87
-128
653
-499
402
1053
128
-418
1942
1106
-515
1164
615
-637
806
-877
514
-110
-881
179
-56
702
1257
182
1229
1345
184
-287
561
-53
204
-576
493
378
-581
-62
-690
-577
560
-444
-160
361
-176
180
-84
-712
-102
-184
913
-337
-585
-487
-81
-559
-88
391
664
-148
234
-203
286
101
1052
-464
235
123
-17
-578
-175
329
-71
-428
1146
-128
-1190
355
-549
-1078
729
-936
372
1545
-941
1195
-613
1415
993
1366
638
802
621
-912
711
-285
991
-472
60
755
-372
-107
-208
-939
674
-336
-921
374
-839
840
21
274
-674
-267
-357
-567
15
211
298
-412
-22
-15
-166
1479
-365
245
-65
-174
267
-403
112
1
-322
-308
-450
42
299
53
-14
-496
-80
225
30
-58
108
126
-123
45
-283
61
-48
-264
-176
23
119
349
447
-70
-342
159
-73
387
-235
-168
-46
-103
-279
-804
713
174
-641
224
-311
471
84
-124
-129
601
215
-237
707
-435
-241
-88
279
49
87
-32
132
-396
-222
-29
-1259
749
-28
567
-476
844
173
-61
-335
528
-1320
251
832
-752
-155
212
34
451
385
-84
241
-169
142
-1042
-400
-376
-152
1
-358
-49
909
-391
250
-71
615
736
-740
-805
-567
-673
721
103
-432
500
-913
-14
1274
1061
-84
-109
29
-23
551
-366
-57
23
647
373
-202
1930
-11
-201
939
341
-257
284
27
351
142
414
463
1512
-220
324
219
280
-161
133
-21
59
492
-53
233
-133
38
-248
-20
48
209
154
65
-152
445
593
-150
623
376
-205
-583
-408
86
450
412
654
-453
-82
-175
-476
-103
287
738
-81
996
-733
195
668
-273
718
126
315
-384
-645
400
724
-462
-318
85
786
-495
20
-618
480
-136
-427
-663
-521
-184
-571
69
-158
-404
-377
66
48
204
-757
-219
164
122
-62
-386
661
-438
387
-895
391
27
52
-205
-294
109
77
298
-411
-406
54
-753
49
164
347
399
42
-450
-24
258
187
-178
160
-165
-243
161
-109
-831
-399
-183
336
196
-457
-100
17
-978
-341
-1450
835
-183
-330
-76
641
-82
-469
-40
409
-1968
532
738
-576
1315
1110
-909
-42
-272
-1099
413
-874
-267
302
-31
-806
-1374
314
60
321
-374
-178
-670
606
-400
-203
-158
-53
-451
734
-317
1258
1081
-173
887
-341
-499
-445
280
-34
-59
565
807
-827
-785
513
-138
742
-273
-301
-266
407
-80
500
-56
472
-55
-350
-378
2
399
-414
-731
361
-599
39
-803
245
695
-106
619
55
-908
-378
216
-719
818
-1035
-637
-471
292
-1548
-1075
700
491
819
640
165
-662
-2012
1220
440
-437
1111
-1165
-754
-807
-1259
1159
3
1238
476
239
12
-203
803
971
43
176
381
56
-676
-34
2086
-19
-163
-380
76
-196
-129
-108
559
-285
142
236
49
769
1
939
-238
-135
-217
-374
310
2
77
-8
-9
314
-158
-297
-109
369
-52
65
458
250
-36
253
577
208
540
290
-24
-270
233
188
-229
55
-572
107
-304
26
-203
-296
105
199
213
-204
54
158
-131
-296
214
-289
243
86
314
96
-370
-30
-342
-69
-397
-91
-380
153
201
-438
-124
21
290
219
-224
-305
46
-813
-256
-689
681
789
-103
676
-529
-620
-1132
-253
461
767
-512
-88
-292
-548
402
-554
243
-661
-305
490
-17
772
507
-123
70
434
-842
380
-589
248
295
-923
578
-529
-798
-497
433
1026
-426
551
57
-974
-353
623
803
-977
-1125
35
-521
-986
-284
320
-54
-953
-979
332
-431
-131
-855
6
90
-57
-43
-86
595
-149
-80
-116
84
-140
327
-420
344
-130
-608
-165
85
-119
81
-536
-24
319
-167
-241
-32
-675
324
61
76
8
-32
-103
-225
-183
478
-282
541
-532
-265
-1093
151
-171
-1230
458
-293
136
-183
622
218
-115
471
265
36
-164
8
-223
251
-261
360
595
-104
21
14
283
-157
150
180
-1
149
224
239
360
137
247
69
-475
-541
442
-324
61
-167
-160
-311
439
-472
417
-133
-370
-328
239
-51
-144
107
80
-419
295
-164
-328
161
269
-334
-339
503
80
282
-162
268
72
52
-343
-123
410
183
709
1190
618
400
127
-795
-505
400
236
-359
-132
1000
-322
-12
-158
751
695
274
-572
-50
404
-712
216
-571
135
-446
-56
-963
-194
-89
-45
680
-62
205
-359
359
466
-235
-80
-150
-720
441
3
301
-270
-103
243
-784
835
513
494
764
-360
47
-66
287
-319
-597
34
-75
-40
1144
564
-376
1057
524
1976
-1306
752
-273
602
-1561
-275
1023
-644
-657
1429
1842
-74
467
-1539
-1615
1258
-71
840
1065
-910
1106
268
668
676
1103
1427
-494
-230
-661
943
-541
440
-628
722
1132
-1646
-235
-735
-1396
-52
-701
-923
1468
-1799
762
-243
-165
285
-10
332
-253
-1938
696
875
-260
93
-512
-107
-890
356
-107
-209
354
-159
-161
-300
74
-38
557
-291
-47
-247
-224
-149
5
-408
-431
-182
72
272
38
-86
175
-549
-50
42
-134
-278
-288
56
-129
317
396
-276
-288
202
-216
179
46
114
-65
240
571
-635
179
296
-95
-33
-3
-176
-202
-127
-380
255
-53
-259
190
241
269
172
52
9
22
-48
-175
76
28
-152
364
294
63
-1279
96
-10
-765
-538
482
-120
-327
528
-801
1732
1129
-938
-369
83
-1253
882
-784
-3
-133
123
-1466
-961
650
343
602
-956
755
-1236
408
-843
-1000
22
907
305
136
-851
125
1305
-61
730
-579
908
1198
-443
674
-1232
-517
-84
468
523
-785
187
-869
-736
905
21
1090
-519
-557
-164
184
-196
-401
65
19
-144
-322
357
53
-381
26
547
-193
157
12
-297
504
275
-295
207
-583
-124
-576
-170
-224
-437
-709
-545
414
-652
-250
-458
196
-100
-17
-308
86
-321
64
145
220
454
-463
569
53
-794
241
-316
296
-693
-93
-571
486
178
-234
229
-43
-615
-985
376
305
48
303
-161
277
-640
-92
-275
-733
174
368
407
90
-319
-278
341
-407
824
437
-443
132
-167
-181
-19
-462
-282
-226
-303
-479
-5
-131
361
-39
-410
-230
313
-265
-137
288
65
155
-76
263
-156
189
188
-296
241
-417
-74
-70
-110
-3
-246
553
-519
371
133
297
-30
-159
-64
534
52
-309
356
152
761
-659
-222
429
-129
282
-251
210
521
-474
1058
-496
231
38
-400
-374
634
-685
1054
204
-555
550
-436
581
774
275
717
764
655
-688
433
-272
343
-660
491
354
-470
-471
93
-733
614
-617
-665
806
-624
778
-439
-486
182
-287
306
311
462
-417
-309
660
-471
650
450
-1047
99
-93
960
154
1003
-58
85
228
-181
-140
457
448
-350
166
1090
550
-348
-646
-1188
37
257
416
211
290
33
288
212
-578
-438
-372
772
248
238
-423
-98
-95
266
-221
-793
570
-277
132
-90
-399
227
-99
-48
220
-603
-108
1233
292
-18
631
-436
-611
551
572
-95
-797
112
-179
-293
1121
60
504
-146
171
142
252
-215
253
-326
226
53
323
265
-412
-111
-267
-12
97
-162
-444
-72
259
-138
-693
573
-638
-423
-336
208
188
38
536
30
87
-543
375
-645
0
-87
-63
-275
197
-259
-153
110
477
-325
385
-439
164
168
-57
-602
-140
-292
-282
464
211
-23
151
-175
-1
176
-21
326
102
119
-60
1080
-524
370
-270
-561
-567
-36
-79
-786
195
557
423
-138
-646
8
-274
811
309
-682
-346
343
-368
807
-530
-855
-276
-154
-1179
-675
766
-575
85
-823
-6
142
-445
-424
-243
-1271
129
86
5
-482
58
-58
-675
-676
310
-298
92
-262
38
-55
-733
-870
165
154
43
-262
-327
-77
-222
-190
-505
1165
-783
-457
-93
1177
-570
-209
215
904
-661
418
-559
-204
350
-224
-163
311
-399
-410
288
-55
412
258
27
150
291
447
135
-31
-547
-240
718
294
-399
-223
-36
548
276
284
236
-420
-200
-439
-513
156
569
-396
-3
188
109
-38
-366
-545
659
832
147
167
-787
141
-1623
427
272
10
390
124
-146
99
-167
-55
220
513
-554
-982
-74
304
-286
-228
692
268
92
543
-58
205
570
-230
-546
-117
132
167
-154
-226
-71
196
-418
-416
181
66
94
-140
377
70
-104
-244
-475
112
388
-425
-162
-270
-49
-242
-111
-149
134
237
-31
-189
194
-291
-98
-48
-158
204
-301
238
-149
994
609
1860
-361
491
191
165
-861
719
1195
-115
-268
2338
841
-398
-225
-333
-790
695
-636
-61
571
-725
863
0
559
769
711
929
542
186
-649
115
-463
325
-509
504
1181
-448
-611
-109
-271
396
-52
24
1024
-1090
899
484
177
-801
173
-405
-507
-79
267
315
-14
443
-236
-251
-195
-38
754
-257
673
163
554
253
394
-824
411
403
-339
-552
539
-330
-836
351
-747
573
157
-678
-205
135
-21
129
148
-516
341
177
356
-143
17
364
483
-285
-135
125
92
244
299
-573
219
-628
162
367
-54
-389
84
-515
-156
-25
310
104
691
-683
-311
54
305
-262
26
465
-183
-337
325
191
410
-376
-116
-309
241
225
438
-186
233
173
-351
-280
255
-235
-204
198
385
567
-39
117
-193
350
189
-62
249
31
78
-17
185
-86
193
72
-42
-186
253
80
152
251
-397
-100
-303
76
11
-11
-116
-148
-418
-50
-131
167
361
387
-168
4
-277
-66
-587
421
-101
-122
-101
-100
-177
545
236
99
430
686
-121
961
138
-55
-247
-212
-6
-258
-321
423
7
444
-179
-718
-258
150
-243
499
424
-68
657
118
36
111
356
101
256
502
-434
151
-529
583
-747
77
853
-478
-137
80
-450
249
-4
-245
60
-498
576
355
441
-382
174
8
-112
562
-445
-122
-162
420
324
-456
981
334
-128
509
661
-3
431
609
605
-626
99
238
781
-428
302
233
261
474
-919
-2
714
-761
878
568
426
376
17
-1445
-1006
214
-72
-360
440
825
-594
-135
229
-865
790
180
-61
-337
261
-334
-608
415
673
469
22
325
-849
1237
431
259
327
-604
-302
177
569
175
-674
343
-849
-37
1662
-84
115
5
156
85
-125
-184
-232
571
-167
-261
187
295
374
-87
-19
158
-96
-590
42
-118
-395
-313
153
241
-803
-279
305
10
316
-584
-39
17
519
-160
-74
252
387
-225
381
-272
409
-436
168
-206
-150
-125
-176
-351
-406
115
86
-174
-200
-300
-257
-104
426
-473
-341
-177
297
275
423
-90
58
760
1105
-2
-88
-309
311
-475
139
122
683
-946
403
383
1098
-478
42
113
401
-859
-181
-380
376
-23
250
-496
-884
-6
-28
241
519
585
-275
-224
-228
-191
366
435
250
-512
-469
-439
-472
519
759
152
222
-230
-888
827
56
76
-319
106
171
330
-416
40
258
-155
-5
469
1384
-59
-174
-197
-831
-469
320
-49
323
-32
78
-112
-508
534
-202
-189
-965
-288
-312
75
-190
-512
-282
538
-416
-258
59
341
970
17
617
-133
-57
211
-276
-98
-627
114
133
-87
541
466
-554
-371
25
477
-169
-20
-649
57
-394
91
977
-992
835
-868
-798
353
-469
598
-623
1024
151
-1200
608
784
517
-91
269
703
447
178
87
212
733
13
-465
77
-522
-93
259
664
-146
7
653
324
358
401
-21
-251
-141
325
-267
-110
-614
386
245
68
-402
132
73
-744
200
218
-90
356
-17
161
-732
212
-126
-9
339
147
-238
-51
-648
84
-179
-4
-140
182
358
41
-389
-243
-130
25
261
72
-146
-338
168
-1322
994
-200
-249
-610
1075
476
253
-200
230
-1483
109
-993
323
770
322
-878
333
106
-66
653
-768
-286
-290
-245
-465
-673
-390
-355
548
-753
-68
-446
587
-559
-294
263
-238
515
363
-194
449
1093
-913
740
-598
-207
-364
-395
122
-246
-382
-948
149
48
-778
100
-390
195
-1121
338
-192
-1139
-962
475
-1133
-1603
-932
1704
-502
-1566
-522
1100
-1365
1130
-1453
-842
560
50
-621
476
-400
-257
653
-371
612
180
548
62
760
124
345
12
-772
462
-392
419
-482
561
66
120
-263
-37
-310
63
-466
-538
359
-159
345
-903
-1141
525
-610
410
298
118
-730
-715
441
-369
755
287
-199
-61
-271
-444
-425
372
-124
176
-195
49
366
-147
50
594
-81
141
-92
186
-332
-93
-314
-412
235
240
421
-72
-80
790
63
-156
-113
-351
204
-539
-259
484
47
-184
-86
-595
106
446
-275
526
-26
-205
-240
258
169
-53
-89
-390
-300
-9
107
-243
222
270
-97
593
-64
-4
-124
-331
401
188
-362
318
493
42
191
576
249
-144
138
1297
450
-247
440
345
-96
-465
-233
299
743
-915
-28
-545
533
-89
408
-47
-514
-394
319
-586
-463
-251
112
-100
-132
55
278
608
196
-320
-971
-452
-367
580
823
819
-22
-351
-400
440
-618
14
-320
268
102
-213
-334
-17
86
-479
15
339
-256
-248
-263
-597
-132
-1704
555
-670
452
-170
670
-370
204
-85
94
-952
-175
-71
-321
-216
456
-210
117
374
-362
126
-198
-445
-316
86
-39
-212
370
100
-36
-629
177
-513
598
-304
-137
551
46
330
28
-269
115
276
-378
886
-411
1172
585
-499
245
-223
-1118
132
-654
650
-428
796
-285
-411
627
419
316
511
85
695
197
-319
-223
198
257
266
-516
-2
62
-639
212
31
119
-160
-127
-501
-506
-655
256
-517
-845
321
-307
403
-138
-182
221
357
-499
-407
54
-201
-77
256
44
-38
48
297
-2
191
-154
58
961
47
-150
-332
-830
-66
-77
-272
383
188
-365
151
-129
-72
-29
158
460
-216
187
-388
-260
-1885
1376
103
315
-866
1357
386
-1150
-602
669
-1744
-75
1051
-961
818
1064
-1498
-54
-979
-680
-325
-376
182
-236
-974
-985
-1088
-499
-971
383
-77
-259
-244
902
-222
-44
-311
-87
-103
-8
304
321
-16
-164
-464
-908
580
-468
585
-248
346
684
415
-20
-723
824
-719
43
351
1021
-485
-199
-289
124
-292
144
-491
-394
281
-61
365
303
266
284
-407
140
-658
607
490
-69
-351
65
173
-727
367
-476
71
-32
-132
-394
98
430
139
224
47
730
90
-544
-349
-762
354
-114
290
274
-79
-113
146
-1136
308
-44
16
-245
-43
-278
85
-156
1034
-87
-73
771
236
286
-277
-169
-544
-10
555
-283
162
79
251
323
302
-307
-215
-273
-262
-453
-475
148
-44
65
-224
-286
0
108
71
-50
-506
-162
-307
-54
514
-174
34
172
201
-154
290
-10
-237
106
-17
-59
-125
-104
112
265
41
-379
-66
417
-46
335
208
-138
108
11
226
8
-93
-156
-83
-61
-254
-268
-251
-61
-199
-305
300
151
1890
-1236
-356
-513
1079
-1138
-922
23
489
-1234
1402
178
-840
505
-196
-1775
1700
-716
970
275
-837
264
98
1840
1387
1160
471
-115
521
-323
388
526
-145
-999
3
-42
-49
490
105
-457
-342
-624
-465
216
-495
837
470
-662
555
-223
346
-57
-136
426
-506
356
-182
-259
512
794
-847
-317
548
132
1224
-325
372
329
-273
-470
109
453
-102
-832
1428
-467
-686
-171
4
-863
-55
-1073
764
377
-1092
688
340
825
723
144
535
1175
745
-917
334
-539
657
-346
982
754
-369
-226
379
-713
757
-158
8
1508
-1124
581
-740
-290
-445
-44
115
-463
-688
574
76
56
397
-221
214
-1860
-49
188
-593
-235
197
-658
658
214
444
-18
89
245
-418
501
472
-497
-307
685
47
-47
-116
-3
173
-282
282
-9
-253
-168
34
-463
6
-531
-111
-455
-16
-117
213
338
-424
540
-31
355
-44
379
-367
190
-453
139
179
-375
202
-145
-32
135
-30
-299
423
-136
-43
-676
266
-257
148
-223
-401
22
156
-86
303
7
-194
-222
862
-101
-311
79
-85
-36
451
-78
-602
193
-782
-878
-83
-31
561
-60
27
145
-76
1187
653
1143
350
1087
507
-918
258
220
520
-658
517
183
551
-119
348
35
238
146
38
-131
-340
-511
798
722
-1367
258
94
-1073
339
-493
907
-616
484
121
-746
754
616
745
90
117
-829
570
644
734
-439
356
140
-179
-203
319
-89
74
753
-479
314
505
-601
-369
-502
406
-162
47
-233
-606
-331
-7
-395
-296
180
-15
-316
-177
-86
337
474
286
-577
-783
-644
-327
443
937
210
422
-150
-407
-332
534
-716
544
-527
-598
-100
-91
304
-295
248
-324
-569
-41
546
595
53
-695
373
59
830
438
495
-431
-551
284
-368
364
423
-276
13
98
-189
-510
-1010
171
669
260
-34
-123
180
-139
-37
289
154
96
-485
463
284
-245
84
-2
-9
602
263
-299
-144
714
-543
-417
366
-5
20
11
109
400
198
215
126
-42
70
319
-239
-695
464
-80
-152
151
-479
-155
-320
-802
216
-83
-214
-249
670
-88
-246
-74
698
-407
579
-737
-173
437
-1406
-1035
942
-182
343
-612
36
891
104
837
119
404
1354
217
484
-886
186
417
1313
-623
-601
-285
508
328
747
48
-358
-561
-589
-222
-630
311
-1415
-597
-417
-173
386
222
-85
-175
-441
11
-78
964
88
-1568
-455
-558
531
495
314
346
503
199
-901
-312
300
-291
-240
324
180
826
-58
-433
-128
158
55
381
-599
-347
77
-380
780
-165
-318
122
-42
-172
-299
-96
114
192
-277
-434
-155
-10
-38
195
331
-99
-32
-259
-402
442
-279
80
-379
-909
501
-441
339
557
99
190
-727
351
-702
-293
260
-652
-813
-605
166
-120
-42
584
93
-6
83
-43
-205
152
-273
-286
-225
-28
-30
64
-192
8
331
-95
66
-59
143
-135
315
-3
-364
47
466
338
-371
243
33
-70
-262
-27
-82
-303
-363
179
-157
141
-360
224
351
-22
62
69
199
-172
91
-83
293
-94
156
209
-4
-136
-258
458
20
-405
341
-33
-283
-485
615
-174
-588
-245
474
-254
-186
232
427
130
402
117
11
-87
-307
-362
497
5
438
611
-1
-21
-368
647
-166
514
55
-81
338
150
58
585
386
-881
-682
-265
120
914
1310
-37
-186
-720
40
69
37
1380
-554
542
-732
800
-512
-608
-261
947
838
-502
780
91
-440
-939
296
464
115
-13
50
215
606
298
-699
315
367
-1165
-453
580
-505
-794
-115
-661
391
545
-758
-265
-344
-54
397
-210
-377
-527
49
-418
-462
172
75
494
-413
189
-377
459
641
430
90
-585
-426
-68
595
119
59
337
-243
-367
-1243
-143
346
172
-472
359
-490
-176
-358
-371
-20
65
-227
-1075
226
-61
-420
-351
-56
159
442
364
-340
312
-10
-592
-36
-146
36
-163
550
-558
-109
66
-127
245
239
294
361
220
-293
-575
465
-366
95
-28
118
-231
-44
-468
513
-625
342
-18
32
-734
477
98
-275
66
196
-329
176
-295
-440
221
-296
-58
66
-128
109
-31
171
-156
-571
-229
131
112
-562
125
307
253
3
-907
-612
298
825
-613
-365
588
175
-474
1183
397
-1170
207
830
-963
478
-1034
-454
674
-718
287
30
1104
942
306
171
432
201
-399
833
-17
898
-648
219
2
648
-377
-210
-338
-226
-126
-193
-162
245
512
-393
-936
775
-536
561
619
337
-300
-588
521
-803
271
854
11
-457
-806
18
603
-329
227
584
1030
24
401
59
750
-594
-82
-177
692
126
-49
-329
-569
16
485
352
-112
612
90
-480
63
-32
-176
384
-28
0
-78
-49
-161
902
-15
-201
-152
287
329
216
-22
6
238
-67
10
465
11
1423
505
381
-111
103
-18
359
-354
150
143
160
63
-146
1759
574
-44
228
-141
35
-303
469
-509
-268
-201
302
-226
463
344
-118
416
-211
-279
-246
102
-128
-74
-282
332
-260
391
173
66
-76
15
-352
497
-27
481
-283
-219
-333
66
-39
-308
-295
-462
42
-149
433
519
-15
-13
-220
248
54
-87
-125
292
-25
-459
626
-63
121
174
-111
-1
28
-236
-401
3
84
225
-152
39
514
342
-395
652
40
189
383
-127
103
-1191
-319
210
-677
-597
-15
-27
1055
410
-209
174
-701
927
489
571
-31
631
193
-1363
-99
-89
661
-653
442
-14
-78
-60
418
-856
737
-306
173
351
-71
153
74
-558
547
-133
622
570
-280
-129
25
613
-586
190
698
-414
-4
-691
-40
297
-391
27
-213
526
-438
792
-272
484
-191
285
364
-9
670
-1102
-1160
-111
-181
759
231
383
467
-25
-643
-541
134
-104
-46
901
76
-705
-539
-394
-505
118
5
461
16
149
473
-427
444
137
545
714
-351
-377
911
-252
-482
259
-417
-756
-342
-604
126
-630
-103
-465
55
-143
642
-386
-272
297
-38
176
-286
-501
661
-278
497
362
135
35
-42
-169
262
-76
-186
-218
138
-686
-353
-238
-40
106
58
-162
237
-69
271
-22
-549
233
45
-792
-207
391
-337
349
-181
407
-164
-213
372
-139
-288
-180
-393
106
712
-238
-215
4
259
-541
262
-152
-129
-214
331
-233
516
416
168
77
-761
-581
-593
619
-193
-143
-16
130
294
-774
543
315
-685
-589
-439
342
-888
953
-858
1234
-598
-403
703
-481
176
-1169
-1024
-1296
-339
-751
-971
578
-93
299
-314
989
-576
-218
485
36
342
1068
-292
538
-203
-726
712
-659
257
497
-220
244
159
-392
-386
696
825
-93
242
-864
-248
222
181
532
-591
-563
-440
123
-796
-200
126
236
-165
-889
622
-569
-148
-529
1
539
96
10
-306
499
-253
130
154
-455
-42
-157
-324
-281
165
-284
-819
289
-59
467
-232
414
60
-196
312
198
48
512
-181
248
372
-106
394
-206
-482
-623
361
-403
470
284
5
-971
-625
400
-402
366
266
-464
-134
-205
-43
-172
96
-501
325
-438
173
-125
-632
187
126
214
-258
372
206
128
-443
-34
41
-124
17
95
-425
149
92
67
-169
-614
182
56
-102
16
449
89
-88
-99
-2
160
359
-33
-620
249
77
5
74
-25
125
55
-9
56
-53
11
-142
150
-399
-160
252
161
48
-227
-231
319
-51
-26
-345
-354
-358
977
164
-86
-1339
732
440
-721
-103
836
-1574
-815
908
86
1338
1500
-1429
483
-110
-1005
1054
-996
45
194
-204
-1306
-1269
110
-277
870
-1236
33
-1662
1170
-519
-170
106
85
-238
618
-199
1115
1219
-731
935
-811
746
922
-724
724
-482
-698
-662
-45
693
-1104
540
-429
-1166
651
459
987
-21
-95
1076
-353
531
-255
242
-1328
-229
-238
414
-124
1178
381
-385
-99
-132
-162
72
-414
26
194
-396
721
-256
-28
890
252
-118
792
146
-626
-197
-459
94
-181
426
511
-407
-291
-163
52
321
-167
-200
241
-65
77
-360
-854
338
-115
404
132
-586
-196
-327
286
-289
168
298
-1323
200
-620
-253
-406
168
310
-691
527
508
-288
-7
17
178
267
526
-16
-422
-79
-25
279
-102
-64
14
-390
73
683
-22
-129
18
-288
363
115
-174
142
355
-4
-40
405
-226
-595
122
-530
-240
294
-158
-204
-48
-99
196
159
-34
181
-11
-382
-147
-65
-78
242
-24
-80
98
-248
131
135
-493
-192
475
453
1488
-1073
332
-160
983
-1465
-99
1199
392
-565
1069
558
-759
1472
943
-1541
1105
-946
73
618
-1163
486
-101
1559
1253
1000
175
-179
339
-190
974
-378
1241
-1015
859
291
-578
-339
-449
-1132
573
-259
-928
183
-651
1654
422
-219
408
-534
978
531
206
369
-261
335
-191
555
995
794
-821
-473
241
245
1711
-589
255
-303
499
-720
-474
494
-16
-792
1463
418
-128
574
-407
-853
765
-928
549
673
-549
470
-632
456
1094
646
176
845
485
-650
449
-175
373
-159
729
408
-276
-600
-563
-265
584
-182
-602
-53
-306
202
690
135
53
86
15
-236
-376
178
27
-267
-54
121
145
794
-266
116
-112
-61
-834
-744
314
-51
-178
-560
318
-173
461
-33
98
-183
153
38
203
263
-215
-377
-31
12
-7
-25
-18
-124
391
-50
2
-855
186
590
117
-468
297
-233
590
410
-393
-318
-368
-418
462
149
75
-152
158
-340
236
-61
307
13
92
-722
137
-222
-296
-975
-153
513
-101
104
540
333
74
368
197
-219
57
159
92
-722
233
1369
-11
-435
971
1322
377
-327
217
-776
1208
-315
439
619
-965
707
146
886
752
478
1065
-89
810
-439
291
-482
291
-579
443
1067
-702
-346
-659
-592
-11
-399
-1040
658
-553
235
-275
-610
568
-716
300
594
1002
-158
-906
637
-209
1261
785
587
-926
-156
625
853
377
69
955
314
-47
12
239
622
562
422
48
101
357
184
-84
256
161
-712
-308
-278
-193
133
229
92
-186
-203
-121
-1
128
207
-201
346
-132
-237
-277
-146
-192
697
626
-207
171
-125
-296
133
-514
-104
764
267
-158
126
-123
18
-179
529
218
313
2
-124
116
625
259
-348
-225
-43
-230
-261
-158
-270
-315
209
493
68
-617
53
16
-42
285
-188
425
63
-13
174
-308
-192
-50
-151
-125
109
-204
573
-171
40
-288
-728
-466
160
-196
471
-238
69
-711
644
112
215
-727
492
366
183
-34
-135
387
459
323
220
131
-226
-7
9
18
-485
-76
127
145
-318
12
475
-300
359
-349
688
31
110
-496
440
579
-462
-848
178
-156
83
309
-511
849
1445
-1726
71
-286
-875
471
-461
-78
-913
217
-1635
-1329
1876
566
42
-1009
-168
-782
1308
-104
553
-309
-24
-180
-303
302
852
598
-352
213
-954
10
756
-871
637
-380
-564
328
-305
432
-350
540
408
-471
-37
436
986
334
642
-89
45
97
-67
-240
-174
307
-60
-732
530
46
797
-346
65
-26
90
-58
410
-1006
108
137
-401
683
-704
-404
-286
-91
-580
-412
488
-181
-265
-23
319
-48
-56
-103
1
-1189
472
91
630
-346
-846
481
-1083
700
420
-225
-155
-78
99
1338
-929
-238
-98
40
730
-239
1637
-663
197
135
50
-271
-260
62
-715
-45
183
-190
-355
-82
227
237
-291
1197
551
-401
273
205
-373
-606
65
-221
-829
-442
-29
21
302
7
-187
391
486
205
405
-325
394
449
126
211
281
167
-254
274
315
-557
10
151
-144
-35
-121
-139
466
-276
276
63
-397
187
-87
-186
593
200
457
231
-117
189
-69
-1316
438
-66
633
-878
1157
231
135
-97
218
-811
-595
233
-973
80
445
-366
654
-11
-541
326
-209
-168
-1015
-556
-904
-466
-85
71
271
-617
-489
-1181
245
-671
559
502
-272
307
231
527
-548
679
113
-278
-792
122
60
539
15
25
748
884
-251
-118
479
-484
-278
-357
-244
-93
-11
-286
-94
495
-362
-299
496
229
404
-254
-194
-14
-145
-422
-151
156
-3
-824
-235
30
354
212
-489
368
-305
-172
326
254
59
150
-135
-133
105
-312
91
171
194
-252
-243
-12
430
1156
2
27
-456
32
78
94
-120
7
309
188
-18
-290
40
-1013
1226
731
-461
114
-1698
-304
-629
-67
476
399
522
-346
-357
-131
207
-174
-3
-144
-583
-307
-445
-485
-218
-445
119
165
680
278
57
21
275
59
81
-501
657
93
-99
-341
-21
99
100
-643
-192
-297
314
62
-482
-386
-53
-122
-24
227
322
18
171
-238
99
-111
-63
-121
224
-281
-15
137
-110
168
-47
-62
-218
-10
38
35
48
464
770
246
-25
349
343
819
-765
558
850
47
352
-116
712
-533
358
-473
-1104
341
-13
629
-283
-390
-297
-123
840
208
706
790
892
348
129
689
75
1203
-646
884
59
194
-240
-281
390
-297
-851
-930
-57
-298
654
-86
-1110
919
-814
866
699
-189
-183
-940
299
-1125
121
504
-154
-270
-757
-16
-130
33
-807
-6
309
320
-714
-477
1141
-90
-475
741
641
-284
36
-422
-526
163
-271
-322
570
-233
574
-331
-67
-110
571
518
-157
64
-216
86
-38
351
-175
283
-221
91
92
523
-517
244
-207
-242
-111
-487
197
272
-72
-193
252
288
-211
743
-168
283
301
-100
570
215
257
-254
192
412
-674
280
-222
-250
459
978
-146
-311
-37
187
-144
496
218
-231
-98
5
-656
-541
162
-486
78
-496
-353
73
376
-120
145
-299
86
-528
-108
230
-208
-26
-238
-141
-219
365
-297
174
-136
249
-238
-45
327
45
-24
168
-185
-266
480
-25
22
454
-5
-138
-61
41
-304
-872
-698
-864
-77
461
490
184
290
-178
392
-501
211
522
-72
-562
-247
629
-284
-581
587
540
1000
-728
346
14
175
499
-326
-391
-712
-606
-380
-984
48
288
531
-144
163
-759
388
-181
-178
-72
174
-33
430
-184
436
735
-734
546
-496
578
364
-245
544
-657
-890
272
-77
909
-437
477
-252
-485
816
618
1003
-401
-351
-192
186
166
-607
-288
461
-483
-638
130
292
-165
-270
177
-305
-500
-368
-500
145
-232
863
84
123
-406
-221
234
-46
-423
95
124
-336
59
-418
-75
201
615
283
-332
84
-637
-63
721
592
-173
-283
152
-54
-365
194
-576
-45
-329
-111
-145
-516
-475
-779
440
128
-111
314
-234
316
-486
-122
99
-244
895
181
-1393
250
-261
43
302
-150
-607
-383
-340
604
99
179
119
-4
-225
156
32
61
140
-179
65
-264
-33
-372
168
178
105
185
88
-178
342
56
134
156
817
-73
274
285
-41
-257
-108
-211
-326
-44
121
-13
-397
213
-168
256
174
-72
53
1
286
213
140
-76
-209
100
343
-215
-621
-448
467
221
293
268
700
-408
743
-367
-1095
867
-1314
-1196
1483
-708
-166
437
-499
685
482
716
394
865
1338
286
-578
-530
1023
169
1285
-270
51
-246
419
18
-295
-198
96
-88
-1241
-240
-15
290
-794
-571
-45
-534
327
-162
-501
-516
-105
408
-415
227
390
-1101
-63
-482
-76
-477
-720
-161
95
-22
-52
-409
-411
-470
-144
-316
-127
-185
-213
247
-336
114
-364
-331
-504
-67
-357
340
515
106
-81
21
338
100
-439
-418
595
494
490
-772
-393
-274
118
-221
477
84
-475
-369
-897
388
-474
323
-185
-30
-89
160
207
189
416
-596
-472
388
-62
854
192
430
24
55
198
-620
-56
493
56
-158
-271
92
-330
294
128
438
-322
-546
-84
12
-3
-64
187
-303
-60
-470
206
94
198
-168
-132
718
443
-20
-269
-152
344
-88
423
296
-187
-262
-333
-167
212
-126
-91
-260
424
-393
161
367
49
-487
253
14
67
168
38
-182
-277
148
186
106
227
237
410
-348
1081
369
126
-1060
-639
-433
666
-580
248
845
-329
-158
1589
26
-1355
1215
-1541
-1588
1472
57
824
94
-42
243
-75
285
-8
644
2115
-390
-249
-576
277
70
1819
-740
-90
29
151
391
373
-209
-303
-1136
-844
-626
-488
916
-107
-277
330
-175
224
219
-979
-64
-89
-300
-405
-199
394
-561
-2
-521
-1062
-848
-425
-814
-260
589
721
-698
-1087
135
892
-770
-491
258
1376
-778
-270
-325
123
-520
872
1200
-974
187
-1426
804
877
697
-64
140
758
-533
-161
-241
247
264
712
95
-290
-523
-517
-1120
153
348
-186
1044
-851
327
38
-526
936
-658
1211
312
-125
-750
-609
-44
-221
437
917
692
-303
-966
94
719
164
-300
-746
-287
211
579
111
-487
232
-361
-413
-133
1255
-101
8
60
-484
-61
705
245
-311
306
-8
-261
-182
205
-282
-199
-5
512
-235
457
711
30
449
490
334
818
-771
141
-270
-146
324
87
-101
-363
216
155
305
-371
-202
-7
-46
-233
-89
-125
291
205
17
-282
574
412
767
1004
-187
-68
456
541
199
64
393
649
-691
73
-463
650
450
-53
346
-491
-651
-371
464
445
-371
783
-333
777
648
724
57
713
706
-432
10
-543
55
-27
324
383
-495
-286
-84
-939
46
33
209
325
-595
-507
849
47
798
-155
-223
244
1124
81
-366
438
-419
47
-41
962
-416
-470
376
-85
-340
-26
-1026
-89
354
283
54
648
155
-410
200
-61
-403
341
-649
-301
-296
461
616
-328
132
-647
-488
324
101
-457
258
-132
-48
280
-114
-497
-119
290
43
596
-248
527
186
-87
49
182
162
79
-428
141
434
482
-811
517
-49
-666
-1078
752
856
-818
257
-219
-669
31
616
-5
-4
142
-305
-296
-94
-309
-235
-564
356
494
-185
212
-122
172
372
-127
275
6
15
154
-281
-106
-274
-35
-55
189
-248
-87
-206
-40
-27
402
-55
105
112
216
233
149
135
64
-386
-125
261
-99
-161
-137
28
-72
144
10
-71
19
350
-131
122
-250
200
-168
-260
290
77
-197
8
189
-351
-721
506
35
143
172
-587
-528
-175
-1429
741
-535
570
-518
175
-468
292
223
-105
529
-1376
49
104
-286
1159
-529
-552
-131
-705
-451
-1064
128
-281
-82
-749
-233
-254
74
-812
138
-320
108
226
137
183
73
-266
-642
-488
177
27
619
-697
-479
-319
447
403
-237
568
-390
-209
-764
547
462
-967
-475
357
-301
-579
-887
194
-59
120
-1140
650
-542
9
-644
101
470
430
139
160
432
-503
-675
174
-556
480
370
293
118
-578
115
-114
247
-197
-35
-710
-79
-417
314
-424
-117
140
310
-217
127
561
591
-242
-65
-1457
-34
-958
146
-566
-745
-817
-507
496
-427
452
-72
-429
-2521
913
749
-176
408
-444
-191
638
-182
180
71
295
322
-551
-242
32
14
-111
730
418
328
489
-74
93
-305
80
265
-348
203
-82
-212
-28
-755
509
-290
-397
223
-298
-133
-226
5
-40
-225
10
-169
363
154
-462
250
-116
-8
-309
-150
334
113
-15
477
-358
141
345
3
221
-186
-177
193
621
-238
82
131
193
-520
-308
1102
175
654
-445
1378
295
-274
240
-361
666
-640
-1156
-1323
421
251
362
1287
88
308
-746
469
240
956
483
-606
-150
-237
401
22
798
-1328
508
-249
-470
327
-511
-410
582
-69
-696
161
-470
1163
-458
-600
-355
-298
81
557
570
-447
-498
107
-921
84
-151
-618
33
-510
546
167
-1322
440
-2
-491
539
69
834
659
-415
346
-183
545
-769
65
-328
542
-174
-95
269
-685
496
-196
-184
-273
-558
-40
491
654
192
-733
235
357
255
261
-226
100
851
366
1090
894
-527
-104
194
-501
339
-122
715
390
711
-93
97
202
557
452
345
369
262
-495
-73
725
-80
247
258
32
528
129
369
396
144
-200
-55
-126
-363
324
-111
-49
-266
-208
26
-130
557
113
-347
-550
274
-87
156
-19
499
-238
122
20
-68
-513
-695
59
180
507
65
-192
-216
376
-45
-135
-567
-569
-186
216
-65
-346
79
-114
126
64
60
-192
80
-177
-533
471
-85
-217
338
-31
-553
-260
6
-1078
-257
-211
-449
-682
-107
-266
-145
-330
321
-359
242
-301
-95
210
411
80
661
-596
-177
-1013
15
-60
692
557
414
158
921
349
-338
-77
-301
-2
54
-330
-519
192
729
390
564
310
-499
-938
-193
237
-144
-117
-465
88
763
174
-135
150
-78
262
-498
-216
-120
-240
-29
-50
-590
-124
7
261
456
-398
-147
-30
454
-486
-356
-275
98
-396
276
466
-131
-230
-608
-363
377
263
180
-180
-40
-439
386
440
-252
21
345
-400
165
-130
95
192
-200
-1132
-187
-40
115
719
0
189
-343
-290
286
-312
-200
452
-454
-728
527
-356
336
439
-1690
845
1
43
-280
-808
314
-1363
-272
-629
-209
320
-412
-701
-30
-40
84
60
555
28
-317
-790
-269
43
-208
-142
396
461
183
486
120
-102
-86
-369
-345
563
19
-43
-164
-487
212
481
-354
334
0
130
199
-115
-502
-248
148
-85
99
548
-217
-132
52
581
-530
-498
-184
243
-87
-145
-81
159
342
-150
-372
7
-342
-421
199
202
-19
623
1330
-338
776
-222
411
-1659
-388
497
49
-596
1015
1373
312
-158
-310
-374
594
-260
-195
1154
-236
785
-298
-466
507
393
565
258
368
-245
16
244
-258
-487
414
52
-1058
-185
268
-697
-101
548
-54
1081
-603
886
-401
198
-113
-175
417
-41
754
-411
-193
785
-30
962
246
-144
-449
-67
293
-53
-1020
786
191
495
-1013
1066
159
-408
-255
560
-910
-829
744
-514
2367
1477
-1890
124
-900
-1279
657
-1110
300
-660
-614
-1307
-1788
114
-518
1479
-1644
149
-1124
1392
-552
-665
137
617
-159
1166
2
1059
1094
-1532
688
-1104
417
1043
-950
798
-848
-464
754
49
806
-222
576
515
-1028
378
392
585
-126
339
0
-177
78
-1
157
-99
179
-145
470
-466
-6
-8
-50
222
454
-149
382
-27
-102
-296
83
-383
-577
117
-243
211
-225
-342
-84
46
82
-140
-272
-85
-95
-7
-354
406
-275
-115
-183
16
-278
-257
315
137
-109
500
-378
285
479
-337
-80
17
-356
-172
-374
293
-140
-29
-114
-54
150
-475
5
-932
110
186
-14
-559
-679
295
131
-546
1229
314
139
303
266
-536
1170
-547
-485
979
-608
144
105
246
375
558
815
-496
-293
251
399
333
871
-502
-570
323
-195
223
683
-758
28
-192
-881
285
-533
873
-385
-170
561
-778
-33
851
421
213
108
771
-577
-269
746
-335
-503
-472
297
546
-365
1071
121
786
-17
692
607
108
69
552
-1011
531
388
-903
94
271
-342
184
273
-136
255
-374
-934
77
357
209
-499
-16
681
-28
5
136
-341
178
-512
-71
-108
-252
193
139
-240
201
796
-367
577
-341
-621
306
491
78
154
204
-435
-323
-78
74
475
475
144
517
-157
190
29
7
-297
-408
120
581
-508
661
-55
-1154
154
-34
-356
59
5
11
140
193
-313
79
-444
99
-134
106
15
102
74
183
-256
-167
226
-11
-255
-89
438
-129
446
213
-279
-158
86
-550
241
616
63
-228
298
-491
91
-71
112
-434
-400
43
-218
-409
-170
104
-225
-37
-210
-541
840
226
634
902
-898
245
847
280
-663
853
323
-43
-1086
796
-100
513
57
-185
1267
970
-1472
-521
314
3
132
-210
-59
-698
141
-515
-969
284
315
200
-668
-425
-638
1029
192
-22
415
-285
-944
-18
93
862
534
-210
451
-1127
335
602
-112
227
-88
33
-327
-245
75
-78
422
174
-290
393
309
88
-836
-1082
93
-55
-734
-131
230
-400
-997
-657
620
-525
-436
-165
571
67
-264
-183
14
357
398
627
-18
546
-744
359
-225
408
210
-33
12
-188
-87
-169
20
620
273
293
-390
277
-139
-284
191
324
-266
-12
-56
-77
305
-34
434
-352
464
224
-632
-620
-85
-647
-418
29
342
245
319
-785
121
60
126
-207
561
-292
262
343
433
280
125
78
195
-255
252
-27
-46
155
-138
123
-280
512
-217
103
145
-195
-379
-6
107
-80
125
299
-201
-268
412
-89
-246
-92
284
-151
-150
88
160
260
111
242
306
143
-322
-106
-490
-174
-32
169
-66
396
60
14
38
-212
-107
241
151
113
-948
-181
-176
14
-159
-548
193
-30
-332
-913
214
-129
-623
-23
1066
-969
-857
646
-654
1056
-376
-529
373
-494
-124
-1023
-903
-606
-219
53
-28
-746
-624
162
-1556
536
322
-226
143
56
202
-229
-293
611
841
384
468
-454
228
265
-525
380
-232
-111
809
-527
307
269
391
-22
-578
47
106
351
-208
651
-1152
1320
152
327
-1257
1552
1109
68
-760
940
-1282
-495
393
-36
2164
1255
-1170
630
-1063
-1253
1275
-1685
1459
-187
-720
-1312
-1891
-1000
-765
1881
-400
-193
-193
479
-789
-413
-113
253
177
1229
-208
517
784
-1073
546
72
595
1173
-433
1031
-1128
-675
-82
540
1207
-627
845
-1084
-1019
-207
518
907
-6
322
-54
299
-335
-159
38
-558
92
528
8
-119
483
-64
-53
-160
212
-400
6
437
327
-374
80
154
-271
359
101
540
-154
446
-219
399
225
140
-642
575
-604
-18
-29
488
-281
73
-406
181
-757
52
-384
360
41
370
106
190
-58
-344
106
-393
-135
65
184
137
33
-174
-196
141
-849
-829
-158
-215
-199
-58
716
-175
-891
-474
727
-422
-932
106
272
374
50
-144
431
649
538
-458
610
-681
-388
-544
105
-528
-41
-667
-408
429
368
733
-308
-86
-71
-397
-250
665
-269
575
-106
141
-31
-456
821
976
-74
277
-218
474
-197
-298
-286
142
108
-438
563
162
-377
830
644
79
504
88
1033
-501
101
-980
348
-739
-221
-201
333
-99
513
-242
-899
943
-157
-275
138
40
-13
159
-234
169
564
-219
-217
102
133
99
-315
121
202
157
549
-149
167
-211
611
157
-214
315
-317
-588
-826
-254
-138
182
-854
-534
1213
-247
-48
747
-613
854
-1027
401
-965
-539
885
-687
-818
-805
84
150
-228
-58
224
911
-60
103
-35
-3
485
150
112
-137
-162
-64
-317
461
21
-296
338
133
-62
101
64
-161
-159
-44
188
-231
-70
-221
414
-784
199
-39
622
137
323
-367
-92
-123
-118
77
148
-512
447
-220
-209
131
-306
148
111
212
-48
95
12
-213
-144
-292
-234
72
-679
-310
417
1225
118
78
499
315
-5
-528
215
373
-450
256
206
455
-563
-236
1103
750
-1512
51
448
368
354
271
-735
-260
308
-151
-1132
898
841
251
52
104
482
156
611
-640
525
-593
-374
375
-13
383
501
-333
347
-372
726
490
-822
68
-243
-790
218
-149
682
-56
1174
517
-633
985
743
749
-749
-564
-2174
1024
-147
-35
-982
1133
297
-611
-428
706
-2060
-370
1417
-828
397
1324
-1037
1024
-872
91
563
-781
-560
-1016
-755
-680
-1164
-1150
-742
798
83
-292
-465
1211
305
-156
-237
-229
-1077
-67
303
1117
374
-481
451
-873
216
752
-148
350
132
324
567
-912
-744
-32
265
1019
-625
1006
159
88
-8
-483
29
-160
253
-258
-108
-20
-332
147
48
-3
-574
-77
-432
-303
-243
245
-346
-105
372
155
-298
-182
-21
-162
-205
-558
74
-347
-133
-258
195
-140
684
-261
267
-148
-15
-195
-64
197
-194
-79
18
-92
-334
-19
-42
34
-297
340
-344
20
25
194
-35
72
-165
-24
-110
207
-405
-332
-87
-651
875
-1085
144
163
572
-1155
-911
-343
754
-439
1459
-196
-224
-16
-1129
-1356
887
-1056
238
1009
-1357
1589
-320
695
965
773
1589
1312
596
-1843
27
263
72
-417
-370
-224
320
-126
1162
-413
-257
-658
-280
745
-351
532
-1031
156
-1405
613
-467
-531
119
-391
394
319
300
576
-493
-1169
127
823
-680
-246
-1136
2199
857
-10
-1799
1227
840
-1594
-1095
1294
-1484
274
1786
-2006
1119
1448
-1632
1254
-684
-881
1621
-1503
-433
-1511
-800
-1273
-1749
-546
-243
1635
-958
-160
-1385
1375
63
130
-425
-20
-562
603
-102
1237
1412
-423
907
-748
-95
644
-653
662
-764
-244
1070
-264
105
-556
315
-162
-807
296
352
712
-21
394
-49
-391
-496
-313
-414
106
13
-5
168
-63
296
-18
-353
-1
328
574
517
482
115
160
-96
-122
-212
454
-554
-410
-165
-227
173
185
-149
245
119
-344
40
114
-155
-503
-380
235
-91
310
-36
11
57
-13
483
58
270
-454
67
-235
-198
84
307
227
132
358
-72
-124
35
265
106
353
-4
-155
-347
-133
697
239
387
899
238
-87
-286
452
426
100
-1180
-826
693
672
877
573
138
-235
-804
347
368
485
577
-498
516
-69
584
-722
440
-541
149
476
-922
424
284
-923
529
74
96
322
-764
467
619
-230
870
-550
53
251
751
-159
-146
260
-451
379
634
1300
-561
-566
1147
816
233
44
168
1017
-64
236
520
883
-131
-177
547
-209
-729
101
402
-53
-549
-700
665
-187
-262
311
16
143
986
227
-95
871
800
-500
423
-535
431
142
438
706
80
-900
645
-91
125
-209
232
23
-669
355
611
252
-445
501
-383
-754
-506
621
816
-607
702
-218
-323
73
687
186
-286
-48
32
538
-137
162
-169
245
-391
-55
261
-66
-84
286
549
-70
55
181
291
-2
140
-244
159
149
-325
-69
-300
138
103
-347
-503
77
84
125
444
-143
2
155
-490
262
9
-337
-98
-161
-54
-207
-178
-51
484
-126
68
342
175
38
-185
-97
79
-149
-500
22
-439
-552
71
-66
-512
-372
-639
256
-251
-332
412
-139
52
-596
401
91
-1142
-398
56
366
277
551
-80
6
-691
-621
155
-127
680
-692
-752
-753
236
-68
-872
-62
552
286
-196
194
-267
-220
263
1
372
567
-726
-251
4
-388
545
215
-785
-115
91
-384
238
238
-96
-36
348
465
199
-176
102
-1232
-26
24
-205
33
-99
200
-139
-306
-157
-355
-246
-508
357
-505
-339
-592
-207
365
-290
-91
1621
428
-1202
140
-207
-526
969
140
-631
-85
-29
-1747
-954
536
-226
151
-290
235
-542
-724
39
595
-232
376
-414
-457
-21
-386
1011
-279
-416
-230
448
49
-215
559
402
-97
-313
348
-68
259
636
-471
-111
-400
366
247
-294
-41
-136
-121
-42
-142
-38
616
-108
23
-113
138
-503
-126
-272
286
-494
127
285
-49
-172
149
-318
149
-608
247
165
-532
-142
24
-411
224
169
10
-606
-77
-169
753
327
-146
154
-137
102
-59
-120
-83
26
-70
-293
238
106
-113
-280
-463
-117
298
-419
147
-91
-262
-18
4
876
553
1172
-895
178
-297
608
-882
-217
777
243
-512
2052
121
-791
-5
-667
-573
825
-311
57
879
-232
811
-105
-426
81
408
641
480
402
-326
-151
33
10
-639
89
289
-94
-68
567
-20
271
-253
593
-93
-101
628
-754
-865
-746
92
-44
-526
-470
-380
177
-65
818
258
113
-1566
46
608
-136
-777
-134
241
81
76
15
1
-189
-407
-83
-26
305
-547
290
-364
-223
-537
-351
-146
361
156
-88
404
-106
587
616
77
-140
192
459
-200
-220
-10
-356
54
-132
300
273
-132
-111
-536
-228
77
54
616
-113
-101
-29
43
-142
118
255
-155
-982
-637
-81
-975
328
-442
-97
-111
204
-228
-795
301
177
594
18
-627
56
-56
93
-78
392
321
356
-80
227
-140
286
-2
155
123
-56
71
15
72
415
125
-209
-18
-151
319
2
-574
-303
323
130
396
136
8
24
-272
-147
62
387
304
-113
-329
-329
-207
98
146
212
-94
-335
-164
20
-57
272
139
103
121
-293
127
166
359
416
543
320
401
916
602
-448
343
542
62
-366
502
-206
727
652
-358
-337
840
-2040
143
249
310
-55
160
-822
-550
-28
-791
-853
702
239
141
-348
-167
-431
505
446
593
-759
30
-84
-435
414
920
535
-89
170
-394
256
530
-321
423
-353
178
695
-230
467
333
21
81
-172
-179
176
167
-878
-345
-2137
1373
353
550
-1058
1229
395
-1007
-387
840
-2186
-289
2077
-1670
1391
1759
-3154
1066
-776
-902
2021
-1248
-1199
-1708
-1079
-1878
-1949
652
-72
1217
-1911
-1219
-1112
1707
242
-11
-108
-778
-510
669
-15
2234
1786
-784
1033
-1649
705
979
-394
428
-293
-75
397
-1349
35
-118
652
467
-547
756
469
267
247
154
256
-191
-77
545
100
-218
102
-479
-276
-61
28
-114
94
-369
143
240
-221
-109
-31
-112
-74
-50
-94
-289
-223
174
-101
-179
-392
77
-115
-26
531
-14
80
-26
233
-316
-239
407
380
257
-339
19
-55
-52
-614
-261
-400
260
-313
590
-222
184
288
-53
-156
-345
-103
-186
-99
10
-853
-259
-954
1192
258
523
-146
724
124
-398
-194
319
-1519
451
959
-736
78
524
-595
145
-115
303
-50
-169
-218
149
68
196
-361
-543
147
214
305
823
242
164
-679
-735
707
487
332
327
-1128
181
-239
-281
490
-314
4
784
126
373
95
-318
591
-358
-382
-154
596
686
-714
1099
-368
748
117
-19
-84
22
-115
435
200
582
404
30
-187
129
299
120
77
-138
686
215
-251
-266
-206
-837
275
67
532
-37
291
-880
-294
606
-204
660
-20
537
596
-367
-555
-393
522
720
150
924
-237
-81
353
-1025
375
715
-569
-543
644
-887
605
859
340
414
-532
807
-658
388
613
-477
-808
-753
101
-534
-699
235
-25
-98
-46
-676
-95
509
-1159
217
986
-348
393
201
495
-497
46
24
139
-23
701
256
165
-219
-293
160
-301
587
-272
-430
673
4
333
25
-14
-185
-358
508
-503
163
-574
-328
184
237
84
185
-111
632
522
361
-244
-325
-132
298
-215
7
-42
299
228
-181
-286
-114
1059
1130
610
-27
170
131
11
612
638
722
-471
7
902
48
-791
-438
-691
-261
-910
483
383
241
453
60
-934
-747
75
77
-11
950
-6
-1152
-64
-68
-430
-61
608
109
-204
16
-193
313
95
607
612
22
-298
-140
917
255
-497
197
-298
-376
606
342
741
292
285
303
-695
238
45
474
-626
-847
-1603
100
222
1050
-284
679
-403
-594
86
-106
-806
-708
394
-836
-733
362
-122
350
-94
-229
21
125
628
-15
-516
102
-198
-203
-659
-678
-350
-517
-220
499
562
817
-197
-1254
253
-438
899
325
434
902
-261
-640
721
755
-870
495
-629
-1051
219
-56
384
-432
422
-279
-954
446
837
505
-280
346
301
55
-177
-377
149
576
-418
6
179
257
-75
191
-126
200
-130
52
278
279
69
92
-358
281
88
-135
-129
-282
238
314
19
-363
-195
483
109
203
-284
-337
257
373
-23
-3
-10
-129
190
438
230
29
-284
-365
-357
248
-36
-50
-284
407
-290
-514
-28
-191
424
-302
-317
-45
-811
-546
-1632
868
186
630
-1055
998
-108
-551
108
173
-1390
-857
543
-840
949
1135
-1210
926
-966
-37
584
-822
69
19
-766
-261
-1698
-1377
-552
791
-486
275
-222
19
-1024
-363
609
597
918
414
-142
449
956
-479
888
-503
621
332
115
309
-814
84
230
713
660
214
73
-1371
-497
95
243
128
-685
170
-1049
589
-246
205
-313
922
-193
-750
-234
377
-906
-101
608
-817
-35
114
-391
433
682
-296
699
-757
-582
-274
128
-78
-152
-338
-281
-234
-894
154
-498
16
-968
-744
408
179
729
492
-886
-121
630
102
953
231
104
-34
729
-92
12
-23
27
-729
-426
162
-505
126
-345
-493
191
-287
101
149
-422
209
156
-70
37
-60
233
-305
184
406
-216
-100
-265
260
381
-520
159
101
-334
-477
129
242
281
186
146
185
-356
-66
-222
177
-111
-388
-89
-110
-93
340
-328
-47
243
-242
-261
-301
182
-177
-160
-249
-268
-71
303
-23
47
305
126
153
-367
135
-565
-292
-189
195
536
-211
-904
-729
184
-55
-261
-810
-218
-32
-283
-917
401
-424
-414
-530
966
-302
-580
-200
1086
202
-19
-596
75
-598
557
-375
-378
-250
552
-546
-511
245
-38
767
-951
-245
-280
-182
-59
811
229
856
-738
-159
165
-202
153
-110
-32
592
-29
522
-317
241
-201
730
105
105
230
160
-776
-294
96
505
313
403
1267
-726
-179
-628
456
-974
-263
-92
-113
89
736
513
-629
681
213
151
818
36
-533
-147
-283
-27
1426
94
-333
-101
231
-692
-642
392
267
432
166
-160
-58
-5
151
570
641
167
-706
-481
-641
358
-245
779
-554
-585
714
-556
-60
918
621
401
-483
825
-658
-339
598
-699
-639
-482
146
-50
-40
241
-250
310
-602
-310
-44
21
239
-288
413
-135
-573
-119
-272
259
628
-303
170
-144
427
124
-326
42
-433
-243
-159
-41
-344
94
-137
-399
9
-313
-73
-122
-279
-22
-538
755
-149
68
-332
-750
-28
231
373
-95
152
-632
-267
-70
268
-448
-301
-4
-210
461
690
-222
-30
-128
214
891
199
-130
-10
-553
-310
-268
343
75
-561
-175
453
324
-624
1089
1629
164
-226
-437
-676
-314
-8
-706
639
374
-56
-1075
-736
-24
-797
1144
314
253
644
661
-325
-514
4
280
-86
510
-66
263
81
-540
537
62
185
-13
234
-69
230
-476
-1262
152
486
-259
368
-856
373
-281
318
-474
-174
-257
1474
-1515
-836
-428
1078
-978
-427
473
1278
-1384
1876
-45
-1280
1212
-644
-1865
1708
-1955
1176
1578
-1836
752
-706
1889
1914
1409
1840
1208
507
-1329
1039
110
728
-1248
614
323
-278
-213
-31
-425
133
-636
-789
299
-421
1356
-1127
-880
455
-238
988
624
317
-493
-503
888
-813
654
886
-395
-926
-726
-304
-203
91
267
253
-170
-312
127
-16
-661
-104
591
-55
-530
743
439
-90
-59
-74
-411
-435
-18
-199
-41
-63
-580
-147
-132
-175
-164
293
-301
-121
-135
271
219
45
245
315
323
297
26
-69
134
-173
73
78
-53
-21
-385
662
-4
-483
91
-283
-191
173
-110
48
-7
143
221
-37
-326
-926
-478
-931
373
-762
539
-160
910
-532
-590
-151
-412
-1011
-505
365
-323
60
369
-538
-38
41
-353
306
-68
-375
-208
-156
335
150
-344
26
-339
-768
5
-684
510
-406
-229
992
780
399
463
-195
-128
1163
-1049
1202
-482
-289
231
-29
896
-373
-617
-1145
228
486
-365
59
-193
-612
-1139
737
454
-245
-152
-807
-285
-855
-778
-183
560
-822
-885
-500
385
-1045
-614
-884
293
-282
179
561
427
-289
61
318
-507
6
-755
-693
-139
-225
-1061
-1149
393
447
943
46
-162
-561
-995
279
948
11
351
-521
299
-21
127
887
315
449
118
26
26
-800
614
616
449
-75
196
-367
-608
-466
100
108
-145
521
-383
-273
35
604
37
120
-22
-354
35
358
32
548
-119
-149
-563
-102
-353
-313
140
-42
244
-64
307
230
-333
498
-88
77
-29
-406
32
500
-285
-335
91
-355
103
318
-540
539
-60
209
-276
146
77
-45
-38
194
179
650
622
84
114
864
-276
-91
296
313
400
464
153
-131
-679
-617
-575
280
-31
-128
59
-55
-731
-348
-461
746
48
0
-292
505
-132
-142
-1001
636
-940
-438
519
-917
420
241
763
-26
431
371
94
137
-357
241
30
430
-352
194
475
-691
227
-394
-840
689
-112
-1111
146
-866
780
-365
-635
1016
-849
428
702
-66
765
-579
348
-857
-239
915
-525
-862
-735
-875
-502
-45
299
-151
-651
229
29
86
-260
273
-1
-246
-327
-224
732
645
50
259
-525
-157
-901
120
-529
1314
293
156
-563
-138
333
-668
396
-126
6
-134
-333
-761
-377
180
-148
311
482
148
-782
177
328
-44
145
-251
153
-494
-14
9
163
1496
-44
-70
752
-214
1493
-125
-200
-67
-139
-88
119
148
679
-446
-59
274
540
-1
-107
-122
-2
201
486
26
-184
190
-319
160
-100
-415
-226
422
67
-235
-22
107
95
-113
315
-69
-349
-200
10
-67
582
-198
-58
-25
172
389
-250
-120
-443
101
131
-122
180
274
-292
-115
-67
488
-248
-159
-125
-480
-308
-33
155
305
2
60
62
78
-206
337
-1006
-214
-682
525
-1088
-1072
425
471
-717
438
834
-228
597
-646
-1262
1924
-3
-158
429
-894
68
41
673
-164
1086
1668
-907
-788
-455
771
182
389
-554
234
-471
98
403
-589
-100
-357
-640
-751
-609
502
1128
-669
-1060
1116
-676
543
528
-1170
-74
-263
238
-809
276
918
-788
-431
-837
189
-528
1590
-1127
-326
-258
1108
-1564
-940
739
364
-548
1459
-11
-778
527
-237
-1594
1683
-2025
799
1073
-1511
1126
-42
1845
1301
1279
2051
498
1082
-1021
1292
77
855
-1661
-183
144
-84
556
461
-1055
125
-797
-1185
771
-841
1700
-517
-820
761
-952
745
1113
570
214
-851
906
-684
487
983
62
-730
-785
-267
-42
191
242
-187
319
-134
-255
169
-187
580
101
-585
877
-282
-632
355
-39
-54
272
-97
252
-76
76
-23
-8
-4
-16
38
200
30
-254
-91
280
-391
-320
346
4
-106
-413
168
-27
-285
509
38
-193
-80
109
-171
-92
-49
387
-223
-443
-263
130
130
420
124
-26
429
141
-18
-5
-90
275
-838
429
90
234
-920
613
-496
-298
-735
698
-1527
85
500
-511
1672
839
-993
-234
-218
-119
159
-478
134
-667
-571
-785
-1589
-384
-198
1064
-389
-396
-314
1081
369
-276
-207
-285
-817
226
359
1358
92
-317
714
-758
776
1409
184
164
151
-98
1092
-932
-413
-331
1097
609
-181
2403
181
-183
718
792
382
-173
422
344
23
-456
364
821
-360
495
481
693
181
164
189
248
-170
-217
545
-176
-29
0
-228
-158
-26
-102
-149
570
-9
20
-85
563
174
-103
-439
-342
115
561
604
393
-243
-135
-148
-793
570
144
639
-734
1441
-1064
345
1246
356
709
-1148
1181
-1558
46
1024
545
-1175
-1772
117
418
-483
380
180
-237
582
-371
158
-665
58
106
152
433
337
-343
116
-36
124
-39
-409
-282
460
-203
-199
-7
189
248
-72
107
141
-282
-330
-34
-223
97
125
91
-276
-309
-349
171
71
5
84
-273
258
-273
-2
195
-26
-219
-162
217
-375
195
-339
101
46
158
-215
111
-345
95
161
312
620
998
675
69
-834
-530
690
-119
-973
698
-264
386
41
-512
-56
1247
-489
1177
-791
-583
414
-969
543
-946
-940
-1012
-684
-1009
-723
921
-416
-86
-1629
1036
-217
-158
-821
151
-270
-17
103
860
632
-185
15
-1490
399
37
-198
112
206
-512
-772
-103
962
130
58
-120
217
-429
586
414
-930
-772
824
-482
-866
-299
225
-360
-611
-1014
1002
-203
211
-1442
-766
238
839
141
-52
-330
-446
149
-305
173
607
337
296
-29
-460
330
-47
-161
-825
-468
-14
169
802
402
-473
-555
-911
-2
483
359
605
55
-10
-213
-1536
-318
-337
-33
-39
-792
-528
-448
480
-334
-238
57
103
-2334
-118
453
70
-338
556
-246
-6
275
-82
333
67
134
-287
-276
250
28
-142
494
396
-51
56
-31
21
349
282
-347
445
151
-19
109
-254
215
336
-97
-87
296
-71
124
-240
-98
588
-150
-235
-276
421
288
-309
634
148
429
-364
156
-530
-91
-301
497
-166
-99
271
89
-82
-206
-225
-201
-328
-231
-1315
-864
-993
402
-810
-265
-40
1114
-651
-843
453
15
-988
-857
-50
-97
-1565
137
740
1224
472
186
259
-470
-77
-532
-696
93
254
-965
33
-624
-21
-196
-267
-55
-363
-359
754
56
-111
725
-128
-212
577
-181
728
-1024
955
742
-705
623
-557
-691
304
703
495
-309
605
-682
-730
1683
752
-66
1319
581
77
-905
31
-143
-224
462
1
461
280
102
522
-422
-322
777
-158
-59
-330
178
148
57
207
3
154
-328
-38
166
-371
31
-377
-146
-189
92
-184
-141
704
178
-162
272
312
-423
566
-259
48
-124
-6
371
-115
-448
300
494
44
390
-888
862
120
-94
-440
-917
435
-1216
126
-430
12
-255
123
433
28
280
-57
134
-468
587
-553
-288
-327
-122
-417
227
11
-271
6
235
25
-493
-78
170
-33
-156
96
182
502
27
-580
77
477
-185
-361
122
-354
69
329
-250
826
254
-479
-608
468
73
-368
808
-481
417
292
-345
-66
336
21
342
368
-335
-15
37
-103
-6
-516
24
