-435
556
43
-204
-42
-176
-100
-319
235
111
245
41
-71
-170
216
-246
196
-90
105
-162
478
-157
-584
-932
338
141
110
134
305
393
79
-608
6
145
235
-205
-11
-110
-251
324
381
170
-72
140
-360
-436
46
-32
-265
-149
-284
84
-720
-28
89
301
364
-133
-301
160
7
-290
764
217
-101
-115
415
-103
-62
-30
277
91
93
200
-49
174
-204
-478
-83
-49
71
253
302
127
33
-161
-105
-120
-303
-105
-380
-586
150
30
338
466
191
152
-391
-15
-508
-277
-325
43
419
-49
317
-78
15
-139
625
54
-7
185
-78
-40
106
-320
-36
-367
158
-10
-166
184
178
68
-345
109
-202
-259
-168
-176
52
-250
-93
174
-35
109
-220
-136
-21
-376
316
163
-158
-205
-597
-93
-14
201
-84
35
-205
29
348
-543
-134
497
-313
111
305
563
332
204
-167
414
88
-9
16
388
297
-149
294
-268
67
128
-552
218
-286
-454
37
74
203
-59
119
80
62
87
-127
-145
153
40
70
-200
-8
-500
-347
589
-265
46
-366
-131
-117
-458
-223
331
492
546
-132
479
-199
-156
142
350
-53
417
-21
-150
232
28
-19
-447
-179
137
-16
-255
-214
289
34
97
3
222
-411
-286
-279
201
1
-631
11
328
-134
18
92
402
-190
-569
168
-390
155
-25
-221
318
-171
-221
408
-241
55
-468
317
-3
-82
-91
174
-334
326
-102
-60
-401
-25
735
-52
10
534
315
-54
239
411
-191
169
-33
187
-199
-10
-445
200
-192
-283
-23
130
-150
-164
-309
54
155
-233
-340
-218
-182
208
-841
-218
-51
451
413
93
307
-281
-132
-504
58
203
112
129
-239
-106
291
336
261
249
266
-113
-147
505
164
-297
300
-318
107
-115
-44
24
-121
215
-506
418
422
-482
218
-300
42
19
-345
256
-55
158
-68
342
622
-268
-338
-268
-952
-302
-94
134
120
153
-120
-714
-358
-174
948
-883
-189
-277
-75
12
-194
-471
-91
524
226
166
453
-700
1142
-38
462
506
-215
-194
183
493
176
-137
-622
-193
-8
-223
35
-26
67
-63
229
468
-211
-266
237
536
-196
169
-236
-310
532
44
-200
-774
159
-247
455
-408
-67
-67
-616
386
-132
458
-390
196
479
-74
-141
-754
388
-272
288
481
-328
232
-202
515
678
-293
239
76
387
-31
-101
125
-270
51
-36
507
100
157
-223
149
-473
188
-288
119
23
140
-358
-313
-730
-128
256
-140
131
-6
-163
199
-212
128
309
-207
105
-212
-9
-380
156
198
495
14
165
-55
497
-18
-516
136
64
-156
-110
243
-479
195
148
397
-51
-343
59
132
-405
-4
167
265
-47
347
358
-89
-271
529
193
-20
226
-244
-287
-625
-329
-459
258
1
-274
-220
532
-255
159
348
161
-104
410
695
-294
107
113
-142
-118
-491
221
-26
101
297
-728
197
-780
203
73
43
558
62
-103
44
-8
184
-521
306
-449
361
-374
255
-670
70
194
225
-294
-77
98
-150
-362
135
378
-2
-269
-94
-163
-8
294
336
-327
-158
43
-52
206
34
-165
431
-22
-429
-18
-171
690
-241
412
-79
84
-124
-370
44
258
224
155
-468
339
173
267
-193
-203
-120
151
336
-196
261
-96
-145
-311
-150
-23
338
40
93
-259
-57
-295
-426
100
159
244
-30
-275
497
-167
314
214
-34
-250
-84
-295
398
194
-270
82
145
265
195
-63
-22
81
489
177
-366
-10
-271
251
-677
-523
-275
20
-696
286
-180
-241
-111
-53
88
288
243
-856
-22
559
32
98
-353
247
-16
175
694
-240
-414
180
178
359
155
-102
-130
269
-335
-24
-234
270
248
77
201
393
-587
-32
384
313
732
-395
-536
-171
-240
-350
-142
-41
-204
-394
157
27
5
-237
-95
-32
655
-350
-325
50
-46
19
55
-226
19
-181
135
-311
100
58
-504
77
-106
90
-39
257
-366
148
155
-56
-457
230
67
178
-680
128
281
11
321
-149
63
-62
30
-115
204
-362
-166
504
74
-85
-259
-168
165
-258
-381
747
-223
-260
47
151
150
443
-42
480
157
-202
-395
-139
-63
-406
274
-139
-220
-352
-50
-102
27
-24
-130
229
-178
57
100
-84
-59
168
194
172
141
-98
-156
81
266
134
65
35
103
-125
257
451
106
735
232
39
93
-57
-292
36
409
-336
-422
-390
-398
-115
257
263
117
310
-195
539
361
-279
74
-258
-187
195
159
-328
1
266
-127
92
-303
249
173
-87
-167
-392
-104
-562
-127
-472
-510
30
37
-311
191
-37
-183
-360
49
-27
-98
197
35
-271
91
175
441
3
362
385
-254
487
98
-258
338
3
233
-51
244
-45
-191
30
49
-208
329
210
-246
-31
276
-314
-32
72
115
-453
-202
-268
-415
-244
184
245
-206
-223
-814
-60
-123
-96
-11
324
260
244
120
-141
-247
339
-103
188
407
-142
-155
160
200
-248
229
626
10
-380
-30
166
-149
-17
-375
-211
-31
-79
489
-250
-369
326
-57
37
165
-469
-5
180
385
-96
-536
-760
57
-328
-414
261
-408
1
-900
165
-164
-188
67
104
577
51
394
539
35
-325
-201
74
-259
146
-473
360
-77
354
64
140
358
-7
-64
202
56
-311
-199
-97
-376
202
44
-382
42
-67
-3
60
40
-33
370
315
225
127
146
-101
96
-36
-328
333
225
57
-131
522
118
226
225
27
-133
-48
-145
51
-200
-205
402
-365
-142
17
-81
207
-108
82
-39
342
386
-330
-119
-28
321
560
-398
271
-174
-234
-120
41
-638
-234
-538
-231
559
3
-46
-385
-119
377
86
-253
-255
-231
-14
62
-24
194
262
-112
-57
332
304
-399
-11
125
-414
-383
-704
14
-39
-255
107
-108
769
-231
-302
-761
-305
-117
92
-320
257
-322
409
1086
179
-148
-193
-399
187
624
-380
294
467
112
739
-221
206
-158
257
-141
-67
-97
-719
965
-275
68
7
-466
-9
-433
376
261
-68
-45
-350
169
103
-318
119
-170
410
-19
29
100
37
-158
-276
190
320
-186
79
118
255
-127
-15
250
106
218
-220
-342
179
114
225
-503
-294
-103
98
-69
-199
-124
-228
285
-49
173
120
-131
-315
320
157
-84
134
527
-110
-288
371
-331
228
135
-130
-155
-685
137
-227
141
-315
432
-4
305
-21
-570
597
614
14
-461
-65
-150
101
79
-158
307
-838
-706
-650
766
-467
365
191
58
62
145
419
124
-107
-172
-29
134
29
-639
411
383
-524
-87
-78
41
-91
621
249
308
137
-743
-600
86
-121
139
-220
156
274
274
36
-923
-181
88
-250
489
198
172
537
-47
-119
-199
-20
405
137
-574
-208
-16
266
682
172
-409
501
-230
-4
-151
198
-104
-45
101
313
239
-128
-25
-292
-303
-58
260
371
-228
-209
-642
-21
49
257
-67
331
-419
191
297
382
-214
311
-616
439
-115
-24
143
116
-148
-598
124
-561
-488
163
103
651
145
-511
-514
-218
309
-58
-196
-130
-889
186
422
-305
-342
-84
-239
122
-422
167
-576
-131
438
326
52
62
-310
75
-620
530
-162
350
45
-308
-273
476
-32
-132
180
-112
415
37
158
25
-382
106
131
404
153
-137
617
-177
-37
230
-366
-365
-183
284
-215
364
-274
256
-140
279
350
345
6
336
454
-69
-702
220
189
-637
917
308
14
-299
78
-340
228
848
860
-775
3
745
-478
398
167
132
107
251
189
-195
-298
-515
-160
617
-987
284
-1329
99
-255
58
2
-519
-70
224
-167
-159
-244
288
-61
-463
258
84
-276
-452
144
242
-236
-296
-297
-482
157
-36
-471
542
371
268
-545
283
-568
-97
73
-34
148
-966
170
-404
770
-235
533
456
-101
-26
312
-67
543
416
-122
-259
-52
80
210
-155
117
-265
-112
-141
40
-587
-177
-202
-385
347
-557
41
-249
527
10
134
-273
-129
505
-506
479
-457
673
-492
117
144
76
-438
91
17
-13
-865
657
894
225
-30
518
-296
99
-270
382
203
183
99
-110
-128
-285
-90
45
51
331
-66
-212
400
-239
241
-201
-156
339
112
138
-291
130
10
-427
-41
557
480
36
234
52
131
120
-207
-579
310
120
144
-190
242
-6
151
-115
-216
-398
-308
-455
243
-333
22
-268
146
77
-194
-737
-81
-43
222
-242
53
20
-70
-108
-18
-147
-125
-27
10
61
-242
-264
-37
219
27
-247
416
-401
44
-226
466
115
-33
-175
-218
89
35
-540
-89
307
470
531
475
-458
-40
367
94
238
-4
-320
11
-197
22
14
-43
-368
32
-90
-127
-101
-82
-139
35
497
-349
-166
-25
-43
17
-117
259
450
17
128
-563
299
126
653
179
-289
-5
-63
-153
-131
-288
94
68
519
600
-108
-170
-437
-310
518
-141
247
-678
-528
39
-23
114
346
469
73
-903
-875
-234
209
145
346
567
-194
-563
-207
-75
217
142
-487
-469
237
-61
84
231
513
135
-69
153
216
-197
547
-77
289
-202
43
103
6
-236
-183
15
-30
-158
128
-137
128
125
117
194
334
594
17
-78
84
191
481
101
36
-339
94
-563
-207
194
43
-104
239
-32
205
467
108
-68
54
-1011
-122
441
502
-84
20
551
-234
-280
396
-253
607
296
-157
-23
36
316
33
-119
-56
2
-193
-347
-510
400
-253
14
-29
122
-133
-340
91
64
-609
142
2
169
-272
-109
351
-23
28
-173
-214
134
78
734
293
1054
-189
-4
-542
369
133
-54
298
-63
276
-194
-685
-505
367
68
-167
335
-142
-270
765
-73
-82
153
-576
-81
-447
163
-46
113
-53
595
96
110
36
-386
-395
77
197
-399
315
495
-418
658
-284
18
-306
21
-796
-725
643
363
463
76
-780
283
73
-1000
882
-108
188
1007
284
470
571
674
-165
-132
-12
-198
130
-427
-230
-102
-328
452
1
338
241
-329
-160
464
82
153
201
477
-100
-1217
-439
-2
40
-9
241
-64
46
-484
-402
-30
586
221
433
159
75
87
317
455
253
-175
3
494
443
159
-67
22
-293
161
-424
-296
-676
160
73
204
545
-410
-403
-396
-285
103
44
-47
-315
-43
-208
546
-703
200
24
510
30
421
-143
97
-218
79
112
284
-165
-225
-374
473
-113
-60
-122
-28
-21
189
18
177
-41
-57
-18
644
193
-99
295
-218
269
-144
-253
-343
-188
777
219
-34
-300
250
451
-71
-375
358
-891
-234
-352
-108
-162
291
561
278
-89
799
21
525
124
-528
-59
-444
841
11
402
87
94
-844
-17
146
334
-36
-372
540
110
-151
193
-210
430
-232
-5
-172
-567
-28
-321
-10
132
-254
-667
309
-118
-220
246
20
-116
-511
604
222
212
-166
395
191
-27
-291
305
-270
130
-315
244
-377
-58
127
-79
246
355
-117
-432
-151
-77
487
-148
-359
-130
1
-223
-499
-169
126
266
-501
278
161
28
-145
310
-176
438
446
576
-18
130
-90
-127
323
247
373
-71
1
-418
-45
-486
12
74
340
-82
181
-58
-38
-255
-362
336
152
73
207
242
75
-169
-20
516
76
-146
19
-303
-204
-325
-88
-205
-300
-319
37
-301
43
-209
-126
86
-453
137
-115
-237
-34
43
242
-184
-558
-791
2
-608
326
-217
14
-457
-96
115
40
-105
-313
351
42
175
174
24
314
351
688
-1
228
194
518
-455
-345
346
292
232
-889
47
-185
115
-310
521
-227
-99
177
-335
-604
85
-296
315
-305
76
495
78
30
-260
-202
-266
377
-536
58
180
621
564
-583
-225
-93
446
-454
476
-590
-255
22
559
468
161
108
-485
467
-341
20
-32
-80
250
-287
-221
211
30
136
-108
54
799
183
28
-7
49
76
20
342
-406
-462
-264
-239
-537
-30
111
324
147
56
-218
-36
9
-606
336
209
744
133
206
480
-37
176
510
441
530
-283
-125
515
-278
-370
138
-104
119
-555
-167
-246
102
-37
-185
-19
-108
-772
-58
91
-212
-5
207
-263
344
-464
194
748
267
-282
-126
578
-160
153
-339
234
289
-203
591
123
-123
455
-1006
400
379
-191
-3
227
153
-888
125
56
-710
-94
362
322
424
75
1043
-337
660
-677
35
-108
13
207
226
-236
19
602
108
480
-501
42
-276
-306
-199
42
-51
-245
-383
12
-91
-199
-361
126
365
579
187
-200
424
-506
-95
-266
858
267
128
-403
222
235
-83
-198
197
-329
-36
-210
-862
-192
-162
-141
70
293
-647
