1533
-521
1
-1096
547
74
930
1328
180
-426
-194
1132
284
-528
619
843
-84
1134
-450
1177
-516
102
-848
122
273
-163
-72
577
126
-76
-154
-735
-837
645
801
-4
365
-784
15
-243
-50
-382
808
-543
-162
-17
826
457
-1637
431
-170
864
23
-524
345
-968
-947
296
-286
127
-569
43
-447
-1737
135
-502
1228
-893
-19
-158
1089
-100
160
-542
-1301
413
1066
-403
1680
-1957
1806
-1439
-81
-78
155
456
-539
-1252
1124
1037
-352
-247
-346
743
-346
-288
-58
138
-370
-233
413
-836
83
-272
-297
648
258
-179
262
-312
89
-321
13
-32
-350
-47
251
246
-396
-271
92
-24
-366
-216
495
141
-47
-83
-66
-393
-1044
-91
105
-395
448
-110
-149
8
-305
255
-212
-305
-379
185
-551
907
-1207
-683
-281
30
654
585
700
1311
-471
1814
1335
1076
121
167
-5
-203
-1295
1124
-192
-17
-1155
546
943
1390
-1099
-326
295
-820
-465
-553
1801
-83
1345
459
-1010
1116
-371
-73
462
-376
-284
-638
-1271
450
-385
635
-985
753
-622
-489
755
202
1105
672
-47
503
384
387
827
565
266
175
-326
-305
-667
333
-491
239
-233
577
-192
387
883
-404
-387
1931
-640
253
-292
732
742
1032
909
-593
59
357
-538
-323
139
1291
-1020
-828
444
-189
637
41
893
-201
75
-584
295
23
120
496
-73
-411
154
-228
29
227
41
150
-126
796
-130
229
-163
-17
-412
-303
-545
-446
-195
-49
462
-369
-163
-68
43
-733
-17
-952
107
-109
-308
113
60
163
-51
-111
-71
578
661
-239
63
-332
42
181
461
976
334
-343
415
757
461
908
220
126
467
-482
-753
150
-428
-240
-1202
938
899
896
-1073
333
-7
-2241
883
-393
431
1679
749
-258
-689
-19
1098
-470
695
-958
582
-951
-689
-106
-406
-170
-650
-220
104
86
40
-78
-454
-811
-3
403
-38
-374
-439
937
-695
-492
-269
-295
407
69
742
346
589
417
168
-93
104
-116
318
226
-343
-139
-183
-794
-186
254
-256
49
-689
1012
-150
395
-962
-240
224
-117
-429
288
-257
51
230
359
-1050
168
-384
98
-20
-447
-154
188
-474
677
-30
-52
-430
509
149
-163
-366
-345
35
229
105
235
-317
-24
-207
130
-649
222
-99
41
-412
739
-610
-116
-201
461
-124
-69
360
248
-497
-55
-114
447
-180
968
-1510
364
-97
-673
-81
-1131
1182
1462
609
-1193
524
596
-757
-491
-483
-426
909
-403
540
-389
715
692
1074
940
-46
45
1628
-560
-416
-74
-1578
270
1265
1606
-1084
800
-1126
828
-1582
2
120
341
-494
-1068
-189
676
1210
-821
490
316
-848
-784
-340
514
647
-243
172
716
140
708
-179
485
-260
1203
-419
-134
-152
245
-587
559
-825
-490
415
691
-790
444
-127
733
499
-700
-1280
-578
543
-73
-155
-361
34
-172
179
-176
916
344
532
-1157
-240
-274
539
-141
-221
168
-190
-220
-581
353
-475
197
309
86
-622
-3
-254
-395
-98
-336
76
4
374
-290
-565
123
162
404
139
114
202
608
-92
-650
592
-126
284
658
-126
-286
50
-423
853
-499
-156
496
347
702
994
-1281
532
-73
-131
-414
-1320
-350
630
-426
1055
414
1130
293
468
503
614
-213
-555
480
-812
-93
-88
765
127
532
-103
-996
-529
-369
1260
-61
244
313
-731
274
-74
-210
767
-484
440
-1424
430
1680
314
-190
-209
-445
-468
103
-286
622
167
-1302
-188
-1209
-387
23
1486
-548
955
5
-1566
-748
-862
-624
1687
-693
148
132
762
874
648
-91
-1211
-176
546
-1108
484
-1373
1208
-173
-99
-371
-260
236
-94
-372
1264
369
-655
-729
126
791
-363
112
15
-634
-27
113
-50
-483
-227
100
324
12
-141
232
91
332
443
-223
-170
618
301
-60
-130
49
362
168
158
-86
146
9
-56
441
-128
78
441
761
65
639
-399
-19
108
32
40
-133
236
1004
-73
-830
-315
-388
-366
631
794
795
-285
-57
-149
-723
-666
-357
-2
-412
-1148
919
-894
-761
-711
-556
743
-143
1192
309
992
-791
547
-81
253
14
1119
-501
-145
1203
-242
-454
-787
200
-689
684
-815
1344
-895
11
-1023
-877
407
-645
-599
754
494
-148
-534
-554
-427
357
964
1414
662
-433
313
1094
593
596
-283
373
-133
218
-1083
-93
203
-209
-1205
678
-388
186
294
-106
1
1314
-1164
318
705
-842
-449
718
595
712
-118
-22
-642
-374
97
275
-103
-953
796
-73
-101
152
-115
454
5
93
78
25
-199
95
-624
-451
186
464
95
160
-277
469
269
-271
-171
-393
-271
275
-71
767
-159
138
-5
-88
-575
-87
-350
488
327
-272
691
123
-442
-702
591
524
-313
78
-16
267
-50
332
-330
823
-174
1031
83
-761
944
94
-809
-166
932
704
219
-64
-167
-735
-1091
-473
731
64
-383
336
-468
274
459
334
-61
341
616
-127
699
-301
1014
11
607
261
61
-184
-1093
-519
-524
377
619
-687
-586
-325
435
-27
402
-317
738
616
-17
-863
579
516
-150
-718
370
930
335
799
-146
248
-376
504
-696
-492
289
722
-225
559
-1562
-876
535
670
-1589
732
159
398
1067
-275
-1093
-1020
1427
-1146
722
-136
1249
535
278
-318
798
19
644
-695
-559
-232
379
415
106
-661
66
538
108
-33
96
659
784
-122
0
-355
-96
35
-546
578
595
90
-208
159
665
-588
-152
-286
272
59
-204
16
247
-40
-268
307
-617
-237
379
-446
-185
-387
546
731
-727
-67
99
243
398
-400
1783
719
-1149
-1014
-312
595
-579
-1735
865
737
39
-282
180
453
-802
1868
128
-495
111
1597
-565
-490
-196
-905
-960
1434
17
-1260
1385
-2210
-1367
43
-629
-1001
1051
-917
568
-1641
1273
1165
357
-946
590
810
10
-1188
-863
-452
383
-507
1580
1024
-681
-536
-1170
293
-980
-88
-1542
-1485
598
-1453
589
-1791
293
-25
-395
-41
275
-1587
622
90
210
267
1565
522
203
805
128
-340
472
788
-138
378
-854
404
-1205
249
-465
-235
-534
-1263
-193
347
-124
-198
193
337
60
-248
-186
-38
-458
689
39
82
166
466
-303
270
-361
256
-16
391
-386
-524
72
91
-122
141
304
649
222
-473
-241
-86
-132
80
19
171
-224
-62
178
264
-92
-1014
289
112
153
-114
-65
-2
-1707
1167
-408
402
468
-392
1700
1018
-288
-464
71
613
123
710
-901
-240
-1514
35
-347
-1691
192
980
-1018
952
73
-409
-932
781
-76
-998
271
-319
668
-663
709
356
45
-138
-563
-625
110
1322
186
-1940
-85
129
-374
-562
-515
710
-172
-138
917
638
1175
429
-678
224
-995
1137
-537
-745
288
-156
-227
254
-589
148
-61
-337
-144
-126
-624
59
1031
984
276
1092
-911
1130
-1887
807
-3
601
458
-570
-988
631
-838
376
795
-285
-747
-1447
1232
45
-505
61
350
-590
-488
142
140
398
902
-539
144
149
457
-5
-688
146
-438
561
-26
745
306
176
-206
-197
395
-397
-191
-247
-90
272
-117
-569
101
238
599
248
119
64
22
-60
-212
298
-42
-151
61
71
331
927
-245
511
-1232
-1004
-11
-8
-392
815
1694
1256
819
-1706
608
298
-422
883
1191
-366
-628
-594
41
-368
-164
507
420
1422
306
468
40
-85
-1125
170
-501
394
1741
1419
-365
-351
-979
1934
-396
168
202
83
-1079
-481
768
473
-555
628
-478
101
281
707
271
479
591
678
-585
-850
225
-1354
133
670
79
871
136
-132
-343
-262
589
-328
206
205
365
-599
497
251
-354
108
-10
-251
-487
352
-582
217
-842
762
-96
-531
-156
417
122
-279
-18
277
-534
811
222
-219
-13
583
201
-296
537
-41
-30
-21
69
-49
-409
-84
-112
116
198
8
21
-78
127
520
495
373
299
-170
47
-123
-268
130
262
206
497
62
159
203
159
-199
-190
312
-226
-94
435
424
461
33
-468
-657
1111
825
-567
165
-1831
-1049
-294
435
-73
-1862
-818
-438
888
203
615
-139
119
652
-110
-5
1503
-669
15
469
765
263
351
-645
-615
1170
518
-937
98
-97
-516
507
-854
1946
-1132
-850
-1075
-518
-20
-526
-84
631
2161
-1353
-1117
-2082
829
1159
1156
1822
1410
516
-477
1665
1722
779
1391
1974
783
794
-2356
1837
-762
-1276
-1476
1297
574
254
1013
-1573
-1010
413
-1046
1058
-916
1092
596
195
-722
-337
1268
400
-877
-1230
32
1061
-734
120
-946
911
-273
380
-35
337
-1123
-884
168
-355
-125
118
-15
224
41
733
341
561
-377
592
367
624
555
-90
107
444
314
543
-235
78
-206
-157
-193
416
-212
5
-135
158
-155
-3
-43
200
8
128
277
326
-146
225
564
199
-353
125
28
-354
463
278
967
688
-669
-869
-353
1566
-794
-297
-382
39
-543
923
-431
-682
-64
1122
-1403
-145
-574
-783
644
898
-589
139
-630
-841
-868
579
456
128
963
-751
469
-181
-121
991
1165
-1033
-330
118
300
-735
-1619
2171
-1975
-113
-61
824
-414
357
140
1758
-418
-647
91
-489
671
-442
975
-1160
-861
526
-1402
-804
388
-173
717
1191
567
492
1320
405
-429
818
629
-237
1035
1744
-587
852
-2151
824
-1182
-87
448
335
-1178
-1786
602
787
81
200
-474
308
530
289
525
-33
168
15
-276
-265
640
-384
-488
51
-51
144
-386
-82
-376
-398
55
321
-51
318
-450
-61
-147
238
-98
-279
-151
-59
176
261
-268
293
-36
324
118
433
-167
-119
-132
136
158
84
-717
22
573
125
411
385
265
244
-744
-546
-1551
958
-1332
-349
45
-222
-628
519
-122
-345
461
1081
201
-1055
-872
-557
719
669
-618
823
-437
319
-1021
164
-750
-707
900
-497
808
-182
78
215
-101
347
642
576
406
-105
-811
799
20
418
191
282
363
-550
-856
90
-806
-19
-781
-203
-224
-1038
-181
-903
333
-252
218
458
285
-1176
877
-86
-1196
159
917
-496
347
-1844
-682
165
1405
797
219
69
-476
-732
-35
904
-83
-517
-525
-375
-509
-292
125
-576
-25
212
-49
29
-192
-504
-44
728
347
530
-146
308
-418
32
-600
135
-412
-288
-363
131
-319
63
67
-82
-188
-570
-236
-82
-326
426
-477
-206
35
-299
-62
443
-392
-225
-83
-262
72
-450
-417
28
45
241
351
235
264
1084
-748
-797
-830
-1459
-1077
-645
635
-528
-696
-806
-321
-828
241
-959
1064
216
14
149
1159
-1166
137
260
-169
-1031
160
207
444
-79
-217
84
-586
-164
-60
-374
732
-362
453
-469
186
697
593
541
-53
200
488
-1366
1528
1400
-1651
-979
-1657
-943
232
-644
929
-1211
-126
829
-228
541
-729
998
341
-864
1076
1058
448
273
-412
-365
-549
-34
-804
-397
223
445
1348
-506
-112
-1141
-24
514
419
49
914
238
-1031
-245
276
620
-816
-125
193
-22
-790
20
493
-373
-56
537
55
-258
-787
68
-145
134
214
129
452
949
-502
712
73
-266
-191
347
370
500
392
932
578
117
412
166
54
-209
-23
78
-55
-108
-946
-33
186
-1094
-200
347
-362
310
-217
1011
-1202
1379
-466
1002
551
-800
512
-995
-131
82
57
343
-617
-277
-1301
-725
-1476
-1578
575
-1463
956
923
-85
-450
851
451
173
360
733
48
-345
-172
-646
112
476
825
-562
112
-895
518
-534
371
-449
232
-451
-655
-398
1077
774
443
-1371
-479
-482
87
-1283
51
634
1476
818
-161
1748
-914
2017
336
1922
-442
-766
2016
-2352
-2422
1064
1001
-92
1041
219
-189
-394
932
-1450
1066
1916
575
1392
912
-167
1390
-168
380
41
-1063
680
652
-1417
-336
761
475
-438
-419
-544
-190
187
215
59
-123
-92
81
-424
-134
447
-86
-439
-4
-227
595
-382
-208
-7
-330
-146
286
-63
106
-188
432
2
-35
370
522
-252
-28
312
-234
57
-43
53
26
-51
8
-512
-120
-118
603
72
-198
1469
-1561
1937
1563
-1753
-1176
-543
-989
154
-1380
23
306
242
1462
-1239
868
-1863
2043
1227
-894
1418
926
510
1490
882
-1003
-895
540
1326
-1603
1332
-890
-925
-1686
-567
-761
-333
737
-1174
-924
-508
1396
-972
-1480
788
160
-756
-352
620
-888
442
-272
838
604
440
-591
-65
100
-866
134
-537
-151
49
-273
-102
-421
1054
250
264
-321
619
-208
-389
-443
-68
-192
-98
-506
929
751
655
-803
-758
-431
-466
-258
21
-476
-890
-661
374
-482
270
-343
1
-161
-44
505
326
-321
336
136
-98
-98
99
-39
-19
-342
-338
336
-485
-155
-454
489
-14
170
105
109
301
-615
-466
10
-20
59
45
514
-353
-119
-492
217
-406
-22
-131
128
436
442
391
-233
119
-35
504
-76
234
-139
258
-479
135
-631
460
1257
57
-52
-133
402
-680
-558
-197
-529
633
533
333
465
206
966
-164
-856
199
-393
-874
-562
-20
1351
-396
173
-715
383
967
-740
-614
-941
851
17
-195
158
412
145
222
-653
31
489
1174
-361
-1270
843
-578
-561
1178
323
1779
1126
-315
585
-696
588
-489
-32
316
-119
-43
-459
-789
-217
-188
-31
-950
-132
1069
969
9
-863
287
816
-170
-535
-949
570
1104
1315
-580
438
651
41
-82
-366
-150
1787
-1203
-324
-101
1208
15
-87
-37
-43
-166
302
140
-55
-109
-335
-241
-226
-202
-790
389
-314
104
-505
191
-347
16
-246
199
-387
44
-54
-54
346
-313
-354
348
-39
-104
34
-65
313
-46
23
227
-264
18
-229
-46
-21
103
49
223
407
83
404
-374
954
-136
225
-338
-540
157
633
-243
-1167
482
-1241
152
333
458
555
1115
246
-541
-358
1088
595
35
-85
108
815
532
-120
25
69
-564
-629
61
273
-338
953
-720
-291
-91
294
-266
-518
443
-90
85
-246
658
-553
-310
-1277
804
1535
-157
167
670
709
-691
-695
-41
-551
1165
878
1223
-642
-881
1119
-1139
-1434
-40
-224
1364
1337
636
-1359
390
-1095
-19
1598
-65
1179
965
808
-1892
532
244
1209
-943
-1395
-486
1160
-750
-354
-692
1308
-223
-278
485
192
-26
-179
71
11
-549
-700
-470
352
583
224
-267
271
-273
-200
138
381
111
-290
877
-45
21
280
-774
405
227
203
-480
602
786
-106
-16
-203
50
-74
318
328
477
-845
567
-544
66
242
759
186
150
-604
240
9
-394
-21
-669
97
1594
754
-53
-103
117
1074
513
1262
528
358
-1043
139
-328
8
-658
654
336
-126
-1579
-788
77
-1853
462
-1060
207
274
535
-1304
-179
353
1018
-161
1849
609
-1185
-284
95
1288
-1792
-33
203
-458
195
338
-267
59
-7
-913
-685
-352
-911
19
-694
225
-570
-225
-434
838
1041
68
332
155
907
106
-263
-657
40
65
10
358
207
-376
-1280
-533
-277
-15
381
-535
-627
-180
-769
355
208
-353
625
129
-221
-582
-44
28
407
-117
490
178
-877
-499
244
495
585
-502
-593
13
-68
1061
129
455
486
-98
-723
507
-883
-249
-524
684
-637
-361
429
220
-519
38
-594
-338
-517
4
-17
39
-224
546
-667
219
-208
-703
-186
-590
156
378
-732
510
53
-333
151
-320
405
-256
521
-114
-117
363
365
470
41
-476
-277
-487
-456
-1118
499
452
-205
-250
44
373
-14
-1486
-175
528
590
-371
-276
485
479
192
-564
208
619
-592
531
181
-610
1021
-488
275
-727
349
1053
-1054
607
606
-1370
-29
-1375
-1043
283
-124
531
-1048
349
-439
-41
1038
386
573
955
1020
621
-605
1242
236
-158
52
232
502
-688
-125
-958
703
464
234
369
-54
0
-343
-147
689
-561
243
418
-465
-410
-32
36
-73
818
-324
757
-78
-50
228
-88
239
630
-698
-639
-347
-890
149
-485
655
-155
215
-35
373
-429
475
-79
-298
-625
-984
470
17
-238
783
726
241
-319
-539
-130
-290
-612
-440
-169
754
-501
-89
-491
-895
194
309
-268
-630
-1430
1847
-1732
-449
166
90
624
807
67
1045
128
603
1023
-407
-218
-6
398
40
-867
238
-1023
131
122
356
652
1051
516
-751
-176
983
-603
-235
-447
519
847
969
868
-758
164
434
-216
78
-210
1234
-877
-419
-172
542
721
791
2
-95
336
-119
414
600
179
-363
958
308
88
-1046
-13
458
257
406
10
96
-456
34
-426
-908
-40
-519
-219
620
-429
-365
576
-747
-1094
536
-477
296
380
-600
449
-1130
343
276
1351
-93
586
12
225
-617
-721
-320
-209
165
-66
459
263
119
356
493
332
326
375
424
-360
259
-123
-11
-52
69
-27
-78
-485
40
-161
-667
-194
-751
-63
-324
40
0
-93
-176
-61
-143
-210
213
292
106
185
14
-40
-455
362
24
629
-139
1721
-1858
1221
-695
-376
439
-1308
-617
1353
-714
478
-1313
329
-39
333
1130
664
-468
-140
902
342
-177
161
-312
-189
108
159
801
18
-1840
139
689
924
-108
-510
-1250
-745
307
80
628
195
-1060
238
-1243
588
-132
50
144
-358
352
-949
-1298
724
533
227
646
1374
1477
208
126
974
749
153
584
764
-669
-1112
147
-207
-850
-429
1494
1618
1668
-544
-2274
1131
-640
-301
211
1553
762
1304
703
-2013
1696
44
1254
54
-682
-2113
2080
-1248
528
-2042
2142
93
206
-28
-94
139
-325
-18
21
-329
-2
533
-387
-582
-93
369
143
474
-303
336
-657
56
631
-368
121
-153
476
286
-195
-151
219
368
102
323
111
-458
-14
-280
4
-15
-543
-151
-19
-444
456
-124
-49
-447
19
108
-1105
1246
202
-578
-398
-1216
-454
-187
-582
746
-944
192
-670
-179
44
251
381
398
23
-10
969
672
522
-460
-390
347
1017
-622
-48
969
281
-216
-269
-1164
-779
972
-405
560
-189
704
-358
-210
-9
1093
200
320
-685
-73
469
-566
-35
725
-255
269
-565
30
738
-181
-600
-226
-639
265
-872
125
-1427
380
601
-232
-771
76
-738
910
1075
-1344
-300
1540
-1730
734
-772
-552
160
992
-38
-922
760
-369
44
290
-589
-1318
-9
-21
211
-952
442
322
-282
-174
-271
-353
-220
-775
-10
-586
-225
-371
-175
154
504
27
-426
459
-300
181
231
-41
-576
284
-730
386
-219
-216
-466
-339
-458
-93
-421
184
361
-441
234
-309
-155
-504
287
909
-541
-124
334
-136
-281
392
-69
-63
1289
-822
787
-305
-960
681
-412
-560
591
304
940
858
-281
6
-679
-507
-139
130
197
-574
-707
490
265
1232
145
-806
-299
1423
95
23
-1262
594
-1043
521
1140
-297
844
-1049
-593
-31
851
-1213
-106
-406
50
-949
709
942
-872
653
-107
18
67
-81
602
478
-418
490
28
147
357
350
1004
105
331
-435
-106
-463
174
-761
424
-1586
-806
1974
-157
-2097
2494
-396
1957
1006
255
-2745
-356
1454
-1118
1417
888
92
-513
1112
1054
1413
-623
1066
-980
-634
-525
90
988
80
-401
712
378
303
-163
351
434
480
-90
-336
-164
-486
-604
231
-200
43
-221
335
806
425
-453
286
110
318
-303
-3
-109
674
189
-83
525
255
378
474
120
-107
233
509
-79
-260
498
517
-272
68
-131
-1374
-693
443
-144
232
75
157
1321
-143
543
1264
-182
108
215
-101
293
509
950
-978
-1211
848
1735
242
204
1083
-751
73
1459
-339
127
-389
63
12
471
-204
105
69
-60
-741
-245
281
1548
-183
-380
547
387
108
1260
-1188
347
29
-634
303
-685
668
986
868
-339
1083
-476
-541
-505
-28
-561
940
147
-300
-760
600
838
334
880
-1872
-938
-335
-1415
870
-1285
2132
585
520
-212
-327
-355
692
-735
1490
-842
106
71
-363
1476
-983
-437
-435
-317
-347
-242
218
-393
160
3
-229
18
-311
-155
-161
-911
329
-357
266
-447
-214
267
35
239
-53
-266
-59
-446
-164
-492
885
246
404
21
370
17
-360
-584
139
-265
135
-613
404
459
-347
282
234
-221
-202
-192
-577
610
-1445
-947
763
695
219
-171
-96
1888
-832
-587
199
-979
120
-65
584
-370
405
602
-1404
-992
709
689
-371
251
324
-421
-860
1078
-855
-49
-332
450
723
-39
597
-176
157
181
239
207
332
16
-365
577
-285
-202
1897
-601
-563
-1528
-45
1462
-1660
79
1502
1453
-305
-1329
509
-899
1710
1438
1997
760
-656
1624
-896
-1019
820
-194
464
1090
563
-987
113
-65
-696
1452
-20
177
293
565
-862
-273
-189
1615
-839
-1035
-796
1436
-269
-507
-117
1051
122
643
-117
-131
-73
85
-273
-118
316
-331
177
-160
636
-499
-186
195
-14
-495
693
-331
-418
-342
-168
309
-284
-58
-419
-280
-134
-74
-164
114
-388
-261
-492
198
20
241
-415
549
-134
139
-181
-417
-213
328
33
-497
-989
795
1240
2285
-428
-1052
-428
-1351
-1240
-992
129
-254
-1319
697
-1075
-1255
-1391
-135
979
-1232
811
1374
608
-996
-894
-1537
67
-321
-277
918
685
10
-193
-438
-1289
-477
909
-468
709
-314
118
743
-451
496
695
-348
-510
-306
1111
-495
628
297
-701
203
-483
-86
-1386
-919
477
79
-271
-521
854
-188
431
-310
-110
944
-749
-300
373
-1195
-268
-288
-105
1089
-732
-967
-638
215
-464
1483
350
-226
54
-1136
862
253
77
-59
1167
-1366
-363
-118
755
-632
-666
81
-562
70
494
105
55
68
1070
-112
62
44
64
366
-315
931
337
208
-483
781
74
-41
-192
-259
-97
-651
-208
-127
-117
369
251
52
-117
489
101
-405
-207
174
-49
209
59
286
-165
-1
-21
-11
-308
-646
634
-375
-118
-1281
-586
259
-479
271
344
-46
-25
351
321
433
976
277
985
-142
-626
1110
-541
-170
-627
-224
636
929
-308
-1705
-381
-836
-219
655
87
1459
477
98
-1060
-332
660
89
-160
-1755
-16
1139
36
330
-635
102
-659
-491
74
440
-313
-356
-1338
-528
942
435
0
-1091
350
1306
-628
665
-188
22
-71
-361
272
212
420
1333
-269
81
-412
-720
-617
552
-46
-100
652
70
689
-445
608
-429
632
-37
445
-142
48
-105
-630
1
188
-112
743
-266
8
306
-292
117
233
-218
-297
74
460
503
-293
-648
392
244
-68
798
-478
-355
-12
276
-94
1095
195
361
-102
274
333
188
392
311
-221
-119
-10
678
-159
115
133
271
-272
-123
10
388
-43
-164
-461
548
647
295
-836
307
-125
-597
-213
-393
455
549
657
133
2112
-206
-908
-22
-120
400
1066
194
-317
-566
441
1321
1089
741
-370
-372
1367
-284
813
-541
-537
134
521
486
-676
335
-401
-442
-342
12
-72
244
-168
-256
276
313
52
-755
614
589
-3
-241
-750
-962
885
-106
479
-1510
-120
5
-352
336
194
-512
534
-463
597
-279
608
-310
36
-50
-132
-431
-933
-642
750
580
1522
-5
-1082
-725
-123
-485
803
138
1159
-642
132
260
735
480
-152
-658
-137
-816
335
558
-148
53
117
272
-250
-435
-771
759
-156
325
2
-331
-507
188
371
653
203
-80
193
-597
-533
153
430
193
199
408
52
-809
778
-424
7
326
126
-100
-155
-303
-201
306
638
58
477
883
319
286
132
876
-614
-1361
1015
404
821
436
-439
144
-787
472
-1041
-595
110
-436
607
-1104
-155
417
-277
-539
-640
-1616
168
332
-76
202
363
693
-824
686
1251
-182
272
303
-215
57
-1044
221
-422
604
555
-636
-883
-1066
1093
546
242
-1163
1430
201
-700
-366
298
1598
-688
-1795
577
963
-217
-106
-43
329
-579
2277
-624
-534
439
1429
-1090
-382
-1057
-698
-376
278
-398
964
681
-622
-346
-853
-1646
-322
1043
264
424
-544
962
839
-105
-49
967
944
98
-1252
129
823
-23
297
-61
-205
-512
67
436
317
29
-625
-149
286
17
208
-194
-177
139
91
-388
-409
-179
207
196
-288
68
-70
-1093
-251
-37
121
-173
233
-34
153
8
173
-222
-398
-235
-516
-332
346
-682
524
-647
-450
-367
-805
938
555
-382
-336
-186
-411
-408
122
-313
-146
-1073
459
-250
-184
-342
506
521
-563
246
408
302
327
-1191
-1529
-493
250
-770
165
220
-551
-133
-159
-547
-1084
1204
-237
974
-869
435
143
392
-943
650
574
-363
-952
511
-610
385
-429
-18
1089
-1132
-1085
293
364
-619
-968
-727
20
686
122
903
-874
-318
1027
172
-726
726
-606
241
222
631
171
-499
-1225
-7
563
-1467
1099
761
-68
-234
-703
301
837
-825
-669
-12
353
-314
-297
292
262
27
-30
410
-131
72
380
-108
-213
-156
-180
-362
-279
-339
188
217
-267
327
116
447
-104
-635
20
203
-424
-58
-31
-289
-194
368
230
635
-49
-198
215
-378
289
80
-43
-677
239
-247
38
-237
-68
60
-503
-706
-304
365
-2068
1549
-642
603
-70
221
222
-808
-577
-304
-506
-804
-188
312
10
-204
584
309
-352
1
-586
-196
-73
-906
-780
997
1913
-242
1025
-676
660
-1580
558
-234
414
949
-698
-487
847
-418
1176
775
-475
145
-553
1042
-320
-738
183
-208
97
798
241
-323
-669
-76
148
171
-1035
-207
-468
-147
-287
191
-1066
-84
-570
147
-136
584
-78
579
426
-430
-140
993
-1021
215
96
773
-525
-332
-521
-911
1279
-408
-237
176
-728
-467
-105
428
334
97
640
-77
430
343
86
501
-215
219
36
336
-225
-79
155
-171
-531
56
-901
371
-203
-78
77
-84
564
287
471
20
725
984
756
380
338
-75
10
-66
609
995
48
1008
5
58
-620
-324
677
404
451
348
315
-570
162
-409
923
-1112
-30
258
668
381
-745
47
1097
-877
331
93
-28
121
-207
120
-283
-120
1218
-324
-1511
1113
645
78
49
663
398
632
1813
-714
551
49
-918
-484
1113
284
1152
-600
-594
-929
224
646
530
-392
-1066
1449
435
668
-742
1249
127
27
-174
167
475
-581
-902
-448
112
-785
358
689
-640
-332
-75
-574
-247
521
289
-983
-826
-954
-918
-75
412
-2109
-109
1633
-844
-1435
1431
-757
-1404
1204
-1610
2139
-1824
1950
430
569
312
500
1338
-258
-958
98
43
359
-558
255
-207
-26
-134
-427
-329
-78
-153
-207
-564
-199
-332
-438
-314
-350
-216
86
-516
336
-599
-432
-2
-139
762
-1
-178
251
-161
-372
192
-135
-19
5
-84
-430
-243
20
3
806
70
371
150
152
506
-580
991
-854
370
464
-631
168
-398
50
403
225
-483
-64
551
-698
-784
-61
-1471
336
-529
35
-685
531
74
534
407
270
-2090
35
663
-226
723
-10
469
-442
92
-724
474
509
143
-275
-1069
-364
1810
504
315
-901
665
1695
-1284
801
-344
-760
-81
-1540
-335
959
300
1325
-614
792
58
669
1073
570
309
-159
616
2
-56
286
289
-78
350
260
-16
-1204
230
-740
40
77
520
285
171
192
-394
652
224
339
-170
696
-5
-169
305
125
-302
199
-546
323
-48
273
730
-249
82
-138
238
-137
-428
296
-539
275
728
577
-190
250
-93
-620
401
-154
-76
-867
-800
412
370
504
186
-265
691
-18
-702
178
-734
-158
202
-155
-584
-169
-105
-37
-403
135
-50
-245
-171
-80
21
539
-574
222
750
590
974
-1194
-345
-912
894
-646
-1000
1530
-228
869
50
-875
426
-1069
-228
18
-433
-1383
-646
420
1130
-927
1469
-278
568
1327
-420
-1148
104
1395
110
489
-838
324
314
904
-150
123
-39
1351
-844
-1218
337
-627
-372
1203
616
249
139
155
442
-133
-650
-1032
-172
-341
-979
484
-1913
-487
-529
159
304
-248
-534
654
523
-182
-343
166
-194
276
-657
-1041
1261
440
781
-465
50
601
-259
-237
-600
77
780
-503
-183
-407
537
544
-546
809
69
122
480
-53
467
721
-368
-343
-139
-224
-68
370
-246
-55
-266
36
722
6
-18
584
141
-258
584
-443
25
606
-304
-139
-457
339
93
72
525
68
-575
-151
443
-460
351
505
182
308
-285
-154
344
259
-1551
1048
-608
997
192
-673
-122
-218
290
13
-1429
-731
-498
532
-711
629
-966
36
473
39
-266
140
-1082
-82
668
840
831
-210
305
-521
734
364
1196
361
182
47
-258
-130
872
193
-610
243
911
-322
-710
754
40
-315
939
-864
-727
628
-121
8
411
727
584
-278
635
529
138
402
79
647
-1105
-1087
-199
-378
-121
-296
-462
1294
893
209
-595
1195
329
-128
70
772
-1100
424
821
-980
2085
-667
187
-772
-280
-1401
692
-414
-68
-708
1226
373
361
115
560
-362
-48
-413
-47
-64
-193
84
-457
102
320
62
-277
-699
-631
7
-280
-203
-101
271
296
-114
357
874
726
-801
-592
94
169
-503
-120
311
323
2
-110
69
-180
-246
-108
82
-60
-263
413
-83
-377
-921
51
296
939
-310
-913
525
214
-358
-1175
203
718
-91
935
-1240
-647
-1879
630
517
-1271
1063
1709
-279
887
-443
-1357
-157
692
-487
-866
771
188
299
-727
-553
-1096
443
-1548
92
-649
21
-69
632
-1132
403
208
-254
-787
-536
885
-1179
-207
848
256
294
-565
153
1135
-1024
-2
-129
-113
415
-709
237
-1495
124
704
-376
-1486
534
-437
518
652
573
460
434
91
-926
95
-162
44
1974
1120
-733
-220
-1220
733
-1020
356
896
-11
-1445
-1352
923
408
-122
-119
-900
-542
-536
102
174
789
-588
-324
175
-108
164
-205
247
-257
70
-362
-660
-160
295
-886
220
-290
19
-621
-648
-151
-314
-312
6
-256
89
275
-421
-121
-100
-148
247
-98
134
116
-205
-99
-17
-115
396
-223
496
74
-42
-1526
1425
799
1357
1474
1045
-335
-432
765
-1018
-108
440
658
710
-792
-1351
-132
-473
545
-1943
-1216
-211
0
-257
287
-205
-530
297
-195
224
768
1161
-78
145
-897
472
-313
376
197
786
-678
-645
-573
-283
143
-558
-252
438
1209
-1050
44
-596
-1337
-757
-177
-755
-333
170
-479
90
-220
-632
667
1694
10
82
343
1198
938
56
-632
113
1224
1282
123
-756
551
672
-1079
155
573
575
839
-1550
649
-493
1131
-88
-1149
-497
-960
434
189
418
254
-267
-664
312
431
68
-107
-114
134
293
-19
189
-139
-203
162
992
544
-313
404
-192
714
-440
-673
-50
127
-45
99
-569
-97
-237
-27
-281
501
-39
-318
65
-365
94
-561
-26
-323
-359
-111
-253
-84
211
-180
-133
-5
287
44
114
488
790
-244
-1690
-609
-866
-325
-1756
-1510
-68
-977
225
-92
956
-46
-169
159
581
-1262
-1570
-1802
1361
2145
-511
1686
-670
1207
110
-567
-1259
-337
1659
-958
-350
610
-126
593
912
-1420
1073
-737
1338
-1189
66
-535
702
-281
307
886
235
549
37
-678
-510
-366
-925
52
-24
144
144
-183
-252
-957
950
699
-767
-1396
-52
-320
-648
391
-274
-1178
316
-379
-877
555
-515
-361
-72
360
833
569
704
-99
93
-143
725
167
-158
-368
345
-308
524
223
-455
37
-246
-44
-164
124
436
152
6
329
694
-370
133
-454
212
-213
553
99
161
-151
-422
-238
220
-679
-86
-165
-90
-223
959
-577
-29
253
83
336
-370
-360
-91
341
395
379
-36
-49
-199
185
53
-527
576
397
-813
38
-838
-493
-89
-442
-25
-314
-849
321
-389
-102
-77
609
252
-555
801
567
455
-225
-650
-523
539
-1509
-1536
436
-42
1279
-307
768
-1241
-684
-164
-1207
1187
308
-348
-1093
982
487
599
361
-174
-625
-1018
595
1090
1994
-2112
-1653
112
-1319
-309
-1058
513
57
-501
1932
-2024
-335
-1643
1165
1240
-2063
2239
1988
145
-57
-515
-1666
-1182
1869
443
-2132
1865
-1930
-844
-1205
-864
-1981
773
-607
-355
-718
1399
1071
430
-2111
1482
919
-307
-1463
-138
271
-559
-159
57
446
257
456
-602
-268
576
116
-278
-114
-192
-502
57
214
-275
-63
713
92
-2
109
108
235
-891
-594
-148
466
173
-295
481
369
-5
493
-4
213
-220
575
474
983
-264
149
308
-475
78
8
81
-252
331
-982
165
704
-628
-803
-9
651
-87
-1320
-39
-244
676
-64
1258
-702
39
22
-211
-337
783
-747
-768
409
945
99
-436
1053
-397
1512
1693
-1330
-518
168
167
332
-864
808
-2
-336
525
597
-405
-924
865
-186
374
344
420
286
-37
-816
778
773
870
-823
379
772
310
263
-614
509
-703
805
-521
-365
496
954
-1492
-202
-60
-571
-35
-85
-232
668
-36
-678
-1169
-103
158
-522
620
-385
1147
-338
686
308
-823
149
532
1186
-263
-72
523
417
37
-504
-89
496
-316
-276
512
-62
-33
-88
23
389
47
-346
367
-50
316
-545
50
187
641
-321
37
-381
636
64
-182
-890
756
-407
-310
-497
322
99
-793
-157
303
-287
353
192
117
127
-42
315
120
182
807
-113
-528
461
-824
161
-1223
-358
1587
328
940
-411
1633
5
417
1404
776
816
-74
1082
-563
-907
1216
695
713
1837
-85
-773
875
88
-386
305
948
-598
574
356
-698
834
-917
274
-415
-967
-1733
481
-626
-329
-334
770
471
110
-609
598
339
-347
1040
-135
-81
392
394
-950
199
-196
-1057
-65
-240
482
1198
-464
-196
-895
327
1235
485
144
-1314
-1485
-391
-551
1434
-108
289
677
-544
-836
-729
405
1507
-712
807
-1054
-325
877
362
1077
-1188
114
-260
-12
-643
-16
-66
149
623
704
-466
-402
-348
629
-324
289
115
-219
549
192
98
507
980
318
106
-143
284
355
-282
-194
-437
-430
-192
-5
274
307
176
-523
538
-153
386
481
978
-352
-262
150
574
-604
717
-303
1707
-1363
503
-1345
-87
674
-1041
942
1670
359
-197
-206
432
59
1163
1109
1464
785
-1097
946
-316
-897
-358
-240
563
53
-756
-1283
189
-924
1146
-902
-129
135
-516
-1105
-840
22
417
-87
1577
-658
-1371
555
1053
1202
-1005
667
-609
254
-353
10
-57
-683
22
-528
-898
275
-259
-57
-406
205
-1329
-702
-226
12
777
-681
760
507
614
-211
591
-574
-977
-16
1392
-241
587
-1105
-532
-1154
-222
-167
169
652
-659
-733
-110
822
-464
-579
866
186
-392
-471
190
-95
-219
639
816
706
-494
-883
298
482
296
-325
-250
-257
-340
133
-599
-321
720
-811
180
-42
-287
-63
-457
205
-88
-43
18
-104
-137
312
-399
325
-94
429
666
-105
343
442
48
-303
-444
150
229
-689
230
-215
-557
-615
392
638
-90
-510
1436
402
-717
-1092
-641
1215
-340
1079
-897
-241
-1590
868
-108
-879
954
1119
-712
320
-130
-525
750
905
-354
572
-93
591
-1922
1314
172
-46
564
-1244
96
-45
-1292
182
980
-529
-420
-405
754
-407
-1113
2228
-1315
1060
29
-1081
1359
138
479
163
626
2279
1039
1395
-1539
-146
-1511
-66
-300
-720
79
405
-789
1389
-287
-593
593
801
1161
953
17
-730
583
-1716
-543
132
457
446
-1435
-941
-160
659
427
-328
-79
-909
1329
-37
-213
-68
-85
60
367
69
350
-13
436
-418
-297
690
-19
-270
-842
-427
-415
274
-239
-962
237
147
77
-190
155
559
176
399
-267
-365
-600
-373
-234
-73
372
-74
257
281
421
-509
356
774
606
-53
547
296
343
309
-554
202
-320
-692
845
910
-1135
-325
-460
777
-526
-442
-1403
-481
261
-983
1261
-2304
-305
37
-194
-413
597
-1527
-540
321
624
-2895
-1172
1110
274
1446
1259
570
-771
-255
-123
-147
1311
365
609
-1706
-481
2427
-336
346
-1091
222
710
-54
109
188
-1380
-454
-846
-347
520
-177
1357
-371
595
502
-267
-161
-532
100
65
141
556
770
-188
727
-230
-66
-370
934
-64
-855
156
-815
-430
-567
-48
-395
448
255
68
-71
563
206
57
-596
556
534
452
-460
283
-769
-625
-812
-208
787
-442
275
-341
-69
-166
-549
-429
141
1083
-111
496
-337
385
-518
-152
-133
-430
-347
-181
-191
602
252
-625
-599
-443
352
-245
61
659
-110
-234
723
-445
-181
583
570
-144
-558
-247
53
-369
-979
561
-460
309
-941
-99
-169
-380
-214
1503
-502
732
-313
81
133
-410
757
-346
-565
-37
-260
996
617
-737
124
579
393
-53
-236
172
-1479
-10
264
-465
300
726
-234
-1423
359
-179
366
118
-294
-650
240
-467
292
-651
358
207
-290
180
405
-765
-147
307
341
2
7
-190
754
937
232
-307
334
-648
1566
134
-128
2
-180
291
1400
-886
-600
466
325
-766
784
-806
480
1333
-1105
-108
161
272
232
-560
434
-97
492
211
-617
-443
-192
-122
70
140
283
115
574
-572
-225
409
-593
-435
-133
904
478
206
-4
-148
517
-208
351
-447
-598
294
336
-281
154
-59
-72
-264
123
-176
1304
-214
677
109
-498
-371
112
-640
646
162
-96
-80
257
58
-279
-353
307
195
-305
184
-7
-145
-247
-940
-418
-1033
-165
1138
251
-16
-382
514
814
149
363
173
943
-376
85
323
92
-42
337
169
395
-202
-2133
73
671
-184
-190
1430
-735
119
-44
-159
890
278
544
142
539
-1503
806
-139
207
-707
427
91
-345
284
146
87
-1065
383
372
-243
-407
463
-306
-13
-487
-887
165
-901
506
689
-606
409
1116
-618
579
-96
-479
223
-40
522
500
-198
-961
-2871
931
140
-182
127
-467
176
-619
-426
564
323
264
524
901
-35
-325
-443
-367
373
-265
-21
517
145
-153
-177
566
47
-204
-88
34
-90
-376
-612
355
-399
36
74
110
67
-36
-277
-789
4
-537
-41
-62
-32
144
-551
17
13
-1056
15
-434
-130
-366
-33
-320
30
-194
386
-550
406
265
1394
-936
1895
426
-463
-37
279
1205
106
-1757
531
791
-644
-242
739
1144
-206
1729
-758
-169
253
551
-1223
-1343
-1011
-1861
-957
1633
138
-595
1530
-1808
1146
-1831
-1515
-1372
879
247
-569
-1126
1476
2007
-126
-2224
901
871
-405
-998
-1670
-54
383
-17
593
675
1624
997
-1958
-278
-1442
915
-839
-1355
813
-1130
-211
707
-215
298
-1406
441
102
139
104
-114
-592
214
119
438
-351
-276
-318
157
209
910
603
-347
-563
-444
-755
994
601
-752
-788
-999
907
-54
-177
231
-198
-462
598
133
-383
-247
35
193
286
-146
129
-1280
-196
-110
297
-369
-402
-112
-145
-144
-471
119
363
380
175
-82
663
-28
-10
863
239
457
128
-38
697
-155
-232
-126
-391
-253
-1039
386
371
-141
-88
23
