477
-96
1126
-664
-188
-671
232
557
253
-283
-450
159
127
452
8
-491
-37
240
-259
431
494
-806
-306
299
1
678
-272
812
-697
297
464
-328
-464
182
685
564
-86
352
-107
-166
318
-203
159
497
-257
-12
-252
-20
-110
-453
334
275
387
839
248
-24
369
-418
767
0
318
0
35
813
-739
60
679
260
228
-1103
352
-78
231
118
-515
-169
-213
-580
320
21
-523
45
-1015
456
631
690
-121
-781
-401
-550
168
453
-151
141
165
127
-1
-313
-229
486
9
-1051
-243
-227
213
66
-111
257
-745
343
-292
-255
-892
709
-533
678
162
-1106
364
776
724
830
-324
998
350
-145
-53
-526
182
512
-475
79
-330
-699
344
480
-235
166
-81
330
40
-329
-79
-1417
-471
381
-398
-328
-732
134
-507
-90
149
144
381
238
276
659
-288
72
-149
478
259
-186
-528
133
-52
539
-189
359
329
889
-19
123
-917
-522
-142
713
-254
92
-136
20
-75
794
-375
23
393
-317
-556
526
-431
777
828
-12
527
78
690
-322
85
-171
215
-389
208
-83
-593
-810
241
-105
198
268
-47
-107
71
244
-225
141
632
-281
-216
104
-70
542
-291
11
521
-483
160
97
-112
350
-1492
-166
-567
847
266
-190
84
586
-106
746
759
-602
756
107
52
61
-202
266
214
265
-160
-204
-18
99
588
-930
-394
435
100
37
-308
694
-399
-148
445
25
-274
-533
300
49
151
899
397
-445
804
231
-288
374
-336
85
241
-85
-196
-425
-215
-690
19
183
-389
-19
-344
335
441
638
-237
342
-153
-650
171
-530
-278
-87
-293
589
-174
57
453
62
-902
85
641
459
-13
-249
114
-241
-655
754
301
-561
180
594
156
-329
-450
14
-408
1
277
-217
-99
-1195
-250
-175
1049
92
-386
-212
-353
-231
24
164
-200
-504
412
-286
159
442
1065
-902
566
813
841
11
-654
-385
-86
-211
192
367
937
-412
868
-631
-809
667
-390
-651
714
-50
896
-125
-539
-280
766
233
219
-241
-453
-533
159
-787
-165
318
552
-633
263
237
-239
336
-867
91
5
-215
-503
-107
842
-208
1169
78
-682
410
22
365
-90
-337
-140
85
1244
-366
31
-9
422
-324
-225
-374
0
53
-97
430
-468
56
130
371
-1261
-10
585
-647
-191
401
251
-331
117
220
146
655
-19
-224
-36
-709
-1012
144
-32
-221
-65
491
116
-177
670
290
-133
-95
-103
488
-200
-180
-343
-13
-514
634
222
-340
30
-220
-346
-429
-85
-449
399
223
-279
-241
70
244
104
197
-282
738
-247
-183
-458
94
-236
-133
167
-232
-337
-58
-593
196
-26
96
346
610
401
203
279
764
246
221
-392
-331
492
-839
-403
-192
-163
290
133
-861
-114
2
-583
122
-58
358
166
348
-807
-663
144
63
769
-418
-734
49
308
-205
-830
178
-743
14
-578
-7
-490
432
-660
-239
-102
-431
-721
60
94
-54
641
635
-210
-479
-391
491
166
539
123
-187
512
-43
-114
24
-205
-481
-8
1100
-86
-391
436
-535
-44
-286
248
-203
-24
-804
-35
-101
390
182
-138
-21
-29
116
368
645
102
-65
-661
-41
487
-463
51
-7
-15
904
59
-12
118
-372
-530
33
136
163
48
-726
300
334
587
-184
-122
-181
683
-17
127
129
-106
-83
255
-150
-126
-390
-44
298
-523
153
-359
-76
-371
351
-483
84
-1257
-113
-326
8
554
160
-283
504
30
578
508
-78
125
15
-51
-412
146
1057
-288
-470
160
593
11
62
258
-254
168
-263
-188
292
-439
-116
765
-85
702
787
-115
-1164
-276
371
-250
-741
-689
-67
312
-444
-369
-652
-218
-417
195
24
216
635
-121
247
974
417
-367
-529
828
352
-587
514
804
-1030
-219
-745
-338
318
538
43
-886
655
-638
-112
-866
-790
450
-498
-355
99
604
533
633
326
228
-154
130
-584
-431
-127
273
588
-248
220
-187
-443
665
212
-134
-17
-86
267
37
192
673
-615
-439
265
57
-14
-123
-249
200
90
-853
-965
-552
158
525
-3
72
54
77
-193
-880
-188
-257
486
-113
1167
-113
-556
-238
390
-487
547
100
-455
1030
-741
165
49
143
-550
522
504
547
-61
-343
102
484
-334
-39
164
600
327
-27
206
229
-687
485
-148
-138
-618
246
-715
-166
-20
-79
-228
248
-1159
55
-347
203
370
-447
-373
607
-16
-68
-267
-185
-273
-574
37
-214
247
-541
541
-800
-297
1111
85
241
-591
-141
146
75
-194
744
-702
6
777
567
-394
-275
258
-68
-209
-65
-47
-724
-825
-881
-362
372
-269
-223
386
202
-195
606
368
502
401
-159
-134
-200
-101
68
702
451
-178
122
-411
-380
-289
-150
-353
-164
-243
438
495
-60
76
-394
664
-539
-34
-575
99
197
435
68
-467
-39
-92
-4
97
164
40
440
34
-181
595
-55
-151
-432
-243
-11
259
354
818
-244
-69
-119
-11
161
-237
-783
573
480
-369
-938
912
-281
-206
303
-392
438
-605
-337
353
177
-1079
1236
97
515
396
-659
-51
181
-197
530
533
269
-516
567
-78
-359
351
-38
-890
737
232
147
-789
271
-451
492
876
-193
-337
-522
979
773
24
210
-449
-714
-21
-723
54
-144
360
-461
573
-560
47
568
-408
-220
68
164
731
598
363
-349
49
34
339
285
-167
72
384
251
-341
-372
216
366
97
-216
591
-471
-469
363
-328
-260
-515
533
120
64
-883
703
-217
375
135
141
170
182
376
107
-558
103
66
174
249
-664
-1
-484
236
93
-65
-39
707
250
685
146
-457
387
64
-150
-2
-94
-249
-74
17
197
-418
-358
-38
-45
-444
176
196
-463
89
-156
476
311
-489
55
-442
87
-74
-40
-103
145
-738
-251
333
110
188
210
-23
-402
-381
-934
206
-326
140
-533
-402
-109
107
197
40
139
382
666
656
510
431
168
426
224
149
401
468
-302
342
-640
-702
461
-278
244
-219
-465
-88
943
-763
-434
53
76
-206
-263
-48
-348
467
317
-260
-50
-674
203
-391
848
665
-77
232
-190
280
522
317
-533
-387
-52
175
-215
31
-9
382
-168
178
-691
-215
-50
-169
-581
-104
-302
155
108
156
267
-166
363
-485
-331
514
170
289
-384
-180
301
-302
262
493
388
-227
222
-125
-425
9
435
471
-78
473
13
-804
417
99
-388
-147
-35
410
-278
672
26
-321
287
-554
-81
559
-217
398
467
601
53
105
342
-259
-113
-222
-658
333
-16
-118
-53
-346
-201
49
-340
135
53
65
222
-96
-123
-391
119
161
297
-52
17
77
-73
601
219
357
-126
-421
743
-728
-837
-227
243
-580
-344
-603
465
304
181
266
253
-132
212
149
225
-97
110
379
-413
619
659
147
577
-160
204
-471
-216
762
-386
118
2
-358
62
1166
-422
626
-243
156
507
-512
237
185
-349
-158
611
261
257
-444
489
-177
-40
-330
-443
-383
61
-150
-1350
45
-958
-253
191
155
544
551
-117
158
27
457
185
621
-299
-14
-74
-287
-325
927
32
-591
656
500
-275
229
145
16
405
-546
-332
55
-159
14
532
-322
100
242
838
-710
-250
-220
363
-379
-909
-469
256
39
-26
116
-234
376
174
39
125
428
-376
-428
-223
167
-69
-139
396
564
43
-339
-288
306
-247
-278
-1
29
-21
-500
1110
-1097
-887
-50
-581
358
523
661
-186
19
-283
222
891
537
-17
361
-287
-179
368
415
-322
-31
-555
-533
-520
-146
97
-468
-196
-155
103
152
-604
-37
148
559
-228
146
-127
-142
-121
-784
-104
65
-731
-259
-37
185
593
57
-71
-654
-792
765
199
250
146
91
68
-325
910
566
313
578
59
-94
-319
607
-521
-189
-239
244
61
263
-186
-520
-434
-403
29
846
329
-696
198
26
284
-169
47
-742
581
377
-147
-45
-157
585
267
339
-407
-207
-490
570
56
-48
-304
272
-360
-474
444
-145
-351
364
302
241
489
-450
-455
873
-95
78
66
-131
-500
259
-166
-203
26
-554
175
-60
-200
-385
416
-661
-380
626
-242
-135
-474
190
-7
119
66
284
-393
398
-361
-787
458
-16
-752
456
152
-323
299
-484
59
-371
464
-610
-212
409
137
335
-211
515
-29
385
-406
-363
-271
-540
624
-169
-124
323
653
86
392
133
-81
335
462
-90
561
-50
270
-271
-673
460
-22
-520
139
344
655
92
-765
12
-235
450
-126
-61
274
427
152
-203
-107
170
-256
660
-437
962
288
80
602
188
-238
-330
-279
886
-269
-66
-131
-507
-301
-24
-563
568
117
184
315
-400
-385
430
198
-597
-200
136
16
-457
764
-650
127
75
527
-117
171
238
-135
-288
554
-358
148
-894
354
-75
222
544
205
-374
-202
-379
-3
307
8
319
158
-630
308
164
278
-124
-340
-1007
-602
270
174
-68
-351
-129
49
110
901
372
-552
71
311
-336
500
397
-365
-373
-148
-155
431
-423
-444
80
625
-202
268
173
118
-638
481
-52
-198
-666
-271
-971
388
75
-81
-230
-479
-125
342
286
24
550
-34
-275
-457
-327
268
58
742
129
-129
-317
0
-724
9
226
30
-104
-21
249
64
331
37
349
134
-97
-333
130
148
597
-606
121
505
-203
-307
74
131
164
18
-271
316
59
-554
241
314
769
-667
-236
174
136
-65
189
-345
-57
157
-118
-25
34
-153
-123
140
686
244
-646
43
-429
-95
-472
73
141
-737
-208
-360
-54
-318
246
114
220
572
-383
473
-50
-304
148
-105
-75
-43
-229
50
-68
82
8
11
-497
444
189
-166
294
196
-143
-505
271
523
192
-62
-400
-784
-142
-125
14
415
-241
-473
-104
-10
161
-193
-64
460
-208
-230
56
45
260
831
221
-69
-233
-309
-379
193
401
35
352
397
-760
-135
535
-195
-420
-369
266
-658
-189
-563
804
58
345
259
-189
-113
292
731
189
-242
234
-28
-79
-362
-41
141
406
-448
-119
-254
596
-668
754
-40
932
-393
-380
327
709
-205
-230
217
589
-594
-260
-103
671
-263
-289
528
-898
-565
619
-899
-336
931
159
-40
-405
-950
-509
539
-345
-966
617
-220
260
49
114
-207
-598
253
150
-17
-147
221
-560
-355
9
-169
-137
-92
230
124
-40
38
243
-786
-249
336
-252
149
-252
337
458
-135
416
223
-240
323
225
326
-152
-382
-537
434
-29
136
-415
575
-631
792
-29
459
318
-236
-113
-215
142
197
-379
121
-317
677
-96
-433
-733
533
-625
-255
-145
-211
-467
488
387
158
-196
-1216
-435
-428
330
178
663
81
-505
197
28
65
-45
274
74
536
176
-260
-538
-12
-514
-115
220
-147
105
71
369
-885
-152
464
176
-134
864
-698
-863
422
-154
404
27
552
389
975
347
-323
1020
507
1198
80
-1011
-659
293
357
-133
-560
-271
386
-296
-903
-244
647
171
-91
-214
-521
425
-716
479
-1260
1357
-270
-806
-8
45
254
-84
842
-636
206
-202
117
-209
-346
325
-153
-26
665
463
-158
-575
376
-455
-354
495
87
461
-601
1159
278
-112
-30
-506
-46
322
110
-488
546
412
-196
-533
-130
684
18
142
-170
-386
-220
56
-311
-275
-151
242
205
186
-38
162
-230
-458
-339
428
424
-68
324
-57
482
521
7
623
134
-400
69
187
-364
532
-86
-302
189
326
-740
1280
-243
-187
-407
-124
-34
432
-1021
-21
38
696
298
446
251
-595
-245
-50
-886
483
256
-364
-842
-127
98
78
240
798
-559
-243
-289
-4
470
-526
523
-46
-935
-261
430
52
6
469
578
329
-226
-75
-323
156
178
486
-5
-521
-270
439
510
-151
-1
598
-286
-884
420
51
-237
-132
43
-7
28
-152
579
119
399
134
353
-266
59
936
-147
-131
-198
-130
-260
573
-484
39
-7
-392
-83
608
-518
-346
33
-322
321
-371
270
-261
153
-688
-59
-264
70
-496
-69
31
183
-347
-458
925
-318
-99
95
451
-807
-145
167
86
47
-300
770
-195
534
432
259
191
186
-194
-593
196
-369
-226
-450
-539
-776
-558
-72
715
-115
-828
391
467
-671
365
-766
127
-588
-227
68
466
877
-342
1176
42
302
315
-188
-140
617
-97
676
-308
-290
-540
-21
-513
95
125
1011
-29
-210
-107
137
180
-102
-72
545
282
-642
-95
336
-307
-887
-696
202
60
-35
777
-340
90
44
1108
302
-346
-464
152
-83
-591
465
-494
730
399
-204
-327
1194
202
293
-177
34
-330
-158
712
-616
178
-291
-718
306
68
