394
-13
767
-358
-56
1356
-312
-120
-135
-859
593
228
-574
-1002
514
222
-332
-168
845
-621
-745
222
-866
457
-100
642
793
218
-197
-408
552
638
-569
-399
-577
-132
778
306
267
-528
-531
159
259
270
-1419
-348
618
-592
118
-440
636
121
58
609
-313
-460
-303
-512
-73
295
-437
-369
618
307
-372
-313
218
-886
-475
-8
-524
331
129
-173
197
-90
-488
-400
881
997
462
-686
-846
967
-266
-85
-236
-683
-537
-766
-339
-634
627
-942
475
103
-32
61
130
86
-96
-246
26
212
5
-45
219
-33
-139
-30
150
-147
308
285
-15
-140
-259
-142
380
-80
-247
-235
63
-275
-339
54
53
-180
39
66
-416
-222
-287
-159
19
-185
-212
-155
-529
419
-323
-111
889
-648
35
-467
115
936
956
-750
969
804
-1212
-1111
-866
-1370
525
933
320
-985
-1099
1084
-1006
956
-710
-1266
1159
-754
433
79
-188
-875
-24
84
17
-758
594
375
731
-273
-470
45
-453
546
411
-41
-623
-178
530
2
-82
460
-152
-854
-118
763
71
-221
152
-22
-185
192
-283
265
237
419
-368
-243
23
-149
132
433
303
-416
712
-92
-299
100
-326
220
428
446
-720
-141
108
445
947
-355
-849
336
301
274
405
204
36
225
501
446
-578
106
-38
-862
25
-269
141
-231
281
-576
-28
-19
-320
-321
-323
142
55
-13
-154
513
-375
517
-99
247
-277
-77
-147
142
61
78
413
-384
104
372
79
142
-188
164
15
-30
-571
-71
476
455
-118
25
48
411
67
-262
-384
-449
-555
941
874
-588
308
726
-1487
-719
-449
-289
640
1181
-292
-104
-674
754
-748
96
79
-1150
509
-570
-322
-171
-92
465
-191
189
-136
-606
291
516
272
-328
-1065
-94
494
234
400
269
-146
61
639
-136
-540
167
-348
-679
-636
429
-445
-695
-829
-413
460
1192
-316
652
486
229
-969
821
-55
-614
-434
-249
886
335
646
-692
-899
-400
-836
775
861
610
-805
-155
-662
1309
1107
-736
-134
-204
552
434
913
905
808
660
926
1258
-1206
-409
301
-465
-371
46
-387
201
-468
515
-312
532
-132
435
-431
-536
-235
188
89
157
-319
388
160
-508
-54
241
220
-142
-460
509
-211
156
144
379
239
-33
136
51
445
254
7
259
432
-306
110
538
20
197
-477
320
-863
-208
649
643
1082
-272
-68
760
-504
-26
-324
-624
687
720
-387
-691
173
588
-423
271
493
-147
-127
-37
-111
-578
-15
-1199
-594
148
-447
-591
554
25
160
302
-538
-549
-249
602
-10
-198
-789
-1239
-61
-34
36
920
-389
771
-288
-437
-429
-499
180
-476
-69
29
466
-266
-314
-261
-529
-72
38
36
-238
613
345
19
383
-270
-716
302
-56
-175
492
317
-713
-522
120
478
341
-867
219
751
410
1136
478
427
106
-14
-242
644
-445
0
114
55
-248
115
-169
279
118
-69
40
184
240
191
154
-169
-79
-169
-191
-345
-124
-48
110
-632
284
200
-298
-213
-488
28
-116
194
38
86
111
354
369
-114
-58
417
-226
462
259
345
-187
114
532
-15
51
-67
-394
51
405
485
695
331
859
788
-458
-1625
-449
-592
136
114
1045
-1001
-38
547
-500
632
-879
-559
-43
420
68
770
148
-419
-434
264
908
-291
1436
-597
-1206
-164
766
663
291
1084
105
-550
-293
-271
582
22
-402
-243
279
-157
254
-49
-673
-251
-85
-520
-189
-191
-607
-164
-252
62
18
241
-371
69
29
-436
-739
-353
527
-2
185
-516
-370
224
-229
-85
-316
-70
-97
694
462
-175
-786
-435
324
5
89
360
-579
-35
281
-67
160
249
602
-351
56
-150
115
330
128
249
75
24
-1
248
-483
9
245
-264
-298
-5
120
353
112
173
-118
119
-59
-288
58
447
-68
172
129
-308
-11
-194
341
-582
358
210
-76
65
-80
-334
-173
-56
-193
-153
124
-95
-15
138
363
-320
-650
183
-512
-676
279
397
606
463
-532
-468
-250
690
254
-319
736
-823
26
455
-10
108
-44
52
-255
314
-201
-542
550
408
-148
-148
15
271
-8
-33
97
-1198
-244
-229
-92
-398
452
-469
336
-223
-602
-217
216
23
312
314
-357
324
-217
202
81
105
62
379
182
123
208
-108
8
-57
402
-109
194
402
429
286
754
-301
-726
-672
1169
230
-161
-668
-772
-336
697
-54
-212
-928
-313
-22
211
-107
237
-586
527
-226
493
340
239
201
182
324
474
3
146
200
256
-30
156
-11
-60
-123
-168
-10
-108
-261
81
404
224
108
195
326
17
-24
-7
18
-278
230
-1
-696
-61
-111
448
-690
84
83
196
-520
-37
245
-7
129
-454
-21
-172
-145
736
650
913
426
559
247
-422
-1383
-896
-708
-148
242
687
-874
-720
375
152
-14
-1271
-387
193
323
945
-565
139
-881
-949
-223
398
-754
850
8
-1023
533
53
-20
-583
291
-696
-658
-515
-378
858
-848
505
739
1009
621
198
206
576
507
1185
243
-1204
-846
-652
-786
178
-138
1649
-54
-1106
1189
-275
376
-1113
-1227
33
-126
525
-834
-292
-168
456
-73
563
-1083
658
454
-380
105
-964
-605
124
784
260
-350
-71
216
1198
-78
-369
900
20
-77
-146
-290
-543
351
-319
-221
-117
-88
200
703
-393
121
36
-126
-71
135
82
-749
167
158
-672
358
-152
-584
445
206
178
32
-178
176
-13
-199
-545
108
47
397
-52
427
-214
322
-112
161
24
49
241
-77
57
-296
-1090
557
-401
-1165
217
-505
538
1438
129
556
133
19
-946
759
94
-617
-335
161
1061
294
568
-1086
-183
225
35
867
803
148
479
-22
-905
173
-842
-378
1372
313
610
-471
325
453
978
400
-87
639
133
-465
-521
-528
-793
363
149
83
53
572
-418
301
-624
-58
706
274
-272
10
-836
260
-246
136
444
-419
199
-517
-172
283
-450
316
26
188
-16
589
-174
142
-474
-190
-520
222
-81
126
-30
217
549
-69
-1085
45
123
-369
-383
-233
-246
294
182
-134
-511
-196
-181
-279
368
-103
221
-370
-124
149
265
-393
51
191
144
159
-608
140
-8
-391
608
89
425
-342
692
-85
-228
-130
231
-120
-299
370
78
273
31
-486
227
537
-140
696
446
451
161
0
889
20
145
-71
215
-240
215
82
268
-436
76
-265
5
-325
752
65
146
176
210
-5
7
191
205
-714
43
-941
-437
-234
90
-99
1341
-623
90
986
-1150
-515
-514
-195
-308
-1133
-1301
-1292
1837
-314
-38
328
536
712
470
-680
-405
460
675
-293
427
-399
377
-46
-1099
-248
909
-16
788
-106
122
66
-878
101
147
683
-167
787
393
-61
-644
317
-143
-63
442
-658
-50
191
899
724
211
329
-580
399
-216
-342
-1039
-405
-84
-191
47
-31
192
587
241
-41
76
425
155
109
-250
-289
52
51
-301
320
-183
-62
-306
-113
-257
-54
196
-101
-213
-117
-7
147
-741
244
337
-125
-269
-62
357
-37
150
137
-119
151
-218
-438
43
-128
272
-185
254
-343
46
-804
-572
1141
-137
97
-622
-315
-207
1045
-454
683
723
310
-752
841
-768
-223
-237
-641
583
111
-48
-808
-358
363
-1283
1741
609
776
-658
183
-439
346
344
-185
-300
1269
1116
535
733
757
782
1006
-306
899
-587
-1279
-1131
148
-709
136
-517
-392
-316
110
541
412
693
168
3
77
-847
263
960
-157
-219
-393
1188
541
-82
-38
-1235
643
-801
1061
259
341
195
1474
-526
153
-205
-181
816
1234
924
-699
330
301
512
134
351
-13
-859
-1705
-323
309
65
579
46
-202
15
602
556
106
546
-196
-117
576
-53
354
-427
-21
272
-293
-75
-210
799
558
475
-272
-306
467
-192
-233
490
29
60
-79
353
-324
166
-121
-150
50
141
20
-242
-124
-124
-114
496
-47
722
521
375
246
-282
-214
854
-142
95
-891
34
-900
-837
39
870
-220
979
699
566
1020
-1402
-213
732
46
538
-339
64
-358
-452
-229
296
-405
1228
-476
305
649
-573
233
-575
207
-774
-458
-299
-723
977
-702
-96
638
480
294
-1400
-466
-1141
-1796
-911
-872
1091
1738
603
1113
214
469
-2051
1428
1156
-1012
159
-295
1712
1065
931
-903
-664
1164
-293
1454
619
576
-110
1304
-1778
221
51
-400
343
427
998
-288
429
638
1367
1286
-1733
418
-977
-1602
-448
33
-247
-326
322
-276
362
11
-180
-399
-258
-180
-61
185
-389
-244
234
188
193
214
-549
-104
163
-145
260
-314
-161
-49
3
239
-376
-22
-109
-126
20
-107
112
192
147
-243
-215
-259
-69
-192
-135
-351
-426
5
856
887
283
-881
-179
-1118
992
-649
252
253
508
-733
-1103
414
267
27
1147
-177
658
619
-729
-30
589
328
38
-291
540
-953
-557
-85
-337
-351
-302
-359
-32
-79
-61
-357
-665
-114
-414
-215
-228
-507
-855
36
441
934
-609
406
-1371
-484
-303
-263
-352
-4
846
152
983
-187
432
-613
-618
-53
433
92
-78
418
797
975
-675
-518
-1045
2264
174
772
869
927
-61
984
-624
268
-678
-923
2462
1691
1236
571
650
695
588
1571
-2419
869
-517
-1665
-641
-34
-180
-43
669
-632
166
-703
-33
-311
109
-396
303
93
161
-326
210
-52
-399
414
105
264
-467
-64
2
358
-85
-786
583
428
-253
28
-123
403
342
-25
-78
-621
341
-327
-291
76
60
-228
2
-309
-218
-265
787
327
1354
-200
419
618
571
346
-973
-1930
-706
-231
-129
-373
1322
-253
-516
894
69
250
-1325
-934
-43
430
561
729
972
-471
-688
-271
414
68
-137
-379
-907
-465
1176
13
-766
296
-563
-86
45
111
-1468
-213
591
405
-9
-336
1058
-16
135
1289
94
-200
-9
-668
389
-255
-402
-728
564
-457
-149
185
404
86
-596
574
-570
1172
-105
-1384
139
-886
-364
5
-220
-445
1087
-237
721
1179
-1324
-552
-768
-599
-579
-631
-1203
-677
2024
-563
437
273
-391
46
79
-394
48
-203
-256
-690
-238
-452
-87
-220
124
-414
179
-85
102
30
208
-211
293
-86
-214
-309
-488
59
114
-284
63
-160
-338
-403
-109
457
-179
660
-512
-2
217
-10
-140
129
-549
430
71
159
-39
-633
502
-451
-506
710
-881
-425
-651
-583
51
911
-595
1262
216
502
-77
487
-1089
-1064
314
-845
-645
143
-169
-703
-425
642
-212
1103
-456
262
287
922
-1410
-485
-725
-663
928
362
716
-366
406
495
705
463
-1814
166
-228
-808
-175
-223
-1342
261
-364
-925
-1031
-375
-327
753
-818
1214
1283
503
-750
709
-1807
-67
-950
-833
438
-295
562
-1326
165
-198
-1032
40
408
306
-147
-771
-114
295
250
-182
-1189
-107
142
711
482
264
119
530
449
620
-296
-67
-120
-119
-399
4
-94
61
-163
22
-348
-340
608
255
-278
-39
497
-59
-182
60
-175
342
-85
22
-236
-181
107
-47
491
-176
434
373
309
-160
36
-55
-169
575
-342
683
99
145
102
-317
64
-318
-145
184
267
-390
168
811
-638
-1208
-1015
-175
205
-817
1292
836
932
218
-272
-1102
-604
518
938
-331
458
-104
74
509
-23
-579
-411
817
-377
686
400
71
415
746
-412
-194
289
96
869
809
345
152
-30
112
-39
421
-564
193
-494
-1239
-113
-273
143
-59
-1019
-44
-1276
-1604
1457
993
783
2061
39
-17
-678
1200
523
-1983
433
-1863
417
1325
-148
49
-662
1099
-294
786
113
114
-406
1693
-1526
-65
384
-700
1044
763
882
-648
-359
792
611
648
-2524
24
86
-1323
-476
74
249
351
85
-365
297
-17
1
-610
471
-521
12
95
-271
-288
124
-200
-33
486
41
231
-40
76
532
-253
139
-502
343
310
-21
-200
-290
-99
29
369
-331
-70
183
-617
36
293
239
-245
-63
325
61
32
169
-148
-1259
-157
-553
-38
-315
-446
18
1438
-360
731
427
-98
-675
650
-858
-93
-459
-600
737
-167
339
-1084
50
14
-495
834
1228
244
-409
-40
-1409
410
452
-706
-12
-276
853
-106
974
692
723
1025
-570
705
-438
-53
-568
-819
-544
705
705
-164
11
876
-418
299
-702
327
810
685
-281
297
-222
-166
-760
165
756
-253
-195
1
-151
261
-173
455
328
76
83
933
333
396
413
490
75
-242
236
-467
-302
330
128
410
490
12
277
-823
-25
20
-193
48
20
-413
381
16
-364
-121
-238
-260
295
-252
-418
6
-14
-309
-313
-7
44
-254
109
-156
-170
-8
216
55
117
-649
352
241
-137
61
-328
248
93
-40
167
-325
510
-276
259
162
71
637
104
459
-697
-402
-158
314
565
-7
230
543
-350
-162
-283
-142
249
276
-270
-665
-825
235
-525
610
350
66
-116
110
-473
-447
-382
-275
-38
567
-771
-439
728
205
38
-646
-171
788
177
531
102
-1
-336
-513
525
-234
-609
-126
422
382
-412
-425
-576
-689
279
-388
174
308
1
-30
-123
-30
-420
148
459
-281
-237
21
259
-106
114
-129
-768
242
-546
863
1038
114
-787
221
-858
1192
815
-505
-336
39
924
-636
568
833
526
763
-537
494
-344
-381
251
-589
-24
-327
-182
-73
-759
116
-192
-219
-50
358
-208
-168
-156
88
-43
292
-39
77
-62
-579
303
306
-86
-54
92
610
-226
-47
-511
120
193
21
29
-145
164
-69
128
428
-347
-326
-30
-22
92
-414
24
196
278
-39
748
103
-22
300
6
-84
235
439
11
865
-494
-119
-81
595
324
-276
174
-248
-200
302
169
104
-54
458
379
147
-628
-300
528
702
-437
46
-637
279
734
34
-127
-410
-328
-141
279
131
-794
-498
266
-304
-529
320
-206
-530
16
146
-255
427
82
-531
-326
-357
-38
-231
498
-468
-75
409
-262
-356
-459
-109
-460
-48
398
-122
950
-1073
-1381
-555
330
-133
826
-1021
-756
-31
-4
-813
-1048
461
-684
-782
-675
-773
-371
-778
932
1207
-135
424
-214
-339
243
707
-128
80
136
-568
193
-268
566
20
616
-45
158
-293
-387
-407
-278
50
315
-210
-419
90
24
168
184
-49
-69
-138
-250
-603
-41
-102
-598
-221
-1
88
-336
397
-257
97
5
-127
-227
-67
38
-192
-204
249
34
-417
-307
-357
167
1177
-372
-49
627
488
-775
311
-114
-167
89
67
578
-108
262
-489
-816
346
-809
177
451
828
-1663
249
-1093
758
1292
-995
654
108
894
521
347
666
567
412
-1538
1207
-565
-445
859
1357
899
-1216
-819
632
276
-921
860
-667
980
-71
-993
-1132
1009
-127
622
-722
735
-10
-923
547
-570
820
211
-399
213
-1189
-69
112
-37
-1363
830
-66
188
288
-88
-216
-463
262
239
-505
-552
-624
579
-180
-207
1026
195
-110
-21
-288
12
-75
-128
8
101
336
123
665
-25
117
-108
536
-14
201
55
248
20
-367
221
58
-293
150
-374
-194
-185
-315
89
-184
91
246
78
-89
-22
180
194
65
356
417
136
-182
501
-64
-319
-26
610
-105
748
406
-132
216
357
-200
-560
-448
-861
-401
-304
337
1006
-29
-585
323
107
360
-1396
-210
-104
542
491
-929
574
-1125
-692
-890
319
-294
727
-528
-420
1008
-962
-1485
-794
-835
-820
-1021
-990
-1085
672
-960
522
941
-297
114
48
279
714
581
471
1113
-912
-732
129
-821
180
94
248
-713
-416
805
-609
1093
-541
-260
-103
-290
480
275
354
-486
-481
-1432
1542
566
554
-1051
-1089
1047
84
-170
-878
-831
-997
-839
-537
-440
467
-1276
850
210
-44
81
302
349
303
-126
137
10
298
-139
-195
32
477
304
213
70
326
-113
10
-37
-290
161
-180
-298
100
260
167
269
255
-263
-352
476
150
-244
-535
34
174
28
-81
53
314
-116
414
-447
286
-196
-142
444
-103
363
-260
66
352
-119
390
486
-191
-180
-190
-373
134
-160
168
-620
-330
676
-527
441
-184
-201
77
-176
723
-321
500
-550
-276
-92
-547
-1156
-99
-353
-187
-868
30
-379
-306
573
89
-183
-600
75
-310
468
401
413
-92
656
-9
-323
568
616
1060
495
-407
-621
39
-991
-227
-684
455
-746
34
736
-44
1232
-882
-142
-420
400
84
824
267
483
384
-32
534
336
38
-366
-601
207
100
-189
53
-338
86
-77
206
605
-134
-339
610
-395
39
-81
-309
177
-354
223
-201
-475
-462
-393
342
205
-321
53
166
-122
28
325
-298
179
56
-224
-166
-62
9
498
462
-120
317
-367
-130
-147
-357
-58
-1
7
198
-154
-19
45
-169
45
153
-59
-43
-292
2
-400
-824
-465
689
-26
517
596
-372
339
948
240
468
450
239
53
-114
-213
883
-290
-424
-502
315
317
-247
959
-159
-81
-268
715
94
29
364
684
472
658
441
-303
145
35
455
-306
-317
37
6
254
999
586
-383
-706
-366
-161
1039
1352
1417
-4
847
1408
-1426
-1327
-1343
-1260
287
941
865
-648
-977
1409
-545
542
-1139
-1449
747
809
1038
-549
990
-1305
-1092
-568
1319
-1424
2270
-863
-908
1131
-688
24
-1671
1639
-1041
-1229
-1636
-1308
2113
-1271
643
1591
-62
-53
45
-109
422
-117
156
-205
225
284
331
5
282
148
406
-165
-693
-31
94
-318
-368
-52
2
-137
-131
72
-57
12
-142
155
-217
-82
1
-78
-143
21
512
40
-39
-235
-291
172
43
178
-163
-578
-46
-131
-221
-318
1058
590
-586
379
-137
-517
210
219
-121
305
-194
-458
24
338
200
-320
724
-901
-9
50
-331
877
95
-624
-81
-212
213
-217
-304
-166
-408
782
859
-21
-558
-957
-82
-720
124
417
-519
-368
941
593
-6
328
2
55
617
551
556
830
570
525
-746
-864
-216
-463
-148
320
477
-791
-195
498
-581
487
-69
-804
536
219
1041
-808
701
-1250
-457
-961
1336
-595
1663
-873
-838
1621
-671
-373
-698
-239
-944
-1503
-1232
-1246
2087
-1249
666
575
96
12
37
-19
228
-162
77
244
396
-169
-475
-346
242
-67
37
141
128
-309
-234
-344
-180
541
-32
231
161
-162
8
80
-191
-54
-52
-172
234
348
-581
398
-76
59
-479
-10
398
616
677
-597
-304
-12
52
-313
330
-1548
595
785
-207
536
-407
-438
112
-328
-144
904
-72
-143
543
559
-595
-410
500
-996
-372
277
-557
611
256
14
289
294
-536
-225
346
706
-490
-159
-376
-31
431
50
9
-1337
-329
144
27
-113
-312
-398
726
-385
151
-628
-86
693
269
380
-427
303
-907
-159
-851
128
94
356
270
199
-1026
215
-259
-643
-248
-658
280
-359
987
-1287
280
-735
-792
-1176
1251
-279
1241
-1288
-1235
1289
-1322
-228
-1193
-299
-621
-1105
-719
-908
1241
-1416
373
957
95
-179
127
31
-21
115
-76
149
226
214
-240
-242
116
269
187
-390
295
124
305
-26
-286
202
-435
-231
91
-814
457
21
57
172
-339
64
-2
-262
-346
135
-198
217
-607
136
86
357
289
-426
-381
126
381
-346
-601
183
-686
-493
-360
-82
-274
-22
785
1504
495
488
554
-355
-1441
536
627
-225
-654
452
1243
1015
-5
0
-426
-73
241
-312
547
526
-1121
18
-746
783
849
-616
249
-179
356
175
390
371
65
260
-507
537
-193
655
-987
628
-604
-621
333
-287
258
561
-244
431
-202
-608
806
-95
-476
-673
132
310
-93
1199
647
49
-52
55
348
-35
554
-256
245
70
-228
-451
-270
-110
189
-523
-72
-660
-303
43
-83
-120
-170
239
-826
-24
647
548
-383
91
63
154
-10
34
217
-755
-31
-479
109
-140
173
190
586
-478
531
-546
-703
-81
-348
184
249
-111
157
-135
180
-228
527
-58
-117
120
-426
74
-39
3
-623
-214
238
-508
-553
855
58
-68
52
-316
176
-72
261
-41
-308
-25
-59
-337
510
270
-458
594
-594
-536
249
99
-396
-220
-430
469
-263
648
404
-319
451
-304
-71
-355
-217
-845
262
440
-112
-500
372
426
501
34
-818
-343
-632
734
-400
-382
-877
-134
654
301
-48
728
-478
513
514
-218
228
401
419
-113
173
-651
651
-852
-702
-594
1052
-894
969
-71
520
893
-370
328
-310
253
-759
1265
625
-657
-428
426
338
-10
562
-298
-1145
190
1626
1207
-224
350
-461
-233
-304
-242
-709
-195
597
-253
256
244
180
41
64
-78
-127
333
-137
221
108
441
-81
-129
154
356
-326
154
-64
222
520
61
182
421
-939
674
-89
279
-190
-825
449
94
12
-154
-168
-33
211
-756
-560
276
84
-391
49
509
891
58
-87
14
-360
-585
-88
417
198
-245
-522
429
-706
-423
-220
491
19
658
96
557
-36
183
-509
-111
500
-513
3
-563
85
248
-309
936
1220
281
-139
248
-1063
409
-283
-419
221
894
746
382
285
308
802
976
-440
564
-110
-410
-1092
-508
-1028
205
155
-1470
-376
288
-129
1398
-542
186
1225
683
-1378
579
-316
461
-942
-270
1819
150
632
-1310
-129
-115
-604
626
379
-54
-111
190
-817
686
601
-307
-917
-250
414
-377
691
671
172
571
585
400
-342
-333
-6
-147
-89
-454
-369
345
480
173
187
-196
278
11
114
963
-36
-498
-298
-10
49
-76
-146
-421
260
357
378
-488
-14
-235
371
313
-444
610
91
107
-251
-8
212
-25
44
-43
54
247
-475
-991
-419
-293
-397
244
165
-115
-760
41
-677
-355
-310
-188
754
821
1160
531
-147
-456
-143
421
1100
-542
541
-124
843
732
-272
115
-389
-109
-636
1013
558
161
55
534
677
557
251
634
-628
290
302
-599
250
260
133
671
1318
220
-219
-717
58
-666
-212
-91
-6
-741
-548
132
-530
593
-62
295
519
1112
-546
651
-346
-345
-219
-531
153
-77
621
-890
-147
513
71
651
98
291
652
314
-1013
-157
-690
-504
149
145
233
-58
270
-52
530
443
-749
66
126
-475
172
86
181
234
-34
98
776
645
361
229
158
38
426
82
-424
247
-313
270
697
-319
178
-301
540
87
778
289
148
769
-288
568
145
-108
696
-125
168
-154
280
-293
35
284
-189
-394
-191
-17
-424
-372
-134
-78
83
-1
275
-89
288
274
148
634
-432
443
-417
34
521
484
-432
78
90
-31
-149
169
500
5
-252
-495
944
-969
339
-732
421
-429
-55
-1175
1221
-236
-32
305
-913
-647
-440
586
312
-629
-272
-342
1480
99
297
1303
-1389
-1064
-369
302
1197
-8
500
885
-505
-482
-54
-769
668
412
-463
-922
-274
1356
-780
977
110
-176
-131
66
-278
578
183
-8
-464
-831
-192
662
-257
-257
9
-101
519
-627
-43
-773
-328
-7
66
-231
-539
-216
378
-586
12
25
-27
232
179
86
-124
-131
-313
211
-314
-22
-239
-598
223
-74
-16
139
-183
-239
310
-146
264
131
142
-43
308
221
103
-139
64
-282
-123
-229
-150
-64
-197
56
333
88
-76
-99
-219
494
-130
406
-22
145
-288
164
887
-80
1112
1110
395
521
-604
-2493
-59
-667
-50
-888
1005
-1226
-1
792
73
273
-843
4
-486
903
459
-186
1056
-1187
-727
-387
666
288
1197
-684
-658
478
-188
-174
-559
-296
-575
-906
-1293
-760
479
-962
1015
724
1268
13
964
-4
-213
415
407
-305
-130
-769
168
-362
-951
-623
897
-15
-214
286
662
-240
-1208
-57
-326
588
11
-991
-464
-547
121
0
-145
-878
227
179
624
38
-852
-611
-322
230
-190
-488
-422
-751
1235
98
-190
411
85
-15
-98
-120
-360
217
-385
-39
221
623
-43
383
671
-326
43
142
-410
456
253
199
-101
65
133
144
-255
556
-479
162
-397
9
-95
-239
309
412
-173
-113
313
137
-442
274
383
181
5
-209
-138
-233
-427
-509
-559
-427
-98
-35
384
126
386
704
-928
-284
-260
-467
-7
610
-431
-599
-157
235
-540
586
235
-422
406
226
244
-397
-39
-454
-87
235
-716
-791
-309
132
744
-374
-483
-300
-515
-149
-159
330
56
-229
321
620
-534
753
86
-443
270
270
34
-113
-274
28
376
101
201
84
39
-151
-425
-79
178
-285
238
-255
332
-105
-273
5
-52
-950
-41
-207
209
-22
-1212
51
-729
447
559
-296
-464
-967
-219
-782
218
287
468
588
-423
435
574
862
-16
-490
-274
-148
-25
-25
268
-333
-219
-378
-630
176
-59
-433
-402
-518
-132
-430
-247
-4
46
-378
-220
-138
-699
-340
-305
-16
195
-685
-582
306
-75
53
52
18
-269
-403
60
81
414
101
-204
-74
217
162
-434
-353
939
250
739
-657
-1092
-44
-233
-1113
1380
622
776
676
-1050
-428
-98
984
1477
-1483
466
-537
-334
776
-579
584
-36
-175
125
337
77
-332
-438
558
-880
158
644
60
-34
-2
589
-1053
51
281
487
274
-396
-115
376
-210
-22
58
101
112
-216
-41
-806
-254
1
69
-96
333
-142
33
-78
55
-290
-274
-254
-452
-15
415
-341
-235
622
-110
448
-225
-342
-201
735
147
86
-378
-756
384
153
14
-490
-190
16
-480
-548
-55
-621
-794
110
-36
-509
-239
-13
-284
201
-112
422
-171
380
-331
-28
-672
-65
356
280
-144
114
-223
-56
-41
-83
434
81
-27
152
-31
456
-388
76
-88
-136
168
-194
-242
-100
-271
49
-140
-220
-372
-236
200
82
200
-328
-214
215
-410
-66
227
700
33
-166
12
592
40
-664
-1282
-195
-590
-594
-687
441
-276
-215
500
117
101
-1395
-350
192
89
215
-114
678
-536
-801
-559
653
274
153
-724
-206
249
-113
-325
-366
-248
-1029
-423
-323
-401
-348
-665
402
219
834
-38
157
-399
-896
428
-767
-848
871
209
588
1254
-390
-837
-89
1058
372
-887
949
-1277
-115
696
-789
-104
-606
-528
-467
618
896
383
-249
-298
-302
213
776
-156
154
495
179
-497
-200
390
324
349
621
735
-226
-145
312
-4
167
-1
-368
8
-426
314
-363
236
341
52
-46
-216
-358
210
-349
147
-17
459
-193
-99
108
297
-248
-9
-106
322
-139
-59
604
-307
63
291
86
324
136
69
-485
-46
287
179
43
-20
262
219
327
103
-1328
-719
-726
506
591
-525
-303
639
-293
1349
-254
143
1155
384
-1475
-211
296
-51
-740
107
1489
307
184
-139
-375
-120
-303
384
203
90
-377
-105
-128
394
721
-371
-494
-327
177
11
229
503
196
-187
1483
320
-18
-162
120
226
251
412
357
31
525
305
-304
-70
-268
-663
-343
250
367
68
-340
581
-260
731
-231
-808
438
18
214
-412
-389
-145
272
749
-763
-818
107
453
282
-465
70
464
-1
937
638
-149
376
-128
643
525
-360
776
424
170
483
218
-49
-31
72
482
235
-267
-112
312
-337
205
-108
-73
-274
249
320
-163
332
37
689
148
127
-75
42
57
-328
89
-338
197
-101
-92
-443
151
317
-242
-527
334
157
139
26
71
259
-248
54
-622
-208
-366
-470
115
148
146
75
-213
329
-256
739
91
232
-627
-232
-438
-288
-275
456
187
26
507
-516
280
-334
760
-53
685
81
296
-58
444
294
-271
-450
402
1131
1265
388
313
-784
-136
-69
222
-414
-280
-321
-1057
953
387
643
221
-678
83
-443
-951
473
293
-27
754
-957
354
562
643
63
-681
489
-896
-553
254
134
-117
-73
42
-123
-619
142
460
-855
-554
32
437
530
-25
-393
-257
-146
614
118
-214
-520
144
190
-274
-354
837
67
16
83
154
166
-275
38
-49
74
309
-157
160
335
188
-259
92
-69
347
129
-199
-116
27
109
340
138
-150
15
195
-309
571
84
-393
90
-215
402
264
-257
223
-135
61
119
79
-346
-219
-302
-219
22
70
1384
684
581
-418
42
757
411
600
-570
-2078
351
-734
-736
-531
1449
-496
-482
819
-173
266
-1720
-136
-243
96
482
44
803
-361
-493
-481
912
-178
253
-768
-899
696
-549
-185
-244
-237
-632
-524
-378
146
-132
-813
507
387
98
297
565
-444
66
231
-490
-575
400
379
191
634
43
-58
-230
161
530
-369
436
21
207
336
-219
142
-30
-916
102
-332
-554
-1019
309
942
147
-154
605
843
-1180
-854
-412
-1529
-142
-28
-491
-145
628
-768
448
-5
81
-449
14
117
91
-256
511
-38
-39
-510
-376
41
0
31
-15
-401
-108
-47
202
129
-392
-43
-318
-245
560
259
297
62
509
180
-312
51
280
-21
261
64
187
215
535
-382
149
248
-42
-98
-367
-263
-219
-90
-64
955
-579
-1139
-718
258
-710
-77
350
-148
703
582
72
-1002
-126
490
64
-636
281
-501
71
724
-686
93
-277
894
377
406
16
263
-171
508
-1093
-117
-81
-408
859
366
-143
-423
19
322
412
296
-1972
-104
-33
-634
277
410
134
-657
-1070
817
-460
-865
1069
612
763
958
-181
-850
-478
918
694
-1083
441
-848
694
1001
-789
527
-36
-134
225
-186
366
-125
-230
140
-415
288
655
-320
-162
-778
-220
-541
-1
99
65
-233
-80
325
6
512
-132
277
24
-24
147
173
-25
-159
-240
-319
118
257
-15
-41
-293
29
163
-386
-130
-215
-212
136
-83
-175
-59
70
-118
161
313
-658
409
-172
-356
-51
-80
108
-475
360
-206
-364
543
10
-127
339
472
169
-511
4
-752
789
230
-516
819
1112
1070
647
-485
-2201
-16
-772
-372
-548
1300
-1253
464
547
-69
659
-589
186
-945
1489
1121
-1248
656
-1342
-112
-1107
269
-862
1333
-486
-211
917
-783
-1316
-1229
-391
-418
-457
-858
-672
1158
-640
911
1020
1142
483
618
-284
903
345
1335
840
-895
-399
-706
-1319
-180
-101
387
-404
399
1161
-163
1604
-751
-462
526
-43
1758
-557
1729
-360
-690
-1311
1111
-263
-50
-616
-661
122
-548
-1477
-838
-673
-619
-433
-438
-55
-326
-464
1412
1075
-198
-78
-84
-533
-323
-81
269
132
6
349
-111
210
-305
195
-293
-467
-53
-33
198
-266
-297
-62
197
-131
-119
343
-314
-156
-297
254
-441
280
-6
-691
432
-367
-191
-268
-3
-247
-412
-315
334
-158
189
-341
-867
32
-855
84
-1080
-34
124
-88
-258
709
-177
871
108
-317
852
45
-1235
-445
114
611
-722
465
1713
233
130
-573
-770
529
-248
268
864
1354
-997
-818
-533
953
388
-910
899
553
601
1394
821
459
767
653
-787
969
-532
108
-687
399
-147
-833
475
97
445
621
-109
-138
-25
-517
734
-75
-437
-693
109
239
-665
853
108
395
-84
196
135
-560
107
-400
163
133
-44
-612
-127
-69
277
-84
-649
-1049
-456
175
-75
-293
-469
-610
4
155
296
938
-406
171
401
184
99
-129
431
-306
-129
-108
-650
-201
89
-420
-177
-181
55
-384
-539
-279
190
161
456
-63
-281
-146
219
-17
91
-221
129
-99
-599
-133
272
-123
-28
168
511
29
253
393
-408
318
-127
355
183
-1
-259
183
-1072
-448
-187
-1002
-395
37
428
1724
-52
906
742
234
-1011
532
-228
-367
34
-239
786
652
124
-801
-512
12
77
300
672
546
-516
211
-1268
311
532
-498
374
-459
394
-42
284
836
667
857
-1259
855
23
-405
751
-30
-291
-271
-477
-705
155
-389
317
278
-48
132
-123
126
301
282
-40
-488
279
46
-447
465
162
245
434
-338
-83
-205
504
-122
-738
-340
-607
406
73
-226
-52
-399
3
197
-36
75
447
205
-905
219
401
-8
-56
-429
-326
131
-145
-34
111
-373
-641
-120
-527
135
-570
-284
-115
-144
6
138
52
458
322
41
-549
-251
-582
-94
33
1
390
-257
-329
194
19
191
-73
505
-266
290
288
-328
-208
-496
247
-21
364
526
-687
640
-259
37
-258
466
637
-169
655
213
-398
-785
-348
-1136
32
-169
267
-642
-510
345
-282
571
-598
-732
336
-464
146
245
45
-308
-327
39
688
48
1171
-600
-1125
234
571
1015
-50
1198
-541
-433
37
-207
-87
-253
200
-457
-175
580
-724
12
92
-385
56
694
8
-217
140
-245
327
-93
-124
-2
303
376
-241
527
279
-151
200
-409
-345
988
-757
1479
502
360
302
379
-306
51
-200
196
707
1218
937
987
402
95
398
94
458
262
-381
-1286
-235
-95
173
-512
78
196
-88
211
60
207
223
29
-285
151
138
175
14
247
178
-317
158
-303
300
331
439
196
333
145
-674
608
284
-287
220
-171
443
-395
643
-173
101
273
279
-515
43
487
286
-49
69
-152
-191
-217
-1382
-469
-519
-749
-505
-105
336
1660
187
661
576
208
-738
852
-68
-253
-664
-386
1370
316
448
-1121
-196
-515
-1002
139
1369
-313
-570
229
-1107
417
1148
-103
-1213
-662
417
-523
380
590
1025
1225
81
62
-9
-437
-309
310
-420
78
418
-1009
828
184
116
152
-222
-732
-23
475
136
-500
628
376
-217
917
306
-362
630
-60
-120
708
-285
167
369
306
24
114
-72
-125
-142
-359
41
692
-283
849
203
-91
-49
422
-504
345
-182
-57
-162
-77
-270
263
-85
-118
-120
-98
-452
-180
-220
-54
105
-21
-96
163
-248
251
-104
339
169
177
-347
-103
213
252
42
-240
687
-345
92
308
-7
211
130
-63
171
-143
608
-458
-33
-616
175
11
-545
274
-541
153
632
317
256
92
-177
-26
238
-390
-349
-884
-51
-93
-133
-142
1502
135
-982
463
2
33
-1504
-302
-230
-86
789
102
747
-453
-861
-496
1403
-599
806
-960
-1697
1017
-53
-194
-538
-191
-716
-835
-738
-688
429
-1712
832
-213
51
76
-593
50
219
-456
340
421
-540
-280
-674
-42
-259
219
144
-263
-539
505
-320
418
-342
-220
91
-470
272
-48
-43
306
6
-519
550
367
210
91
-274
56
-795
177
-359
-16
232
-84
-379
276
84
-276
-283
-23
-163
-116
-56
69
136
-284
-503
-212
-263
-78
-357
-34
395
10
185
194
-199
52
201
604
-151
522
-323
-49
330
-63
482
-69
43
134
345
-246
-61
584
-121
618
91
540
268
40
399
-773
610
787
-139
617
-147
563
-322
-460
-409
774
173
-469
365
938
-47
61
-86
-626
-238
1099
182
-459
134
560
-225
313
387
-535
913
-224
-183
-492
-244
62
108
158
-72
-330
101
643
163
6
-389
-15
140
405
344
243
301
93
1317
199
-344
176
59
-506
-664
660
266
-852
187
310
-653
389
-362
-510
618
322
-722
190
-144
455
-353
470
293
-690
882
-975
-77
334
-502
342
128
439
126
443
-236
221
83
-370
-187
783
649
154
-96
471
571
617
74
592
-406
-712
16
177
-289
27
-331
-26
-134
344
-49
466
-29
76
-423
-89
-25
-46
-163
19
206
-256
360
-47
437
464
-25
51
567
122
-379
590
-415
28
79
72
-30
-334
412
-81
-25
-122
-184
-203
-12
27
87
-366
213
249
-524
3
65
-307
-113
-452
-221
-370
1089
1315
497
530
-147
-36
-854
26
1064
-724
61
260
1349
1062
-11
108
-469
-118
104
285
-124
455
-86
165
-257
-51
-137
-315
299
551
474
-519
136
498
-161
128
556
128
-260
-533
515
44
-194
-169
-257
85
-616
-177
-374
114
-2
528
208
165
-240
691
-286
-162
128
-486
2
24
-17
-168
52
560
117
705
-235
75
379
-476
199
-104
-872
-326
916
1063
-215
466
99
246
212
255
-471
205
187
-409
226
335
301
-46
-575
-27
-109
531
438
82
-23
471
121
-127
-6
319
-286
-145
184
-534
70
-280
665
640
-499
725
20
99
-412
266
273
-738
131
-45
193
-675
72
-529
-558
238
-187
188
-24
201
755
-423
581
-495
-252
-430
180
721
204
-368
42
583
-661
379
-295
-116
269
1171
-181
265
-342
-57
-653
-44
377
-367
522
-104
679
-859
-293
-384
334
-30
487
-480
1049
341
411
678
-1343
-703
-823
276
9
-689
-835
-377
1677
-61
-187
475
-739
-784
305
802
1261
-797
1126
838
-616
-649
-606
-1595
-39
400
310
-1220
424
1535
-382
1554
-320
-624
733
645
-140
1280
433
-592
-1347
-159
1337
920
623
-731
-1223
458
1074
1403
-231
638
-1113
-840
-645
-681
-222
-625
77
-981
-25
-190
140
172
261
-507
149
141
128
17
-54
-354
325
194
316
295
-189
-337
-292
30
373
311
111
-206
203
-111
304
-160
-210
-164
112
563
-35
-225
298
-144
24
7
-223
199
-347
533
498
1
-535
-258
379
128
545
934
277
-781
-517
15
-63
-893
577
0
1351
-243
-692
-578
-10
317
1310
-749
466
486
209
367
120
310
-937
439
44
-231
-124
-115
-1
581
297
-153
132
552
410
546
67
56
-729
25
-480
-832
-2
-353
174
-538
596
795
503
-792
-426
28
-174
-534
670
-502
674
809
-727
-268
402
601
853
-669
223
-453
-195
239
-408
795
-40
-89
563
-447
-604
-210
53
-167
-100
-305
-397
169
277
-348
-765
-360
-496
-451
-677
-474
-771
68
241
695
153
195
217
-31
325
331
458
40
-62
67
-103
-546
423
229
151
-192
115
-58
-193
-163
90
-144
479
24
-74
109
-612
235
-310
124
318
-649
-68
32
408
-212
195
418
-55
158
-350
137
79
168
318
54
-20
-113
1176
-502
934
1371
-126
694
-774
-711
-506
742
-372
1161
-544
154
186
1307
-1215
-483
407
-1238
-646
135
242
-195
-172
241
-69
708
-509
-628
520
1876
-1940
-381
-721
-216
643
-101
574
-1027
-566
537
1142
767
-1453
-179
6
-1327
1154
528
107
-32
-754
433
-871
-1108
636
273
78
1195
-498
-325
688
979
-342
-1043
789
-1576
-626
246
-469
183
-208
-536
-105
183
-415
-142
45
200
135
-197
143
661
-513
-80
-203
-388
-102
332
-179
-321
298
-396
-219
178
-529
-373
-71
-173
-621
-43
-365
260
-403
474
275
-62
-258
-18
-36
-35
-325
70
155
266
356
-263
-235
-104
-290
-273
335
51
-244
140
-114
-232
331
784
-361
324
-69
858
265
146
391
500
176
514
-181
56
-158
87
