157
-8
90
99
21
89
-147
-5
-766
-13
157
36
-463
407
314
-506
-95
215
675
-226
200
-11
213
-228
516
32
-164
-147
-621
-355
-456
-432
183
241
288
-77
-197
82
-516
-44
-991
406
292
-344
-344
554
531
-7
616
-99
-572
-19
-357
244
-126
-199
62
39
-784
928
-406
58
680
33
204
-234
256
-41
-195
-304
327
-96
482
83
-414
6
350
157
-612
12
164
-359
-565
860
-307
-447
488
-36
-440
-166
137
-19
323
-282
-410
339
-228
-370
184
-499
-59
-133
-67
-529
10
87
-371
-459
462
6
432
100
68
69
-103
-730
80
306
426
-257
-717
262
1038
351
-962
-60
131
62
-124
578
-492
-267
-513
-118
-172
-331
95
-322
-116
-138
-158
-181
-641
12
-422
-235
94
-553
17
-269
366
250
463
567
-269
-261
-461
-709
302
-239
201
-170
-609
203
-281
202
-500
-56
109
-127
-16
229
-137
-64
38
523
200
20
-783
-342
-128
577
-193
-221
-284
-648
-442
-146
-216
411
257
200
-422
57
269
192
-126
-464
72
84
-492
74
-132
-355
299
733
189
294
-398
146
222
-468
-146
196
-222
555
-177
418
-124
75
-101
-185
-414
-391
-257
92
-510
360
-29
-740
-271
-335
-230
396
142
193
128
-245
91
-520
-7
-546
-338
170
199
-279
-84
343
131
-1179
72
-54
-214
-235
-45
-529
18
-3
566
-252
-214
-303
-141
12
-420
-143
689
-519
-170
601
-57
-362
261
334
-591
109
722
-381
135
372
82
113
236
190
-98
321
-313
375
374
-114
-445
42
257
-286
-358
-118
58
-487
-667
-686
-152
-195
195
170
-335
338
271
-757
-78
151
-437
-183
-403
5
-216
-177
-66
-122
159
89
229
-292
600
379
-705
-94
-7
165
-354
-252
-447
-376
68
-160
-384
238
61
-353
-231
-297
-197
330
-417
-74
-309
-97
-59
-79
33
-26
-12
11
-40
-424
-4
-330
-80
79
-265
-58
-285
165
-82
-356
163
-109
-223
-29
462
-162
277
-407
221
-382
-300
198
-178
-724
-592
580
-410
-215
-299
-274
-35
238
70
-297
222
239
758
-331
19
-363
-602
-410
-218
-373
547
-140
480
570
-52
-272
-364
-464
-132
-502
-505
543
296
507
-270
-279
-460
456
-32
74
145
514
-242
522
-518
-190
-470
-231
138
-22
96
494
-230
81
380
372
473
-421
-349
-90
-762
157
-30
284
-146
-173
-344
-473
-672
-110
127
307
-211
-354
-313
175
-105
-555
-98
-769
136
201
277
-252
-305
568
-195
-184
55
-166
-238
-64
139
-503
-28
58
256
-109
-627
-110
409
255
-604
167
270
32
434
-500
-35
-470
129
241
-505
-354
-646
-21
117
-264
-37
-482
186
-3
-269
8
-237
-229
109
-627
-311
58
505
69
4
298
-194
434
222
505
361
187
-110
-68
-144
57
293
-105
362
-141
-266
318
-242
-351
-71
144
96
666
472
-332
-218
337
53
-3
361
314
712
392
735
-404
-133
124
-101
-252
-22
579
-50
383
-164
94
-112
-74
-31
-309
-349
58
-179
-555
57
321
-7
42
205
774
-53
107
-194
124
-357
247
409
-148
368
-325
83
-83
9
-181
-341
152
-206
51
-25
56
522
128
823
223
477
124
896
177
-199
113
784
7
19
180
471
125
100
20
172
-23
-21
147
259
-256
514
151
214
235
-129
113
-126
258
-169
-207
274
-299
-312
-159
-132
234
-154
-362
5
-217
55
-642
753
-304
232
-339
-174
245
254
394
761
156
73
301
89
692
103
-60
75
455
-125
816
223
-39
-32
13
470
306
84
-227
-52
-386
-96
-331
-439
-368
-138
-465
244
579
-198
-534
106
-621
-383
-346
29
-50
-255
-339
75
218
-369
-297
-84
244
-499
-20
-194
316
-401
-278
-122
-324
520
52
-707
167
66
146
-214
-159
245
40
399
-113
5
315
-3
-383
1090
-32
46
486
189
-442
230
-216
-194
112
97
165
-167
-29
-387
38
-174
150
816
307
-165
-390
195
350
343
-194
293
-164
309
91
-196
379
-385
528
-163
176
-196
-191
-154
-685
-114
-218
-296
113
109
385
-103
873
-2
152
60
312
465
-52
435
-82
83
-750
-841
-770
-239
61
-44
-515
41
176
153
331
218
-594
-162
-173
-42
-148
-44
588
83
692
-1255
46
149
9
-480
-70
-392
441
-634
49
60
48
-21
239
-711
9
-728
-462
-744
-688
14
-200
82
-2
-152
-100
511
-5
-307
35
-440
328
-386
-24
-227
-521
-700
59
-21
273
117
157
82
578
-882
352
204
-838
-523
193
113
232
279
-471
-874
-343
-163
-145
102
-220
-688
-131
348
-340
-835
36
84
493
326
102
-34
28
-3
198
128
-282
-471
-173
130
-11
-328
-740
318
32
95
-468
-291
405
115
470
-6
-160
276
-54
-415
-16
-285
131
-987
209
-761
398
-177
192
-492
-757
-93
151
417
-267
-73
169
-457
-700
36
-469
-209
-99
-382
-497
-21
30
607
968
-1051
170
215
-89
-581
203
152
-48
-290
96
-236
172
55
129
-443
-204
-51
-279
274
-223
-385
549
23
-117
89
103
-232
53
-323
126
178
-221
-388
-588
-865
173
-583
184
-248
-239
-612
-185
-342
160
-135
-397
-494
-253
-177
-87
-42
-64
-400
-649
-303
332
-29
-757
-505
84
-39
-118
286
-15
-89
-277
207
269
-413
-873
-21
102
-980
-282
-245
136
-575
-302
18
51
-181
-212
-28
298
255
-335
-354
-842
-56
-305
411
238
228
-316
238
454
-128
-235
21
-180
-594
-1598
-215
248
178
-139
-935
661
446
49
-384
-77
-101
57
-127
57
844
-75
848
-114
-317
345
460
91
-246
-423
-429
180
278
424
123
266
-230
195
-293
19
-13
-243
445
44
55
221
412
310
160
-221
-208
23
-105
132
-188
-104
-292
74
-30
-146
-90
-564
-100
252
667
-135
-292
66
-138
-145
174
707
248
-136
-175
75
-34
109
169
-64
349
132
-307
155
-26
950
-459
140
-262
267
-207
-389
-326
342
183
316
374
-185
-73
-471
-77
304
89
-5
26
-76
349
-32
108
208
547
-589
-472
80
-122
-398
247
-112
-62
434
-352
-385
-79
399
157
212
-110
-193
-88
79
489
326
-104
-29
70
699
-103
705
-260
-126
-293
9
-17
-214
-158
7
-370
566
585
519
492
338
-351
473
-4
212
1
-16
598
-311
-117
-173
-32
-137
-486
-69
-51
90
-567
180
-331
173
-357
-291
-155
-287
583
767
284
142
54
236
-104
539
74
-336
17
-575
404
283
-351
-486
-141
534
112
460
261
-378
284
300
372
134
-415
565
-23
137
79
136
773
601
-321
-289
-13
-89
527
482
330
68
-185
195
-23
-192
131
-160
-159
-63
248
187
418
498
-317
354
121
-143
-230
129
-221
-174
-138
119
-4
121
-21
269
-414
216
51
52
120
-45
439
-393
3
30
-50
-162
-290
-241
163
-413
-38
185
-133
-63
-5
-130
384
-356
347
220
392
490
-630
311
329
-167
-123
160
-123
293
183
-253
-125
-516
504
-275
140
51
93
-222
46
345
46
-400
65
-55
873
508
-110
58
-41
-139
-248
-74
107
471
265
-453
872
-43
339
456
-169
-103
117
606
262
659
-19
178
-767
-5
125
247
-84
495
417
-86
123
463
-202
39
-161
-257
169
-52
167
-149
240
108
-445
144
657
206
-128
-176
1109
113
-229
257
-261
-545
398
-121
303
15
-117
-29
161
598
17
165
511
-117
-214
38
-60
-226
193
-77
118
188
37
46
165
-131
-341
-123
158
213
-163
-21
-68
609
380
182
-109
-370
1
-221
-126
306
232
-27
70
-377
-106
123
171
334
366
363
-174
-274
-360
270
-200
-49
256
30
823
-211
1120
315
75
-359
-45
-262
49
71
382
-165
62
-254
-28
118
-167
-95
269
-484
-287
-12
474
-26
18
309
162
226
-914
-87
-367
100
-412
732
26
-37
59
540
597
823
-243
172
46
-89
-56
-74
-678
-1
-386
-535
-318
-85
459
-218
122
106
340
151
-170
-26
805
5
454
580
-431
-89
-99
438
106
379
-392
-757
284
-84
111
329
-643
-260
1250
174
-159
-111
-438
377
335
-668
212
207
-38
144
-846
153
-335
-144
-117
80
418
-679
189
136
-38
-207
-35
280
444
449
-40
315
24
346
277
95
-443
-698
139
-214
451
835
-216
-625
-21
-1
182
339
399
246
-98
92
-394
-354
55
133
-227
95
-532
144
-455
562
-286
89
51
-85
-232
-299
188
40
-116
-924
-301
-218
586
-67
336
546
-418
-221
1200
25
-283
-227
-395
-8
136
118
-585
-166
-757
-163
34
-186
-322
275
-97
-938
413
72
206
113
-858
-334
-31
-699
303
-837
-726
183
7
-228
-426
310
429
-209
-466
-138
-66
-367
335
-674
-694
219
85
619
432
43
-845
169
-172
-52
-540
140
-219
54
-278
133
-391
352
185
-30
-482
-147
555
-465
110
234
-152
-394
-570
187
-297
967
510
269
-198
409
453
-269
-48
-305
154
-191
-19
-141
-408
443
-407
218
391
-152
-324
329
-195
-261
551
-305
2
54
-249
-317
46
9
-571
-10
216
-303
-555
-498
-432
-122
363
-301
-23
23
469
157
13
-14
-128
293
-436
162
-282
-482
260
27
-36
-114
552
-183
146
-201
-693
-660
-409
-80
-284
809
259
-519
-94
460
532
-7
-615
-21
-159
59
-401
-113
520
-133
-678
-405
273
-53
-105
-348
244
-579
-66
-612
-177
-604
-148
-299
-307
81
-525
-328
135
-48
-112
349
168
-279
317
441
84
688
-554
352
307
309
-70
-294
-129
-342
-92
-1023
-376
17
-450
41
-3
233
-552
91
-352
-38
-183
-180
-76
633
-617
-284
152
64
-89
-310
-33
-820
114
340
109
-171
-234
281
125
339
-571
304
204
54
171
-242
52
-260
279
-246
730
112
167
-124
-50
461
-527
-43
268
-72
-221
39
412
-192
-247
103
37
915
612
-20
702
153
428
-950
1336
89
628
-323
-649
17
156
1290
236
-110
-295
81
5
107
-169
-402
102
-181
-146
959
934
-180
154
106
228
583
-93
571
4
633
-93
47
222
-577
-198
-702
54
142
100
226
127
214
-139
736
394
-41
876
182
91
489
317
-129
-139
-172
210
-54
-128
114
487
306
402
349
-65
270
425
403
760
78
179
416
-144
68
715
130
-58
316
45
344
49
-116
-877
192
-159
892
261
160
281
-452
8
1081
-456
296
-179
178
338
363
-361
452
-40
-70
873
261
142
131
-697
-97
-567
319
-240
214
-11
-491
299
408
568
215
1405
-25
653
144
-288
249
450
-139
-25
129
-7
-599
178
-45
1111
212
-88
90
210
-472
124
443
-34
-111
507
-30
-407
228
-40
147
32
-222
-211
117
-250
155
-8
-197
-100
202
474
167
576
10
-335
-14
56
-449
-786
170
267
530
18
306
66
172
-121
-498
826
-113
80
-35
102
-237
152
399
-295
87
-353
372
-87
62
172
184
991
576
-673
230
-245
-96
10
-139
571
-664
-50
-559
357
21
-96
-108
-617
1736
200
59
-53
368
-131
424
166
-273
0
-143
-337
-362
312
610
179
-150
-74
-473
57
43
-272
-485
43
-409
-9
225
-1
-23
586
-107
-284
282
-402
82
26
-150
-728
146
-267
133
-42
425
-209
220
-415
-68
-275
183
479
28
166
-316
-317
-162
79
-239
183
545
-97
62
-244
644
-89
140
-45
-298
153
415
-103
141
-40
186
-203
262
-79
38
153
-401
-393
390
237
152
-363
226
100
-146
-155
283
53
-530
-277
-454
-186
108
-347
-155
21
184
-196
270
377
-44
75
-82
-36
474
267
-379
111
-292
-134
192
211
250
213
-195
538
634
502
-188
164
-5
187
-100
-229
-274
83
26
-533
37
-47
142
-213
-140
70
392
-594
-248
-54
-682
278
268
-615
219
633
-233
503
-214
-250
21
-549
-276
-735
478
40
179
-104
18
238
-397
-193
-131
21
-314
-502
-202
75
81
-88
-512
63
135
-347
-168
-120
-123
-448
306
-268
-90
-714
204
-813
-116
405
539
-123
109
254
-213
-741
-346
89
-556
-17
255
70
280
-248
9
58
-136
64
75
-176
-406
-128
-749
-219
-728
-97
-153
157
-334
-375
166
395
237
-433
24
-153
-91
275
1
189
-157
253
-289
-16
-258
328
223
162
-338
-219
535
65
-397
135
263
-3
263
-192
379
232
-756
-117
-56
-270
432
-63
-123
-55
287
31
116
-260
-531
-5
-405
-309
-27
-172
82
180
641
-366
485
-326
36
25
280
644
285
-502
225
63
-729
20
531
475
77
98
333
421
433
769
229
212
458
-168
323
284
-115
-127
-79
-168
86
-57
-362
-511
-4
95
728
-187
761
-272
444
338
205
5
-5
186
1389
486
113
305
-10
-99
840
-121
-1
-387
-58
-374
225
-63
373
-427
205
-60
110
36
18
406
-155
-418
458
302
-113
-46
451
-326
-135
-185
-54
-334
-206
251
-6
344
-191
-80
522
945
-235
708
-61
7
484
-432
1144
160
-624
-6
381
266
229
-270
-795
6
-133
184
-455
-466
137
80
-446
113
-252
28
246
-575
206
-232
39
-489
800
216
287
-263
-362
542
421
114
-364
-266
-612
-25
-384
236
-570
580
268
-666
824
694
179
1105
-523
201
575
101
-321
850
235
80
290
-144
-54
399
-212
-142
169
643
108
-100
239
-30
197
-634
-136
166
105
-504
-394
-188
-15
729
202
569
46
625
-528
-705
-191
457
-594
-256
411
-86
-12
388
37
375
9
-30
500
99
390
359
422
-73
254
-209
707
-94
-186
652
255
247
-374
-137
416
-234
324
397
698
-355
246
1166
233
-713
-333
19
-395
541
-306
132
131
-102
-186
207
327
-125
164
289
-912
-222
168
-9
123
-148
249
274
-10
-18
380
-54
314
1373
-542
162
-45
-209
628
-41
464
639
74
-220
-48
-409
-208
-118
478
-288
38
120
-23
175
682
485
-346
-92
265
10
29
353
421
43
228
-158
-18
-16
144
10
202
291
-61
579
299
594
-194
77
-222
317
0
-536
-78
332
835
-212
69
15
-388
489
-25
-290
-657
-591
-215
192
300
-35
128
609
-98
-52
-395
257
-301
-420
-54
199
-65
393
-144
241
399
782
-125
-151
260
101
502
-394
-148
-187
156
246
81
-183
314
-421
149
-290
-84
122
260
217
165
-120
-377
243
-51
297
73
710
211
130
-499
-68
78
143
-49
295
419
408
313
438
-563
-10
391
-148
-389
576
271
-311
736
288
159
-597
728
222
223
-434
334
-560
-137
-153
-555
185
-163
340
456
158
-54
-508
-192
-388
468
-139
-364
515
-68
282
48
137
3
135
660
45
-105
99
457
-31
175
48
-104
565
105
-620
-78
278
600
432
-518
20
-578
529
-72
617
633
389
-476
-434
-542
-308
-463
19
257
171
25
49
206
-681
230
57
191
335
-97
-543
-149
-514
-58
-142
390
-81
-108
118
370
424
416
174
1091
37
-458
177
-222
226
337
158
-359
537
-444
353
-418
-488
-200
-359
587
-328
-573
-568
94
-194
53
-113
107
-169
-82
-253
188
-69
-66
1368
11
-550
229
-379
-383
-633
-326
-205
-134
702
854
-90
451
-444
37
-332
406
-267
-97
133
292
93
1074
205
399
324
66
-289
-253
119
560
-367
-89
-249
-76
418
52
-690
-3
48
-69
479
1061
-48
462
691
-50
-243
90
-195
702
25
-267
124
-36
-23
131
1322
663
242
1148
-546
439
-39
490
606
332
13
181
-253
489
609
-122
-17
283
-242
-277
252
-2
-256
-210
-415
50
322
-84
363
-100
-156
-267
87
120
-98
-46
926
-252
754
336
-296
-216
124
-363
-10
128
380
159
288
-245
199
733
-72
-320
-477
-223
-17
13
-281
-29
-216
161
270
-9
397
429
-15
240
439
-159
655
-487
-259
520
2
-41
389
-526
-9
501
-72
-2
911
-141
-54
512
-64
-378
325
140
229
53
140
-65
-17
-947
-742
-287
-108
120
93
-24
-226
117
-223
20
-291
145
644
-245
89
57
-159
192
27
241
36
-453
-31
-82
295
-140
190
-227
821
-28
290
757
118
-28
-318
187
-353
-140
-273
-334
669
-236
228
592
162
190
661
88
161
184
-136
181
535
255
907
-291
-258
-114
-700
-2
248
137
362
289
-49
635
611
500
-251
625
566
627
197
133
12
-191
-649
177
-178
59
-312
-188
-164
-182
184
27
-91
502
373
92
-559
-381
269
205
-251
-498
-85
-701
-67
-265
514
-259
-273
450
58
499
287
-90
308
103
-72
-180
300
209
-45
137
256
-112
652
-24
171
125
368
162
-624
415
329
-7
-13
249
-120
148
46
14
227
52
-517
434
470
550
338
107
-492
718
104
351
23
99
100
327
-383
367
-351
-606
-539
598
461
-185
701
74
748
40
803
-377
131
-35
112
381
149
337
523
689
-273
93
-96
-128
-311
-38
-27
-300
762
662
-192
217
-461
364
-31
598
663
-320
-113
701
405
478
278
324
-32
-448
-225
397
390
381
-200
86
-318
433
577
16
-114
70
-370
895
535
116
-24
-184
507
-74
352
-230
-2
206
-104
775
354
2
-94
-737
-7
-476
-494
58
-67
149
-191
201
749
-1
140
-147
-387
177
-229
465
-26
208
-451
-527
290
873
161
512
165
1180
287
241
305
-365
93
171
158
82
241
458
553
-120
43
568
-299
292
-304
131
1163
-163
-211
423
683
-37
205
279
207
129
-203
473
547
79
4
70
-502
169
-283
-356
158
-133
-57
571
-77
201
-149
342
666
-157
295
91
-41
403
517
120
317
-171
-195
-139
-95
104
-338
-106
-120
141
93
502
103
-363
-276
-33
-529
157
-626
696
133
4
106
627
-248
-82
-239
-358
-366
213
-544
106
753
282
-276
-387
-200
25
-73
-144
276
265
-39
393
-140
-410
86
325
96
-279
95
-429
-165
-222
-33
-180
193
131
216
41
5
-279
60
-65
574
-203
-381
362
-179
8
420
-546
-32
239
-114
-60
110
-78
256
525
-153
-249
-52
-286
-95
317
-83
341
-430
-424
117
91
-500
43
3
-157
733
246
-55
-46
-221
492
37
326
29
-343
4
51
-200
126
498
-308
121
-255
-230
578
-296
-31
170
23
994
255
-334
206
239
25
-54
309
62
727
24
666
200
-751
-58
267
244
448
157
-27
223
374
575
33
273
-462
849
432
74
106
531
46
193
175
-102
27
81
-17
374
56
-106
-141
215
-22
-214
14
278
278
-157
-36
277
571
280
-10
313
128
-913
-19
237
184
95
-50
129
-986
309
-335
134
276
37
55
-199
719
34
-105
2
85
313
1063
-139
674
-376
-101
-244
165
582
477
-54
124
-141
-288
583
600
-206
387
68
484
356
630
-92
216
-18
732
264
639
262
-544
185
-45
-229
-56
-232
531
808
-157
-139
30
-495
37
13
-224
33
31
-143
-222
235
-65
173
426
-533
-560
-407
1057
372
-64
462
-473
1358
-151
-282
186
-320
74
-87
-36
130
324
-202
192
295
95
129
-88
-344
-331
-123
392
-532
-118
-202
-30
544
271
391
-327
684
-242
174
100
53
-589
472
-504
188
-155
95
127
125
1210
-25
-30
167
334
-56
78
1
120
-185
-47
847
-471
168
-200
-275
392
313
295
37
-497
-178
697
190
734
2
197
82
79
-124
-954
-153
45
-165
133
43
-167
-120
109
-125
-111
-114
-378
53
-176
58
-49
-338
205
-438
-60
71
-121
-538
163
-374
-269
-359
-205
407
-231
412
198
-166
-327
-250
90
-278
-260
-730
317
-43
-144
340
-112
-132
87
-204
353
24
-502
-850
321
-221
36
-455
-571
-66
-85
379
-110
-117
-48
-222
211
-208
-247
321
-387
326
456
230
-89
190
357
-1046
-119
-39
154
8
-385
-682
121
-38
-334
138
24
187
-189
18
-137
-182
153
-244
46
50
-296
47
-18
-168
160
605
-11
417
-21
-158
-233
28
-70
-290
6
-192
-496
266
-566
-162
-226
345
370
-481
-111
-432
154
-542
47
-588
182
73
-309
-67
-170
-105
-521
-236
300
361
-466
-122
-42
-259
435
-64
44
66
-482
299
395
-235
242
-304
59
-453
-325
-236
36
118
89
-518
477
-279
58
-5
-285
-127
95
-615
119
237
341
-197
37
165
218
605
21
581
-272
320
-711
-593
168
391
-273
97
-118
468
94
86
242
26
137
-442
-135
-462
265
-35
173
-293
-269
-269
-133
115
-687
217
461
-664
56
25
-480
-205
-37
-247
-492
-124
-188
395
-299
-856
-323
-180
-45
428
55
-38
150
-108
239
-74
113
385
-2
-9
-223
-448
-53
-468
33
299
-781
-257
271
248
-585
199
-775
-264
-1367
262
34
-22
-537
-6
413
-1074
-414
-168
-538
286
336
-25
198
85
33
-564
-285
-178
-117
456
608
597
-522
-146
63
194
-395
-107
30
480
-236
235
-125
311
182
-278
268
-488
923
1
-93
-262
159
-301
107
555
128
-674
82
344
-84
-224
125
434
481
-126
-39
-397
-297
301
-331
-143
-298
327
221
200
-459
716
-345
96
343
214
-8
-327
-57
85
-219
-837
379
341
385
555
-233
667
307
-278
67
-129
-13
355
-53
-25
-167
-207
748
-222
-268
-275
317
407
110
99
206
361
756
599
25
335
56
-561
-6
-182
-9
77
-459
181
-496
243
286
47
40
589
57
-462
-55
128
932
231
-253
385
154
-244
-242
640
181
-579
-30
-76
-75
-89
-209
415
121
251
321
-91
-68
48
-285
125
237
567
480
304
373
656
-198
-172
382
704
174
434
205
-115
-20
691
365
171
373
308
-242
-66
255
161
-89
-340
48
-430
114
-226
250
-490
-456
545
543
-456
-674
-434
910
94
241
99
-307
331
-236
-211
-199
412
-17
663
-3
827
-397
200
296
600
510
-352
76
51
-194
598
6
314
98
-173
-117
-21
-253
-324
68
-354
-382
-518
3
30
-103
396
249
36
-320
-581
-571
57
-23
46
-40
-94
271
-446
-266
226
-17
283
-294
686
744
202
104
8
4
-269
-248
506
571
259
101
-143
509
-682
409
15
-43
-480
-214
-275
237
-161
413
396
157
-743
283
109
-753
-31
-1
320
-374
381
208
455
-76
-42
-610
-465
-194
73
-308
286
220
-634
204
-134
185
246
211
53
-266
-50
-15
317
-160
-193
301
-210
-119
-173
559
70
186
218
-1
-251
488
-476
-24
-229
-444
-442
-111
35
-60
65
-252
-25
-142
-16
387
277
-45
-31
-86
-192
-270
179
68
-329
-320
-401
-304
314
81
-15
99
544
-217
589
-273
-272
-13
223
473
20
-268
665
-48
359
-145
179
192
114
122
92
38
370
24
-37
77
-1
145
598
247
143
-452
-357
-347
-210
-373
63
311
93
-83
-348
-50
-571
-100
502
103
275
-122
-640
10
-11
28
106
-467
136
-65
-250
303
-75
22
-1088
176
-357
117
-368
-282
187
-486
-125
-386
186
216
-260
352
266
24
-168
-148
-248
-587
-263
-152
-112
-263
-82
156
-397
174
-72
-337
-366
-126
190
-313
-496
-98
688
443
138
-522
-394
-382
-143
186
204
92
397
-167
565
7
269
-534
-231
-64
-415
-496
-355
-208
244
410
-17
626
62
-115
-168
-759
-124
134
-358
-196
380
-124
209
112
-248
10
153
-425
385
-435
-262
34
93
-723
-215
-520
122
212
-107
225
-26
167
-175
-297
236
-425
-720
-486
548
-617
205
-198
-359
-25
2
432
369
-565
-326
67
21
-760
-175
-227
124
-1063
-320
201
-329
69
-149
-453
-180
424
-199
-159
64
-104
231
934
74
259
190
388
68
9
116
-268
-797
-431
166
-126
-303
139
-142
591
-49
35
-288
263
-416
-337
-207
-403
-84
-173
-280
105
-409
84
43
208
-55
-446
14
673
277
763
526
-159
415
-338
-35
254
386
-459
540
-518
-21
141
168
237
148
-42
-78
14
-477
84
-34
167
38
-38
-502
324
71
-231
52
-148
-516
12
-121
-254
14
-447
-90
-111
-84
41
-417
154
-308
458
253
-447
-215
366
105
-131
-421
291
45
-91
-285
257
-1
-412
-36
37
143
-271
489
-208
69
-445
-310
569
-485
328
-456
48
162
157
-289
-520
92
-421
-37
239
-421
-147
202
281
101
-202
-380
45
-455
-130
-171
-592
-483
167
-117
-31
335
-203
361
-359
192
22
108
-286
-103
279
-250
-415
-250
-228
-729
-95
-152
304
78
490
420
235
-185
-4
-29
321
-323
249
135
-91
-439
-749
-526
-653
-255
-237
-315
344
-315
-737
-144
-157
366
42
-657
-565
151
232
436
-192
-347
-649
-136
-134
-136
-241
375
113
175
225
-198
202
-88
-692
58
-188
394
-74
-398
171
-142
-156
-230
-795
124
351
-567
-204
-173
-309
-226
169
-150
-184
271
-77
-410
317
-430
189
317
-524
-24
-257
-187
-510
-80
254
-34
205
552
-355
-255
442
-139
-20
-190
8
226
-85
-374
36
75
-63
159
56
-1087
-45
326
-195
612
597
243
238
-785
181
-283
366
-388
-400
533
-221
345
304
234
298
213
-37
-475
154
-372
-582
-210
9
-67
-147
-82
621
-199
-511
-142
-137
-436
-76
263
-622
88
147
-389
-163
-161
275
137
-113
-224
111
89
-1054
-419
-488
-656
-178
-149
467
-40
-400
365
-378
-179
-478
424
503
406
-1
611
314
-3
189
485
492
91
-462
-178
745
-357
-476
69
80
94
-246
411
-225
-15
238
122
540
573
-191
106
253
365
140
-514
277
179
-133
-77
102
86
-137
360
-301
-741
-288
6
184
-6
-10
264
185
102
94
26
-7
194
117
-168
-380
83
-484
-26
-310
-255
295
451
157
128
312
225
-585
-239
-104
-89
-25
881
-469
362
458
470
-204
150
58
-341
35
-778
-261
226
-543
177
-473
-65
-297
110
31
902
-309
-295
-267
265
-244
100
32
-625
-289
183
261
-560
-106
249
368
159
-287
206
137
88
-137
-297
139
148
-96
60
219
257
-17
-168
-396
606
497
259
268
390
270
-6
551
387
-249
-188
-245
-705
861
-60
-163
135
436
-27
373
490
-362
-323
-535
-39
-731
-832
-63
-76
84
508
-422
104
-143
351
290
-531
-92
331
-394
-103
482
-50
254
-54
-336
20
-242
168
324
0
-493
-135
383
-187
319
368
339
596
-195
1470
-152
434
22
665
24
951
-18
356
-77
-95
-268
-73
-51
513
334
-316
-226
387
538
-562
-49
-239
-206
112
-307
-193
314
-261
-518
151
0
280
-108
52
-280
294
287
824
-197
158
205
38
229
340
-144
165
466
297
175
439
49
263
462
-161
388
192
165
58
0
142
-219
-527
-273
12
-203
39
327
212
160
63
-220
-350
212
111
-470
702
64
-180
101
672
-131
231
-306
183
194
-204
141
366
5
414
-225
-196
-105
-92
248
-68
489
-627
-439
-143
397
-191
643
-8
-43
102
11
-18
89
-229
601
-122
3
70
45
-567
101
471
-22
-329
-13
259
-103
192
433
282
-281
407
-342
-167
-63
-822
-95
119
-274
159
4
-173
842
80
-357
59
869
230
-565
445
-181
-52
-636
-375
-284
-191
515
127
-237
470
-459
23
-65
-474
-21
-13
254
826
-63
290
247
-348
-326
-479
-287
608
-465
-132
275
-228
688
329
20
137
-86
167
515
109
32
168
-121
-573
-378
629
-237
-36
80
392
-18
-98
-195
500
10
491
384
-134
-380
-300
160
324
-345
215
26
-94
-43
111
-41
-276
-164
581
83
-193
127
21
515
-97
646
385
219
-40
207
-148
664
370
-350
-341
40
787
-275
316
-511
-259
567
-59
126
-152
-147
-647
767
-9
-172
161
-541
682
-646
234
-526
-666
1017
798
-638
-880
150
-365
8
623
-558
-9
-194
1147
-117
586
418
-354
-564
-670
-220
186
430
464
101
636
-204
-185
109
-401
-54
-207
-27
507
-1588
165
85
-152
59
-769
57
-147
-693
51
-214
-70
-70
137
43
-310
-242
874
-396
571
-371
293
-260
414
223
448
-614
318
115
-338
217
-99
-312
451
391
-243
213
-284
131
-343
-321
-486
676
-318
-334
-253
-123
-465
-30
39
226
-333
457
74
-69
-443
-270
76
414
-575
-320
-590
-220
-13
131
338
-290
676
-170
-107
-197
492
161
153
-140
-569
-125
-117
-144
-288
766
-633
646
-385
-70
216
232
148
-68
540
-670
72
544
-408
-679
459
-52
49
-769
285
591
281
-618
-413
-269
31
-300
-147
-213
-81
-260
-448
-51
-342
-220
-276
-635
132
-833
435
103
506
8
74
-399
11
232
827
-463
98
315
299
-205
695
275
120
-308
82
-370
124
-155
-500
-87
-812
-248
-406
44
984
-789
-148
-114
3
484
-304
-57
-108
134
-677
-395
-220
438
326
-43
-42
-612
-107
-397
481
-660
85
397
119
359
-90
-128
214
117
20
850
206
-192
-12
293
507
-176
-153
559
439
246
263
605
-55
-331
182
332
-66
-123
-71
187
985
293
-432
-42
759
-28
-521
284
-704
326
277
83
460
-116
65
317
-138
-753
-112
29
201
43
341
487
339
-7
1455
-208
-220
30
708
-36
436
-188
10
-6
201
-147
-235
-337
-350
95
270
-26
43
344
112
-267
215
444
-89
-363
351
-36
353
-141
415
-156
-27
130
8
-96
-327
-266
314
-737
186
-178
-302
-42
2
218
159
-2
158
226
179
266
-287
-57
-69
374
-171
71
212
141
548
-395
136
-383
98
122
-297
370
251
112
154
171
-181
130
-482
-112
417
394
-273
313
-179
39
327
208
-400
-137
-16
-484
298
223
564
399
223
-271
-152
638
-125
516
429
-381
88
-66
158
356
817
531
532
-73
269
-100
-510
448
20
-183
-106
-477
-26
4
97
-518
252
-725
60
-127
-13
-562
-263
160
374
-224
48
-37
104
-117
535
-119
-21
-201
695
-30
-206
-338
947
-14
802
137
211
407
-546
392
259
78
-33
122
222
-270
-76
592
-129
-179
-810
353
113
196
277
-87
653
-498
756
544
-58
-67
407
-140
716
-227
-239
331
203
-319
-183
-88
103
92
563
175
-938
-94
-370
303
488
-136
10
337
193
-251
375
402
-61
87
658
38
-122
5
-366
257
418
176
-110
240
19
-114
795
315
291
61
257
441
777
393
-691
204
444
-48
121
-123
162
-71
721
245
227
20
-20
76
369
84
-51
282
620
-362
-449
-164
89
8
9
1084
-114
130
384
147
814
586
-281
59
-346
-908
-103
225
-414
-79
160
70
-414
471
-189
-140
-678
53
203
-48
-895
-142
576
-146
55
98
-858
159
-95
-398
-518
-391
384
-553
-123
-302
-184
450
95
74
217
-177
-471
37
-1037
-336
-28
-374
25
-363
-18
-105
-540
-532
-430
-316
-291
-83
167
150
-743
-49
-110
-609
-370
-93
208
164
151
144
214
343
-128
-126
-389
-89
289
-358
-553
257
124
-46
-264
151
82
-254
-123
-29
268
-179
-513
311
-6
-1040
316
115
-423
-205
-451
207
-302
-186
244
197
140
91
147
26
-131
-247
-342
160
-492
-2
-193
-21
-124
-1231
-774
-379
-463
-92
88
-55
-830
286
140
-324
-429
-60
445
-644
-380
157
-520
192
-335
-242
24
503
206
339
-45
130
523
-327
-33
39
-489
-75
385
-151
-120
57
-528
-44
70
591
-477
1
-747
-426
-98
358
-193
-438
-293
-179
354
-487
169
-307
319
471
-199
213
-185
-329
-998
-67
-149
-66
-1
181
-22
-57
326
-179
-4
147
340
-249
-520
-292
-236
187
-209
-245
383
-707
-542
203
-287
-503
-913
-562
-113
-246
-222
-453
-262
406
-103
52
361
125
496
-118
338
41
-407
-321
377
-1022
-74
-666
62
-526
327
-24
36
-365
70
-254
-35
-316
-404
-217
74
-520
-590
99
528
332
-608
100
340
62
140
35
-104
372
-65
349
-110
232
202
-167
-283
-369
-462
306
-356
-108
-48
-547
150
251
-47
83
119
193
-438
587
-21
259
-417
-143
556
11
130
-329
-329
555
315
8
-702
-536
249
-561
181
294
148
188
11
151
-167
129
26
249
-280
357
109
-244
28
311
233
259
-287
107
-796
19
472
1
184
362
-269
-95
575
-327
499
-487
-149
194
-593
117
11
-261
125
447
1322
-19
17
-447
188
205
-213
428
256
-226
505
-49
-109
73
-236
161
457
-120
126
-759
-441
50
150
12
-372
320
58
-295
-144
-55
-231
-48
165
248
302
-402
-245
42
21
-181
-134
90
121
-188
329
311
-138
-173
52
-68
266
-276
-234
-965
20
-115
117
-275
91
32
-34
380
-157
-832
322
17
318
-116
-133
194
-271
-801
168
-145
-207
-755
603
-34
214
-158
-389
-403
331
17
-842
268
86
315
-270
-661
-5
-434
-1072
72
-8
4
510
-97
104
579
263
204
-7
602
-26
-21
-524
485
-121
740
112
-523
-283
-39
644
141
55
-239
-327
-154
82
68
784
261
44
61
122
-141
-454
-315
-655
-774
-2
198
230
-162
-289
75
-386
-332
167
-78
117
212
336
-517
-613
346
533
-597
-15
-426
337
105
-116
-165
-144
395
-178
-604
-396
18
-596
-503
-320
343
-687
305
207
447
155
-306
509
117
-108
279
-192
305
-13
286
63
-80
288
-891
505
-113
199
-18
-842
-521
450
-600
-190
-563
-286
202
5
51
-141
399
-47
92
-293
255
72
-613
-309
124
-268
-486
102
217
-209
-336
-96
116
159
-142
209
378
-139
-27
98
-299
294
-205
-645
263
-61
-8
71
324
-527
34
-395
-890
-518
-331
-763
-86
-15
-525
-334
-816
-707
-134
-174
-132
493
509
265
-15
-530
-626
-280
-218
-17
-558
182
254
187
78
-364
271
49
404
109
444
-514
142
-324
-451
-279
229
214
25
131
-98
-262
65
520
21
159
-323
-228
-561
-322
-22
-95
-233
133
401
54
-24
298
131
-127
213
14
-1069
56
-14
361
-1
-107
66
-22
199
-208
4
-99
-339
-52
312
99
140
405
330
-4
-681
375
233
-167
-137
-305
244
184
-639
-128
38
209
-826
-289
42
-529
379
-644
-214
-399
40
-1616
100
141
225
-350
-392
-630
-15
12
-2
500
-163
-746
141
-268
-109
-508
-434
495
-254
-432
107
-130
-23
70
-123
-839
-432
-256
-232
-108
-475
-648
197
-161
-84
-90
-45
-83
67
-268
-5
83
398
179
530
-127
-240
-441
120
-482
440
-68
-363
108
-231
-427
-451
169
564
-158
-700
-367
-179
-458
-292
371
379
-202
41
146
-437
-417
-295
283
-108
96
-1061
-1105
143
-124
217
-404
290
211
-262
-41
-491
516
45
226
-158
-763
-1664
166
193
-463
222
-89
-386
128
642
-133
-109
152
499
-25
39
183
-512
-66
-312
422
40
-124
-447
360
-223
59
299
-40
94
280
-215
37
256
-442
253
98
-353
-337
-405
-57
-78
-354
218
342
-305
-398
274
-294
-531
-191
-572
544
-307
-599
-114
-419
675
137
-1093
-551
838
-881
703
-103
-508
-729
292
-262
-56
292
-43
237
-475
-272
-365
-229
-62
-99
4
172
408
-233
31
-322
321
33
162
-424
477
233
345
-878
-136
60
221
-106
-178
223
217
380
-301
-127
185
23
-567
-482
-494
139
111
377
-366
44
57
186
250
467
-83
169
201
-22
-418
-176
-222
-508
208
119
42
-426
-118
860
-41
-894
-501
430
30
167
496
-162
-609
-75
-36
135
-87
490
32
325
235
255
-528
-82
431
415
12
-401
-551
674
492
185
470
-668
227
205
-337
-352
30
-330
-360
186
-265
-513
356
28
257
-727
547
40
73
124
-245
-155
-250
405
56
273
-333
-850
267
314
252
-136
-459
-46
299
-372
-464
-305
-89
-841
-26
-282
-90
-154
-543
-7
-211
39
-73
-286
-142
-203
381
220
87
-2
-206
51
-148
36
-243
-218
-449
291
-467
-105
-450
-354
-281
8
-836
-114
-102
-244
-64
-47
-31
78
-568
316
278
222
-965
-301
256
-96
-212
-1082
-428
301
-347
-167
-742
198
231
55
-419
122
-339
10
439
71
-28
-171
-656
-209
-391
70
-28
552
-830
-34
-481
130
-348
138
-187
-276
-734
-11
254
-331
227
-5
-57
-817
-258
-75
-568
-79
111
95
-495
-441
181
561
-26
83
46
191
-1048
-52
153
-5
105
-565
20
161
-171
-652
-11
248
-492
-341
-54
132
85
253
-69
-144
260
133
470
177
388
14
452
365
-727
-477
-214
-808
365
300
56
-44
-141
-92
-629
-22
-334
-49
111
-199
-198
113
213
149
653
67
-388
-19
-276
-77
203
-71
-327
-582
-549
-858
359
21
-409
-149
205
-276
72
-300
95
219
519
-33
-797
-403
-483
87
134
-155
-45
293
674
13
135
-26
-239
-9
111
-355
115
545
-1059
142
441
-586
-48
-243
-253
390
-607
39
352
174
-202
272
32
-617
92
-268
-180
-421
-127
-469
-244
-406
254
-8
-230
196
-619
-409
-778
257
-51
-59
248
-71
334
-300
-42
-2
-272
-103
6
-133
-113
457
-207
322
49
495
134
-195
276
-255
-230
-199
-1290
197
245
-833
192
246
491
-192
32
54
-828
-135
311
137
-396
-453
222
-22
-333
-311
-207
66
-427
430
-24
-84
-168
93
-304
332
-339
276
-48
150
-13
122
403
1002
69
-463
163
-154
-453
342
204
239
-118
-132
460
167
-349
-75
-116
231
202
161
217
710
21
-74
-249
-99
-424
151
637
-458
-27
-777
277
161
20
260
-535
-914
490
29
360
119
-376
971
-240
-75
190
157
78
-94
-765
14
-8
-16
624
15
-360
-138
-278
-646
-154
158
-670
-291
-143
46
24
-1254
-1362
-34
-261
-32
-1051
-171
236
74
-80
-110
17
80
407
3
-230
226
879
195
41
-214
-1083
-577
316
220
195
234
138
-99
44
-523
-39
-428
-450
-81
-15
-374
-253
-151
-482
-395
415
-331
-32
27
-149
-680
-944
273
423
-907
-561
74
-119
-247
276
-420
93
608
60
241
-614
122
-1035
-103
-117
-199
163
154
190
-5
40
-572
-259
84
235
-432
-163
310
453
-485
356
-594
-11
476
-200
-384
394
-364
710
902
-156
270
394
146
-403
396
-1330
78
-522
-161
503
296
-326
82
237
-204
233
-444
-404
-106
-143
80
573
-791
-651
-586
-373
29
-194
316
-19
729
-321
-366
-314
-63
172
-454
-29
194
-31
-847
194
-98
-60
-666
49
-386
-90
-1
301
195
285
253
156
219
-851
-330
85
342
-144
61
306
450
-551
488
127
489
-135
234
7
617
105
-375
-362
201
363
-382
31
-42
80
329
-423
145
-825
-148
-118
476
-111
143
75
-174
-149
192
-84
-195
78
54
234
-80
85
-212
-222
-553
-49
-114
547
-511
88
83
-385
355
-186
-197
-375
560
45
266
-331
-488
361
494
649
-41
279
386
70
264
-27
-837
-428
-64
-712
91
282
306
26
-296
-198
155
496
348
402
355
-207
110
88
13
32
243
444
-484
5
105
-140
-401
151
-37
-294
-344
162
718
271
-500
95
222
286
-67
22
-8
8
189
90
24
-117
-447
189
-95
23
-88
-26
161
-175
569
39
582
-343
-114
164
592
121
-103
-26
325
-57
26
445
266
-369
-446
-47
-285
368
78
275
-34
-180
-388
471
-236
-277
-42
72
345
182
613
415
-33
-42
213
571
218
216
-109
27
-236
396
-418
-127
-368
79
166
53
36
64
429
530
30
221
-168
333
-481
141
452
1141
-664
-113
-193
335
458
-370
287
155
5
-252
-262
-13
374
-18
411
291
955
133
97
-62
-86
16
564
249
-22
422
244
-235
-335
763
-66
229
139
66
271
-233
-59
-157
125
-461
195
317
80
-15
-20
-326
-145
-90
-475
-5
-69
457
-104
46
-59
-385
39
218
232
91
573
340
235
61
189
-228
713
313
379
665
205
59
804
360
281
-299
228
-6
-75
351
275
-9
-298
37
232
-6
366
446
298
-168
415
-1
-256
438
383
-490
-131
564
649
-371
-274
45
135
-156
157
129
-110
191
437
-52
197
152
34
303
-296
98
-163
-156
914
200
389
525
233
-261
-54
-543
27
129
521
-38
372
546
-122
374
-293
-63
-44
-111
61
-106
64
307
337
-245
5
-21
951
58
-594
-313
77
221
683
198
346
-2
-277
194
-188
117
423
453
284
403
117
249
68
14
733
-188
0
-246
104
-228
-390
163
-211
-239
668
454
215
330
-290
347
-461
-194
129
180
939
521
-254
322
235
349
330
406
630
168
-77
51
-67
10
150
95
-186
103
-41
-726
177
454
-210
444
341
-14
361
1046
248
132
60
246
508
176
539
-177
-3
-787
913
-29
828
-303
107
152
-39
55
10
53
453
57
413
262
-165
-15
-192
131
-446
335
153
-669
289
119
216
296
70
-287
-219
-487
63
-32
260
365
72
-172
286
-672
145
69
219
-15
93
509
77
-40
-49
545
73
708
429
-91
-508
-255
-695
273
142
-72
682
24
22
450
-1
-432
-69
449
374
88
758
370
-568
-319
271
290
149
-634
-78
86
-707
356
65
561
-141
-178
160
222
123
59
189
15
-19
597
35
172
13
367
172
-91
370
81
-139
267
-232
1175
-170
260
53
146
519
-3
-18
-104
641
609
211
-230
326
-206
29
-167
-254
133
-133
954
545
10
141
586
83
370
301
399
448
572
-261
-220
51
126
-781
-110
78
126
475
-314
43
69
225
209
170
-227
-26
-839
151
75
112
-198
199
-162
265
905
164
104
119
-353
-54
95
316
-669
114
-47
-556
114
-45
605
114
-249
-344
-468
168
-484
137
-100
-106
884
-616
101
376
170
-333
-496
-61
-219
379
-316
-208
-359
60
174
-220
204
217
-26
-439
9
324
119
165
152
-75
56
-95
-904
-160
-53
-335
108
-398
17
443
644
-623
235
420
-423
-529
104
-25
-513
231
218
397
-513
708
17
-142
86
92
309
17
-274
-457
345
496
-50
249
140
52
224
448
101
-373
54
-52
-92
-278
-877
-401
-612
456
-624
43
69
-407
-313
-263
249
-773
460
-362
266
191
-250
-64
-643
-427
-502
171
-422
-516
143
11
-552
92
117
-157
58
-188
-75
414
-127
-301
-193
-368
-856
284
-297
315
-152
-486
202
-15
-115
-605
66
236
230
-298
-581
-365
-155
496
62
-8
127
-8
368
99
466
-461
-269
-877
295
-63
-107
36
240
-390
-598
361
122
321
-48
-155
-567
477
-127
-136
78
-114
267
-344
-104
209
-516
-35
656
-1004
-259
-803
-25
-369
91
-320
-395
-1207
-244
48
-215
-220
-133
-254
513
251
-122
-161
410
60
-53
308
-33
-235
-205
-876
-709
569
-63
63
-17
-54
296
-163
-39
-441
18
-41
403
151
12
-117
300
188
78
195
-237
652
170
340
-75
-63
-306
276
-547
-362
-117
-184
-187
154
-305
-426
616
461
348
17
-333
551
-246
-223
-397
136
-307
557
-58
-285
288
46
110
97
-223
306
323
104
69
-326
220
-335
-2
51
233
-426
103
-331
52
-472
-68
152
166
-100
-252
200
-504
244
4
-172
-83
233
173
-29
-373
-905
294
322
-500
-158
-123
-48
69
-177
-207
-759
-153
139
-464
-113
-384
-587
-648
-482
-224
-282
-434
-512
108
-671
152
-86
70
-617
59
29
-355
-145
-575
33
-273
-145
-294
329
-23
107
-790
171
62
282
64
231
-240
89
442
97
140
-1173
-48
-755
254
-302
-206
180
-47
-145
88
160
380
416
-15
508
-103
-37
147
190
-387
183
-215
-227
-115
161
-96
71
103
164
57
-313
-477
421
-94
382
561
58
62
98
156
-454
-280
-147
-59
-505
260
-585
-148
-251
83
77
116
-1
-607
-211
601
-637
-300
141
127
92
-477
113
153
169
-26
29
-206
-518
-6
-7
-159
294
-113
-358
370
325
-113
-117
100
224
159
620
-312
-73
120
-400
-15
43
262
-336
-276
-659
-5
59
-313
482
-11
-262
-303
-372
-150
-149
-185
125
-337
-100
-11
316
-600
399
-163
77
-4
-426
297
-255
16
-348
-96
-359
-43
-370
54
94
120
-748
102
124
-157
-546
395
-231
207
280
103
-109
458
-94
-258
484
-278
455
-111
-668
-256
-185
362
-43
67
-31
-366
120
-364
260
352
7
4
-415
34
-164
-33
-547
0
58
-69
-126
-129
-190
131
-212
-311
262
43
-168
96
-628
34
-496
194
-267
381
38
522
-142
581
-238
-205
-409
-87
467
-4
-180
327
-331
36
163
-5
278
73
516
-132
175
449
-451
-171
-235
-31
83
628
-232
41
-426
96
-300
1258
-143
44
-361
-209
-36
1016
819
-480
75
-387
184
62
438
-282
349
531
494
130
-745
580
-377
434
385
655
202
317
-94
-53
194
-178
33
303
-73
151
-23
130
-23
-219
-303
528
-150
-188
563
15
92
-133
80
-26
480
-408
475
-14
-10
341
-460
477
105
264
-227
-160
-395
323
-170
-898
226
213
42
9
-59
189
-120
239
-199
-263
-215
517
400
431
477
-184
155
656
357
311
311
209
-249
153
-225
687
-111
-64
-309
855
-80
745
-292
76
-6
1098
-132
239
-159
21
-78
-304
139
199
-335
551
191
432
485
95
-576
-318
-94
202
248
-355
271
-141
-252
-105
564
79
-83
357
289
-713
17
195
-212
683
-27
217
269
114
-85
-493
-740
23
-84
-7
534
-55
-491
-37
250
8
229
-315
40
-44
-340
337
-96
103
-142
-575
693
89
-539
69
10
-783
950
-22
-400
80
139
243
-315
566
492
-104
-143
-266
-63
-326
-76
152
-321
-496
-44
108
408
-292
-730
352
483
-88
-456
-350
0
364
-220
10
-441
1132
-213
-97
24
56
318
-200
-165
-299
-135
9
34
134
-113
-288
-209
468
186
-279
-149
132
485
24
-20
-194
633
217
467
167
118
7
221
22
-368
-686
-124
-103
-158
-447
238
-331
-504
129
-179
894
657
99
482
-344
104
-246
284
-472
376
668
-16
-377
138
68
368
462
-28
156
-130
22
-184
447
329
285
30
277
254
766
478
60
-263
-170
628
-102
-197
-187
-15
127
780
-157
-548
106
-706
50
388
101
428
305
50
-570
-116
-104
-14
247
292
62
-134
-93
217
-336
-536
232
-119
41
-227
-73
463
-220
-307
-107
-73
252
-304
219
17
737
-53
14
-252
-4
143
244
18
490
-191
91
-169
-157
-137
314
-344
1007
55
320
-330
-204
186
310
-107
203
-89
465
-25
-90
-141
-523
500
26
472
-668
241
42
-36
-408
25
0
237
-308
70
135
306
-58
129
-128
-226
268
298
-298
257
-293
94
7
875
-91
157
37
638
326
510
-99
521
208
170
-157
651
-310
466
628
345
-806
26
-21
353
362
181
-304
13
-571
415
218
-208
86
330
394
543
-381
-55
-209
639
251
251
174
-422
0
534
-88
-520
428
-534
450
-117
-498
218
-215
385
-119
-104
-128
-520
294
474
69
111
148
1250
-167
-375
93
387
395
231
-142
-39
-199
204
422
-37
77
-7
202
601
-107
49
-155
315
377
125
85
-221
40
358
-294
-309
-129
-246
-123
137
315
-218
73
-62
1551
-693
129
-412
316
-94
-304
-1056
-219
385
123
534
585
-283
44
-14
-491
235
55
279
130
-888
-71
-475
-83
-597
670
-184
222
-460
90
-281
-509
334
-59
177
-340
114
346
-217
-148
-328
321
569
-381
-165
33
-293
-381
-58
-350
-389
-63
-76
168
58
355
-222
-460
183
-310
287
54
614
-52
28
671
-551
-494
241
-25
-409
613
217
-170
519
-159
265
313
-41
407
-224
99
-222
-98
-1026
54
-236
-109
558
38
-624
-325
325
-183
-173
-3
176
230
27
-133
-100
301
-27
-478
85
-98
390
-733
-145
-35
88
-522
126
180
149
162
6
-236
198
47
68
-268
188
80
373
-251
296
-367
-354
-68
-359
-6
151
330
-76
-635
-579
-248
71
-209
-140
-183
189
-202
339
-527
385
-249
-361
-576
-98
60
159
-446
-84
-175
302
736
-183
191
-29
122
-94
-209
-1128
232
352
-212
-307
40
-516
-254
-99
-440
-459
366
810
564
102
-127
162
280
-461
534
-334
-503
-282
244
-143
188
-444
148
-150
-337
154
58
-273
238
189
44
233
-304
133
-513
-334
147
-103
-475
128
-12
-75
-102
-228
-60
-377
-485
-7
38
-564
532
138
-7
-384
-256
-242
393
-260
570
-51
-289
-52
-298
-205
-26
-6
-328
-244
-158
351
212
-295
-408
-8
205
263
53
-23
-334
56
1092
-137
-471
-240
-637
328
-491
303
-218
-179
-177
-248
92
80
-11
-31
192
-13
-101
-194
-519
592
-22
267
297
334
-11
683
-197
-103
-180
240
-43
-12
-51
961
271
160
576
-31
-300
51
918
-329
-171
328
-92
569
404
317
-138
585
69
223
-4
23
326
229
36
309
-325
-278
283
145
82
-193
91
613
-39
-27
-380
49
103
11
86
36
-26
253
-653
-5
-357
-212
205
332
121
280
-296
-520
190
162
512
853
-82
445
-129
-275
-15
297
143
-542
32
109
-36
118
-80
6
23
432
-146
317
-72
-108
-105
-238
685
-104
-110
-446
282
285
223
308
282
899
-79
107
144
429
-25
141
305
-293
211
-74
-199
308
826
-142
-312
451
113
-229
1868
-253
20
294
310
511
-385
-52
333
282
352
-323
140
-462
90
-12
-358
136
610
268
14
858
-200
-560
88
-238
-633
-85
430
188
157
216
732
-262
-20
-353
441
-196
-89
-373
-105
73
-250
392
284
-25
161
96
-341
-387
-14
-347
114
277
98
743
-157
-162
164
-38
95
577
82
-170
-11
235
209
224
87
-275
-125
213
-261
20
-78
-30
31
290
-163
4
-359
438
288
-534
-186
743
22
-95
-53
-42
-522
-239
371
24
656
71
188
13
-244
-117
670
-144
228
-298
-180
220
86
-421
-117
113
316
-133
-200
254
-534
133
-335
-461
-48
49
-173
-90
41
113
-217
-1545
-806
-288
4
-631
-148
-48
-290
-515
-232
-355
134
182
143
6
374
385
-367
3
346
-389
129
-842
-435
-1122
18
-396
-191
5
324
-436
60
-19
-261
-255
-278
303
-182
312
-137
-378
140
500
-85
469
-393
73
-27
-476
-426
73
-558
206
28
707
-260
467
637
-760
-76
-276
-90
169
-78
-520
-484
-175
12
-312
-60
-37
521
489
-357
-127
-677
-349
-74
166
56
-401
-262
-247
-253
-72
266
-834
564
-403
220
-67
155
801
228
39
-1143
111
511
-224
-61
-593
-132
-50
-155
78
36
-67
-148
149
372
-197
-286
-83
272
78
-142
444
-637
-40
-41
856
-54
-307
-414
-578
-631
485
298
-303
-70
125
336
-522
346
-404
16
-8
-404
16
-916
-193
-134
229
-913
-308
-77
-364
99
-41
-103
-162
106
-76
121
-270
471
-596
-221
409
19
230
282
715
-173
79
-549
-85
-105
-616
-192
148
153
-991
329
-788
-319
36
300
-270
-312
377
157
338
-459
-764
-568
313
326
339
44
285
244
237
-274
-164
277
200
606
362
-414
444
-302
-268
405
-333
243
-330
159
-2
-452
-5
-184
-71
102
-535
543
289
-473
-192
559
49
150
327
634
-154
-475
14
-366
254
-539
-986
-280
453
97
261
-273
-1010
185
-240
-277
-404
-325
-179
-422
-428
-814
122
-106
167
-91
-49
-962
54
55
648
274
-97
84
85
-487
-186
440
-979
-139
-399
-571
-91
-140
-318
-452
-105
-141
-1139
-58
163
232
-333
-165
491
-25
-173
421
76
-219
-526
-514
-386
-317
-138
-439
-355
-179
662
-19
151
216
141
203
-704
31
-74
-707
311
-61
-610
-418
187
-377
-358
109
-599
659
-6
-630
69
-510
-96
-327
281
-341
107
-322
-298
-497
-514
-748
-415
-420
-164
-325
-343
200
-24
123
-532
428
715
390
-121
-297
-342
277
395
-52
-244
-170
681
4
129
220
-315
274
456
-219
131
-724
-432
-375
393
58
-354
-113
81
291
542
-397
493
-842
438
525
220
6
-139
-159
300
-13
-296
-1098
-424
-185
137
-437
113
-354
-313
-676
139
-1347
-731
-570
-378
188
531
-57
-821
-882
437
65
67
-10
922
-517
200
-479
299
300
-16
227
-405
-248
-398
-531
247
-502
-54
-46
-226
-32
-255
332
885
-361
72
216
-647
184
-468
-41
332
-271
-338
103
295
-315
-610
-474
256
-203
-464
38
-696
-884
-496
-369
-695
397
581
285
285
470
334
127
16
-215
61
-463
-663
282
381
-1173
-250
-95
110
-552
-461
636
67
103
-644
-348
-117
219
353
-73
-518
-7
-120
-45
-808
35
-20
-32
146
-855
-990
305
535
-162
241
45
-12
-466
47
843
-475
29
-393
-523
-33
188
-437
-419
115
-790
-104
429
-169
-612
115
-12
222
97
-294
184
-387
71
169
-98
296
34
-410
-444
248
-249
154
186
-209
-61
-824
269
58
-708
-255
-248
160
-232
-485
180
-56
185
-427
-231
137
-73
314
325
361
-201
-336
-33
58
-402
-76
-161
21
-10
-217
-633
212
365
216
-56
-91
260
-158
-201
19
-602
-369
676
-48
79
-206
-170
-366
-327
517
155
-132
870
171
-434
93
-321
-52
-328
-117
86
119
230
335
-162
103
-218
158
-153
113
-223
63
-206
-187
395
523
-80
538
122
419
408
-62
-549
-87
640
60
83
-242
-770
-440
18
-723
368
-257
35
-417
725
-178
-8
527
515
-365
-202
-648
-213
300
-39
210
-175
-391
220
145
-92
-47
234
-211
316
-268
-102
139
139
-47
167
-187
270
-687
5
-37
184
-521
-78
-182
174
608
-171
-144
-103
434
34
515
-341
-340
173
42
155
353
170
217
-24
-418
-7
-50
-355
526
-185
50
-114
-649
-196
338
80
132
-449
-39
-147
514
-86
-388
-412
818
-168
122
201
221
-25
-72
190
-393
-149
120
-261
-381
123
-640
-76
-258
66
-285
-45
-296
-282
47
360
315
242
-189
383
-97
476
243
-114
-346
626
-230
-431
-213
161
368
-25
173
236
416
329
-171
296
362
-198
504
170
-815
153
464
-375
45
-277
143
450
231
-173
-392
143
-52
-364
350
-134
9
156
57
588
53
-224
110
229
98
473
468
-182
-448
-441
701
502
202
456
-508
-125
-49
229
190
-123
-21
264
191
-104
207
-406
69
-26
48
94
-472
-336
334
378
76
-46
-134
-33
553
123
-1280
4
121
-599
192
20
-221
212
-137
486
-152
104
622
94
240
-124
-90
-73
-417
-211
-416
185
173
28
82
112
-655
-161
99
-356
-179
-43
-224
-231
-31
-776
298
92
-11
-74
460
-213
349
147
275
224
-342
227
372
-254
-24
418
62
-57
-182
21
-32
499
-508
131
-79
152
170
-89
-531
565
-750
77
-478
47
-314
-149
-235
741
265
26
107
-189
-1
-420
-868
-54
765
32
-190
-7
-200
-859
49
171
-59
868
18
455
-78
1055
49
-87
188
91
315
-353
279
91
51
393
-592
67
236
-105
-480
-434
-553
110
-41
-42
-286
-14
378
167
-226
643
480
-162
13
-105
253
-184
-49
272
-406
-63
274
-414
-935
202
522
102
-242
403
-177
-72
145
333
-262
108
719
8
20
493
-60
-486
-45
232
518
86
-546
-166
-410
62
244
-129
-105
-303
393
32
928
-214
389
317
-132
32
92
893
898
-77
-196
-277
-251
156
33
103
79
54
646
-13
-3
52
-389
564
-121
-148
194
143
-104
153
-348
748
528
452
225
257
-288
-418
-115
28
-333
-250
-179
-207
-77
-20
33
156
-212
-605
-437
-41
-564
-330
101
65
-116
340
37
-68
377
320
507
-61
276
560
205
-798
-223
-447
16
148
688
319
120
65
-599
-252
174
-5
108
14
-17
-257
282
-74
-451
-353
-745
-380
-378
-218
-555
569
377
-300
277
-800
-288
125
523
166
466
65
204
-222
108
143
-295
-203
-92
84
194
-36
17
6
103
-9
-567
136
-67
126
26
389
122
525
-1137
-355
-324
318
-222
114
-87
636
-416
-34
-826
238
-128
214
-501
167
-1165
-428
40
532
-29
-13
21
59
-48
-4
-1
-287
410
-839
158
111
-489
-312
-139
51
-473
166
-33
418
-226
-11
-124
244
140
311
-458
-131
279
297
159
-252
-100
-284
-506
-38
122
-241
100
-833
-486
-209
123
-100
-66
327
165
-133
173
510
-282
234
57
342
298
-138
578
-56
252
69
136
36
434
-223
20
-19
-175
557
271
-157
-244
391
166
-139
-115
-556
-307
-1
260
-302
-261
-575
-342
-29
541
158
147
-94
266
-15
-198
142
54
-249
-59
153
105
138
217
-340
76
38
29
198
288
-182
333
104
81
776
-17
-61
-12
328
-104
-19
-336
-70
-294
403
105
-224
-418
199
-225
131
-112
142
-694
283
21
-761
133
499
137
251
87
-180
-291
-13
1006
-832
-1080
23
63
-179
148
82
-256
22
-454
-523
-267
58
-87
-62
-99
118
293
-63
362
-331
231
-176
33
408
-126
-863
-506
-198
-603
116
476
3
-526
-272
-474
-427
160
-89
105
293
438
41
-137
133
-58
-437
-24
209
80
706
132
-242
268
-175
-163
210
558
-362
-63
78
-266
137
276
351
249
468
500
802
-570
-45
-317
241
103
272
-785
401
-47
379
334
93
-223
113
-330
51
-405
735
-89
228
311
-91
-75
-473
67
-552
-78
-107
59
-322
155
-160
-179
509
33
-542
-182
12
204
232
100
207
-560
-47
-97
-89
-395
555
-533
231
51
-267
-392
-198
-216
404
-1013
166
849
208
175
238
-272
167
-555
333
283
-121
-500
574
-659
-224
-95
1016
302
234
118
-205
-213
-152
63
-391
23
-557
197
-138
464
78
135
253
-32
-126
368
292
43
-273
576
445
-154
-8
-140
-320
508
-479
355
-192
171
-117
592
242
168
-94
350
415
-167
94
227
-6
473
449
35
-180
-496
-885
-414
-143
-192
-227
-109
-569
47
522
-203
-56
534
524
356
-39
-393
-659
352
71
-13
-141
-339
-49
-34
174
-170
430
-87
398
-371
-357
270
38
284
-208
-436
-427
-7
282
-156
-233
176
-64
920
372
-326
-259
-268
-63
592
-116
175
61
204
489
-55
-515
-412
-69
366
612
296
204
-479
208
530
-186
54
444
286
600
-169
4
-42
-670
416
655
161
-832
393
609
-317
173
-200
-321
-779
178
90
367
-105
15
87
-203
393
117
325
-52
195
339
-104
153
-83
-299
-209
-713
-870
-231
-18
235
134
196
10
511
-153
-904
74
-162
-81
-189
296
299
-107
-454
-728
452
289
-657
402
-5
-730
82
220
-321
-51
132
-111
-44
353
-23
91
-817
-117
213
-386
461
465
83
118
-185
294
122
-241
-368
-216
417
43
-169
-186
-354
-444
180
-336
-369
-312
-559
54
280
85
-67
271
-289
-501
-302
510
-128
50
-453
288
-180
-276
-18
244
73
-151
402
133
217
-76
-899
426
-7
-566
22
15
-46
-195
-598
258
-428
345
205
-365
-111
-831
132
80
422
-365
-203
222
-382
345
217
179
607
272
-435
-777
245
21
113
-309
590
-82
569
316
-304
185
205
-824
-88
136
81
416
-282
-162
51
-340
446
-6
-197
-42
-67
-91
394
-503
-648
143
91
-724
649
-265
-531
461
207
348
397
107
386
214
71
-148
-374
-347
288
106
-9
-436
191
218
656
284
-117
271
-104
-1002
-137
314
-24
-257
-113
484
-216
-630
158
-254
-365
76
-168
177
-188
-253
214
-110
-462
-268
159
-67
-450
-349
-84
-271
-38
37
37
293
-503
396
-160
-123
-424
-375
-42
273
-264
-17
-114
31
-102
-143
977
186
-478
317
-191
-91
-183
166
141
560
765
-48
-190
162
521
-655
30
115
303
108
-574
-35
236
220
-397
-788
-320
-323
240
-267
-953
61
-823
-136
-59
-43
-249
-387
-277
-80
718
160
-86
-13
-231
712
-114
101
-463
608
-97
-575
-506
81
78
164
-52
-37
-440
-1121
-306
-287
27
-222
-240
-544
188
-70
-171
502
-639
-497
-215
-159
-584
-137
664
177
-283
111
98
7
-117
124
-263
45
-126
53
-321
-377
-301
149
93
-1283
-199
746
28
-457
388
187
-105
794
-6
-327
151
-886
-235
315
386
-298
21
206
156
325
-214
159
458
-186
-87
-110
-548
103
-357
-145
231
504
-410
-449
-265
-525
33
334
-444
-503
233
-11
-257
-356
-193
-32
-119
72
-202
364
-159
-67
-692
288
-320
13
-740
-475
331
123
-152
-710
147
491
-116
271
761
215
234
211
152
-423
251
183
-156
-141
-264
-364
166
458
-112
-528
-616
216
-422
43
-460
-138
186
76
-113
168
-405
392
-258
-726
494
-109
-382
-93
306
-330
-243
248
-852
36
149
-29
-400
-101
287
-454
-197
-973
-127
-273
364
-409
675
-213
-374
22
-147
-170
-130
-375
18
53
-713
-333
-761
-382
170
-214
302
140
373
275
-115
182
-366
747
-729
-390
-6
-195
0
26
-106
-604
-302
-168
87
68
414
-224
461
220
87
183
-32
558
-640
-129
58
34
-140
-459
-163
-7
222
-252
789
14
-239
-292
-265
-437
547
-210
208
482
1039
290
-47
115
-597
31
23
116
-27
261
-585
175
43
-505
365
39
73
-817
409
-96
327
336
-414
179
-585
383
537
-314
-141
-686
-178
-609
50
-136
353
187
52
592
459
1321
632
657
-117
-450
522
26
401
357
187
-357
-182
153
99
-64
257
-222
-61
519
-55
125
-226
-701
-143
-189
-482
10
-411
-39
-205
276
-424
-256
1
464
-96
-218
255
-331
89
169
172
-262
-184
339
331
854
-190
462
5
-579
152
264
264
684
369
-160
176
-59
37
-43
575
-398
-95
-383
258
-215
331
-76
131
200
-64
-64
-33
-99
698
-102
171
254
165
670
-162
-100
-339
-33
52
448
746
55
299
317
151
115
209
-52
-263
-48
436
-44
204
429
-250
215
91
-469
30
675
-73
-190
-2
781
346
-533
1
750
-217
887
-52
472
394
-157
44
667
397
37
134
-137
411
-140
-70
748
282
370
310
-199
36
-160
317
135
-280
562
-99
-558
104
664
-261
222
-41
-254
-110
333
143
-2
-467
-191
-191
-219
298
134
12
32
-245
-147
124
-126
251
237
-132
35
113
33
719
201
-194
-196
691
405
-80
9
274
-51
80
237
476
-49
172
318
890
113
-109
-75
52
421
431
341
-59
257
326
364
516
397
222
468
-25
-203
-128
537
-632
-155
150
-399
504
197
-191
-128
586
-119
-117
-588
55
356
65
5
-357
0
408
-814
-275
207
135
-99
-343
250
-51
776
-124
-296
132
622
330
-375
10
-285
-139
97
-1080
502
-109
414
362
327
368
96
152
118
-54
-152
451
32
244
186
464
-549
-367
-129
614
-289
-92
14
81
149
627
-66
60
-633
403
452
-34
358
266
571
678
-128
367
115
-417
323
-408
34
-138
-260
-240
47
376
276
114
-57
-661
326
119
238
-71
883
529
291
-415
62
447
490
-370
-72
406
117
1255
20
-33
-588
729
-265
-325
380
-177
-292
-219
668
101
149
-197
-296
-168
102
-310
211
-58
502
90
-168
158
-246
-1
-67
-193
-138
34
-158
325
80
-43
323
-301
156
705
658
-660
-470
357
136
-141
454
-416
715
-108
638
521
-198
-479
-41
788
706
-274
-402
-489
774
-681
-115
76
65
331
-193
-178
-226
-180
-307
-530
93
102
532
437
188
221
1349
174
831
278
-116
-117
-250
367
472
30
-800
-527
1
-185
409
211
598
-300
888
418
-278
-23
254
412
257
-162
-486
1
26
-301
223
-238
336
-97
174
-106
-331
-35
-161
66
-304
-174
62
199
-353
-252
-339
254
-321
422
-103
554
-451
-35
163
-52
648
818
-446
-24
-43
65
28
83
277
-72
-73
412
178
-151
-86
209
396
822
58
125
-194
367
332
724
-75
-164
-372
-428
-167
124
-296
-119
364
-79
-234
-106
222
184
255
394
379
262
396
98
1496
103
-470
-396
330
409
275
141
341
132
159
-135
271
1228
517
-85
-101
-301
-415
-167
178
165
276
244
-66
679
465
210
422
349
-99
-185
-631
18
241
-178
87
61
-66
390
203
-44
120
-312
112
116
226
-68
-274
252
146
-54
131
-483
10
219
412
-251
277
-355
-258
70
512
509
-146
642
-205
416
-621
652
127
403
528
-22
-155
509
-414
-274
302
-211
-8
445
-135
-592
330
99
187
433
277
233
232
-360
-218
484
-85
-80
262
271
-30
-23
-473
862
1230
265
-551
696
-280
-241
516
251
-956
-561
366
409
170
-417
73
311
-291
264
-218
-637
-600
807
352
423
-132
-83
652
-203
284
334
320
196
292
246
-52
87
-222
381
-164
-497
-89
-157
251
120
134
471
439
-89
-194
69
-230
26
58
180
1159
-158
215
-6
14
46
654
530
-80
31
-289
347
-200
-56
-34
110
97
99
-545
-393
352
-178
-50
116
-397
45
-335
742
252
564
587
303
125
-291
-194
71
224
60
-10
-191
-214
-364
-524
-89
-125
-280
56
399
109
-586
-600
215
-174
-37
452
-132
300
-386
160
158
995
291
382
-467
-349
-313
300
-10
63
66
-296
-454
689
197
-87
221
425
-324
135
162
63
-253
-263
475
-450
-385
-72
-528
-39
201
633
-219
-40
-74
-149
-410
-121
-384
167
628
-452
-298
275
169
118
-66
215
-611
-105
18
-341
331
-379
-241
-167
-521
-24
-153
-64
-95
314
-140
1078
27
323
-220
-100
175
76
-232
512
208
119
-40
83
-113
-393
13
16
-207
1050
645
-159
-100
-101
-103
-152
84
316
197
314
141
-342
-290
399
-31
385
-588
-341
29
399
-133
-49
-212
45
-63
93
-27
273
618
-635
484
-839
395
95
-305
-347
-489
372
-191
-267
22
-107
646
27
420
-143
-303
173
203
148
99
191
-11
35
435
9
-490
224
-402
-380
-378
30
238
93
-358
214
-38
500
405
-459
82
-87
585
-90
13
140
-103
272
6
244
-515
-557
-1
-199
186
-560
169
199
-87
-144
-152
901
160
139
3
529
-486
835
292
-84
-514
-80
50
216
758
-135
-53
-230
-107
-340
-273
290
-234
-190
705
-240
-84
-327
517
-42
147
416
250
446
6
54
-461
78
-565
233
-112
369
153
499
-43
31
-4
144
90
45
152
-477
-558
-71
261
-684
-44
-90
126
265
476
-64
-589
633
33
-40
16
-761
547
1003
134
414
-304
60
200
151
388
-183
462
-38
-769
-308
141
166
-477
-89
-41
-45
180
-212
178
256
33
9
387
246
-202
148
-238
-335
63
-81
-323
-187
-234
-502
-633
-177
-457
195
453
-141
-129
-118
-311
-418
65
126
239
-74
286
-386
88
-481
546
409
-27
332
-615
281
-221
-365
191
245
-369
-49
9
-265
669
177
590
-655
9
131
-25
168
328
-323
-104
-102
-178
122
-48
172
411
-426
-392
-181
45
-155
98
-88
55
-658
-431
-184
79
-172
478
-53
338
-55
40
-220
-321
-315
179
389
-303
-70
-147
235
-76
647
365
-229
246
15
-37
-100
-280
296
21
-388
-167
167
-570
269
-245
-367
104
-446
163
2
-500
-218
-158
-4
-70
-283
-104
-101
555
-623
-141
-64
-161
390
-35
-46
-566
-117
147
-459
-334
539
85
-14
-278
-549
811
-124
343
240
124
-430
-139
-235
175
253
-46
153
64
400
-19
-74
-287
-331
38
125
-108
39
223
-170
766
-232
-103
-993
-229
52
175
-274
-53
-998
88
-102
415
145
-106
-32
-16
279
49
-677
-40
-344
56
-958
113
-408
-471
-147
-251
66
108
237
-443
-847
486
-346
-143
456
-159
657
380
86
293
-215
-198
-114
-410
5
87
312
301
-283
193
440
104
-567
-182
-157
278
316
68
-166
280
-439
-171
-375
-210
-558
-653
470
-37
-348
-331
106
-410
-137
-625
20
-601
-64
300
194
244
-190
-780
-374
398
25
-166
-605
-515
-82
-119
30
-196
121
-74
64
136
277
-701
151
17
58
-497
-8
166
0
492
231
13
-1164
465
761
-478
-811
342
378
232
635
-806
-654
-398
-281
-163
710
-483
77
-158
-469
16
-622
-8
-246
451
-57
128
1239
-320
93
-492
-111
344
-87
-46
-170
-282
-776
-19
-512
-299
-440
409
-98
402
-185
-101
-62
241
287
151
158
-476
111
-559
-461
204
-436
-182
123
293
400
219
39
20
631
-375
-110
-696
797
-29
-311
7
-727
-654
-705
-229
-239
341
25
104
76
-482
604
-178
371
231
502
269
124
281
556
-236
113
-227
-278
-123
-283
-245
94
-666
487
-281
-144
-418
-315
-230
-15
-232
-83
156
30
-776
-1266
-201
331
243
-420
312
370
94
-977
-718
-141
-261
396
-711
832
-701
-887
156
-228
-422
-195
-422
-272
-119
119
103
-405
533
-499
520
53
-125
-130
-300
-191
100
296
-512
349
135
-585
406
796
3
-132
222
201
-984
238
361
542
-229
281
-236
-218
136
704
441
458
281
1029
35
-532
-300
-192
185
371
-577
-125
196
159
-78
-119
-27
55
-189
-293
208
-306
154
-22
130
-99
-111
204
-424
-1156
54
-446
-259
2
65
-53
-195
148
68
-433
381
-274
-266
-360
30
-587
-236
-150
-504
193
259
-141
85
-450
-441
-381
-638
-510
255
60
486
67
74
60
50
-747
414
402
-331
-428
-205
81
-70
-138
-146
317
68
-201
-230
46
537
91
-249
664
76
306
-33
286
-558
365
-107
353
44
50
-341
24
268
134
-65
277
8
-125
688
44
-125
-208
817
-56
18
51
11
-157
44
-482
323
-15
502
-202
70
230
23
-116
-121
-114
170
247
-40
-335
-295
-19
-30
121
-219
210
-182
367
-474
-226
37
-309
33
271
423
105
435
4
127
89
35
262
205
-35
202
-202
-333
-34
-467
404
138
654
-54
391
267
90
-304
232
105
-172
1
-535
108
579
61
-55
149
-1
213
242
-677
-71
-284
-44
-166
-299
-240
321
-46
-448
-148
56
934
-100
-239
20
327
-252
291
53
198
560
-76
597
160
217
-397
-44
158
-226
242
177
203
-36
540
383
79
112
-16
-347
-337
-69
531
-120
490
71
-186
301
-116
-32
-45
127
433
440
60
82
146
-715
218
131
-174
608
356
48
-88
-210
-109
-36
224
119
-18
-174
-208
496
-174
185
-350
390
237
47
103
116
-93
-170
-180
-31
-286
-162
676
25
-292
-179
386
-7
362
-267
333
808
-620
158
22
138
-94
-107
-316
-467
-152
351
437
188
-48
-61
1042
-479
271
-349
22
369
298
-51
88
315
-251
497
214
-152
333
-219
-137
-304
198
-14
-218
344
622
-77
-236
373
-386
-285
133
33
-105
593
676
-308
208
182
152
-430
491
261
-160
320
175
132
-281
-163
-349
681
9
85
346
107
54
661
-106
42
2
-72
33
-1151
-260
41
-59
80
-275
-260
144
253
-274
-1030
-307
-221
-205
555
-327
-369
-108
358
-64
-458
32
-575
-42
-1313
-727
320
413
-98
151
296
46
123
-58
-239
-315
-416
364
633
-315
-51
100
200
-492
-144
-228
81
-89
-345
221
-381
-145
-442
-58
-706
-156
-13
-421
-113
-362
316
-661
-499
-656
110
-508
-255
-3
609
316
680
-4
-178
25
198
-385
168
-463
10
-234
361
49
-226
-401
-341
307
283
198
-47
-10
44
-485
-61
-27
-208
198
334
-184
-788
15
-619
103
-394
116
-49
-54
-186
-149
-637
150
-118
117
850
-258
234
-74
143
-315
152
115
57
-313
337
-145
-346
91
-192
153
31
131
-124
-290
-500
109
256
128
-339
590
-135
-396
-80
155
138
-158
118
117
-91
289
-70
-706
375
-391
89
-131
388
632
-170
-22
233
-221
-766
239
-697
359
-319
-434
-1029
-205
-311
262
-41
55
-144
503
254
-113
-403
-67
68
-34
588
-71
-534
-452
-729
-115
628
53
-327
12
175
397
520
-216
6
197
483
-159
209
733
220
-383
107
-132
-142
-578
-300
426
-137
18
402
233
-102
-145
526
53
-551
-474
16
99
22
69
138
232
581
237
82
26
-444
-203
-121
239
92
117
-231
-52
150
110
-439
-354
265
-499
-202
105
-39
-66
-54
238
141
668
-403
-138
286
-245
90
599
-136
272
369
757
235
-223
-490
260
-70
116
-737
376
-300
-266
-30
179
73
724
-427
127
451
184
-488
-491
-375
-7
2
-13
341
611
586
272
-334
-57
0
249
-494
-16
513
296
317
53
209
30
23
-313
33
-462
-156
-84
189
-392
-354
-6
36
234
-146
4
1
17
137
-23
-203
291
76
594
-467
-507
-200
-185
382
-288
427
160
-229
4
30
177
129
44
-262
460
230
296
-44
-493
586
201
-225
-196
684
68
230
-29
137
285
-257
-195
-159
-10
-342
88
25
-120
285
-453
-162
279
300
95
-403
-387
199
-32
-101
-165
-343
-21
-370
-295
43
68
-287
1
-8
73
-735
-258
-358
342
-143
-53
170
126
70
395
443
300
-783
-123
-395
369
756
-44
-203
-55
-368
30
234
46
200
-232
-432
-296
648
39
-167
-336
-229
-132
-255
340
-65
105
-536
-79
175
-119
-418
-150
334
716
-392
192
-14
-83
-316
166
-140
311
330
179
-368
470
-335
-42
-159
136
277
-93
-2
-97
-189
-506
-28
500
-224
274
255
-126
-260
-94
45
337
-180
186
41
-115
-300
174
247
-128
-431
-283
-78
587
-614
38
113
-589
299
192
-187
19
475
109
316
-270
228
-177
58
-188
251
5
348
-182
24
-105
-235
93
299
-134
154
223
-236
-159
-356
126
-325
256
-407
-330
-416
439
-536
3
1227
-175
108
-241
-598
177
58
-121
-138
-337
882
-247
-24
-544
-163
-195
-115
194
-392
-137
88
351
404
86
-92
530
558
630
232
188
-448
-450
-399
191
-492
19
357
-58
-638
85
389
-284
440
149
-277
102
-105
-353
302
148
-218
191
-57
652
1084
-154
-76
428
149
405
285
-567
647
146
200
737
231
368
103
147
-151
313
296
-24
436
-159
230
-314
609
20
-449
43
306
-350
815
266
139
222
-462
-432
-310
-233
159
169
44
-285
164
-527
960
-238
375
164
78
-33
153
171
-109
-91
-236
-131
299
-34
-81
109
102
374
67
167
-123
86
-81
248
63
579
-135
278
501
-391
223
-498
-145
129
-144
-136
-247
-176
735
-107
-131
696
128
490
279
559
-30
175
-18
-52
340
-254
204
120
-627
214
-282
411
-195
-258
-128
92
130
387
545
166
293
216
-267
-42
-246
-319
-310
-126
-53
327
12
527
317
-810
-310
-305
87
-322
849
203
21
-113
-367
-92
-299
-105
404
27
-85
699
250
-179
-32
-240
-224
-183
48
495
-313
-45
-174
644
-39
-129
-187
247
-403
-225
157
383
-247
-599
1100
220
-417
-856
121
392
-153
19
-419
-241
367
-207
206
717
-669
472
227
-133
-10
-71
171
-19
673
-22
616
758
-414
-13
-321
-411
-101
-166
118
91
90
-187
422
293
374
377
-290
186
-196
-211
160
428
321
-312
-218
-322
-488
330
-204
-400
1013
235
155
439
-213
-281
292
-74
-11
-305
23
-151
-226
-80
360
373
-189
420
224
-439
-337
-394
-562
-222
-1
75
46
-208
-101
116
565
-102
5
10
402
-110
386
-611
-766
-383
-868
421
-103
-90
701
-31
164
183
-42
251
-200
-275
235
496
462
-261
-97
236
323
289
-427
360
-277
238
464
216
-67
-668
-57
89
-151
-255
-81
69
-241
169
33
606
-183
-116
-189
-355
91
-585
320
241
-589
26
-44
-242
36
-52
-223
-499
-577
-186
184
-165
321
-60
205
121
-623
-185
336
-239
-158
-109
167
-66
15
-392
-640
-177
505
218
89
-295
-193
-420
-553
-67
-180
-104
351
-22
498
-299
594
-218
-345
-65
210
-535
-249
-147
-558
-183
-380
-315
82
89
-286
361
789
191
-55
-390
-226
-224
-127
-394
-320
-167
386
-351
-329
334
862
-247
11
-173
39
-82
20
-65
15
186
-348
311
-34
-20
-85
503
77
210
36
307
-108
-349
234
248
154
412
-68
280
-130
242
-7
-45
17
-356
-219
112
-27
-99
282
-6
-19
-126
260
-554
-616
-105
110
-19
-203
575
-167
-198
9
-238
62
520
186
161
-495
182
-516
23
77
-278
-83
-30
-318
87
12
-90
280
-177
-39
-521
685
-236
-327
-235
1492
-178
-49
-137
585
-206
139
-640
-621
-363
-2
583
196
-551
53
42
210
-206
24
242
130
-34
560
-165
-311
-915
223
-297
683
87
112
-302
68
182
-79
-273
56
101
98
-118
-629
739
582
-63
752
-576
-302
489
764
53
106
-438
359
659
-529
861
-250
-186
111
-571
61
-154
-525
-786
-415
204
-233
-34
66
124
5
-1015
87
186
-54
-491
83
-55
356
209
1067
195
67
-185
-464
192
-2
-536
-29
-326
-79
504
539
-215
0
890
-863
-118
-477
-337
165
-477
567
484
102
-191
13
-394
-198
17
-556
1391
158
613
217
193
260
528
375
134
446
-770
283
50
239
32
641
-774
-71
10
315
791
-210
-709
-49
234
-7
124
-1033
-390
-259
-49
580
449
221
14
568
-107
-512
4
-61
-281
728
795
-238
497
25
70
396
385
-41
345
112
-42
238
36
269
428
-233
399
63
-556
485
437
-21
223
64
-416
362
1018
292
-23
171
582
387
122
-5
-366
179
78
393
-43
-132
-185
-767
-461
-103
-103
129
125
323
-233
-46
-258
-417
-239
58
-78
950
-132
504
6
304
552
380
406
-802
75
-42
-407
278
-118
403
458
3
586
173
-327
-10
810
999
-443
30
-86
510
-265
716
569
157
108
689
468
-224
88
-193
-178
-179
-20
-263
405
1125
504
109
172
-88
-513
139
-74
498
-560
433
-24
-866
98
-32
361
-74
-37
-152
46
-239
-116
765
-278
108
-163
315
-136
-263
-14
-26
-49
94
237
279
286
557
420
356
-346
42
-161
-169
-1298
-589
169
7
395
487
-142
241
323
188
-213
298
-363
55
-185
318
-178
201
-527
-832
-119
-509
607
-284
-258
372
-80
-268
-160
-105
-396
153
-55
45
383
246
-175
439
440
317
-232
42
-226
-284
-48
-62
-439
-302
-327
-252
-508
414
-133
222
-71
76
134
-502
-125
566
-370
-138
499
-316
103
-220
168
-149
-26
192
50
182
-516
138
-382
555
-574
-206
-195
-168
296
-540
-76
-159
1337
27
-368
-396
143
-133
41
214
443
-379
-268
301
382
-286
369
4
67
334
443
278
-305
696
183
-1025
401
200
341
-486
334
58
-52
-785
32
-415
512
-113
234
-412
531
-183
-36
22
41
-149
169
-68
-172
-151
-127
112
-214
223
9
752
-129
187
-368
-387
58
405
203
24
-118
-344
264
-502
435
589
-483
-902
-5
282
67
516
133
44
-6
329
225
142
-692
-82
651
48
248
3
895
152
-61
190
28
86
-210
61
-199
-1080
-377
-365
-66
99
-593
251
188
-337
-174
304
635
542
-757
41
-488
81
-96
-42
-279
69
-243
250
-182
101
-17
200
-290
174
-10
-275
222
-267
-207
-129
374
329
87
-421
25
43
-693
249
-258
583
256
791
19
452
6
-255
269
410
186
-459
289
368
-362
-134
22
318
-97
205
-225
119
133
-540
415
-541
-332
109
-154
343
47
123
75
-431
-53
-437
-431
423
-574
-135
-332
-73
-396
290
-213
330
251
-24
-34
-291
-41
917
222
130
-317
-194
-243
322
-216
187
-119
-629
176
-160
-374
-325
-245
130
286
-409
398
-127
197
153
-23
467
-197
620
62
-382
82
33
-98
-49
-326
-97
223
-274
41
-15
79
192
-180
-181
-297
-115
-70
-536
74
273
416
356
339
-339
759
171
-299
-201
277
-376
-48
1
-133
219
-295
290
211
346
-662
226
10
140
23
-38
20
-301
-375
435
1062
432
1029
170
728
697
-383
-18
-227
-217
-369
-188
80
14
-65
235
122
-368
663
411
66
-383
184
-142
-156
-100
319
-222
-483
208
111
-459
-258
321
97
-144
-292
297
351
-109
-128
-577
-309
-60
116
-88
-214
-40
-5
454
-188
-462
187
86
-217
46
202
-32
6
219
256
-154
-115
-246
-451
-302
-104
487
-517
-61
483
50
-360
-108
435
-217
-30
157
150
-306
161
442
524
-8
124
135
142
592
-517
752
144
216
117
138
761
-429
-183
-93
743
-237
173
-227
-45
101
64
-400
435
-142
109
-155
-72
457
345
-300
230
-42
272
-257
-54
509
59
-85
-470
37
-283
1141
-129
-174
4
-180
-349
267
129
251
325
508
25
773
108
365
17
121
-250
123
24
-284
220
161
-146
-239
-310
-304
-313
260
806
392
-509
-61
-305
-49
331
-260
-735
1085
109
306
510
711
-36
812
-369
-446
-229
-126
152
286
658
196
307
207
86
-186
629
746
-8
-117
-47
-41
-315
-91
5
-110
188
145
-564
202
-358
375
1009
-230
-231
259
-83
-91
570
204
-157
229
192
-303
313
486
-454
-385
-56
-188
30
76
-525
-180
824
518
-204
324
248
82
-232
330
850
453
-276
26
156
839
-240
-534
626
572
370
-224
-366
241
284
423
-323
132
283
123
-340
385
1667
-545
-3
129
656
132
541
130
-92
-21
168
-55
54
68
21
51
-13
-264
-74
738
188
147
6
-589
76
279
-214
390
9
272
73
-500
-405
-134
362
-895
153
-296
402
163
159
623
281
82
-364
-216
162
1226
550
-315
-140
203
-56
632
-452
-317
-270
104
-187
158
-11
384
-611
97
225
1037
-331
-220
-10
389
-194
232
-200
-78
-106
250
-290
517
-544
102
-225
-151
-799
262
-459
459
-121
-532
79
-34
-278
293
0
71
-28
-131
486
348
-84
190
94
26
-750
-14
-280
-143
337
128
39
200
-890
552
21
139
-349
318
794
-451
-360
1
-120
127
-274
-223
-59
219
539
-621
-194
65
-838
-276
-344
-178
-6
195
-307
356
12
-112
-177
-481
151
364
-387
-147
-176
137
-148
-260
-105
11
373
90
37
-325
-208
329
493
111
-656
-140
-278
-10
243
-366
27
-497
529
-584
-497
-305
210
-320
-368
-395
-243
-604
530
353
92
-85
-149
-433
468
441
665
-1098
-314
-329
348
106
-259
256
-428
-159
-75
-307
-864
-81
476
-167
-60
-779
170
351
177
-1
124
99
248
385
-124
-336
-158
473
-261
87
-514
460
132
-2
-246
316
123
108
216
-494
120
-351
119
-267
-420
-226
139
-248
-23
207
-627
-590
8
-408
323
-945
133
-120
-131
-117
-431
-738
-14
186
253
103
201
8
-883
-23
-210
-371
-610
120
-7
453
-381
-51
-311
-193
0
335
145
113
-94
-19
-4
161
-368
-146
337
-783
-499
244
-593
-1332
885
196
90
-166
-178
178
-624
-407
-64
-87
-370
-123
35
-26
-71
-702
-620
-391
-959
-561
-37
13
-311
-196
-109
-1041
78
325
25
402
795
-213
145
-329
91
-625
103
-316
-207
652
-181
-505
-344
-264
333
532
457
697
42
20
-161
278
-35
388
-211
263
302
-486
37
380
373
265
-113
-297
481
143
285
-93
194
-128
373
137
-849
32
1016
-201
-471
-376
20
-126
35
126
-266
-58
-643
-225
-718
-452
159
272
111
-213
486
28
-86
99
71
-1
68
-721
-417
264
213
-755
-1369
130
-527
-486
138
-241
-458
54
-16
463
-230
65
-340
-298
-483
-691
325
97
-1217
447
24
-186
374
138
46
95
-210
305
-326
-25
-509
133
-55
724
501
-410
-1225
-4
212
-51
279
-271
-292
193
611
-141
-1389
-999
224
-504
-51
115
-505
745
-1103
-480
291
182
216
57
-77
133
-239
-167
-4
-50
11
-569
-12
-79
-217
-279
51
-38
-213
-225
7
-236
172
-55
-468
-82
478
477
-365
40
-226
338
301
448
-138
-110
323
139
12
367
167
104
792
53
-599
59
105
597
104
-148
-230
273
-348
201
597
-186
-55
-244
175
195
-406
458
-596
-41
-279
383
-73
-359
-250
306
493
22
-78
144
123
-872
-603
-427
-125
-177
184
494
-279
439
-16
-550
88
-175
206
285
135
-150
322
129
85
-107
-59
174
-453
-370
443
80
635
-860
-987
-10
149
-400
115
-447
-235
143
423
-292
448
448
515
-49
413
174
-524
226
388
-93
-38
-315
-644
-1351
-129
991
-176
340
49
-5
-131
-260
397
-321
-104
-73
116
122
-64
-15
-199
46
-20
322
-205
-596
127
-26
-250
-238
191
-473
-399
-92
-87
-483
7
-90
387
-270
60
-291
-343
98
-92
-47
-364
149
-427
-750
466
-104
35
87
-108
-476
-9
253
268
-404
347
-202
-95
-17
517
-52
-692
-37
-11
-16
318
-306
-433
27
741
-262
168
-323
-81
7
191
443
102
207
-352
340
216
174
236
214
-228
-646
215
268
-511
3
-154
203
605
-231
-97
-79
298
280
-92
113
-465
74
-23
168
607
-102
385
-126
481
84
202
-246
-211
-209
-59
-165
571
311
300
886
-92
-164
-84
300
-53
107
212
376
447
270
172
-397
84
825
-266
295
110
180
-146
160
254
22
290
-255
547
352
362
493
-448
-96
-308
-501
336
573
384
-511
102
474
-383
169
-350
48
-83
-170
-417
263
106
548
632
382
-180
-73
-331
249
393
-195
-286
179
20
722
297
186
-169
404
-175
-73
163
118
-175
293
-155
-773
-5
-250
385
-33
199
311
99
-106
205
57
-124
16
21
-224
343
350
408
313
133
98
92
141
324
-425
-164
1046
801
-214
301
665
77
808
56
-248
354
463
701
-117
-431
275
236
-775
264
652
100
471
45
476
553
479
-36
66
-9
272
-234
-233
293
219
219
132
-189
231
-99
161
97
405
-22
-223
33
177
-233
498
92
111
-72
-382
347
171
6
125
205
232
-18
219
140
439
-80
-24
429
-49
-131
223
82
-151
-407
25
-130
143
-345
-107
-114
106
91
-42
797
237
283
470
-126
-144
197
668
33
350
-24
207
204
-66
17
30
276
459
584
-197
111
437
942
-130
155
-446
482
-39
141
121
551
431
156
-90
358
-356
-149
322
101
-27
400
-89
6
-415
-115
385
416
-10
395
258
-148
-178
105
1189
967
148
408
-72
285
-228
106
50
396
94
39
881
158
-141
658
18
-408
-219
-249
-201
1087
146
-81
-203
627
-343
-78
3
4
-36
45
391
59
98
158
138
-481
113
553
-2
-522
391
-301
-411
198
-473
187
-77
-132
927
993
96
-202
52
-3
653
448
199
23
269
-312
46
94
-121
-197
598
-199
116
378
-108
408
912
-61
-173
-159
256
1
247
946
-135
397
-415
183
-410
200
143
-19
-454
-132
-293
-211
625
-281
-442
-180
1063
-193
-209
58
-32
-281
666
-121
56
407
101
462
5
817
368
-389
79
366
1020
258
470
-261
-434
200
117
184
404
127
-94
-112
-366
206
-396
618
-392
-36
59
-210
-45
-402
-62
-225
401
214
793
-205
139
350
175
10
425
124
-428
338
412
224
114
516
114
-183
-379
144
252
48
97
214
-30
267
168
-201
-10
360
58
108
-13
264
57
50
71
-447
224
668
393
386
395
98
799
-220
102
179
-176
269
-307
22
-285
178
482
160
-127
23
224
313
746
185
160
-254
-111
-246
160
-89
-493
803
26
160
-463
835
101
391
67
-16
64
238
110
260
-110
954
23
-246
-71
-91
-109
-247
458
-128
68
-82
676
-173
-417
100
-364
-432
153
-138
463
459
-210
311
245
161
-233
315
707
137
-1
-381
154
233
238
-312
-188
-548
71
-336
785
780
94
134
-360
22
-368
287
-334
-849
283
153
283
353
1282
151
-280
-387
-500
-309
36
192
-195
-292
-144
-287
-407
-608
-419
186
385
-189
95
60
185
-53
-169
83
377
-251
810
-118
436
-346
-55
39
-444
-697
-550
506
-278
105
153
-170
154
-401
-142
-281
606
-326
-84
-33
-291
551
-116
-210
310
751
-226
-154
-91
425
-48
-612
-477
1290
616
-162
485
13
353
-28
-167
-171
410
469
-181
216
810
393
-213
86
-119
-107
-23
-31
300
-24
746
-10
190
747
209
399
277
50
-259
389
-335
-395
468
-766
-210
68
-389
-1066
77
-1
-254
266
-330
641
-238
-135
-21
-101
588
717
-664
-172
-269
-203
-276
430
198
232
162
-108
896
98
917
-143
771
502
1150
132
-374
109
126
662
821
-738
-13
236
-123
-540
233
216
-279
11
488
194
777
538
-344
-118
-232
-125
186
390
-703
420
-281
-121
-262
306
-162
305
-288
122
297
-343
-166
674
479
-52
-256
297
248
-27
6
490
185
-160
787
-325
-196
-526
347
-484
-105
-201
540
-211
-97
-299
-295
122
137
148
119
-6
356
-3
-81
-51
187
-971
366
-483
85
269
880
41
