-117
102
-64
293
488
302
472
-464
244
-171
46
106
51
405
937
-607
386
262
-327
-602
111
174
255
136
-109
43
-515
404
-341
-256
163
-74
149
-45
255
-792
482
319
75
-98
-448
322
-177
-245
81
-119
-763
15
180
245
348
178
-129
63
44
171
316
-174
-352
333
445
403
-539
291
136
-220
306
525
55
-136
81
-336
257
-555
215
175
-329
-101
112
-285
-16
282
-63
109
-202
-139
126
-55
280
82
-92
430
-109
-150
173
203
-12
770
61
-97
416
76
368
362
429
-412
-311
20
-184
-496
-60
-388
45
263
766
-149
-326
-521
-29
120
112
-293
-768
-6
-341
274
-469
419
43
870
-349
-737
-237
206
-48
-204
133
-100
-619
193
724
96
44
-195
-191
-473
461
705
657
462
-61
-454
-284
359
-16
701
-413
81
171
198
-16
-215
-68
344
-187
139
670
-292
545
47
-971
229
528
617
256
778
-123
-657
466
300
-549
-57
471
-67
371
-23
35
-461
60
-156
427
96
-266
-113
-475
-35
-716
-690
117
-78
-16
473
-543
-267
-337
-288
-885
-859
-747
-115
-592
107
331
473
77
78
127
-93
-20
516
-396
112
-252
592
-30
105
267
163
-72
81
516
103
168
-354
-520
-106
5
-403
512
158
179
303
-358
315
-772
359
-144
45
-14
-198
-678
847
220
-169
167
128
-772
-243
98
-909
192
402
-487
-526
-462
3
110
-622
-514
-215
182
64
39
167
-962
212
-74
-321
-305
-74
184
-184
229
290
-584
-73
-66
-468
-69
218
177
-151
-49
-270
393
86
-250
21
147
6
44
-57
-7
-110
170
-316
-619
-205
162
-164
-692
-69
-95
-435
662
-690
-242
-29
801
-297
54
183
-102
176
184
-458
29
-424
238
-314
-806
-312
-162
-462
-67
-208
11
199
195
-243
-644
-131
-65
184
322
-756
857
467
-349
677
76
147
-104
-678
419
20
-418
-623
-1205
582
363
62
53
-3
-251
-231
410
-214
302
-104
151
-180
-430
-8
187
610
469
-129
-96
-132
70
51
1070
-618
45
217
-65
-153
-645
-150
-79
-149
-265
-66
90
82
-696
370
168
437
192
735
-252
197
51
600
695
-361
-130
56
59
-455
-201
223
289
160
-4
-91
-229
-29
-33
-183
53
-344
-461
570
-756
151
-36
-226
295
-439
51
515
205
64
158
-84
-388
-37
-425
223
-237
-158
-332
366
-125
-399
95
710
-428
2
-398
-151
128
67
-444
-181
-122
156
-578
-28
267
-62
-686
358
-499
-146
263
99
-151
10
59
285
389
117
-114
235
387
241
-283
-83
85
213
389
352
-142
-50
298
299
1021
36
-271
-527
16
135
-191
182
440
143
-210
32
664
-710
723
-972
517
377
405
-749
367
638
363
153
-97
93
116
-917
-170
-181
189
328
-54
-657
155
430
78
36
-214
-242
-544
-106
-22
-69
161
170
-133
0
-138
-271
148
-391
-656
206
376
266
155
-147
-97
-134
-361
428
331
-143
-512
441
235
-204
-192
239
213
-421
151
13
-310
-51
174
186
114
-245
-486
293
498
23
-690
-323
31
-236
187
131
-1242
611
-511
113
262
191
-175
-346
-281
-348
254
-270
464
281
528
-36
606
507
126
-617
69
167
-275
-60
344
-25
665
-231
-255
19
198
-153
226
-19
-314
0
-323
870
-136
553
-455
-357
520
118
-119
-437
-478
-1163
-412
118
-217
113
-561
-26
-259
-9
-80
29
-193
18
-404
-1
-148
401
-427
-290
450
-24
336
32
79
21
-154
28
-249
-248
393
281
-239
46
-24
-361
-241
-78
-287
280
52
262
199
-690
-134
249
255
-314
-449
29
539
-60
185
-624
-603
-263
469
428
155
286
-185
-400
471
-212
682
-211
672
-516
-372
-321
-242
-280
443
-124
128
51
133
174
107
-109
-266
498
-18
90
37
27
-719
162
327
272
-49
-879
-217
60
323
350
845
-555
-226
-113
25
9
-214
751
67
-336
-209
184
2
203
-481
772
638
-306
-717
-230
-85
533
-85
324
-282
-396
759
279
-550
-164
540
202
-60
-427
69
29
-330
-1024
15
19
256
4
-152
8
214
36
-78
-93
172
172
-1377
188
-186
-51
408
61
113
-9
53
-433
-879
-446
-962
-154
537
-429
346
103
514
13
-198
538
578
306
526
-632
215
332
-58
-407
102
251
305
672
43
410
-685
-399
208
-8
-216
436
-128
-511
-714
-202
194
233
-238
501
232
403
22
178
-529
286
-125
196
594
-79
-253
296
-161
-314
183
-24
-602
-203
-8
336
464
21
-232
-456
335
-558
-324
-119
232
284
-138
242
-30
-72
298
-236
-226
-6
-25
-562
126
-780
-606
310
-877
477
339
502
507
966
54
418
156
326
0
-297
-445
-338
109
444
-134
-5
-20
3
-210
-635
101
422
225
-213
-274
226
-351
713
-123
-105
-336
-218
-72
178
-34
670
546
-464
-337
-562
-271
-100
-8
55
182
205
359
-505
-365
8
431
415
-404
-170
-366
575
-378
415
439
-464
-185
446
8
-565
450
432
-38
391
158
222
-645
-522
84
-169
75
438
-203
170
-117
89
285
233
203
-25
-102
1
-91
-76
-696
-80
86
-436
-27
-45
-140
-536
652
47
-8
-300
281
-153
-434
31
188
256
588
302
210
-111
-168
46
534
126
456
273
548
334
167
-43
127
870
-34
-118
113
-406
42
-252
-139
328
-313
-385
110
-15
357
-345
-69
-412
-243
92
303
111
-133
719
277
-299
-74
-714
33
-187
611
52
103
-340
-289
-418
214
-662
189
484
-62
-305
88
-539
24
-43
-521
143
-172
-68
-31
-358
-340
-90
678
-832
117
-96
-108
-360
389
-419
-413
-382
-93
-126
243
174
22
-163
853
-6
-472
282
-312
-350
346
151
-318
-285
161
-192
219
141
-95
451
-70
-401
429
86
-6
19
334
67
501
-89
-127
-216
-270
402
-191
258
-596
168
-929
-341
-465
-311
-688
-78
640
-210
305
-96
-217
-370
457
-124
-124
-102
539
25
79
106
-98
120
418
442
-264
66
-351
251
143
-218
-203
-3
502
-192
547
-176
307
-116
194
388
387
-174
-875
-378
-642
95
-586
-472
-130
251
67
364
310
-177
-248
493
-282
-257
-575
143
101
-198
251
-153
-1723
-248
-498
473
406
644
-113
-244
-633
-119
-46
87
559
-548
65
71
361
575
147
237
69
260
283
-403
-52
-92
115
-20
108
71
-364
-903
-491
-2
-405
314
-720
-26
99
97
-104
265
-309
-374
376
-104
348
203
-315
-39
368
-589
176
-229
363
-118
-78
-4
-556
400
-55
-193
-28
541
265
131
-991
-545
-491
-416
-359
-335
99
173
6
-84
-277
-61
-165
-243
195
219
-325
25
-63
420
8
322
277
611
199
194
439
-469
109
-84
714
-167
-347
305
327
-178
222
56
-37
254
26
-226
-240
-410
56
-204
-453
-471
9
180
219
16
-134
-588
-193
-264
-407
-123
-145
62
226
-195
-102
-406
-5
-254
-355
-32
326
-79
-276
228
-105
152
242
-608
27
-378
-526
-49
-84
-2
362
-263
-764
-184
-285
367
-14
229
-55
393
9
-573
12
-260
-777
-561
563
372
-691
-213
-424
130
718
80
-2
126
-238
-272
-129
441
-87
-165
445
155
-153
-439
395
37
-298
-417
-16
-21
-5
703
529
-83
285
-301
-152
279
380
-5
-133
219
638
380
1147
-137
-564
-612
132
-100
164
1207
203
322
-521
111
132
312
552
382
-404
-141
165
439
-599
-13
-192
420
541
347
-721
244
506
-156
-158
-1001
42
295
438
582
-154
238
-630
-387
-245
-618
555
534
-718
117
574
-317
489
-266
241
-490
535
-149
-583
157
-668
96
-673
566
-356
180
-138
445
-45
-474
-8
-216
-447
-22
-87
-618
-149
43
14
139
91
43
474
-34
-174
406
395
97
82
266
-349
-499
627
11
153
-176
-214
-199
-318
-332
137
-60
708
118
52
299
-62
693
396
-332
-42
244
-41
113
-322
155
-610
-408
-418
-91
-31
378
-213
308
-302
125
175
-445
-45
-124
-867
237
578
-503
-112
317
-12
615
304
-279
354
492
508
-141
-21
473
-625
114
-271
-266
-368
965
-165
97
60
-20
-260
-39
684
74
318
82
90
189
151
85
32
9
492
89
76
1198
322
-152
300
-203
-401
-161
-299
287
-86
193
614
400
-168
649
-242
65
187
202
-28
-30
-154
124
-356
32
-168
136
367
443
-231
-209
183
-302
-144
-509
7
-126
17
7
107
137
-567
-67
-223
240
22
-113
-152
-436
-196
-538
377
287
971
-238
183
338
324
-322
423
-695
285
47
239
130
-6
307
127
213
-75
-160
248
44
132
-54
-375
1049
293
280
312
-423
65
252
-111
-268
-716
-615
-62
124
-622
-327
380
-134
-35
-182
1006
-261
-25
-220
-41
-117
-94
-387
-107
277
11
-508
-183
-462
37
-652
-609
-1025
-369
-63
-641
-280
-489
78
57
15
-9
37
-212
175
257
378
-149
-393
-248
-325
-723
31
230
-457
132
-404
-158
-871
-669
170
-354
470
-328
-242
-135
112
-704
476
-366
-541
58
-323
-111
139
149
-565
-27
585
-477
233
-338
434
39
-471
-437
-896
-373
406
-100
-147
-317
71
262
-198
74
488
-355
-137
899
379
-364
73
-357
-25
-438
-248
-140
-151
-286
67
237
-290
-540
232
-119
-201
41
-35
204
-78
59
-467
536
-406
-2
110
-395
-38
-340
390
12
352
-82
183
342
372
887
-422
486
703
349
144
-598
704
23
-416
45
117
-134
1200
-271
159
280
315
232
140
443
219
-467
-592
126
-101
662
-157
584
-15
170
-51
387
-718
164
22
-164
245
-332
-580
-396
-272
895
-505
-11
405
-190
340
107
558
438
-95
20
-1258
142
179
-160
-157
75
93
-202
277
-411
-290
-55
-246
-407
-654
-448
-419
-22
-147
-34
190
181
108
53
-90
196
12
418
-458
1020
-288
-230
67
-609
130
1265
-108
-479
673
-131
452
-402
468
-13
604
239
554
-160
-390
-250
223
1097
464
1196
22
-301
-334
-893
251
325
-560
-280
-128
-260
420
-79
131
-774
262
470
-402
256
-613
-302
-120
155
-749
-66
470
226
-200
-69
119
329
-299
454
675
142
-608
-410
727
330
106
-304
-340
-57
246
974
256
-226
258
-245
40
-4
-173
-592
827
-22
158
-294
343
-396
616
-437
-231
239
104
232
78
-260
244
405
520
-855
141
-409
58
-551
-97
-805
-124
174
-628
98
-67
-583
-122
-563
176
-94
-588
-78
260
-187
176
337
203
27
331
213
35
411
-97
-257
-76
-500
-181
319
-445
-85
19
245
-193
-361
-84
238
-96
-461
160
132
-286
20
-463
794
156
171
-37
-366
264
95
291
-210
-426
-157
27
574
117
-38
248
92
-328
135
-606
-159
186
48
-121
-131
-255
-555
-461
29
-298
-144
-6
-20
-271
53
-141
-99
-217
-94
-312
296
-44
299
-55
-67
-103
40
134
530
-480
20
382
-163
26
-258
-395
-101
597
196
34
38
-347
-275
272
-483
-417
41
497
318
-132
197
410
-409
231
-277
-472
-731
-149
-49
-535
74
292
-526
-310
603
-254
-302
-101
337
-126
231
458
161
310
-129
-7
153
-259
169
364
-366
34
-55
-382
110
28
138
-64
-211
-72
17
349
-194
-50
-227
334
-158
245
-106
423
174
-65
-433
68
-530
330
-302
255
-172
-486
885
-42
-650
-127
-193
-245
204
-472
-336
-143
-87
-478
191
187
630
275
193
54
-661
247
203
27
-205
-202
-950
-41
-305
71
-107
-476
30
631
-251
454
157
241
300
-845
-855
-665
-347
-465
-40
-667
103
401
-285
-176
638
-230
194
-545
283
-401
-101
-147
-618
-340
-601
-38
185
-130
222
-437
355
281
484
-369
195
634
64
307
-41
-276
33
-146
146
-567
412
-1535
-401
23
-267
125
-781
-31
386
-327
61
-144
-186
220
-240
315
-18
117
-216
-428
-379
57
318
-47
44
31
443
413
-614
251
-74
425
-753
604
-161
533
-41
-420
401
367
70
-377
-375
-436
295
-113
506
144
373
-458
-176
-231
-14
611
-63
-507
-246
210
-37
-185
331
-328
180
104
879
89
338
-170
-88
183
-302
-253
495
589
646
-61
-73
-282
318
515
493
-287
205
-200
289
-181
-147
-2
67
-465
383
185
-24
325
-47
63
431
575
-61
420
-262
222
-322
-288
208
-612
-260
-97
594
287
190
363
-374
-1
71
156
-98
-651
-336
-356
54
416
557
-413
369
-67
-273
269
-419
-284
127
-237
694
131
797
682
46
39
486
-231
365
-675
-222
34
-518
-560
-328
-864
106
216
-39
-734
-119
697
-684
-1143
-130
243
11
276
-426
201
399
-155
-261
359
-372
-119
-836
-296
-157
-136
-236
454
-78
188
-65
-240
-556
156
683
25
147
333
-506
335
271
-295
-357
444
244
-519
225
-703
144
576
-160
-188
-730
-525
-216
557
642
222
572
-115
30
-205
-620
544
-394
-204
-337
-633
117
-780
-456
-199
-384
-450
444
-486
-300
62
-1330
-641
36
55
405
320
358
-487
486
-291
628
344
-393
-254
-161
-498
751
78
97
-161
-542
-402
152
-645
236
-100
-19
435
-291
-9
174
119
375
687
229
-983
-95
-469
486
219
-333
-205
-891
33
186
100
-227
148
268
482
-9
-68
-37
38
-359
227
-665
524
571
-192
394
-5
-212
81
117
131
-240
-560
-1300
-329
425
106
-181
459
-275
-111
285
524
236
-255
-398
245
-549
685
465
-1031
495
-370
-157
282
457
-300
-30
-551
-272
-173
-102
100
-259
-245
78
227
-52
-458
918
-555
-958
-13
-533
288
-73
-21
-561
117
-92
199
-220
1075
23
-37
97
-321
-763
-742
-76
614
238
883
314
923
119
403
-279
569
-146
-69
263
407
-172
108
578
530
-521
344
-309
239
-63
-159
-253
-574
-352
243
-407
232
486
-206
297
211
-85
28
222
-999
199
445
141
996
-456
-1040
266
-828
-518
77
-261
139
293
564
-466
191
-347
-547
535
-37
-442
7
176
-403
81
-362
500
-189
207
729
-460
1347
733
-355
-348
567
747
262
-67
43
314
131
-201
541
-797
-719
1022
-114
86
-396
377
-337
276
501
346
-109
-88
-239
533
-668
835
-100
963
237
958
315
88
-475
-401
180
187
-7
363
-52
9
-121
311
926
-190
65
-438
-208
504
201
-295
584
-486
676
-168
-219
-249
473
-194
-265
-42
-327
-101
44
-635
-139
507
647
-483
52
11
-371
1038
479
637
-417
109
-76
404
304
187
-533
1010
-313
-311
-68
542
-322
780
142
293
201
441
426
912
121
-266
407
66
160
420
-277
182
-274
-73
-584
-214
341
-79
-139
-114
130
318
-260
-491
186
-514
-155
21
-100
205
-213
-102
154
60
481
-82
203
456
160
-736
-252
-445
-164
-468
-143
58
-538
59
351
-126
-178
364
442
480
310
552
-322
88
-53
-627
-87
207
705
202
101
-71
211
187
51
-152
-352
828
28
24
-49
-228
61
241
27
355
33
380
-197
95
-190
596
-250
-121
-626
264
-78
145
-179
-316
414
30
-21
-394
440
-305
15
327
636
-875
258
-23
-263
17
694
89
134
184
270
-746
181
423
420
419
188
-128
740
-526
490
-45
-419
41
-322
77
57
-208
55
718
347
303
154
315
-108
-588
417
279
477
224
110
122
-183
376
-257
433
-124
244
-505
168
-664
108
-345
303
-134
601
-430
-159
459
266
-405
-518
-411
254
879
-257
-405
430
-67
-296
-380
280
46
419
307
0
7
179
-398
40
-327
523
-550
42
281
340
133
248
-302
-320
132
-182
-313
250
-365
212
313
37
-360
-169
-7
-535
-359
881
-11
13
-97
-901
438
-34
-290
-61
-225
725
-179
225
359
462
199
72
371
267
-18
-131
-33
-371
-343
301
-147
478
-2
-121
-159
332
-317
-152
-47
-892
365
369
1258
16
-546
-140
686
-510
-128
-206
331
-236
-46
-76
-162
275
81
119
271
80
4
-176
-271
-234
576
-216
1
549
278
363
198
250
442
-607
986
27
-436
-425
331
124
-83
181
235
145
-405
43
206
348
-4
922
-207
-559
127
8
-417
455
655
-286
167
-303
-455
942
120
-68
329
70
-112
246
165
-260
815
234
271
921
-174
302
253
201
-346
4
821
-200
389
392
-169
-293
-348
28
-207
78
-921
784
-475
180
-34
-250
156
69
-453
-177
821
-196
37
-437
312
-253
589
29
-50
-556
7
138
-449
204
835
-200
216
-132
-154
-93
106
407
-575
-208
182
240
-189
789
77
-586
-63
-638
433
-265
959
306
187
35
-220
-441
971
32
143
-258
332
-54
-118
-1366
33
-1025
-258
-36
173
-370
-202
-369
59
-932
-163
421
-136
-212
144
220
145
334
128
40
-199
135
75
-534
-294
246
51
-189
-5
-20
-530
41
104
349
139
-360
317
244
-540
-101
27
368
-836
-192
-151
-383
447
153
-89
-44
243
215
-100
68
-241
-234
43
61
-349
-78
452
-126
-47
-96
-268
-315
374
140
-31
93
19
-226
-329
352
-362
63
44
288
224
176
119
-461
-328
-231
531
-245
268
-293
634
91
114
-267
-871
32
-380
138
183
145
177
-431
-390
94
300
-209
-376
15
56
-160
-132
89
-301
564
-505
518
-910
-131
-285
-492
528
-429
575
-15
81
20
95
265
-318
-186
337
119
129
-87
-275
313
-289
-638
-45
98
158
-71
618
-70
-837
226
242
-283
8
430
326
135
-260
182
-294
-139
69
-230
-82
7
-225
-308
-388
-659
115
-101
-219
-387
137
-143
16
-643
-573
654
538
133
303
523
-108
-32
-269
-21
184
229
-244
-14
-53
-35
217
83
121
21
127
328
604
-217
-237
154
616
857
-67
-136
-169
-64
547
437
-52
-324
159
-209
232
152
809
-140
430
399
387
-403
150
72
106
-238
536
-639
-169
286
-198
914
-29
-230
181
68
22
-23
377
-233
-44
17
-401
473
-455
82
642
419
-216
-426
-55
138
219
365
45
-210
-426
-222
-393
139
-138
-294
-344
710
-223
239
-547
135
-281
-81
-93
75
171
139
-308
-66
-461
-112
286
-226
84
107
-279
461
-70
82
146
-151
-121
-410
193
-492
260
-307
-136
-103
-149
-61
-171
487
11
674
-605
243
280
361
109
492
316
50
-289
459
429
154
427
227
234
392
-297
-220
77
233
423
-189
-47
-867
231
83
-145
33
196
-281
399
391
-653
422
12
-646
-459
307
-10
-60
-414
-17
0
-202
98
109
184
293
616
-387
-61
10
-11
-438
179
214
-152
1164
37
196
134
-232
37
79
425
-102
536
-642
142
-319
71
249
-36
-59
-518
-51
-448
-133
-231
-430
-47
303
405
92
-141
263
-27
261
14
-701
-493
142
-11
252
137
876
-92
-493
-379
112
392
723
-11
288
352
-98
-156
-489
194
54
186
-189
-505
-658
288
-684
-290
574
-274
246
136
173
-327
311
321
956
68
-393
-413
-91
146
-121
-738
387
-552
296
-431
-65
201
-155
602
-159
-77
138
-41
400
-166
-214
-396
64
297
-98
574
-218
168
-187
323
447
-37
-31
99
509
-266
-213
84
-107
-494
-288
476
465
-84
-84
8
306
-171
49
68
-165
-134
461
151
-636
-98
484
150
-444
-633
792
-10
696
25
225
-454
-207
463
258
-534
209
-78
-88
-429
-95
871
-227
337
239
319
-261
-211
232
-413
591
-561
292
-239
646
-395
360
531
-624
-223
-62
21
-320
-254
-473
335
-534
298
-139
-310
67
152
-166
141
155
-204
-589
-145
212
469
866
446
104
127
483
-373
77
-430
-423
-142
169
162
190
220
171
153
-94
118
37
2
-703
156
932
212
-1029
-442
-458
80
-412
295
627
240
654
483
20
40
-65
91
389
-131
-428
-21
-373
25
76
26
-568
113
-187
225
192
307
-343
79
533
92
-66
-609
588
-156
2
210
-414
-154
-221
143
515
-537
-50
126
-766
-131
359
-549
393
120
43
117
570
-430
334
301
-87
-803
-204
26
113
-37
-86
162
144
-318
139
-261
207
-228
447
-463
647
-257
-346
-426
-252
-39
143
366
481
-236
90
78
458
182
-64
200
683
-88
37
-425
-315
-337
-213
-424
-125
-848
-140
542
-92
752
-204
-407
451
-645
-191
-96
-1005
-823
-76
-1028
-633
-94
-128
-26
-234
-390
835
-139
-325
-457
300
-345
-27
-215
130
413
-574
-488
-646
-271
258
223
162
29
-81
-653
87
-37
-172
-61
-361
96
-719
-308
-185
-403
-478
293
-123
-124
42
-16
-149
188
410
-46
770
372
111
57
44
-335
-183
-63
-566
440
-449
-434
113
586
357
-20
-441
-162
-448
-10
930
190
175
97
-149
-947
-113
-177
221
644
755
49
-21
448
-144
-178
-520
228
-158
298
-35
-107
121
-161
-173
155
372
-293
-34
-1
-366
-412
-407
442
261
-71
-150
21
-259
263
-350
97
76
402
-617
488
238
-1
203
-16
-900
-332
-340
-73
25
-84
-136
-244
-142
-341
-491
-292
421
-480
-422
134
-367
-86
45
437
217
-193
-254
103
-119
7
77
-299
449
-176
374
94
223
-253
-173
-148
409
-355
522
-1162
334
314
-301
-303
-736
109
115
-567
-347
691
220
160
-307
277
451
26
168
209
510
-199
-38
-539
-804
-185
-335
263
-165
295
336
22
-406
-139
-887
-1269
-441
-949
940
28
424
-815
264
107
-137
104
219
-171
662
249
-229
-713
224
377
-776
378
-913
23
336
-372
-482
40
-582
-474
270
-42
130
508
-345
-225
145
91
36
-28
-19
722
-187
30
-252
463
-378
172
-225
238
-222
-115
130
18
327
-386
-189
311
221
-512
149
-226
-333
18
131
287
-80
-231
-539
113
134
372
389
-32
597
-243
511
177
6
92
156
235
-16
225
-79
37
-231
144
505
295
129
215
244
-140
223
35
-312
-396
227
-185
360
-556
-95
-39
-412
402
-621
-220
-737
85
297
-244
561
40
1019
263
-30
-90
124
204
-95
359
106
-172
133
-266
-468
-404
-153
-834
353
173
398
-181
-771
-50
401
341
-474
-462
-324
435
-50
80
-455
263
142
-317
-515
315
-582
-219
84
239
597
-289
-54
-261
-267
-462
-59
-208
623
29
1007
114
134
-129
528
-125
-38
-82
-400
-260
-117
426
-153
-183
377
371
-79
41
-45
-85
72
-137
113
231
-223
-780
689
509
225
925
532
910
-374
289
531
308
99
42
-65
-418
-135
520
-950
-264
-565
686
277
-303
-2
-125
922
-504
364
-110
-403
26
-212
876
296
-344
-322
-748
221
-249
394
306
880
289
377
-512
63
-48
-151
321
582
-349
-646
-44
222
310
236
-221
108
424
42
-93
-146
-10
141
101
405
43
-33
-139
408
145
354
137
202
-131
-579
75
182
581
-154
404
251
133
9
185
300
16
142
507
245
-274
-228
-275
-44
-118
-56
-44
-46
218
-173
-66
921
-469
505
9
338
-144
179
-485
565
497
460
67
-447
36
-212
-725
-258
374
165
-677
295
-383
718
910
-27
-477
-239
368
-15
-371
85
43
-250
-467
900
209
-272
29
-122
-127
-237
-123
584
-950
-96
665
-587
-12
254
320
-108
272
582
-148
244
-33
-34
-489
265
87
359
880
-229
34
-484
281
-240
289
-5
183
52
8
538
-55
-629
82
15
327
194
31
-333
-287
475
189
-202
-333
345
-214
86
-203
24
-202
1182
-250
-485
431
-271
38
234
44
-501
467
-239
148
41
219
-273
276
495
-336
16
19
-358
825
-259
-718
413
-13
-48
644
-145
-825
-384
690
375
-68
-273
-81
-797
133
-254
173
-104
-416
351
6
118
77
348
22
-379
350
120
-382
-103
25
494
-471
-509
630
283
651
-172
29
334
-263
0
440
-9
-162
530
-251
-247
-189
-99
-8
427
-453
-155
-58
84
190
447
-9
-652
-488
721
86
349
-115
-92
-75
203
245
-126
-1
563
-112
-308
48
31
-270
527
-136
10
-97
50
80
-10
-118
939
-47
186
361
-549
-141
6
-159
12
-270
141
-215
-139
318
-33
193
-389
405
57
-423
250
-230
-42
-220
555
-207
-123
-59
-400
540
-57
-280
481
-543
-95
162
-146
349
-415
-714
-437
167
1
-597
228
-1065
18
-317
14
-10
178
-362
14
705
-59
-278
304
485
380
-395
39
283
-19
261
40
-161
-50
-8
-281
169
-169
-64
36
190
27
406
259
115
-286
-653
704
343
-63
-53
586
-414
-8
804
300
835
-439
-107
-408
343
-430
68
308
110
-256
-122
864
93
-342
83
-674
-835
437
-556
507
71
117
403
405
-264
-613
660
231
115
-534
370
191
-149
-735
-179
256
-344
-105
223
-158
5
263
-168
292
537
422
112
-42
316
-11
36
725
518
-278
-26
26
-305
360
134
-474
446
24
-219
282
-303
294
430
-823
218
-408
-176
-265
454
-131
-85
-265
216
-363
3
348
355
782
49
138
-65
-432
-92
-300
-349
-11
-180
553
923
626
734
588
19
-182
-44
-106
100
862
181
115
494
305
-280
-540
517
184
154
-88
-47
-61
-380
-134
-373
-129
-227
20
-510
-40
416
-52
176
-389
76
-273
-138
892
-296
-42
-360
45
-884
213
-552
-700
-33
-295
393
-534
-375
-122
122
376
-604
440
-390
-396
666
-225
321
-85
-160
278
517
71
302
313
-357
405
-11
17
-123
278
-14
-370
-220
-177
79
682
-168
140
43
356
-105
-373
399
322
203
279
833
-231
143
346
94
-149
-336
39
-282
60
-91
-179
111
151
-609
225
-270
-48
-426
649
-458
113
38
-153
763
336
291
-299
-211
-130
-234
230
-766
-1
299
-66
132
512
9
791
801
-229
-248
-396
-283
-60
363
-309
73
-85
153
752
311
206
285
-263
-381
479
-50
835
-378
296
-201
184
-505
-446
-265
32
17
-305
654
287
279
-378
278
-584
-311
1122
599
-162
59
-270
200
215
-619
-637
-304
-557
-93
614
-191
-268
45
444
107
730
653
243
274
-358
24
551
293
886
-187
-653
472
511
1
-312
-160
746
-35
-467
126
-342
257
422
-485
145
419
-561
-693
-770
-25
103
-619
783
718
-572
-467
344
49
-470
-503
-801
258
-46
-164
-154
-191
191
-706
230
-779
271
132
-598
-853
-577
-1483
485
-298
-223
196
-195
576
-9
-35
-56
-296
-341
364
-237
-231
289
756
-250
134
-204
-393
-165
742
375
362
-409
130
-273
53
-469
-400
-657
54
134
341
-197
291
58
166
110
717
-543
-4
249
-558
198
-764
-151
-523
-341
-756
-670
-748
139
-417
-358
-900
-123
288
202
233
206
-196
-115
-90
273
-997
-400
779
569
288
-264
-173
-241
208
271
2
-151
-1044
-414
-770
239
35
637
563
-787
617
151
-83
-415
39
-321
-530
-311
-328
-47
-177
-287
-134
-438
-232
-108
231
259
-824
83
-122
-402
239
218
-46
436
-577
-38
301
61
-85
-920
392
238
216
-30
555
-392
-993
86
242
569
179
-679
478
-186
169
193
-294
-371
333
-451
-893
409
487
-387
339
-440
-753
-413
-43
2
-280
15
-714
814
492
-280
23
114
275
89
-107
184
124
-426
496
236
509
219
-146
-816
479
664
48
-364
634
-477
292
204
-457
233
-255
269
266
66
940
442
-278
-496
-139
73
-253
441
546
221
142
-218
-137
-65
88
-308
-504
148
-181
589
-322
-194
-199
-288
445
121
-823
351
-92
720
-97
417
158
-553
-525
-143
163
-581
154
778
194
-376
-298
-250
221
-1067
-179
486
154
-289
-607
706
306
-66
61
-375
-160
746
-66
-76
144
-568
867
-28
171
-186
694
189
115
-529
764
26
42
361
117
841
36
100
-530
96
164
772
-204
-632
-56
-327
-51
456
844
-224
539
165
116
389
-297
-304
195
198
-206
-109
-340
-237
375
-113
-543
-337
-221
-522
-447
-220
83
4
-419
-184
1441
-380
-33
129
-903
-220
-275
223
-47
21
49
-127
818
501
476
-658
178
32
-282
119
669
-222
196
-256
292
-172
363
9
30
631
601
482
-67
215
-231
-475
-107
750
115
97
-11
-442
-34
-196
229
-411
44
-289
678
-430
-326
418
3
-304
-112
-191
-301
-239
107
90
236
-350
437
-99
-367
336
1029
-7
-282
-258
204
-276
-142
-89
-423
-692
211
-194
-361
-422
538
-75
419
-375
3
-490
350
133
-341
359
37
-133
-83
421
470
132
97
-47
-216
627
-566
-2
43
-265
-318
-72
-731
165
523
885
261
78
-257
-438
-280
-545
156
-284
-316
411
176
195
-349
-193
-61
15
313
-641
340
-273
169
-63
-87
-354
-459
668
-212
-606
-43
-176
1408
385
415
43
-470
-8
811
-335
-885
-568
995
-229
15
105
493
-292
88
-200
-11
-1266
107
129
253
-672
257
-548
182
-448
77
-211
-278
327
432
348
-104
136
-505
122
253
3
-113
283
-822
220
607
569
142
-388
247
-243
174
80
-580
375
-325
117
-185
704
-71
-30
-231
-124
349
1122
-554
-247
68
365
58
305
203
400
42
-82
-157
32
-70
-583
-53
187
275
127
193
119
489
-338
-252
25
234
102
-204
19
-9
-114
-693
388
-54
406
65
-584
23
606
416
561
613
99
467
-915
95
430
18
252
237
432
-407
-304
147
43
398
176
-27
104
21
-387
-587
-201
-550
-160
-453
877
-410
-519
415
-99
-24
883
-464
206
321
237
689
-53
16
-333
-42
-337
-229
355
-680
-72
166
-414
-247
516
121
328
39
-54
-804
-420
-846
-333
295
-524
407
-179
-19
-609
-50
206
-632
357
113
171
-88
-356
-57
-544
633
-76
99
212
-318
-190
-3
-296
-616
253
-1191
-971
-90
161
106
-132
-189
-538
-728
-261
-96
264
222
512
509
-52
122
25
-424
122
453
337
-147
-346
0
-709
52
-691
323
-971
-394
-937
-57
-768
33
-559
103
-495
105
-222
-435
-267
86
110
107
244
-483
-60
-218
754
-353
129
289
41
740
-154
396
309
-403
-11
243
59
-500
-236
457
88
-492
87
153
126
-57
306
-16
250
-145
258
-490
-308
457
269
-586
-487
-423
-13
348
-243
375
100
619
-257
516
-753
109
-110
-276
319
-126
-405
131
104
-51
162
-432
-157
-131
-227
126
-249
-1334
-656
-151
360
-272
293
-521
45
-226
185
-185
-17
377
-368
-815
-81
-97
590
413
196
597
633
-99
53
396
-480
75
-213
40
429
391
-131
-145
63
472
-311
-1020
438
216
174
-106
94
-184
-992
474
450
-2
131
-163
-335
-233
-758
158
455
296
19
-221
335
429
55
-341
146
164
-485
-90
-10
47
-776
120
32
671
151
323
639
760
-57
-494
-94
-252
-258
-214
58
-253
-610
-170
378
531
388
-197
-558
20
463
-21
28
199
-516
128
-248
21
-254
-87
-743
181
89
-1193
236
-808
465
164
-258
452
374
-16
228
-307
537
135
290
-200
-68
-841
796
-373
-635
30
-236
-490
116
-57
310
-30
246
-485
-440
429
445
-389
-197
-34
-255
165
-203
-91
52
-621
-59
84
117
-1012
220
-778
-726
-418
1004
-156
-786
400
-134
-282
-192
-464
305
-488
400
399
-453
182
786
-737
-203
111
382
-773
-198
-63
529
-70
330
-305
-750
293
-404
-21
220
-179
42
-68
-925
108
578
328
412
-648
183
-564
-68
-165
-404
-151
-35
-1335
373
-204
120
43
31
-266
139
-856
90
-450
-229
-432
-922
1
51
-94
-134
380
-285
-128
-584
-12
998
53
-101
210
96
370
-120
43
-96
514
-350
-47
-286
533
-296
-491
-72
-431
102
-395
-29
855
-687
586
-630
-297
114
204
-23
439
530
165
-111
522
462
-105
315
362
473
-217
-306
-73
-342
380
381
-861
-249
-425
-343
-421
-292
-194
28
-850
95
327
140
119
-1561
-228
-166
-313
-884
-78
606
312
90
-399
-444
122
-103
174
175
-208
49
-667
432
503
266
361
631
-48
116
-221
458
498
294
-746
-419
-366
151
220
-684
-502
-1131
355
179
160
136
-313
-19
734
-304
-33
-34
-32
-38
-244
282
27
33
-508
-227
-173
-395
355
-240
398
319
-548
-255
-106
360
102
208
-438
105
-506
-63
-296
-32
73
-249
-304
-801
507
92
186
-1
287
-86
194
382
-131
-106
-497
-160
-284
61
-360
840
-182
736
249
315
380
-119
-258
44
-211
723
416
511
-357
-152
66
53
-347
426
-132
203
-37
-928
23
57
557
3
-26
-121
459
-88
192
251
126
239
521
-384
47
-166
371
-487
-541
239
208
24
415
-12
693
-385
348
-131
143
178
336
311
31
-24
-147
67
77
182
-15
-197
395
-153
-447
315
127
289
75
276
-331
-86
61
-375
-190
-218
374
80
250
-257
391
144
365
21
-551
238
-259
120
1168
372
-385
-81
317
47
77
577
569
-454
259
206
-132
54
142
9
113
-635
-525
74
-177
304
447
30
-715
-160
-264
-64
129
32
-241
-45
-51
121
-446
-973
-478
769
294
-839
-233
186
-130
-419
164
858
11
-166
221
218
108
-84
-269
105
550
570
-268
12
3
-189
16
175
5
-181
-546
-285
447
-318
198
-43
508
377
-273
625
-551
308
20
-827
-461
-607
-156
-88
-345
-272
544
59
8
236
107
355
-221
-268
-210
179
283
293
3
517
-15
266
159
64
135
179
-3
30
386
95
376
26
344
501
575
589
-1100
147
-413
750
290
-478
-224
-265
-791
-462
-7
-498
-170
-397
-784
400
-655
530
-35
-690
-41
-455
45
136
124
-238
839
-451
549
342
-428
-150
-73
296
201
135
-760
-299
419
235
-92
-304
-76
-442
-231
360
534
-784
-14
138
-86
-81
594
-528
83
-809
-452
-4
-2
390
85
-47
-42
50
-43
106
36
-499
181
465
329
490
-488
401
347
326
573
532
154
338
368
-355
666
-563
-167
457
181
497
-563
233
244
-100
-445
767
-20
-258
-311
-1061
294
214
333
328
426
-71
-381
-300
-791
-137
389
739
-376
5
58
215
866
281
-578
-321
100
446
391
486
-72
45
-235
422
-480
-55
10
123
99
-522
96
-117
58
-295
-127
172
-269
-183
-231
579
222
553
-272
-134
448
-268
-1373
593
-106
-271
-227
-67
-664
-471
-67
-111
66
-60
-189
-724
106
-202
1
-123
54
-95
-770
-236
386
-342
454
393
-351
286
-83
151
138
-93
229
-246
131
440
-97
175
284
-30
-362
-57
-201
651
960
199
-407
35
560
684
662
-100
-381
-59
268
453
188
-275
620
-29
448
555
-183
378
241
-198
-122
342
-264
140
-86
178
1
170
780
134
-248
-242
85
-81
39
-296
-326
-199
117
169
203
-43
-23
24
-49
-278
226
-248
-649
-98
17
76
412
-400
-145
39
723
-140
-345
171
91
140
-78
312
-270
-665
120
-7
261
-306
-626
-478
652
-204
-6
134
75
38
-71
385
-648
844
228
-271
-62
442
511
-678
154
-150
292
-28
296
-185
178
562
145
-291
-213
-13
116
0
200
-60
-10
-130
330
644
272
246
-229
-39
371
87
35
629
172
-15
-135
285
-102
708
-98
-759
788
332
-36
-478
52
157
-375
99
303
-114
-39
-795
-235
-83
292
568
-417
-112
122
-689
160
32
114
-181
68
-59
-175
218
259
53
-235
538
393
228
29
501
-544
486
-333
-436
108
244
488
25
-232
-513
-57
321
115
-289
-149
-275
-205
206
598
-620
-134
-271
-12
-189
216
-475
-114
400
253
65
-546
-842
383
782
50
-8
250
119
-265
-369
730
244
429
-260
-148
-223
-153
-171
-6
-176
615
113
-741
-265
-29
-189
-829
-162
-43
-25
805
-49
-109
565
385
-256
-264
81
342
506
-69
-483
71
44
165
350
-73
486
735
-175
-182
-23
1259
-136
819
-136
-273
522
658
227
-211
-337
-797
-41
40
385
83
255
-180
-210
-210
80
-237
164
139
418
452
-18
550
232
-461
-330
88
235
-48
874
26
-137
1126
-654
-325
190
207
-40
303
-426
385
-194
753
-787
-201
-418
113
-62
-640
618
56
295
372
-226
210
-260
-59
-523
-109
-399
-351
300
-371
409
53
-30
114
-161
369
-43
58
-250
-200
-132
613
20
107
-221
72
460
286
205
236
-253
-173
-195
-197
215
6
-179
756
-153
-387
201
92
70
-336
-46
-48
-95
-296
149
307
-177
-101
555
37
-450
-389
813
-359
-203
-238
755
-168
-365
309
-351
-296
200
-287
229
43
-357
-269
416
-147
840
217
-544
-369
260
-24
121
-64
-26
-603
-259
-132
-130
-15
-662
370
-455
-177
100
-148
-459
240
-318
-703
-259
-86
-186
255
-4
327
-130
-477
-263
-352
-4
263
1016
448
-127
122
-768
798
35
339
50
-394
-309
-124
-221
-251
-19
462
-590
221
38
-645
-284
514
-137
-469
-184
469
-193
-577
545
422
-112
-267
-319
192
207
39
127
-74
371
395
489
-527
-448
-239
238
170
-361
-1183
316
3
-137
-381
-22
-686
949
357
24
-158
332
-45
-50
377
18
157
-584
100
247
422
40
361
626
499
-445
136
230
315
335
238
10
684
-182
-475
103
140
-456
-177
470
824
-199
-41
50
34
-395
-627
527
-86
-172
-404
254
868
-621
17
60
-171
-425
130
-409
-388
424
-27
152
-91
732
330
-250
-119
199
-492
296
95
327
-23
-356
-407
-401
340
-390
-187
599
-200
200
-181
-395
181
-134
124
219
222
-717
360
19
-459
-278
85
144
69
-36
352
707
460
225
52
152
-230
795
404
246
38
297
-56
689
158
1007
-280
-528
-130
-234
11
326
319
-203
-123
-288
74
408
221
-400
540
-683
-923
-24
-58
-556
264
104
361
-364
-247
123
299
769
315
132
-203
247
-343
-442
417
810
105
-396
-458
363
257
402
410
75
304
-485
-39
125
22
-357
542
-55
322
198
122
-515
674
505
208
-320
-600
127
182
-97
200
-15
-137
614
80
360
90
-223
18
-98
651
-331
-1061
-115
419
-350
-226
219
-127
371
404
-967
294
622
-477
-145
-831
327
-80
-222
79
436
571
750
-145
533
-77
-612
-175
707
-385
124
165
91
-4
365
-272
-139
290
117
229
653
62
-27
252
182
-21
179
123
154
129
-656
325
152
93
54
-97
439
184
-226
52
-358
-487
-106
184
69
530
-130
894
225
-116
590
152
-250
166
84
-20
135
-138
-870
305
-77
56
305
-89
-280
-144
-33
8
-368
23
318
417
-157
306
219
-875
-290
-248
54
108
530
-163
62
73
-700
129
127
-15
823
42
272
212
-208
182
828
-850
257
-148
186
244
39
169
25
-21
-736
-830
-924
-1256
-209
-614
-55
324
-53
30
317
-92
32
-29
119
-568
-188
292
162
600
-312
106
783
661
-179
-127
-29
-264
-101
67
-53
30
457
94
-96
18
88
-577
341
404
276
117
181
-359
171
191
-578
-243
-614
416
-313
682
-116
64
-484
-88
-87
-207
42
5
832
-305
401
-548
-749
-318
-358
350
431
-470
157
-276
351
-54
389
8
119
-163
-182
388
-335
-57
171
-760
-1592
-193
-222
-84
114
199
347
-238
310
-313
712
97
-65
362
88
-277
-367
901
-887
621
-266
712
11
-37
-111
297
398
133
-8
-530
146
422
879
-266
-56
-162
-678
407
-426
-624
-51
-207
-406
-253
0
-226
384
397
73
-512
466
-230
-236
-318
213
393
-456
-177
-70
-141
757
193
-58
405
99
393
48
-664
9
479
-287
-597
-255
-222
-16
-33
535
-650
232
507
-307
-310
-58
-218
-346
84
-533
324
-124
-64
67
139
41
180
370
290
113
-180
68
-190
1048
-235
851
70
659
113
-99
-780
-412
-38
108
672
-112
-837
120
199
586
295
-384
-203
455
-13
-399
-245
-349
-400
-586
-96
342
573
-716
245
58
32
566
-256
-13
-169
-428
402
264
333
-118
-142
412
420
-51
-238
409
123
-137
-151
451
-100
578
-209
195
-12
-663
-67
-407
322
253
325
510
564
-374
491
491
-1029
-375
93
392
361
178
-436
201
15
-397
-345
208
-337
376
-308
-879
332
-92
-462
-537
-5
-115
854
353
-128
-372
-374
46
111
-275
-437
1651
222
370
-183
-205
-66
-307
-87
-21
-126
308
-219
217
-279
-580
-184
87
-52
-58
486
596
150
-34
-75
-200
-108
346
-193
-360
-278
204
33
-46
-21
-399
-45
70
-8
22
292
578
-337
130
184
-207
33
261
105
420
-185
59
1147
11
249
36
192
350
-716
-417
23
295
-228
401
489
154
426
596
-432
-92
-593
277
114
-37
-9
-221
-267
-241
-42
206
-171
167
-221
-82
206
220
-87
99
355
-295
-244
331
137
165
-562
-799
246
-277
-337
-135
373
-410
201
-115
187
318
-278
95
532
-197
-328
126
626
9
-127
-177
329
62
-414
-168
-630
166
546
985
-352
-645
8
437
560
414
317
-98
-303
45
321
-102
-160
-15
260
5
-43
-258
-183
661
340
-41
-1
-519
336
-335
845
-714
474
545
190
-162
51
-31
401
-204
58
-2
426
-35
234
-32
-85
-296
241
208
-34
213
-510
-213
149
-161
-356
615
402
-527
563
98
-202
647
-196
138
-426
475
122
152
47
358
-215
-190
-261
-163
-7
-6
171
-212
574
-467
513
-535
492
-508
-36
857
-369
379
-274
476
197
699
448
-173
384
333
-137
-376
54
245
910
-227
-293
-154
187
-306
-540
419
-78
-213
237
383
74
-195
-715
18
-20
171
-202
397
-303
366
-94
323
128
-668
135
-46
-360
1608
179
18
-8
455
-398
108
1032
-682
247
276
-733
-185
302
-262
361
181
-321
446
269
-51
806
262
-252
133
257
-309
13
-1033
48
-612
63
-19
215
-1006
-266
-813
203
-19
-346
329
-497
221
-179
94
714
-404
-30
-442
0
-363
-78
-27
445
217
648
262
245
250
-37
18
-53
-710
-301
510
-155
-118
-317
-192
-131
306
-440
-470
-898
335
-256
244
-581
-161
654
74
-625
9
-11
-527
199
-89
46
427
-792
812
-619
68
-261
-646
-371
197
-598
-292
7
255
-252
58
-539
-221
411
369
-228
203
108
-457
-114
-634
-186
-175
187
32
251
-349
-363
97
-47
-97
338
-258
38
808
-350
-512
354
209
333
-853
-156
-621
-64
363
-241
213
-184
-31
376
-246
597
-312
58
-100
59
-465
-241
-256
-321
-576
-64
35
242
205
248
-574
-200
22
239
179
45
358
115
-503
-300
119
-493
-22
264
156
478
-211
-89
65
-69
-181
72
-107
318
183
612
50
-595
343
66
41
154
147
108
-660
-434
92
42
255
372
255
-70
5
205
294
-62
-287
252
127
-48
302
366
-761
-149
-408
-525
-313
366
369
622
608
-42
47
258
-345
123
198
270
-421
854
133
995
167
227
-99
15
-306
481
-640
-337
-38
-548
-330
-885
338
125
319
425
-392
188
-278
547
-156
-168
-359
57
556
-520
442
-208
245
403
-192
885
-156
-85
302
79
146
-44
-89
-1
374
-25
427
-357
-648
-194
516
-486
-100
189
-252
-479
-95
472
317
235
533
-497
-157
-178
444
471
259
403
-387
1063
561
42
-33
49
216
269
-124
-835
3
-193
-211
258
-438
168
707
306
134
270
-444
-277
-328
-1119
-373
-101
200
382
-391
31
781
351
12
-841
-1137
176
-447
179
359
676
4
363
-285
406
-35
72
-197
566
4
-126
863
64
-181
386
-147
-219
-840
-439
697
335
79
227
-526
397
188
-170
145
-20
53
-29
-315
55
-441
164
-358
-471
-130
369
14
-422
-324
127
96
-255
-558
619
-22
344
-797
82
1681
646
122
-262
475
276
-526
627
229
311
211
200
-433
-32
-33
-650
-480
-30
418
109
-37
734
250
108
57
716
-72
114
-363
-9
-362
195
547
412
-1129
227
-723
480
264
-185
-492
-575
181
-592
-1549
121
417
748
79
85
-490
-38
-86
301
-232
-310
372
236
-436
-692
-439
-27
782
120
200
-193
-27
191
-79
-57
-388
-851
9
203
251
310
53
-201
-336
33
323
214
-381
377
452
320
-73
477
-58
-331
247
-360
-111
566
-112
56
488
-44
112
143
258
40
-118
-36
151
-7
213
421
92
523
-559
-857
-264
376
39
-285
-689
-159
-34
470
210
-43
-651
-1385
-129
-1567
478
283
-45
48
429
-738
998
-45
-717
-994
-45
-161
-556
-338
-534
301
-33
332
-390
-206
149
-143
-676
483
-532
-1029
-620
660
-396
644
-443
247
451
685
-439
-17
-386
-325
-546
268
79
-251
298
-330
460
98
-480
313
-153
204
-178
-127
200
167
-171
-240
-299
-270
-374
-33
313
300
-385
442
-421
-567
340
215
-251
-185
-179
66
-3
-113
385
445
450
-43
-146
837
-520
-103
-247
96
-199
70
355
469
605
19
-10
312
-856
-116
471
-154
359
-629
-30
-380
-1540
546
217
-225
-389
-99
310
47
98
-881
334
23
-273
8
58
367
417
675
204
265
17
89
-258
494
-11
-57
-807
-68
-645
-136
-260
-130
29
396
262
-731
361
-60
58
-28
211
286
168
646
-72
1
-302
-247
-201
95
-70
-47
183
325
167
-1067
-35
-974
521
-67
271
316
-97
-367
369
-483
132
-548
-35
-707
645
189
-104
220
335
-233
258
-188
101
-115
45
-38
130
-36
-426
-202
406
-125
90
244
214
956
-141
439
563
182
266
45
-1141
305
-176
638
-965
230
238
126
79
-1041
31
-35
-624
-84
100
-85
-140
-203
-325
435
-58
-296
-48
-394
138
-96
-215
238
271
-11
335
354
-183
105
209
234
333
-112
105
258
-399
-373
-173
-86
190
-969
55
221
61
-164
106
-181
-555
-654
673
552
513
218
174
27
-129
-108
-152
-349
335
-35
347
178
-341
11
-28
246
56
443
212
94
-547
96
51
-476
-1
-442
-183
116
-61
957
78
389
227
31
420
-201
-760
478
68
195
1026
-25
-139
48
303
219
535
-86
797
471
-557
472
304
72
699
1107
2
-70
-82
49
-167
-70
685
147
81
572
-712
-236
-434
-96
207
398
121
63
-256
298
-559
-807
-54
218
-343
-639
495
275
-109
-50
-18
-705
-356
261
-5
375
279
518
-39
-806
-592
-320
295
-124
58
106
-120
-471
134
-214
-773
222
618
25
-29
334
659
393
-785
758
130
-58
-189
423
524
23
-758
-24
455
-317
660
115
44
886
372
848
80
-672
-298
-424
-508
-125
-604
-152
-8
139
-251
-928
-489
-777
-23
-668
-267
-44
641
-112
983
-110
-616
140
684
-98
-268
372
320
246
-178
363
513
285
112
359
639
569
-310
34
215
551
252
-51
-406
477
-18
-205
13
-808
142
-473
105
430
400
243
344
40
-28
-91
984
273
199
374
-322
-304
-54
318
573
-307
225
-51
-64
231
-274
310
66
-33
-18
94
212
71
-89
-599
-414
208
-426
-17
134
-67
21
-486
520
-11
-509
-136
-306
-47
-1025
-289
-195
565
-546
-60
-278
-234
-85
-235
-376
-761
29
607
-44
-516
514
825
-468
128
442
-391
400
-148
-329
367
-16
-952
501
-113
107
-334
489
-371
407
-57
494
-475
-655
26
-123
52
-106
75
137
-500
185
-277
114
428
195
-194
427
-497
169
239
-87
78
-343
-273
472
-209
-15
467
372
95
51
46
411
-292
180
-107
-426
-225
-171
429
-25
-100
-5
343
-15
-98
-1074
465
8
-472
829
-76
-233
-964
-618
-302
-563
738
-201
-349
-152
-428
-554
-109
-303
155
-482
-19
-69
348
-78
697
-388
419
-397
-9
21
691
-885
228
-25
-575
-227
-416
216
-180
-356
383
-526
248
753
550
69
-540
76
369
248
-420
-246
114
-187
-264
239
-424
410
7
-602
-397
-360
-280
-140
274
57
-752
-282
305
-219
146
915
-307
-772
-259
701
25
-387
-32
-314
-62
-9
369
-859
-397
-367
-388
146
819
-754
-25
318
-351
-25
435
-78
140
20
114
-95
-55
541
937
-385
40
-131
505
211
-40
992
-279
-607
-358
-136
-520
377
53
85
-142
-268
-2
-600
361
357
-128
246
-718
300
-217
114
-262
-93
136
73
266
98
-158
-254
260
417
100
164
353
57
-178
-5
20
-84
-1004
-136
-105
-440
361
-146
370
80
720
135
-332
732
107
-248
461
176
659
655
377
569
337
391
178
350
277
131
-216
78
166
-143
255
66
-185
517
941
773
107
14
-297
44
420
129
702
-208
-154
557
573
71
306
301
-297
83
-80
-283
-220
-201
-391
96
-351
42
13
444
401
-713
-73
-275
227
307
139
-736
153
-466
-126
144
240
79
-33
352
-41
-133
-317
-344
-54
239
108
138
-450
286
851
-334
-56
556
528
-565
228
216
32
-146
170
426
79
-717
316
377
-835
129
-20
800
42
-158
242
-245
-941
285
-93
570
-364
-609
87
1067
-140
107
-224
-246
110
147
195
90
-445
630
-178
-123
-414
-309
-66
552
54
721
439
11
-157
-318
-110
116
164
82
541
-148
440
110
258
442
-387
534
304
-181
-325
-266
-339
426
296
-662
-119
-278
172
-98
303
-88
-324
132
-747
205
-518
-25
194
574
451
374
-426
-54
497
-619
-189
519
-358
-499
-16
-75
418
-60
207
-269
-104
768
340
-182
673
112
272
-89
85
-55
88
10
-112
334
-496
-14
92
294
-70
416
710
410
-220
362
285
-365
-279
-198
-6
-181
744
-108
-334
-223
-311
-136
217
142
-248
632
7
-519
-77
475
-108
53
1123
-776
797
788
365
472
-918
73
-135
-403
-1
398
468
340
123
-462
-422
574
-481
335
-447
-479
-247
-137
-68
426
-124
-226
301
17
-231
724
-635
113
-334
-728
-431
100
306
407
-188
79
304
-193
-168
-500
224
-417
-88
260
314
696
-600
-479
390
-691
-717
-142
-35
155
62
-263
199
96
147
225
-461
-657
-222
215
-138
630
459
-207
131
-134
-412
-491
743
-1027
47
204
321
425
116
-503
-43
151
13
272
320
198
-166
227
322
