-313
302
387
206
-297
-176
-181
-268
-228
186
-335
-648
-82
-246
-806
319
166
-25
-70
244
-229
83
80
427
-433
-111
530
250
113
274
68
619
6
179
319
112
-70
191
-434
-298
334
-41
-48
330
-23
-371
547
-341
103
486
-558
-548
517
272
27
-178
251
-127
178
407
94
-115
153
-13
88
-195
-193
-26
-55
-67
276
510
-125
-51
-211
21
290
-592
327
190
-315
-44
-266
262
-395
74
-223
171
-393
-481
314
-104
272
59
288
246
-315
201
123
-173
-85
262
200
-205
202
-100
-258
169
-95
291
245
355
18
-323
140
-264
157
-52
-238
573
-36
131
8
223
4
362
-173
-349
138
-229
347
-367
233
104
-185
-153
431
240
37
115
24
-135
-83
26
112
-125
161
-552
419
32
148
252
-313
-13
257
321
-141
-100
-76
44
-131
247
149
460
197
16
356
-200
229
22
346
69
-276
355
-151
4
-342
-312
-288
-307
168
223
180
482
-35
-83
272
-93
-244
181
-6
-472
333
305
12
112
203
381
201
-416
-836
-712
-242
-22
-236
203
-326
-152
206
-413
-449
614
-338
-18
137
436
155
110
92
381
-41
774
-66
-476
-302
-720
19
159
364
-258
-257
362
-123
212
-75
461
-355
-782
50
54
29
286
168
422
-55
79
-25
914
-237
338
129
319
-204
-167
272
-93
-15
25
312
-273
63
307
146
-630
-31
-27
301
-470
185
-145
-36
22
-166
-190
-146
-207
4
167
-28
211
-198
-690
265
-85
-279
74
27
-41
-421
-84
599
103
-206
-249
85
618
999
793
401
-515
-293
132
-493
-118
630
-929
-367
-220
-49
844
380
432
192
-287
625
555
235
129
107
-309
-13
-147
-602
156
464
104
-262
-138
-236
488
858
-922
-81
-334
-235
-4
235
18
-193
393
-94
243
-174
-367
-52
-13
132
-253
-20
-455
-667
418
-552
125
511
-90
-175
66
-504
594
269
-208
-326
418
-75
-98
185
142
-729
-259
386
-318
-270
562
328
294
19
440
-105
341
147
301
298
-354
288
-469
710
-62
-201
-576
466
-218
-23
-110
-230
241
-29
526
77
-307
-128
183
14
-83
60
-280
-153
-81
-479
-259
298
98
-283
163
-130
139
-40
-154
159
147
-149
521
483
-541
-222
-5
-421
-17
268
-330
161
-16
231
-235
-330
156
170
242
-76
-8
-283
98
-184
129
-208
152
-356
-352
144
130
-243
-1
57
-172
285
173
-149
-166
-57
-445
140
-337
-291
-538
-330
401
93
20
-450
-69
219
-42
110
78
-348
-177
144
-55
510
66
164
-136
-83
-73
351
209
-425
-229
-105
-127
-151
255
539
-10
401
223
49
-96
103
183
132
-133
-189
70
320
346
-262
-81
100
91
69
144
126
329
294
-511
-510
119
277
-392
-110
411
372
-116
83
280
-158
-224
-520
656
120
-608
-65
23
-46
318
-163
-240
223
195
502
444
49
-242
-66
149
-87
-145
1
-419
-362
-149
274
245
214
-414
-81
-480
-361
441
165
157
-181
-103
155
261
-76
46
-34
5
188
306
203
-146
45
602
-111
24
-107
294
136
38
-226
-168
75
-593
-451
-43
-203
-225
84
51
119
-447
-163
443
17
-59
-88
63
630
550
-88
13
-134
-233
-156
336
78
-594
27
-162
345
-360
18
140
-230
123
-192
-4
89
288
143
-24
375
-207
-183
253
42
-219
156
211
-79
95
-161
206
-455
-221
4
209
138
-275
-31
195
-173
183
634
-756
-126
-61
267
-53
-46
77
-250
-362
10
-291
379
-477
32
32
-42
104
344
364
37
56
378
57
-233
-431
307
297
-60
-765
82
767
5
-3
72
266
-466
264
-59
-336
326
181
70
-337
-79
441
41
-198
284
319
-189
-206
-31
655
-378
109
-75
-679
-128
499
234
-86
-92
-351
-316
48
-75
-542
30
-238
94
-302
-211
263
-59
386
-395
261
530
130
-505
-224
88
111
622
316
-340
-21
102
-207
-76
68
-34
-61
-16
-20
-255
-29
93
-176
37
16
-224
-305
-325
9
482
-33
58
-102
-295
145
-254
551
150
-243
375
-96
-188
-216
92
363
268
-25
-10
-220
28
-199
264
-319
-60
203
-89
238
259
-52
367
203
90
395
-316
69
-389
-27
49
199
261
-41
64
-305
133
-305
39
45
84
-72
136
364
111
183
235
-94
-360
355
-309
-594
175
475
114
235
181
-306
58
65
-186
63
100
329
474
-262
-40
-310
-124
-761
272
-159
-194
-682
-55
-302
-225
611
-60
19
-519
-29
-172
157
-506
317
278
-82
607
-288
-20
529
123
-364
-288
286
-25
133
-203
-433
-11
258
29
134
-32
770
-202
-33
232
183
-73
246
-117
-241
8
504
43
215
260
-144
-163
372
72
520
-132
-198
-294
111
168
-201
321
-369
-384
225
-48
-137
-11
91
168
179
-676
-54
375
92
378
-2
-274
127
148
-409
228
-26
-380
-21
-122
-148
-315
-169
204
-335
169
-83
216
163
-190
-183
-27
-205
-48
1
452
-370
580
-269
88
-32
324
-853
-257
408
-251
-503
-61
89
24
245
20
227
593
-240
187
234
51
96
-67
238
49
-213
-39
-136
-118
538
310
529
-13
-186
409
233
-60
575
363
60
27
647
-342
-633
55
-659
-484
-291
-156
249
-83
-429
-92
349
-203
20
74
-248
533
276
-273
-562
-498
-5
-266
86
431
-82
-374
-138
-31
-120
-86
71
-397
-6
486
167
197
11
-431
54
-193
-284
98
-56
53
503
86
-163
-478
327
122
-323
461
-202
410
-621
251
-434
0
-227
148
120
133
415
-59
-360
45
-245
-83
361
14
201
191
-107
-98
-388
368
-29
143
-545
53
-179
347
263
-257
-88
-167
-317
-396
398
-431
301
-288
-88
414
-166
-400
260
26
57
-54
-5
-244
336
-41
-230
-44
118
-404
65
425
-74
-83
67
-88
-2
206
-105
-143
248
306
293
176
-547
-321
205
-164
-360
114
228
593
-205
2
240
-396
121
-154
-295
-40
102
-264
302
84
74
-114
-170
-144
58
296
-135
-360
491
86
18
-364
329
-321
-180
-70
294
-441
69
-152
-223
41
-61
68
48
-43
710
276
-232
-19
259
198
-11
16
-199
-74
617
12
129
490
-322
367
-54
101
119
821
-507
111
63
35
7
-134
80
269
-434
175
-70
19
-226
-269
-101
145
82
118
-395
324
163
-525
-77
88
-46
-6
-407
268
-380
-86
637
157
-63
-290
-16
172
-281
68
-21
591
-305
297
-225
-145
-148
489
-352
-5
332
577
57
-239
214
-8
-66
-235
28
-79
503
248
-289
-440
85
130
312
-173
-135
-87
-65
-196
-87
-621
34
404
-144
-205
16
-172
-142
6
415
259
110
18
-336
334
342
-57
49
-188
182
194
-10
576
64
121
-335
-18
208
144
180
-138
-18
-377
189
78
329
-45
-193
286
-253
316
-124
413
174
-74
-205
32
-401
-273
669
470
-304
-340
-104
-511
-84
378
-162
-424
168
412
135
184
-272
565
111
-188
-55
206
233
364
165
-128
166
338
-303
-336
-167
-143
-194
-139
330
-30
-579
392
-80
258
-85
-215
294
207
-76
-221
-151
154
-226
295
-19
-152
-233
-323
415
-42
60
-121
304
-255
-233
-341
239
132
115
-477
-666
-362
160
-307
-411
72
-67
-321
-194
-63
-497
-166
-409
166
4
112
-51
188
-219
63
-32
137
364
-440
60
117
-142
133
-157
3
-73
-193
-9
554
89
-249
38
295
306
111
90
-611
-164
220
-83
-83
-3
253
463
85
309
-225
28
199
195
191
146
-121
-402
-651
-81
126
-77
-408
54
-97
-356
28
-357
191
-54
-361
-39
103
-145
622
179
-278
-247
396
-54
-235
-327
364
-114
-308
-299
-221
261
308
-52
-176
-122
73
136
422
-13
201
-348
148
226
232
78
140
158
302
35
210
203
-870
171
294
246
65
26
-6
122
-493
-274
60
198
100
-3
104
-16
-7
33
179
42
-472
70
-159
250
-99
17
-688
-593
-141
-136
-79
195
-55
243
-207
325
-888
258
45
-55
-250
15
346
569
459
-80
510
23
-481
-302
483
-280
358
36
241
-61
28
45
392
-170
-414
-3
-207
119
308
-157
551
-892
399
266
-363
50
-39
-43
-337
303
284
502
-161
11
136
-447
-10
691
587
-277
-42
311
-178
-505
438
433
364
425
217
231
46
74
-37
79
-621
-46
8
-79
108
-237
403
57
-881
-60
-372
385
-236
42
245
-115
-36
435
-217
-55
-51
-270
78
-56
601
-204
201
-184
268
-162
23
541
-142
-218
-610
-461
-289
-326
78
-159
55
581
-254
-10
152
-176
-371
-480
-197
455
-65
416
-378
76
200
-191
35
-614
-168
383
115
-1
220
94
398
99
68
-131
409
-85
-144
-182
-365
343
-57
-235
-204
-369
-25
-42
-143
-452
2
340
-283
-168
137
-159
305
-377
-8
-7
-19
297
104
93
-13
-67
152
351
-55
-100
-154
41
217
-190
320
-113
118
44
106
538
350
148
-66
95
-201
-112
-301
-204
69
3
-199
-27
-98
-303
-190
829
42
412
88
32
-230
120
250
-137
-343
228
-137
-357
-58
-117
539
-5
218
-254
-130
-109
526
-225
-135
-3
46
250
-230
-609
30
473
-113
279
-498
27
35
-304
262
-399
36
248
-46
-32
-251
82
690
-350
-120
-198
-199
102
94
116
-513
-188
-65
-27
-238
-656
-54
-34
212
131
77
266
152
-250
109
-67
30
228
523
-60
-198
213
-180
580
-148
324
502
-2
303
376
66
-170
231
5
-204
182
101
89
257
-33
256
-129
48
326
-183
-556
-191
-381
140
187
669
171
-378
-500
-247
108
162
-448
348
162
-422
-464
193
-53
69
524
261
189
-185
-83
-484
46
-220
-42
253
243
1065
-145
142
-49
-527
312
206
692
-426
5
-209
220
-370
-101
185
-533
-328
19
116
302
-43
67
-50
-276
428
224
-323
67
-514
36
-46
97
-118
-143
388
-97
26
282
-69
-97
73
147
-174
-806
-469
-539
301
-269
202
234
323
-240
9
-197
246
195
-7
-334
-400
-82
-37
-394
416
296
-14
-62
153
312
-139
550
-434
776
-57
184
-334
157
-265
-46
25
-165
8
-399
-140
737
-64
328
-441
-227
-351
141
-215
144
-257
-535
42
301
-141
-210
252
1065
-298
-22
-133
-108
291
67
23
129
522
327
-279
-137
-452
-205
-147
-117
-56
-114
-88
327
237
-205
214
-439
-8
219
-479
-163
86
-357
-352
309
200
-128
-74
387
177
83
94
-1
-275
-281
-122
-695
-24
-65
292
-94
-111
190
162
-450
86
-309
251
158
104
-289
155
247
-120
90
-99
-164
158
110
-730
-291
329
-18
-175
-254
-42
-211
-443
-247
153
-56
367
108
-193
95
-281
387
-267
188
-59
-472
-317
-124
-269
-396
53
0
217
-31
-459
435
-223
-94
497
270
113
104
370
-134
-51
89
9
-477
-547
675
-487
137
57
42
507
598
-65
83
204
-47
53
-218
50
-97
-81
-236
258
59
91
-486
287
-238
-14
-55
-43
-317
-745
-294
-358
-270
350
657
-164
-327
-232
-116
-277
-196
-116
-24
-74
120
268
145
489
-71
364
89
-184
-159
-68
416
-142
-13
-296
741
-92
-171
-237
-398
292
-157
239
595
235
-435
-128
-248
622
61
-140
387
37
-31
84
132
112
9
1
-255
-215
597
-318
65
532
-150
-87
119
32
-42
-339
503
-195
146
485
-60
255
-526
-382
28
41
534
96
-305
198
-349
-162
849
-71
404
45
-347
-183
620
-20
-54
97
-209
907
-11
259
-283
-335
218
-240
-178
218
624
-392
-290
164
388
64
248
-520
191
100
-75
19
211
-109
-118
-91
172
-527
151
-866
-105
-210
-92
-86
-82
29
231
364
-263
-155
495
39
-396
52
-161
-274
18
50
242
-241
59
-20
164
-176
-199
-474
-12
-111
7
-428
415
-14
164
210
-121
-102
424
-20
71
-240
-561
111
-605
77
177
-4
-247
258
48
176
-63
27
218
-39
204
302
542
-191
120
-292
182
-264
-451
-40
-270
38
-389
454
-21
-42
43
-36
128
489
530
-421
-467
-747
-134
131
-90
259
114
443
-23
-29
-498
172
-39
-102
-2
-98
-134
76
-451
-223
-585
-639
146
-456
34
-4
-96
22
-150
499
-445
-338
-428
567
32
-315
359
-163
144
298
175
45
-153
-547
92
254
81
175
-55
-71
-131
100
286
-20
732
-418
5
-22
-400
-139
-173
-103
219
-71
-316
301
-105
22
-468
120
118
251
188
-223
64
-53
58
41
269
-138
-148
133
-157
230
-290
151
-12
-26
-163
-132
-60
190
159
116
99
219
-358
-314
-139
27
103
32
-122
-23
148
284
-91
-95
-366
32
-455
-350
-94
-424
-26
-248
313
-273
99
-135
122
-232
-9
379
-86
93
-361
-99
-157
91
102
-107
-227
-155
154
-8
-118
137
-172
382
344
188
2
-155
63
-149
306
-31
-512
54
-90
9
410
-266
-128
-34
121
512
390
-25
118
171
412
-124
167
-264
50
303
-69
-173
265
185
-252
-123
-319
48
-219
191
-5
40
-478
180
15
-218
63
-35
207
125
491
-322
-119
-10
-366
218
311
-170
-21
-156
113
-167
246
-91
-190
-251
68
188
301
-314
325
-18
42
244
-47
-149
-132
98
459
468
-273
16
-216
1
-108
-112
-38
314
-102
-288
-16
-44
-226
307
74
-216
-61
-310
-256
-178
324
-341
-92
-40
-342
-204
234
-116
-3
245
470
85
76
-112
116
-61
430
-277
142
-73
209
-62
80
-447
20
-244
-226
58
220
200
-73
-301
191
194
145
199
-335
29
-112
-129
6
72
156
149
-135
476
4
38
195
163
21
37
201
-121
382
57
-456
-90
16
-71
-157
-202
183
-423
-124
-164
175
-66
-397
27
72
-478
-195
-267
-332
-129
-453
-611
356
-197
117
319
-978
335
452
-139
-377
167
112
-496
-276
11
-237
188
-490
153
246
198
-60
-4
-114
165
37
-46
-836
499
416
-208
609
134
-218
85
186
314
646
35
-428
162
269
-164
-91
-298
706
-6
-70
-237
-509
200
83
-123
330
-339
-110
-267
427
-16
-445
-227
-455
-245
-374
-643
248
44
182
-489
-53
28
285
-347
73
-198
-5
674
-192
159
378
208
364
-183
-284
-358
9
440
-166
-100
-97
131
128
-520
171
-414
-249
417
-483
73
-52
85
213
-400
569
-263
-405
-190
72
-625
330
-361
437
29
487
-209
575
-802
-80
1164
208
6
-154
309
-434
-298
599
609
812
-459
78
198
-234
-371
438
-13
-346
-723
186
-26
131
221
26
546
217
-175
-240
-601
-348
48
417
-146
108
-139
-487
50
456
537
-109
281
-252
79
62
-618
-576
-337
73
-518
610
187
747
-15
-207
567
-467
-305
146
-23
-621
-111
-756
-677
458
306
-132
500
-744
83
-416
-260
147
480
532
94
288
-250
-682
-127
280
-289
157
-188
-360
213
275
-510
-5
-361
-56
-220
-287
-145
804
87
-390
-85
92
-5
350
-113
-15
344
496
-98
330
196
134
-149
36
701
213
391
194
-536
527
-829
-325
-124
-349
0
464
-296
-279
461
-107
-101
173
-45
89
-659
-30
-282
-31
-380
-357
25
-71
103
-353
66
412
-209
-592
-249
-189
-41
42
274
-356
-301
131
266
159
-22
-730
-665
-132
233
54
329
-180
-30
87
2
-292
-470
-199
73
276
44
-437
108
140
20
165
389
-252
-231
-283
205
-43
145
36
13
286
-230
181
-286
107
219
271
-58
111
-134
-9
-144
-82
45
-204
-147
361
-495
-36
109
-116
382
252
-224
148
233
-152
237
-313
-28
158
-20
196
23
377
502
81
60
387
272
-301
361
109
-183
52
63
275
-502
-89
482
-403
85
-45
-36
52
92
91
-142
48
-37
273
-570
-67
-337
-95
64
222
57
-453
529
-173
-578
34
-234
-139
348
244
-127
252
-270
-551
-339
188
484
-118
497
1087
-196
-365
-223
-90
-384
-183
-172
21
498
-216
-98
-39
151
369
-134
-40
180
288
-542
-250
-38
-224
255
301
-836
-34
288
-202
104
240
642
647
-314
-375
-308
100
-299
333
39
111
-212
526
-1
513
133
-144
355
29
-603
16
-396
199
-110
-263
135
117
39
-217
31
-33
247
-131
112
88
69
403
109
-68
206
-214
-113
-56
-384
-140
-236
-183
-95
228
-233
-391
68
-365
612
-288
-257
-248
263
6
365
192
-268
-77
-137
-81
-65
-401
420
117
-86
367
104
110
51
325
-141
-248
-68
-662
-21
-267
-50
-196
72
160
-118
-127
314
-1
228
-254
-324
237
-82
-395
128
-350
72
82
-23
-251
-276
92
90
-408
160
-300
83
303
42
94
-98
-197
-67
-47
402
13
-373
73
-725
57
88
310
-456
218
-214
170
-702
544
-7
254
-70
142
444
372
-162
-17
301
221
8
-362
169
-196
-196
197
426
-117
-416
-362
-137
-18
-99
156
-118
530
-62
-146
474
42
-218
-50
96
-288
35
402
154
-449
215
321
76
715
-310
-65
182
-261
-380
-270
278
-43
468
-593
340
215
-23
361
55
217
55
240
235
-129
-220
-209
683
-635
285
368
-418
593
17
317
-466
31
-175
-118
-291
-207
-116
49
114
180
-265
464
-436
562
-308
-123
-109
-151
-58
-50
-39
-888
-17
306
467
-76
5
212
144
104
108
47
-86
130
25
-57
33
10
156
-252
186
-97
-123
-228
-54
381
86
254
163
346
-341
107
-32
-279
353
-265
-95
542
-236
-74
-409
214
-124
116
147
66
-2
-359
253
-13
-218
-585
-262
-114
-118
-289
183
-43
141
-11
-76
155
-3
322
249
-78
181
-97
67
-881
-319
366
507
-24
-605
4
-728
-339
-638
-237
-63
-324
-115
65
-54
412
177
-250
169
-189
415
134
-583
-103
-19
-79
-121
-279
17
22
230
-258
-670
654
-149
-148
107
191
-275
17
480
-283
492
81
-258
671
-285
297
553
74
139
84
176
-297
419
-204
635
-131
-216
-90
29
63
-51
-487
37
43
97
-194
336
311
66
195
50
-297
315
-479
-572
11
555
-225
217
347
-393
396
258
-278
45
57
-184
-241
-414
417
223
-47
880
364
-211
384
-461
28
126
-571
-42
-203
301
-267
-670
-192
436
-414
484
-173
-81
79
-502
-31
-442
328
310
-471
-462
-268
115
234
208
-8
-370
234
-103
57
495
-278
-185
-143
378
-12
375
-212
-29
69
82
-389
128
-431
504
-614
261
-44
-226
72
410
166
-370
-32
-91
142
685
132
97
332
45
52
-91
305
17
94
-242
396
-62
-325
479
874
323
147
-34
-365
-106
142
21
20
-27
-206
-340
-115
84
87
-31
117
264
-433
-140
480
-504
-363
143
-130
183
238
132
335
320
67
69
-419
21
-134
109
-217
426
-21
-46
258
-303
268
-32
-25
368
-164
470
-117
179
-1
145
-669
209
-284
-117
179
-252
185
131
-109
332
20
596
28
-209
40
-693
263
80
-133
-428
529
-11
386
-182
277
287
424
-74
-120
-353
-355
-35
24
-153
-6
-218
-177
-62
-34
-296
65
-187
44
178
407
9
-401
-496
-328
177
-306
-200
160
196
222
147
348
67
35
91
-226
221
124
-450
-111
-253
161
-494
-295
-115
45
439
-75
25
-168
140
246
-14
-283
-178
10
-112
-55
-227
142
-69
308
-165
-90
-138
236
-287
-213
412
102
162
322
-297
-49
284
119
189
150
13
169
258
-107
62
-244
208
281
84
34
-258
23
-271
36
-48
405
84
100
70
-226
272
-59
55
-2
381
-518
113
20
-270
225
-1
-76
-330
350
381
154
224
118
3
-20
-40
-62
-135
-281
-467
-120
151
10
283
241
-200
-316
-145
-112
376
-504
-127
-66
416
139
224
-194
241
-675
121
66
291
439
120
-44
184
-229
-405
237
262
9
-159
473
193
80
66
59
223
441
604
-36
-293
-27
41
-155
380
176
531
-221
-47
-275
84
705
-301
-155
188
107
-82
562
-434
71
-110
97
597
102
-168
-25
-273
649
-138
52
332
-111
106
-69
487
-64
-426
-131
204
-239
-111
-192
108
90
-448
-586
-329
-2
185
250
-166
-359
118
122
90
-89
378
-585
-439
-14
-225
200
234
-5
472
268
-293
-486
722
-168
-208
450
73
-123
-158
139
-268
-178
-173
-131
253
257
-76
-111
-197
149
-276
-338
125
403
105
-184
-1058
209
411
267
5
-79
548
-220
308
-121
-52
14
208
118
411
-245
53
-224
-495
185
-604
397
416
-48
480
-125
-306
157
-13
74
-98
254
101
105
565
164
161
-37
358
-67
-631
277
186
-226
-169
-236
-812
-94
-57
414
-234
-103
-504
199
-32
-163
559
-93
-248
-156
591
-262
403
492
115
-250
-146
214
-729
409
-38
-33
-484
-176
-426
111
-48
-509
156
382
-280
161
-164
-337
301
-780
-34
202
372
-412
60
568
300
204
-75
-181
-31
57
-195
292
146
33
353
31
110
-45
-23
-346
427
56
-83
38
353
-334
63
1024
-43
-313
-125
122
90
67
388
-135
333
-429
216
316
-375
521
-207
380
-237
-62
208
64
160
257
-106
-172
-177
351
347
-296
221
188
82
-143
322
-237
-555
-62
134
84
12
-144
347
-154
10
398
296
-116
-340
190
-756
287
-122
-409
328
106
-156
141
457
81
-337
90
-45
227
-129
-136
285
-214
-127
-440
1
-211
262
-487
411
-100
-234
250
-324
-13
173
787
-21
513
-346
-502
448
-152
13
364
-75
-223
-353
-643
-289
-617
349
211
486
341
-539
-165
-183
75
549
-675
198
-535
-223
-414
100
294
-282
-407
-46
304
-144
390
508
-216
249
-211
269
-214
149
369
116
30
57
49
-243
-498
-90
665
132
-80
27
-152
58
-323
-112
75
-3
206
-247
222
-198
54
-157
230
-194
-72
-138
345
344
-45
-16
336
221
467
-16
-113
-56
-207
-236
89
-213
192
291
-428
-187
202
114
-60
100
428
12
597
137
-85
108
-202
-295
-127
418
102
173
218
-134
111
298
-401
-167
-293
122
-220
-122
224
45
-178
-149
-568
-282
-14
373
230
270
-295
-444
227
-189
610
-128
-26
85
-411
-28
428
-65
492
149
348
546
121
372
-152
-388
-587
-19
-201
-363
-151
-8
415
22
68
0
-292
-220
-236
-150
109
150
-293
-125
-413
-367
314
-318
255
607
120
208
116
52
-430
-100
497
-92
-905
-3
426
-138
-284
659
-337
478
240
-384
-425
-259
384
41
-17
-203
247
267
-216
-134
-205
213
-139
-392
298
137
-99
234
104
121
306
125
21
-76
-69
-35
183
-385
290
-435
131
-74
713
-246
1
-238
-346
-185
443
-140
-29
452
-331
-100
-117
-7
-280
329
-273
140
-59
26
270
-84
179
304
-200
249
-7
-45
43
43
-117
216
-99
-279
-203
28
-40
105
-38
-166
-317
-202
715
161
22
-16
333
328
-216
14
-130
556
272
-174
-221
203
698
-185
-53
294
-75
134
-347
-752
-144
83
476
-221
459
-177
-157
-69
-109
159
-235
185
-158
497
150
132
-28
77
1
112
-408
15
143
-342
499
-32
190
107
-237
-273
335
-11
-224
-164
-286
464
-234
265
235
70
-267
-54
-505
-113
-99
20
625
246
196
-21
113
-259
48
-43
387
-159
-251
-67
-510
-165
-29
-276
250
-53
-239
-80
84
95
-74
-236
161
-553
-93
-344
643
51
-22
70
-788
-261
-14
276
-29
3
300
3
-428
-265
652
50
221
227
201
253
604
-271
-146
-143
131
-686
70
-22
-91
-308
93
-189
90
-60
-3
-395
-5
201
139
-299
-460
-111
-13
-215
272
-190
402
149
48
-334
441
-155
-627
-7
-446
161
215
216
-209
263
-331
-121
331
-139
190
-79
-170
158
195
47
-329
190
-535
256
-44
-48
35
-563
374
369
496
-91
-103
-86
-252
-320
-79
165
236
38
45
-29
-273
484
-750
265
-86
28
-223
245
-208
-100
288
-207
-43
373
158
-533
232
-73
335
40
-97
88
-363
-21
425
83
110
-147
-136
-17
8
296
-34
-79
540
-259
-321
-47
-133
507
-531
-350
-276
166
-195
240
545
299
-265
-287
197
-40
-70
119
384
-117
97
264
136
-589
-436
-308
-132
228
-150
451
-187
124
134
255
-105
9
-13
-478
-165
352
120
-143
-251
-60
269
414
-292
302
129
162
87
531
162
133
-96
71
-206
181
-109
128
575
130
86
83
144
454
-166
-116
-27
-93
-251
270
-144
482
-57
-102
-356
-29
298
200
250
-59
252
-204
110
-728
-370
-103
-293
-140
-103
14
50
-314
-170
222
-184
-392
826
-424
196
-302
640
-396
-190
-35
-260
-249
-192
-95
57
-178
165
-503
40
-299
-110
-360
35
-11
-269
-260
623
-548
302
-729
297
-225
146
456
115
563
460
539
79
-318
-34
87
31
-293
70
-597
183
440
436
275
340
-427
77
532
233
375
248
204
34
81
264
271
161
238
37
20
-300
-558
-552
-258
360
224
372
-17
97
263
17
334
-26
298
551
225
497
43
-264
-222
352
-241
-78
-103
-307
13
287
-549
-179
328
-154
-11
-181
-428
123
170
567
-335
-220
234
-134
119
187
363
71
-267
64
124
172
-116
-613
314
-222
72
178
-505
-268
-60
117
-161
60
-240
248
-111
112
-363
-387
-207
-369
172
-253
140
-506
3
-71
-13
-366
105
-334
301
-141
95
-117
110
-300
424
439
614
400
-99
-59
214
437
-289
-156
64
232
342
141
633
227
285
-636
391
286
-318
-573
-373
-348
174
195
420
-610
148
82
151
-43
-154
389
-82
291
-76
-374
329
-100
141
98
142
-217
250
-131
-11
-250
-22
320
-445
18
-197
-107
-234
100
-243
-235
-207
613
-89
-268
282
-68
230
86
-264
275
33
359
-130
401
-464
14
77
-118
-211
54
132
146
465
-131
7
-487
-178
-102
59
-125
566
146
141
-260
-23
-195
191
-255
-115
433
364
-316
-67
334
-92
43
-359
-237
238
224
-259
49
-430
-137
-378
-233
-331
161
-28
-34
18
145
7
-245
138
-307
309
489
-529
-4
119
-71
-243
19
-653
343
-79
-52
102
266
638
332
335
-396
-4
-400
517
-384
39
-65
27
-91
-356
752
2
-373
153
156
508
38
-132
186
321
-242
-600
-481
250
-38
-598
151
117
349
-215
-33
-330
34
147
4
623
28
-406
344
390
-56
179
-266
-150
354
-653
-141
-183
-354
-293
765
-528
-144
-231
-314
-523
-84
37
-217
-61
-104
159
447
-278
260
141
444
-75
60
-302
230
40
119
-260
-20
-75
159
-156
266
893
432
-23
351
-181
-224
-297
-61
-108
401
383
-161
525
771
82
-44
106
31
-245
-255
57
-211
-127
315
-119
-444
-535
-119
-338
-409
426
-373
8
-120
-6
214
-158
304
-154
-180
511
145
-244
310
-159
43
-285
407
635
208
40
212
-307
-77
128
-237
-2
-215
-176
337
-15
49
79
-80
366
-243
271
-183
-143
455
44
563
-69
-589
283
-624
46
59
168
-366
-284
-114
-209
209
215
-346
111
259
452
654
-190
101
-321
-24
147
30
-689
-729
205
319
-100
23
127
-187
-303
-389
-8
-8
-94
213
-80
-278
-64
453
-225
-3
-546
-642
519
-587
-180
53
45
94
-363
131
439
202
29
-15
-198
-49
-549
-248
277
142
-33
99
-209
-54
-586
-157
-227
-375
-62
-209
51
393
495
-21
-351
5
280
195
206
1
-337
-149
116
434
-226
552
-120
94
70
-402
207
151
-200
-262
119
-101
124
-225
208
129
-182
-220
59
-372
-272
64
-40
-2
403
84
189
38
-125
-64
704
168
111
-170
-347
350
-416
-102
-491
289
-97
-302
231
-31
62
132
186
32
-30
14
102
-768
-231
267
-54
-355
-129
-518
481
-14
-307
49
567
624
30
-309
-252
2
106
-343
-271
848
175
37
160
258
44
97
386
-225
-244
-207
-271
-242
125
390
133
-372
-693
189
-152
-99
-99
-58
-127
65
-91
34
-450
164
368
-85
-139
188
-243
-243
378
61
-245
255
-215
211
-667
253
25
-360
-47
3
-299
-502
470
-429
-363
47
62
-153
206
554
-132
-7
359
57
-168
231
29
-306
-33
31
-455
-216
-132
79
223
-98
56
252
-57
-129
-469
-102
231
46
74
-15
-241
-444
-20
336
273
333
35
513
324
-402
607
342
-321
-249
224
38
-275
-186
-65
238
-132
112
143
123
-449
256
3
26
62
1
28
604
340
-61
-132
-212
-65
168
45
203
168
-183
125
-204
-202
36
-116
279
-186
-480
175
-125
418
-363
-83
-59
-232
-82
-110
-255
115
-197
19
-182
-299
-115
307
13
288
70
334
4
-128
-275
-596
312
213
-149
-463
578
545
48
510
-85
57
591
-430
109
-85
225
-257
169
-618
-21
392
-155
90
181
30
23
-267
291
-676
131
-127
3
-232
255
-207
-347
12
122
156
-67
-128
361
508
21
60
322
-431
-58
169
-14
-340
-62
129
160
313
-400
17
237
62
-349
-339
423
103
-135
-86
139
-264
22
-144
-2
150
41
916
-29
-116
291
106
-60
47
-313
393
131
-22
503
428
-76
-394
-379
-311
759
-46
-175
-196
-68
-110
464
95
156
531
255
-797
5
-242
254
-609
6
263
-145
111
383
118
-318
-103
-127
206
527
-313
65
567
-578
-319
61
107
-306
29
-198
-322
335
-232
-311
-558
97
289
-73
67
-205
86
108
-233
83
130
-124
-233
283
-83
210
-105
-24
-543
50
114
-50
-271
-94
495
-303
-201
368
278
-212
-14
-205
-369
-372
-74
-290
-33
12
-380
-129
-97
5
89
61
403
149
539
72
-14
1
-290
168
-455
-203
210
198
-479
269
-66
348
-23
250
-45
446
354
-569
205
-213
102
-90
429
66
383
-155
-103
-85
7
-109
-32
-265
-1
-324
-116
-551
-166
227
-92
-40
-132
-230
122
-247
-5
17
-238
228
262
4
-181
-172
-111
-7
614
-351
-197
389
-4
250
561
-202
-303
-186
48
-247
6
-42
36
-37
-128
-207
-95
13
-211
275
147
-416
277
-104
-163
57
326
-62
-258
-219
-366
-284
48
234
-75
-384
542
273
-22
-570
-138
-50
170
-198
-218
181
130
-77
72
-192
-13
2
63
-186
298
174
483
-125
477
119
406
-110
-219
459
278
-286
-62
-590
-364
-387
-110
287
-326
431
-34
118
-195
-275
123
243
-340
83
-90
-238
-172
244
-204
441
-367
619
368
-205
492
-171
249
-349
-47
-496
-153
193
-479
-477
300
112
-205
42
-362
904
345
-42
-100
185
-203
67
-86
76
665
-163
62
107
81
-358
-157
-193
167
186
344
-532
60
778
-395
-466
156
-23
96
-210
-781
-925
19
-43
58
339
-16
144
-86
792
-722
-104
-640
257
-185
132
296
-159
-204
-133
-247
335
298
220
481
-332
-195
199
377
318
-15
-93
6
195
-537
93
-379
27
-111
-418
275
458
-395
-144
209
-368
-129
-170
56
-104
-187
-165
-68
49
25
-184
-102
-367
-16
221
-482
-68
56
22
97
433
-197
398
172
-200
338
-87
-164
200
189
-441
32
220
-438
-268
443
-132
-28
-235
641
-184
86
-223
-111
233
-218
-172
-142
68
-339
-180
328
434
310
66
-68
-275
-3
-107
-194
285
549
204
-363
-594
602
-248
250
-793
-345
-56
-139
-615
-378
338
36
-277
-257
299
285
-126
-651
-1
-19
79
178
142
430
-146
169
-112
52
131
170
321
204
-98
-67
612
-172
-822
139
-73
538
-276
57
-147
-61
-101
-39
320
-368
-797
-522
-690
63
288
210
201
-25
-119
-262
-248
-21
-178
270
-258
398
-57
-31
268
-58
-75
343
-353
243
233
251
409
121
-596
502
-14
-375
73
152
-405
759
-17
222
-167
-210
372
151
82
126
555
330
-578
-666
465
54
309
-406
-345
-303
79
-405
-130
-196
-191
98
421
-463
-195
295
-99
208
181
489
-267
127
154
-337
352
-126
19
46
-48
-276
373
327
361
-26
-38
144
377
-189
320
-295
-8
338
-348
141
374
37
-252
164
438
-85
-46
-122
524
195
-426
-60
-406
213
-84
535
-128
-406
-418
-66
202
-126
-79
85
-140
-6
-73
150
81
198
297
-345
138
-177
-131
72
-349
175
-283
142
296
-14
-43
-41
130
410
266
173
-30
-177
-176
207
-120
-112
-144
364
57
-29
142
-81
-250
-249
-134
156
-60
-59
-227
-485
-203
102
-344
-407
355
0
320
-138
110
115
356
98
-5
107
327
214
172
285
-487
501
-587
-555
-16
-139
-730
133
-34
-157
494
152
-586
75
-189
-208
99
-231
-186
313
-270
264
-182
-364
102
262
-149
-173
362
-106
-14
-194
-14
192
-147
-98
295
-486
366
494
-73
328
337
-239
-40
-140
-178
-213
-283
-384
321
-268
141
-115
185
-368
276
-108
-177
-367
-87
32
185
-12
-239
-114
-44
-26
142
-186
79
79
-53
57
288
-94
43
-458
56
-50
-354
191
-216
320
-176
-113
-224
91
-304
-428
-108
-66
36
91
231
170
-65
-98
114
80
195
263
151
156
198
-172
41
-264
603
-487
57
-396
-203
282
-386
189
-27
423
326
-700
-146
54
100
97
88
-92
-1
70
219
-84
-132
353
531
667
-235
56
413
-206
82
-205
274
-172
141
-234
90
-13
69
366
99
-76
-131
-206
-132
119
-53
-1
255
194
66
-161
126
-156
-90
-357
320
73
106
-283
-236
-141
-37
-173
386
579
86
-38
391
-118
-10
-140
-347
52
-201
174
-288
-69
-35
312
224
96
-77
270
-71
434
338
-203
-24
-170
-14
-79
-412
-467
-217
-54
-19
-262
-261
205
-370
-221
469
151
145
-126
-356
359
250
-18
-217
-572
224
263
277
-220
-327
-93
-319
9
-33
-178
-467
-386
-248
41
109
-310
-111
582
14
-219
333
-86
-80
231
465
-54
197
156
133
154
100
-717
253
-241
-304
-213
-171
-138
22
-278
51
157
359
13
75
-379
-215
-497
-28
-98
141
102
-360
-143
-108
419
74
202
-236
81
58
-51
-95
-399
-338
-13
-89
395
5
76
64
241
269
-278
275
377
569
210
-229
312
295
-429
-450
24
104
207
87
-31
196
96
-370
91
239
-47
116
-217
-126
-32
-109
98
203
89
-415
110
404
-107
27
-524
-546
-641
967
-485
395
42
-605
235
77
-80
169
86
-117
-944
364
-58
7
-349
-590
187
416
-52
67
-8
350
-398
236
263
18
-872
138
-59
-245
520
213
668
-236
363
287
341
-417
0
252
79
-434
-128
243
-27
-394
712
-684
85
473
231
-151
-327
-209
150
262
-53
276
407
-313
-407
62
-299
35
214
-289
-115
-345
111
77
117
76
-302
223
-130
382
352
205
453
376
41
83
293
-210
-316
3
157
-128
224
197
75
263
-169
338
-128
277
254
-313
137
68
519
181
-5
424
-289
-2
213
188
-563
-32
-485
774
-109
-173
-123
128
5
81
-18
34
-333
172
16
-74
469
129
-138
109
41
110
13
-95
-328
134
-58
-488
16
-221
334
-75
292
-304
-249
342
-15
3
129
120
-113
63
-202
383
-582
-493
385
-264
-293
211
470
-439
-95
-4
312
510
83
-420
292
387
-311
60
2
-568
53
182
-186
-73
131
-107
-242
350
226
226
-320
250
294
-103
-409
-374
-62
35
203
11
68
-180
41
230
-407
-460
4
32
-246
-284
189
437
25
-254
143
-189
15
-123
205
-208
358
275
-27
-233
492
-264
-12
318
-136
-7
149
-229
181
373
-243
-65
75
56
94
98
-197
-303
84
230
99
-43
-275
319
-120
-114
167
-64
-457
263
62
711
-6
46
495
241
406
-371
-4
-232
-40
288
652
-146
-76
-566
-557
-26
-56
665
-296
-404
183
440
-451
-430
-847
-167
-295
364
9
-231
256
134
143
-44
-353
-22
9
-149
117
-321
-50
236
104
-397
121
347
83
-446
-92
96
324
-484
-65
-178
52
-347
94
187
-23
263
186
-39
-294
213
-246
-192
-22
111
178
-69
353
-682
-374
-153
-3
281
-367
107
-304
260
158
-107
-175
-152
-89
439
324
327
607
6
305
-439
-315
140
-312
-79
-296
182
-89
-251
231
185
52
-37
-259
87
-348
128
-104
-183
88
112
-69
-260
-180
-62
346
307
-57
160
48
-498
-366
-124
1
-254
-429
-70
-353
57
24
109
-16
-233
341
-235
286
-145
327
-236
15
-86
-241
-107
125
101
-320
-341
123
-266
-210
199
-383
-169
101
-181
225
-111
171
-91
10
45
151
162
148
300
-88
-194
190
428
-500
96
60
-43
-98
181
-410
34
-86
240
-611
450
280
49
182
40
-57
311
142
342
186
-369
102
-105
-495
-810
-74
210
216
52
40
-230
52
163
-153
-29
251
326
100
97
-31
-279
-282
112
-58
-275
-617
85
-126
-83
128
251
-165
154
137
-173
16
147
-521
42
-159
346
361
-48
189
254
-498
188
499
-226
-123
-334
-287
-402
477
-39
-78
130
111
-1
11
325
16
226
281
348
-254
-162
111
-295
-395
-427
-3
300
-334
272
238
243
-37
-59
-442
-4
139
378
6
-19
335
321
11
795
195
390
-141
-233
427
-287
-345
-73
-468
182
-179
294
126
180
238
-384
-440
-84
-55
-717
410
82
-43
166
-223
-16
-214
632
495
-36
49
115
-242
-107
-57
-302
-180
-269
20
-149
336
193
-270
-822
35
-3
606
-410
-204
340
-160
-475
-550
92
156
-569
284
-156
-181
271
63
-345
214
346
703
-619
-330
-313
-118
-159
319
180
489
356
388
12
-88
689
-346
-555
-29
-209
-447
156
-5
180
181
255
-131
160
356
-372
620
-406
6
360
239
-85
-215
-47
-82
190
-159
98
483
56
-347
56
283
-102
-531
179
169
-78
-71
254
-549
-253
382
-92
-472
-355
-148
123
129
394
197
-232
317
165
473
328
34
-147
143
107
78
88
95
130
-132
-170
8
55
1
314
-491
-449
123
-66
305
134
106
22
-373
-312
-192
-168
109
159
-278
-192
-285
380
465
405
-401
488
4
-301
90
201
127
-94
108
-365
49
401
241
-64
-28
-14
350
10
449
-327
23
-265
-164
159
509
277
289
-192
198
101
585
-41
-125
-30
433
88
292
76
161
-85
66
64
-246
-558
-60
-122
-84
167
-304
146
-203
-41
191
95
-310
-32
-370
-115
98
-426
134
-532
-305
119
81
-24
-301
-242
60
293
-396
298
-50
79
235
417
-394
168
111
400
-319
176
-89
-132
108
82
71
-442
-252
-198
-522
-39
203
-225
-389
-165
253
-72
147
169
-136
249
343
-212
-284
125
165
-294
197
-286
505
-18
286
-51
127
326
82
159
418
-165
-28
134
-386
480
11
150
-39
-479
-717
-202
63
215
245
-132
-230
758
-209
157
103
11
353
338
220
86
-377
81
-80
-358
144
122
172
177
-56
203
-212
-284
87
-870
-202
92
60
-274
-117
169
230
165
-36
170
-10
-76
-150
434
132
211
-480
44
263
391
-74
182
-139
350
9
-197
-9
210
-342
39
483
-114
-288
254
59
55
-278
-22
-237
146
189
193
429
-431
-15
399
-332
-136
578
-181
54
296
85
-97
-272
-326
-185
130
7
199
399
97
337
179
-22
-180
102
-337
-26
104
-310
168
-248
-103
-172
32
-94
169
-479
50
-39
8
26
-161
74
52
250
-281
311
65
-76
-173
305
-326
-171
-457
50
-469
195
-67
-210
326
-124
-693
-306
-138
399
217
257
-14
-303
343
259
64
-233
-136
165
46
265
119
84
-350
-153
344
-160
315
12
-75
-214
-302
-205
-208
128
112
-76
456
217
438
45
-270
32
-78
114
-57
98
-424
-94
7
-71
-52
113
629
-464
-311
610
-77
-232
-440
6
184
-67
-448
463
482
383
53
-471
-583
-758
-66
464
22
-97
409
-33
-165
222
514
343
-272
192
-114
76
-84
624
-98
321
-426
-306
270
-144
-75
-32
-5
467
-233
-280
264
-530
-1225
116
-96
-60
277
137
378
122
322
-417
357
-283
-197
-265
482
-62
310
-199
206
438
278
-567
559
-588
17
128
284
-162
-192
-632
245
-804
317
-44
483
-140
-151
-184
-45
-620
160
-149
-43
-147
-349
-416
329
-87
-610
-21
25
-238
350
868
58
359
-89
-263
-287
61
-195
180
-62
131
-269
-33
246
-159
-98
-409
179
-53
478
-142
367
2
71
83
-71
-19
-172
-256
-58
-376
479
122
18
678
-440
-219
5
25
295
113
-165
-18
-198
49
279
-180
887
96
-142
-148
233
129
-181
-82
408
-93
382
308
-350
-3
-329
-221
-171
-2
-218
50
170
-558
-115
125
375
-258
-254
-75
350
-20
-75
-334
41
-781
71
-398
174
-315
158
-35
563
-186
323
617
602
14
292
148
-132
-68
73
-405
-2
-305
171
196
112
-492
150
357
240
-80
-152
-291
-117
111
-86
131
31
-414
-35
142
266
73
83
431
192
-167
-354
143
-95
-698
46
-115
51
-131
40
-122
-394
-340
10
-235
-36
162
288
-73
-246
37
-275
6
-30
-16
101
-308
380
-49
166
255
-395
-158
-246
161
38
361
-352
-168
-111
150
-81
407
-258
-454
164
-452
-296
-50
265
-464
-387
387
-308
-159
-234
233
205
-17
-358
206
229
-185
-41
6
-73
185
-121
137
86
207
-14
162
-12
50
161
-374
37
118
392
-315
418
-212
-201
-316
262
166
63
138
41
-218
-99
67
-136
239
-26
558
-143
64
-72
-320
207
-50
221
177
342
118
50
133
-459
-85
-54
10
521
252
110
-32
-281
150
20
-155
-478
209
512
41
154
158
-255
227
424
-71
159
-302
-599
-487
176
24
-119
-254
-124
-543
180
-86
-125
-105
275
-166
47
246
-221
72
-178
-148
-228
67
106
-573
159
-574
296
-201
33
-16
-105
117
-201
-216
-219
112
405
-188
161
217
-49
283
282
-30
-333
-228
-366
-369
-203
-151
-453
288
-315
-41
94
313
179
-482
-132
-159
445
563
-167
133
-555
-19
137
-198
127
-7
-29
-48
210
-39
32
-229
-309
-237
132
-232
-336
-190
546
204
-561
96
-39
85
-53
172
164
-1
261
-548
203
-100
-624
448
-570
-199
190
-122
-43
115
617
562
-360
-101
-250
-210
-113
303
168
-61
-100
118
-119
-162
106
-67
35
-65
441
198
-200
-304
-167
-239
336
-520
232
61
3
111
-131
124
27
-62
-224
-81
482
204
296
191
-693
-691
-465
521
-358
-240
-53
125
115
-173
-514
126
-269
257
-129
1108
-219
494
491
-195
-220
321
90
38
-108
-79
87
243
313
83
17
-335
35
126
276
210
-415
137
-133
146
522
-122
375
-176
167
30
20
-175
304
470
-301
-3
121
315
-261
12
-106
187
-172
116
112
-221
19
146
-101
-156
-81
382
-107
276
-258
382
-322
21
-48
254
-146
181
12
-103
223
-76
-112
648
80
-171
-173
420
-33
-25
-185
196
-1
455
-640
-558
429
291
-402
-10
-689
714
277
223
-22
-265
187
19
542
30
-32
-280
-77
175
-32
370
-433
-233
-238
-312
-6
-112
-773
302
-354
-272
89
-207
78
-99
-35
391
365
424
24
257
-271
-64
-221
-149
-7
-341
328
3
-120
-982
-97
-39
271
234
54
-142
-222
-247
-434
-237
-291
-248
260
150
889
320
-473
799
6
-577
499
-164
-114
62
-216
-1
816
-445
-677
-197
308
-219
164
-43
505
-220
359
-117
409
-354
329
-176
-85
-211
863
138
-255
406
-200
156
852
296
228
-284
-314
-250
-102
-232
-140
-136
40
-296
-140
-95
-79
139
297
-200
-185
122
144
-37
23
160
-386
-118
-15
-26
330
96
418
-149
33
-290
88
155
-13
263
-132
381
-210
-82
-302
-177
189
-264
67
-93
96
152
217
71
388
-23
139
-471
118
-50
-198
-88
-286
32
-182
68
22
-221
-233
343
99
270
-96
-825
-65
-232
124
51
593
-137
178
9
321
137
186
-193
-177
87
30
227
-309
-198
-4
383
-64
-27
227
-283
-161
179
8
85
108
289
172
195
-309
153
321
-23
-485
-32
126
-60
-296
330
-89
205
-31
-45
84
23
-213
376
157
-11
-36
-136
-236
-243
-59
-159
193
-134
-469
14
-195
70
-258
-209
-137
131
38
319
-54
-176
-186
343
149
77
540
191
177
455
-63
88
462
-471
22
242
492
-70
463
-79
-621
80
166
171
104
-500
229
47
-228
324
-595
-67
-37
82
-2
37
-180
-132
-314
73
117
-445
-287
206
-151
-179
-42
-106
-109
673
-572
-38
61
404
442
50
-117
204
324
88
289
297
283
539
-261
626
320
-143
-134
-414
-26
-471
545
-189
221
-385
43
-193
270
258
254
308
-78
74
109
179
-130
-362
26
301
-410
-736
-592
378
70
-193
165
-409
-216
-247
-531
152
143
-119
-444
-180
651
447
-296
-240
361
-127
179
84
-252
525
139
459
-42
-345
-792
568
128
-518
48
399
-47
462
82
616
287
-64
-264
-211
-539
-292
35
-151
-438
14
-584
-147
187
131
-170
522
108
-280
391
-175
578
292
-431
-326
-11
-102
-172
120
-158
644
8
44
-273
399
274
62
239
119
107
99
-409
-111
-212
89
217
400
94
158
167
92
-121
261
-206
43
-117
367
21
-455
110
5
71
142
-577
-260
367
193
59
-54
278
339
-198
427
-472
-11
-269
25
249
250
-240
138
-207
-137
42
-257
-41
-93
-65
204
124
207
-45
-506
150
-166
96
-109
318
-36
133
32
-414
500
-335
20
253
150
178
-40
-222
-304
4
496
12
-589
-95
196
238
-154
148
3
-144
298
218
-23
155
368
-26
416
-180
-411
-75
-254
70
-133
175
-21
186
208
-279
-31
146
-170
72
271
385
-256
-374
65
-152
-187
58
-485
111
143
-238
182
829
110
294
-17
4
-381
-705
117
219
354
-109
849
23
-310
-125
-101
-116
177
126
-327
536
-70
2
150
173
-159
110
-23
39
282
38
294
-125
194
-358
-179
177
-1
410
178
401
81
-73
597
-193
345
56
-189
134
234
81
449
687
-116
201
-128
-72
67
203
495
369
-287
-152
-336
-92
-556
321
-28
609
25
186
651
60
-1
-319
-91
-268
354
121
-288
326
167
305
133
136
-155
180
370
347
488
-974
445
-135
-577
-34
230
-631
105
163
-98
-843
-111
194
575
-365
244
352
-161
-25
-66
166
-88
33
340
287
-168
396
449
121
-486
118
169
234
51
-89
-202
-128
13
-418
75
-52
-86
-489
-370
71
-325
106
216
124
-108
59
-241
315
-149
-295
-139
-128
-214
31
169
341
-202
249
-59
-29
425
-709
172
-169
220
266
34
118
399
331
-134
430
348
156
-255
492
-298
-232
-397
319
97
-236
-346
51
385
-359
-213
159
243
512
-350
-789
206
-25
25
168
-223
-62
326
-264
17
188
90
211
102
125
62
93
499
-290
-352
765
88
-304
635
-555
206
-309
-41
373
145
-721
235
-64
-35
-103
-157
78
241
-37
-498
51
-210
576
-407
621
-307
370
-269
447
433
-299
-6
-261
-321
-282
-120
-51
-413
-175
379
50
10
287
666
611
373
-35
165
-150
-251
-654
-101
-94
-123
-411
177
-146
40
-346
306
211
-126
-9
455
395
87
-199
-363
69
-226
64
-90
-209
105
-218
-208
462
-263
295
145
64
228
231
-28
-392
-329
231
53
493
44
-254
310
14
-332
-131
-144
-183
-18
-79
9
-274
-242
-144
-278
685
-187
299
-1
236
-366
-74
286
502
-266
128
302
-502
-344
175
241
-111
123
-175
-195
63
440
-314
-477
-54
-186
172
138
-112
-86
94
208
-487
250
-17
-187
867
-23
-375
299
225
-158
75
55
69
-34
365
-39
-461
-398
21
-651
-230
-509
-1
179
123
22
339
113
-367
229
-9
203
-347
240
-347
242
196
-135
-212
346
218
609
180
100
206
203
-198
-168
-180
-131
194
-70
72
-143
27
90
-1
171
-382
327
100
-458
-382
456
-61
83
550
-586
407
400
387
-108
-114
575
-70
-54
171
-12
92
-232
-53
-153
-218
19
-794
46
297
47
215
-56
222
439
-393
-473
337
503
-418
-56
190
-45
108
-101
-349
-158
116
21
-510
162
-296
-27
91
-228
-31
368
-169
3
-135
284
-525
43
-343
-94
155
375
-24
243
-40
-452
15
-229
-15
168
-114
-250
-303
-92
282
-198
150
311
-385
94
-124
-3
-152
144
-148
194
129
-61
-342
-160
-36
-132
-170
510
-237
93
53
-56
452
48
31
285
330
-197
134
478
-9
-194
-331
262
211
115
-146
270
-387
-265
-269
152
-73
-151
-274
363
162
697
-358
-402
310
614
404
-246
534
263
-61
325
-270
-21
-75
-156
-78
151
2
100
55
162
195
-58
-127
-497
-72
80
-31
42
51
90
206
-122
-109
-348
-447
-31
-107
-472
146
279
111
-12
-162
-585
407
72
-78
-52
263
-41
-294
147
-50
144
242
500
-1
-32
-290
178
-230
-21
175
-106
-144
173
355
-67
430
-67
76
34
-120
48
-172
-31
19
-6
-204
122
115
-94
70
-41
280
288
704
489
-663
538
-77
40
381
146
-108
721
-250
-48
151
-314
40
420
-85
183
-261
216
231
66
95
-36
-113
-253
317
-177
-286
479
121
216
-435
-105
274
245
-563
-420
843
-38
59
-530
-72
127
-87
531
-282
-273
-405
132
287
-263
29
-148
-137
85
300
-358
-342
-420
-54
515
805
-653
50
16
-420
-284
678
-70
55
452
-332
-369
502
128
-66
484
-117
397
179
440
67
-144
-736
-45
264
31
-370
50
-428
149
381
86
87
-207
261
-740
239
38
-240
-351
674
-149
46
-248
36
-254
-157
-398
-449
47
85
-463
-352
-279
233
-163
-101
0
213
-3
-128
-329
407
133
-70
-255
290
-533
-597
-317
-370
132
16
95
64
-123
-227
-397
404
232
160
477
-232
-157
423
260
211
-218
-243
-119
-359
8
-218
-340
89
-76
-418
-82
-325
-139
-139
687
-498
205
-103
-175
537
-147
71
-157
32
-173
351
287
-237
503
70
93
41
178
458
-147
375
-223
-346
10
62
-126
-374
-193
-153
283
-177
144
15
231
-116
74
125
506
-192
-492
-338
-122
388
279
35
323
-150
-28
-182
-115
132
131
85
288
-318
313
24
-122
189
368
-95
173
180
-192
16
-62
39
-43
29
-41
-16
-217
100
105
-474
-66
-190
-144
-157
553
152
-85
-180
256
38
203
-145
171
-2
129
304
-402
-150
-133
85
169
-50
628
131
-233
143
43
-156
180
394
242
397
132
-474
-261
-380
25
359
124
-413
-7
-408
-88
93
337
-203
111
247
595
-344
416
459
-359
-727
-89
-86
-595
110
-133
-305
651
151
-292
39
-442
170
13
-176
-125
203
388
-82
-157
200
-164
-414
198
-544
316
102
-62
-527
131
38
228
432
531
-486
-234
-219
-206
-260
-438
-167
189
-274
195
58
120
421
405
22
-286
259
376
357
338
-38
334
460
-122
-421
-109
189
269
-183
-348
89
-562
76
256
-219
-6
-268
195
79
-209
-195
-301
-100
378
239
478
-483
-636
402
-197
-215
-104
-177
281
247
84
148
-150
549
410
-6
135
314
-22
196
-495
275
-46
-465
213
-709
196
508
-462
104
255
-798
-405
-462
-67
-21
122
-353
731
-153
515
137
309
550
412
893
530
-108
-310
67
-299
164
180
-110
-565
-315
-394
18
-84
-268
-50
113
267
-199
-565
-77
1034
275
80
-283
22
-629
-148
729
50
174
-560
-53
-99
-44
-73
29
437
-133
-465
77
-197
-362
335
-72
272
-407
78
154
-333
-164
49
303
186
-302
-222
-78
-822
273
68
237
-150
-430
35
134
90
-46
178
-256
-208
235
193
-24
96
200
238
275
-478
206
-230
116
296
-255
-454
76
-345
-112
224
-35
210
-88
89
351
132
402
194
124
-125
51
743
-119
-134
-41
-351
48
115
-135
-47
-427
8
-62
-90
-312
209
-47
38
-397
408
-219
-204
-470
230
543
-277
65
237
-118
104
238
433
-180
127
-172
176
158
36
-3
-301
-203
-475
224
26
-163
70
-163
661
354
-522
-232
-401
-209
147
175
-66
456
-68
336
-8
373
172
172
83
-54
293
-164
-127
-157
52
58
158
-342
-125
7
321
111
-58
-24
245
-208
-444
43
-58
-241
420
147
231
72
-108
-481
524
-376
34
279
-215
514
-146
-74
-218
139
546
-24
-96
203
-154
24
-10
-14
-255
-335
-205
-247
8
-19
-81
40
259
-49
-38
166
-259
154
-303
-92
59
278
442
24
975
10
-398
-55
70
182
-438
208
464
228
-479
-652
-44
-3
-30
525
263
149
314
-129
-669
244
-56
86
173
-475
377
-190
-607
-337
42
-201
-44
223
-215
495
-531
245
-120
289
-4
-173
637
-370
440
97
-48
-367
-883
263
630
227
296
-178
299
-266
-225
-48
165
-551
170
-338
-161
-203
-674
-227
216
119
-802
207
-81
-45
82
339
-525
34
89
79
-15
-50
-10
223
331
-129
291
164
365
69
-42
170
93
-554
-70
-132
-306
-49
461
-532
-232
-277
20
-75
264
137
185
147
-18
319
75
-256
-417
651
-116
-32
-166
-54
-170
279
-218
97
-419
-13
253
-51
52
119
104
179
-55
-276
240
212
352
179
33
178
248
-561
-26
-170
170
296
-151
292
-181
-7
147
30
15
-225
32
-187
142
26
-99
-52
383
-390
-75
-232
171
718
-557
-539
208
38
492
-517
-105
-326
221
-74
212
-207
417
-243
109
-168
268
-28
-117
121
-355
1
80
427
-134
-282
155
-74
177
562
258
-822
-152
-28
-69
-37
-106
-160
368
301
-244
190
172
133
-146
177
-230
420
-47
475
326
-372
-275
220
314
2
76
17
177
74
-164
-428
-411
-105
7
235
-219
-99
10
259
135
-18
136
-130
-71
-304
5
371
194
59
35
178
244
390
-153
-157
-18
385
-207
-158
35
537
-28
-206
246
87
-424
206
-125
179
291
-485
509
55
-58
448
299
-121
-21
-20
-92
651
219
-196
460
505
218
-6
536
-849
329
256
110
358
679
89
292
-398
-36
-329
-165
118
19
-98
582
-139
344
203
-466
-124
197
-985
-43
463
221
-117
188
116
-567
-137
-394
-163
552
171
201
245
331
428
13
-161
-146
-327
5
526
-247
398
137
-88
102
563
0
-77
195
140
-238
-59
151
-362
36
-161
185
-508
-267
103
51
-104
-301
-174
112
323
-121
-292
-74
90
-93
290
61
227
-24
145
48
81
15
-225
361
-228
86
-733
165
229
-142
-338
564
-116
-609
-155
-259
737
307
534
-96
-436
374
-389
89
146
253
-222
-127
52
109
-771
-325
-137
93
9
573
163
-119
-2
-720
117
450
34
217
-718
74
-206
97
75
317
-184
-370
-531
171
312
-155
-68
157
-221
-40
125
-163
-10
212
-211
277
-994
-320
-152
-144
426
-101
-141
-47
54
-200
114
-269
-4
-302
-278
-88
86
-150
220
-247
-333
-460
267
-314
292
-337
168
-114
92
486
166
205
-14
194
342
-6
-236
-231
-56
-18
108
579
-320
-95
146
-500
89
28
-319
-178
193
54
184
-124
540
247
-311
-358
487
-350
144
60
151
170
396
-465
-59
543
-508
-131
-100
140
-302
272
-153
8
-186
17
-380
-1
96
-3
-295
334
517
488
-330
-355
67
-434
-72
-184
101
-86
-108
-170
228
-383
371
326
64
-175
-286
-567
135
124
-223
-167
316
-227
-178
-219
-196
432
-66
529
145
-268
-189
-495
-125
45
-167
-546
-129
289
237
171
-196
-160
-199
522
-330
-193
-246
-309
278
503
94
243
-244
84
-35
-308
-1
64
415
186
-44
49
-213
-156
-29
-98
-234
-129
-153
392
394
104
-81
-132
-782
-350
311
203
347
48
-270
-17
-320
-96
68
166
-51
85
73
95
-128
88
-123
-15
-504
152
73
225
59
28
82
417
-349
4
326
-45
89
190
194
-24
-358
141
152
-70
-427
-336
10
233
-528
-355
241
74
52
85
339
-525
-96
-243
295
-56
234
-306
426
126
449
-64
261
-242
92
-36
65
-29
-148
-12
10
-568
-497
-34
261
-372
-230
364
76
129
167
-416
-211
-80
-277
-48
34
302
70
94
-142
-44
-243
-138
-257
353
224
-125
-341
295
-222
-26
-320
-301
-358
-224
-50
-72
-448
236
342
293
303
-570
183
557
214
-274
746
-58
404
205
395
-117
96
-231
284
-46
-61
124
-326
366
-457
-608
-185
94
92
-139
-166
25
215
-16
-163
-46
107
63
-738
-79
9
-319
-204
181
64
-82
413
148
245
-501
379
32
2
76
114
-136
464
-209
-269
-81
-137
280
228
-144
-157
-265
-536
-62
241
509
346
470
-205
441
400
258
109
160
-28
-397
-321
537
154
-90
352
-484
198
-3
41
-141
365
377
-452
-281
-368
-353
-1
-41
-201
385
205
3
363
366
449
-226
-410
275
-106
-137
170
668
-118
-10
147
-380
-397
422
-575
85
-152
-561
-587
451
188
104
-153
-696
-549
87
179
-140
67
463
-355
-294
-256
229
207
348
404
-196
-149
368
23
-117
551
-114
31
96
365
-293
198
281
-83
212
-228
-170
-388
386
90
123
-350
-106
-361
-307
329
-542
-55
119
26
-373
-30
-53
-282
30
335
-329
-765
93
-257
59
353
-504
91
-538
371
-170
112
214
110
65
508
491
-52
-85
-146
215
-186
21
65
-157
-7
27
41
-21
181
507
423
-592
280
-483
-332
-484
-198
62
213
-187
23
-253
67
-200
242
-43
23
-11
-495
-284
84
-572
31
-543
-46
7
-567
-215
314
-152
254
-409
-202
277
-53
217
-197
776
-309
457
362
-53
147
92
-322
-76
-419
414
132
485
51
-364
-103
200
114
150
148
260
-349
156
-268
-111
-61
-114
349
-106
50
585
-108
176
-76
-408
28
-339
47
-58
-619
117
45
228
108
131
-200
13
59
-60
-211
47
-148
213
38
-85
76
113
-78
-46
59
307
97
-107
-29
-173
-162
-148
252
-365
301
-400
-99
-102
-366
-262
182
403
150
-40
241
-339
541
386
356
-292
376
424
420
607
71
480
-342
-121
-249
-243
165
-428
-256
155
-648
241
-504
96
319
-144
510
-96
385
-282
529
-269
-381
75
-547
45
96
-44
113
349
376
-122
-581
18
-216
-169
-83
97
41
-221
-429
195
115
192
-299
80
516
55
-25
86
198
-358
-319
123
-412
-191
434
381
143
-162
125
-51
195
-196
128
-335
-5
50
140
-185
-297
89
-64
-238
-44
-67
-20
-135
-289
39
-26
-3
210
-6
11
327
-153
-209
632
-433
227
-46
229
-385
176
-382
238
40
183
259
143
175
-173
-294
-66
199
28
-182
-394
4
76
365
210
-188
99
-318
142
-63
313
355
339
-62
73
36
-178
83
-287
-209
-53
-377
-428
-192
-93
514
-42
164
368
-25
-20
-225
-9
108
-119
73
-68
-773
423
356
-109
107
-522
351
93
109
-82
134
-407
143
-64
-316
249
-183
330
-36
-282
-236
-130
8
210
-270
-304
226
-203
394
-593
-70
210
-59
-379
245
460
60
21
169
-480
-158
178
401
-184
193
-204
-140
-110
39
-8
281
-231
120
320
-285
-349
428
108
292
244
245
-191
-106
-10
144
-412
169
-613
537
219
24
-98
242
-344
-46
339
-394
407
149
63
-118
125
207
119
-480
-364
218
-17
-235
118
-43
67
-19
15
-275
-134
-204
516
-295
494
68
469
346
-938
159
230
294
-262
-228
-244
-344
-537
377
38
-201
191
150
521
-132
25
172
430
162
-163
-48
-626
44
460
-323
100
89
275
280
-482
3
-121
-64
-89
-397
323
-515
-448
-709
171
193
108
373
-226
-590
437
37
359
-176
230
154
345
213
7
-411
-105
-24
-363
150
-452
154
49
111
-441
79
-153
-144
315
-33
178
-177
-226
256
-383
43
177
-426
-566
-191
-409
-231
-126
41
-254
46
246
27
309
-260
-103
233
226
-30
177
39
571
25
275
-16
-227
30
39
113
567
80
82
-350
-386
-324
288
20
-164
-183
-190
609
128
-330
61
30
9
98
203
471
-195
-36
-11
-404
244
455
-205
-129
46
-431
-116
-535
-210
-211
299
-239
148
-530
-269
130
85
-298
5
-294
-280
41
-255
88
872
-501
-196
439
477
-32
-417
-33
213
-287
184
124
-355
-127
98
-255
437
48
-21
533
69
384
300
145
-155
52
283
-228
18
256
-179
102
-410
-88
303
293
35
594
-507
-37
-349
109
-102
-278
563
-184
227
-204
14
-118
-288
-150
280
669
172
-89
-29
177
-95
-37
580
283
-359
-149
279
-144
-181
-145
254
-131
-48
385
-187
91
374
75
-293
-182
-42
55
-313
-113
-496
487
-120
-112
185
594
-5
656
196
375
93
580
-391
202
31
396
160
-629
-559
-98
-73
209
558
-202
-490
213
-500
-17
-771
78
-110
-155
229
-173
617
87
523
-317
-167
315
356
-35
288
-166
17
223
557
-453
-347
-397
-725
624
-605
100
315
210
138
133
-197
-220
171
-400
174
-317
-117
573
184
387
-300
-150
-103
297
-62
-801
42
606
-502
-96
-35
-148
-223
-370
-298
-368
-283
39
377
-112
-326
120
330
-367
74
440
83
87
-58
231
215
222
425
-228
-294
-196
-26
-367
-37
-132
6
172
-123
-318
394
-436
189
293
330
207
46
-67
-41
-103
219
-247
-320
-146
-112
-139
50
58
-87
141
-110
-81
-273
67
-57
-510
-230
86
-130
148
-210
77
-135
131
-343
290
-59
-218
-174
-444
-157
-262
-110
294
427
-144
-79
-539
-464
-279
451
248
-688
21
281
204
249
-93
123
323
841
-182
74
-216
-444
-628
48
-109
41
-116
-106
-74
314
334
154
45
-428
-253
325
-175
213
-284
140
326
217
-115
-37
116
306
-200
137
138
-34
354
91
-70
-103
64
-431
-37
174
24
-14
-428
46
180
-24
-158
-399
-59
131
127
86
-230
-568
438
-170
173
154
126
13
-228
-64
225
-485
473
-167
131
248
385
228
127
83
273
42
-74
-43
325
425
8
-273
-56
-12
0
269
-584
-247
41
102
-75
-259
-518
-167
224
110
172
-50
543
-49
118
541
165
136
-41
-356
48
-416
-163
-336
181
-186
148
69
-160
13
-161
367
175
321
585
363
155
-104
334
41
-172
117
-243
124
255
-231
-305
17
-98
133
-134
87
250
162
-121
-153
-51
106
-310
-233
-316
-111
-249
115
-117
31
132
319
760
-187
-37
-183
-314
-9
-117
-177
70
-356
411
-158
-73
22
205
276
63
180
383
-264
54
441
-4
-281
130
245
769
38
257
485
-463
-1130
-150
643
719
257
77
202
260
180
268
-199
386
-198
-370
590
581
169
-354
144
-512
-356
-129
-161
98
-51
302
-89
-21
-2
-364
343
26
-516
123
-386
151
-49
363
-317
-368
-772
193
-34
-289
-385
-106
-260
242
-206
-466
-116
-615
123
-161
-597
141
424
337
771
329
170
-18
68
63
96
373
183
-138
-274
125
-68
-148
187
-571
-43
-258
373
619
515
231
-387
219
-542
58
-476
-61
14
236
79
-253
190
60
-219
-182
107
-123
152
-476
-91
-82
440
23
-192
-112
406
106
361
45
-326
413
-231
121
-333
308
327
1071
-154
36
-139
149
-434
-154
-325
35
197
-35
-71
-158
246
310
147
-333
-157
133
168
361
-4
500
-200
-91
-90
53
500
605
411
-161
203
-22
-508
309
-164
86
-164
-34
26
-592
145
-264
-322
304
-230
150
-791
366
211
134
-680
-110
217
-265
233
-64
-114
407
150
422
63
-114
462
475
293
-194
345
248
-146
-800
-132
-134
300
-41
206
-87
369
-156
240
89
-129
423
-324
-254
-125
43
-291
61
76
247
551
-260
-117
68
-125
-328
-189
-174
-2
657
-115
211
-667
-6
22
-113
-336
101
138
-213
97
-533
-244
103
187
-296
166
437
269
188
-250
195
-11
70
212
-197
82
271
348
106
-275
-222
93
476
-283
-170
335
283
-397
15
-96
82
39
-183
-141
-234
-192
-309
72
-180
409
317
-55
387
-82
-164
-12
-168
242
-305
261
108
399
-80
-111
0
21
-91
-3
433
154
41
13
-18
-352
22
-154
170
-44
213
-247
55
101
682
133
-585
149
52
-87
-31
352
20
64
401
-267
-442
-244
-146
77
-511
581
-123
-351
24
88
80
-94
147
469
-87
165
-217
-160
172
16
112
-342
289
86
-247
182
83
271
-156
-204
110
70
-262
955
64
86
-61
-109
122
207
-85
83
-286
155
-87
370
96
-643
319
109
-133
-84
-122
7
-59
123
-123
80
-403
-324
-61
-405
-373
-19
-37
177
3
193
-498
127
-89
-435
175
-214
-68
82
288
-108
-202
523
-374
105
-476
-60
157
-312
430
-694
-306
80
225
-318
343
-380
19
-345
126
615
108
43
59
-39
-286
-26
87
140
141
-200
-188
-173
-177
90
343
394
602
533
-250
-135
149
-200
368
470
-179
-245
-96
-25
583
-130
68
62
-273
327
-754
97
61
-145
-23
-589
301
209
183
16
-148
-230
460
78
-479
-308
184
-390
-380
-212
372
16
-415
-218
-110
-203
-255
-10
700
30
153
325
179
-305
614
-9
115
-70
102
-144
333
243
-489
121
342
574
48
-487
-128
364
-158
-242
-230
248
-105
117
-201
-77
-19
-288
250
98
-128
242
169
421
-109
113
130
-302
-137
133
46
258
156
-379
218
97
-46
75
-151
319
72
-248
282
661
31
-43
253
132
-220
226
-37
-25
398
590
-121
71
-202
525
-45
220
-94
-232
-190
-268
33
-390
445
293
42
60
-449
538
-112
518
466
-171
143
254
39
-265
-192
-725
164
105
-349
389
-462
3
41
-559
-44
724
375
161
-193
147
87
-68
136
-281
93
363
-663
-63
440
-579
-244
-195
14
4
272
514
317
714
-427
-292
-282
-110
159
92
188
-934
-124
-76
-248
255
87
158
32
259
0
268
5
383
-407
-81
290
70
-103
556
-185
260
-338
-121
-184
522
-49
211
46
130
-218
-72
-342
441
-162
91
88
66
154
-104
445
-431
31
214
32
-431
147
373
-17
481
-343
399
-169
-184
142
602
214
302
-131
5
165
-82
-538
176
-91
-98
-6
48
-254
-68
260
-420
246
51
-49
-70
96
40
48
-345
-111
247
18
-227
-438
-32
342
-188
-259
92
-34
145
503
-238
-2
-365
111
299
-233
344
273
-349
33
-333
-124
112
309
-145
-84
432
-188
-232
-112
329
-352
-172
308
203
-605
-233
84
-271
-212
-305
-178
-288
117
302
-533
177
-229
-34
198
-292
-264
411
-106
-20
46
0
255
11
-197
-360
-89
235
-184
-213
275
-286
26
69
-102
235
-159
-307
-59
-37
446
-90
404
333
701
222
-234
410
-9
74
-84
551
-62
404
22
44
-270
130
213
-203
-89
-162
106
268
275
266
122
-82
-94
-93
66
106
-16
196
590
-4
-166
-80
34
121
-75
36
167
-84
59
-68
67
18
52
-87
-182
-189
-571
88
-43
515
602
-143
411
467
-238
-228
566
42
354
-55
-73
370
-241
126
159
-290
-139
-144
5
-518
87
14
-70
-116
616
265
71
509
-144
159
-471
510
-37
510
-175
-51
276
304
484
-12
-454
27
-74
15
-57
-209
-107
372
65
77
-123
-468
-323
-330
6
758
22
262
337
-54
-31
-14
-252
-15
74
265
-133
320
-9
285
150
-110
234
173
-70
474
197
503
167
-682
34
483
290
-315
210
-191
280
19
17
-98
-258
4
-97
-175
45
-140
-283
178
-18
-241
727
150
340
-63
-20
110
-62
419
-34
-471
155
158
-268
-16
-138
83
-136
87
257
-17
-347
317
102
250
-297
339
455
-165
310
-43
124
97
16
61
115
121
266
93
116
291
-196
331
-392
140
365
-176
314
-151
-212
-225
-239
-148
-429
434
26
-434
-3
-331
139
-21
-174
26
-339
-52
449
379
-164
362
118
424
16
-645
-322
317
-8
11
-370
63
225
-181
344
-393
190
232
99
-289
-48
92
-348
-70
117
-148
-143
-54
-23
-81
-110
-619
-161
73
204
-151
-298
-154
327
-325
272
121
-209
215
289
126
34
-20
-267
-45
-69
203
-80
-16
-84
-274
153
-253
114
127
-121
470
88
29
529
314
-204
-101
1
440
-16
37
-499
13
100
-5
-70
81
-292
-35
30
99
126
423
52
-92
-204
-168
-494
96
-541
212
226
163
120
63
-194
75
32
57
69
-112
95
45
31
9
199
18
-135
-57
-648
199
-224
197
158
-385
-24
-15
-316
133
138
-29
371
-297
184
211
274
182
238
-401
-378
-485
47
1
-152
-150
72
364
-273
-70
-100
289
454
105
-209
178
139
495
-275
-435
245
166
-208
47
120
-189
-7
-160
-2
34
-28
-103
42
-116
-54
-4
2
-51
-178
185
151
112
298
190
-255
175
-160
-24
-193
-223
153
-10
-255
82
402
-270
464
-240
-83
159
-193
-33
56
-126
180
-34
-271
-72
-25
310
-50
-120
-52
156
-160
384
63
137
-52
-262
-75
-157
85
205
-38
266
152
-711
97
221
173
44
-37
147
483
-487
-231
147
-170
162
-158
-393
207
219
-87
130
254
-22
-49
-12
-155
-290
-261
397
187
-196
-290
34
347
305
-124
-345
-71
-138
-255
240
538
-266
2
195
60
-444
-410
-164
-85
-132
-521
-413
-2
338
140
184
-187
41
24
503
319
55
443
129
466
123
465
65
432
-6
324
71
-145
195
-233
-196
400
-310
-204
-474
121
-28
-199
340
-95
-97
-560
-835
-376
-35
-123
-165
-39
-343
381
497
-396
270
-372
30
329
-349
164
36
80
26
140
107
5
-49
-4
-393
151
22
65
-113
311
-271
66
492
-505
0
-84
343
-213
259
274
-101
131
-642
-167
25
187
12
-401
-272
-57
-388
-422
-184
-543
-493
255
-151
-431
67
385
211
92
55
304
-407
-380
-115
-279
-68
-415
-287
460
-374
-224
30
-70
223
127
4
-147
-60
329
256
152
-447
621
-163
-364
628
-313
-89
616
881
157
16
474
-155
27
-36
467
78
-492
-320
-202
-619
-46
77
263
-161
-125
45
165
240
65
-144
-70
162
385
21
338
-89
396
342
-100
-155
55
-103
8
49
450
-43
113
-673
-370
246
-455
255
57
49
-657
469
163
676
304
-196
57
-105
97
566
-293
278
276
-585
226
169
305
137
27
-105
-482
-243
-177
-67
-141
-362
288
-290
-260
17
545
19
-18
-181
339
-348
759
-299
-136
-385
-251
-585
385
75
136
-458
113
-263
159
-184
190
68
342
-35
159
-210
548
-555
644
-428
22
219
244
-216
-58
100
-179
-161
-72
154
-282
522
164
-268
72
-196
137
-56
141
-216
-216
180
50
14
200
136
18
1
41
239
-201
21
-178
190
659
-108
-25
242
-575
209
-154
-339
97
-234
382
-6
62
-125
-64
-231
-164
416
452
143
-148
30
24
159
-184
-250
-344
203
-51
269
325
166
-184
293
-498
131
133
-143
121
-397
-274
128
151
263
-326
525
-15
68
-397
3
191
-528
401
-163
242
27
330
355
-25
173
-261
901
-97
299
69
32
-17
77
167
-201
531
82
212
-500
54
49
38
-55
129
-262
246
-336
333
307
-16
-270
-273
20
77
30
-281
-13
455
-402
401
66
337
-606
-414
-88
87
86
207
-58
-191
197
-252
-186
274
-323
-146
231
-199
194
259
-678
115
175
-133
73
-228
41
226
-327
-99
250
-213
48
389
-56
119
-316
-236
9
-320
-122
-123
97
593
-96
-70
530
-264
88
-135
156
-254
281
196
-404
-235
-167
-151
-150
-235
300
874
44
-441
387
-214
244
-498
5
219
95
-76
98
140
-331
184
-401
-532
360
-305
-20
61
355
-82
207
351
-197
43
351
-417
90
127
1
42
155
-73
317
200
-304
267
-193
26
-199
-171
110
124
235
54
94
-48
-94
-95
439
27
394
120
140
-189
-508
345
-172
97
140
-16
142
-328
-257
245
496
82
-496
-277
193
-92
69
-49
-468
219
-29
-525
209
313
-160
239
35
149
374
183
-483
-431
-113
-169
-91
65
166
-170
-119
13
254
20
-263
167
-56
134
-232
542
72
280
535
-39
-211
-33
111
172
-115
-343
23
-39
73
556
-207
21
-35
165
-307
233
-192
-119
112
313
213
-33
-195
-143
478
-74
-201
213
-162
257
-23
248
-43
402
389
-388
-630
-232
-231
-191
-371
-202
-223
-7
195
-70
-245
141
-213
-75
-129
77
257
228
115
325
554
-251
447
-266
-86
-119
340
43
371
194
232
125
-173
-370
-205
-170
311
38
-520
115
-23
274
-506
181
-24
-26
47
48
142
516
57
37
74
-61
449
350
43
-88
220
-17
-173
251
211
221
-68
-83
104
-149
3
96
327
-223
-349
224
63
-343
28
201
310
189
250
218
70
245
67
-260
-188
-106
238
27
-128
464
455
162
37
-201
-130
217
-169
-180
127
500
-25
189
-101
94
401
-404
48
297
70
92
67
-166
-23
-194
-304
-276
286
33
-433
-11
120
-141
-202
-78
-62
105
182
93
444
-483
-74
-169
-187
401
-284
-47
-201
353
72
239
288
84
-234
232
-178
2
111
-178
69
-499
-123
405
11
-297
43
93
-410
403
-115
-33
-16
94
128
324
54
145
184
-436
233
276
-71
5
85
-339
309
-206
213
97
121
288
-150
-429
258
195
-305
-374
86
653
495
-355
-463
-18
77
-34
-358
-533
-212
-43
-113
70
-151
-432
-355
-6
-117
-111
-339
-121
316
-76
705
-125
49
-480
-320
-117
269
153
-50
233
321
-579
162
-231
40
-142
-30
128
274
-90
208
11
-13
-546
63
0
187
-201
-86
242
-505
438
-189
74
18
323
-637
-225
427
-371
44
111
153
-224
616
223
-362
233
-185
-34
-221
-329
-94
-39
-158
306
250
259
125
-60
-210
346
148
-167
-183
200
-131
92
-77
339
-373
123
207
-201
-166
-100
-127
366
198
-59
189
86
1
-201
130
-37
294
-23
-240
-146
113
289
-369
-214
82
190
-242
547
287
323
-114
-334
-183
97
-148
-56
25
-128
-189
157
78
115
99
-8
-32
36
-80
-188
-72
252
138
-208
363
11
15
-36
-83
-254
455
397
-361
-145
284
-101
-75
510
-110
-132
-66
-20
-194
-152
92
-42
-246
-338
166
-397
-139
297
-261
52
121
258
-84
199
-105
309
-130
-12
-242
-84
278
-39
228
-311
-6
364
-197
-425
634
-98
496
-37
-594
-172
254
-243
174
-236
-259
-46
-53
248
-403
-470
182
268
-52
356
-138
413
-295
-422
-512
-767
-365
544
-119
-511
93
115
71
91
-15
100
-302
58
110
4
144
-185
-63
-217
356
132
-32
-364
-135
182
-266
-195
222
158
-683
358
-100
347
-78
-27
-670
34
-24
243
-74
209
-559
-101
-554
235
15
198
19
295
191
431
409
246
-122
287
-391
-658
444
-285
-434
-36
-196
57
215
173
603
289
771
447
387
-73
-341
181
152
-380
-326
296
230
-60
-13
-114
290
235
366
-150
194
-309
74
-37
-303
58
235
364
-31
-92
280
-100
221
-548
-65
-371
281
-142
7
-239
101
466
176
91
218
-460
-30
-288
-535
270
66
-312
-281
137
-322
-413
6
-366
451
480
-169
-59
-538
-238
-33
-120
-625
129
628
159
234
-465
-227
-13
-52
123
973
273
139
-414
287
46
-258
-417
40
115
-207
293
741
699
-349
-113
496
-34
-696
185
-235
-59
251
186
245
-222
-416
-560
41
75
110
377
267
-508
-406
13
-231
34
-242
417
160
125
-89
-12
-394
-604
30
222
14
103
438
-207
444
-279
58
-144
-198
561
-373
209
-73
137
-116
66
-29
300
193
-19
-26
-164
31
-107
-65
118
-215
-320
-67
-94
-44
4
27
73
103
-209
260
-120
-236
-40
-367
-61
149
-307
-111
-150
-6
218
-285
-278
-127
-119
122
-210
-587
-310
-112
-407
-227
-470
148
-417
343
244
7
-49
-611
-773
231
-141
-286
109
-150
215
204
-245
-252
-134
-835
350
383
823
362
-285
58
55
-199
-124
47
-227
-99
-53
149
516
43
16
500
-97
-746
136
-20
113
-140
193
98
-32
189
-229
250
243
-304
116
252
-315
-104
-433
-581
-19
-616
351
-585
-227
-14
-16
325
140
-138
-217
-85
-254
-139
-115
-243
-138
429
-149
-383
56
-84
687
115
-105
-322
318
77
300
165
-87
261
-43
359
-138
-75
53
-220
-376
173
116
-331
-110
-524
68
-157
-182
59
-297
-154
376
-249
-44
210
18
172
245
40
118
104
85
395
-50
-200
-160
204
-107
-247
188
-394
70
678
234
270
176
-59
102
-153
370
-382
329
-249
-57
-308
-48
213
339
-268
-24
-185
-29
-73
-357
246
-215
-30
-107
-355
-6
19
146
-129
-6
39
30
-114
225
161
637
221
180
277
-215
-279
-320
-406
-152
-145
58
-49
297
-200
-118
-369
293
-356
252
69
-302
-251
105
47
-205
-389
-64
4
-247
323
-335
-70
-86
401
-41
-420
112
-31
159
-575
-276
554
216
34
149
-44
168
-127
-92
75
260
350
411
-725
-7
-202
430
-318
-8
191
15
232
163
-110
-342
-24
-165
-53
144
-122
-121
407
-124
-6
421
354
-364
254
257
-133
-180
542
-262
-282
17
146
378
-4
228
-314
-149
105
-96
34
258
-13
-106
-282
442
-394
130
392
-192
-38
3
58
629
-385
-266
141
129
-73
-7
45
-312
554
441
-38
-23
-163
293
-359
52
-171
-211
-78
201
-82
-502
-61
-18
197
20
65
-127
297
278
141
-74
21
573
-213
-252
-350
-233
-131
-257
300
206
261
-151
-521
44
-360
267
138
48
-511
-289
-263
74
305
179
-189
210
-109
279
-325
76
-86
256
90
-183
-8
267
58
-72
196
-104
219
248
-11
429
-242
-283
-236
-192
378
-433
265
-12
-46
-159
-377
323
373
174
-612
270
-233
-71
108
101
-232
-448
103
192
326
-219
259
-67
198
-318
438
-499
73
54
248
-426
290
61
-315
299
852
40
-470
167
-110
35
-507
88
262
-345
62
51
-42
-259
-24
-211
190
176
470
-213
149
-488
-125
-238
276
-551
107
267
-258
549
-116
155
-436
-179
-184
97
442
-352
149
-81
-126
205
134
320
732
416
-367
-177
-369
38
-239
-716
-50
373
-135
-247
82
-207
-94
577
-92
-525
655
51
-391
657
126
250
237
158
18
-221
212
22
-24
105
-376
-242
172
-40
292
-12
-170
133
431
-23
186
59
217
-184
-222
-395
-400
-253
-8
262
-127
-563
-44
-127
-163
98
-95
189
-72
279
376
281
392
407
-267
-195
-218
-435
-71
160
151
-139
-464
-509
395
26
-321
-78
212
-81
-340
52
-21
392
116
-221
-348
21
3
56
467
-294
218
3
-63
175
-180
128
389
236
-322
72
148
-387
134
-138
-240
167
-42
-380
-91
-110
-266
-177
157
-95
-449
230
-12
-303
-256
-162
4
51
685
39
286
-72
399
-7
181
27
-240
-103
-57
-249
-239
-53
-112
61
-312
103
-656
-566
84
-169
-4
-237
141
-4
29
-609
-639
327
317
137
1167
146
-287
89
-658
13
75
82
-222
145
251
-291
-82
297
-324
1011
458
-204
240
93
453
488
171
89
-453
360
119
253
180
-78
-134
22
-699
123
270
-106
-226
91
-352
66
-356
350
-478
-334
249
192
-11
275
116
-426
-79
-135
-15
468
-410
-207
46
-38
279
-47
-105
241
107
-95
-331
-508
-354
-211
234
-51
11
-395
-175
155
190
-462
44
58
-152
-236
-282
-152
-163
-31
451
-180
47
146
334
-101
-227
14
53
-422
70
-335
321
-88
96
158
-294
-54
-156
-320
300
246
-176
-63
333
-69
219
319
619
-276
-218
-31
-111
-330
-9
220
87
-217
244
-203
158
50
-64
240
270
466
-562
391
85
-186
-307
245
153
65
-447
140
-122
60
84
-23
167
-397
149
-178
273
-383
119
-31
168
473
154
-137
-558
78
212
67
-508
-275
-49
-167
54
-159
33
-82
166
143
-678
92
-435
510
446
155
47
10
-506
-156
596
95
-351
-62
-254
-177
-110
164
-175
219
-229
-98
110
-224
-4
43
-333
-365
47
19
-201
352
-68
187
35
27
221
24
-240
-91
313
-402
176
366
233
-102
84
345
273
250
-424
-594
30
162
166
-124
-470
90
57
-126
196
218
154
190
-316
238
141
-160
115
-314
-906
181
290
-188
39
447
-267
-348
-11
124
245
-105
451
148
-256
220
-285
132
710
64
35
360
234
-392
254
17
-219
459
270
-17
-121
263
388
-373
518
-147
-344
-77
505
-730
422
115
-213
-298
137
-39
65
-132
243
138
182
-178
283
-285
-367
301
-158
-40
42
93
-477
122
215
-66
-328
-56
351
-52
-163
16
-217
-350
-112
328
-135
-335
82
323
238
-204
-372
327
-21
24
-242
-30
258
214
-239
346
-85
-347
-247
-471
-49
-345
277
-116
-163
141
-457
695
-356
796
-206
-358
269
176
11
-193
-340
238
-149
120
-106
358
73
15
451
-332
-4
196
671
85
-71
-173
-459
-105
115
-414
378
270
-34
-346
201
-401
477
292
840
-172
123
356
90
-133
14
-132
-138
-51
-87
184
66
-357
-154
-176
92
-288
42
-39
-235
169
-107
18
-308
176
499
-63
-101
-159
-30
-139
-379
-7
-32
203
104
-242
-155
0
166
-408
-229
211
-245
229
-133
-285
-52
-601
55
-368
-48
35
615
-101
-50
201
161
354
114
284
240
202
-420
-26
-186
192
-144
-216
48
529
13
269
-152
79
169
37
-274
-417
-152
-597
212
-368
-41
164
9
-187
181
-186
16
-587
26
229
-140
-321
-399
-72
33
-464
-266
63
-537
-317
-59
152
-34
210
17
-184
-73
-28
316
-33
-20
-364
-9
-3
-177
27
-167
0
-292
-125
214
-209
-198
5
160
162
-91
221
-249
162
-141
213
-164
-13
-314
444
-291
150
-77
189
438
110
-180
60
-322
152
-24
-45
-543
143
100
-212
-203
-144
64
-12
54
-192
-102
-153
9
-77
4
-171
151
119
296
-397
14
146
-3
131
469
-132
-13
-45
9
-127
-123
639
-431
209
-24
351
208
-179
-447
634
-713
330
-444
94
24
-439
-146
-341
174
-177
-399
369
-35
99
59
-122
-257
329
-470
80
-217
139
-271
200
-17
587
-16
-116
125
25
-1027
-2
-3
-228
541
378
561
131
-103
150
179
578
334
270
-372
206
44
24
332
-65
-195
148
-91
237
266
-132
66
-60
-19
206
354
360
-170
20
-257
146
42
140
-362
541
230
-4
258
-229
90
284
-337
-359
-103
-60
-405
-81
-220
571
121
-247
-212
291
41
508
-295
-8
63
191
-316
301
34
-752
40
-628
276
-80
-171
196
-251
188
-132
-2
-260
375
132
-684
-60
409
150
119
391
-214
129
536
-134
438
445
167
-551
-21
0
406
-46
139
-259
-726
-37
-182
-1002
-154
73
238
-12
-561
280
-42
-264
287
18
518
-48
-551
-396
215
483
366
-112
288
624
-627
-114
78
67
-11
348
33
47
320
-18
-53
7
434
-96
-171
97
152
-152
-357
660
91
-217
261
345
446
-515
24
888
72
370
-310
54
-172
327
140
-107
167
-230
209
649
323
-549
742
3
209
589
2
-194
-375
-392
203
264
523
-729
-184
256
393
271
-124
286
-300
422
-444
-466
64
-172
-357
77
-57
490
117
-251
-300
13
-198
-8
-66
9
-125
-653
-264
342
219
-329
540
-5
207
182
-698
379
337
-298
116
-378
-275
210
-1
273
276
-30
-45
-139
156
-274
562
507
-327
-70
9
-150
267
-479
47
-545
-220
136
191
-289
373
173
-13
69
226
-57
192
336
-161
496
-155
-165
-96
-241
-151
-241
-438
-14
-402
-505
108
513
62
-284
13
-402
-202
219
167
85
-55
-188
123
281
-158
-217
-482
-184
33
-211
-300
3
-117
55
90
134
204
-191
136
179
49
-197
122
143
4
-469
-290
109
-1
343
136
472
236
-64
515
39
-179
-46
-438
-160
236
-45
104
120
-193
-226
21
-219
321
378
-97
-388
-124
150
-70
63
72
165
154
-6
358
-248
41
-48
370
429
178
-48
269
-24
-392
399
41
-378
-50
12
290
127
-156
57
284
-168
194
223
-125
84
-107
-161
191
250
49
686
13
402
-575
-147
213
-294
247
-64
-400
343
-172
193
-86
-480
-189
564
-172
-84
188
271
-244
-105
-304
322
-38
20
-138
-318
534
473
-591
-150
59
-121
-419
-35
120
351
460
274
-63
-192
476
199
119
135
392
-17
270
-99
210
-393
343
95
187
171
189
133
236
379
341
83
-35
35
102
167
-335
-70
-446
-594
101
954
-59
-378
-243
426
194
-35
-279
287
-224
374
-62
-309
225
304
-4
-120
-215
-352
-191
86
-602
-6
163
-240
92
-18
-94
-131
13
-277
-85
108
-192
33
-312
121
98
-527
269
-66
-261
81
82
80
153
148
-186
-258
-185
-206
-116
80
-186
364
-380
-43
-169
288
216
27
-3
-197
29
-370
95
77
402
414
242
146
167
-249
-262
-20
-159
-92
-107
-186
386
0
-26
-6
54
162
-123
-415
112
-394
-2
179
-201
60
4
51
140
-253
37
218
-313
-31
-111
101
339
-368
-707
171
146
-430
89
490
-263
39
469
-189
-290
74
-213
286
-239
-180
99
-105
-205
-90
142
-166
-87
65
-300
391
93
-41
135
100
-30
-224
244
562
-346
-149
246
19
104
-262
-60
172
-529
451
-320
102
-73
-21
-113
493
-338
-160
128
136
52
-198
-94
-79
58
-686
4
531
-74
-406
-515
-79
-353
441
320
-446
-277
319
599
205
286
291
79
210
-357
-19
33
-147
326
130
374
406
10
210
55
275
278
282
-516
355
-497
-101
522
31
103
-127
-66
469
-359
-197
90
-218
138
244
-360
-32
-126
101
197
591
0
251
84
-8
-380
106
-618
-201
270
239
2
-236
484
38
-92
317
174
108
-339
201
-31
555
-396
129
-101
-601
74
366
-125
639
-2
-323
-522
-272
-1050
-303
65
132
65
421
-510
-635
-142
-389
-34
1109
-218
-291
104
485
147
344
-422
549
10
285
-19
30
371
-38
410
-409
497
-219
-342
105
-460
199
132
459
-264
-189
-37
243
189
217
92
-20
-142
65
-71
-115
214
-47
288
25
-169
-98
636
-96
-116
-202
-154
42
233
-262
-45
140
110
277
-208
-149
-308
292
261
-199
31
76
220
512
-49
50
-154
-27
-71
-32
139
55
295
267
-115
-95
-245
237
-128
-423
63
208
4
15
-63
59
-164
442
-4
-248
346
237
-547
-194
261
7
-281
358
338
-183
-51
-417
195
111
-214
428
196
86
318
-310
343
-9
105
-35
303
-366
537
-404
-370
-355
305
114
-105
-305
325
249
-184
-17
155
18
-65
-433
143
370
-210
-394
-41
-322
142
208
418
227
-194
-276
38
-250
184
-171
109
219
183
453
-37
-349
256
-498
-55
-160
107
-213
301
-18
-21
135
397
-93
-357
-61
287
-253
-138
188
401
-606
-58
-296
-65
96
-105
322
58
-162
-65
63
-82
509
-148
167
64
325
-189
-105
-232
277
93
135
80
-9
423
127
-229
82
-62
76
78
-36
-178
35
-131
238
189
182
314
-11
218
-355
24
74
-110
-302
252
-11
27
163
84
-519
-106
458
-272
389
-65
-350
407
-36
329
-153
-250
373
-400
74
-379
109
-293
-284
268
-126
-316
181
386
47
424
-82
-44
176
124
-390
66
-40
0
3
-209
147
-55
133
234
111
212
454
88
-399
-277
407
-61
156
288
-113
237
29
273
397
-451
-38
-425
19
208
-178
155
489
-272
238
-419
-357
-369
-40
192
347
-155
268
-146
-7
81
-450
-285
-79
267
-277
-3
92
13
446
51
-90
266
-196
-151
221
-88
-43
-71
71
48
518
-211
472
581
120
-188
-520
231
-324
312
-508
-59
61
-333
-519
-104
293
275
-268
82
404
-454
-430
49
116
396
-31
227
-23
137
812
736
31
-432
-427
-782
365
-305
-352
-201
-186
213
-75
-184
248
-208
-194
212
454
918
231
-435
246
326
486
33
-428
-43
-396
325
197
601
-266
-365
174
-167
-267
-116
-222
182
-414
127
46
163
113
-310
-45
9
-353
616
-173
55
77
185
-121
-274
-419
342
-198
