-649
-444
11
778
-487
-219
-648
-551
-177
852
-14
-542
-513
-408
-471
339
476
-62
-138
-675
327
619
140
-290
-169
-391
457
734
404
754
400
238
327
-371
932
-226
185
-465
552
-83
-330
112
609
74
9
-349
-421
-610
491
-602
466
-582
326
875
463
-22
179
-750
381
-402
386
-541
336
340
567
-450
122
-225
432
8
48
-324
-40
831
50
131
-427
-264
-767
609
-522
699
-292
-450
-21
-143
905
-281
491
-1021
-1097
891
179
-399
728
-19
463
-221
668
1
-66
58
328
326
268
-9
532
-221
-174
263
225
523
745
626
448
523
823
-426
162
190
-180
-215
-568
275
-228
-822
-121
79
443
-165
242
1095
-529
36
-193
-523
-861
247
163
745
-160
-40
185
-80
448
-47
209
-76
-181
159
776
-746
71
69
531
270
-815
-98
653
738
-206
174
-525
58
541
-18
-125
4
393
-930
472
24
82
-281
55
-429
-2
-871
321
923
-237
-720
165
826
-793
36
-722
-317
692
32
-844
531
-119
887
-250
101
612
891
888
-767
384
267
-433
631
-190
756
956
-478
-477
-1
832
601
-898
286
390
-108
472
-421
-565
-36
320
-38
-272
405
-1289
-128
-511
124
661
833
-155
-1071
222
-540
524
774
648
37
718
-608
246
-23
-271
162
72
-249
-539
-543
183
68
-633
-142
-194
-102
43
184
5
375
360
1101
59
-9
30
183
-167
-364
-1020
-322
-692
185
-28
276
-36
-1140
-88
222
-152
-1009
-559
-86
-264
-109
-364
522
-320
-637
268
277
-563
113
-519
25
-289
-921
376
344
164
-923
660
571
-101
561
-498
-589
-617
-306
-36
521
448
-282
-538
5
1417
-659
876
-398
166
104
1105
-442
80
-65
1069
-136
123
-221
-538
238
312
414
250
-51
-822
-250
101
468
49
346
-1035
314
-673
83
994
-271
185
633
-155
619
795
-418
-413
208
-1118
-287
-27
471
192
-656
-91
193
667
-313
-246
235
-26
121
-1238
-228
238
166
-1079
284
-50
-718
-234
-9
-66
-399
172
-754
-367
-804
-376
-369
-650
-106
167
-593
-288
148
159
-478
-468
-247
-142
-409
293
1024
-465
236
48
-67
-709
1088
-454
-52
-376
224
-225
-300
-259
297
-378
-548
-781
-693
126
-602
44
-315
-29
126
735
286
105
-1334
-294
-42
299
-301
512
-800
38
-241
481
598
453
90
-140
-193
154
-234
-176
349
-107
297
-1069
-81
-398
543
219
-519
-929
-315
-810
86
-87
-149
589
532
37
-749
-383
407
-1237
279
-245
-316
-661
905
12
399
-50
418
-308
-2
282
-203
100
135
280
646
609
232
-116
988
-92
630
170
-604
82
-41
-559
558
0
307
-249
-476
-406
137
152
672
178
98
-614
-274
240
285
334
-34
293
-88
947
63
-486
-730
-135
667
-628
-611
396
-72
-425
-367
188
311
213
-189
302
264
635
376
-56
170
552
56
-362
551
395
-62
253
485
348
-435
-399
770
37
563
618
195
-166
358
597
-99
-240
-813
278
-248
-19
-452
21
356
962
315
435
681
621
-277
519
-88
-313
-867
-725
-664
390
-365
241
-161
221
-418
2
-946
-79
113
-820
-387
739
-531
-12
233
823
212
-463
668
691
196
-346
-186
-629
582
549
783
290
-16
-199
-568
-325
67
149
-227
746
-140
874
-509
419
-91
-796
354
-179
649
411
186
120
880
-319
-94
-298
117
347
-311
857
93
302
-450
-262
-218
205
-427
-974
1455
-359
-625
-418
-82
786
267
473
-34
398
-193
386
131
740
-460
896
-436
-439
749
726
-561
565
586
776
-404
589
1984
545
-518
-8
372
1020
-233
400
-353
-167
-179
-686
-208
35
-969
-26
-133
-709
430
120
240
-11
345
-375
167
-111
-88
325
-414
114
561
49
194
-532
232
-558
733
349
653
-647
-998
255
-2
-281
-150
211
-619
-63
321
146
-494
224
420
-6
-112
322
748
73
-501
118
230
-135
527
-68
-159
244
139
-173
-443
1537
223
412
752
-770
779
-155
308
49
216
-19
1044
271
330
131
-235
34
911
-169
342
-91
85
711
-691
-89
-25
-171
-859
-119
124
346
283
311
251
635
-491
165
72
263
540
261
-796
47
-389
-390
278
-177
923
-135
-745
600
151
-466
-42
1011
109
-2
-436
-591
261
-183
475
644
587
-573
124
1912
363
178
352
-21
-214
-147
55
122
1508
-133
-308
10
565
173
49
-174
-20
812
-451
-822
-424
-283
33
-373
-547
-247
-51
173
-464
-273
-393
-231
-498
-788
-559
-326
-269
95
635
-565
-473
-260
344
648
399
-887
-133
251
1203
-42
-545
-641
1943
-720
197
1063
1475
1044
-562
-57
-419
312
89
843
301
791
498
-126
-13
-614
20
-34
-472
226
-64
-453
654
-613
-519
655
804
195
487
107
308
-437
-370
-415
-59
561
830
354
-172
745
-353
977
667
83
-570
-749
-123
-481
361
-310
356
191
123
-600
386
-470
-246
363
428
-226
698
-411
-35
2163
495
-347
-143
-425
-113
-168
745
-480
65
584
-548
-91
1335
177
397
-379
261
-129
904
1177
-245
-309
96
-79
-578
-295
-87
663
-135
-389
-120
-708
-119
249
836
-84
47
-106
-197
-148
697
-496
96
-411
-674
662
-1036
172
-601
48
-472
-915
-82
545
-408
301
-817
-171
-67
343
-177
-459
-325
-141
70
231
258
-702
-599
-147
571
-1144
27
-239
-95
-3
-65
149
-660
-898
859
-222
-14
-413
319
342
182
-705
-22
374
5
-713
314
524
97
-368
257
-178
122
-47
37
233
-525
312
196
182
588
-595
-628
-366
-163
838
77
-31
-484
338
-598
111
137
-245
-54
315
-527
241
-995
131
-20
532
549
-589
-1251
162
240
-312
-572
815
67
-618
-701
-168
-222
495
-52
317
72
253
168
1
-330
332
203
140
-163
-565
-753
-134
-167
221
55
312
-734
-441
36
-548
-587
-55
774
-37
343
-344
-835
-558
-1013
251
209
357
-889
598
108
505
-42
-168
452
35
490
-526
-21
336
241
531
231
-273
399
-652
1058
143
-270
564
-170
211
-541
-196
327
-86
-1012
-448
19
-40
-113
-480
90
-426
-103
-581
-376
234
358
-502
-477
304
-234
173
340
-490
148
-608
-37
-376
118
528
-375
131
-95
-290
244
-337
480
27
395
329
692
273
605
-931
192
-1
453
333
-514
523
-398
414
299
-292
-223
-289
342
332
123
-66
-211
-252
-646
258
269
-726
-308
117
-11
317
-176
-130
-141
-563
-21
-28
360
-220
488
515
1596
-461
552
351
-432
0
-1436
-1126
235
-57
-580
-501
389
209
-727
-41
-406
795
155
-607
235
241
-377
-610
-470
-48
-405
145
682
138
-639
1053
-117
-500
611
-4
432
69
-44
-323
-532
-281
880
439
-112
841
-431
-254
-54
-739
147
390
-417
-3
-188
-436
-27
54
-414
31
-525
621
504
-308
1093
94
284
-21
399
1042
-203
-103
634
589
-241
599
-427
-347
364
296
203
1251
-633
-72
267
-226
-236
-1194
5
-327
111
-316
125
481
824
-718
164
235
585
6
-146
-702
-316
173
335
-703
-857
64
400
-411
186
-278
-255
574
363
-654
79
246
-157
41
342
-618
815
396
703
-159
-282
-408
-654
284
353
195
38
-472
-227
-443
265
-95
-243
-199
-1117
745
682
-188
220
-949
464
85
-693
-93
350
-815
93
178
71
-586
-379
-669
326
-868
-71
-282
377
-243
154
23
249
-260
-381
74
504
26
-26
880
-198
32
72
-365
341
-272
-379
-858
-757
-70
-346
502
-37
17
-241
744
306
-156
767
-131
-223
1350
-89
-680
-98
-625
-1142
115
-137
-1077
-944
-712
176
716
-493
683
212
-1150
-38
337
-152
-417
-568
-40
-138
-338
34
-18
112
272
623
-498
390
-465
-363
-617
-303
-534
-1291
-176
184
-748
-647
-75
420
83
283
-405
216
144
650
-284
145
-16
-176
5
-198
-867
1
105
307
-164
-391
61
261
779
552
-13
-518
603
309
-1328
-389
403
-311
-635
257
336
-498
214
-65
-923
281
110
-67
-33
-13
-259
508
-1236
-361
-415
48
-1113
-420
164
-794
-1256
-136
-197
-220
-158
-362
-73
-482
116
124
-688
532
-504
440
86
-256
-174
-279
-234
21
402
-65
-89
-418
866
462
404
506
310
132
447
496
238
727
-138
-281
16
-480
-247
-814
131
49
420
-416
-639
225
799
-158
-5
-288
17
291
-201
222
-82
-683
-218
218
198
-156
-80
561
-504
-276
58
259
19
243
115
295
272
-225
916
54
-488
-1816
72
121
-655
-428
-584
-669
-62
161
383
-270
-510
225
145
180
-277
661
-1336
-1041
39
-403
-560
-357
1082
712
-527
-590
22
-495
-646
739
241
-468
-803
-164
-647
296
395
98
910
367
73
-202
-224
-604
-629
-32
360
-187
-106
175
100
111
387
-375
-429
-167
-378
473
-538
880
27
141
432
-30
463
55
252
359
-467
110
193
339
107
137
171
455
867
-166
-109
-431
-570
-110
425
-908
3
-72
34
-154
-1506
-119
-208
-135
1427
-31
349
-440
-145
618
596
508
309
-1249
964
-150
-77
767
190
-479
-598
436
215
-668
148
-352
504
570
-66
-745
95
218
-1471
674
-202
-420
-10
-368
564
-180
-485
-561
204
-222
-4
-152
484
-576
-127
-19
-915
-285
-188
598
230
-318
-735
-238
-359
44
407
-229
-262
-118
391
-136
140
1
482
-268
157
-167
108
318
358
-21
-292
245
-296
611
-131
597
658
358
324
395
132
-508
166
847
890
-12
-1048
-1
390
241
87
-187
-10
-279
503
-232
-79
-870
220
641
-215
61
247
-70
778
-3
835
-98
-46
-132
399
-369
45
77
-876
181
-400
59
641
-175
-95
879
1583
-913
-157
-434
505
-340
-223
68
-389
38
-99
-93
1123
61
677
-11
631
-162
64
99
540
1662
129
-422
555
-199
318
-343
934
64
724
-398
902
192
-171
893
-465
-814
-13
-24
267
-788
-80
-335
4
530
-169
752
-149
-1078
13
1108
-393
-565
648
668
-148
855
89
1197
351
223
236
-570
679
337
422
611
-387
1387
-337
-567
-571
875
-13
-357
-492
393
1017
995
1221
-550
-173
84
-374
353
-191
775
-236
-240
-93
-464
1012
-132
482
565
-735
990
-329
140
64
-393
-496
213
-557
-602
-349
429
-173
1935
373
779
194
-530
-565
170
-686
-3
1184
949
177
69
390
-411
-434
-68
75
689
-291
46
-304
-1134
-423
395
-96
-374
-14
555
16
131
635
565
-266
-509
-34
116
-316
282
232
262
-87
-579
453
-1686
380
997
417
148
446
-965
717
5
114
328
530
20
65
-106
334
92
-615
51
-439
-332
360
416
-403
402
-5
294
1178
-231
90
24
-601
12
846
-245
-67
-587
-72
-292
245
552
-43
140
-271
572
-660
-622
-738
-691
481
-114
-584
-649
535
307
726
1028
-73
335
440
1062
335
-662
289
-135
-723
-83
195
319
681
-332
-395
412
-987
940
1201
-997
-620
-107
-296
139
-766
-195
-293
186
398
-1110
363
-358
-742
-240
786
-75
-395
-291
-42
154
449
-271
-357
-981
988
450
-820
303
-339
-415
18
-266
-27
-14
-141
-368
268
245
56
170
-30
203
-694
224
-194
-453
-198
366
592
-572
714
584
-1733
-371
-109
-422
45
-297
-476
-45
822
-620
-1109
-341
179
178
46
-718
-174
124
294
-1240
-1114
49
-301
73
300
166
1046
522
-350
-1556
-175
225
-668
759
-3
227
125
-82
467
162
-261
-148
-170
-78
-128
61
-144
853
184
-203
-232
-152
12
-52
118
-42
426
189
-822
-267
-437
-739
268
685
-280
-152
90
-485
57
354
592
987
-386
-711
83
-963
-166
-89
410
-484
-256
-453
254
134
-238
178
309
-321
-283
-762
-12
184
445
-74
826
259
-111
-443
51
529
270
926
-801
-956
-85
236
404
-171
-66
554
-215
-362
-105
128
525
-202
306
409
-433
-454
-192
-759
-802
-83
-504
-616
41
446
-111
-404
-393
167
-1498
-1384
406
-3
152
-873
-902
646
175
400
-122
29
-142
-317
85
796
-159
-246
518
249
15
-67
54
-355
220
784
-144
-15
41
-906
247
52
515
-427
648
-620
237
-321
-268
12
-483
-263
-525
332
-668
29
-40
828
602
-50
384
-648
1615
-36
-387
-113
-162
328
-422
445
811
-345
428
-96
-197
27
-1334
298
-892
345
-334
220
-740
-301
-29
383
-610
101
778
-517
571
-422
454
-580
-450
-443
-435
274
-132
481
346
359
455
-422
-131
-68
290
-394
-458
-134
345
8
-347
-488
-312
34
138
391
-86
-519
-578
-55
-156
589
-459
-675
-830
339
711
-293
-57
-624
-429
687
414
63
-75
-151
542
-121
-287
-544
-111
580
-613
177
-467
-25
-415
211
-888
-533
104
-492
-888
-264
-850
-561
221
-152
-785
-623
-502
-582
666
-398
-470
-697
-342
50
-523
549
-2026
-170
-195
-83
-32
-711
188
164
281
194
217
-580
-362
-213
-620
408
223
-707
315
581
-457
654
-101
63
-134
-910
985
142
-600
399
-867
-1037
-289
202
832
-262
-840
316
300
174
854
-247
184
212
160
-614
477
-34
-278
833
-118
353
90
186
318
112
-539
-797
-184
241
-265
496
-271
994
354
64
-229
-489
441
-290
-49
-435
249
-317
-478
155
585
357
-303
521
564
741
-358
-544
70
-227
91
171
-102
511
-246
491
-369
195
-754
87
192
-173
-72
-118
150
194
85
590
-1127
69
-510
130
261
15
-350
180
-793
-412
128
-1356
534
-736
316
709
323
147
23
-736
38
57
-429
640
-207
197
-448
-268
-124
68
-95
-395
-452
-491
-101
-302
197
168
463
377
187
59
717
184
1253
969
399
-367
198
263
231
-340
181
488
-3
-311
-176
234
-399
192
119
-618
242
76
425
-559
881
892
-43
491
530
-666
48
-405
261
-192
-419
395
204
-687
1055
1362
-835
-224
-292
282
278
-638
758
615
362
267
-204
-51
-159
1339
264
-173
-653
536
937
-153
345
85
-748
11
-192
-40
356
-39
-951
-544
49
94
388
-420
240
-127
-359
165
-63
472
298
508
-245
474
-873
360
-1
-673
-426
100
919
183
252
632
154
-205
-36
252
4
-476
-590
333
38
510
430
481
260
-252
229
172
1198
6
-386
628
944
-457
288
-239
-764
-345
414
-47
-149
605
-814
-623
-385
-733
566
548
600
-1335
172
271
-413
36
189
-1048
-249
-340
-179
119
121
1010
-363
-126
-131
85
-1027
1375
-453
278
803
-622
432
940
-429
983
354
-462
-321
1140
327
-123
124
90
713
-173
607
544
1031
-66
-182
-37
-847
86
-367
-667
-286
225
-5
246
-702
147
-475
320
-152
-518
-266
-1120
796
48
78
520
-1130
537
-415
-156
531
-397
-87
235
583
445
335
-145
-531
534
-261
-301
201
-32
56
-60
8
230
-65
311
605
-257
353
-1405
-422
603
842
-572
-118
-229
-83
864
126
468
158
-205
-597
-128
553
113
-193
351
-668
-37
-247
-132
684
445
380
818
-64
36
-426
-88
322
74
499
-903
-545
67
202
-614
920
-495
53
542
397
430
230
988
-348
89
-77
285
461
-211
102
59
-179
-181
415
-34
160
-586
384
-36
833
-216
13
22
-27
-117
-153
-405
-320
-68
-21
227
-437
364
190
161
706
587
-118
497
543
444
-312
117
-304
778
-14
1402
-107
-58
38
13
-246
285
916
-123
303
414
-545
38
-548
448
-545
-150
342
590
-104
-705
676
-23
433
347
-772
155
-503
-32
129
-912
-214
667
363
-600
-603
114
611
65
15
-1095
-788
4
196
-151
-102
69
229
-456
41
-176
673
-1134
238
-409
-540
-190
-143
146
484
668
609
153
-242
-185
86
-149
18
-1079
539
-1373
-576
-1947
86
414
-835
-340
-442
466
380
-114
140
242
-298
-684
181
-552
58
-484
-59
736
-630
1071
227
432
-256
-36
-203
561
219
689
-846
-748
-719
449
-11
-29
-745
372
662
-42
288
-597
802
-552
485
196
-883
329
480
69
-111
-367
-216
-417
-1036
439
80
272
251
60
-1072
510
-426
-432
802
-139
288
254
60
-236
472
817
-473
-90
159
-281
-698
159
-162
-175
14
-281
316
12
-9
-265
-514
-3
-416
847
542
-110
174
-168
-538
-355
1023
-698
683
0
-1209
604
-619
-346
63
-1188
-333
-348
-679
802
-114
-110
-779
91
-172
-648
-433
-162
-25
7
-333
-343
57
-55
59
16
506
-578
-1386
539
-95
-159
-659
-293
525
-1588
-340
-142
-307
-862
-255
113
-252
618
-136
-345
-62
175
264
-333
445
-152
306
184
-1333
-676
532
-826
254
-206
61
265
343
230
-356
651
-806
-1248
-275
-440
-564
-63
-108
-751
520
506
1174
-672
-86
-178
-787
-50
233
-612
-316
-485
-345
-303
-746
1053
176
527
387
-266
-16
34
-63
-322
769
-401
467
-260
-44
5
649
-309
-576
465
453
-351
-396
-352
144
208
-145
-638
229
594
-924
-661
-720
-332
568
489
-239
-1215
203
110
-64
742
-8
-172
8
-195
355
-406
-732
-476
-131
337
-822
162
153
98
-204
-943
-184
25
-261
-446
-465
-696
525
-359
-864
-237
95
-77
39
-274
421
334
-470
800
-127
88
828
-890
237
121
926
-1456
74
19
33
210
-108
303
551
491
-6
-208
-985
-498
-971
210
-334
-969
-706
-183
-620
290
-21
-3
243
-151
72
141
-239
840
216
-721
-832
-228
-415
173
675
248
318
-344
732
12
279
630
99
-294
-133
499
-484
87
12
268
-344
-1348
396
102
53
-727
111
302
80
499
511
-501
-603
18
725
96
185
-187
193
297
-242
-922
-584
201
-465
-301
370
-1701
-638
-279
992
108
374
328
-483
621
-221
510
-343
54
167
-234
-464
338
1225
-163
-119
740
124
1
-910
-642
-305
573
335
77
-182
352
32
-665
182
101
-407
598
-342
24
960
375
577
-479
-304
96
-715
416
-827
377
-209
-550
-167
-312
263
443
791
-743
662
-897
984
-120
190
-55
218
463
-717
-308
-542
-264
-146
-529
12
19
203
-642
898
699
787
438
-519
572
-735
-40
422
-97
876
-180
-119
257
-421
126
26
492
-764
34
859
-161
274
567
105
-306
863
-286
-378
576
-103
-24
521
248
431
-244
247
216
-689
551
42
330
-125
1317
253
-238
-175
57
-113
1
-483
535
181
73
-626
309
152
-833
46
648
39
-199
356
-151
-113
196
-340
-208
-399
-682
-361
27
-652
-459
-429
-28
-112
-472
-98
83
-160
-295
-562
242
-65
-50
-207
-97
-585
112
349
-38
568
573
-74
-944
-191
-260
-691
182
-251
-819
-392
97
-1191
709
-192
-572
458
507
595
-34
312
-302
897
7
937
-1433
-200
3
498
-221
-43
-36
620
313
-685
-750
1196
93
101
66
-645
77
-50
1119
270
-160
-388
-117
-115
247
-385
1253
279
-326
1020
-13
165
-207
-333
96
536
202
-339
-242
1632
-422
417
-144
29
359
-723
379
108
532
-127
78
200
-373
744
167
-619
630
427
477
254
-519
204
88
-151
-8
463
-198
1170
157
80
237
-267
-45
332
-206
-807
-599
280
-204
510
269
-319
237
933
-90
-206
170
337
-424
338
-738
-212
91
644
33
-654
423
306
319
399
631
237
-219
-100
178
197
393
-143
223
279
-995
-132
130
-351
333
-188
38
-21
80
163
-399
111
-70
-354
-253
64
211
-363
-131
-107
-192
-208
180
312
413
-39
779
-273
-163
679
-734
-240
61
-420
-37
-74
389
1236
392
-329
105
-115
119
87
20
264
-585
472
-593
-160
176
95
62
771
-1
94
228
35
705
-679
-729
503
473
108
-623
105
112
285
-749
-198
-356
546
-651
158
366
145
-48
-228
184
-557
-478
522
998
959
-447
198
-185
355
-17
-767
-297
-174
57
85
-564
-135
768
-271
130
-262
322
1080
-539
-658
410
840
-559
321
409
-50
-227
910
264
-404
-480
-393
-780
-596
355
-285
0
346
144
378
434
-138
-35
72
291
-416
449
199
15
-113
376
-194
-216
-619
923
-329
122
-472
214
895
465
50
-64
644
27
496
782
204
-353
233
-227
581
167
1359
-445
372
302
648
-35
673
-50
892
119
-501
742
-202
-12
-171
495
241
253
855
-200
447
-634
-482
447
-68
671
68
491
-590
-890
-32
-88
568
-570
581
706
-670
9
-1241
431
-21
-128
541
352
-62
1304
59
248
131
-10
48
-525
-633
465
-594
374
-170
-458
520
-994
-20
-263
-467
-523
15
-976
330
-507
215
-362
512
784
-176
-246
203
-8
729
-39
357
544
397
25
-210
1477
-561
-180
396
334
162
-405
401
832
689
-291
290
-820
0
-102
317
-299
82
5
352
-303
-571
-696
785
163
854
228
557
797
-116
-281
-9
-321
691
-284
201
-301
117
262
-61
68
-501
-336
-454
388
705
138
299
-368
1007
306
-547
137
60
419
113
701
693
-410
-120
-125
220
62
-407
-164
-458
-225
-104
-2
30
740
-669
-18
-921
8
850
55
-97
883
-125
-291
14
-44
357
-40
296
874
-515
-819
-73
786
74
-897
-574
910
278
454
613
-267
229
-22
488
149
-432
-553
58
-690
-398
661
-423
907
-415
336
553
493
692
-328
305
-732
-825
-484
316
149
632
-27
-547
-48
-173
-384
291
-592
-138
12
-43
121
-656
114
-763
-269
621
-90
399
87
-614
111
1403
-396
-15
-430
-310
-78
-220
800
-43
155
460
389
557
177
83
457
-75
89
295
104
-784
-32
368
16
208
697
843
604
-793
502
241
515
104
79
28
-660
154
-508
702
-444
-185
318
-197
312
-434
811
-380
-80
239
626
908
564
19
-1228
203
354
-588
578
-392
578
-102
844
368
392
-377
-1029
216
-155
331
395
395
-182
-96
-340
-113
-212
798
364
-637
1030
341
2242
64
-172
-444
525
-227
-932
624
252
676
348
815
-476
59
-379
-723
373
-183
584
-798
504
-388
376
-355
508
479
86
-670
444
-326
235
-138
-241
-641
-328
668
-450
147
235
348
-35
-271
-203
730
-1230
-604
-123
-700
83
-469
521
387
-76
250
51
300
-305
-506
833
-399
-395
322
408
-313
654
766
494
50
157
-55
-23
-428
35
-521
-364
-349
-299
167
-9
623
134
-346
-440
187
82
139
132
202
-79
-711
19
-357
-463
538
-449
-581
-404
705
-603
-333
30
268
-300
1504
256
-421
131
-458
197
-1398
-746
-452
-10
59
-425
852
-231
232
-1553
-627
-457
84
140
-437
322
-225
14
-361
325
-31
-209
-20
-200
-28
-167
-21
-301
-683
304
-48
661
-205
498
-5
-350
243
-189
162
-26
499
654
-278
-228
197
-480
84
326
509
-1022
-698
248
-388
-154
-85
35
664
-739
-163
-51
898
350
26
-566
-88
-48
-293
845
259
160
29
-87
-52
555
340
39
-284
-360
181
-1069
1
340
486
-780
-462
-212
501
90
1121
508
-886
-60
-320
194
-460
26
-198
-9
-363
338
430
-65
638
-209
-244
-988
-56
-863
-211
-170
-208
396
-686
6
-124
-68
144
-367
-1300
-333
127
55
408
1149
-523
-135
-844
-268
945
55
-256
-712
120
-132
-215
131
-176
-310
-532
-6
690
-628
25
37
-251
-88
104
-267
-1010
587
-275
701
794
-400
-244
537
-238
-351
-290
796
299
700
-1031
285
-650
-621
-1067
471
-200
194
-38
21
370
189
-17
-929
248
-898
-283
957
-1325
-523
22
-199
-253
421
-148
52
-555
-353
-38
202
673
-564
-181
532
854
109
373
-1381
-849
-418
-435
-698
110
150
-424
535
195
-203
832
286
-496
289
654
463
41
915
-842
-211
-66
-199
150
296
480
789
139
-499
185
412
-30
138
-932
-575
772
-447
556
-403
94
10
0
-492
143
267
330
-152
-856
407
-484
-903
319
-789
-54
100
-638
-726
139
-319
1138
275
-56
347
371
-243
276
-323
-567
641
-572
-418
-525
-114
292
-474
-404
-432
-20
97
309
593
301
-915
670
78
10
-590
-114
-293
275
-91
-123
-744
-681
708
-1008
184
-1
155
-1002
371
-168
630
-381
-650
-169
-213
130
376
870
-1008
473
186
323
184
-739
236
293
387
630
-155
-133
342
342
-503
-877
-73
-127
1175
536
-596
89
-706
42
190
495
-608
514
439
-14
755
399
-431
-453
430
-271
424
495
-105
-198
1321
291
8
114
659
-353
-325
-333
-76
1115
190
176
292
-50
1194
141
443
726
83
-907
149
-386
-399
1094
157
126
-913
-257
-548
137
-480
617
248
-140
269
-68
478
76
195
-655
1012
215
310
-640
800
-154
330
-102
-193
359
49
203
127
853
427
515
870
63
-565
-619
-477
-681
269
70
-248
-565
46
-179
-1661
-46
1019
-563
-8
-381
-972
704
604
-688
279
-136
524
-231
30
1079
67
328
448
401
-516
-1201
-510
887
204
-104
-274
-461
-481
-290
226
111
-13
149
-387
221
364
-886
21
513
-1019
-512
63
219
502
1549
238
-111
292
27
-391
-598
-465
-186
207
-89
256
563
-116
-160
-1015
125
476
-673
-272
134
181
-322
-803
88
-163
146
223
41
163
223
-212
70
-13
1307
-431
-1077
898
-144
-461
-491
-470
-336
225
-329
-169
126
654
220
131
-703
-405
-212
-303
-251
433
-240
108
-268
740
393
903
2
906
677
361
1664
-248
-173
-440
-1036
-387
-460
-558
-284
275
36
422
-210
-200
200
-1012
226
800
329
104
-14
-229
388
3
-140
522
-56
95
401
-91
520
-485
2
79
-128
640
-739
-146
718
203
113
1170
-409
289
490
559
-971
-536
124
1042
-552
70
-185
824
-633
122
320
369
-224
97
-318
-538
857
529
1198
-256
1132
-368
-268
975
-580
-190
106
197
-1
-3
152
-563
905
114
748
-478
-514
125
117
-330
-581
237
-368
-304
-290
286
779
175
10
495
-105
134
280
-163
-316
383
-255
-146
-236
-865
-1
70
-57
-452
814
-460
-252
1005
-171
-100
642
218
704
-56
621
23
363
331
1141
-196
524
612
389
418
211
1244
347
225
-503
-342
163
-71
754
317
519
-325
406
-439
-464
-197
697
-1084
-763
651
-208
98
-288
467
314
755
-703
396
22
37
450
-147
263
-770
-220
284
-550
271
153
-100
1724
75
526
-455
-1055
1281
-63
6
-175
501
25
594
306
-320
276
-129
574
230
-151
28
808
-192
-140
-1007
-35
-312
-112
942
512
197
-303
64
414
265
-438
-576
41
-161
-210
736
-587
124
391
-335
1124
890
694
159
854
1251
-189
26
-117
-249
-349
-195
1223
-336
-519
133
-522
652
-90
265
-422
31
-1008
-82
636
297
203
-422
531
-28
-215
-495
-384
353
-1338
-420
-127
841
434
-614
-608
138
-369
-660
-817
1157
-66
251
-261
-743
17
450
-129
273
287
-39
512
197
153
-848
-330
-584
-1256
279
-113
-94
294
526
-942
-95
-258
40
-373
133
-164
286
-150
-380
317
-316
18
363
516
-580
-817
541
96
-47
742
452
17
58
364
-706
-290
-343
-1186
-140
574
-130
476
-279
40
33
251
183
325
540
617
578
520
-72
-88
531
115
310
-401
902
-143
-327
574
168
-698
302
222
294
184
-66
606
104
-698
300
424
-295
-889
-51
210
-102
-861
-226
-53
-395
213
17
791
101
82
62
-1049
-205
-503
-518
95
345
124
97
341
-7
-290
-226
225
-499
-543
-18
-132
221
32
368
-1396
74
413
340
609
90
-345
-816
-907
-103
-44
302
160
203
105
-349
819
571
-774
637
-18
-73
-467
227
-816
-36
-112
-130
-354
-444
-625
-260
418
-1714
664
363
-658
-299
232
-24
-98
243
-1080
-703
-99
-483
951
102
160
-206
-276
632
-288
141
47
115
-690
-438
-253
-1014
390
-553
-507
-575
-338
-416
-32
-248
-360
10
545
-393
122
22
235
162
-366
145
-372
-465
-328
-844
490
134
-43
-155
600
-386
-855
855
215
740
435
-920
-200
672
257
355
-558
1044
134
194
613
0
-17
-220
-436
581
-679
368
355
-124
-500
106
249
400
-510
-657
-23
-442
-601
93
413
-653
-739
-273
409
356
-847
-566
-498
-384
-70
-955
-113
-207
-387
-105
-466
94
1123
-331
-338
144
229
18
-198
404
98
-68
-533
-489
-1127
548
422
312
401
718
420
-275
522
0
-308
572
-72
701
131
-87
120
-799
325
-734
1507
-610
-275
-50
209
49
-107
484
-462
-653
141
-62
-20
-338
-350
181
739
-280
510
1707
1030
-933
212
450
-470
-512
333
290
100
-334
767
-760
-253
-672
-180
-311
789
42
-82
81
860
109
62
732
-87
-550
245
-542
306
-580
-341
479
-187
-385
596
-202
428
130
379
-204
174
240
-529
262
-167
380
-452
39
74
-263
118
43
-397
-507
253
280
389
500
963
5
159
151
-403
282
-251
298
154
366
551
428
424
-483
77
-766
-925
-459
218
-407
-740
247
-133
-426
693
241
257
144
456
-66
929
-106
181
241
1088
542
-246
-7
-72
-639
106
999
27
-129
-249
-212
-490
732
-436
72
-439
502
-4
34
635
484
-142
-1220
-1400
768
-163
-97
330
37
-244
-482
158
-139
418
611
-1352
534
101
-553
317
100
-740
-16
631
-202
-288
488
1596
263
56
76
-162
758
494
1265
160
674
-299
79
955
-47
470
258
-497
-314
305
468
-7
-55
-680
10
292
-684
-128
27
243
111
-770
-337
-999
1049
0
648
133
225
-370
184
-284
-30
117
43
-991
-121
646
411
-113
-413
37
-61
-273
44
-454
505
1241
649
-29
-407
-554
568
-283
-264
-395
239
38
924
270
232
166
56
923
-139
-125
-748
1300
-156
-312
-35
26
571
-383
607
138
509
-702
10
-12
-140
287
253
317
-204
-102
-580
595
269
-497
-758
-417
286
-1367
340
-56
281
176
1762
1020
-474
-52
513
132
-174
19
65
-188
-175
1106
593
1063
180
-456
876
55
-415
-204
-1088
-8
-23
-223
-797
55
154
9
-383
106
907
689
-621
-485
157
-41
210
-934
272
330
12
231
-253
121
-639
90
-247
-567
176
-1330
-698
161
949
-357
-696
-55
205
-325
-493
628
-622
442
-272
693
-377
335
-204
-212
456
-1228
193
953
265
946
59
-193
-87
-341
18
-130
-12
-91
-13
-10
-622
420
509
299
61
-286
-247
-701
-708
761
-969
-224
84
97
-677
-119
141
-235
988
-339
-57
-765
460
174
-946
457
1350
-429
-384
320
-148
639
-483
-418
-444
-8
-415
533
-312
978
-189
915
-477
-8
354
-99
-157
-419
-1123
-235
-113
-372
575
318
167
1276
559
16
-172
1432
588
-439
-1145
63
382
-287
207
612
831
-127
287
-353
-13
-368
-708
5
984
529
54
278
44
146
-250
39
-64
105
-375
-397
195
840
-240
1
674
-569
-99
-633
-286
902
-319
110
-564
-816
-285
1034
287
789
121
273
-730
327
-359
-1230
-404
-192
1392
441
427
-12
451
-462
-654
-661
296
-225
-120
63
593
386
192
206
196
103
275
-790
592
-432
282
51
-552
180
474
9
-627
1617
1288
36
-785
-62
367
-158
945
322
157
-566
305
-15
284
176
-982
26
-366
207
-97
-303
-179
385
496
-49
2
-334
-484
16
143
631
-146
173
307
-55
19
282
208
351
-504
-868
210
562
-125
-8
100
-80
26
-186
545
-797
-123
-188
-137
149
-220
-533
425
312
856
204
-1317
503
463
-153
290
1096
-131
-162
594
-489
-320
-113
-178
-489
-881
-378
-169
-244
223
513
131
1071
-1030
-260
56
-273
212
-202
-294
-239
308
440
-260
-320
-599
28
-117
73
608
-430
469
-236
-392
-752
-973
253
-531
489
458
796
437
483
-630
-117
-153
697
-1804
469
-422
332
-151
29
701
467
-869
-132
-587
-267
-313
-20
-446
-434
417
-539
-1216
423
-354
-47
-233
-305
66
651
517
-256
317
688
-451
-391
-875
786
322
-856
320
-329
4
143
932
-1250
-26
-1035
-2136
484
525
239
-352
-1569
78
-398
73
-1105
-27
501
-128
641
-217
95
-452
-514
458
-77
-211
440
-54
34
347
-499
-1311
659
-548
248
99
-877
690
-562
-581
-373
646
494
-738
-800
-384
-185
-435
547
-105
-495
32
316
-296
-220
-189
-796
84
746
-116
-683
417
108
603
-1431
-76
-937
-727
512
-79
1003
18
-393
61
147
-26
449
-53
112
-658
-496
607
-450
1050
-346
275
-1072
-243
35
424
-569
-55
627
960
-213
377
565
-281
181
-262
84
690
626
-387
-307
-174
162
408
552
329
268
-406
-122
61
-492
276
534
-3
175
426
-969
31
-1536
314
-93
-439
-638
-367
-273
2
-937
-663
661
300
-382
-556
36
-960
-418
860
68
-589
201
191
-82
229
129
337
78
374
556
-119
896
-34
-430
-481
-789
-318
-230
-66
-10
63
391
-72
116
398
505
210
-635
-215
352
120
110
135
433
118
-738
-737
-358
177
439
945
-1487
206
-1194
666
-6
520
-264
-220
659
-280
529
-88
326
-287
-79
-897
728
8
111
110
-518
-352
-313
273
429
-450
253
127
225
-370
278
-339
626
-47
313
8
-400
-422
546
346
224
72
-66
315
572
-490
-1131
311
-933
459
594
-717
-107
-97
-952
-489
-218
-111
-379
628
772
-669
-892
-134
262
70
112
497
-251
-625
71
-345
343
-144
398
687
257
-170
-711
250
-429
268
167
93
-435
273
630
-137
-692
-135
23
139
243
-325
47
-499
-991
-779
593
-124
56
-484
-553
-510
496
356
509
674
120
-299
-234
-232
-15
829
-100
539
384
-998
312
-1102
114
-160
1138
784
-19
-281
34
-455
-1061
-828
-509
364
1403
-782
-254
86
1271
341
-115
421
-223
121
-571
801
85
-497
-622
-1345
130
562
-588
-962
-539
-519
-8
282
-558
-170
-194
1002
-118
-347
-252
98
153
573
261
186
183
-976
-95
104
-578
536
-63
-119
-108
105
513
-515
-225
397
-368
-381
562
484
-352
325
433
53
-65
311
1113
-332
249
171
187
-291
85
-290
-284
-315
-122
959
-1003
-673
301
-321
12
444
-1
-659
-234
-29
-184
30
-499
-749
-89
71
781
739
105
87
558
-336
1114
-1066
366
-5
-533
-308
-430
721
100
-240
-628
-450
-483
383
-373
274
39
90
533
108
-368
-108
-284
-119
16
25
-167
504
-155
-821
-541
-892
-261
403
204
678
-389
1849
-1066
-270
-424
-72
213
-283
970
-133
454
193
337
-1018
867
474
159
1099
-468
-378
443
5
-62
-70
-225
-840
-851
-412
327
-211
-733
42
150
606
-131
-102
305
-105
505
242
112
417
749
156
30
-913
52
-303
44
-132
192
-436
332
-1
154
249
-148
78
142
-530
236
286
821
359
-236
-276
114
110
6
-221
-82
20
32
683
-38
92
-75
1196
13
156
459
597
-470
104
-83
-333
-182
296
371
243
280
227
-418
-512
987
-50
-397
57
-757
-218
-342
-504
57
712
136
587
-100
1397
48
92
876
252
406
655
-563
-5
-362
316
246
1135
901
-131
-390
-578
526
401
-186
-163
-49
367
-412
-333
-270
763
-546
1298
-682
-787
187
76
85
-778
5
-229
-29
67
-29
-70
-83
32
-169
302
127
-366
-545
-29
20
-753
171
135
-899
-87
-72
-368
-416
334
243
-30
523
409
366
-652
195
1436
-79
282
-53
-3
-125
82
-220
-664
-207
348
1163
977
97
86
208
507
1093
-217
-144
252
204
833
235
307
-284
-471
455
-69
467
186
-55
-370
134
0
310
-702
616
1379
-160
-74
-326
314
103
883
248
197
-570
592
230
-318
-68
-465
206
32
-81
-491
-115
-263
-397
683
1086
414
-106
349
-472
-146
-180
-305
270
176
453
948
-455
299
-945
-182
-981
303
-35
970
-744
-319
110
665
-15
579
56
269
-432
517
278
-274
-719
-184
187
-37
129
216
-920
-369
-180
92
-920
348
-1128
-216
-1090
588
207
14
251
559
58
-304
-304
-31
51
-7
-246
3
-1724
-12
31
-442
-181
439
10
31
-739
-836
-905
16
381
223
-1202
-381
10
208
386
29
-577
-787
-698
150
-230
443
-290
586
-673
-186
-991
-367
-627
393
-102
-811
-323
764
118
-159
-832
-546
263
735
502
157
454
789
-155
645
358
-425
792
749
114
-80
48
-1444
-532
-222
-236
133
174
10
-1343
-480
59
271
85
583
-154
-353
394
-565
928
-11
-800
-643
318
-321
-175
423
-513
416
623
130
728
58
141
931
45
288
-424
-1
-650
-428
535
32
-36
-101
305
-214
116
609
55
-314
386
332
664
-650
-174
-400
-166
143
-14
-355
143
-353
-343
-150
368
218
-43
12
-102
-169
-104
-477
-123
-271
192
-87
305
38
-987
660
103
-259
578
688
289
-453
153
-502
-1563
607
85
347
-1430
-465
-760
-472
87
-567
-462
344
-686
-415
439
-519
-435
192
-362
-568
-99
-1382
391
-329
-552
-545
-826
-393
553
-843
178
-44
471
1043
538
65
275
-93
-221
72
-843
111
-569
368
156
-123
88
187
-856
465
-216
394
370
231
102
-349
156
-349
-363
297
-532
-90
12
-314
95
-854
25
147
581
-169
-160
417
-163
-251
-836
596
-299
850
-537
-996
240
68
-529
-335
-343
-379
424
202
504
53
795
-169
-158
-229
-179
222
890
1053
35
336
472
9
629
17
-662
-123
219
86
-28
-567
-490
469
440
-80
144
-304
-872
646
404
-104
-517
-705
-152
-351
22
811
-265
395
365
-297
-95
665
-637
-798
253
822
-429
-653
-617
-883
62
-138
666
-101
317
-822
-100
686
190
251
-855
531
125
217
-155
729
-1470
-391
12
-351
467
-256
1193
-1090
-89
-356
853
-39
-27
-83
1
-101
29
40
126
-88
408
225
-434
-757
-222
-8
-403
-155
214
329
-87
-399
-289
-123
-37
-157
244
74
-23
336
-653
-688
-190
128
-34
755
-362
-795
126
558
-527
345
423
124
-384
732
399
1050
495
-270
190
-291
-591
-153
-69
152
-934
-78
390
-453
-236
106
-252
355
-2
-317
-105
-909
579
-662
-573
-63
25
-19
215
-121
-407
107
-934
135
517
-721
-641
176
477
-308
-1361
275
196
109
-104
-445
227
247
343
692
916
-1702
549
-147
-975
440
-39
-1
950
299
274
-276
669
-408
-606
-576
287
-277
285
728
51
-62
15
-709
376
-1015
-182
-315
-988
-755
-536
1210
-110
34
1136
194
-622
-54
-425
-531
15
-892
75
44
-752
-1295
99
-1032
-488
-961
355
34
-124
134
826
-649
-261
60
-978
949
54
9
504
644
-488
-429
-155
-7
143
907
232
463
107
541
-225
-523
-522
770
260
-358
204
-479
58
354
-304
-633
300
-387
65
-482
-208
-46
619
125
-327
709
-1009
-121
-885
-106
95
-185
-855
144
-793
-334
609
474
623
-653
211
-1046
686
-523
256
1331
1259
235
873
-124
-223
827
-27
89
-377
-271
22
-210
-979
492
-746
405
799
-556
-56
-231
228
-421
588
-205
-242
-279
538
385
-639
624
-266
634
-299
26
277
-160
-242
-675
1201
383
-49
-242
220
310
-325
519
143
-136
-266
-136
122
971
866
292
370
-106
-470
528
281
-240
37
-47
-445
-439
167
485
563
-304
866
131
-442
-533
23
1128
-312
-633
88
-687
334
134
747
-111
-684
383
-238
136
3
-629
870
118
-268
594
232
-27
808
-283
-438
273
153
-392
-247
332
-115
-238
175
-37
460
-411
-72
390
-89
303
-587
272
183
529
896
304
668
186
-665
130
33
-194
-360
35
260
-566
129
1574
372
588
-209
-375
875
288
244
1057
149
489
-907
55
-167
404
1562
228
208
339
612
957
161
255
-693
763
491
476
-778
-125
-183
-56
-170
-540
404
25
1038
104
-182
-114
716
757
-907
271
-283
227
-790
527
644
-338
-317
139
242
-407
-52
-100
753
-231
455
-388
1017
-468
-16
609
-263
-290
351
243
-237
-822
-603
-151
361
395
-792
70
476
-395
-824
311
391
-309
-92
-149
412
404
492
-349
-450
-41
445
-765
-153
-216
-123
-527
-2577
-1006
268
357
-250
477
-248
336
-191
-114
-706
-195
264
-1028
-787
438
-246
344
-936
525
-893
-204
-769
778
30
286
405
1129
673
187
-205
-693
-770
294
-597
90
-215
207
-437
306
-113
118
324
68
-431
-720
148
-278
-1408
2
240
-303
-336
278
-156
462
-1492
-1331
-479
-265
179
-562
-536
320
-155
33
181
-573
-871
396
25
392
-178
-314
229
682
119
-336
528
142
316
-1068
-208
-684
-4
-21
-370
127
-36
82
-252
781
-139
-657
-278
-184
-205
-1391
589
100
-464
613
-566
-156
-56
44
111
754
1035
990
270
200
-1013
516
847
-312
71
0
-241
444
0
-47
-379
-506
32
308
686
128
205
208
-562
-874
-86
888
-24
-166
-261
-1210
-393
-152
-58
471
-57
382
-55
-627
-356
-472
149
468
-261
-408
-351
-200
-141
244
125
370
-364
79
-165
24
-320
-92
433
-464
71
76
-63
-351
1729
-122
122
-334
-620
200
-172
77
343
912
642
-762
95
-118
329
186
24
76
285
311
-306
-637
489
-80
564
490
-124
802
952
419
359
-326
-70
358
-496
-892
472
-69
-287
-346
221
139
-10
229
-315
365
-51
69
132
-152
162
66
607
-6
408
79
540
27
707
-412
376
299
455
-531
145
199
-352
-747
-418
35
1561
-1186
-157
158
179
-861
473
628
602
-701
628
485
-410
427
-967
-407
-790
-839
-259
-565
175
-331
-51
151
-269
364
-47
-153
-133
92
-245
240
539
93
-995
-19
-52
-395
715
-489
212
60
398
540
102
-454
39
555
-1095
95
-337
-950
762
-377
1406
-286
-438
-1583
1122
-190
567
690
790
385
-227
-190
-42
240
-114
-231
-547
515
-90
469
352
-471
283
207
6
-524
482
-13
-219
414
-307
231
141
-359
-584
85
-175
-53
-41
195
452
420
338
-311
-546
-546
684
652
-19
208
668
-73
207
-261
-323
306
-401
239
-362
277
-322
489
-387
973
428
1121
-11
-125
1145
949
114
269
-282
-715
638
127
695
-54
-63
-344
392
-664
48
-98
262
66
-36
-302
-761
290
-632
-178
-1076
-603
441
1326
-17
20
-720
202
-116
154
89
334
-680
1213
393
474
66
-142
139
-367
-624
1203
50
263
-490
104
69
133
-472
-408
670
-397
654
69
-540
87
-763
-522
716
-3
-171
342
-607
347
770
216
1086
-115
1874
300
1418
-429
-604
-153
-306
-319
225
430
46
410
-509
-149
-467
910
-623
526
122
-432
9
-342
-179
1776
222
-532
1214
-493
-542
874
428
689
586
-504
-609
-155
942
-163
238
446
-110
-362
-103
208
-186
-310
249
-3
245
713
-578
397
-94
312
-1026
-308
521
-110
-192
-338
-312
-30
-1113
-188
44
-777
-176
-495
153
-45
214
110
-162
-151
-616
91
-198
364
280
-348
-279
1493
-375
757
-416
-92
272
588
-39
135
-510
485
-1343
723
-607
918
-710
178
920
-860
-220
576
720
-129
-261
-207
-672
-457
724
342
698
1079
263
130
184
88
661
-928
-131
-403
-125
975
1819
-166
-339
-743
-259
321
-370
63
91
-1428
305
583
-25
58
-371
537
-237
-741
45
973
716
1070
-426
431
-411
-260
-272
-1092
-381
273
-74
-64
187
401
-26
69
531
-536
54
-146
-227
156
1462
-98
80
87
-135
213
-381
607
365
1008
-82
-208
859
-19
-51
-408
87
312
280
-457
-587
70
-24
370
-609
-137
1103
-165
1102
-258
203
184
-382
-120
900
2206
-464
202
-1079
-264
-42
-45
20
-173
-154
-41
243
165
-10
-139
538
525
346
-18
169
616
-90
-35
518
919
-451
805
-248
503
-474
-159
1137
310
108
424
569
-496
51
822
44
454
-60
-846
-443
421
-450
-888
-754
-778
759
-165
421
-614
192
-634
-353
-470
731
-134
-11
-564
1301
707
-399
-106
235
-684
27
278
779
-480
-8
94
385
-1045
-706
691
495
70
-434
499
948
286
773
-419
457
-120
-184
-463
-525
160
-136
143
-405
225
114
-594
-665
496
149
1015
72
-409
-541
-178
-245
456
-326
166
79
-222
90
404
356
-156
338
-163
-63
105
-580
-330
-895
347
408
164
-513
-809
-867
1205
148
281
544
1043
613
-291
1493
227
-840
-574
-379
-510
-446
-351
266
131
-105
-451
58
753
60
-49
476
-432
213
420
-945
858
1436
-484
227
208
-57
-687
201
-192
621
1162
-163
236
-603
21
187
346
-75
-402
-403
753
-180
-256
196
49
-749
93
1213
232
454
391
327
109
822
534
267
1530
403
-820
-310
967
300
443
599
-664
81
-128
-1
194
-169
69
-28
958
353
5
125
369
-270
-944
-138
-60
568
153
-411
42
1292
213
348
-651
-781
198
-9
-188
-401
-261
-590
-106
448
-163
-92
-37
1077
483
-216
613
-8
-472
-160
-424
114
-177
300
-480
492
733
-99
317
747
-354
-599
364
-1140
-270
-440
291
-146
-175
-567
3
865
1315
-22
277
358
-1002
694
-221
58
-369
204
233
254
90
-332
-37
-459
405
120
461
660
-98
-261
-789
293
341
240
299
-25
-482
-267
361
584
-991
-449
-712
-674
1208
-140
-879
-1125
-172
-88
202
-447
-119
-233
419
494
-91
204
291
-513
-117
304
701
-555
-129
780
-221
-560
-1042
-682
-708
-86
68
-307
348
820
410
220
-545
-186
-51
510
-219
-838
-1269
-56
401
344
213
709
-548
-1478
-277
372
-431
297
-834
133
-421
-57
900
54
-282
-980
-114
-228
-160
12
-129
-163
486
-260
708
-563
466
-327
298
11
-374
-410
189
431
-465
180
339
-266
-1016
693
-173
695
265
-20
-361
214
274
582
-1051
-347
-419
-101
119
-209
-96
233
79
412
458
-274
102
-199
-29
-352
412
239
-645
-289
233
-559
-1410
-26
-25
-201
-760
32
-201
-117
33
709
-57
-286
-321
92
74
81
-269
-315
-717
368
999
-607
-90
400
-307
-1143
-152
577
114
276
13
-439
-42
330
89
-902
-1091
-743
596
-272
99
-667
286
214
-429
149
-428
-668
-820
-229
516
-153
-285
-519
236
80
-1569
-373
347
-571
293
0
262
-63
-724
-1443
-290
138
-265
-654
297
-73
-231
481
-392
-126
-140
-87
362
-222
-39
1113
-315
589
238
-476
-384
128
-305
759
-1079
-597
-3
698
73
105
-573
-888
1356
172
893
-210
-395
1364
-156
-46
-72
228
1084
29
773
202
-682
188
-105
-517
-170
-50
-91
-334
123
105
239
-395
-1197
-505
561
-353
317
547
269
-125
156
265
128
653
-203
385
-72
-1161
-206
254
765
252
-168
35
-985
-398
116
-40
101
705
515
833
166
912
-35
-818
-94
-330
-1272
625
1065
-85
-65
-94
-11
304
-41
-290
-361
-302
-911
-15
700
238
-66
135
671
205
-301
-136
-180
378
875
269
-880
-112
938
293
-585
-234
344
587
-520
190
223
181
531
-307
-245
-465
-225
-340
-114
875
534
-610
-692
-214
-497
733
612
-367
-331
-280
377
932
308
-383
-122
1025
-393
1190
813
-114
216
-258
-589
-256
-219
1324
302
-915
761
229
203
-427
282
39
-16
-470
-125
-571
59
-674
-136
407
540
554
199
-316
-636
-689
776
315
711
541
824
-448
20
-102
-41
149
-435
-663
1009
-477
-273
912
-31
-90
226
568
385
461
-704
885
-393
-263
-236
-665
540
-213
163
418
-605
99
-274
138
282
-552
341
234
-420
572
212
631
129
-23
-772
379
-604
270
157
-121
-176
102
416
327
-285
-214
108
-22
-401
376
910
143
-342
-110
159
371
-516
-426
-108
540
1261
105
265
90
290
401
-274
46
-217
-294
-285
96
162
757
143
322
147
418
1045
-319
143
-43
48
686
73
1248
985
366
-391
-99
1212
817
261
-137
459
211
780
-349
-120
99
-152
-247
290
-374
-523
-645
275
719
943
46
-68
400
-119
-104
-89
713
864
872
259
-335
-787
41
9
-473
-466
928
71
-117
332
-122
-31
640
1025
301
-206
-240
979
126
-155
-15
-341
1065
-397
157
-137
344
-388
263
-621
170
-183
223
153
332
-190
-924
-273
347
-830
234
723
607
-223
-444
-653
603
743
128
-204
-544
188
-282
146
684
-834
108
240
259
-450
-65
-1174
458
234
-76
-38
237
-429
-694
12
1104
-9
8
48
-187
26
521
343
285
-325
1009
-507
529
-580
737
-218
-56
253
165
498
-402
-84
-11
672
-384
769
-116
847
39
-310
-261
357
261
-289
-224
722
-82
-242
-316
916
304
-60
-532
-363
-107
31
-305
-577
501
-271
306
-392
-22
1026
818
474
920
340
-6
8
-27
-274
-180
246
103
354
436
259
-551
307
913
207
-16
-624
-328
-216
-500
1205
702
-688
771
-294
550
230
517
-145
-664
-665
-268
263
460
-706
124
185
50
-447
-97
80
-697
-599
-384
-348
-657
-453
-80
159
-23
115
848
-1067
-96
-417
-193
172
-432
-1041
-437
223
185
-458
-120
-196
-352
217
255
443
-794
205
-296
-319
265
-54
518
-793
991
-75
-49
-278
736
70
280
141
1055
-755
-436
429
-25
62
-337
31
-242
252
-130
9
716
-71
994
-699
159
425
638
-138
113
-30
-216
-65
-116
436
-659
72
-274
-296
-243
-144
-164
-283
220
683
-57
-827
122
37
861
568
195
538
781
133
-160
134
959
-76
492
275
-341
1197
-43
700
453
-114
-17
252
-485
168
-762
65
-369
376
197
-574
61
10
57
7
568
-188
58
-673
410
683
-280
199
982
607
663
81
-425
430
-10
-309
-85
-1250
14
690
-72
-504
466
326
196
-332
-212
-38
1124
-573
-225
311
-381
300
562
-363
-190
106
1
-364
373
-653
-120
214
-228
-550
765
132
-270
-857
126
-180
-897
-231
452
437
128
-801
-811
-18
-234
-302
-388
-445
21
-1111
111
-84
731
-650
-728
31
-142
-817
263
137
-191
581
-9
-321
194
-241
707
19
-395
-397
11
339
366
35
100
23
59
683
-146
-251
-20
173
1232
727
387
-117
-401
410
-457
-176
395
1137
-477
380
-156
-584
397
-728
248
341
-561
954
136
-616
-464
-475
-258
-116
-585
-640
-258
-4
-469
-409
-258
-286
277
-318
-30
-82
-33
-657
-90
-590
483
-919
61
-438
595
52
-464
867
-184
-490
-570
167
600
-530
-14
254
-1008
-77
181
-418
97
-156
564
186
47
353
203
136
393
445
