-3
-25
-27
-104
-119
104
1
220
94
-448
521
-381
195
435
-216
105
-263
80
-485
83
-305
-134
-83
-378
-44
258
489
-589
19
36
-458
152
-217
106
303
-214
-396
617
430
-170
-280
123
-427
-335
313
506
-258
672
-299
-217
-313
162
165
170
352
99
-696
116
-123
-236
-448
152
-342
-264
-71
-318
-114
221
173
332
-1
144
101
-126
-257
281
288
136
369
563
-260
-245
419
-119
-131
3
25
244
42
-239
169
-275
-208
-116
-464
-45
-295
-183
257
397
45
147
-142
192
-298
337
-285
13
32
389
-504
47
286
56
100
-282
542
-63
178
-331
-179
137
489
-168
-322
-409
-304
-282
11
410
-163
269
-133
253
64
-23
566
151
91
279
-88
303
-154
-270
-512
34
-28
389
-171
780
-506
-127
-69
126
-21
-57
16
-84
-353
154
222
256
-44
410
163
421
-409
-323
-961
-230
147
237
413
113
-409
330
41
22
-492
166
238
168
-272
263
-95
-94
-52
592
-104
786
359
194
914
-404
-525
129
-92
158
-176
-111
300
40
4
137
290
-604
308
-457
39
805
233
-491
-448
-84
279
-148
-494
-414
-192
480
-441
-100
-246
486
443
-440
52
469
246
-75
-172
-720
-56
43
-28
-252
167
0
655
551
-29
230
-79
-106
-32
-404
77
221
-445
-379
630
-65
433
-256
-107
-167
3
52
253
13
415
411
-604
164
-547
11
240
-548
944
-22
129
273
-44
-132
-149
289
119
31
155
-168
-312
-11
-720
387
-547
389
-77
11
298
142
56
-152
-397
359
-104
239
-455
406
839
528
-42
-132
991
429
3
-50
246
422
212
13
-31
-84
-93
-116
160
246
-302
100
-221
68
-164
-958
-394
-159
-76
-375
-151
-397
592
242
509
-95
-292
-110
96
-364
323
51
232
-178
318
124
-90
349
-36
-339
-503
110
-176
-125
-498
-468
164
145
221
118
462
-165
-241
-179
115
-204
-53
-332
165
-123
246
-88
-144
204
-3
167
-73
260
-165
-340
115
-130
61
378
-5
269
-139
-134
-27
149
405
-120
-59
-607
145
340
-180
90
-615
-32
-127
504
-216
-241
-312
115
-28
-184
387
-143
-717
-98
123
-19
-8
-238
-227
148
277
-109
230
243
108
195
-1
119
316
-279
662
82
-206
-499
-16
-79
84
191
74
-628
-226
35
72
-92
-592
-179
502
94
503
-392
-448
419
-40
94
-36
-452
200
-331
461
648
-162
-340
24
300
656
121
-5
457
148
-533
-181
-70
184
383
344
197
739
68
325
-448
-462
518
179
140
-140
-234
138
-79
-180
-31
426
-21
243
-152
65
-468
-389
378
62
-469
-5
207
744
-515
-114
-209
328
-776
-940
-135
-219
83
-697
-294
128
-24
564
124
-103
-386
282
40
455
282
11
336
-186
144
-57
-360
129
-204
289
126
244
-9
145
271
-18
283
408
368
-5
91
-31
-299
64
274
486
-112
314
64
-103
313
-737
271
308
91
-202
166
-431
-233
254
62
-337
277
-208
297
400
-319
-731
257
58
-224
-209
-212
-396
448
-268
-298
8
287
289
-330
-133
635
-664
-87
82
-424
714
74
-408
-274
699
-210
298
-144
22
81
428
408
-148
25
-99
-543
511
220
-358
-357
765
37
886
152
-156
-821
299
-315
-85
4
-76
-142
-72
-298
-691
-299
-357
-26
375
100
-480
-111
-288
354
62
312
141
99
-321
-501
-25
430
250
361
39
390
56
450
-137
-180
172
7
302
99
-115
-235
-360
405
-264
-145
-297
272
-373
308
-465
165
85
177
433
555
59
-885
99
2
230
531
-131
23
96
-173
-449
-566
-342
-227
16
310
-236
186
429
-128
-212
441
513
-306
-43
213
307
817
768
210
-183
-173
683
-138
163
-649
-434
63
-545
55
-362
-602
-784
91
368
-159
-621
432
603
150
528
-346
-421
-95
583
-179
-5
-235
202
503
-157
21
467
-145
-404
357
203
66
120
-64
-796
291
865
-261
83
399
699
11
-128
-250
134
-336
0
-184
-157
301
87
-531
-50
-557
-321
532
-542
-265
180
-371
104
-164
99
661
-135
-88
-228
-134
20
-123
-150
-573
234
262
-439
-899
3
-359
307
324
-294
212
-13
132
268
406
-168
546
479
-245
35
220
627
-365
442
7
663
135
-598
-496
-593
-215
-77
186
372
69
34
-242
266
-3
867
116
-231
777
-269
-218
-298
35
-657
-208
152
275
602
227
-361
181
807
485
44
368
-175
124
90
-101
-544
-63
-657
58
-165
-297
448
-352
278
294
-465
360
356
193
330
224
-251
290
-75
46
-487
227
425
-383
92
63
-110
-56
171
215
-29
741
205
-306
-470
89
234
526
-345
43
677
39
455
-244
-395
388
166
-81
-263
-86
564
-318
553
-146
186
-44
-12
67
728
-393
-12
257
-775
-460
-832
597
-335
-236
6
-463
128
62
138
334
-324
462
-371
-289
369
-55
134
447
163
-65
-95
238
-251
-457
-215
-641
420
-287
36
-490
170
291
339
163
70
654
338
96
-528
253
-118
-305
-43
541
355
-150
224
99
-135
-206
-170
-109
288
-373
362
-12
320
-335
-34
184
31
-194
-332
-418
-462
-3
-156
-598
-331
402
410
-499
163
213
-66
508
291
-258
716
400
-77
-440
115
-261
-197
-48
-177
172
329
-181
-242
5
-15
-524
458
-641
-57
-126
103
226
325
384
43
-161
566
-44
-229
370
75
453
-273
-423
-558
-295
153
-495
102
38
398
44
-22
-97
628
790
-137
114
175
-8
-136
207
0
-105
512
444
-160
-260
-143
-307
1
643
-234
144
122
-169
21
-365
-167
336
-59
-278
326
-331
607
258
393
-254
-99
-231
-329
-650
-58
304
-52
-831
295
-9
-56
466
-468
311
-23
51
-211
-604
-322
141
187
-944
164
-136
300
264
120
582
-696
-39
-621
6
-77
-90
369
128
286
-45
-646
294
-198
-408
268
-90
511
-15
629
-62
158
85
215
199
302
478
980
-297
0
-658
367
-536
-614
-494
-125
-512
410
-254
330
-342
-427
127
-325
-223
-322
287
-422
245
-372
142
608
463
781
-425
782
-87
748
-152
-101
500
213
-316
86
-731
152
-419
239
374
-33
-207
200
263
342
-434
1
-141
-223
363
-298
135
-188
-472
350
-98
-125
101
-203
-78
-420
-10
204
126
426
136
-135
26
261
198
420
-405
-288
-73
171
143
-551
46
-905
259
25
-366
-60
86
-74
-96
21
14
-420
10
278
315
-702
-469
74
-506
-398
9
1074
634
86
527
239
-77
303
125
-210
-156
-219
-63
-566
115
-17
355
-59
288
-352
-328
229
190
-44
-42
-151
-196
-364
98
-313
199
364
159
362
238
101
137
-452
-284
203
103
70
375
-452
399
-159
-154
-352
117
16
-247
110
601
-60
-71
787
-628
8
-215
-61
216
-49
-197
-272
-103
149
-47
364
109
508
147
-73
606
259
-160
-59
77
274
-150
-354
-135
298
-329
314
-141
-107
154
162
-301
-54
-87
878
-207
43
147
85
-452
-198
159
5
383
-203
245
34
-167
227
-615
73
-422
-95
-398
306
-150
86
366
-427
-67
-69
-274
275
-70
285
-319
-105
414
26
-137
209
-620
142
769
-75
-417
-220
-24
-101
216
-353
326
-176
-308
-439
17
96
-241
410
621
-326
67
-236
-397
168
-401
-136
70
152
85
336
-269
-393
-142
238
-69
-700
-222
-119
90
319
377
14
446
671
-92
129
41
-1200
338
291
-384
333
-545
-522
314
46
-367
-441
-24
-308
422
-313
-343
440
-59
510
-291
456
-7
-169
-391
-182
219
195
-805
203
877
732
-586
-289
192
351
649
110
-741
296
-3
208
-473
146
297
-476
335
-77
53
-672
354
42
530
313
-366
-448
302
584
-571
-250
-221
-528
-540
-237
-222
-415
-332
127
-115
-84
310
232
-79
-132
-130
-208
-95
337
-21
285
501
-12
198
-64
378
-114
254
-171
103
-52
222
-403
-242
1
173
-136
178
576
-233
152
-300
72
362
229
197
-68
16
123
-344
250
424
-339
358
122
-449
-62
-172
-185
343
34
216
388
102
55
60
-482
-7
215
480
109
-432
196
483
-196
-61
493
347
750
-439
429
-376
517
-277
44
306
73
-286
-229
-774
-523
-148
-43
0
23
329
-233
100
240
416
106
-124
308
404
859
-378
494
208
357
-88
-216
-1
-212
-23
474
-875
195
-43
200
-12
-190
-277
701
24
69
-476
-105
95
-240
-218
-35
-17
272
-115
-388
68
-326
139
51
71
105
-334
-418
-29
339
262
152
177
725
324
276
338
54
-107
93
19
-53
-548
-305
-36
-169
-827
50
318
448
377
-351
493
-614
-71
74
-61
-277
-328
-62
-411
191
50
203
-437
-404
-119
24
282
-323
-428
553
-72
328
104
47
-420
-144
7
27
-394
134
-251
306
-591
302
34
-498
10
377
-429
-179
95
973
644
-180
-102
-85
-38
-165
-329
-277
262
280
-121
163
-344
153
150
570
-677
227
67
223
-214
356
323
-218
316
-112
-59
-268
-708
173
-429
518
-32
-304
82
-253
80
-213
-402
-108
-396
371
200
-389
-423
-324
105
518
225
174
-480
56
462
237
-46
-66
97
-146
-81
-224
-191
-163
109
222
-137
-643
-42
-34
483
-245
308
-376
-176
394
-483
71
415
439
-76
-496
55
340
205
59
-357
151
487
143
-83
311
-106
-248
-670
-202
-221
232
-186
-448
246
-164
132
112
-2
-41
641
-279
401
37
-593
585
73
602
102
-101
6
-249
-371
255
-185
64
131
177
222
-346
413
-302
-437
-308
-294
263
268
-915
-835
-84
-242
372
-16
-127
355
55
-562
-474
154
48
0
121
249
483
490
-149
-8
-92
-245
560
-117
114
-84
-169
-46
102
447
676
279
266
-324
612
165
141
73
848
-492
-436
-291
-329
317
-204
-296
71
766
85
175
273
33
164
506
-344
-88
30
250
-523
-91
-204
-390
-494
-110
110
115
-7
-92
-53
586
-291
-489
-92
70
290
-338
84
16
-73
51
-87
99
-368
-101
-265
129
194
239
-21
-395
-236
134
414
-375
391
-445
-2
469
201
58
119
313
-301
560
-21
2
-253
-50
92
-299
-451
37
632
-186
-180
-153
153
-62
-514
-113
17
-2
-141
-130
164
-415
457
290
102
-626
60
261
234
-302
537
377
91
561
-223
-633
291
229
202
-193
303
383
-202
282
272
378
426
-195
19
-70
443
295
151
381
-720
-272
-232
195
-138
78
-196
31
258
336
-119
41
-190
72
-285
52
-512
287
-685
-169
361
-614
933
-201
205
144
449
359
-471
-572
-229
884
-91
-451
414
477
-39
-641
171
-183
76
688
293
20
-16
642
-19
-92
-13
-115
316
500
-186
85
45
191
-574
181
495
154
188
-95
-574
-15
641
-59
362
283
-281
-485
81
411
-246
333
-298
91
-126
387
433
64
722
-158
115
-688
46
336
-501
-41
-69
210
686
153
737
289
206
-130
-107
-76
624
-197
-968
-24
34
-66
-90
-244
-525
-167
47
97
381
-838
206
-245
144
-257
653
-193
-94
510
225
-289
-328
-312
-231
-395
532
110
-242
-754
-78
287
-71
169
-463
229
-111
-88
270
-685
260
88
130
-158
-57
-59
-119
-45
-327
-106
373
281
457
-255
-667
-68
167
-217
-381
457
-22
-471
132
-58
212
356
-162
-7
-19
477
120
297
-430
260
-2
423
-208
519
-4
304
-39
-359
-226
-424
469
-39
-23
402
423
-63
404
60
-40
-507
167
-163
507
-28
-223
-145
647
127
491
-367
398
-234
-238
160
-303
-168
-509
32
22
286
58
-393
150
-113
-264
-257
-84
94
195
628
-26
-113
-191
305
-578
115
118
-83
192
-110
-50
-369
334
-73
-172
-700
18
175
-222
-266
18
316
726
422
83
393
-52
-314
32
551
131
-690
-244
-168
-122
-16
-129
-167
193
-886
-206
109
-181
344
-418
-242
489
-128
175
-525
157
198
74
1
-35
-963
39
811
406
-662
-147
-204
59
275
68
210
-367
296
-218
-428
-464
464
-942
-131
-389
499
-150
-273
-136
-171
7
648
188
253
-742
145
19
377
200
-165
8
-139
16
285
-156
175
311
101
-214
-463
-190
1110
-298
-388
351
399
-571
-794
264
-371
226
99
-403
-416
-9
-19
427
263
1107
130
-121
-65
-143
518
-307
-153
474
295
338
-810
-129
-554
-296
-61
-321
-450
4
353
499
-403
394
-532
-137
115
161
262
802
-319
-584
1
-103
-35
225
-18
136
-179
-213
606
236
56
487
-469
-248
250
-321
-28
458
538
-59
306
11
-37
549
-72
-166
185
-339
201
-675
-253
434
-185
-357
217
25
-182
89
-181
2
102
128
-400
-147
79
185
-208
117
-344
-279
95
159
-167
-294
212
402
-346
-375
30
134
856
358
103
448
-172
296
223
-330
-217
-701
-96
-435
-126
-25
-231
-179
261
-308
-59
62
-484
274
140
482
174
149
-61
-22
-1004
-268
258
-285
482
-195
-38
-220
-478
-56
352
-279
-592
-15
-4
-69
-233
366
-194
-333
376
375
-297
202
65
254
112
102
-244
-16
31
366
149
-443
-140
-69
-122
121
-61
236
-72
-193
-364
-93
-180
481
575
-195
269
-189
4
250
238
-430
-391
24
620
-111
271
519
709
597
-460
-470
-119
-463
479
-111
505
741
-2
402
-87
46
-235
673
60
535
112
-282
-157
9
323
-992
313
-146
-51
-57
-366
-58
147
573
275
231
105
-652
-135
90
499
-54
189
388
-462
296
506
-586
129
158
170
513
-36
-340
-349
-891
22
262
-122
362
452
415
-186
374
-465
209
-597
-452
-946
-164
748
103
-236
-252
314
-27
442
-389
187
-148
181
-190
-34
-258
-41
129
194
164
153
-90
-171
-377
-139
74
38
309
-169
34
58
168
-271
-309
580
-155
-636
508
-69
224
-517
2
381
530
732
16
407
303
-460
-129
-328
-491
465
-373
563
-413
273
-182
52
172
46
-10
313
-95
44
279
-42
-166
573
528
149
-276
-95
-400
482
-494
-212
25
-174
-625
235
-699
-90
-184
-607
97
-96
254
-422
-347
336
122
-123
201
-60
72
176
106
-117
-277
72
-630
398
-198
372
240
109
-139
-232
217
-244
243
141
488
174
-241
45
12
-369
-94
863
664
-137
307
266
-530
-29
-5
-46
-134
-692
206
-443
189
-181
127
193
-307
254
-42
-245
-182
119
113
257
255
180
411
-35
484
878
-297
670
482
147
330
131
450
-1132
386
253
11
-931
-179
21
305
270
74
-224
-411
-71
-227
323
-187
-216
160
84
-473
226
-496
522
151
-288
-240
55
504
-51
-408
-407
457
-213
534
-190
300
68
424
-112
519
252
-120
-148
-239
198
-129
-284
162
229
-472
-43
170
-139
192
493
-80
361
-271
-75
643
419
72
387
470
-45
-253
-910
-75
-207
-810
182
-132
-2
545
-446
109
-10
335
-79
238
12
55
340
208
-280
253
-138
-36
-393
-559
109
-317
-128
-291
217
-260
-30
43
332
-286
-93
50
-310
295
153
-162
-296
-152
-93
-346
383
240
10
111
607
-359
358
135
271
365
449
-122
-30
-41
-320
437
-220
-213
-325
82
-204
-436
-402
-60
186
-561
261
269
-310
-97
-583
232
180
-4
328
-220
216
-560
-489
-551
-633
-82
-77
1
-206
-54
-781
-118
92
38
-201
64
-327
-133
-572
-313
-707
297
-285
302
-195
-82
354
924
-35
-265
-169
455
-205
-436
-114
232
284
69
-38
526
-37
337
206
767
614
-11
-106
-85
-104
-397
-361
-302
-1
606
433
381
-151
-72
416
-363
60
359
-57
64
-294
51
313
66
-205
-180
-417
-209
80
-260
-332
312
242
0
70
-50
-300
514
-150
-135
305
-155
-50
62
-411
-361
-124
-72
645
83
178
59
-369
-358
-40
-591
-199
-467
87
-310
548
-349
-408
188
-152
-294
408
186
-60
23
-28
300
291
315
-82
9
-108
-30
239
-662
-32
651
464
-107
-23
268
-444
-459
-89
75
791
-277
43
266
-130
102
419
-371
181
246
-76
453
-180
100
270
87
109
-380
514
-430
-794
-307
318
176
-378
-384
-230
550
267
-59
34
-127
-170
191
56
-186
-312
390
24
23
-172
252
-50
181
-48
93
227
-22
-85
429
0
-403
102
354
424
-483
-274
-36
-438
359
-112
-62
32
-213
-318
558
-518
-384
89
278
-448
-741
-41
-230
-189
-209
260
390
-74
122
67
338
-216
159
15
-97
-329
2
125
72
156
-101
-391
282
-343
-563
-270
-638
-61
377
-115
22
-107
44
-22
-489
230
-1
122
374
241
-349
-32
-478
182
-1
244
-182
372
366
-175
-99
171
-258
258
-59
486
-151
-529
167
85
208
124
419
159
258
35
131
-266
-243
352
-234
33
-374
82
-262
16
-260
-166
4
162
164
168
-293
75
-663
-380
104
-135
-758
-33
-564
863
195
106
-398
-298
-122
4
264
-11
-145
-124
-140
-67
702
119
139
606
-18
284
20
-202
-369
86
-308
0
180
-220
-138
32
250
497
-637
-249
59
-306
77
-101
-130
-57
-383
-236
-291
541
-175
104
364
-116
460
-39
-50
-610
127
-88
-13
-330
-211
-74
261
-88
-248
615
56
279
-340
122
-369
60
-195
-6
233
387
192
734
-286
-113
78
-176
-125
187
-244
101
-395
270
-409
-206
314
-586
50
264
-249
-551
-524
244
-430
-302
587
219
70
-69
224
113
-384
511
487
733
28
10
581
-450
1
399
-270
43
-445
88
-566
484
6
20
738
77
651
153
218
-992
420
-777
79
-47
109
-140
-367
-1034
113
-152
-666
99
67
432
48
-73
68
283
308
-160
-248
112
143
-179
-55
63
298
-42
-91
-298
34
239
-309
-92
-149
-158
1
-19
-324
301
-443
-115
571
-273
505
-536
-45
-157
295
-192
239
493
256
278
-128
-499
-47
94
6
216
-130
-242
-476
-380
432
982
-261
-161
-89
-893
412
464
-477
284
-201
157
212
-264
362
-15
290
382
-228
-312
3
-175
383
499
-692
-208
-13
593
-290
61
862
42
-450
592
264
187
42
-209
-147
-476
-15
-73
596
-403
430
-174
-123
484
158
-223
435
260
506
259
-593
-576
305
636
126
77
218
-334
422
90
-63
61
-560
-435
-51
15
-733
-213
-717
-41
11
-66
551
-210
660
500
337
-236
-227
270
56
457
-497
106
460
-198
285
282
-201
280
368
206
-310
-73
-35
599
55
115
152
-689
8
-260
260
-484
337
-128
-233
75
272
13
-134
-525
-762
-496
30
-190
-105
-432
57
170
672
208
381
-124
391
-361
530
-436
-403
-28
195
234
312
-218
245
-283
-88
-105
-526
742
549
-991
471
280
-97
163
323
-137
395
568
-339
42
255
263
47
-373
-97
-389
-478
-500
301
390
-720
-231
-619
-288
-214
-340
91
250
12
491
649
63
163
917
-410
-379
-93
-35
-49
139
-203
-10
164
-49
155
492
-97
-108
-216
278
663
-361
205
69
256
-275
192
-91
-34
-712
-94
-69
-221
275
-143
-90
75
148
-46
-424
-443
201
-32
-325
433
171
-102
-259
-206
205
622
12
-472
-56
99
304
-166
-319
66
412
606
-391
-390
147
71
166
-336
197
420
676
416
-151
461
-119
338
-553
11
124
108
-54
494
30
161
-256
110
-194
-108
-288
556
-79
301
33
-316
-523
-301
77
-151
-46
-413
280
-634
438
110
1
11
325
50
129
110
-158
103
145
-803
8
-205
-90
101
-757
500
238
109
170
-489
239
650
32
-182
52
203
116
122
-252
-129
-239
205
152
-42
-30
-474
-92
221
397
37
-257
20
-197
-338
232
-101
-87
287
-111
28
104
188
-106
-98
-80
405
252
477
-250
47
387
-276
10
558
103
624
269
-566
322
340
-187
227
36
-108
-488
53
-682
72
427
-376
429
9
291
-35
-265
-330
344
-235
-190
105
94
36
63
-54
-160
123
-694
-165
-16
-275
256
-197
427
209
300
337
-310
168
410
107
-217
332
-366
589
92
-44
-268
82
-74
-226
20
-384
66
-329
-180
396
258
-183
-52
309
501
-25
-481
-42
-193
-78
43
549
72
-142
-146
-314
-326
-39
-529
211
-13
83
211
-138
104
-123
92
78
144
-514
-193
91
-1
-253
13
400
521
-540
276
-625
-592
-343
-429
-267
139
-143
-89
-525
-453
420
124
501
607
420
831
345
315
-7
-168
64
-241
112
147
467
547
-183
-474
-25
185
-135
63
213
-41
64
-78
-120
228
644
142
151
-71
-185
307
130
-141
-15
-172
33
84
241
-107
-143
-334
-153
150
141
-58
165
201
-51
128
336
60
-539
248
-125
68
-174
-9
-7
32
-214
256
214
-35
-224
287
337
-9
140
40
135
234
597
-860
518
594
63
-459
276
-400
-17
656
257
-172
-74
200
345
-583
-235
-701
155
179
251
211
-114
248
-370
-275
-465
22
26
224
84
-432
-700
207
120
-26
-447
-36
-385
188
317
-50
-170
-302
-273
-205
-537
211
-387
18
-201
-168
310
340
126
-147
71
-210
-145
235
189
-789
-148
160
-235
371
-467
238
71
353
34
122
-270
7
-150
497
351
-180
464
52
115
-121
148
-266
257
-76
105
-941
355
448
500
-304
-94
-397
40
192
587
-282
-444
-137
-67
-104
-479
143
-177
91
514
253
-451
216
-443
483
-280
95
-494
132
-261
225
-473
448
-245
5
-69
141
-178
277
732
714
-245
-254
-100
-67
329
-271
5
63
-610
-305
-379
103
175
354
-142
-14
479
-185
140
262
485
73
36
-179
134
192
-113
-386
-61
-652
-378
27
516
247
53
-674
-203
-333
-11
-39
138
-457
118
72
-382
-196
127
-83
-84
528
-338
348
-16
53
-386
-280
-263
102
-38
134
-272
152
58
-234
-344
525
-59
-170
21
340
101
17
43
-42
536
296
-332
-409
-327
147
251
459
108
323
-249
-169
88
-194
-193
-93
-24
186
-329
196
-569
59
328
103
120
217
-368
-9
-481
-390
-374
-37
51
185
-130
255
-16
309
102
728
-324
61
396
-196
322
258
73
895
116
201
29
19
-310
64
-154
364
-160
-185
-320
136
350
-109
-144
80
476
-570
530
-328
-390
-84
164
100
-36
-39
72
86
313
-277
-230
21
-236
268
-338
129
52
410
36
358
-238
-213
-193
25
-721
-225
-116
282
394
-249
-441
103
86
630
-476
147
-413
-128
392
-105
-181
131
879
331
338
-91
-129
-273
-384
526
-202
426
164
196
-229
450
-193
-284
-11
395
-295
604
-461
574
-227
-61
279
-300
103
435
140
891
120
208
186
763
225
205
218
-197
-36
73
-77
248
160
-299
-129
-490
-244
564
-258
183
-354
-121
-81
-162
529
323
281
202
-257
-242
274
15
85
130
37
-50
-259
130
-413
-169
-377
253
240
189
-205
-25
-27
-81
-147
-57
115
-121
-284
110
22
-92
383
63
-2
-285
-125
504
-519
-408
360
-213
-388
-129
563
-601
381
-84
-370
707
-250
294
53
-177
-301
-206
359
19
124
-394
285
-67
-42
-271
-110
-476
-420
108
97
189
359
461
613
-78
-88
144
187
48
306
-580
-333
611
90
202
244
27
-281
111
-254
-96
-179
-285
-807
-1010
-434
359
-46
205
125
140
138
264
-87
-245
-90
411
352
-51
-326
-96
189
-400
-64
2
-188
117
533
186
157
98
414
-42
-247
-120
349
37
-21
-64
142
-534
-135
325
105
150
-9
123
-520
430
-286
-172
-268
83
54
-204
-107
163
-4
-253
76
379
-177
82
408
-105
340
119
-157
339
-35
-474
-309
-754
-300
-198
116
191
-165
31
478
-201
-219
-350
-106
343
354
-608
514
-22
-89
-153
-12
173
153
106
-93
-512
498
-184
-57
586
839
-177
-650
158
-315
-461
-782
-50
375
767
162
232
68
264
-146
-77
-345
-83
-50
17
149
-182
80
287
-33
12
225
507
-469
-371
2
-300
-461
-186
871
232
147
232
-19
-51
-95
583
-126
251
-31
92
-190
368
103
-56
-638
177
-130
157
406
-145
230
126
245
516
223
217
58
500
-206
355
169
-706
24
664
361
13
285
-388
0
466
224
-443
309
577
395
264
-333
-415
675
-567
-149
68
-81
472
-769
-8
-63
-8
-205
119
338
-791
-287
-9
-310
407
-39
-91
295
-258
-115
-215
88
204
-286
-120
-316
8
679
33
-143
142
207
-73
-331
-362
-641
289
-362
551
89
274
176
183
-204
541
-51
-278
67
342
-538
-479
140
-433
95
232
-401
544
-4
-159
219
-129
-6
39
80
-472
-59
-353
144
208
482
100
-43
391
-196
-745
-512
-443
-325
17
607
-153
-227
67
-429
233
-234
140
425
145
-826
-277
134
179
166
410
-258
-432
463
-507
99
437
285
160
-158
-42
115
151
-579
35
93
357
-55
-59
707
-100
-43
12
147
50
-131
-241
-214
-64
233
-84
354
-341
423
-517
-413
-385
92
-510
-160
269
-29
280
151
-445
305
317
-443
-395
-188
-417
33
378
-405
-317
491
-34
-526
465
290
280
1053
-324
575
-531
32
-39
280
-236
-92
-415
457
85
858
-184
-694
-360
-301
-558
-697
-98
-458
-103
62
83
445
-142
-167
-249
-132
-321
372
-498
679
80
-97
623
-104
206
-280
89
266
9
-331
-372
271
258
220
-176
-287
137
30
72
310
-233
-519
272
-43
-308
396
-480
-312
84
242
-140
-922
334
-279
594
421
-97
-158
-435
825
-134
50
-182
191
-634
154
-317
-12
49
433
959
232
-330
-285
-656
263
220
-637
-227
597
503
147
-333
-337
111
-321
-117
-6
267
-333
283
-146
30
-204
-108
-414
312
-20
-444
-205
196
-623
292
-295
-2
-44
12
550
-48
356
453
856
-160
-250
-352
-167
258
561
-205
150
-515
-476
176
-170
759
-286
-707
-213
397
-439
18
599
-30
58
-72
714
-1
-218
111
86
263
540
-464
-23
-71
54
-671
-106
87
58
49
54
166
-284
-460
363
693
288
178
185
-387
332
-139
479
324
-476
520
208
-358
453
134
-426
482
116
170
366
-140
-4
-727
306
123
-518
-282
-1032
204
165
-507
452
-198
845
27
-150
665
-285
-716
30
-342
144
312
24
156
-87
-169
93
-58
-400
-430
58
598
-235
-684
347
454
-663
-429
601
490
-141
-447
184
118
-40
222
-163
-477
-386
-404
63
-441
167
-422
-31
-204
-36
-679
291
-51
203
317
628
264
214
18
-351
-500
397
-86
-63
-57
163
477
430
192
-51
166
-655
-82
-653
-110
75
11
361
-140
524
-356
42
-529
-96
322
367
-48
-331
-114
-23
249
-23
-160
-62
275
441
496
-190
-493
230
348
8
-71
-3
621
-110
-591
480
-153
937
-14
313
-375
-245
174
810
-320
297
-401
-500
-626
617
-350
-427
-781
202
-760
-362
40
95
35
143
-419
-287
396
-818
657
-425
96
615
36
760
-275
-435
85
-213
-802
138
217
-285
480
634
234
271
358
31
637
-71
-116
682
299
-44
-228
674
-473
-623
-273
-408
-68
771
-487
295
-128
-899
-547
-920
213
252
650
-220
636
-196
266
-17
536
421
191
41
405
1295
-402
-96
787
-408
-399
-375
-218
-445
-542
160
361
367
-807
183
-134
-92
87
-388
-26
349
7
10
147
424
-237
165
-522
-478
-475
-233
-22
-136
-28
192
-167
117
-47
52
277
34
172
332
-73
81
447
-284
-110
220
-100
-327
442
-127
356
196
280
-278
-75
-625
-321
184
306
-122
141
-803
185
-247
-142
122
-62
655
59
346
455
-519
269
-502
-339
-395
-640
-270
118
58
-264
188
-79
-435
182
-25
-384
404
-311
443
138
96
160
-205
170
-97
81
-9
-204
394
-166
-159
125
414
-209
146
461
-259
7
147
48
-295
687
-373
-516
-26
-66
-249
-106
270
-304
64
-108
711
90
327
-161
-75
213
-180
-185
-192
184
117
-151
405
394
296
-369
232
-341
-89
-245
159
-145
402
-901
-97
-523
-584
-301
468
192
378
464
354
-21
164
-312
307
-228
114
464
353
-231
-168
606
-525
-362
-143
148
261
-324
-93
60
149
-226
1
29
28
-55
-117
-79
343
-89
739
-187
-919
-259
-43
-42
14
-209
83
336
50
320
-59
-300
-72
33
187
-474
930
246
441
-550
255
-68
-135
98
-214
-313
-27
67
43
-249
-395
393
476
98
179
210
-310
28
-69
396
283
-335
414
-633
5
-158
189
47
6
-255
164
79
-436
-258
204
-259
-201
-163
405
-209
484
187
131
-521
-73
-386
189
-70
411
-184
151
637
-102
518
-226
-54
277
205
181
-556
-856
-523
-334
156
127
134
-67
147
-288
108
168
151
-173
137
-469
857
381
-393
328
32
-720
-83
-732
-54
319
-491
-362
406
616
413
-214
99
416
376
363
696
366
65
467
16
-134
-744
381
-277
526
-154
-100
144
147
-256
-310
664
-561
575
-374
-16
215
-2
-237
100
-150
40
-202
173
262
-109
-266
-403
169
149
63
371
235
-588
-79
-206
-24
18
-409
215
166
-136
-331
-457
-352
375
105
-594
-242
-305
-36
-86
188
310
288
15
-161
226
23
-410
-508
-272
162
505
-13
598
118
-259
-33
193
565
174
395
-516
-42
-207
96
-256
-343
79
225
-231
145
-185
35
597
209
51
-78
816
196
361
-76
-423
124
-611
354
65
204
-811
-374
-254
205
-252
-67
265
560
133
-839
190
342
538
316
-7
368
6
-348
61
441
-10
-276
390
88
-622
-546
-118
-433
-312
-204
512
23
-34
385
140
-130
-54
-253
702
-260
-1226
225
326
-41
-458
-616
981
692
-764
-731
-341
187
457
160
-166
-951
9
32
185
-318
-575
251
-287
309
515
370
-24
-184
34
125
422
50
317
810
125
-278
-663
-47
887
293
161
308
236
-191
-1403
232
58
-232
4
-374
346
69
-210
-179
-412
345
-100
264
81
-387
173
-21
-481
-224
113
-395
333
405
-99
61
340
-103
0
-402
36
-106
-589
-399
255
238
-104
28
-298
196
-111
417
-176
155
-263
-105
287
71
319
413
219
464
-794
85
-59
405
-336
-258
96
-275
7
132
-11
-693
-135
-395
281
164
72
167
726
114
374
115
-366
-308
-412
263
921
385
-154
-237
165
483
-6
-260
562
559
-56
-494
302
427
-333
-259
52
334
-251
126
251
128
-190
-42
488
-341
-683
-477
652
-27
63
-517
-450
-51
-59
556
114
7
-172
171
155
266
-294
-436
467
323
64
423
-75
-195
717
-622
89
-70
-84
391
168
221
-375
-180
480
-225
33
218
90
-400
-226
-223
520
-374
640
-58
289
254
-729
-367
23
-43
333
384
253
-553
128
20
32
392
238
-368
548
74
799
-323
181
92
-130
-6
32
-80
-47
-223
-90
-203
-555
43
-193
335
305
138
-356
295
-13
403
-335
-345
324
82
-95
383
-144
78
55
-247
-172
643
842
479
355
-176
-331
-481
-693
-208
174
-544
-551
-151
221
31
107
-246
9
732
126
-557
-182
-1193
320
325
-378
-94
386
-189
-17
-50
-730
531
141
-248
302
199
87
-179
-506
130
729
-306
600
418
-144
-552
-440
-183
-624
-154
-157
220
203
-111
-72
65
369
242
282
398
412
149
-453
-153
-413
234
132
-170
96
-71
-178
681
300
-425
-34
185
-74
152
-70
380
-668
-130
-322
125
-20
436
-1
291
53
667
-170
602
9
251
325
109
219
-415
569
681
83
-356
-120
-392
-54
-411
-61
392
24
-374
-356
49
604
263
-5
-137
136
-169
-480
-84
-321
29
101
56
-97
-152
-12
354
212
30
-232
-386
-121
-42
128
317
120
853
841
218
-164
-312
-345
-128
-282
297
58
725
384
-375
279
216
787
-284
255
-621
496
249
-545
-1369
55
86
599
322
53
-507
-492
671
825
-638
-163
-118
-119
-490
-260
243
-509
-726
-224
-362
-27
-224
244
-213
313
-202
343
-21
-110
-108
-615
1
85
-39
-23
285
-252
-246
9
-70
-384
-153
255
-264
557
255
-328
140
19
171
-105
-241
-110
-137
280
-58
-542
-78
415
579
25
286
-183
26
87
116
465
107
-26
273
200
535
170
-419
155
181
-23
333
636
-114
-63
-12
306
-61
92
69
-188
-357
-408
65
-545
-152
-55
201
-254
-441
92
453
-92
1021
407
-580
162
-581
-524
-16
48
-282
120
-63
526
403
-296
-298
182
-31
-1
-259
461
-89
396
679
-384
-261
537
246
-163
775
64
208
145
-401
146
391
27
48
-235
37
-32
420
-173
-726
-139
497
-191
-88
-330
7
-319
169
236
526
104
-208
-154
-234
-53
142
-91
-304
-327
282
225
-70
-373
-283
-217
9
-489
-271
1087
-56
-9
61
-236
340
386
490
92
279
-147
-251
-372
-301
172
-287
329
388
523
280
-414
196
409
-405
-6
21
495
-468
-522
1012
422
6
-258
-329
102
-181
-278
88
214
29
-231
-459
879
-197
-86
-431
415
-419
-115
-848
31
360
-217
114
-360
-54
188
212
971
3
499
38
8
334
-46
-27
117
696
-30
-148
93
55
277
-88
-37
2
190
-253
305
159
189
-294
24
256
238
248
-695
-387
571
15
83
223
86
-484
553
242
440
303
-166
224
-428
-84
-273
-12
220
32
-478
-375
242
27
-442
-35
297
159
-17
52
522
-10
174
-202
-306
472
328
96
318
307
-73
228
-275
-81
196
-472
90
-342
247
500
-646
-237
-635
-792
-739
-404
-267
550
21
146
-119
50
159
-450
167
651
40
-269
222
36
-555
4
-365
-83
-157
179
99
-529
-393
18
97
68
515
-230
282
-414
575
-866
-5
-4
-331
-266
-95
134
-201
701
290
25
265
219
-455
-16
143
26
755
-94
823
60
163
-65
222
476
135
-38
-322
1
-587
0
-41
-177
-197
117
342
-355
-301
-36
-285
-508
-194
-58
260
518
74
-85
-556
189
-108
208
-161
185
-939
-11
-114
369
-650
506
129
-399
241
108
159
778
134
41
-834
218
-274
-129
458
-427
-15
-37
1
-517
-451
-371
195
-200
-65
-53
59
87
337
464
309
-179
642
67
-358
584
25
-175
-130
365
-183
-103
267
-635
-100
-567
-231
-11
-114
-492
201
-271
191
-410
223
-42
-110
-202
-39
-150
-49
324
-196
415
-208
-550
2
-45
42
-373
-182
287
-68
-185
-94
3
-129
-69
733
-614
-320
-4
-456
-204
-199
-414
533
620
-138
-570
367
151
112
-10
225
-680
-21
144
-263
-58
-253
143
220
-265
-269
267
-90
214
323
75
332
-489
148
-62
-134
602
343
157
-40
682
469
239
417
-426
416
-196
61
-10
-12
114
209
294
-109
-533
-758
67
-29
421
-187
-201
121
414
-345
108
-372
76
183
-440
125
437
-194
162
4
-89
122
439
207
250
30
156
268
-36
-23
-61
-140
126
-4
220
-162
-69
259
330
181
501
36
-80
-259
-179
-124
370
-35
103
157
-453
-241
-287
246
-342
-578
-92
-239
448
-86
553
-19
-54
14
17
-135
-72
-342
-35
367
-652
430
108
64
320
480
388
-342
210
206
-14
481
-278
475
328
65
639
119
-443
-279
-59
-107
294
-413
-250
118
-288
142
-905
-154
287
72
-31
-153
-97
179
580
865
-185
154
-502
-164
23
-134
-63
33
-12
82
-106
9
-40
-434
-349
-171
-470
138
-288
-195
-269
-4
132
-563
96
256
204
-854
-248
-40
762
1
34
-420
154
-694
-120
214
-286
-84
-4
395
51
119
236
-232
391
1066
-205
400
-228
635
-259
-933
-155
520
-297
-33
426
-35
-22
247
-10
-205
-13
638
-242
4
-73
358
-11
-1
97
372
-65
-333
60
110
384
-325
-184
69
-50
602
-457
-168
289
64
-71
-127
-411
130
402
379
237
540
-455
-155
-128
58
345
-105
366
-462
759
243
-55
-358
299
-201
720
613
-608
305
-42
305
177
202
487
195
284
175
303
-626
-139
-745
417
621
-183
-375
-342
-99
61
-289
-316
-537
79
-141
5
516
-204
331
550
-60
424
-159
-352
11
18
-9
-738
438
817
433
407
-236
-418
10
-246
-188
77
-252
219
-118
-573
24
118
113
330
175
186
-240
58
-250
-469
163
-415
101
399
21
-227
-420
95
669
-906
315
-333
275
-113
-226
36
-6
-426
209
-307
-500
-476
324
-115
-62
117
-108
220
196
209
153
350
-90
237
-99
327
-389
123
-948
-159
282
8
197
-22
410
178
672
103
758
-6
499
205
282
82
384
-69
721
203
169
-248
86
-460
-178
71
140
180
-285
323
79
567
70
336
560
-24
391
-19
-140
17
-437
-144
76
135
-64
642
274
-433
410
262
499
-489
72
-310
191
168
-224
-142
-544
380
-219
367
704
62
171
375
-893
-36
-286
-576
-351
367
-827
-195
-376
214
93
-162
321
-461
32
-43
18
23
669
195
83
542
838
273
122
-83
-55
-383
-197
-312
-423
-339
-271
132
-201
20
388
-23
51
126
553
102
-273
-156
121
-142
-335
30
-295
222
526
-267
-33
-515
-56
-315
223
20
282
-167
-476
-329
659
283
-96
36
-100
-239
181
-152
-128
111
320
-215
-101
-82
158
-236
-97
197
-44
281
156
150
-98
237
72
-319
222
-386
218
-56
49
51
-69
-9
-86
333
262
-65
144
-106
115
-32
-526
-264
354
-414
-245
171
282
238
33
109
-360
-202
-137
-291
-248
-132
35
-101
-175
74
-333
-95
270
-110
680
-66
-39
353
136
-100
-88
-642
-41
11
-434
301
-347
-181
201
-224
556
-314
40
-251
34
116
-15
594
99
-46
24
131
102
439
142
-10
32
-10
136
-381
-579
14
-78
33
-330
91
15
147
-519
-110
-304
-399
220
368
457
69
-38
-47
-559
-214
-102
-154
285
175
378
205
36
239
237
-957
-52
346
-78
-383
366
246
213
387
-304
175
226
69
2
-490
29
513
-653
-285
48
-5
323
659
-427
-146
-448
-486
35
-476
-417
107
-189
83
-12
365
-281
-41
-72
-220
179
133
-177
332
-165
-125
-35
230
-110
-239
457
-118
668
-76
293
68
-231
-52
117
536
637
-282
133
196
-268
-607
114
-104
583
-632
-78
101
-445
-60
-131
-410
212
508
655
61
163
-426
78
-429
139
123
114
-193
210
-56
-425
-214
607
-486
392
292
-162
-292
107
103
153
-1
530
153
-364
-86
-500
-102
-250
49
-238
-112
-695
-357
-85
-204
-191
256
651
119
331
182
-247
-140
139
-140
385
-135
502
351
231
184
279
705
214
26
-141
121
7
-691
-166
-205
144
438
-361
0
360
497
148
191
-227
362
291
-463
-260
-124
12
64
373
-349
315
-331
194
67
-279
379
-454
-391
-49
-331
332
-156
-263
229
-948
477
-23
62
-276
-184
98
56
1
315
-39
183
-386
364
-641
444
-42
-85
-219
171
-31
380
227
346
173
-73
-241
256
257
136
184
-241
522
-168
-64
-30
-252
-325
266
190
28
273
281
319
-19
-433
-98
27
116
358
198
334
-615
28
-374
-131
70
-621
510
412
-216
-264
-479
-202
21
352
215
-432
-603
372
-221
53
327
109
-46
583
254
329
-59
-578
190
557
-545
-168
251
-246
-51
-165
367
-416
377
426
-176
95
84
441
103
242
254
-170
-274
16
-543
-214
-324
216
-265
-238
-4
75
385
-91
184
184
-155
223
-124
-189
-183
-211
-224
-178
-28
-375
78
4
214
6
-10
299
-413
97
97
259
287
-355
-216
162
-110
265
349
199
-136
-63
405
113
-32
-167
389
-148
-277
-348
272
-736
20
410
146
83
-93
79
-7
-50
634
-300
8
-45
46
-203
-225
246
668
35
105
-495
-116
486
92
-323
643
-311
-816
155
-147
140
-241
-545
-272
152
52
-311
-281
734
-656
-18
283
78
114
-32
255
184
-162
529
-489
113
-163
-557
26
10
-627
224
315
-324
-162
-486
424
527
37
334
-452
-29
231
116
-139
-181
887
-4
-345
184
-146
205
-236
206
-639
52
-431
-313
-52
417
342
-83
338
-272
-256
328
183
-454
-148
905
-517
-101
-181
-22
47
300
55
-168
181
167
40
5
-364
222
-253
-351
75
-123
272
58
-131
-100
660
-524
-155
-386
7
1138
473
-154
68
78
-348
-610
99
122
147
330
-339
-625
446
251
-144
-261
172
260
288
143
-576
-491
-235
-495
-10
-183
21
-123
90
417
-279
-266
365
-392
-186
-106
-278
201
133
93
818
41
286
172
255
289
478
-255
577
66
177
191
-129
317
71
-289
-887
-669
46
-268
-324
-503
76
-257
540
276
347
106
11
-75
-19
128
-203
57
342
-228
121
-340
-549
379
112
-163
-58
272
-199
280
-105
-292
316
-82
446
81
207
-166
-355
433
-308
-61
-212
25
-55
627
349
426
-22
79
89
30
-27
-66
-565
-307
166
-262
-152
-583
-253
410
167
6
245
368
47
179
202
-181
120
72
-69
25
-9
70
390
-12
-311
-222
-448
340
170
-77
17
93
-81
439
-154
-222
-324
-7
-121
152
-303
341
260
65
-387
-368
579
221
92
86
338
127
-192
188
-349
658
-279
233
-489
-99
175
485
-82
-294
94
-92
474
126
46
343
164
-266
-137
60
17
-629
-302
-449
249
-230
-486
-278
-60
150
-332
-96
-156
-380
-155
50
195
-170
-200
240
-34
-254
190
335
-572
957
-280
102
133
432
169
878
-339
-591
269
-329
-292
440
-113
-190
86
-4
-479
24
-109
293
341
188
315
-200
30
-429
-240
-17
-411
-163
500
160
-155
22
367
91
336
49
491
227
-121
88
-108
-339
222
-29
218
-402
-310
122
-445
-249
-45
214
-48
-407
-114
203
371
486
743
395
-389
-444
96
-780
-538
-214
349
-171
-404
101
55
94
-97
398
-24
-95
-639
-370
-53
215
-23
167
-45
-400
157
128
-189
-265
63
342
101
86
191
45
-88
444
-113
-283
68
199
48
101
25
-85
-111
-252
-366
-747
-29
-592
-64
278
-287
148
-519
-52
738
200
287
-374
-70
-277
-129
228
209
35
-153
-15
338
18
273
231
-151
8
121
-911
166
-399
-90
32
-73
354
-151
263
-62
111
-51
35
-124
-37
87
210
27
595
-105
266
-223
161
230
-271
-199
134
194
111
165
51
-142
-200
-246
235
-23
-56
-358
-103
31
97
313
-188
240
736
188
-7
-223
84
30
-199
-365
-702
137
433
-741
730
279
-74
-106
360
-416
435
290
-639
147
510
-510
-911
173
-340
-273
-302
-251
625
61
596
142
-324
514
-85
-417
105
325
90
775
-746
-370
-40
119
-148
153
-213
329
340
392
517
-11
345
-129
-269
-630
102
-196
-304
55
-240
-120
-75
-166
-38
-185
46
-164
-248
257
-333
461
76
-724
229
-357
-368
537
-196
-279
-198
672
-447
743
-514
25
436
143
-440
134
430
192
-257
261
-115
-281
202
-141
-93
-181
449
40
647
54
226
-182
-483
-450
-107
533
-232
-328
400
-119
-140
2
-370
-244
-320
-111
-529
430
-267
-286
476
66
-289
-345
-374
130
-43
-144
-698
222
197
302
-182
-188
717
-24
610
-105
158
539
183
379
-321
196
-755
-467
166
743
-658
-359
-44
304
-21
255
391
-382
58
-322
-259
-201
321
353
-69
536
-83
506
-758
536
-558
471
-523
-264
-411
-107
-508
471
-175
-495
-114
-698
-466
387
-136
-53
-678
-657
-202
-160
586
288
-840
426
244
73
-231
212
433
299
-116
185
-348
172
-545
453
128
431
-12
356
93
43
171
-246
-21
190
-73
182
118
72
-286
-111
-260
329
226
26
50
-270
328
383
516
-159
-503
38
-208
568
41
376
267
-93
-502
215
385
220
-540
-393
239
306
53
-56
-77
253
-122
132
-182
-413
-499
91
423
280
-140
82
57
53
204
-478
224
53
-329
190
102
158
-8
-670
131
118
190
-201
-32
181
-174
294
94
98
-409
201
306
-189
345
-183
367
-175
-141
-129
-266
39
-32
-104
98
-164
-213
-434
51
-85
1
24
407
-547
57
44
17
-516
798
235
136
38
429
-18
214
-309
-446
-606
335
-195
794
77
374
427
-663
-326
-989
657
-211
-284
-489
324
-336
418
-411
567
-699
-980
51
717
403
-345
-73
-240
168
258
-496
35
-578
208
-86
739
157
-265
204
-303
379
-622
385
176
-282
-211
89
147
-257
-453
-124
-264
-460
536
339
-387
-207
-13
-595
-215
158
220
-431
177
138
494
-106
237
-236
515
-394
89
203
-362
-497
-339
-4
552
300
-236
216
129
-149
339
584
290
40
356
-133
81
-97
-669
-219
208
351
-280
382
-181
-508
59
-460
-633
-259
-301
694
-284
420
-12
724
-276
-273
-59
285
-24
201
199
-419
-129
-733
510
-444
642
678
-215
-10
219
-217
24
-120
107
185
-231
-76
-323
14
-105
25
-220
-432
-57
58
324
137
-5
-287
-46
-767
-18
-188
-33
179
144
184
-65
68
460
-264
166
-240
418
321
-333
98
-386
-195
168
102
-11
320
79
59
-419
40
8
120
221
278
-55
-220
-335
-346
-61
-117
-478
181
-324
-60
223
455
375
-154
-16
151
-16
-3
-67
147
213
506
-46
170
320
589
-203
122
-271
493
-479
-218
-110
402
-304
-161
2
210
-698
-32
118
322
-1
-180
-783
166
210
108
170
169
-8
226
157
63
354
8
-234
-299
-1023
161
199
-207
166
-177
436
-801
52
199
296
304
435
-444
-380
-10
-419
-387
-251
139
-364
56
-397
584
-168
-10
310
-182
-539
-13
-514
-574
612
-580
-341
200
607
-29
273
325
-378
475
110
-135
100
-642
179
-170
-240
102
185
58
244
244
-265
59
-328
-408
-312
461
-74
18
34
824
-177
-317
-117
-86
386
-55
-810
-242
299
141
234
-7
-251
-524
239
-160
56
191
-434
32
-138
25
98
810
-173
-183
199
228
266
187
524
-270
-120
-147
-338
-159
-83
-76
595
500
-70
721
-182
-496
257
-320
48
107
450
98
34
226
-23
-254
152
-736
-124
38
446
112
-361
-238
-43
664
393
-334
423
-347
-82
-34
-156
-400
-191
30
353
-63
766
-520
-737
563
-153
121
-415
-33
-267
170
265
-326
-162
-4
108
133
498
89
181
-164
-204
-93
194
349
-74
-197
511
-432
50
401
-235
-65
-228
-801
148
609
-1051
248
37
-157
-303
182
-250
152
-337
363
-196
-277
296
-347
264
4
-387
5
580
-22
372
-502
-88
-302
55
-195
201
-104
293
-41
317
-51
-558
608
136
-424
122
99
273
-248
-316
-460
-235
-232
-416
-212
124
235
-499
-521
115
190
-406
257
299
261
-133
64
-185
-356
1
421
271
-145
-6
193
114
-291
324
407
-229
489
161
72
144
-210
-128
-182
-199
-80
601
286
102
515
-327
319
81
-415
-66
661
276
-20
-63
-398
-265
-222
368
91
-360
-171
39
225
-329
-494
-726
-993
598
473
-257
-415
236
209
143
-220
-189
-373
-629
275
603
59
571
427
157
-261
-94
-71
18
-283
-484
-19
226
-64
273
53
-244
-325
123
-241
-309
18
224
633
-10
-60
-253
-355
121
497
51
-123
-219
131
-182
435
-560
-131
-5
500
536
328
-226
-83
-310
146
55
7
39
34
70
100
-148
-209
-203
126
326
-697
383
396
188
-244
-176
266
626
-259
-411
360
135
89
-311
-415
106
-447
-161
-65
-243
-275
-490
-61
-125
65
66
-36
367
-354
108
135
-17
271
319
391
223
-5
59
-122
141
-287
325
-67
814
23
-51
586
207
162
-187
711
569
740
-62
-677
-31
91
-406
-342
352
795
-107
97
-813
-58
-164
-228
150
1063
117
605
352
147
-101
-350
134
-221
-223
-372
83
-525
-41
-36
-102
-406
11
-160
-653
115
-358
221
61
521
-229
-173
57
62
95
56
46
-12
119
-180
-42
-314
392
120
-221
-234
475
-503
-567
368
-123
-104
292
-131
658
35
242
588
-335
-271
159
390
-339
41
-119
424
-115
-166
-309
576
-308
450
-258
-55
192
35
134
16
361
104
179
-35
-256
-123
191
354
-208
470
-138
-106
436
3
-128
-187
-367
18
-172
-321
-186
-728
-237
-208
-61
173
-11
-423
600
193
-402
188
353
397
-453
-288
479
-69
98
-332
-59
70
209
185
-201
428
-393
165
310
-205
-277
311
59
24
-43
-297
295
32
-77
160
84
534
662
89
-64
263
336
-345
598
-713
-217
-163
-515
10
-171
377
88
632
129
-178
89
284
-184
-190
595
256
232
-259
8
-345
-320
831
-43
-92
300
31
-553
879
-11
244
244
379
-647
-303
75
-459
389
-167
542
138
-221
-93
494
200
-27
75
-163
-344
-139
-526
687
-272
-156
-303
159
-179
-87
-146
-111
511
55
-411
-94
-247
59
280
398
180
-12
-285
371
-399
724
238
-382
-60
-6
346
-561
193
-672
11
-385
-73
160
141
298
247
410
-247
-133
206
311
-2
499
-279
-71
354
924
3
-349
479
194
316
-44
118
-295
536
-177
44
-818
-436
-205
-19
-96
38
92
209
211
-232
-252
-234
91
31
112
17
9
555
282
71
159
-42
-405
714
109
-140
-47
-264
133
115
296
-540
516
390
391
-78
-21
108
17
92
61
-133
104
45
81
155
-532
3
-212
236
531
205
95
-912
-313
-268
-642
324
82
-81
-137
306
105
-92
-586
-44
-186
77
-459
-50
-344
503
-347
-205
215
-21
-409
544
422
5
-406
587
-412
398
-324
-192
-720
-18
659
-92
-585
17
154
-127
824
254
-160
-114
-397
149
288
47
-346
281
-373
293
-337
207
312
172
254
140
-324
73
-4
455
-89
121
80
-338
13
-16
-412
-172
-181
-238
183
-27
-445
262
507
-617
-332
48
-43
-120
139
150
-86
-134
-54
115
-442
871
337
-280
80
311
-488
480
107
