261
289
-326
-290
-457
-249
-28
482
-201
-210
-311
104
243
705
306
-74
432
287
169
-241
-172
-213
345
537
19
451
-212
27
-112
261
-40
-69
-419
-755
-351
-234
-324
-314
458
-120
-371
297
631
158
-194
-39
7
-6
875
457
-322
-111
285
-755
-71
-240
-8
-925
-489
-149
-209
35
297
371
-350
306
548
119
-43
317
164
236
-231
-197
-126
194
400
-221
-864
-468
260
580
-28
-2
-190
126
706
294
-59
-153
242
-54
119
381
182
33
-656
-169
215
-184
-543
425
-15
454
-129
763
-7
-144
-27
-890
324
-113
-239
1050
185
-250
-316
-231
-202
-233
382
305
-545
-32
571
86
-119
266
246
129
-148
-172
313
142
-273
-506
754
526
-191
-553
153
-635
340
-45
-149
-525
618
-6
-875
-99
231
311
-75
-64
-197
23
398
190
491
-284
224
490
740
-179
802
-188
416
-67
171
87
-397
-224
-37
-334
-577
337
-5
-250
0
5
-528
520
811
-506
549
-72
-208
327
-133
-185
36
-479
-786
-336
-133
-220
47
-99
199
-289
34
-212
-79
-203
398
114
334
355
749
-259
429
-152
-189
-110
59
-18
315
319
55
-60
-347
176
470
-114
-141
-190
140
425
-47
-165
-76
159
-131
-196
-240
37
-399
448
396
-205
92
252
-473
-202
272
-185
-91
153
199
893
44
-339
159
-452
-34
-29
163
366
200
-419
-63
86
232
467
350
-775
35
-84
-200
-196
271
-433
-60
348
121
-360
-48
-714
-83
9
586
-18
373
-345
217
-365
120
205
36
222
-260
481
-69
556
-340
-167
-48
125
463
84
502
-132
264
1310
190
-469
-516
335
688
-275
247
-676
-201
-640
-28
-394
357
-471
344
-166
-325
334
-188
-151
-614
5
870
434
372
-75
157
-371
-154
-92
-83
209
208
-240
-421
-404
-4
658
-256
-160
-230
250
248
-222
-115
-248
287
-14
179
842
111
-251
-45
518
-443
181
229
833
35
-51
-89
-105
-160
-557
-20
-551
-226
504
1091
-466
212
201
-294
448
390
-584
56
46
109
-739
242
315
-103
57
-479
31
-90
317
-79
-34
-227
-61
192
-149
383
-542
-485
197
-89
-123
756
188
181
363
-339
-78
51
644
148
-644
-230
8
-188
-873
-230
-384
-464
-286
206
332
-42
216
650
-51
376
384
-12
680
-227
-57
340
-176
-349
-704
341
-56
-270
-107
59
-197
-38
359
456
355
69
408
609
80
-208
-695
167
-592
-3
399
-651
-25
20
547
-586
-328
303
91
258
-390
-509
90
564
276
-150
351
-387
701
159
245
105
-532
441
-511
60
149
315
504
-47
460
-738
507
-15
245
-422
249
184
432
980
-303
144
-701
1044
-472
258
88
23
-168
-251
-206
-317
-82
54
-403
247
-6
2
-276
-377
-325
37
-104
379
352
-575
5
170
85
644
248
-79
43
-97
-614
254
-42
-395
-203
363
-220
206
227
98
404
-580
71
-279
-380
-281
143
84
-340
-118
-356
38
-194
103
-226
536
40
416
-161
-190
-367
-124
111
454
-6
-26
-146
319
376
-51
-381
642
411
587
134
22
205
-107
-397
176
318
-245
-126
404
662
314
189
471
234
-96
-631
-162
-570
-66
154
-336
296
561
-480
-688
-189
-537
-210
236
-675
957
-36
209
256
139
88
-309
291
279
832
-120
521
-127
-29
27
-341
-485
662
-272
-370
256
-321
-461
-39
201
-80
-193
170
-318
409
394
177
-300
-183
537
272
-746
332
-173
939
147
527
-50
-32
714
60
-468
-612
-141
64
-211
81
5
-165
100
156
-228
-10
429
-69
-383
-386
541
25
157
196
-270
305
480
-398
385
260
158
257
375
353
3
-138
-151
-286
78
-195
-368
35
716
206
-436
-257
475
-233
95
-316
-708
12
133
-49
-334
32
-112
-162
-135
-8
-55
-42
26
941
-220
-110
204
-384
-436
-434
46
187
64
-141
97
-19
-198
454
-229
-117
41
429
-89
14
-426
37
-513
599
313
231
-78
457
62
-15
553
-91
62
261
352
-48
-310
-234
-331
612
690
-873
-499
203
816
460
-43
142
-388
-96
224
-55
351
54
-358
-97
473
43
-380
-168
345
-557
576
478
-140
-135
76
-25
-199
-524
170
-163
-335
-670
668
-75
375
76
26
215
457
9
-220
296
-51
348
-490
27
-423
36
203
115
469
-194
-35
89
114
555
-224
-151
480
11
-45
-340
-426
-136
-346
163
86
103
372
-13
-107
328
141
9
299
-31
-49
201
260
-172
-108
-161
383
-466
321
782
411
-558
406
-143
-415
-429
-327
91
-298
64
302
412
-202
-196
88
302
-358
94
-117
-139
400
-239
-45
-383
926
-68
12
167
286
-2
97
-177
-656
696
-269
-256
353
-128
13
-367
-381
-274
161
-305
-999
-313
-553
251
-200
29
130
-12
-51
-5
-366
441
37
-279
92
-348
-421
-469
-428
-103
1
240
-709
107
138
-87
-207
704
-197
172
122
291
12
-8
345
94
431
-289
-332
418
26
942
-358
-328
148
369
-204
-223
45
-590
294
-46
515
-398
-108
-824
73
311
-337
-287
444
542
-274
86
357
489
544
-59
48
34
-1
251
-583
-17
518
297
200
10
-69
464
226
121
710
-266
577
-269
-121
268
-226
87
285
85
-723
35
485
-336
22
-382
-282
555
449
-95
542
-224
166
854
-518
-266
-300
127
140
-48
106
-134
-785
-526
347
-590
-262
-757
722
415
277
220
-283
-386
-152
-20
693
-450
351
-106
-8
-325
506
-418
27
-342
42
-178
-203
386
405
182
-12
-12
-389
870
40
-516
156
-91
539
85
-122
-71
29
-43
268
-419
141
-455
-17
-371
-293
-345
-279
106
215
-176
58
-245
404
-497
-6
357
-54
-749
228
156
-125
-329
485
70
-116
-795
-277
-197
691
-214
365
-80
-78
56
350
-209
640
319
-395
-293
-211
-326
601
111
-399
-441
541
296
-235
-583
-73
-519
-616
129
10
440
-334
709
182
-272
-71
52
-46
44
114
525
-91
150
93
23
132
1007
226
-37
10
-183
112
-223
-289
-529
269
42
-129
-597
-13
273
26
519
-234
104
-76
-321
-114
469
65
-790
12
-411
64
194
363
-676
72
473
-745
105
-398
252
-172
221
-136
-468
665
302
-748
520
-423
-185
-295
10
-34
165
-545
592
878
-265
-294
276
-169
57
299
-459
414
171
-475
-669
-614
485
-163
518
306
109
-27
602
-412
-370
120
282
391
-53
-367
284
-510
-513
82
-420
482
-92
168
-125
-477
-258
-351
-245
371
-216
-149
149
-194
-148
-231
26
760
50
-71
-202
362
-443
368
118
-3
293
-740
-226
-371
495
70
-206
-713
-477
437
309
628
508
77
-379
-201
327
-155
33
343
-285
195
-12
58
-344
269
-712
91
260
138
-810
-4
50
-707
440
200
-675
-286
39
-599
192
8
174
98
-723
408
-427
-384
-290
-470
684
180
-365
-284
-24
-216
-20
71
-624
388
235
-11
-298
-270
508
359
164
125
-197
-37
73
-185
141
-293
-199
-163
-307
-41
173
32
-567
-110
382
-92
79
236
-201
-696
217
505
-332
209
130
-342
-176
-47
352
-461
126
1
448
346
141
-13
57
380
330
-670
-125
-431
-27
688
65
-185
275
693
168
-105
-206
-213
52
314
-229
390
-264
396
-171
-382
-32
473
80
362
366
-163
-149
-124
416
99
-789
125
597
-278
-144
49
421
14
-9
387
140
-52
-111
-320
-221
-119
-45
38
-685
-301
-426
430
-842
66
376
-18
474
-142
264
575
-371
3
-861
791
-389
262
361
32
-462
58
145
-146
399
372
-203
-114
611
-18
328
125
605
-311
-3
-407
37
-395
85
203
343
-46
185
359
125
-105
548
510
24
-218
252
690
-224
40
-380
212
-53
170
5
-708
209
365
331
231
-262
210
297
268
6
-56
-248
153
260
-108
389
102
498
824
-462
-372
-1091
-157
-321
166
-322
-569
641
11
123
-31
642
73
216
-553
198
84
-78
187
220
605
-224
-93
102
56
67
162
-180
-125
78
-33
-84
-146
167
326
74
120
-354
-194
-52
99
415
466
-156
-404
514
351
-111
659
124
129
310
-484
129
405
48
-343
160
-154
770
-29
-401
190
-683
79
-2
-352
-270
103
-32
-365
325
93
-491
-131
135
151
94
-218
352
216
312
-354
-6
-120
90
11
558
-168
-98
-136
275
7
-136
-174
-24
-115
-114
113
137
-101
437
-71
-176
-223
-15
172
50
-166
10
-200
79
-503
137
-703
11
-29
-430
-82
291
128
260
473
-62
-112
461
376
290
-429
-157
-98
180
109
98
14
7
-1039
-247
-247
305
382
-471
102
119
1
336
562
399
-359
53
22
20
-605
443
-194
299
-526
-31
-432
-9
-117
-197
51
-20
-203
-799
221
501
-568
142
-242
449
-112
141
539
-256
571
151
-172
-521
498
-416
-255
227
-281
599
-424
-219
-511
95
-364
816
466
85
199
586
-270
-517
233
-161
13
553
-379
-148
-118
-71
35
-232
-189
-173
333
1156
-74
-157
55
308
31
-274
-269
471
44
-27
-304
244
-50
168
-161
165
-574
-434
130
22
-320
-253
-60
-9
414
67
-453
72
-67
411
196
-36
-142
-95
458
13
-104
403
12
214
-23
-430
-9
21
-561
497
-383
684
-519
-270
257
-93
-709
-34
-395
-28
-602
103
-379
-63
223
-53
-114
-475
-308
-67
275
-64
832
519
-104
-178
-121
34
-346
-87
-154
237
-424
-210
-207
-219
478
26
-96
-675
-52
244
-130
179
95
-85
-554
78
387
707
128
537
672
294
590
-417
203
162
222
-356
-87
-311
-742
39
-250
229
-494
-364
-311
499
-25
86
-579
285
-81
-30
-63
164
-45
-163
-198
313
-153
-297
-141
105
589
117
756
315
-591
-108
-69
282
778
-97
-92
-227
265
-195
-191
341
-690
-186
-223
253
-5
86
184
-29
-643
-269
39
-69
53
680
-15
52
-33
-334
-386
-229
8
-528
152
171
-487
-469
-203
250
-206
-35
-289
504
266
74
91
345
307
281
-86
326
258
0
-326
-306
180
486
124
194
-392
646
114
-351
125
-179
36
38
263
-295
-270
-118
267
205
-161
-556
115
-519
-341
126
134
194
-540
-104
-739
128
-220
164
-180
354
-356
-115
488
-306
-229
199
-364
-16
652
-48
6
-339
-539
-544
-254
194
-80
175
-208
-277
532
-488
146
335
-534
-165
-496
-130
-86
-50
149
19
475
-245
-217
-243
-81
-321
-60
46
-165
-79
611
-206
-445
265
3
-190
222
-30
455
-879
-501
473
-476
-128
-527
228
-360
-235
398
92
85
-246
237
-22
830
68
125
711
-673
-310
510
412
-49
-170
281
27
-170
-224
19
-613
74
-283
277
222
492
148
-562
-599
59
-282
-63
-161
-61
-160
124
-61
511
13
227
311
-376
293
-14
-151
98
73
116
-296
145
325
332
-137
-487
-275
-61
500
-330
-501
-2
-238
-431
145
853
158
375
-307
-308
-218
84
-817
238
-377
549
-174
173
267
-159
108
-206
9
796
385
101
-82
292
179
237
137
137
130
-327
-385
-317
184
281
915
409
-248
91
-261
55
-801
-285
175
-32
175
-227
135
299
-20
14
221
-197
-170
318
-9
297
248
148
86
-316
225
26
-234
-5
-413
191
-305
256
-265
-1
-208
138
-282
644
-645
-318
77
-315
38
-349
-81
169
-101
679
462
495
-471
459
-350
303
576
296
-434
188
1054
37
-106
-501
-520
-468
160
-2
88
118
311
7
13
-406
-84
-197
97
12
-246
-81
-269
-87
489
-145
-564
-62
-62
-188
144
469
213
-170
-238
-120
-260
-376
512
164
-11
11
-28
718
-983
59
-31
104
861
48
259
-164
-313
-505
-351
-212
-158
44
487
-22
518
97
216
-74
-10
47
401
184
181
-600
-95
-994
-800
770
-34
-634
117
-444
289
195
467
126
-274
523
-114
-191
419
45
705
236
-342
279
-311
-303
-8
353
-100
-334
-29
-585
-497
44
293
-424
-7
532
-83
199
-10
492
139
986
-179
334
275
76
8
0
231
38
-202
119
277
-358
-437
258
15
-238
-179
-64
-179
-281
321
-405
538
-188
58
-219
308
391
134
-231
421
20
98
-169
258
-45
-629
-3
-161
355
-560
-159
12
-8
265
114
-100
-67
-15
-338
257
-106
-218
372
0
-262
179
-129
-200
64
-356
219
-538
-203
210
36
501
-355
-205
-104
169
534
473
49
-698
-38
-213
319
454
-68
387
-398
242
-62
-170
-244
-388
437
775
310
68
-442
485
694
30
209
94
438
-340
153
69
-244
-165
-112
182
-469
-68
-537
0
-155
64
-132
368
-626
-181
-283
-121
245
190
241
330
22
46
-121
275
-60
-311
379
401
165
-211
-154
406
-367
47
581
-174
538
-427
-78
307
-151
-320
254
45
-278
-362
-587
166
-279
891
113
448
289
-112
111
-458
-176
223
67
92
-218
348
241
9
199
-387
-816
-305
244
-361
-145
-352
-414
-65
34
688
-28
33
-48
44
-18
103
-566
85
241
-145
49
85
-113
-39
43
-153
132
292
431
81
-80
88
357
231
-112
-200
-327
-374
102
192
337
-131
-660
-185
-228
-364
540
239
195
-41
87
-162
-586
-54
-176
-489
-50
158
513
135
901
523
-432
643
0
15
443
436
324
-30
-345
-21
-407
-129
-19
-284
245
-40
170
-201
-67
143
40
-45
19
493
336
82
-773
-664
-310
73
274
339
708
-110
-157
-271
-121
-107
102
-271
85
394
274
21
221
-153
710
152
7
-137
-42
-406
5
387
717
237
-275
-33
389
-262
387
176
-369
-110
-167
315
-479
677
-64
-291
-71
144
496
334
-283
-780
93
30
-497
-526
-149
-180
-559
-168
-182
-433
171
314
572
-308
421
807
155
-238
-237
-680
559
-627
-245
-764
-484
-273
171
-24
-52
-168
-10
491
165
-147
211
520
182
-363
407
114
153
-87
122
-5
-251
82
-532
176
304
-18
-817
206
503
27
-10
-606
-2
-631
-244
711
205
-11
196
706
429
211
166
257
-592
276
418
699
120
271
-149
-820
-218
-138
-28
192
-476
-332
52
82
163
-401
67
693
251
-107
-307
371
529
-676
-164
-316
-249
-36
309
398
-287
-26
-300
-301
97
366
-54
177
-116
210
187
102
119
658
192
538
-132
-68
-84
-283
212
89
266
-306
-543
-50
-385
280
246
420
-336
-251
269
336
-407
146
240
280
521
-145
-142
-841
-162
277
-293
-345
-206
514
-177
192
669
478
-229
9
2
281
387
428
54
-71
-150
116
-287
374
-86
246
45
-479
-263
-23
-31
-207
186
-239
142
183
350
368
24
-241
-194
79
50
182
-176
83
-187
-153
75
-11
-20
103
41
39
338
-111
-186
257
-295
-404
400
-273
-324
-231
100
166
-197
327
68
32
680
-157
112
-625
-33
-226
-504
28
-103
-783
337
271
221
-40
83
69
-271
39
21
281
-725
-48
240
-53
381
-272
-133
137
-191
13
-207
408
-65
23
-96
-193
267
22
-15
-318
286
348
-207
-140
95
41
-191
493
9
-288
11
257
-97
162
-396
-108
267
-341
208
-395
-223
-47
50
279
-13
7
-189
12
-40
576
-30
51
278
82
188
475
140
-151
80
-492
-101
479
-441
277
-353
591
176
551
-537
219
165
419
-455
321
-207
-228
-363
-455
-371
-480
-260
35
-188
94
-525
-266
27
-391
21
183
-94
418
135
9
68
-558
88
-67
346
-295
-6
843
173
576
184
-498
-222
259
460
313
-71
-284
62
-61
792
-373
344
301
-191
-17
407
371
-502
-184
-584
-357
557
260
-516
-197
81
-410
-167
101
79
-68
31
-377
-538
-32
-1
1046
-171
-224
548
296
-447
-31
213
-97
310
226
-155
-480
-259
-115
483
-465
347
145
260
137
46
404
-608
-5
279
-325
85
-837
98
-582
467
-187
117
-256
339
152
-136
164
24
-206
-552
314
-714
94
449
-350
-279
301
148
274
320
616
-379
-260
-307
75
-418
-88
206
-469
-514
-171
-124
-242
-354
-131
360
-706
29
-35
162
911
80
87
-477
618
-70
292
503
-221
40
510
-105
176
9
-46
-114
785
-167
50
-403
645
70
-29
451
208
9
187
170
-88
36
-310
-14
19
464
88
-7
-91
311
-337
364
-673
618
279
-73
-831
267
-68
0
-420
45
-516
-147
149
459
209
244
110
137
738
-615
102
511
500
-156
-569
-243
-45
-124
107
-75
-230
-22
-307
-142
-26
-170
380
-408
-213
297
116
-318
-453
503
-169
75
-766
-533
97
297
369
18
-264
-168
-25
17
95
-367
658
-146
19
-73
162
164
-1
-159
-197
-237
266
-97
589
-626
434
356
124
376
52
-286
73
55
-222
-19
-330
163
327
-48
-10
-387
73
461
-307
-220
-311
-290
57
-81
-321
-644
546
-175
149
155
-198
138
108
253
220
1056
-230
94
127
346
35
-57
156
33
-414
221
120
-46
-313
-440
-90
-360
-51
187
433
214
129
170
504
190
53
387
-133
548
228
-56
-26
-264
-164
496
60
-222
85
544
-77
253
-127
33
-12
65
147
-122
-231
-199
-398
-225
-723
320
191
105
693
-506
386
-348
-98
-120
139
-6
-139
-212
164
350
-134
46
13
-434
697
-69
6
-192
247
-49
55
-91
-36
9
81
278
-66
-271
87
-408
226
616
121
-139
-503
-67
257
240
117
-44
-350
336
-259
-433
180
119
19
201
-441
-167
629
25
703
298
411
189
-355
-555
119
535
141
-282
-537
491
87
224
-404
-309
-323
-148
-292
434
61
-224
300
975
270
432
18
79
-116
-2
298
815
-362
-201
29
-322
-117
-99
202
192
53
-125
144
219
-296
-143
39
414
27
206
757
403
145
279
-642
-524
-279
226
-263
23
-576
466
209
313
114
-112
-144
73
244
298
286
-124
175
-86
-207
-427
325
217
240
-94
-31
246
-335
39
-389
-250
-408
-668
213
64
253
-189
371
412
-152
-59
-276
-11
-44
349
25
-435
-403
-54
701
-281
104
-218
-534
-687
115
-337
-280
-58
8
31
-149
281
76
-365
-441
-583
-2
403
-178
14
-284
-51
300
59
326
105
-241
300
115
27
170
0
-68
309
101
515
343
234
-186
67
340
719
-235
-176
818
758
180
-50
436
-481
-77
97
-161
79
-451
132
488
-589
-258
361
67
33
-54
453
-194
-59
194
-23
116
-180
-44
252
-179
-614
-524
-115
623
966
292
-103
305
-228
204
-152
341
-571
-158
-409
13
446
123
-636
-245
299
28
-216
313
-287
122
-547
228
-198
-380
-515
-587
-398
1101
50
145
-30
-310
-541
537
-479
-402
410
-409
45
211
-215
-548
9
-166
238
191
40
-225
-389
-29
21
487
71
-32
25
-48
-205
12
-42
504
-87
-422
-278
53
-231
-376
223
-52
-268
-196
-12
363
161
-327
-104
209
208
27
-65
161
-54
403
21
159
376
-261
108
-94
354
-145
-67
-428
216
-278
-116
-40
307
-333
29
218
-25
-344
-17
20
-28
-218
-54
423
-37
-401
-106
207
266
6
-416
179
-168
-160
-229
385
-163
-229
-29
132
-28
132
374
515
-320
274
-217
-215
-239
1
-212
250
-175
298
-787
210
-125
-165
-469
-324
253
118
645
-638
405
150
-26
90
467
496
236
22
425
-154
922
-238
310
109
95
-911
155
603
-461
369
167
-225
-250
56
573
53
125
-548
230
-122
910
-169
97
124
655
29
370
246
223
310
-164
27
-107
251
571
-289
-297
114
37
197
-117
51
533
-267
-336
263
-156
-160
-266
-127
-332
352
32
-320
-303
-292
-163
18
347
-803
-254
573
448
-513
-240
-163
-189
-635
-248
584
274
-58
16
233
342
-113
-409
-101
222
138
285
-78
163
-362
-198
477
-127
607
-738
5
-53
-216
183
-158
-271
75
310
-237
284
295
-179
32
-269
571
-332
424
-319
-539
101
708
237
-297
72
110
-346
525
-6
239
-449
-558
-186
380
440
-167
-86
128
-56
34
-383
134
82
471
319
-149
158
-448
159
59
187
-104
494
340
-662
80
234
-238
172
-457
410
139
-97
114
-36
365
-115
-30
402
39
41
-110
-646
-337
89
-97
551
231
-54
-301
276
-27
175
-20
283
423
185
412
142
488
-451
-33
-150
182
23
422
384
-491
611
199
-127
-662
-252
282
-442
-299
142
-325
106
335
-286
4
32
-246
49
-130
378
-82
-488
-349
-393
417
172
-350
-81
217
92
87
-206
-146
233
-141
110
5
677
-349
85
-188
-188
-15
-44
231
322
274
-298
-16
347
265
-269
-276
337
-373
-352
-381
397
-277
-229
-524
161
151
150
-189
-95
171
-238
126
-327
87
-20
60
0
315
-52
-20
379
-122
229
116
-243
-22
-81
27
833
658
143
-141
-295
157
-249
246
105
74
359
147
-104
76
-1
42
-263
9
-319
385
-108
-512
-187
44
-517
226
129
162
89
-79
376
-216
-508
24
-393
137
44
11
-793
231
212
17
-514
20
-73
-475
847
350
210
-556
171
-230
-243
65
383
532
388
552
-258
120
-104
-394
295
-339
-260
281
-286
-46
25
-18
26
84
-96
-227
-425
-617
-75
-159
525
148
-94
203
-128
-205
203
438
-119
-321
369
-14
-21
-297
-274
353
83
134
154
-153
192
-67
197
161
32
-70
360
-19
-600
-192
-326
-334
476
562
-521
155
247
230
291
356
-184
-484
495
93
-43
-125
-397
-252
-404
-379
-313
422
0
157
477
365
218
-198
-293
-167
-262
-373
-202
-106
-114
147
-419
440
-308
138
127
-249
317
-343
8
-228
268
200
-281
508
-107
205
350
-41
295
-220
50
301
165
49
711
-305
94
381
-118
479
16
-226
-2
328
255
659
-44
-79
-960
-483
-156
363
-343
-196
-39
233
-356
218
81
408
-115
21
561
403
-127
-406
492
80
92
-477
369
99
129
323
576
32
375
186
-353
197
-181
43
194
-140
409
-71
-386
-448
331
497
226
596
-331
-56
117
-38
-443
-22
217
97
38
434
3
-103
70
11
-140
-60
1
-352
-127
296
-471
-110
799
-264
-73
-398
185
148
