-114
17
-109
-328
574
-546
853
331
-12
523
-499
-651
-699
669
-489
-1266
-117
1035
-792
-487
-522
526
778
-142
252
532
493
292
-629
125
-296
351
-104
-88
1030
241
924
13
374
820
-734
-576
730
385
-204
-387
512
157
351
267
-575
-86
-712
907
-944
776
198
1077
-217
845
-453
-341
-473
612
217
-164
1611
-340
1146
28
127
1709
-1656
-1349
-861
-2158
-1123
612
-411
-353
305
29
-278
557
297
195
-25
-276
319
-10
-217
-146
-304
48
-139
-230
239
511
-354
-385
-1088
169
-280
180
686
292
630
656
648
1045
-86
-202
596
1355
-931
-27
-264
-195
233
450
-283
1063
-432
611
-661
653
-1599
1021
293
69
-39
130
-216
-55
-30
664
114
-600
-504
-605
-97
29
652
838
67
-161
-212
-146
-419
-102
216
-148
300
244
498
78
282
-112
834
308
278
596
223
76
-232
62
104
710
-64
89
515
-185
-380
-195
-34
4
-58
-81
107
282
-9
60
158
-21
156
114
-81
-693
87
424
282
-2
-62
863
-958
-423
545
156
325
272
-400
269
-944
-943
-151
665
-268
466
506
-340
193
-765
-688
482
364
-116
930
379
-356
-550
1215
-85
22
-417
-914
567
-1923
-1503
-444
-1500
268
-919
1013
-224
730
704
1326
484
-1649
665
337
-1249
-77
-618
-284
1087
310
-42
-656
-1
817
-59
735
-202
697
-213
61
265
-373
557
-274
431
-123
289
-22
152
-287
176
-75
-134
287
494
-893
-451
808
160
-265
-374
-486
426
283
190
-998
591
1230
69
269
-483
-298
-150
-773
74
-652
-149
-925
73
-168
631
265
-20
372
842
-957
-480
517
-864
1107
-312
683
-252
1036
-240
-787
-761
1263
-1155
1112
660
803
-1168
64
-233
187
-332
-802
-133
144
56
-91
235
-214
85
261
186
112
-91
-22
-6
156
-183
-168
-826
-184
-481
277
-38
305
387
342
209
239
114
-293
96
291
230
225
-150
267
186
45
190
-485
-195
-110
-238
-264
565
-102
-145
-519
86
303
51
119
-280
-15
212
25
10
86
319
-149
-383
-14
387
-686
-121
-791
38
496
-537
890
175
582
653
1149
-235
89
-593
-402
-1186
456
460
364
-281
-293
666
-355
-606
-400
288
631
-106
237
-215
8
36
-9
1615
98
568
129
656
-181
194
-891
-821
-299
83
164
-382
-309
-284
339
-21
436
-670
485
-55
137
-583
502
-195
-121
263
187
-7
142
488
-1475
618
-176
342
-138
-1008
722
1556
665
957
487
65
372
383
-283
-267
108
-862
-243
228
147
475
-480
188
773
878
-831
451
-83
576
-321
83
232
27
786
-407
-28
-415
-225
-63
-262
-89
-450
-702
203
401
396
-954
-141
-684
27
595
0
-549
-197
-73
370
170
160
-889
882
-202
16
-195
500
-362
266
-153
-305
237
373
142
823
-9
260
47
386
245
-25
366
-25
278
32
280
340
34
70
-65
30
-177
-392
-192
-80
-252
133
484
-62
-99
373
-139
-179
-413
-575
-7
-209
93
306
-4
39
26
466
-332
55
-8
28
10
120
265
385
421
164
110
132
22
-472
-501
-335
1157
-937
50
420
690
-61
-259
-536
117
-1407
-185
752
446
968
931
-68
812
-387
-478
-89
440
145
552
674
490
-189
-173
813
67
75
8
-792
816
-1526
-1875
-1423
-836
71
-523
1331
-315
1048
1595
2028
1074
-1575
286
395
-1169
135
-519
-564
1229
151
714
-778
430
986
-1044
876
-882
267
-1416
-121
-671
-56
-90
-371
-377
-222
223
267
-64
248
99
-206
-159
27
182
-752
-261
1243
393
253
-698
-505
601
251
-465
-1246
670
928
-183
592
-905
550
-492
-98
15
328
339
-842
-578
-311
274
-217
-736
-622
-508
238
-140
-754
315
59
545
293
-1047
106
190
190
-540
-413
-376
133
-633
-304
-1043
-923
-71
-162
-33
-306
304
-522
-398
225
521
318
-345
251
-522
-372
-108
-387
-349
499
-215
506
244
-656
-187
-43
47
275
38
-422
-148
217
694
399
-309
6
314
-232
60
137
-718
91
313
-607
171
189
692
159
-175
-204
-277
225
-28
560
33
-276
232
-633
-532
17
868
-628
418
-140
-332
-926
540
-1245
39
-251
-970
610
-188
731
1566
810
-970
464
-211
-811
-938
-1005
-1929
1026
394
-222
-1027
-221
-130
-534
-967
-160
1045
-910
-460
504
-614
444
-347
-69
610
69
917
-631
780
463
160
-62
44
-871
-243
744
-506
208
-1074
902
-332
806
-398
265
-800
-347
-1367
98
-846
314
690
1315
-506
475
1044
-581
432
265
490
-498
-726
8
990
-673
360
840
714
271
633
-349
-269
718
-178
-909
-753
-133
323
1112
516
-1125
-5
1270
-54
692
-569
-654
298
-598
-346
1357
-442
-627
268
-736
391
63
-476
-675
-1949
-196
159
556
23
248
-499
197
174
257
-409
-270
-122
19
-351
200
-29
488
30
81
128
-174
-529
-163
-74
614
120
25
-284
-50
-236
32
-142
541
133
-151
226
-426
198
18
-40
380
-145
337
106
-188
-666
-97
525
83
-502
-45
347
-58
-193
265
-83
198
-116
-118
693
389
389
-243
-201
346
-210
-112
129
-167
-94
-103
-291
587
314
-118
-487
384
-49
-459
-102
-2
46
-309
-300
-147
-662
-174
-464
831
98
-354
320
409
-867
-218
-38
-1052
-668
-456
-672
491
1379
157
-591
-717
-149
-587
-558
-343
851
-759
-627
689
-826
297
-451
195
894
-146
869
-149
-649
91
706
-1051
-700
-1171
-469
1271
-211
-986
642
15
206
1678
-2311
-16
-671
-163
-1225
-1502
876
-1413
958
-339
174
282
4
-604
19
483
-158
-258
-474
261
899
131
77
159
131
-260
-306
-91
-784
317
461
512
28
-668
993
-1000
-521
-219
346
346
-99
227
-277
-101
-65
-58
174
255
74
260
-303
-416
-141
13
78
-127
210
46
225
-311
66
282
169
-423
181
181
-17
371
-92
-472
391
385
131
-135
168
582
688
-47
-8
1
-455
-163
347
-157
233
-321
-2
100
113
14
-183
-418
435
-56
-98
280
117
-104
-80
-312
352
10
-99
-15
-226
-157
-92
585
445
159
443
12
270
-272
-412
369
454
133
196
611
-503
289
-363
-200
47
618
128
-62
-413
-43
-548
679
-547
-74
-284
546
76
-427
387
-544
1821
-64
996
7
487
-353
-300
-388
1177
-529
-582
518
431
-263
1176
-498
-165
4
890
-602
-158
-110
-93
171
-281
395
286
-442
15
523
154
-374
726
-885
338
-403
-565
-177
1980
-493
171
734
69
455
-486
-1109
46
1356
403
-515
-1064
1305
-214
448
-347
-926
486
-367
1115
-431
889
-31
-63
408
826
23
231
311
169
-757
-599
-296
907
450
336
-94
281
3
295
267
-494
98
-366
-979
-324
797
-122
517
121
57
203
402
326
444
-12
-97
-137
226
-356
338
109
297
-146
-34
-448
226
-391
-367
-693
236
527
393
-164
560
146
901
-13
521
-430
-947
-346
391
-121
80
598
1002
140
592
-54
355
-27
363
52
-43
433
53
593
-356
68
-439
-172
-266
-509
-631
-133
66
265
-244
-275
-290
-26
203
-426
-325
-198
392
64
-226
-219
-242
66
-30
56
428
531
-85
-907
-174
-349
-58
-267
356
-305
119
-776
312
277
613
-640
20
183
313
165
171
-16
323
-371
85
-594
438
-837
-644
-374
46
-455
181
-222
893
1090
-633
-878
-1445
-1096
-363
-163
-11
-376
842
216
-589
703
493
198
-46
212
-243
-326
514
-384
390
-134
-483
755
-107
-396
308
447
-739
-476
502
-482
403
-421
-1156
-520
-98
399
-143
-235
-1233
-639
-35
1154
-497
-517
-410
201
509
-177
-396
573
-39
-542
512
-144
306
-809
432
-718
473
-428
-329
-334
-696
-1256
526
6
-714
42
264
-397
469
439
-764
689
533
290
-24
-614
-601
-6
234
-661
-367
57
-271
402
756
243
398
552
-1008
180
-381
1697
-251
-272
78
140
851
904
151
-705
-559
459
-127
170
-281
-655
-205
688
11
-238
-529
705
-568
-213
-246
502
-286
-373
414
390
-41
-691
-636
57
-19
303
-366
-467
-188
12
95
-232
-364
-257
-421
-210
225
-324
-177
-59
-170
9
-235
422
500
227
331
289
-147
362
437
242
211
151
-30
204
68
-165
-117
-166
428
-591
-246
12
-200
270
11
-430
214
-16
151
-56
-215
-539
93
250
86
-59
493
-282
594
882
1093
725
269
1574
-896
113
-549
-1209
-1289
805
1013
161
241
1297
165
720
-716
-447
21
546
-7
1713
-155
191
1323
91
-898
489
-1148
1458
-828
167
-399
-335
-951
-522
651
799
-572
-48
513
447
774
19
-951
-24
-530
729
-514
-228
-1179
-592
-28
844
121
1542
-203
-660
143
-1156
-1016
-376
1366
-688
1959
209
419
648
-1303
-663
-1026
-1538
-69
415
-343
444
402
275
461
754
-419
-683
-32
812
665
572
-6
679
398
-674
-198
698
-718
716
66
1234
-435
-1440
465
-854
209
-225
1427
-930
1276
1452
1192
-167
-813
983
-21
-298
-574
-445
-1092
724
-801
552
717
669
-325
-113
655
-1200
33
-274
-589
-372
-36
-204
-284
-138
-141
-147
-243
-135
234
285
-275
-40
-411
99
-1
280
101
80
-319
402
31
-463
136
403
-332
132
-103
210
-246
-216
-194
98
-24
-97
553
-81
112
528
-341
-276
465
78
300
424
116
-287
67
-18
-905
44
115
39
-63
227
71
227
-40
4
-1
-105
-207
109
-458
-1110
657
480
-431
-1309
501
1024
-72
-249
-271
72
-1672
-1037
379
-175
550
-56
169
-168
274
88
310
-1051
-114
759
393
-155
-1151
288
-85
-238
443
-401
1107
-115
653
542
381
498
-1108
315
778
-412
-249
-137
1360
91
-904
1215
-808
420
-160
-961
-599
625
761
409
-512
504
-520
244
-705
1086
-421
83
367
522
-470
82
146
748
32
-106
-470
174
-14
-383
748
151
772
1728
-599
-967
-720
1037
1708
-1251
1130
2263
575
120
-876
1550
-587
876
99
-374
487
-291
-159
16
91
-24
248
153
560
158
219
803
210
-489
1107
343
-237
-634
145
-170
434
-89
150
197
208
-92
439
-433
-798
516
-18
365
-371
-113
106
382
-20
79
-96
-42
376
179
-117
-84
-385
279
370
269
375
164
-563
151
97
286
-94
-493
-139
-62
520
165
3
29
-562
220
-413
-579
-659
-578
-44
424
256
80
352
-146
-945
535
24
419
-373
-70
-8
-262
264
-334
44
-31
233
181
-314
85
-340
250
181
-130
-985
11
-755
-126
-160
-1289
1366
841
605
1497
852
-1294
-1194
-274
-1179
-1329
277
-717
37
469
779
91
52
-289
-1230
-910
845
454
-659
111
-33
420
618
118
1647
703
1493
540
646
1044
-1534
-391
-648
-841
-1367
-1044
1515
137
-569
-205
77
878
588
-401
-249
665
219
-259
-365
870
-248
-107
-130
453
-247
112
-520
75
-288
39
643
1342
-8
436
-581
-887
-430
-362
27
100
-552
-357
376
-130
-571
-464
-654
77
962
61
-799
-370
1570
-425
518
-823
444
-386
402
112
-698
478
-221
-1119
268
302
-219
-631
16
31
161
-515
688
-52
124
-317
1465
-339
852
-820
92
-571
-56
447
-165
1713
-295
111
-343
-396
-62
-137
-20
-41
234
273
236
495
-396
-450
271
131
456
247
205
-109
-69
-40
-90
-46
248
138
256
-368
-267
641
-339
654
121
-40
-186
-104
148
-95
-366
-482
0
384
-272
-475
124
70
-474
89
131
222
267
-63
-249
-170
190
-342
-369
-15
628
-90
99
24
-1
-337
-112
-229
-326
-282
565
-280
-884
-438
-169
-411
926
-157
850
454
-37
-751
-473
-447
-417
-1000
399
473
867
-286
-695
-338
-437
-66
-447
-104
395
25
70
-793
350
-367
740
1193
1647
443
-267
-586
-905
688
-1361
-1547
-1640
-958
866
-249
365
114
643
182
1353
-1212
599
-945
-324
-877
-168
-13
-439
802
-242
-887
-90
56
-177
-261
287
-294
489
-213
238
-328
545
-78
239
365
-392
-21
259
-118
92
185
-242
28
149
106
-226
207
718
-286
-50
211
-473
215
-464
326
-839
157
-508
-92
0
-503
579
31
-184
535
-59
203
-350
32
54
-228
184
979
-943
879
-278
668
-513
438
1042
-461
1100
-712
150
479
162
-89
668
173
290
-119
296
238
-241
105
312
160
413
-492
304
183
-258
-101
6
607
556
-579
237
276
-694
873
-423
-589
449
-120
516
42
575
121
-404
229
-133
32
721
-197
-94
-103
407
-162
-18
-257
493
335
-344
308
26
298
-54
-191
197
234
235
-3
-117
-267
215
98
-24
188
-421
-152
-558
-669
235
-593
222
266
-332
158
188
-1202
136
-30
-928
-339
331
-1042
288
-491
704
240
56
120
-260
-361
-439
-236
1
-204
257
-387
112
-555
-44
45
-1388
76
-187
-577
529
366
-173
-63
319
401
-349
-133
-448
1035
52
476
156
-1182
10
97
458
570
-1162
1098
-930
106
-216
532
1438
-244
430
982
-90
1353
-1756
-2061
226
-566
168
2769
1304
124
1995
1565
1098
915
-554
-1332
-442
1458
1139
720
121
1259
349
-898
1965
1218
-938
706
-1168
733
142
-1227
-427
-1418
1331
206
-187
-1445
1207
795
1373
1024
-940
1513
982
-107
-1157
-332
-1157
1584
-767
1352
224
1406
1120
1442
839
-619
-110
1206
-34
260
41
325
-149
-737
-61
168
-392
248
521
-79
-223
214
-166
-217
-348
216
-136
129
-312
-573
-379
81
87
52
30
-220
-249
-24
327
-277
101
-143
-281
-567
208
-349
329
-371
514
88
-135
-621
-131
-282
12
-147
-171
163
-69
-34
25
243
-168
-578
-77
444
-112
-179
64
643
-118
110
87
-437
-594
31
-1027
-899
103
-333
1320
204
738
900
572
-885
38
-956
-264
-836
486
346
415
-202
-891
-289
-958
-648
-565
719
-925
0
551
-360
22
-884
576
1618
142
1267
-154
-444
-604
568
-798
-536
-751
427
207
-639
-629
-487
530
-222
-78
-618
-71
-701
418
-812
192
-816
44
-328
39
-919
-365
-83
-218
5
-520
-237
37
916
623
559
-23
699
-250
-422
-90
28
-315
-626
726
-414
316
-590
7
-359
172
224
-546
365
689
195
289
-908
404
-394
-513
126
1203
-112
-1050
310
-296
536
-310
-158
-266
-592
-324
-444
988
-989
329
-256
81
541
194
-71
-858
-560
1320
-545
1045
18
892
-110
-188
81
319
-493
161
159
-92
-354
-224
-403
534
216
356
222
300
115
388
13
-70
-104
-329
-354
40
-95
69
-96
-217
-239
-446
-183
-332
-353
332
22
22
-163
-159
-157
-6
298
-116
-185
-277
441
-31
326
-224
241
-502
-57
-486
113
141
520
151
-77
230
163
-398
218
-469
362
230
559
1014
-239
934
1255
108
615
-1068
-82
-498
-533
235
840
35
271
564
1249
107
1820
-1328
-899
-209
3
417
-444
292
121
1342
-111
-1371
127
-607
724
-623
142
-471
-840
4
-999
691
457
291
-629
547
265
530
-140
-802
703
-311
136
111
-109
-1566
788
-732
-46
258
1562
76
-292
258
-888
-312
-591
683
-522
1010
-175
664
-182
-132
98
-738
-1139
-308
-367
-715
539
268
369
-161
958
-720
225
-122
-216
-314
-219
375
294
266
-336
-457
-434
-222
281
271
-196
-458
-110
-1155
-125
-539
1311
381
-225
666
1035
1078
1953
-55
-398
240
663
-571
-240
-208
187
-410
-234
122
384
-282
82
-139
142
-615
-8
-237
579
-327
-474
36
81
179
-79
-778
130
390
-223
-86
256
-68
-288
190
-485
221
-374
-301
-261
307
168
289
9
-127
120
-203
-23
34
-26
258
416
82
-56
-165
-428
-70
533
288
-192
-228
214
-215
-277
357
-24
-220
-138
1
149
512
-362
-157
45
-522
238
-94
393
-325
1030
740
412
-649
-620
341
-141
-747
295
274
-128
238
-588
215
148
330
-677
-369
-160
-322
167
861
365
518
57
-702
1394
-281
439
-1057
246
1064
186
583
-1104
395
-702
576
-122
-1033
1261
108
-1084
755
108
28
-576
-758
32
974
-306
-729
-216
1034
833
3
-916
176
510
128
-845
380
-1401
77
-245
-309
-642
299
-539
187
250
-557
9
99
-700
366
-786
519
845
467
-736
161
281
299
238
-453
-485
-94
517
-58
976
-29
62
635
780
-461
92
-825
891
-921
1117
208
269
1055
-1171
1237
1246
-1515
-677
-133
-323
260
-1358
-435
1125
-518
394
-714
113
-956
473
-1098
862
-141
854
-279
592
-252
-828
-1221
571
243
521
-82
207
-29
2
-473
-96
-80
-225
61
146
-291
47
92
-648
436
98
-285
-295
101
114
449
-239
-969
104
-98
-229
228
-534
-227
161
722
-236
403
51
-2
142
530
-170
-606
347
10
-250
379
-75
161
278
56
48
182
102
-90
831
-263
-240
110
196
-579
213
169
362
28
447
729
-570
996
32
705
203
-275
-433
-212
-355
-11
277
-709
672
191
-414
62
649
32
-149
-493
-32
-279
140
436
-197
236
-342
298
-582
-699
85
-17
298
102
614
1038
155
135
305
-794
-330
-491
-467
-489
50
429
723
-41
-187
172
-318
-728
429
-438
-406
734
158
-393
-561
146
-1259
352
-1193
258
-1051
1115
-1056
749
99
274
515
-1149
-1535
-584
-1559
-585
440
-678
-674
-220
56
381
991
1030
-331
-338
-305
-956
-253
57
-265
-907
385
388
65
288
-253
-974
139
-322
81
-376
-454
1627
537
-396
18
200
491
-96
-583
-417
176
29
691
-420
-653
32
119
656
516
-386
56
-297
-502
-624
261
-461
-356
42
153
145
-91
-28
27
409
-21
-225
-21
-289
171
-154
256
-238
0
-259
661
-48
35
22
-6
172
-20
129
317
482
108
132
580
67
111
-79
171
364
-474
34
221
-441
-253
-64
-118
246
246
-195
-53
287
-389
-49
107
278
-226
223
242
-237
-351
-174
570
-306
-219
-47
-294
465
-1089
562
-485
694
133
-517
563
-957
-985
-291
-136
-831
613
690
202
287
876
-440
-1050
-311
301
727
336
204
1392
13
-1023
1032
810
-132
573
-280
1200
3
-1136
612
-1114
407
-276
1191
-689
-160
272
537
-318
-48
802
401
-607
-181
763
-697
607
-680
919
342
725
284
304
478
-776
132
503
214
-442
599
-780
-33
-472
402
-186
-596
-1587
-261
27
1005
-295
-285
-835
988
960
-77
-131
1036
755
694
-8
-267
582
574
-905
755
384
-1138
707
-264
-349
-142
-3
-1742
-588
448
-214
473
-238
-33
313
705
2022
-327
-121
-411
4
-101
-652
-728
53
-562
-47
725
387
-241
-435
-20
-726
-159
56
-568
-722
275
173
-409
262
76
-461
-53
13
444
511
529
215
371
165
293
-378
-198
-39
26
-390
270
546
-149
-84
236
222
466
-249
466
-81
290
-741
-347
-170
-562
-254
474
-45
38
-114
-172
-53
-44
19
-197
109
-186
151
-218
-202
314
127
-458
375
-241
-192
45
-278
-316
-25
437
284
592
-29
820
646
-177
1195
-633
-522
103
-973
-149
617
821
14
721
447
277
482
-184
-754
534
564
384
1107
-384
455
222
318
169
773
-434
198
270
-289
1196
554
550
808
240
-104
-831
-142
-157
-1173
-909
-215
1510
36
-142
-196
-331
-190
-987
698
-495
90
-132
633
660
19
307
-784
-521
-361
65
-434
1652
-908
76
-1216
666
326
-760
-1369
181
-1286
-1600
312
-1064
-610
793
208
-446
203
1001
455
425
-389
-476
630
418
-345
-326
203
-536
61
62
134
-792
84
1009
-638
-354
-1511
1076
-46
-606
-342
-207
-598
-343
8
-583
359
-564
1192
-452
-38
-596
480
939
631
-1234
1330
-1352
-19
-546
1167
411
585
-661
282
-260
-297
262
246
132
-392
101
-416
-510
-416
-421
-80
-510
-257
-122
215
311
-419
0
-204
300
14
-440
-388
-429
-124
148
-297
-72
-291
-269
328
72
-215
65
228
-294
-159
26
17
110
-90
340
88
-770
153
45
-336
339
77
-46
792
29
-219
-133
-101
-156
328
-149
-423
-673
385
-662
857
-447
-178
78
12
1056
1577
451
417
195
-14
-475
96
-814
-1279
-151
1346
-233
-1127
-508
-1633
50
-1185
89
200
-1010
-844
390
-461
694
-680
1079
819
754
1343
-706
977
-1154
205
13
-138
-714
-394
1264
-681
811
720
465
357
1335
-551
482
-686
-693
-904
-198
75
-587
1705
413
632
164
1505
-38
210
460
786
-702
-460
-356
774
-420
-734
132
759
-173
429
-740
-345
-649
350
-1153
-648
-348
-104
496
-503
1270
216
-1876
-343
43
424
-262
376
-733
-171
-238
-371
223
805
553
85
124
248
11
-121
227
375
461
783
-91
-116
-210
-412
285
-52
-427
-135
-277
-297
64
44
189
-485
166
-128
320
-261
623
-16
-214
-78
269
-122
-67
561
-306
-113
-186
364
-306
-68
78
-213
128
78
-126
142
248
31
298
-89
63
-48
-110
323
-220
468
249
237
-30
-42
-748
30
82
-27
-67
212
364
-145
-293
-418
149
-131
1
124
292
-690
110
-66
-221
328
280
-132
-49
-234
559
-245
117
-87
186
1428
-81
885
-826
-207
559
222
-629
619
-501
-235
1030
880
547
1238
-442
-225
-25
408
615
-1133
835
1031
-1
-1489
291
330
-161
212
704
490
-29
-554
-1020
-23
-678
690
383
-185
854
592
754
952
-181
-158
430
471
-658
292
-150
786
-61
788
-431
637
220
1298
-471
427
-379
1236
-909
-304
674
-577
-245
-1426
484
691
231
211
842
-1650
-1179
-869
-818
-362
-21
124
-785
-33
285
-242
26
-705
-672
-341
771
80
-1762
-622
-135
-297
357
-199
496
16
-181
591
125
-159
-985
182
-14
-340
58
-34
201
-534
356
107
164
583
751
-445
37
-470
-331
-413
-581
105
-418
660
-138
-19
-43
24
-207
212
-33
147
-457
348
241
215
-263
-49
-642
-221
488
-477
319
-107
81
-831
170
147
-254
-97
-139
280
628
56
-344
-44
31
-376
263
72
-262
-174
64
352
-364
-534
707
-489
65
-49
4
-22
388
-112
-135
329
884
-305
-143
-174
-154
539
326
44
-424
-153
-50
88
358
-735
-1441
-341
-1129
75
-901
-321
931
1231
560
549
-716
-495
-415
-891
199
-40
-237
158
859
852
3
-683
-971
-813
615
188
-1468
-864
710
-687
583
-950
846
-372
483
-289
-2218
686
704
163
1084
-131
810
1034
1357
2049
893
-469
-1112
8
174
1247
479
-447
707
419
502
-417
-303
86
-351
1190
139
788
-264
-448
339
137
-532
-384
-96
304
760
592
216
201
-371
-388
-3
148
-591
-493
388
228
-586
-349
-471
157
248
-127
-153
1262
-495
-263
-1
-277
254
133
434
310
71
268
147
554
-960
233
-73
-497
11
-509
440
-657
169
-347
190
-414
1320
-952
204
-895
-833
-901
-773
-320
-461
224
666
-722
112
190
88
-166
-101
158
145
-524
131
-295
-246
184
-344
-115
-569
119
369
-656
363
-478
-75
-559
-652
-292
763
-147
-338
-89
29
31
-160
347
-99
356
-67
60
44
-109
365
-125
24
6
-405
312
34
74
-262
6
246
-155
151
-8
156
140
-476
122
-403
147
-131
-129
41
-36
2
-190
1541
341
257
963
561
1530
-841
-922
-617
-1221
-376
1203
1459
323
661
999
55
19
208
-1085
-809
779
44
1715
6
642
499
90
799
690
-250
1172
-64
284
-316
-1101
-347
-221
19
-218
1120
-267
653
688
468
531
-787
520
418
-546
705
-644
-882
1080
-5
337
-188
331
965
-1199
1425
-880
594
-737
1419
-441
437
805
-17
806
-638
-2038
-133
-1428
123
1434
975
533
1011
280
229
1162
-503
-702
-1170
299
747
1063
603
546
737
636
198
671
-824
1078
-945
1291
-1040
-717
1679
-1392
1033
908
365
-1111
244
321
344
-1429
-840
934
-200
75
-1210
-359
-1672
1180
-873
910
765
1302
137
341
-169
-2007
-519
6
293
-154
-766
426
73
-218
260
-163
227
-804
-130
495
513
213
-738
-26
-259
101
126
-292
347
305
132
42
89
-199
-750
-130
35
52
299
182
-130
-87
409
-2
135
-407
509
-101
-703
372
-413
93
-225
278
4
376
484
-69
-253
-223
272
-277
-60
111
-92
217
242
130
181
-69
-499
182
401
-183
2351
-493
644
-444
-235
-118
-1227
-1822
572
-1652
-1030
458
-766
-345
-60
514
-897
406
-1145
-611
-112
-1182
-470
145
650
116
-1561
294
44
658
64
974
661
-417
565
692
1027
1386
-483
-374
941
-517
-76
-1180
1119
151
61
597
-466
275
763
-768
-726
-549
-361
-1014
-1121
642
-542
-280
782
530
-91
-160
486
-327
101
-68
121
-530
-332
-266
95
-261
-330
100
-770
-542
-868
-1167
2
1353
905
-441
-1034
-1567
-779
-1256
403
-1763
-325
-1455
97
-105
-28
99
254
854
469
389
313
585
-68
77
74
-130
-331
-566
-78
46
-849
991
-124
743
-248
-483
-129
241
547
102
-942
690
-1027
257
-474
923
498
-85
-379
585
23
370
-363
317
350
-20
-248
179
-125
-396
15
-99
-195
511
577
-249
652
-48
796
428
176
-161
210
236
165
-37
-450
7
-44
35
153
679
253
295
-232
190
-232
444
476
256
587
-206
269
-508
363
83
-173
500
81
-717
240
-262
-188
-308
225
-247
144
-504
247
-356
648
826
-68
-258
812
295
-353
-252
-927
561
-89
-814
246
935
-487
514
-324
555
311
-591
-1125
-318
441
411
1244
318
-123
972
-274
-340
357
171
-746
558
-1030
-1249
655
-1315
126
-386
1216
-588
581
821
683
-627
-970
802
538
-246
-378
-1159
48
547
-570
-447
-526
17
328
-472
356
-707
156
-1006
668
727
253
165
895
799
-589
-294
-797
85
-442
-175
-61
927
498
596
-486
-508
667
895
-428
-322
-1053
704
991
-405
-1090
178
867
-1005
629
-953
-787
-140
-324
-207
-199
285
91
92
-28
-245
285
-25
68
-674
-220
90
353
-89
590
-286
305
112
796
144
-483
-458
664
-419
357
363
672
-585
171
168
-57
-228
58
290
-114
-46
-447
254
-119
-86
-276
46
-283
-395
406
-239
-145
101
8
-526
157
134
270
-295
-487
250
29
96
175
-18
2
44
137
81
138
474
-495
172
196
372
32
185
176
-378
43
-346
-202
-16
402
280
17
-306
-31
-160
-121
-301
279
100
631
-16
-56
-203
706
-346
-206
580
-123
247
33
-591
5
-573
-577
334
417
481
815
-10
-388
546
-374
179
-1052
-808
-339
481
1322
-483
213
733
-133
-705
240
59
6
673
-919
-225
226
-584
-593
471
-137
123
-140
-230
83
-485
-557
31
437
-537
197
-897
-108
363
-120
-201
-530
-1
285
-776
549
-66
-44
-510
50
-533
-536
-1134
53
-159
848
-498
202
-744
228
-1364
384
-690
-1411
-1145
-948
-844
767
652
782
-1183
-1037
331
-1060
-840
-737
1686
-1087
-251
1093
-1234
45
-665
-1367
-5
229
126
-1043
-915
1169
828
-387
-746
-349
-226
-303
-621
-564
201
1099
488
566
-543
350
152
-538
-588
133
-1000
192
240
-6
-529
-128
358
-180
113
-207
43
267
126
107
-23
-168
3
-156
-31
421
-34
-79
250
3
-74
203
-455
166
149
81
327
286
-131
-41
-335
587
-2
-36
34
-112
204
292
393
-189
230
73
260
-95
97
104
-240
275
249
155
-50
214
-86
275
-118
-169
-172
82
-146
58
-146
292
15
43
-164
387
613
255
952
-137
360
-831
-137
-419
286
-232
175
-155
642
496
1326
354
1349
-1088
-788
108
607
663
159
94
541
790
-569
-54
478
-585
674
-678
629
374
-354
-203
-543
589
986
-616
-479
1140
525
415
-165
-383
316
766
-104
-517
-27
-658
1198
-151
730
-692
1420
520
950
54
-732
-153
849
152
290
616
444
53
-241
-16
1256
-487
-154
232
-648
-1752
171
-156
333
-6
461
12
-238
6
-208
148
-426
357
36
-103
-177
567
-684
-197
-176
-54
222
754
-403
112
-181
307
116
-850
-713
-220
-189
76
-51
332
470
-44
151
-46
-45
647
-412
55
-204
-167
-336
-812
655
-815
734
-204
-177
-90
-208
280
384
-471
-520
-313
-395
321
-377
762
-146
-22
62
-1
-100
473
-215
260
-344
233
-111
-52
338
307
-203
82
281
-236
205
-265
-113
68
229
245
-49
190
167
-36
-299
133
-721
181
93
169
-45
190
-255
-73
536
-344
-311
-173
-177
239
135
-310
248
236
-2
53
134
112
-26
764
294
508
1119
-334
1331
-1729
-794
54
-472
-382
1514
791
485
1011
1807
659
443
-616
-669
227
522
758
-516
-187
-76
1218
-290
-708
648
-810
1253
-188
581
-1065
-935
183
-1796
82
1454
564
11
795
897
1097
129
-1492
169
1122
99
-706
-595
-752
868
19
-333
-261
636
-197
324
487
136
-364
224
-283
-63
387
-26
-291
-222
88
-657
287
-102
885
-61
272
91
-407
-558
336
221
-812
519
12
-28
259
-1958
676
-276
102
-1118
-740
-665
-335
-266
32
294
1439
190
855
-132
2021
1086
-644
-1300
-346
-122
-159
-615
1614
756
354
-588
669
-726
-229
101
-330
-1380
-430
-432
495
-992
649
559
306
-1094
-382
-200
-539
149
211
544
-521
-797
-108
-111
24
535
-236
51
-352
373
314
-402
-34
-28
-493
151
-201
441
-379
106
-151
198
-339
7
-64
-44
-281
116
-354
-63
253
410
-7
-556
618
-170
-275
274
109
19
-26
-304
-38
454
134
-262
225
-49
-397
-159
-15
-240
-303
109
-304
143
287
271
-443
109
-496
-503
-395
-929
-54
-163
684
1562
1091
-38
-683
-489
-721
-720
-642
-2010
746
1120
240
-662
-771
-1037
-429
-1401
4
-208
-64
-437
617
-412
130
-385
-1184
678
438
208
-833
-215
999
666
-432
268
-839
-203
111
-461
195
-286
537
25
865
-481
703
-121
95
-582
2
-208
-201
866
332
-100
-182
827
-991
348
117
-95
87
-151
-190
1103
-194
-710
473
478
-649
544
-210
-618
-116
-325
-88
-384
82
-75
873
-128
-33
-216
319
-142
328
-346
-404
-283
-260
444
50
344
184
-496
384
-93
266
302
72
-360
-141
180
288
-390
334
-753
-98
295
577
-498
-552
-231
504
-681
343
-68
-82
-488
208
-693
-188
170
177
348
-568
225
-35
-408
-67
603
-152
-122
13
61
-143
46
-267
221
288
-49
-199
241
-70
1
-4
-222
-77
290
-428
-210
-567
289
-242
-517
194
-306
-441
7
194
-751
-333
-212
102
207
-165
-292
8
359
-62
139
345
-47
484
-94
28
291
333
-624
-215
-510
178
19
265
-724
-33
-2223
298
-716
777
-351
-448
-303
998
-1623
-356
151
-1641
-1960
154
-165
891
-986
604
249
662
732
-895
617
-146
1115
177
840
205
-475
-401
-411
456
784
1407
283
490
-1361
395
-222
-726
-943
-1566
-1270
746
312
-206
-390
377
1277
-92
314
421
912
397
20
-158
354
-84
251
275
669
1032
591
373
749
903
418
-428
-293
-914
-588
-599
382
346
900
725
882
-155
74
511
-126
-312
590
153
1115
800
231
-272
208
957
145
-171
648
-547
692
-620
-501
643
-772
-29
89
-27
-321
388
227
444
-753
-554
660
-394
-435
-52
9
-763
682
-218
486
253
974
660
406
447
-162
-31
395
697
-121
187
-127
-3
-399
210
12
-222
232
136
-487
-233
559
68
83
208
72
13
31
-106
-218
98
-15
157
-241
302
728
290
199
272
172
321
-8
774
96
67
845
-243
687
-57
325
578
462
-251
-192
-338
-25
209
35
-506
-16
-185
337
-156
-59
27
-303
271
-196
347
-353
99
377
823
754
-1058
1138
315
1444
-1034
-1204
44
1057
-1026
1092
1004
455
890
1012
154
417
-182
-1942
-605
801
299
1702
178
985
340
-44
1015
699
-1111
1122
-467
354
-547
236
203
-1017
573
1170
-343
-790
375
514
243
43
-478
877
-218
294
-38
-389
-717
675
137
949
73
1069
440
-246
94
-912
-42
-172
949
82
439
-425
504
239
-812
-309
-1032
-1592
-601
-33
819
307
637
585
439
793
71
-1371
-82
1604
867
1926
756
1493
-802
547
1549
1164
-1160
206
-485
789
-346
-923
-604
-235
577
-278
1091
-463
658
627
934
673
-233
797
-697
-905
208
-416
-1089
580
-258
208
697
151
350
-1180
826
-1204
319
-1079
7
-815
208
362
182
-289
-434
-627
608
-1301
-172
121
396
-668
746
574
75
-43
60
38
-271
566
-404
-273
-266
43
314
-442
16
-4
378
92
313
-409
160
152
-168
-89
233
56
-92
-421
451
-364
-59
-123
-360
439
-281
-449
-284
-72
-77
357
45
174
116
-336
-413
92
-29
-217
67
535
703
314
147
775
554
537
-10
390
-946
-1108
-1003
-375
-48
632
410
841
365
1642
-376
-550
-1241
377
524
394
887
1042
360
-642
884
137
-824
455
-323
563
1042
-115
185
-421
1574
34
-655
-665
844
107
-133
-375
800
788
-217
82
-313
516
-1094
341
18
507
51
779
-336
-87
353
-778
-300
76
-312
-239
421
147
272
25
-35
167
-230
-765
-823
298
144
-197
980
-213
183
309
-259
148
78
-73
260
-255
-395
169
380
780
-1115
746
332
523
204
53
-129
-381
-1021
-57
-123
-386
650
174
-90
-29
290
233
-151
-192
-321
470
-782
-388
-69
-406
2
314
115
351
-418
972
-584
-477
-682
398
87
-659
487
-248
-80
-200
420
345
-46
191
219
-329
414
101
-471
-252
266
-148
534
-205
-128
-313
339
-220
229
68
-228
-248
363
411
152
438
-487
-66
-63
-543
57
-700
198
-404
-421
-379
-15
110
-251
617
-446
-37
210
-616
18
-604
275
62
-173
157
-838
-285
113
127
-239
-21
-175
-99
-374
-583
-462
-219
158
-957
276
634
-169
145
683
-229
-472
-301
-264
-437
26
-726
-165
847
162
-467
139
-182
-688
-1561
666
1089
-2472
-284
-90
-225
189
111
-953
276
-514
440
-698
342
240
507
341
622
584
184
-197
-698
-950
-182
-419
515
-8
-703
-469
91
915
58
-942
532
-1049
-577
-361
367
-137
-223
-695
-4
579
-106
54
81
55
776
-475
261
-507
48
669
-431
451
-454
545
-193
1256
511
-92
-716
-956
370
-754
-1241
432
260
39
-443
924
-671
1062
-184
79
1239
-1561
-2340
210
468
142
-415
37
739
570
-395
-347
-285
153
667
-83
-169
-443
-151
1264
375
-435
-324
-507
-357
-416
339
448
668
-71
-429
-214
-728
-102
-346
281
-88
292
-1019
-228
-686
248
312
-307
260
-475
134
465
580
391
-170
213
287
242
360
-112
-598
477
-291
586
-445
-842
221
-190
54
75
-38
432
-174
108
-157
45
253
1128
-150
-167
195
-298
464
-349
-59
-81
552
177
130
-209
-33
-222
25
213
-119
-1615
-667
357
360
-1367
-963
322
1322
956
308
307
115
-1436
-1184
5
-251
53
-42
-744
1448
967
-269
-431
-619
-284
-1168
-216
-491
-1144
-622
184
-910
1302
-970
478
-1283
-1590
646
-1848
-806
423
1327
439
270
818
941
578
-1096
-515
849
-100
1224
651
-874
116
476
-307
-138
-202
-108
-475
1339
-679
403
-597
-640
361
-209
-532
-488
591
384
48
16
605
625
444
-448
21
10
757
827
-244
-539
-221
709
738
-1004
377
1093
-477
-1292
1223
318
-695
100
466
-101
155
-154
-650
456
103
-459
155
133
241
444
180
751
88
-354
124
165
256
-158
252
236
-94
141
-67
-468
440
-541
377
377
224
-17
-269
-333
-161
-466
122
-160
54
10
279
21
-91
331
-84
-20
303
-534
-295
230
-228
250
-305
-242
-242
-329
302
-47
200
-536
-203
273
175
-47
-101
-656
286
-182
-155
429
258
123
-43
295
-209
8
-364
521
-13
278
-432
-42
285
-805
50
440
-238
-185
73
-13
-915
-42
215
349
195
-126
349
1346
-170
1381
105
1605
-368
-521
-578
695
-1094
644
504
466
682
1387
-307
1206
-75
-619
-853
116
-64
637
1137
1565
-143
112
307
893
491
350
-14
223
327
-184
-55
135
820
1122
1
-155
227
313
674
7
1148
-381
139
2
-593
543
-134
678
-299
1136
-22
327
-220
712
441
-156
100
1064
976
-199
985
702
592
188
-301
-296
-152
-280
-59
555
-493
719
468
115
-72
262
-549
139
-804
-255
-167
729
100
464
766
547
-736
-288
-716
407
-306
556
492
496
-203
233
982
2345
-1854
-1170
754
57
638
-183
-160
747
-70
1287
-600
-583
-56
-11
-643
-329
390
90
-1149
233
-657
-460
-38
-295
355
-13
175
-97
81
-60
-107
-82
-343
-55
143
120
104
137
171
9
352
4
-145
-19
-480
364
-221
281
-348
171
559
553
83
-811
-44
-81
705
168
722
166
-240
205
-70
-312
-58
157
171
-240
15
100
-120
253
752
-457
39
182
-22
349
260
-324
-28
239
37
127
-591
634
986
200
-667
-1032
-592
-1210
-564
-1080
271
511
504
305
1376
185
-757
-301
-226
-858
31
-1599
-164
1173
1033
-418
-839
-699
-1024
-1773
406
-152
-793
-1186
206
-331
83
-905
-751
1755
-1063
612
-875
-198
-128
584
-669
-328
109
749
-827
-189
-838
23
-5
-195
456
-975
-135
-965
423
-858
-948
143
-658
-55
213
-368
420
-54
-132
1
682
314
100
267
-414
-256
-77
-259
-366
765
-220
-3
378
-643
-18
-284
1463
231
275
397
-765
-252
-453
-54
-128
747
121
-580
47
-290
243
-481
-389
-314
50
-421
705
-370
-15
144
-53
416
42
-182
-792
431
-493
973
-511
-10
-647
944
948
807
51
-300
-517
-450
-969
449
28
337
85
187
-227
-246
0
173
336
53
-488
-445
10
-413
3
752
-320
160
-451
-216
315
88
-281
-105
-60
485
-18
-102
-7
57
293
218
-264
-308
-446
-416
627
-463
-248
320
450
-793
-229
-428
1
273
258
-23
-38
12
-301
117
-235
-379
42
-361
418
89
193
281
251
-309
-431
-74
2
1021
229
121
1187
-259
-1110
-441
-555
880
786
-387
-472
455
-447
463
-776
-138
68
806
-756
-199
-565
484
1003
-146
59
706
-76
-699
-50
141
-615
1071
-852
422
131
-909
743
1657
152
-511
99
658
534
-146
-459
520
766
459
-554
-1175
121
40
244
-220
6
619
-558
542
-417
-142
-102
-528
689
381
83
798
741
443
-518
-267
-406
885
-139
-56
322
1199
188
346
-884
-693
149
703
-969
-557
-347
270
377
-541
-431
637
-104
-828
466
-358
-340
-136
-357
-427
301
-585
268
-164
-110
5
461
-120
-457
-415
260
553
132
-154
162
316
122
318
123
-122
-222
-33
-141
167
465
367
445
32
-39
215
-67
-212
682
6
-162
122
200
-70
-52
83
-200
12
110
43
155
51
-144
-191
-264
343
-330
-187
-107
-352
-673
590
-383
513
356
482
48
397
397
212
105
-51
113
231
-140
81
167
417
-386
-98
10
-376
-94
-547
110
477
-251
-293
370
-207
207
-460
507
108
113
-402
-368
25
700
1024
495
872
91
1529
-1261
-599
-666
-67
-432
767
954
502
777
1426
238
218
-4
-1227
-117
675
187
1140
297
1106
-47
-83
923
146
-258
-3
-74
236
25
-1604
992
-425
-498
-463
-35
338
247
2
286
-885
102
190
1168
1210
-1533
-574
315
-173
-496
293
131
1481
-549
1537
-867
327
-1208
1468
-460
1087
-315
187
52
452
-181
-306
41
351
-543
-373
551
-284
94
-9
667
214
-367
-123
-105
626
687
-314
-341
540
1131
-844
156
727
-762
916
-742
1171
-923
-1316
-1133
-834
965
-1031
1629
-938
1205
1363
1264
1761
-1031
837
279
-723
-357
-113
-496
903
-285
329
719
-17
549
249
606
-335
117
573
162
203
18
-339
248
-414
57
-380
368
167
420
104
273
-208
-285
68
235
598
63
340
-121
425
345
-88
-269
-101
-73
333
190
123
-251
-565
-442
144
-188
-43
-134
-40
128
-506
310
-6
-56
25
143
48
315
-12
301
65
254
-115
98
667
81
60
42
880
96
-193
34
-397
172
169
454
-961
-17
791
-393
503
-41
400
354
-389
-197
1352
-706
-575
1253
1149
913
797
-1151
-240
396
885
1238
-1333
-400
355
1057
-757
-971
203
-794
864
616
250
492
398
-1089
-20
415
1161
-702
294
741
161
1247
1007
-138
91
-659
-162
-586
186
-947
293
-597
103
551
365
-321
579
-261
-1006
-316
1063
-317
-1005
340
-73
-749
-186
75
159
523
-220
953
900
7
-1033
-76
-389
547
388
-695
118
-201
-156
587
-1484
443
-4
642
-805
-1822
-207
-405
-89
99
-242
755
178
-98
143
342
1131
-349
205
311
346
-158
-106
723
-342
-48
720
-119
-504
418
-297
-399
-207
278
-8
-648
571
-533
-57
-355
176
-101
-161
7
-254
-64
146
-18
-290
-30
-177
11
-70
-187
74
-443
293
363
323
7
-219
-161
320
130
299
19
-473
298
-255
-186
-234
-77
77
-77
-211
-318
-317
340
-168
163
68
-284
-277
-430
-619
-151
-172
-331
427
-98
-376
139
-127
-108
-258
-303
183
-133
-303
-105
74
-35
-93
163
236
425
-133
-855
-802
-383
588
258
-657
791
83
552
217
1309
-58
-643
-670
-77
-1599
1108
253
693
217
-876
402
-181
-732
-1102
-173
1887
-132
606
-1180
163
-111
-1010
506
-395
506
-1296
-1065
951
628
-832
-747
-622
266
-910
-344
-24
-1141
1355
-18
996
-226
976
-1041
132
-1354
646
-1146
640
510
529
-1100
-39
156
-292
18
-534
107
-2
-936
783
179
564
-116
1526
-314
-607
38
-89
-193
174
-223
-250
67
-19
108
77
429
-12
414
885
377
-22
189
-348
222
-280
350
666
-290
383
-463
598
-101
-531
-336
-46
-271
-36
590
-759
-1087
1185
758
-309
480
303
-69
396
-729
467
-1107
438
-246
608
-695
-232
-708
-124
-16
441
23
-45
-500
370
-667
-157
424
127
-71
216
-8
-75
-211
-229
591
-377
61
-656
-456
16
401
-101
-240
-182
-241
-402
347
88
-530
-15
99
-276
17
624
82
-312
-244
-183
-124
426
208
-295
408
72
180
19
-367
30
259
-4
560
-134
28
-119
3
424
-54
-557
101
90
24
80
398
418
176
-179
598
-231
506
-524
337
155
570
376
226
1148
1463
-315
-1065
317
693
1469
-931
416
1536
-176
-914
695
949
-688
338
178
601
431
-1491
-1488
-464
7
-212
785
-400
1219
1130
1868
825
-319
145
-501
323
-952
204
-1499
1445
-215
839
-372
1470
-220
691
-218
-720
4
976
-127
-431
372
64
-538
-255
-204
830
-63
-307
535
343
-596
-934
-183
-211
-194
269
183
399
-139
-205
424
68
266
135
-27
-193
-285
-524
-123
232
119
16
899
-4
-200
432
278
471
-1355
17
475
264
-28
85
518
-116
804
-6
-196
-381
773
-99
720
-329
-757
-199
4
581
133
962
179
173
50
-280
-395
138
-564
89
-48
27
425
-602
-118
64
146
152
365
-299
-12
121
-226
-393
320
-395
-167
-18
-9
-155
-204
-326
-8
108
342
-170
181
254
52
-10
-335
54
145
-29
167
290
203
323
-248
22
120
583
251
418
372
68
119
442
-226
-73
-29
15
-322
112
373
317
-216
280
-386
-261
979
-541
-492
69
232
74
82
-493
226
-406
93
-367
-308
568
-51
-484
20
172
-726
-550
-304
300
-58
-158
152
1230
-699
78
193
166
-530
-87
-477
-43
494
-29
-1204
-1053
6
593
294
-313
-852
-446
-1035
-192
800
-375
668
-401
660
511
408
-571
-1243
-280
745
-123
463
1017
597
471
-317
434
81
358
-490
579
-37
324
217
-4
-217
564
217
-43
715
906
539
575
92
-1425
-568
880
1049
-623
1324
1527
-1085
-1446
2015
923
47
114
324
254
-567
-324
-168
-166
-446
-345
426
41
-170
387
401
189
-198
172
455
-1121
386
-544
262
386
322
-310
-677
-694
878
-585
1077
-399
442
-596
-63
-110
183
-395
-558
-645
220
-434
-522
411
-225
180
-103
-80
-197
-486
-107
-58
475
229
-490
172
21
-381
660
343
771
128
214
302
-183
-373
-149
-340
-190
-748
-148
-53
-15
-78
33
266
-233
-138
-443
355
123
195
-94
226
-454
-332
-591
-68
-445
349
-242
-55
-124
-165
-322
-88
229
12
1193
-312
271
-120
894
834
-450
-408
-396
-1004
-1120
230
351
465
357
226
-100
1519
-199
-501
-73
144
339
972
-157
376
509
571
-8
-75
-505
398
-803
888
-406
-335
-53
-1183
462
-480
227
-917
184
-329
298
-155
-337
722
-222
-351
217
181
-66
699
-433
-273
135
-338
347
-259
495
-547
572
295
-633
-1432
-826
-1171
-477
-900
1458
950
91
1
615
-943
-688
-461
-954
-1615
-679
-950
832
491
1725
-340
-846
4
-2120
-850
-346
915
-579
-84
914
-780
782
-1595
331
1027
565
1067
-634
-2121
-93
928
-1440
-1360
-1198
278
1002
-1174
-1014
-580
41
612
79
-714
23
-502
974
-254
-785
19
-555
-288
-352
-432
-64
247
86
178
-384
-140
-357
124
-306
-288
343
199
228
164
-29
274
-429
-216
164
-235
-70
-116
-95
-246
254
228
359
-530
297
-187
-362
-84
353
-139
-368
35
80
277
246
254
-376
-54
280
245
430
85
9
-3
398
-14
-239
-258
-92
86
-139
-253
-120
204
-6
-2
-41
161
-76
169
215
241
-329
1588
49
461
-279
-26
327
-207
-288
1435
531
51
1746
998
-325
1048
0
-1036
-626
378
184
608
695
837
236
669
-57
273
-577
467
-119
204
-170
-1136
-1196
90
107
-322
576
-218
856
649
983
1479
-296
-97
-252
-227
-192
-209
-320
782
-338
341
107
-321
78
-213
-22
-210
-715
169
-583
-236
-620
161
-374
-220
493
738
-122
209
-111
27
-600
-28
-4
32
-573
-513
400
-199
940
-550
-415
-105
-915
-399
242
1607
-1428
275
146
74
176
97
-493
-285
1111
-131
-484
145
64
246
-276
-50
-298
-662
-176
-69
-1273
445
19
310
210
-1047
-104
1160
511
-210
-982
592
-997
-642
-697
709
650
18
-532
63
-60
-566
228
27
512
-383
203
7
-425
40
438
105
273
463
-137
-70
136
169
344
-227
663
-273
-171
181
125
-33
-117
414
154
-398
236
-128
215
90
147
130
-25
408
-508
-156
-445
94
36
676
-149
-19
-489
185
-401
-22
394
83
-105
450
-70
-289
7
71
-54
-397
-575
-853
484
-709
-588
-929
511
190
-279
-445
483
-560
-221
-994
-326
-331
467
-1198
-266
1132
719
-460
-649
-570
-1155
-1028
216
-359
-956
-66
484
-518
245
-470
157
1577
-1541
1184
-175
-7
-111
357
-418
-992
-608
282
286
-671
-595
783
-132
414
1154
-1655
126
25
103
-193
-1214
424
-1182
611
-366
383
-226
430
114
-67
317
-123
19
317
0
607
-43
6
-10
23
-138
519
883
-96
-349
-296
629
-5
439
-244
15
-112
532
-221
103
-182
-302
118
98
-26
744
3
314
-90
439
-1614
435
-520
431
-118
-105
257
-20
572
269
597
-864
833
-511
500
99
22
-305
579
-87
923
-484
268
-557
1612
274
447
-281
290
-256
0
14
321
121
76
-318
-94
-124
-304
232
-246
-167
415
-70
-277
176
293
416
397
81
332
-37
108
-78
-188
-530
-654
-326
-502
-421
381
306
98
-98
31
-223
-279
-67
-298
151
-4
892
-133
95
194
401
452
-442
285
179
-59
14
170
-417
-28
486
-6
-187
-301
-574
-855
217
-108
-986
-606
688
180
835
-395
536
-177
-36
-651
-182
-441
-208
39
489
1361
734
56
-832
-1242
-610
-300
-592
-922
5
-368
-192
-200
673
187
1415
1672
1284
593
483
262
-1809
1
-1098
-907
-839
-564
1134
126
-1052
-444
517
829
735
-1122
63
-634
726
-1015
-185
-674
-412
432
180
-548
-896
-1403
-509
-1269
-1504
-1333
1118
343
1631
918
1376
-457
-876
-1193
-1524
-1461
-656
-1072
41
1614
713
-1370
-1202
-1661
-1705
-1576
279
-176
-1953
-1043
725
-213
734
-719
1441
1650
-71
968
-58
1371
-1314
412
-1347
-1337
-779
-366
1177
-1035
-939
257
507
799
1147
-1970
-531
-522
658
-874
-1198
108
-532
509
181
-488
-404
570
441
-33
-10
244
-119
180
-381
141
272
230
275
513
-579
63
285
-143
731
486
-252
34
203
169
-67
-114
-480
153
301
-57
-578
678
98
703
-52
107
-58
-400
-232
-2
-294
207
132
212
-285
-1
-430
-77
30
-293
-186
-29
613
74
248
-150
-401
46
318
64
-270
127
-25
161
-769
-191
-450
-901
-141
-1184
1113
358
378
1340
883
-869
-464
145
-1140
-1247
-456
-1980
952
-167
526
-508
-146
415
197
-563
-490
204
503
-915
292
-1162
111
-372
447
91
472
269
-229
-1164
539
272
-475
-147
-998
-603
506
-152
-181
-208
168
5
810
-830
-68
-257
-182
-886
-503
-183
6
519
-228
-961
-159
843
-720
-500
676
263
209
-275
-772
108
-361
-477
1023
371
-69
394
-279
-330
723
-51
330
90
-710
1325
209
87
-769
-254
2571
363
70
266
-511
-102
-153
-277
-951
-284
16
-707
345
-69
464
-232
205
260
-1033
370
177
-11
509
106
-531
625
95
472
87
-81
703
-269
585
-242
-200
-115
75
170
245
-206
-92
-580
321
259
29
67
-662
-278
392
464
487
361
-169
42
-378
256
246
281
82
-10
-488
-260
-260
-49
25
212
509
-59
-340
123
31
19
91
-287
-13
-27
303
237
-15
-204
225
-564
311
73
62
202
-339
458
90
181
-62
-393
74
-179
-218
-80
225
-672
-354
202
238
-620
175
127
-129
-1187
-204
287
176
-73
644
431
-867
-399
-362
-602
403
72
146
568
1275
667
-132
-727
-1392
-41
854
-207
-480
186
-447
543
611
-489
1381
1727
1000
992
103
122
-1643
367
-1344
-667
-964
-835
1085
-252
-551
707
-830
290
510
-617
-881
182
1219
-1173
-1117
1599
-773
504
-418
682
-1705
-540
-1249
-1417
-259
-1556
1518
1279
248
1770
1064
-1885
-1338
-904
-2040
-1825
-706
-1684
940
2036
1228
-981
-1261
-1332
-1633
-1644
-649
320
-650
-1894
1020
-1207
1125
-1127
1536
751
623
857
548
214
-1586
482
-515
-875
-989
-65
1244
-738
-1465
479
-152
702
833
-948
-13
-209
1398
-557
-1225
584
-1156
702
-385
683
164
94
-172
50
69
-149
17
193
-233
-405
-158
-350
127
355
32
221
-316
-56
-212
118
-397
107
-56
-108
-20
-2
-228
-30
92
-227
-189
-270
-144
31
-487
-86
105
102
386
468
-107
-497
-95
-118
-201
-178
35
36
-215
237
-214
21
170
47
218
-568
608
-43
398
12
-118
-236
123
61
2063
-555
790
7
250
502
-1130
-1288
-732
-1371
262
773
1209
984
822
521
-369
478
402
-1027
538
108
183
1217
90
940
-617
358
542
938
25
264
-242
1108
-746
-1298
201
-929
-50
-1311
638
80
-501
162
615
-46
-963
360
630
-1108
291
-888
-189
901
-80
-379
-223
-170
769
-675
655
-511
271
-884
-1343
-1322
-2025
-1257
-1166
-1449
1651
648
1828
1342
972
-361
-191
-1609
-630
-1263
-157
-815
611
529
1221
-336
-432
-541
-697
-777
-386
462
-107
-538
295
-705
486
-1191
468
1319
1000
850
-1705
-930
-1369
805
-1503
-1206
-1204
-569
460
-435
-949
-1109
514
1242
452
-435
121
-346
282
-780
451
-533
-164
159
254
-605
-219
209
197
-61
-89
-377
254
-539
168
198
129
-410
-121
274
59
-65
-304
-122
-434
10
-21
-91
117
198
91
355
-197
-399
102
-4
-115
-127
57
-194
-736
25
-152
-273
121
-385
-117
262
-128
-110
-18
-208
263
21
-197
536
43
-107
-324
222
148
-64
139
240
-94
212
0
112
-87
302
257
265
606
978
-29
714
-372
279
-395
192
-536
149
-477
315
704
-406
362
955
-457
-690
-384
589
589
232
498
969
91
-401
769
-760
-835
237
22
183
1379
478
462
-419
838
1824
-1156
-498
250
330
8
-237
1277
44
-818
501
-841
68
-1058
372
-1038
679
1250
1009
-526
276
-560
-1422
-735
373
1598
-321
1545
817
1001
448
-618
-1498
-739
-1895
-20
760
842
951
492
126
69
772
-711
104
-37
91
307
-626
-70
212
656
38
-1373
476
-768
547
283
200
-1072
-399
-1087
80
-357
591
1462
93
181
610
904
843
-464
-227
201
577
-436
-317
-714
174
-250
-46
156
504
-198
127
-480
-171
-422
79
-260
-543
331
-185
137
58
-230
-51
638
-199
-176
-10
-127
240
252
599
427
26
216
301
-124
54
26
175
231
18
161
-383
-247
-13
-158
-53
-308
152
133
-326
-277
-233
-9
339
-163
-219
-76
-359
646
85
-319
-234
-24
-513
332
22
698
-353
235
333
-539
-209
165
81
-297
45
-117
-135
-534
506
-473
-428
162
-447
653
4
402
649
502
-793
-547
-153
-1024
-396
-735
-854
940
222
-316
-747
-810
-759
813
-311
-609
-442
1193
-297
1072
-394
25
276
427
356
1027
-207
405
113
236
-363
-775
-177
-1097
-354
318
358
742
-557
730
176
1094
164
235
-37
-448
-513
1137
-65
568
1232
360
70
-308
817
-657
-110
-200
-14
645
611
-11
655
-230
-896
38
265
151
241
-564
-21
224
141
-949
-365
-1098
618
856
-341
-11
-278
1084
-535
140
-132
-678
-228
-1188
56
-1229
-236
193
-675
271
439
-222
-144
341
997
-1128
230
-152
194
648
-417
158
-113
657
-638
-105
-482
217
-521
-114
-194
-129
-1044
-25
-172
-291
-248
-319
324
-16
-342
300
178
-164
342
429
173
-47
127
76
-88
321
-365
-92
109
43
-65
112
-328
218
92
44
-50
427
-389
-374
319
125
-14
-590
-275
-97
-92
8
-553
-99
124
372
-110
-56
141
82
-132
-402
530
196
-128
164
7
-191
29
365
-320
-63
-215
122
-182
1238
-611
1337
270
773
622
-1480
-1195
-287
-904
500
626
1009
619
12
-262
613
1542
-229
-1055
-202
390
1030
972
166
1873
-297
272
821
786
-589
538
94
-269
652
26
1623
401
-1189
-188
-1570
415
-347
-1028
-873
-1257
374
114
574
-483
-340
-99
-563
1289
-134
189
-93
1087
585
-403
654
-478
-118
-55
-466
285
279
-817
179
-237
-50
537
-763
-348
125
-920
-56
39
-625
-178
195
-145
-524
33
365
385
228
-629
-128
-267
761
-957
-664
445
-83
262
-357
117
-681
-283
-269
86
-208
-1352
1346
-372
158
162
134
848
-396
-73
-159
666
-1146
1036
-682
256
-395
1452
383
875
156
521
-368
-87
-590
1268
-94
67
132
173
469
87
240
15
-197
-82
-47
-204
-28
-41
18
218
-60
-122
-324
25
199
157
319
567
-373
-549
100
78
136
184
225
-41
-178
345
-287
-122
-447
-133
-164
-39
15
51
-55
44
183
17
172
62
-116
-256
-243
-232
35
67
-18
429
361
372
-531
-429
209
-309
108
62
248
-184
-617
726
27
25
430
-300
428
241
396
646
-231
47
566
-575
383
578
725
-686
665
836
775
716
-448
954
-560
562
424
1054
-35
187
715
-623
527
-338
-259
558
-1426
-1484
262
282
-714
-67
495
870
85
-699
-473
183
-796
16
80
-202
-563
-81
753
235
-953
1226
-1082
51
-732
1172
-1338
-613
-1493
-686
-470
-1643
1115
895
652
2012
1250
-866
-1171
-954
-1142
-1047
-616
-1504
1234
1560
1770
-913
-988
-1650
-2039
-1285
-570
513
-1315
-1313
921
-1277
708
-987
2111
1548
1922
1472
-202
-635
-2422
472
-1178
-1441
-1590
-1933
1690
-616
-1335
262
411
1159
1325
-1265
517
-265
855
-1547
-883
337
-1097
1507
277
498
230
-18
150
16
-145
-243
135
-248
-57
38
54
183
167
275
-178
-179
240
257
-532
123
-158
-24
-391
-37
-277
-77
187
-63
-244
-234
-63
-309
279
236
52
-105
144
331
-206
-90
313
171
-31
123
-25
-340
-398
184
-330
-202
-63
158
-937
70
-238
-207
316
235
224
-388
232
-123
-255
251
-1066
-450
-466
-1070
263
-1606
1726
398
-64
-228
647
-1482
-788
290
-1550
-1740
-8
-50
369
374
561
95
315
428
-423
-397
389
26
-349
-114
-263
283
99
-222
1403
268
78
887
1388
824
-1208
-267
99
-94
-244
-25
1148
138
-624
-69
-129
-27
-225
-59
9
301
319
-486
-133
116
120
260
237
-156
491
-112
-969
993
-246
686
152
75
362
353
-391
784
424
-310
1204
310
-577
-132
449
315
203
-278
13
-137
155
-2
-54
816
-807
-89
286
-72
746
-718
776
-99
-76
967
-1010
-1315
-319
474
-54
-82
-549
-1019
783
-886
462
450
-728
-682
-202
95
88
-28
75
380
28
151
38
-296
-549
-49
580
-8
-33
-369
213
253
802
185
331
608
655
-193
365
513
-1035
272
-197
358
184
842
32
665
636
15
374
-213
-807
-147
120
167
203
160
192
101
-339
189
-289
-362
-124
-136
-38
-113
219
-177
-428
231
-8
75
272
-594
70
462
75
-394
182
36
399
210
351
167
-59
-4
-493
294
-187
-358
791
3
-198
-284
-193
585
-202
-788
-638
-189
-162
-436
640
217
419
-112
157
791
307
473
-389
322
-353
108
-245
-811
941
25
-178
-86
702
-26
707
434
-446
558
-170
398
96
-397
125
-116
528
815
412
-644
449
545
-1229
-267
310
-240
-47
-283
88
464
-921
864
-1074
178
-738
691
-51
-520
3
-890
-226
-885
376
560
290
256
716
-842
-1042
50
-576
-731
327
-379
-623
353
485
-45
231
-1003
-779
-234
453
153
-1284
64
-25
187
136
-4
508
316
530
385
308
-997
-271
-115
-846
-621
-386
-637
1001
-571
609
-278
-195
190
628
316
-430
-893
-486
-769
-728
965
-831
474
834
314
342
-67
16
-97
368
391
-146
-59
-41
262
-103
275
-484
50
-98
-28
-721
132
147
331
-14
-503
-302
215
-285
-181
31
-208
-316
75
-88
-223
-431
352
148
-445
295
32
31
-329
-141
-53
40
-427
317
-219
-53
-305
199
320
-170
-133
-359
363
-72
302
507
-175
-270
176
-431
-237
-76
-500
-1648
-160
-1430
-633
-1357
-1271
1193
448
2018
1807
817
-99
-772
-1289
-257
-726
72
-401
543
799
764
-146
-595
-2178
-1156
-863
-328
-842
-632
-296
711
-1053
749
-406
112
875
-1180
1096
-1019
1004
-44
734
316
376
-70
1244
291
-467
-125
-861
1234
346
1043
-191
432
-658
-611
-1282
428
-738
104
1135
886
-415
-938
576
-33
217
-838
48
435
666
732
959
371
-418
-358
-1126
-418
116
-512
-396
380
-279
-625
-609
-246
-398
1079
215
-1087
297
80
-640
448
-456
423
-244
789
342
550
-54
100
538
-1172
377
-74
-496
-189
-653
572
93
253
-846
1024
-904
627
-321
268
-1330
-523
-810
386
-826
329
477
473
-940
328
-364
86
217
19
132
-6
11
200
-503
302
15
-17
-249
372
350
638
-212
-78
-300
-271
-298
-10
10
-87
-453
-316
-536
581
149
47
27
392
-6
392
46
168
-311
309
-134
-356
324
372
99
-341
711
214
94
-19
-271
238
-8
252
194
141
23
27
96
-23
270
-54
47
-459
305
-313
290
-391
-814
245
-1045
84
-314
-204
850
985
-1043
-785
595
-1588
-619
-425
-1045
804
-685
-525
-512
-99
495
926
41
-1099
444
942
-350
549
-937
-72
529
-500
-821
1465
-1176
214
-1080
861
-424
-117
177
-874
-1160
32
978
532
-781
668
-600
452
1009
241
-351
-483
-556
522
-755
830
329
557
-458
1032
246
-431
604
310
891
-653
-469
-801
-1280
-899
868
1384
623
1086
713
-151
515
50
-272
-1213
623
341
2039
1186
571
-465
146
2381
807
151
170
-882
120
-1948
-353
-1971
-819
-247
-489
1245
-147
543
679
673
1097
-1506
-68
1663
-885
803
-1432
39
1190
578
3
-1123
-146
1935
-848
1273
343
321
-748
-498
-118
53
-490
-322
52
3
43
-259
-47
361
194
73
59
759
66
201
-185
20
86
-123
-387
349
109
108
-120
130
-88
36
22
312
-600
-177
-371
67
154
-762
-105
-308
15
362
-449
823
211
21
-357
-26
8
55
-26
61
29
350
92
-22
53
-401
-668
127
-32
-107
-50
-38
379
-209
559
-864
177
141
667
-281
-484
421
472
407
369
1089
0
-326
58
-698
-1220
556
-49
-146
-467
-346
946
-68
-648
311
769
-159
384
694
-185
-525
-830
-750
50
-405
451
-658
-566
300
1015
-110
96
-863
27
-514
-379
806
-251
194
-634
172
269
677
119
-272
376
525
-118
240
444
291
-76
935
1452
317
1640
538
1865
-1211
-1165
-1149
-469
-1321
739
1428
811
1649
1315
621
559
-693
-2059
-1151
1088
1353
1257
1614
1125
952
543
756
940
-912
1362
-1835
1374
-1445
-1948
609
-2107
1452
-446
1018
-1477
1749
1646
1069
-1250
-1667
2131
755
-209
-861
-961
-2117
2067
-689
597
-133
1692
411
1
756
-1473
-297
-281
147
-8
-430
-101
180
453
0
238
145
-420
-439
14
-146
143
-100
157
-260
86
-172
112
296
394
-294
374
-61
170
151
-49
-399
-412
-79
182
211
72
-31
-112
-93
90
118
82
-302
-136
-140
17
41
-320
621
37
436
-23
16
-74
-160
-43
244
97
123
179
30
137
-8
-186
-486
-27
-1024
-823
258
-1777
-286
-1636
1136
708
444
-433
1159
-1648
-817
-798
-1052
-1241
-529
-1640
-468
1545
1067
-904
-1049
-1576
-907
-2032
-230
578
-1747
-1059
687
-991
-479
198
-1176
-411
-1178
-69
-613
72
950
140
439
166
24
144
-1045
-64
31
391
834
243
1248
-1426
115
-842
-1265
-1286
-21
-736
-237
1073
252
-756
-345
534
-104
-351
-350
319
58
411
-230
821
-256
-293
-272
-333
-648
195
-219
-542
606
227
1023
-254
-890
-436
-474
-132
-1154
-981
1368
-355
329
-988
296
-627
540
16
-151
321
-251
-433
143
195
-301
260
-534
400
611
-318
-21
94
222
586
651
-234
-209
149
-176
-351
70
139
-196
302
-155
-302
226
200
144
739
-63
586
-306
275
-205
292
11
-392
59
-699
169
-131
-164
-45
569
-514
376
60
191
-59
188
330
-72
350
142
-82
228
-6
-116
-114
60
490
294
123
-260
-247
573
160
441
136
-34
-33
409
-213
971
34
-63
21
13
-122
335
139
381
-164
159
293
490
2
-390
-447
853
338
-792
1616
252
1384
-458
-448
-168
-274
-1708
584
1893
582
1540
945
-39
760
-9
-1621
-1152
-63
1044
477
1143
2077
-336
606
-2
750
-240
63
-595
651
-235
-827
240
-911
551
941
389
-623
244
683
522
331
48
624
1098
-664
707
-100
-505
1338
369
-78
48
-22
954
-509
563
-53
358
206
-280
443
-285
22
-437
262
19
-146
509
470
23
463
350
-291
-118
-130
-227
-15
626
-117
-336
-4
-214
328
285
-35
18
1400
-555
407
116
-121
-135
-41
-259
-432
441
-286
-513
-38
-184
334
-310
-63
246
-487
-199
-194
867
-941
486
-905
754
243
557
-733
-646
-955
642
-739
282
477
726
-772
-275
553
8
-9
382
158
304
-261
33
-16
149
-171
72
-305
-302
-199
-41
-436
490
-176
-169
-199
148
254
285
-323
-124
-278
-479
91
118
436
-582
162
-149
137
123
-343
73
146
-110
-17
-22
-374
-948
-440
-138
166
54
128
23
-392
202
403
-223
-281
-413
366
229
187
-211
270
-106
-190
249
556
870
671
455
1230
-1329
-401
-31
-188
131
713
195
762
83
971
85
1195
-692
-447
-618
-90
-11
748
1138
332
-53
-362
877
182
-519
746
-968
-161
342
428
725
-1151
1342
520
-674
-748
51
-1027
-925
-734
-214
906
724
1039
-220
-432
-331
671
-20
164
-879
825
491
246
726
460
51
126
208
674
22
1626
-17
545
-804
190
-467
600
-1259
1206
395
36
1092
1033
-193
561
-547
-1424
-1086
182
795
1579
1193
836
963
1840
-165
457
-815
650
-1047
840
-688
-852
-652
-1491
901
-3
272
-805
583
65
533
647
-1022
978
1065
-145
-517
-568
-213
806
-327
434
-997
884
-55
140
241
-215
-136
88
-258
-47
417
31
-744
378
-227
600
-385
16
224
55
59
-43
338
-52
230
255
-282
-625
-273
-46
-369
-602
251
52
178
-436
117
-52
-681
-627
18
239
611
-138
473
82
-232
-254
32
-452
58
28
57
53
-102
387
307
44
282
-191
-214
134
94
157
437
116
3
-240
371
421
126
-196
-354
-212
-815
-522
-435
-716
780
160
92
538
-45
-480
139
-870
-320
-920
704
-303
-107
-947
1305
694
755
-399
-871
-194
586
-120
205
648
-379
-282
-17
-1030
1250
1206
-1151
608
1673
-285
-583
-274
-878
-947
-933
890
808
44
-1334
686
384
1267
-280
-831
-192
1099
1032
758
-573
302
-547
176
-555
472
-238
221
-703
652
-680
110
-3
583
566
388
-477
798
-131
-1075
737
441
392
492
260
-1695
-1008
195
1569
23
442
1144
501
751
-386
622
-638
495
209
-383
713
239
341
-273
-137
-325
-140
-33
-31
-548
66
-254
438
-242
892
523
-986
-775
-79
64
-183
-24
-254
253
-332
849
-123
-135
-484
288
79
-39
-235
127
-72
507
-71
-96
155
-21
178
-39
55
-111
-118
112
252
-487
236
-9
-260
10
159
193
349
-733
-476
-193
-269
-115
470
77
439
-68
-193
12
243
449
467
-525
-190
-4
10
321
-51
147
-86
45
-309
63
211
215
-162
51
-467
46
38
350
349
-127
-286
337
-40
276
-21
-1016
-190
-505
-195
-46
476
-351
90
-525
494
-8
150
-141
-269
-865
-247
-522
891
786
187
204
-622
516
-61
-348
-753
132
1041
-393
358
-703
503
-870
-325
130
12
708
-1121
-1951
1257
786
-1201
-757
-402
630
381
-346
-529
-49
387
367
1134
-1131
435
-274
308
-884
-340
-344
-497
948
-397
485
188
133
-564
-27
40
98
137
-1061
93
67
305
82
977
286
-291
-325
307
-72
66
-256
251
418
295
393
-485
-347
483
698
-269
216
-487
356
-120
-30
68
46
2
325
519
-95
-112
22
-252
-104
117
-416
364
42
-536
-809
490
16
-757
914
174
198
158
282
624
-612
746
-755
674
-595
28
19
138
63
-81
-143
-587
223
-361
127
-78
439
-122
727
-445
-867
-293
343
-268
278
-105
103
-718
304
-180
142
484
441
311
-605
-308
219
173
-86
-244
183
320
1132
44
-528
-135
-30
-209
-98
544
275
-437
6
-32
511
70
17
-30
279
46
11
262
357
-354
-599
610
-331
526
-138
-1279
-712
1453
-1441
-486
-1378
1213
722
-377
-1011
269
-1313
-1572
-462
-1138
-964
-242
-522
-904
1392
-169
-899
-346
-2451
234
-1138
304
-1765
-794
-1447
475
-957
-273
-62
-180
-131
-1060
-684
115
456
547
165
-43
412
250
614
-59
-170
-569
774
177
451
472
-827
-78
-368
-204
9
-135
-341
-100
479
-177
-513
753
473
1127
558
1172
1066
-922
-1093
-1244
-495
-486
766
754
1241
389
1264
-102
18
-622
590
-565
-293
37
-455
-13
-9
591
-1047
-363
13
-262
566
-133
379
-565
-118
-1407
-299
233
1087
770
-569
654
522
299
604
-402
-137
204
594
135
-136
338
445
257
-1
-967
548
312
-105
68
310
94
-81
211
276
400
352
163
297
471
608
-103
713
100
229
-104
-188
-384
-291
-79
-509
-174
-602
-279
-222
-90
-95
-82
73
134
-74
-203
142
38
78
-424
263
385
167
298
-483
-374
685
675
-33
-99
-400
5
-242
-663
-296
86
22
34
193
243
-431
215
285
-11
-690
390
359
-140
350
-197
125
