122
-207
-21
106
-301
-85
-141
-280
-29
-59
-59
-58
-45
-42
-33
-29
15
-153
-152
-229
-85
-86
-63
-144
34
-106
1
69
-24
-333
-229
23
91
52
18
-5
30
129
42
-81
-253
-61
-101
-14
-106
6
137
223
29
-202
-6
-95
38
-187
-400
-178
-18
-40
-342
-145
-64
-100
-95
-161
69
-191
-11
19
-385
81
-52
38
-108
36
-100
-277
73
-130
37
13
36
-185
-42
-163
114
-265
-109
114
-130
-176
-213
-43
-51
-24
-126
-1
119
-186
42
-189
-9
-173
-413
-128
-58
-167
-62
-254
-280
-229
-106
22
-159
100
-44
75
-113
76
17
-226
-8
92
-232
-322
-176
-258
-138
-251
-437
-46
126
-188
-190
72
45
-78
22
-45
-385
-409
-43
-2
35
-786
-104
-138
-30
-105
-168
15
41
85
-95
-11
-301
-111
-150
-207
-327
-127
-185
93
78
18
-47
-17
-236
-83
-95
12
-100
-146
-268
-194
35
129
56
-274
17
-140
-132
-25
-202
-91
-212
33
-222
-167
104
40
-165
89
-192
-147
-88
-153
47
70
15
-14
-127
-23
-152
109
45
-148
-29
167
-244
-207
33
-76
64
-56
-567
75
25
-131
-6
-213
21
-328
-201
-304
-192
-431
51
49
119
122
-146
-724
18
-151
-356
-163
-226
-200
-199
26
-81
-276
-178
-170
-124
-121
-135
-28
-27
86
-144
-59
-35
-8
-302
-205
