150
503
251
-23
440
107
23
-181
289
76
110
402
74
-240
-56
189
51
-129
-132
-1033
-380
-188
471
-747
-427
-320
496
127
510
-78
-945
438
290
-683
63
46
-44
-85
-117
-886
107
-733
42
-269
-619
462
276
368
307
161
-399
-4
124
-1252
743
-451
-575
-888
-1418
48
133
-489
276
-417
23
-87
64
19
-549
-937
-758
68
-205
-141
-231
144
-381
434
391
93
-106
180
-13
67
-125
-228
-132
-494
-652
145
361
588
397
202
-698
30
510
-35
399
-40
-613
-219
-330
267
433
-835
708
272
387
-725
115
-497
-106
-265
345
226
76
397
-440
157
-535
-7
601
103
136
269
-202
-416
28
602
263
320
795
-340
200
173
-195
-105
265
506
-323
-682
-325
-421
-227
-41
282
591
-332
-440
29
709
-441
-297
71
211
376
571
-573
-860
-43
82
-421
-583
-609
-85
-299
-81
80
-349
-565
465
-276
401
117
188
180
-54
-1038
584
160
541
158
400
226
325
-333
-1261
7
54
-8
212
792
154
-293
-266
757
-325
-80
48
1
64
598
323
100
-626
-85
-511
-565
-592
-181
138
-129
255
-172
-247
254
-192
-105
-17
453
-1158
220
-542
343
100
351
-311
-112
-2
119
-824
-613
253
-784
-1030
-13
14
-18
-1242
-344
885
-513
-435
-304
221
260
-243
-1263
148
307
-869
41
18
537
-96
62
473
-265
230
200
-261
-572
-695
-738
154
-486
-177
65
-91
-283
-708
-444
-109
-62
-154
184
541
-597
30
366
-305
-825
-126
-85
-696
34
-496
-338
312
-114
201
136
-352
-60
-736
-113
-406
87
88
-89
-312
-414
-230
-348
119
66
-125
-173
188
318
61
236
47
-691
10
178
148
261
661
-12
149
-515
-352
-1093
801
-397
92
573
-680
-279
298
226
-298
-403
214
-329
-27
-125
81
-50
206
-615
-424
-613
-105
-311
-113
-290
598
-434
182
-466
443
-248
-220
-32
-885
436
637
242
-227
-157
-137
182
-47
167
432
569
259
144
-285
-197
252
-878
-194
-273
653
-107
-916
-818
507
17
-18
335
17
229
-519
-71
-304
-291
-460
-539
-74
-32
802
120
-208
11
-145
121
-94
170
-476
-568
-309
-118
-70
221
-102
-72
-112
36
211
-161
-112
-12
-1305
-609
-505
62
-215
-335
-499
48
-488
136
-359
-61
184
-30
1046
171
-61
-487
-54
169
-222
-168
-48
220
433
-269
-741
262
32
-50
94
-30
-59
298
79
-1041
-33
-147
115
-189
340
603
3
160
-360
94
970
-236
-1027
-108
-545
248
239
-670
318
-266
273
-45
211
206
-517
-458
322
426
226
-439
139
-216
-619
160
-889
-56
-82
40
338
542
-727
-776
-420
700
-120
-360
84
-3
1287
-151
-264
-498
120
-78
-488
-256
16
-108
214
-147
-34
800
-210
-399
24
-16
-46
-175
-103
-462
12
254
-127
201
58
145
-443
-469
131
-972
-110
-306
61
-154
-16
627
400
-58
-48
444
91
-262
-64
694
436
-179
-5
-12
889
56
-463
209
201
740
-8
629
481
-351
-300
516
-57
-184
641
49
-386
-158
-40
895
-156
220
627
-408
-57
-532
74
69
419
1299
-92
28
-341
-397
524
-292
-438
174
-170
-770
-155
329
196
-386
-512
336
-116
203
-11
86
207
-226
179
469
-113
82
237
643
413
230
-35
-273
298
149
531
199
517
-133
176
128
1124
-47
-408
-47
966
-178
173
-203
187
-196
69
167
-154
764
308
-72
-606
-639
57
155
-24
-181
-305
1079
16
-425
191
174
-375
-105
-419
543
-295
467
1790
182
-191
-313
-66
-174
122
193
-166
458
370
84
158
-472
-587
338
-113
-228
70
-461
233
150
-31
433
-345
263
149
-256
-86
127
-56
-161
-471
-681
617
771
303
271
-152
231
677
-41
-354
351
561
-152
237
-234
56
-252
-288
31
961
-110
-186
541
750
279
249
21
305
276
-45
573
159
202
915
1058
516
297
252
-757
-173
-73
-564
142
622
-591
997
1145
122
-207
511
228
-409
-223
283
379
854
1062
-370
-28
600
380
575
-145
285
832
465
-232
-170
-17
-320
-690
-313
311
-214
97
569
235
-113
-388
67
-46
317
-430
-56
-576
508
-405
-386
515
19
288
87
-820
-271
66
-35
34
-22
-320
-272
410
-570
190
207
-375
-804
-745
70
283
-556
-469
-115
-2
353
-190
389
87
233
441
806
357
-812
171
10
166
-443
-690
-33
-938
-709
436
51
-593
29
538
-138
-195
-189
-807
457
74
-258
-339
-788
207
-9
216
-74
-1355
-196
-218
-332
-290
-56
512
-346
-357
-720
31
-786
-418
-45
108
-231
358
-867
69
737
-547
-337
252
-286
-17
95
-667
-394
-196
-582
-888
7
115
-500
-374
-94
-98
-288
-479
-35
-85
553
843
142
46
-622
-331
-25
-396
-50
-128
26
-300
-14
181
-366
-389
463
-569
330
-265
-489
208
170
633
139
34
-437
-7
1196
-716
533
253
-501
-868
516
-330
-181
-562
-621
-243
541
-96
-106
90
-384
-150
-197
-195
-698
-199
-301
-127
-316
-552
83
522
6
418
10
86
320
288
-141
-252
596
193
129
14
-611
-976
222
-779
-353
246
-392
-20
542
29
69
-619
-204
327
-86
-891
-38
-90
-248
-526
-110
178
263
246
-614
-420
102
-163
-174
295
740
-390
200
-288
383
334
166
44
220
119
110
364
-159
54
-51
-57
101
-442
26
-58
820
-17
94
530
-138
332
-365
-783
1164
-107
-371
-439
68
-352
390
-732
286
-175
92
-45
264
-197
-443
137
-375
60
168
-492
92
242
1108
382
-339
-110
157
6
-182
224
-328
271
-513
-164
-49
-85
-95
-402
577
-12
-130
-435
-19
-126
-229
-54
-84
-333
221
472
-442
323
-70
91
-232
-177
-152
-364
-279
-8
1100
-330
-252
-180
-61
239
24
186
-402
-53
-268
-516
166
-229
66
855
852
562
24
-723
-55
-435
-283
241
-419
-157
119
-137
341
423
198
-451
-107
439
-141
65
33
252
-15
-38
63
-372
442
355
195
-437
-536
175
-192
394
-44
726
-203
24
-172
-205
147
514
-198
439
242
-417
64
-360
244
-124
353
-44
-308
1397
-436
392
319
-157
250
296
-459
-200
-107
-498
427
-107
62
21
155
276
695
53
3
59
731
707
34
123
-85
-413
-415
-657
546
181
16
-263
-535
-314
349
19
-182
-56
279
-184
808
-264
-143
621
161
184
-136
75
791
295
84
247
-65
280
78
420
-14
-161
62
-45
-16
504
200
-13
-50
-350
371
864
570
-252
296
-248
-1
23
-337
-171
184
208
-170
498
-158
787
-174
226
27
-200
-231
8
-151
-17
278
-529
8
168
-5
104
479
259
180
139
146
268
-100
-65
27
1791
22
392
-213
-423
-89
1060
-9
291
316
8
-259
-140
-305
-583
42
114
-496
-367
134
-237
-98
-508
822
1265
71
115
875
647
186
-297
-63
207
-30
-316
-239
9
-68
252
-210
-56
345
278
-28
-267
329
52
134
160
-219
306
-286
292
417
561
-268
-129
100
-377
689
-101
658
433
251
-560
409
42
82
-124
148
-108
189
97
-430
10
31
263
134
-241
-269
-62
-192
-864
393
-676
471
30
703
598
-447
350
-55
-458
285
-616
741
345
65
-128
19
133
-144
116
-268
403
-594
-99
425
-145
-365
1421
605
463
-330
244
-40
516
57
-398
168
72
163
296
-415
469
-465
321
252
-46
-131
-144
-340
297
-281
-20
489
-327
-50
-167
-412
11
-219
-280
780
372
308
-254
495
-85
-81
908
107
44
-324
566
818
-339
-265
-317
67
89
637
-234
-401
536
-94
240
518
-366
-177
56
-92
-297
546
-345
148
354
-333
-534
838
292
32
-42
658
-326
-962
448
398
304
-42
202
652
-29
-450
640
65
271
243
656
-504
-442
684
251
-570
-195
-237
-141
-151
107
676
-200
299
-77
171
598
911
241
114
-67
337
961
359
141
-48
45
879
158
61
-592
-388
88
-194
-84
-179
-237
307
-238
135
566
-16
-147
-669
222
451
188
-214
-482
481
39
-226
-69
-651
-150
-256
385
151
345
-33
-164
-32
17
50
-184
-520
153
-822
275
449
28
-367
881
-178
144
466
6
135
302
-385
125
352
275
145
559
-924
441
25
393
730
634
49
31
-72
-33
460
137
112
332
190
-313
-749
-203
-8
63
-803
-409
107
512
181
-341
653
-206
4
-83
-400
-570
-238
582
190
898
215
84
622
345
420
492
-262
425
54
579
-192
-469
910
441
-287
-44
-148
230
-1065
-227
-169
325
-476
-607
423
-135
187
912
-165
344
-289
-51
-239
-335
-308
-522
524
-860
91
12
-360
-459
604
-212
-26
-161
310
-266
162
-45
-1409
-151
-234
-104
301
665
187
0
-80
553
521
242
-40
84
310
243
-837
-547
139
-351
-150
-219
165
-77
72
-169
-205
-645
-688
-502
-336
159
-614
127
-701
177
-599
208
-92
-5
-853
65
131
-1111
-141
469
209
-280
-1312
754
318
-528
-333
-633
-126
-542
-342
-1652
-912
468
-139
-872
340
-151
-332
448
-188
-210
-280
-823
33
-100
-897
302
414
658
-666
-346
-137
226
-944
925
-104
303
-209
-719
434
45
746
-139
565
-90
97
-712
-463
35
285
-696
-50
315
-89
545
512
173
261
-361
679
-536
211
-212
518
206
33
128
11
-209
-343
190
-194
31
-139
-1175
-305
-282
-8
-6
121
-13
-24
-718
-115
-503
-87
28
-173
442
-765
-265
-581
-413
-318
302
212
-67
92
-428
-3
-262
38
-386
-1172
211
-372
287
510
-234
-523
268
210
-135
2
180
529
-281
-496
-162
-906
-209
814
-265
-224
122
702
265
-208
-141
16
278
209
318
91
188
-106
243
-132
-240
238
285
-469
-377
563
-589
42
285
332
-145
203
108
360
138
621
12
130
461
-585
219
581
-40
-254
238
54
-908
826
281
-335
244
483
184
1311
312
597
95
-85
475
-259
-75
761
343
617
-609
-125
881
-41
-141
-441
522
135
96
-102
379
112
308
-61
-193
45
228
841
60
666
-291
713
-258
-236
-70
15
886
-585
-317
-693
818
814
285
914
98
771
704
-158
-85
9
-315
208
324
220
-763
170
188
-534
-555
-6
407
407
495
-157
236
462
171
304
1349
-573
395
189
15
174
-200
-684
-84
-484
736
396
-32
-472
-184
325
294
-38
-561
146
49
-422
-849
1
728
-109
637
-1081
364
-88
-86
90
271
414
-552
-273
638
202
-319
-84
188
-25
197
-458
300
131
255
-178
-430
57
115
-254
595
-117
63
156
283
518
68
670
757
208
-573
378
223
466
335
544
-121
-389
131
706
-238
1343
-411
-494
-491
-128
31
-221
-593
-341
-127
186
673
-629
29
-493
-114
-244
170
602
-512
-145
80
218
72
129
-885
-287
595
177
16
-143
621
-193
725
-782
0
-546
-42
168
302
-428
169
-31
60
-460
35
681
331
-46
16
-465
390
-231
708
111
-115
1015
532
243
339
-1
287
-505
-438
313
516
137
593
44
-689
863
219
544
450
447
118
78
-225
-754
346
-681
-71
-246
145
-443
-1144
222
168
235
50
103
188
177
213
26
265
561
-618
-246
-86
-608
-703
283
160
-84
518
-287
-407
141
-627
822
75
12
400
-274
-30
-34
83
353
-101
-217
258
-646
178
379
-752
701
-17
-357
-382
95
257
-412
-410
202
-685
311
445
266
926
94
131
-179
105
-191
157
339
833
-137
75
46
-514
-861
-574
120
-254
-86
-397
2
-215
80
-40
882
-361
-468
-26
35
-72
284
-502
-16
-396
290
304
-408
535
73
0
525
-131
164
348
598
-127
290
370
-337
235
460
-542
208
-375
-1088
-838
-197
-481
-77
-367
75
-417
-13
-75
-906
-796
-224
-804
-628
72
-214
128
-281
213
174
-25
-89
-1
-103
-697
455
-30
267
-231
21
-177
476
-11
-122
-511
-740
-344
626
-761
-128
510
779
-774
701
-227
-511
-25
9
129
350
-690
-119
-308
-812
181
320
32
-153
-1075
318
-596
-137
-565
-323
21
-153
40
896
305
-277
706
-555
71
-344
330
-180
-49
224
-110
46
-1070
144
398
-162
-199
-299
116
569
46
-95
275
70
-351
-263
-486
-510
97
101
5
188
350
123
339
-47
-158
29
362
185
-174
-320
-1015
659
-77
355
-136
-74
-261
-215
-314
9
-583
-161
-14
498
348
-305
-501
-270
-893
-442
-894
-66
204
-286
-415
-370
146
19
205
-367
-183
204
-385
507
635
236
-539
507
-359
-315
1546
88
145
255
-350
99
1079
-248
387
699
410
-478
353
-733
-239
-312
-643
178
-390
-108
171
-493
-435
203
150
149
173
-230
132
-522
-209
21
-62
976
818
266
101
-843
-736
-228
-289
404
226
1001
747
96
108
37
112
245
-149
-451
1187
85
-363
176
755
-339
338
501
579
-487
-715
-356
-1055
728
481
-279
4
527
-184
-798
-50
160
-86
247
213
535
-302
-123
-129
511
694
-227
-108
346
344
18
60
-500
374
507
103
-136
-37
-992
192
812
497
169
851
853
-557
586
-21
538
-434
46
-107
265
-1058
345
660
-64
1313
-124
784
656
-64
-582
-512
1177
76
-445
-376
429
471
264
10
240
567
-278
927
-228
285
522
-6
467
112
110
-200
398
-58
-50
-38
889
-124
662
48
306
761
192
-263
-1186
66
706
-319
-487
97
143
-635
-409
-470
334
-125
499
-61
95
426
-510
718
344
420
152
381
-361
-87
393
-446
-435
-349
-211
-86
314
140
141
682
887
1440
-340
65
-251
-614
-430
1185
357
-479
280
-18
831
-906
243
-376
218
-559
-100
612
287
204
88
431
-2
199
132
-468
-74
-959
141
558
-305
-138
-216
-112
-457
167
1087
-799
-268
-211
84
-144
-274
582
-134
213
-290
-59
-432
362
-446
233
504
-405
89
-225
-62
-931
602
-597
239
20
116
99
341
-251
-629
80
941
543
200
-878
-294
-55
248
396
-299
22
91
816
-6
444
215
125
-295
25
-231
-206
60
831
276
-234
391
-117
122
-182
-388
-321
-169
35
59
-24
-31
286
204
454
-550
215
-316
484
178
-386
27
282
-565
1159
-209
53
437
-249
155
-434
-210
-9
426
-356
-328
-427
397
-184
220
-119
306
269
-10
331
1083
373
256
-264
-144
192
-104
-128
174
-487
-7
938
121
458
793
1079
-427
441
-263
-530
-16
-107
-8
109
-588
102
-200
573
-599
-309
-347
12
-542
512
-976
162
-629
-248
109
825
332
265
-23
-175
131
786
-47
13
326
411
-713
420
-956
465
903
744
-142
-372
-216
-178
225
399
-80
-56
482
198
-54
-78
689
266
-37
-234
54
-141
655
-103
980
-121
-285
-185
-248
-236
619
-719
551
-97
-205
528
102
89
-178
63
49
-101
-305
244
420
-364
-48
165
99
1154
742
-572
-285
100
129
43
77
170
86
-424
436
762
-21
-571
-207
1180
276
49
-314
-411
124
134
-355
-102
-31
250
-203
-174
195
-115
-7
72
-112
278
-86
-588
-30
93
217
543
226
63
-128
739
-687
617
-246
-71
41
524
-668
-582
239
-409
-559
-541
523
848
-367
-311
-149
718
679
-72
603
222
196
-864
-197
451
72
-803
187
-137
684
581
-502
689
305
750
-175
836
-22
-480
121
70
305
-110
-463
546
798
-462
-614
223
-444
157
394
310
389
44
-28
322
246
493
-37
257
582
-99
-988
57
-217
414
300
114
-108
-346
543
233
315
664
373
-120
33
-477
63
365
259
455
-151
832
141
488
118
-49
-128
-185
-212
-13
65
-289
4
-447
45
918
438
173
79
330
-346
388
35
-161
-695
670
-702
61
432
110
-31
401
-177
16
-89
316
253
452
166
944
-342
-427
104
-298
-457
661
519
-17
106
-128
71
102
174
-96
536
543
-459
781
24
-215
-94
197
429
206
174
-137
759
432
-50
-47
-68
301
-267
116
620
136
405
182
699
-71
199
-703
-47
-280
-24
58
391
-131
-173
854
-1
-229
449
-414
854
-173
130
106
94
57
-128
-524
-67
-178
125
332
-10
498
-385
412
-134
-476
36
-184
497
567
-286
367
-388
371
193
154
679
-36
118
59
-329
-647
-256
1137
308
-69
309
-151
184
-272
276
-284
-7
-293
95
363
-133
648
129
297
-38
1099
216
216
142
-364
-147
142
-555
-221
3
-246
-447
-337
237
296
11
-335
-332
1008
-88
-416
72
53
491
52
140
-186
-498
18
163
-55
283
43
105
-561
-314
1441
317
-25
167
-63
499
-8
73
188
435
129
-58
35
331
108
38
662
-198
7
-785
-185
476
-128
-8
1096
400
318
121
42
-204
-247
139
299
289
-279
-828
223
389
40
397
394
1102
16
207
145
78
107
-370
-78
165
-486
264
-100
-56
282
-54
200
699
462
20
359
-638
183
548
-303
5
-9
101
-313
840
-113
-344
-385
-150
294
-802
-158
909
150
1001
552
445
988
101
-19
11
-216
605
-181
-123
1010
-96
790
59
717
132
642
328
-864
-463
578
-582
260
37
-429
-555
-432
-123
425
-229
-191
422
300
113
91
-734
-289
253
292
41
66
333
173
743
-140
13
518
869
360
572
-119
-418
544
-966
155
481
170
-48
-190
146
-92
29
-106
536
-755
-277
-398
-161
48
-396
223
9
421
159
-207
90
-677
-222
-20
-497
-71
360
-330
526
-191
1011
-98
918
237
-384
418
143
-626
341
320
-84
547
55
-582
11
487
637
-466
705
-418
-118
-177
74
-88
-83
-785
801
219
330
426
-415
-70
443
-289
524
-447
14
65
-27
258
338
9
-265
-210
484
-209
-329
-150
-193
-396
-713
318
353
723
570
-776
575
456
-66
-484
-232
-261
73
672
-147
-666
-18
137
248
-655
-516
471
444
867
-154
294
-134
225
-312
-674
102
-817
433
55
-118
489
-7
364
195
50
179
537
379
442
224
405
496
172
162
-363
-311
-292
1
220
398
213
-168
638
-8
-4
283
96
538
-388
210
662
-247
-157
-128
-236
255
479
148
-316
56
195
-239
-76
243
91
-59
267
389
159
179
58
-492
428
475
492
573
333
327
-445
135
-494
472
-304
-669
-664
-441
0
179
306
1432
14
-684
604
-414
296
-13
-18
192
-516
765
945
2
-175
137
-245
1365
496
-408
555
62
-469
45
212
-356
-429
-339
-154
-227
-179
202
-460
449
-71
-160
-95
-688
516
70
-61
49
102
-153
291
-7
152
157
73
-49
541
275
-135
451
248
474
1289
414
7
436
124
1026
426
-456
-362
2187
-94
-181
42
564
224
580
157
457
-814
23
30
2
-263
-433
257
494
-716
-6
-847
708
-95
-227
322
540
661
1303
-54
201
177
136
-182
-408
204
461
150
-474
597
79
54
491
-484
-533
-223
142
-493
470
48
-507
-349
-37
-85
1080
-49
32
321
-669
-195
272
173
1077
987
-68
-192
375
-53
286
-126
-111
-141
-106
39
174
321
-87
926
455
-54
219
132
-97
38
106
760
-68
166
63
1150
83
721
-304
-8
-449
-209
-176
227
864
156
-415
-186
218
291
-530
-402
428
-417
1390
610
-327
-657
270
1321
266
761
74
-372
-4
-130
1061
-829
535
512
-269
-265
4
-372
-224
0
-253
68
-676
-197
872
-402
1183
670
-170
-610
568
235
-570
-21
-693
-474
457
575
155
98
-433
902
81
-169
-272
-896
28
401
-117
90
-444
499
433
-626
140
75
-343
-291
-205
262
448
778
311
313
-595
-794
208
324
-536
61
-525
-56
-193
-326
-107
-561
-385
-211
-756
-470
-175
-30
-60
-137
-59
46
621
566
302
-338
319
-498
259
-310
-200
806
89
-290
-371
-292
-110
390
522
-277
423
21
-478
206
232
134
-65
474
245
-770
-1
-634
-929
479
-116
568
87
-634
126
606
156
393
609
-65
-122
-73
-240
-103
310
-201
-576
356
6
98
-231
-202
-298
-386
-753
247
-172
233
-304
-640
173
-359
4
458
-42
-1386
-354
-666
143
-373
-651
515
366
-846
-44
334
-439
-180
6
-113
-316
-227
246
311
-849
-179
-194
503
117
-423
-286
534
-274
452
359
-35
580
-201
100
87
-351
-399
-95
-291
619
289
-633
421
38
-585
396
34
429
90
-423
396
-295
306
503
-946
-655
-693
477
121
-14
54
254
82
373
-51
-419
428
66
-121
-151
445
-110
-429
-358
106
-268
-426
495
773
156
259
478
698
-234
473
262
219
-46
-261
-269
-608
986
362
-119
-297
-22
-272
-434
41
-181
-369
-487
-687
12
-313
2
-169
-448
60
-258
-268
-437
201
641
-910
-165
25
-474
-758
-64
-379
327
-35
-235
-374
-39
660
148
-40
-497
-55
472
-689
907
579
63
-354
-613
346
-469
-243
-502
-26
-356
251
306
-465
194
-559
108
709
165
-14
416
-259
102
-340
-211
1486
-160
-347
-17
-800
-150
54
-86
169
572
-291
78
-89
274
-35
363
-153
621
-102
1179
500
469
229
-129
-562
54
51
322
58
-52
872
142
-121
-108
213
-149
290
248
-1079
-12
-807
246
-31
510
-648
-164
-242
-981
685
-58
44
56
116
1
-379
-526
-545
247
195
-43
720
447
120
-186
304
45
-162
331
70
356
-445
-215
309
24
-174
190
-338
494
1034
494
15
679
-379
155
951
77
743
-148
471
-751
518
264
827
726
292
-448
688
579
-642
489
283
598
-380
251
860
59
329
289
208
1435
-363
-481
332
301
22
338
-57
-140
-48
1433
-159
-38
65
448
359
74
-570
-192
925
358
-281
148
-539
-193
314
133
35
516
171
523
724
-385
94
-331
-574
-775
1021
-521
-412
7
478
-704
-59
-680
867
-114
229
146
-88
-52
229
-526
-323
-642
439
-136
-458
425
800
-106
-109
-975
-182
701
-1
361
-235
410
-430
209
-390
300
400
-250
534
-261
416
475
-44
-850
-329
362
-215
-193
194
-587
231
159
617
343
394
-590
-462
-221
571
584
432
60
1052
-337
340
265
-206
-463
413
-225
-84
213
239
-204
-259
40
554
375
691
587
24
514
9
-559
743
-895
-846
192
344
237
-182
171
734
110
676
-256
-642
439
-207
-70
144
210
49
28
44
235
-427
-294
358
-633
-213
-1042
-15
29
119
61
17
248
-399
489
-271
-494
-84
175
-134
95
3
297
-130
195
67
121
-188
-65
33
592
54
715
-601
162
384
770
196
373
-86
264
3
-158
-533
-22
710
-131
-323
420
75
-388
159
416
-203
63
74
-12
-243
-30
47
264
560
-482
-7
632
460
909
-73
-253
-475
-520
-209
302
183
656
-248
89
-348
-479
-735
-329
-683
-236
547
-13
-554
2
-324
-82
-175
-103
-16
257
21
522
307
624
-344
171
-644
-167
-190
221
-313
-158
33
-371
-316
-263
-207
520
-499
224
155
-104
-325
-173
-58
496
-376
-443
268
129
814
675
-207
200
648
289
349
149
346
-33
-926
-565
470
-131
403
-354
-218
-8
-140
128
-187
-20
-583
516
-1077
127
309
-81
76
849
12
-385
-842
95
471
179
-138
582
533
420
234
135
-615
-736
-464
-645
-10
-462
-572
-829
-570
38
-123
-63
-434
124
-77
-317
-125
-474
25
141
535
78
336
8
-545
117
-411
-364
404
245
-30
6
159
-73
-483
-373
121
-78
351
589
-309
-575
-563
-257
-1099
-127
-47
201
606
157
13
849
24
-215
-690
-300
-22
231
183
-450
414
23
156
-943
-907
197
280
-96
-417
-238
785
-168
660
-378
65
393
-38
150
-1151
96
-525
-610
620
-245
-44
-188
-593
140
-706
369
372
114
-336
-62
-70
-38
-689
-727
-673
-49
-71
11
239
207
-461
193
-183
214
40
-137
-564
381
-89
-2
51
-371
373
236
-198
-234
-251
411
-32
-142
-176
-936
-272
-34
42
347
200
-318
-71
-39
-638
307
245
-301
435
682
-486
-890
320
-141
204
-78
126
-373
-246
-56
-75
500
-163
-76
210
-231
773
635
201
-213
820
-586
-32
-1219
777
252
280
-326
330
492
623
22
-530
-379
-319
278
-84
402
-378
-125
-703
-29
-81
89
-150
88
796
490
792
-913
-500
101
-1172
36
212
-76
152
1049
17
-906
65
-37
-770
-17
285
145
-439
234
86
-333
414
-610
287
308
412
402
-727
-161
28
-488
334
391
-568
-278
-513
185
313
904
137
238
-287
-98
12
273
-44
-802
156
599
-329
483
-655
267
-160
-108
-110
270
202
486
636
-650
-178
175
-221
-268
174
132
8
-204
-67
-448
-153
-578
-376
-778
-99
-142
86
-990
297
-133
29
240
125
747
339
-32
-769
-15
14
111
121
-24
670
-26
42
-382
-82
-51
805
373
-76
249
-560
-385
-456
347
234
300
-281
-596
-1170
329
264
-60
-593
110
-247
-513
-262
172
191
-853
124
255
426
-26
6
-1097
-256
-164
412
-52
-119
-237
356
-131
-321
-70
-518
-237
90
307
-478
239
-25
124
-12
481
-452
-53
93
552
368
-1134
238
165
-347
-124
464
646
-223
-10
64
-180
739
2
-141
106
-488
-399
-460
-315
263
-183
161
61
327
-565
117
41
-285
484
-352
270
-152
204
-591
-547
162
-206
86
94
-258
-475
122
-852
-621
722
-567
-88
-525
180
-502
433
-87
-541
-718
11
123
-288
4
-201
-291
-429
-446
-737
310
-412
-109
-165
-874
117
-986
-50
-462
2
-271
-499
-124
-225
-349
-22
-361
262
-273
-400
-519
-147
558
318
-79
-252
-440
367
233
329
1065
186
-71
543
-373
217
144
243
-608
834
81
163
492
38
406
-84
-194
-920
517
542
-540
-2
527
-248
-337
-310
415
398
96
524
-108
-159
103
47
-526
496
493
-37
-693
-188
-88
121
-292
-231
-1303
685
274
-114
-307
545
-574
-292
-202
-112
-738
203
-55
347
150
-76
-27
314
-103
-542
222
-279
-372
-475
-1104
378
-97
-442
-378
-43
223
-186
19
221
102
-320
319
-258
-155
-514
17
109
-283
21
352
-242
436
-192
-114
-368
-360
667
435
85
199
-369
339
-111
65
-164
-6
-121
-72
184
-140
58
136
-320
-857
-587
-283
664
302
-152
-410
143
498
-104
-790
157
-120
-368
-119
456
-155
-378
-294
390
197
111
-559
-86
219
-366
-376
553
-430
174
-133
240
966
-156
-1011
230
166
-86
27
-283
60
-169
25
494
156
-177
286
-193
197
-170
9
-419
11
166
429
43
-62
-168
-315
277
-159
417
709
-221
261
212
-140
323
4
-449
13
462
201
-179
-78
-127
462
32
10
619
177
-229
305
240
200
800
166
-210
-269
695
-285
271
21
-203
697
-220
854
32
750
21
576
326
112
-446
798
-344
1
413
-237
-604
-167
-237
-809
256
-145
878
24
-39
569
-673
114
201
-286
-328
1045
725
-556
571
623
-656
676
245
-369
-759
160
-704
332
-676
95
-239
116
-467
187
-43
118
244
396
72
109
-366
-170
1199
-590
-196
91
-354
395
182
360
190
4
-159
-108
-61
77
-102
734
127
68
-519
-20
-327
34
-53
879
399
-396
-23
-339
-308
125
337
78
291
313
60
112
669
853
-1108
458
-724
-440
-378
-137
-449
274
-649
-198
-164
-85
644
-126
350
781
138
115
296
173
-434
-256
783
457
493
-27
661
284
135
144
-511
-228
-261
65
-454
142
89
-3
443
-320
129
4
620
-213
-161
-384
-385
-241
632
75
-286
-155
-427
858
360
-106
-38
115
259
42
-221
576
309
637
127
-267
139
210
23
1250
312
-325
-129
521
363
-387
-259
-406
-118
-17
559
658
651
648
-375
-61
564
780
-316
-190
-241
19
1566
-88
-916
216
-558
47
-435
7
85
936
744
498
-326
283
-691
-270
91
168
36
-68
19
431
-709
196
-245
-129
-503
206
-268
641
-420
40
622
-460
305
14
603
-345
-311
-347
-55
151
36
191
-93
226
-31
-287
319
32
-75
907
219
-162
-236
533
-360
382
263
-235
565
-266
-550
-376
125
408
265
-7
-851
-285
-836
-630
-481
624
525
-422
269
407
-298
220
-549
-466
-529
-911
-624
177
71
-16
6
601
119
-584
679
-731
-816
-85
54
-735
-605
390
176
74
240
258
-1013
305
-81
-788
508
149
51
576
-440
-222
412
347
-142
-133
-40
-353
-404
-191
61
112
-181
-243
-292
774
-840
26
-602
-107
-229
139
186
707
-146
416
-909
320
51
1259
119
-768
-965
256
431
1100
-3
279
200
-320
92
-888
-121
345
85
-152
-467
-322
-56
844
-10
363
-382
-463
-198
-108
290
358
-131
12
-230
86
136
-12
356
19
-47
133
-207
-60
43
-218
13
-102
163
257
460
204
220
261
128
16
-34
609
-636
263
-209
-4
-221
429
-33
-311
-71
154
-312
-42
84
484
-453
-306
205
-254
-35
-507
-37
-556
-247
-297
292
113
259
-1003
-452
-122
24
-203
-27
-126
-185
-708
-89
862
-342
-461
-588
344
102
-628
-23
-554
-166
206
-175
234
-596
116
176
-143
-240
134
-363
499
-6
104
-27
181
-281
123
-221
63
-983
95
-80
-48
418
343
-671
419
-191
519
-153
-627
-183
-141
210
-296
-414
697
-234
-337
76
-468
230
-531
175
-191
291
203
502
-169
348
-238
-203
-720
471
-315
359
-344
-403
-113
195
258
543
112
204
-322
-337
792
457
158
-99
242
499
179
429
-50
-137
205
459
-213
-128
93
215
-3
199
-433
-150
323
390
-205
-70
226
0
-548
350
-25
-152
105
-180
409
260
65
717
159
-145
-427
-399
-87
-331
388
402
-31
654
-102
181
337
19
-20
-64
-387
-74
38
59
59
68
140
490
-632
1
-122
88
404
137
-299
-238
-117
287
313
-259
-142
-392
366
272
224
390
141
1078
439
145
-336
743
-288
-291
-16
-222
-104
-63
516
474
-22
239
972
259
-28
570
-510
772
-391
-226
349
-327
155
-500
335
225
474
-518
1400
133
-310
50
-163
-253
810
-155
-604
-447
-45
673
-66
238
-175
-458
258
3
461
25
221
-19
148
-138
308
448
32
-775
100
-455
191
59
469
-195
124
706
-176
1157
609
268
-480
-190
-339
-152
250
73
244
-303
655
-406
637
-12
249
17
-50
453
-43
-282
38
259
407
-597
210
199
248
639
-249
2
1136
663
398
496
134
182
281
318
207
539
-219
38
-85
-133
725
15
182
316
-77
859
-101
-217
376
-37
88
2571
-131
-10
-204
-52
249
-281
-281
68
564
-151
-203
-285
-418
190
-243
-420
-138
-347
449
-130
446
-371
202
366
358
147
-115
-494
-1294
-331
-541
-835
-126
63
23
-1360
543
3
170
152
-686
-530
-133
230
-300
530
-446
27
-58
808
-316
348
-1177
383
402
-253
-373
-468
272
-104
-325
96
73
-138
-31
219
-199
397
724
-336
59
159
-849
-341
-885
371
-108
445
-1412
-16
-299
741
345
135
-432
365
13
-648
70
-607
-246
-232
355
-44
39
548
-136
900
103
-301
-406
-543
-426
130
-351
-427
-570
-359
-662
-684
110
446
-206
389
16
-467
-536
-166
197
-408
608
32
-218
334
459
242
-422
-250
-270
-91
-500
-180
-190
271
-15
-138
-250
330
-336
-355
-785
-301
-64
374
505
-352
-590
-45
-68
-628
-256
415
-180
433
114
-64
553
282
-219
72
-961
-528
-1145
-400
328
-18
-71
-120
405
-485
-112
225
-9
404
-200
-15
-166
-154
-422
-548
-25
-264
-307
-193
137
-356
580
809
474
-105
-358
-680
-277
-263
80
59
-541
-368
58
-530
-376
-345
111
487
289
108
74
-417
-94
-747
-64
594
-629
413
-137
398
-618
-499
62
-184
-295
133
207
-298
-415
-110
446
-174
50
120
-529
-30
-103
816
599
313
-844
-62
-786
-123
415
75
123
-133
54
855
262
21
-154
-921
40
87
-574
329
-269
-255
340
-148
-79
-23
-450
310
499
185
-257
-676
-682
103
-658
2
-122
315
-356
-156
-177
156
21
-1179
-121
58
411
-484
-449
-299
146
-360
148
-146
257
-158
-472
344
354
265
-696
-167
-573
-236
104
535
-262
-181
765
549
-1002
124
-96
82
-2
331
-52
-196
5
-261
131
-7
171
108
-154
-696
-120
132
-385
-330
381
42
-250
-43
-36
-105
-780
29
88
-346
-21
-1022
95
207
-973
87
-142
130
-284
337
-221
404
-973
-406
337
311
671
256
359
261
215
542
223
381
672
-571
-460
-478
93
-896
-545
-158
-134
-220
-35
876
-909
-572
-554
65
-394
-96
-178
-14
-1288
-877
-73
1066
563
-1122
-440
84
-822
-912
-536
772
135
-565
53
-357
-426
109
-238
-221
-43
220
379
-137
96
-1264
-357
1105
-821
-115
-1172
-166
-222
-342
-79
251
185
49
-400
-868
-34
-292
431
617
-283
-1014
243
288
509
-13
145
171
-172
-327
-172
220
146
4
176
273
274
1216
63
193
298
2
353
543
302
-460
218
-482
-616
266
396
276
-226
-343
-404
-506
-607
-714
476
-49
-155
-412
423
-333
-650
322
-667
456
-394
-261
-987
627
-69
10
141
-91
37
-493
-486
-399
-317
-662
-236
561
617
-796
210
-792
-1
227
92
-418
-1093
57
-1
-311
-241
397
635
-567
386
-782
-86
-100
197
359
272
-245
300
338
-1279
970
215
-781
-47
-1627
235
-55
-246
-752
530
500
261
-309
353
370
-140
425
781
16
-219
-277
209
79
-165
-67
-251
341
308
-364
-65
-783
-389
-269
622
518
-259
-203
169
-414
-178
-17
-109
297
-399
15
28
546
-519
212
-463
-123
358
-398
-477
-138
-17
-150
-292
-216
-206
358
340
-252
159
-95
135
172
-1348
-243
-305
303
-583
-404
-790
-83
-219
105
-47
103
185
-622
-1045
69
136
300
-124
104
-66
85
-587
-220
247
620
-41
-95
325
-402
-65
220
-305
321
443
402
-371
268
127
20
-233
-554
-778
759
195
719
499
210
-116
-231
-1007
379
58
-553
-912
-333
-141
-62
212
439
-366
-565
525
-208
252
-34
-437
175
206
-245
42
-664
-852
1
-431
264
-747
-305
-190
359
-369
599
-132
-802
-418
109
-215
-389
358
-318
169
15
-930
-787
200
597
-482
-333
-364
-1600
-185
297
-108
-191
169
-179
-302
-1487
609
-126
319
-155
128
-224
6
-433
-556
273
-384
117
112
290
-154
-641
386
-36
-889
-488
652
497
-257
-110
262
-138
-289
565
-148
261
-239
-35
-86
776
366
-542
223
-147
796
240
-277
-848
33
-322
530
37
-365
92
535
241
-317
-78
-384
-307
29
-361
-553
-1003
52
255
142
67
-383
121
275
447
-216
93
-201
62
-338
-531
166
-543
-762
243
39
-76
263
-265
-365
-125
43
-943
-289
12
-356
-957
477
-407
108
126
-559
46
275
-179
-123
-198
547
-408
-105
461
-573
-155
-76
500
324
-41
-130
-348
-818
-591
293
-869
-358
-161
5
-266
-901
-117
-14
-374
652
-206
13
-108
124
-125
270
-252
283
365
-442
62
-298
25
165
-103
-767
-589
-146
357
-334
-875
193
-234
868
83
-334
178
256
10
128
131
126
149
-222
132
15
-155
222
172
-897
-561
125
161
143
430
576
-279
-922
633
154
-278
-1042
295
296
493
357
-34
-587
-73
-23
-80
-204
10
219
130
-152
-537
238
-193
-170
-365
167
-102
899
-14
-12
-18
-51
230
-40
-1127
293
74
-970
-128
134
148
-56
-981
-16
-396
443
-264
-117
609
404
362
-289
145
-969
351
-5
331
273
222
118
89
148
412
416
-268
519
381
453
-235
294
-531
-66
-316
-681
-48
-88
-801
-637
-442
282
-12
93
236
53
28
265
907
-685
-55
-232
-335
91
-61
-609
-999
-94
-46
-575
-677
-216
-221
-406
89
-256
13
-295
405
230
-193
358
-228
-211
-888
-694
599
-629
349
362
134
-624
-204
5
-332
55
324
419
173
228
-485
-326
-152
139
-465
471
14
-78
169
-571
-446
-331
181
267
-555
282
-18
-13
569
174
-601
-285
311
-94
281
809
138
186
92
359
-312
45
-276
-328
23
-292
-14
-87
-562
548
-602
-621
-239
-618
228
-177
39
813
860
-68
-568
-65
124
333
-40
-1101
-459
-160
78
-143
-484
251
-182
-245
-507
-763
425
574
95
-157
-74
82
135
-445
432
632
171
-400
61
-277
-821
-120
118
189
-591
-385
26
316
-255
498
106
584
108
-312
8
-276
-472
-280
11
357
-100
-126
-123
-312
-235
-167
-221
-379
-135
-920
63
18
-488
-162
1
247
-618
-5
-195
816
6
-612
-360
-41
-931
-666
365
249
402
-354
99
-616
237
-88
-51
204
47
-837
94
75
572
-210
-321
520
-134
-750
-349
-863
594
-307
-406
-304
-13
-302
1
-338
306
90
0
92
-223
-121
64
192
-148
223
-449
-138
-644
-564
-778
-440
161
-17
-277
90
-400
39
-165
147
118
-164
-322
227
578
-208
-334
-66
-91
-61
-568
-1135
406
411
31
-679
427
-10
-270
776
239
-369
-125
-707
72
826
219
-124
-65
-446
-293
-224
88
271
303
27
-267
-71
603
-642
155
-111
135
-177
377
-96
-151
84
371
218
-248
133
-312
478
-203
-430
31
-100
-375
628
-363
-623
-99
-329
-46
-362
-25
478
-519
1
98
674
70
-263
526
-867
23
-155
-356
-661
-5
-142
-213
9
-572
-143
263
-569
155
875
80
-841
317
271
-293
-81
-85
-559
-13
-280
-184
128
-303
665
-938
30
-266
-259
560
-274
-176
168
7
75
-493
-564
-316
199
49
-705
-1241
-158
472
-452
-946
-205
220
-151
46
-101
21
139
161
7
-91
-10
-19
94
-379
91
429
140
-162
164
-941
345
-218
-167
408
-1241
1299
-261
15
-515
513
-174
-589
-61
-20
-556
-232
-9
344
-19
-246
284
-222
55
-113
-324
-118
78
104
506
-514
-101
-195
-60
613
64
455
53
-1121
300
-69
-503
-682
350
71
-105
558
526
-690
-307
-705
-400
142
-105
-135
-319
-151
181
190
-41
37
-232
76
-198
-945
-304
-644
367
573
222
-112
179
378
110
-790
-140
369
-167
395
-13
-237
175
-196
372
347
585
-13
-356
22
-597
220
504
-683
363
-103
608
18
-110
-995
-9
33
-278
-430
-1241
151
-134
221
-179
-236
-92
-690
-278
91
-253
-1190
1249
-18
-524
-358
350
-445
-99
-509
-2353
-831
-208
-219
395
-283
44
311
-117
-650
19
-274
-649
76
113
-103
-255
-3
-399
-94
579
-1044
-587
63
-322
-414
-113
-271
-174
-42
589
326
-257
-265
-337
156
-657
591
-498
-333
-180
-455
-98
181
282
138
-246
-922
-216
-852
29
-839
-180
566
-474
-523
-602
-976
236
1023
6
120
-516
-672
-1133
257
36
211
181
-417
-217
72
483
-278
-688
167
-20
721
-206
-154
-541
-223
-155
567
-827
118
-1029
-191
312
335
-418
-314
-242
-175
-518
493
251
-185
-37
-154
-347
272
-166
404
-340
25
527
-408
-504
-402
120
451
-690
-154
212
-91
-203
-534
-385
-120
383
375
362
108
-769
364
200
-182
328
124
-129
-626
254
-167
355
112
-674
-265
-18
778
-142
173
-270
-336
138
-714
460
-25
-431
-40
-22
116
-367
69
445
157
-355
-252
-18
-182
-1
-31
-175
-10
-6
-162
-158
-317
-602
-208
32
641
559
75
-104
520
918
399
641
69
259
650
422
-492
61
174
-21
55
-44
-34
-817
-298
228
-198
361
165
937
489
-21
481
-31
201
331
-389
-172
765
-616
210
237
446
-393
513
-233
-477
109
-223
-695
-771
157
708
-354
477
-228
-563
-114
629
-161
-149
-146
503
-244
-326
210
43
-44
790
983
117
154
261
-18
-559
-15
302
61
18
-64
-377
396
-472
-310
867
84
589
1128
119
75
67
-1
379
-32
43
100
315
285
-39
86
379
201
213
-454
1280
253
132
212
-35
-471
585
304
-775
218
26
637
535
-54
55
535
606
425
48
-127
-120
-468
-283
-381
810
296
-122
115
346
527
-143
-502
-446
33
873
13
707
-50
404
-73
49
639
247
10
-111
-203
128
440
577
-106
-344
667
187
310
-92
-240
754
-48
21
-113
90
132
334
677
-633
151
-110
487
427
792
170
207
-354
414
-85
44
139
415
-314
501
626
-255
-705
59
-282
-33
13
-220
-370
-648
61
1114
-434
281
564
169
9
66
176
-1
-241
398
-25
-289
-117
-300
187
173
-111
35
-60
487
-124
-354
562
152
811
273
-34
-3
194
-471
319
288
-650
611
256
-59
-703
-263
955
48
-111
-613
-87
-14
97
-552
-162
270
-390
644
486
72
-54
-167
-160
224
-47
315
177
453
-69
252
360
519
148
-138
290
20
-4
-525
-772
-412
254
230
1200
288
326
59
-692
-236
-39
102
-526
-21
867
-102
72
211
-213
1007
-489
260
113
303
-57
81
27
444
-445
371
-399
256
887
133
666
237
103
-473
459
582
325
-276
-216
-295
-182
-163
749
783
-310
128
596
473
956
660
812
-1
200
-143
977
180
417
233
-79
-548
-550
207
9
-88
179
-695
520
-496
-502
17
-822
378
52
-476
19
335
719
-138
-314
1028
-263
630
-108
107
-426
-70
-28
-261
234
-270
1003
-256
517
493
526
513
-542
-842
-466
-4
224
-277
-80
208
248
133
145
-107
333
-499
-95
104
145
71
-691
-382
-28
-294
-443
-377
236
-86
-5
51
78
-189
554
121
102
425
320
356
229
161
87
71
424
1541
-11
154
-201
30
331
397
2
363
-269
109
-270
350
160
-120
-682
-397
109
-790
169
-136
119
-1112
-255
-668
162
258
235
-615
6
-311
926
241
-42
-279
311
-474
84
711
313
145
64
383
50
-651
270
-145
200
137
81
-199
-248
-13
-388
74
-209
-725
-160
741
528
101
-441
105
409
-323
574
227
797
39
516
-594
482
-155
-882
-185
90
-272
-307
-782
-486
494
555
213
-398
240
-637
-492
241
223
-735
130
40
-154
-80
-545
438
-61
219
585
156
255
70
-519
-149
381
-508
-948
259
-20
-88
1205
28
-97
315
588
-803
640
-345
205
808
-1205
414
-310
-123
385
-407
313
161
801
-447
-323
-132
330
-39
379
-723
-571
539
-283
-94
-1218
-622
-55
-572
-90
-222
-43
-66
378
-186
-730
-365
-299
512
99
-406
-569
-187
-360
-69
-123
370
495
465
785
777
-63
-266
183
-559
581
-486
-1143
214
-872
-90
-9
-56
-128
-50
-248
-344
78
-75
502
-4
132
-495
117
155
-614
-757
-696
56
461
972
-520
176
451
716
-103
-24
268
236
-1280
192
-440
-215
601
454
-297
-267
-348
-70
-263
66
586
901
-1473
-548
-477
-48
-294
-86
-890
-45
-291
-204
503
-587
-926
-381
-494
259
-316
398
-408
1
-1017
-228
-228
286
-628
-387
-580
61
13
38
434
-42
118
121
383
-180
126
-179
-714
-421
159
143
117
-46
-237
-2
22
-112
123
511
-77
505
291
-843
-685
343
-433
-179
256
22
-477
-59
-404
174
409
-356
-237
-321
240
-627
-683
630
-68
-108
53
309
626
235
-317
-566
444
-205
287
484
-216
638
-328
2
54
-306
-159
-773
-349
367
-7
382
-567
6
77
558
437
545
-584
530
-732
-45
51
30
40
-346
-722
179
260
-484
260
-248
-54
-174
480
96
75
-343
222
-65
683
-155
-766
-225
453
-267
-442
116
192
193
191
-70
551
106
667
599
-90
551
-305
-853
-126
15
-196
103
-294
-55
119
-96
-840
-71
-597
-181
-679
-711
-423
71
-21
-425
600
-87
329
-77
-490
132
590
230
47
-397
-1156
480
-537
491
238
487
9
-89
36
-184
46
-4
339
-77
-170
52
-652
220
-292
-46
-990
46
-286
289
34
-225
-314
-844
-392
37
-413
38
204
-159
-865
448
140
234
431
-417
53
-289
401
-574
32
76
595
-419
16
-43
-215
-82
205
468
-15
51
-221
-310
588
-188
1079
-547
290
107
-211
-4
2
-536
-125
334
569
-718
145
-409
113
-1619
451
-106
-320
-142
473
325
-250
235
-618
-12
147
-360
-94
230
260
-675
245
450
-197
484
316
-51
-43
-291
-207
-39
143
-264
-479
-231
370
191
-114
-339
-940
806
236
-1
-607
488
-2
-265
-204
-399
-246
-134
158
-161
168
324
-616
-126
-312
-105
271
-346
-13
-14
357
72
-66
353
129
-185
324
618
114
389
544
-103
-104
150
-451
-112
-35
249
-115
-667
382
-172
-246
833
296
-105
-162
-292
300
307
-214
65
-772
550
204
-63
-676
-168
957
-300
-86
-80
426
365
120
108
-173
-181
-397
-7
109
-332
255
-389
378
872
-271
736
229
215
751
-263
305
161
133
111
140
-757
-56
-237
-227
741
554
-377
-162
10
-61
-12
-145
-537
-423
-306
-771
668
-211
-49
-290
-147
587
1
259
82
148
514
193
-211
786
497
453
290
133
-215
174
775
612
292
-364
1062
360
364
156
971
-261
164
-115
199
896
-983
-11
-100
-433
-158
1252
121
-1031
-379
-583
197
-18
685
45
-377
-149
-143
-47
739
1435
15
351
-404
-633
-661
-334
-388
-112
-103
-901
678
278
155
453
827
181
620
-286
39
-257
463
-140
-404
-64
-297
485
-699
710
203
505
-503
140
473
-604
149
-73
-457
-158
-863
-296
400
-887
245
-250
144
1308
304
-114
483
333
-566
-494
-205
600
38
-707
37
-234
453
386
1859
-625
314
-260
362
-141
289
125
1048
-51
-238
111
669
-565
43
97
312
-315
474
-326
-316
72
208
558
850
-18
591
-289
404
222
493
1
-485
112
847
835
938
668
-202
221
567
8
249
572
246
-252
43
-805
-333
520
-175
1152
-217
-180
150
-180
775
-141
-375
-692
157
-36
-175
109
49
13
-1480
-369
-11
777
-64
530
-158
-591
-99
662
131
438
644
986
142
79
1259
-196
157
261
144
509
-559
-982
-98
555
-766
-319
600
412
340
-791
1132
52
-9
-128
285
1113
-48
-57
-397
6
495
-329
411
-387
716
-297
-401
-164
341
869
467
726
511
398
-16
57
-18
7
-159
194
281
-239
1046
542
776
413
401
-846
-291
-206
-293
-471
136
-172
115
654
276
-44
464
17
-132
-238
507
-159
-292
-226
-305
-474
-516
-360
-349
12
139
329
261
1088
-84
-205
249
31
519
-8
272
-208
-302
-139
-128
280
-10
-24
212
1041
-83
-719
24
-180
-628
-243
-1037
247
1953
-37
-278
269
335
-143
-390
667
750
-612
745
34
178
485
-162
364
-415
-161
411
1151
677
197
-109
385
188
752
-647
642
-262
-313
515
266
503
-365
-434
-456
1273
408
-299
-60
-35
1469
263
536
-285
-330
567
-200
201
549
25
-314
-202
433
-233
-145
-180
-688
461
299
-702
632
211
-1282
658
-433
613
323
356
0
-59
-451
32
670
-274
293
510
-126
-140
182
216
197
522
-798
125
106
71
363
-316
202
-30
563
152
-538
216
185
-604
-174
353
-8
-839
184
-267
-88
70
418
-158
258
-519
76
144
-397
-130
-337
-92
-35
767
215
419
440
-116
-101
-39
-716
108
-150
576
-357
-204
-284
-136
-322
146
-233
-319
-177
144
242
282
832
432
-548
103
483
-66
-241
348
-433
307
189
-198
-22
856
136
-492
285
-235
574
53
421
-438
-23
1124
570
-51
86
38
731
480
-23
-530
-89
317
400
330
59
-377
-10
261
-31
370
-202
-484
-71
155
202
120
-29
-210
-272
-39
677
53
-202
300
344
-16
222
691
457
-383
186
254
-212
53
-805
147
-782
-426
-419
259
284
557
200
-251
191
-186
-21
-36
106
-1007
-325
-1
60
-463
682
-506
-193
-65
27
-22
-51
-203
-19
114
-411
-634
-139
646
-135
-133
-589
-553
31
-87
-249
-265
-572
-204
509
332
254
-60
-144
-219
139
754
-36
127
-175
-233
-603
-414
514
454
661
352
292
-483
-427
-875
-102
-359
148
0
-384
-120
-548
-600
-234
-711
-589
414
-169
-118
55
-51
-275
325
315
427
-455
-118
-5
459
-556
27
-756
-274
24
-702
-724
-29
904
-1457
917
-13
-643
-85
-296
-478
25
222
-867
-98
-179
130
-538
441
-10
-470
215
713
186
-480
287
320
276
309
-481
543
-96
-216
185
270
-265
-266
51
-414
-970
460
-722
-268
576
-997
-234
141
179
-482
118
385
-392
145
289
-104
317
-227
-582
128
159
398
-7
-65
-508
-164
93
-31
-265
742
-47
533
-755
294
-292
723
-285
-234
-343
476
-79
-1097
-75
136
-60
587
349
186
39
132
-583
-818
349
-288
465
501
-954
-15
-835
-426
-136
342
-341
-91
-231
-609
-404
317
160
-462
73
-513
-371
148
372
114
855
-792
195
-1674
692
333
35
-589
-38
260
637
-120
-326
130
282
34
-138
389
294
26
-440
291
554
199
560
198
482
-96
-748
-388
-420
-494
-48
-587
-161
-85
510
102
257
102
198
287
-148
-144
86
-635
610
-286
-283
175
-493
-591
31
-4
390
-276
77
366
-191
116
-714
-515
-173
219
489
559
121
1183
-87
-59
-176
42
-15
177
-140
458
68
-28
69
1307
576
267
455
-329
39
-366
405
92
909
-321
1569
896
501
514
242
-249
-819
-357
-168
319
368
-77
-318
452
47
46
-1
233
-546
-514
92
238
-327
53
-218
-200
-493
63
266
-75
519
-48
17
163
169
81
-251
143
-84
-186
-373
-391
-75
-504
-127
-114
-48
565
296
-188
123
754
104
-86
-749
1410
-572
629
770
-147
1188
420
-20
-82
192
-272
430
-269
428
245
-902
23
-519
626
701
1708
-97
113
304
288
-20
-215
485
172
-58
-313
131
194
-23
25
168
10
256
-164
-371
139
-3
344
175
1603
48
-452
1206
-249
390
-237
416
84
-631
-480
757
26
571
385
15
-192
554
323
509
243
207
258
-656
410
73
-321
-234
23
-520
355
-541
1330
-61
-133
222
19
279
-85
-174
-47
179
211
-271
-270
-572
297
-386
-569
545
-26
600
-214
243
759
541
-246
-298
12
23
396
-57
-21
-528
14
390
66
379
147
-307
1627
-534
303
137
-430
625
336
26
635
879
-129
-476
-290
-760
224
268
281
-265
-253
-6
-466
-31
-156
-318
-141
12
-95
-64
117
343
543
-874
-55
442
-562
-155
-890
246
-363
-935
411
-336
226
-375
335
-41
86
277
-492
-12
68
119
47
363
-293
35
-81
668
-973
-212
-51
-159
-960
-112
243
-19
155
804
97
18
-64
205
-108
336
197
4
181
-202
-562
-437
417
376
-630
-184
72
122
93
510
-360
85
-642
-322
-205
390
-127
-161
359
-265
-154
165
-67
352
37
367
-286
235
-314
-27
-372
353
-168
-56
279
-553
-103
409
-111
-652
-80
-515
-650
53
-289
306
-34
425
979
-133
-83
-539
-245
71
-329
-1227
7
-1312
127
307
-847
533
-191
-446
81
-236
-308
-157
-77
-842
-768
-222
52
-767
328
414
-305
139
-444
-12
427
-243
-202
-177
-641
-384
263
-41
-212
37
-125
-16
-1423
973
-54
-198
-352
-507
-319
-427
638
-5
169
-499
-141
-668
-792
185
-358
-75
406
-396
-1
125
152
-512
230
330
152
-361
178
35
-411
-4
721
-108
121
64
-183
9
151
33
91
-1322
-617
351
-299
-71
90
-442
412
-16
-74
-1075
277
-10
35
-594
-606
-310
-660
-59
-118
-341
-48
234
-163
156
156
281
-563
38
-122
-51
-440
-54
-319
20
-559
-692
475
-546
66
-475
944
-111
-1007
45
-795
48
225
-77
-242
397
530
373
-53
104
-132
-50
257
603
-9
-44
318
-524
314
352
-886
-44
776
-461
-620
140
198
182
129
-460
98
976
240
152
-173
-177
371
-294
266
-644
-429
-686
-178
-56
-130
311
-128
-700
-148
-585
310
281
-379
170
-317
571
-208
-176
931
-500
-695
-216
238
-443
39
362
19
88
61
19
-634
63
-59
-1107
-596
293
-454
951
-13
58
285
-145
-893
-564
139
244
-372
191
-851
-245
-880
-55
-1044
281
-174
307
-402
-478
-37
400
407
404
-1198
79
139
-153
280
-132
-100
-429
296
121
93
993
535
171
865
-149
-582
-565
446
-179
-2
257
1312
-384
919
181
149
80
-50
456
254
-13
-451
71
-174
-440
-351
-397
-1392
-247
-535
27
-652
-623
178
-360
-971
-1903
-176
-335
424
-897
65
367
-699
32
-107
43
380
598
-536
-269
-555
-468
-144
107
333
-384
-93
-578
154
553
-346
-436
-616
385
-661
-247
-429
316
65
-399
-896
208
-323
-114
-570
-1230
-718
-304
180
-694
-759
219
390
521
-312
508
-832
-425
15
-609
127
-508
-78
238
376
-154
294
419
101
-37
10
220
-124
-150
-115
-24
204
58
358
-128
-417
-465
-545
-61
-70
53
324
112
-14
-680
302
-150
-209
-418
188
-842
-190
-194
-228
320
264
-167
-402
161
-799
-122
-724
134
-172
-289
104
425
120
-175
-449
-668
-19
-251
-44
-476
300
-39
453
268
497
-299
-382
-174
-804
-32
-354
-9
-652
-206
-638
416
-318
251
-138
-518
710
-453
-520
-256
-15
468
140
306
-477
-67
26
-15
283
231
-94
92
669
316
439
-212
188
-410
43
-19
-165
13
529
195
-150
33
409
-757
-247
-140
182
1166
130
44
91
-428
76
-334
-90
-262
-285
-382
-381
-634
446
836
-58
-482
1076
-315
-716
-79
279
-66
-23
-976
-310
124
-410
-600
225
-556
-57
18
251
63
-209
-272
362
-232
555
280
115
-218
-146
-180
96
-1080
-1046
-75
276
-587
-460
163
136
293
-307
-144
-621
-318
101
-152
-332
-224
-81
-456
-681
-48
111
71
-42
142
119
487
161
270
-124
-175
-65
105
-181
71
-381
-246
321
-289
7
-38
139
487
-67
108
-230
485
163
147
87
502
-916
79
-507
-100
-220
132
550
303
-282
252
259
102
-511
-285
81
-33
-228
-169
208
-111
186
377
-2
-75
209
-101
813
-76
64
1314
438
-137
-198
43
80
-427
-637
262
-339
321
187
-66
7
-177
-5
162
-141
148
-650
-282
66
-279
-237
247
173
-940
-27
-301
170
80
40
-348
105
155
-52
255
572
703
-780
190
325
381
503
-539
-732
268
207
-113
-2
169
-488
-181
-44
172
-51
314
157
-101
-91
-393
38
-545
210
-640
-995
28
194
606
115
-418
-320
-17
-295
-10
-421
615
-24
6
-185
-202
89
-203
-119
23
-128
-222
1024
703
-486
230
1121
-196
-427
165
-18
552
156
-158
149
407
250
0
-471
556
402
136
519
326
57
291
-108
245
68
-470
-344
521
196
304
1171
623
459
-54
516
-257
575
270
590
225
334
602
-736
331
-341
422
-387
475
-170
-202
881
187
492
297
81
129
529
-127
692
83
-620
256
-44
475
-206
843
78
468
44
11
582
-25
-288
-386
75
188
29
-29
58
-515
-100
642
-506
282
55
-64
165
-133
-500
-325
-79
1248
14
567
1
65
107
814
363
-386
-449
610
-162
374
104
-141
-378
-239
385
-133
684
-335
-676
678
99
86
422
512
-60
436
929
80
-125
-373
-428
83
16
-656
-500
28
1107
323
-77
-293
-121
-253
144
643
-44
-73
564
78
134
410
221
417
245
109
-24
-203
-339
34
-251
-8
-11
193
815
403
255
181
707
253
-228
6
632
-83
82
178
-206
285
406
-374
412
-198
-2
470
-41
-191
152
11
-86
-283
-300
-506
-472
30
-504
-459
690
-15
-110
-509
49
151
-462
-29
196
-155
-216
-50
55
147
-275
-443
-65
387
-232
263
705
-196
-330
261
34
-29
306
776
-155
-25
257
-154
959
92
-102
220
558
34
-198
460
-220
871
411
501
-332
85
1685
-592
353
-178
212
-364
355
-271
423
-560
-16
-307
305
433
223
47
-87
518
195
-467
64
69
122
523
148
-52
566
-19
291
7
-15
-324
153
-80
-163
42
206
-285
539
242
-108
-347
-333
414
-101
64
-403
456
187
317
-67
-64
-109
177
-147
-115
-241
-518
425
-261
12
171
-1125
82
-463
-123
236
-420
-336
-570
313
-301
-680
96
-219
-282
-1259
-765
36
104
-76
-41
206
-555
144
349
-543
-1418
-904
-303
-372
164
-118
-134
-160
-87
-374
278
31
-146
-285
-35
-245
156
130
-201
176
347
-106
258
-221
250
175
-166
504
-340
-1309
489
375
136
-449
-642
-55
174
-301
53
201
-152
79
-51
336
-99
-491
315
-358
446
-157
-5
341
-665
-58
327
-211
413
650
-164
-387
-1413
279
470
-217
-513
-37
-119
74
41
798
-123
97
-542
247
-19
-336
0
106
-204
9
-123
-1052
-14
343
130
-450
98
-179
-324
426
-318
-491
200
-237
-456
-501
-619
-22
-350
38
335
184
718
64
-110
43
-359
623
285
-29
-799
-187
430
-233
-441
151
31
97
-176
86
40
-236
-236
169
-539
161
-39
-34
-452
2
163
-532
172
-406
-23
266
-443
-459
-915
-36
805
-364
-145
-93
-902
-81
413
-420
-179
117
-129
415
504
-1122
-550
474
-365
-19
193
-28
-365
-720
-225
534
426
-444
-248
-489
-185
1
-53
-670
-95
-51
275
452
197
-480
-666
-8
38
-170
61
-476
-388
17
7
-151
200
-819
-401
-211
368
204
353
379
59
241
251
208
630
373
99
101
-520
855
529
32
538
27
-372
-82
409
-279
300
823
306
-640
218
-261
-8
6
-545
-148
515
-57
348
878
122
-13
593
-300
289
-458
25
454
522
977
1035
-111
-359
96
-456
588
-57
460
166
148
-235
-268
-45
419
14
368
160
40
-1143
536
-389
-309
312
-657
537
720
430
441
-13
376
-59
220
-308
390
126
662
371
394
199
92
-92
-16
-333
-425
727
483
78
472
-271
495
207
-469
62
421
423
-32
609
-146
147
-394
-132
173
87
193
-602
-581
902
209
-840
-157
82
-468
539
-407
-3
-104
-287
824
886
-279
-216
291
-464
261
-108
-80
96
114
312
161
92
626
59
307
-269
388
-207
-288
86
622
131
8
21
202
657
196
-217
554
-131
-87
83
-125
496
53
1023
-124
-1
26
-209
-6
-38
-44
-40
621
-643
-13
576
389
592
219
421
196
411
-499
157
-164
-195
-387
-100
315
723
-68
303
271
689
-33
-412
-226
630
18
224
108
148
292
-317
478
679
165
-358
-704
6
-309
11
-436
965
242
-107
-180
-81
905
184
505
-479
-77
-230
106
-52
521
496
-88
115
-931
-212
-318
21
449
379
517
268
-158
-544
153
-243
194
297
341
-211
-74
21
619
-365
-526
-398
-306
230
150
25
355
-34
-352
-386
392
-1015
-19
446
-287
-31
-783
726
-4
161
-141
77
-166
-115
211
-46
92
-57
-541
287
182
-890
-9
292
30
60
-81
471
225
113
85
115
-24
-225
-1107
-94
-171
-64
785
73
-14
380
-193
-405
224
-579
-499
-67
737
-907
91
-560
236
8
-351
379
-475
572
335
-156
-243
-166
-340
364
104
133
336
25
46
-216
-121
-42
-801
-158
124
-249
-350
401
355
90
428
-57
-471
-315
-334
-637
-32
-541
-380
-131
-412
-261
-433
127
382
121
55
416
-214
-313
-150
86
-978
173
-107
-224
589
116
392
-89
13
-173
163
407
-233
-173
-405
181
86
-290
-250
518
-449
775
-91
356
-73
442
277
-4
-64
-624
262
-274
-367
37
-224
165
-1156
35
-319
-14
560
33
-43
111
-200
179
-187
-795
326
-91
32
102
-162
263
-209
-260
-182
-208
-98
-538
-431
-208
202
215
-380
-584
-493
-27
-279
-496
-402
110
401
-515
-196
475
-210
-290
294
-70
-151
-163
-488
-291
-163
218
-388
254
54
-340
-171
-377
-441
294
14
520
-196
261
-395
-560
-84
-393
-223
315
-393
-331
217
-567
177
37
-438
-262
-9
-429
-428
132
-372
182
677
-208
-92
100
135
-515
-728
264
-492
172
-70
524
163
-795
421
-30
-142
-184
-565
-286
576
-589
-459
141
-272
-105
519
-130
285
-390
-134
387
323
254
-224
463
-10
-1138
-400
-469
250
-96
-1458
-114
70
94
-290
-114
876
-131
-611
33
74
-889
-174
-234
-495
-246
9
116
244
68
659
45
-551
-50
-160
-41
12
-566
589
100
-702
-325
-48
334
-217
111
230
-578
392
-51
-581
631
313
-1105
-224
164
73
-127
-208
375
66
-478
232
-271
324
58
-514
-701
-706
-438
214
-195
25
-756
490
66
181
-286
-731
266
25
-34
232
139
-200
15
-195
67
-307
36
200
415
236
-311
793
309
72
719
-821
-49
-892
524
251
372
659
271
359
400
-810
379
-110
-380
218
581
129
487
2
73
327
-696
-170
193
-6
-310
-232
157
698
388
389
-96
330
79
-353
-412
225
949
171
-954
-769
-1310
-245
-143
-848
24
-629
-70
186
-918
590
742
530
-710
-372
837
-237
266
470
-337
-479
38
-908
290
521
16
247
417
700
-137
-235
152
-665
-391
-461
-31
256
165
114
86
35
-285
-410
-197
-743
-321
-641
309
-1
373
-46
-82
147
376
-113
-416
-68
-1103
514
-62
-590
53
56
-92
-64
-124
-568
-179
433
361
39
78
-789
611
-15
-778
-391
423
443
69
52
-407
538
698
-32
150
-297
-476
-451
544
-241
-53
-128
-9
-705
-574
434
-169
134
-59
-251
267
-612
157
-825
-362
599
642
117
597
-166
-849
123
-454
-185
-16
-632
93
-259
405
-426
-192
-14
-679
591
471
-133
591
366
125
-265
77
402
-69
84
-261
408
35
166
-245
425
555
133
401
-200
-672
145
-375
227
350
124
-43
-509
-38
22
55
-478
24
173
-536
-110
-376
378
72
41
79
10
320
173
-86
-204
-374
494
-396
-271
-93
-293
62
-44
-701
-632
-89
630
-436
-40
-205
-86
17
305
267
-407
-89
-124
-68
775
-171
375
69
110
-33
63
5
618
-156
-84
332
243
3
301
162
288
924
-220
-100
502
35
37
-386
-83
406
339
112
-82
-66
-761
108
-55
191
397
543
245
681
360
763
29
300
660
496
668
-99
1103
-335
781
943
58
-1002
459
197
242
-349
-117
-69
-292
166
398
447
-241
281
140
549
1102
67
399
56
371
179
407
1063
393
24
-140
235
-68
426
405
329
575
-128
-172
-104
-107
414
-287
113
570
154
-236
133
396
731
278
71
-511
-15
-133
925
250
185
-243
112
517
749
339
-149
305
-628
337
-233
281
390
125
65
39
162
-393
-547
207
-350
-523
-366
-173
18
415
-90
-503
732
522
-416
113
1012
-378
1774
-209
233
402
273
-482
-325
-717
269
250
-187
-701
-301
866
362
-386
664
-24
-684
567
604
-160
587
746
-124
-227
-292
-183
868
175
152
28
859
981
211
155
137
199
329
-2
106
-417
305
-386
175
-105
-276
-27
-189
325
634
419
-623
478
391
-213
409
323
386
-995
-135
235
167
85
44
994
-265
169
208
-289
372
285
-399
-549
-62
-221
269
522
92
348
-39
1003
332
297
38
89
-273
294
-87
-166
-199
-220
236
349
-101
-469
56
-407
151
190
360
25
-6
524
-379
1330
139
258
281
48
-291
41
510
244
146
639
733
60
365
1184
-173
635
85
256
-305
-419
4
87
121
638
-140
71
-223
699
109
461
177
323
-203
-12
-671
14
788
933
-252
205
224
-423
-305
336
-705
1511
45
184
520
423
356
-69
-1328
92
585
-634
553
356
-110
-550
36
-348
-223
-554
-874
-235
-41
-325
-769
50
49
217
97
25
2323
-24
486
-464
551
622
-87
26
-313
106
225
-298
-457
-75
402
185
214
542
-53
-47
612
-193
-252
647
-90
-25
-61
162
387
-1202
-111
1
-629
-182
-351
-60
-59
102
167
14
-131
133
-286
-259
154
33
-625
-158
154
381
115
-224
-421
392
-176
184
-823
-273
502
327
-530
394
583
652
-193
-2
198
424
448
-301
321
656
137
2
33
62
-452
230
229
-59
131
409
-280
586
-884
-15
-339
-27
-764
-572
117
122
604
1818
326
72
-63
1543
285
-1163
-267
248
353
76
501
-127
591
-832
-244
-399
415
235
99
-500
89
-195
-767
-310
25
1531
47
589
-214
-335
-547
24
436
320
-1040
-104
-621
-261
-213
-113
474
909
-58
313
59
200
307
-423
353
-289
-64
176
584
-271
-228
-161
-103
9
-355
-242
-73
-77
-129
-91
-371
-381
258
42
495
465
721
-49
42
-431
172
566
-42
362
364
-490
66
-747
-679
-66
624
-151
359
1068
-354
-188
335
166
420
609
577
1218
350
-661
-96
-211
70
-46
957
301
-227
-176
514
-118
-161
-455
-182
13
29
409
224
-23
-204
-259
-349
143
386
-196
689
120
145
77
961
-201
202
-236
-202
56
671
-97
37
118
302
592
1237
538
-77
357
-1130
723
343
-256
-2
161
566
189
-98
221
332
1046
-800
186
-216
169
53
37
-150
84
486
-222
-443
109
-37
745
-391
-137
239
17
-413
-30
69
501
-447
274
-501
64
94
423
132
678
389
-266
266
-52
-420
-151
-356
745
605
-127
4
-557
-466
-471
-308
446
-158
272
-672
169
-392
-368
-107
-28
25
198
-19
351
68
159
-228
-22
1398
-283
-389
-14
695
-109
409
-74
-581
190
388
-265
-40
-300
-400
-269
-582
340
-149
-508
116
-52
64
109
79
372
-485
-277
4
-104
-49
-148
119
-105
3
-441
640
-355
23
-265
680
-139
106
340
461
14
-150
-464
151
607
49
-109
40
400
494
-339
-145
123
-190
231
250
390
-568
18
879
-453
-398
-361
-284
529
729
686
157
-70
-402
-234
-224
-1
-378
169
-78
-664
356
58
-147
-25
241
656
207
114
-231
-424
-407
-239
-442
405
422
-192
71
212
27
249
44
-732
-190
-473
-151
279
-180
104
225
-427
-254
8
328
-45
76
563
-115
70
453
917
1041
267
35
-355
183
-555
-295
30
362
207
548
363
106
300
443
-439
-108
-445
647
-331
67
376
300
107
0
-980
-164
89
361
-312
-47
-311
-128
147
100
-310
716
-351
-860
333
248
904
-341
207
-247
-204
-54
-499
-210
-544
466
-158
-123
7
-498
178
-112
236
128
131
89
-19
144
-703
-768
-698
-533
-181
38
-816
29
-321
-714
50
-217
397
55
-354
-152
316
656
350
501
63
73
-181
298
270
545
-45
41
-158
97
84
592
670
-752
166
-296
169
-519
452
342
126
306
-370
-286
-555
319
-678
-405
537
-382
-448
-232
80
-14
-347
308
492
-285
-257
125
-17
473
383
-109
-516
198
265
620
43
488
212
155
143
335
-4
-210
366
-263
-3
205
-188
337
-455
83
589
-260
-127
-936
-110
-395
355
306
613
70
-320
-193
-189
-280
-137
-323
-647
230
-278
505
-197
-576
-309
228
-104
168
-443
-645
575
689
-568
683
-331
9
172
-891
-673
-589
-118
505
-183
-508
742
147
174
127
46
284
107
-289
234
-368
-343
271
231
-461
530
-176
244
67
-307
715
-595
-208
208
-364
-140
356
1130
-676
500
206
-124
82
-62
-151
-167
-512
84
-123
-321
576
95
-366
479
-473
-882
-370
-587
135
450
201
985
698
210
-397
-540
50
-327
-667
119
127
-538
220
414
-798
436
-61
26
416
28
-133
-180
-214
-208
-538
-214
-374
173
129
394
208
193
21
184
253
-370
174
-828
-370
82
-283
-233
-205
813
-172
-265
-269
465
688
787
-472
130
-567
-339
769
-46
129
382
565
556
-111
-1186
-173
451
146
208
-3
-819
-253
-71
-311
688
-79
249
456
-328
641
-178
-524
401
-1232
-86
-9
-72
-415
9
441
-187
310
586
159
-332
33
-69
-377
-97
-997
-231
-1190
-17
119
571
-166
131
-138
-266
-289
-31
94
-526
-225
-444
53
-498
33
376
-54
-488
165
-255
-448
381
541
-491
1084
-27
-455
21
260
-14
166
213
287
-16
-354
-152
-168
-487
1279
25
-38
292
-475
209
-211
350
360
430
255
-525
-108
-377
22
-1
268
240
-399
361
-212
0
-310
-65
-233
-502
-143
3
-265
309
-513
84
232
-14
-1364
-362
680
-589
17
-102
378
666
-544
254
-68
-12
70
228
64
-197
-442
115
-340
-1618
192
-1
-65
-849
-862
999
532
-7
27
511
-154
72
-164
-363
-767
119
536
-380
-438
-406
473
201
-353
216
381
342
162
-18
-645
36
-323
-388
376
-524
-131
-693
266
-154
335
125
-194
-1044
-841
241
-297
-611
34
-42
-805
-207
528
117
56
4
97
472
-123
357
4
750
-2
-130
-857
552
433
-525
-412
313
462
-115
340
241
59
-628
379
112
-312
-637
442
-800
-59
-847
-722
-72
-12
316
-566
-848
174
108
234
66
-548
-726
33
745
-932
280
-419
-788
-288
-164
33
-4
-144
-270
-500
-420
7
-556
-68
-316
-405
-218
-621
-660
309
99
-565
-750
-398
281
205
842
123
501
-677
149
-74
737
-1035
1068
-1168
242
41
-1191
-319
114
-514
652
-1028
49
56
-225
524
-199
-99
-380
-59
-237
-498
383
-543
97
-776
-496
-45
-428
347
-127
-462
143
-131
-141
1144
-262
99
-806
282
-22
-214
-362
-694
17
-1067
663
-1092
371
195
506
573
-196
434
-943
-318
-82
-64
773
-579
-294
-173
-865
-75
441
-542
-367
83
-620
-20
81
-206
-600
-843
-23
-325
309
100
-1061
-437
-205
-223
-1004
-338
-377
-465
69
-865
226
-385
-20
437
164
345
-423
-297
410
614
-104
-163
-142
-404
97
129
1119
48
284
-146
39
-1315
78
-417
285
315
266
189
384
114
595
-419
-751
-309
-98
-382
113
337
482
-244
-103
-1213
76
-446
-603
-539
-314
33
-228
406
13
-3
-731
-502
185
-540
-273
-341
80
187
-194
266
-258
213
-165
93
134
-161
56
321
267
-220
-407
-222
632
-356
-17
38
61
-11
13
-421
237
-385
-8
411
30
-20
21
-122
30
-359
-645
169
188
121
-75
-193
182
56
123
-66
94
637
-695
-175
-5
577
-725
-842
-441
245
-557
-233
-256
240
-48
1402
-2
371
-195
-235
-20
-27
-101
104
-187
-784
-28
-226
182
-447
273
410
522
-161
291
838
674
270
-110
-28
-16
3
-378
4
-667
-37
-95
1525
197
-148
129
476
-195
369
251
-28
-714
-607
251
-161
30
-48
-347
-450
-528
203
30
-346
-714
1139
231
329
886
-299
-16
-360
192
87
-226
18
150
343
205
-219
-41
516
598
476
399
174
233
518
172
-323
957
-212
461
765
445
1323
296
1119
62
-254
1951
141
-283
-178
-132
-413
269
104
54
-25
619
-36
243
174
27
308
-319
86
-291
1077
33
74
277
153
-490
476
-42
41
486
260
-265
-702
-12
738
939
17
-152
280
605
-343
167
25
350
-273
413
336
523
-613
27
222
149
324
311
243
31
-125
-882
392
174
137
-49
85
511
-117
106
46
-134
117
147
-56
-147
556
-10
-531
252
-560
447
496
413
-368
-61
42
-492
356
-350
433
-312
-279
238
242
1
387
494
-135
-231
307
-349
296
731
77
-566
151
-339
-351
370
-357
4
312
-364
-272
129
494
141
-644
-317
735
-112
567
34
275
390
-188
234
73
79
15
-20
199
-381
39
-305
-370
-961
64
38
25
81
225
-56
299
-138
-515
89
-366
-383
-463
4
-364
-227
312
-257
-292
282
236
663
104
-135
-446
-685
338
-136
294
-130
-124
757
-870
-554
-605
-852
-131
-805
45
81
-148
67
-988
-455
-31
41
255
21
-91
-292
-680
-184
-300
-755
287
-55
-907
-227
-316
241
447
117
297
-371
-60
-210
-16
-144
664
8
-245
197
544
435
328
119
796
-45
-243
-955
-87
88
-513
-569
-137
-16
684
-83
-242
-497
-209
-707
-298
1
-174
-8
336
187
-501
-1139
-126
-912
56
641
235
-396
-167
-631
-349
292
-775
-146
664
-226
82
-578
447
-298
-402
-203
-37
-146
-366
-2287
-368
-248
-161
91
1138
-324
-619
-166
-258
276
269
-204
438
201
781
-674
-240
421
-115
-247
540
-209
183
333
27
263
303
238
-65
333
179
-358
-249
-426
774
-508
-52
718
311
548
355
-40
184
-40
-313
-135
308
126
609
-271
-758
-133
655
-33
678
132
-578
-177
-21
28
54
-282
-612
-395
-68
-421
49
8
206
-463
-136
77
113
-370
466
-726
-536
169
686
172
-398
-232
319
322
-540
-224
-176
-1156
522
54
-131
-725
-445
1050
-141
-697
-369
542
-400
-49
-65
-608
79
-543
-263
21
1
-99
338
-514
912
-521
720
-200
-345
358
-863
39
-360
33
-366
385
-140
-334
157
-252
-53
-114
343
225
-285
-435
173
-49
-146
-77
305
115
-326
-198
169
727
498
-246
-329
167
509
-124
162
-212
141
-1148
-538
-244
252
-1118
-243
-28
182
281
320
-201
-185
-413
-636
407
-1346
-114
353
-495
704
-80
463
874
165
461
-355
-582
346
-268
425
-698
-217
57
362
-473
-836
-446
495
-998
106
-190
-146
696
919
-687
210
164
-33
-143
-243
-121
-528
-504
6
-231
378
478
-121
-376
212
329
12
24
497
89
-1
542
290
802
37
202
-680
-668
-286
281
-280
592
-212
288
-857
-264
-904
-2
-71
-1393
-122
-654
-937
565
-80
-48
-160
-119
292
-364
122
111
-53
-712
-537
303
-305
-463
596
-299
248
100
132
-226
389
-41
-742
-280
668
-46
-671
119
421
-229
220
-146
677
384
-391
-75
-277
-502
-395
-366
-60
-18
-51
-150
245
314
-100
-261
-559
-68
-598
-224
85
-1110
822
357
261
-347
-81
-596
-28
-604
743
128
-475
703
-595
75
131
-513
422
-371
191
-255
195
370
284
-704
-936
-429
-176
768
-156
-48
-997
-116
-295
145
144
-65
-938
-97
-740
-195
972
319
-763
-420
180
-533
-6
222
-100
-709
992
-237
-463
-680
-676
-81
-32
-415
-544
-759
-516
-378
473
-71
-365
216
838
517
107
60
-352
8
621
123
-760
141
-484
-309
-342
-125
253
-212
304
-410
462
-211
884
129
61
-482
460
-546
692
-193
-123
157
279
377
-667
164
-419
338
1102
703
278
12
30
-658
131
823
174
-187
311
-2
205
519
-388
-11
-349
319
-70
310
-612
-103
-797
299
-550
-268
486
-336
-455
246
887
589
-62
-224
648
268
675
-356
38
14
-6
853
-664
-151
-243
1396
-145
-560
234
-99
58
184
-369
60
-157
242
-313
-9
-274
-565
-812
205
347
233
312
-110
-272
-637
201
282
-531
-419
-536
-408
-768
533
-67
-186
-385
250
-128
-23
-69
719
28
617
110
-322
-356
75
-5
625
554
-67
-533
3
268
-181
-175
-917
702
-530
948
-396
974
-189
-126
-191
-647
567
158
-153
292
-728
143
-273
190
544
772
-127
801
-464
-691
520
768
-1
-433
-230
-502
373
45
-286
-416
218
-606
-441
582
289
88
-719
-136
215
402
500
-533
149
346
-410
1105
666
-372
795
127
-384
262
477
-152
-494
-91
571
-427
173
125
588
-286
-2
209
-679
151
-354
263
486
-57
65
487
-467
59
959
913
968
194
137
-14
924
456
-401
-750
-255
635
321
-160
-380
300
-1084
900
7
-54
1257
-168
-384
-1107
57
-115
1240
-755
212
-745
173
-92
-1013
-31
-175
331
-383
-707
16
322
-335
693
-218
249
-360
88
286
181
-75
-309
318
449
-463
29
-674
-392
-466
-276
592
37
-255
231
612
-178
-540
385
175
-595
-840
18
346
-147
215
381
-337
-256
-30
99
40
-155
-512
-101
-336
-177
142
-78
-177
66
-366
-337
6
340
-299
-315
-609
-677
524
213
58
14
24
-405
-368
-133
-143
-1186
-83
-462
-310
58
38
-213
414
-381
29
129
-422
526
-106
-263
222
55
141
29
184
-695
-104
-139
-103
170
-14
-26
-218
-1071
-121
-413
-17
-396
-505
-61
-195
-562
-218
75
-135
57
-87
106
249
306
-255
-239
-48
-16
-218
-389
267
-364
516
-311
-517
459
-706
-334
157
-380
-140
-85
54
32
-521
935
118
-37
330
-342
9
166
284
-1020
-76
279
231
-854
-379
111
133
-491
-584
-258
506
-18
-132
-121
157
-255
256
-139
-191
-3
-145
153
104
399
-240
383
-144
-250
-400
-38
-299
556
-223
-646
511
240
-343
-307
518
70
-4
-149
353
-63
115
-198
552
-148
-168
-492
410
-41
490
-390
-327
151
-855
-58
-270
-436
-498
322
59
-386
-60
84
297
585
-188
195
-118
-545
261
-166
-179
-97
-21
-492
32
492
7
-530
-69
265
-516
190
-58
26
129
308
-207
-344
-320
-400
108
568
-97
781
-177
-127
82
502
179
169
504
32
-609
103
534
159
-812
146
246
-290
-249
-1046
-142
39
-638
-365
237
-272
117
-977
-1344
708
-290
-683
572
-386
357
1264
-131
638
-305
-150
441
-212
349
-34
340
431
-180
-9
-268
247
537
9
525
133
622
-299
183
807
-56
714
269
-428
-7
230
242
-209
-142
-12
328
-356
297
-95
663
-258
8
667
-167
-471
-73
636
235
543
627
699
-34
526
-429
33
591
-74
-101
204
-513
652
397
-92
379
-94
6
-843
-4
425
-363
298
23
-422
37
-448
626
334
-533
-302
113
-7
-78
-146
422
455
374
13
359
-599
94
-204
-86
-252
-194
45
-185
122
-400
222
28
376
-313
-495
-233
362
-60
83
11
-759
-165
-143
-421
-107
-528
687
191
-189
295
513
297
812
638
1436
659
-764
-757
-330
94
192
-144
537
22
237
-176
1468
385
1074
-450
-340
16
365
-547
-449
518
146
546
563
-500
733
555
-272
-475
829
354
-45
441
-222
468
-345
-96
1079
359
29
-2
381
-83
-506
-573
855
-329
184
-218
68
46
610
-15
-112
-513
-58
-430
-749
-828
16
-537
81
287
355
-466
195
86
-162
103
572
-19
-299
246
-426
181
-271
126
-358
438
65
331
678
931
719
75
426
-252
-233
357
-490
620
43
-62
87
427
508
413
447
843
-120
984
-558
293
-108
228
-855
1129
-565
220
923
474
-373
-255
151
430
259
-419
267
-26
174
158
2
77
-340
29
80
-371
36
214
-195
-91
-383
492
37
-517
107
95
809
-278
-2
-11
164
101
-639
217
-150
-82
497
442
-324
693
-340
258
-45
-153
82
-147
245
-464
479
-431
-692
-104
-242
85
-396
175
-127
-552
248
-188
41
133
-3
285
-310
451
38
402
-640
228
-532
583
710
14
618
541
-117
-787
-622
113
-162
480
747
903
-335
-129
160
42
-148
555
195
913
126
-204
44
200
499
-720
696
640
115
-475
239
393
240
-509
254
334
643
54
-65
-199
271
142
-917
-453
-162
-483
150
33
578
-692
-284
627
164
345
19
98
-81
-134
310
1004
-158
222
460
164
-149
55
121
690
-115
184
-67
339
246
19
482
339
1381
-98
-345
-385
-452
169
-63
482
-320
-838
-171
357
240
221
246
433
582
-8
-157
841
289
-259
-190
-899
-290
-513
-84
-195
58
186
-40
-143
69
196
311
54
-126
214
-278
33
17
-268
-307
-775
-449
-300
-46
369
1035
406
-68
-537
-537
-69
-532
17
313
724
-386
-332
-359
-110
604
151
537
-101
313
-441
171
157
-157
-395
-227
409
-188
169
-153
-113
224
191
-625
306
262
323
-356
-413
-192
683
131
438
-95
-207
-105
75
-260
523
272
-113
148
190
388
299
-439
-647
397
407
-137
-659
-262
333
343
-298
805
182
162
-547
234
45
16
114
273
-99
-370
560
651
497
166
457
96
156
-129
206
102
553
-13
-134
150
-84
-209
-33
3
166
-217
-334
12
-381
-228
-310
-144
393
76
-62
-496
118
465
420
-232
489
-309
-112
-261
-402
-319
535
506
-846
295
613
250
-122
-225
675
259
105
53
101
-540
76
-309
424
116
347
546
-320
13
431
741
439
111
-319
-137
-77
499
-12
154
511
853
64
-329
43
56
939
-462
-161
-59
141
-372
-212
-294
-171
-3
683
318
-6
64
57
-273
-16
1189
305
23
269
456
-307
-147
234
36
494
-35
536
129
87
-659
125
-454
-357
739
-61
-306
-53
-66
650
10
85
193
505
201
1039
282
-163
-361
203
-297
-381
-138
-25
-4
1095
-37
-48
714
253
-643
256
163
-8
-716
-544
24
146
378
1393
345
-553
368
132
121
147
406
78
103
291
0
133
-405
298
-207
169
-35
-112
344
519
104
496
-281
629
-27
-187
658
5
-2
-898
214
129
564
616
807
-838
112
50
639
-129
45
-117
-217
696
-134
-361
-48
-403
-55
154
-150
5
-273
210
510
444
169
-306
-213
444
287
244
162
143
161
465
154
132
-494
73
-109
-628
-291
-321
-221
-192
118
346
645
-113
-169
-133
-197
63
-168
180
2
496
-80
43
162
-311
-122
1014
-100
484
-230
-364
273
-919
54
-203
-341
382
-167
-257
324
874
301
-18
449
310
-2
98
393
459
1540
5
429
-156
275
29
-137
1106
963
-112
-730
-739
-69
380
77
466
374
-544
441
-9
-128
160
614
-694
1029
522
-269
40
-194
-223
-337
-308
-209
256
-723
-199
405
1251
363
169
7
106
-695
640
385
-17
170
272
724
91
1021
1
-422
950
-455
-194
569
-534
936
691
-373
724
-561
-221
280
-320
157
-922
74
-161
-150
967
364
-323
228
18
883
322
716
27
-172
883
-134
-29
492
354
418
491
-69
-300
-211
932
-142
-1333
-646
-975
783
268
591
-674
-141
-212
234
-858
-629
952
632
-244
337
65
342
-511
526
-191
-210
313
717
780
115
493
672
833
-158
-910
-166
287
509
126
-446
-298
252
-51
1005
1004
408
-229
-561
485
196
-117
-307
-373
-389
178
347
-929
-409
620
329
-2
-55
499
-134
-14
-108
-246
-243
-220
141
-1126
129
191
560
-514
-284
138
-143
393
-232
-115
591
-718
70
-180
256
-92
-140
-738
187
142
410
497
320
881
-229
483
-69
51
23
-265
211
11
561
-162
-730
970
251
-341
-122
135
-468
211
-127
-236
349
-374
133
119
-68
-497
-618
606
-205
-98
166
114
52
-99
57
-333
243
1315
-49
501
-279
-15
522
499
412
-504
409
1109
339
183
-75
820
531
-412
1153
460
-17
291
1288
-510
-56
-67
342
-3
-13
1146
-802
426
-121
84
-242
-254
-283
-37
247
157
-123
-461
511
-532
287
17
19
200
306
181
56
-484
-64
594
-517
-380
-763
-47
-442
-164
-77
-270
138
57
-352
-427
414
-28
333
-614
370
790
-76
28
-59
-130
-155
-292
85
251
-764
259
-496
68
566
90
61
118
-155
-776
-414
-234
-458
48
4
-1230
219
-283
-381
181
-419
-321
-662
569
539
151
-9
-200
502
-853
-924
-255
-662
295
-478
87
-144
-77
367
969
323
-117
518
-362
-348
-543
-327
-408
95
-192
28
-185
-129
-500
-320
730
-724
169
162
-16
632
-90
25
-98
-84
29
219
319
-409
-86
422
-102
52
-197
805
-120
728
-45
-284
401
218
22
283
-104
446
-318
-722
567
40
589
286
-223
199
-667
-328
-792
57
-219
-696
-596
-629
886
-40
277
-589
226
-364
-261
297
-621
11
-718
35
-197
279
450
465
253
-923
-442
-588
173
-129
-288
-117
592
-139
185
-75
631
354
-268
270
483
-338
-86
-179
-583
-95
586
-571
-88
-258
-556
781
146
-145
104
-84
442
350
-493
-203
189
123
344
714
823
-308
251
-76
14
71
81
399
-346
551
-438
410
-236
-179
-663
-248
-8
-155
-183
-394
-286
-303
-614
-309
-69
165
368
-674
-207
295
128
164
-274
616
-552
489
634
-762
-420
188
-623
-696
-470
77
-708
-575
-99
61
8
-176
61
-548
-790
-153
-636
-195
161
-1042
256
215
-374
462
83
-1088
-190
-148
-182
473
-1025
167
394
650
-164
-185
644
497
-72
-315
-134
666
-319
278
-135
270
404
-222
478
-467
32
217
-1331
-26
376
-190
-505
-669
-273
-209
316
157
52
-8
13
-600
-1009
-354
213
176
506
152
55
371
-530
-288
744
-94
253
-108
286
-784
-5
-161
-692
-313
121
-780
364
376
-44
-248
268
180
-131
538
-19
433
1082
29
6
169
-417
378
32
572
-141
470
-151
-187
-663
-351
-54
-72
-424
0
-368
108
149
231
-341
-750
22
-1144
-434
-31
659
-755
69
454
109
-196
-457
212
200
-311
-315
50
-244
486
-335
-328
-635
180
-129
92
246
-251
-99
-75
-423
457
102
141
-1011
-19
-795
90
361
591
199
-267
-418
79
-803
1228
-98
-151
-444
-339
-745
-515
-7
254
-325
-343
18
649
-511
-70
-665
237
294
-648
-432
282
-104
309
-153
294
65
-57
-90
150
-122
266
123
184
-488
-250
-281
-35
111
382
305
-835
221
-513
14
-86
-161
-105
74
-2
231
-154
-80
-158
-763
547
25
395
-51
676
224
-659
-333
-223
295
79
-125
410
588
49
-866
609
-906
396
173
208
34
-99
-134
-754
-54
1055
-131
-646
519
590
-259
-277
547
663
-732
108
-73
277
745
-28
-160
233
-497
361
-28
186
-28
-254
-516
584
164
295
255
98
-250
508
365
101
482
51
-427
342
56
399
-59
607
88
-183
137
224
-56
-72
106
424
711
-220
-23
-12
835
-640
-453
-170
45
102
-311
-296
-291
-163
677
-88
48
-49
-479
-406
-4
-368
14
14
203
34
-289
851
-218
-303
576
61
-442
906
418
105
136
-156
-172
-2
256
-123
417
-527
-115
26
222
-271
834
-133
-258
147
-227
-417
-571
-244
-175
303
-200
-160
730
264
281
822
674
150
224
295
-147
336
47
353
-352
95
608
-19
-549
-341
487
387
412
49
-70
384
330
-3
55
124
951
344
96
171
187
545
676
-202
456
189
582
521
-329
3
1134
178
1100
515
88
-332
-110
-255
-250
114
231
890
-131
276
334
701
401
43
325
243
960
-204
6
-284
266
536
289
216
401
-337
-1112
-353
-908
-237
-108
164
-497
477
-120
193
-361
530
148
316
560
-280
-431
495
-249
412
757
684
-71
242
170
66
16
-127
221
304
488
-187
117
-217
-67
-214
303
328
15
15
-84
261
102
68
280
-111
-237
27
440
38
619
-22
487
490
224
-636
-10
576
429
332
218
33
-228
-101
-463
367
154
192
-132
258
-266
-75
-81
-1
1820
387
479
-839
423
-585
22
95
278
118
-21
96
-112
-268
371
146
352
139
106
422
490
143
311
-451
112
267
294
-242
-667
-426
184
-299
211
55
215
200
201
-137
-270
230
495
169
160
-407
352
-126
-310
-442
333
143
-255
-24
-290
-237
487
647
224
32
88
478
545
584
89
-453
-222
140
-355
-58
362
-86
-146
328
-244
-216
-275
-614
-348
-302
1219
-872
-610
119
-162
353
368
407
592
-295
-171
452
-408
276
-550
1790
-21
509
45
269
63
234
-304
-416
-260
173
2
297
176
-234
225
145
-186
-22
100
-261
-237
272
845
172
23
323
-734
-128
701
-52
-205
-498
607
774
-378
161
618
140
372
501
-160
424
885
-234
175
-213
-187
173
-177
-175
66
-132
-734
-117
-16
-785
-201
569
463
533
-619
-350
120
108
583
542
226
-599
-486
-252
173
31
-9
-124
1051
746
-57
182
119
91
108
-410
-247
765
-462
-294
-18
82
273
586
962
436
49
-557
413
313
-177
-202
412
531
162
161
-272
262
-295
113
130
-466
-174
758
486
-191
272
49
-79
51
-248
241
90
-320
-3
401
49
-221
207
-260
668
832
368
-211
8
382
-45
624
42
-219
10
47
-699
886
238
376
23
634
-344
-679
-21
130
71
182
810
-553
-25
218
604
500
-373
379
257
364
197
115
-274
83
455
195
-137
381
470
-728
-503
77
-510
-425
65
90
86
196
318
1096
466
312
329
-692
39
779
217
-591
-529
-442
-231
423
-17
-782
267
151
-639
235
-24
-471
56
-326
302
311
-143
140
561
792
333
849
353
16
362
-511
2
666
-183
246
-120
370
348
41
241
-480
-331
77
-440
677
1052
430
-212
-295
316
-415
-38
521
162
847
425
453
-185
1160
287
-206
-148
-748
-479
-6
-145
-365
517
234
-35
-41
-273
28
243
1002
504
-20
163
1002
374
-321
153
683
359
545
443
193
-32
634
-87
156
-48
176
184
-296
86
979
107
-340
373
-183
-513
-232
220
-59
348
-113
-330
-33
457
75
-630
-578
-415
116
689
454
-681
-74
-60
-101
45
308
-394
200
1463
-581
-79
660
961
584
-430
-320
-959
712
-85
-596
-113
51
21
-292
306
1941
92
-172
-472
118
-1052
323
146
1050
-168
469
-415
-142
47
117
121
755
-431
292
108
111
327
237
505
-538
320
-505
388
511
294
291
109
420
-32
695
-11
289
-361
-499
-741
-644
-630
-559
428
-444
-23
-236
358
-223
-125
114
118
257
-366
-467
-34
-536
-104
62
337
-104
-276
401
-16
486
351
-273
-626
1088
-610
513
-313
-398
334
-135
132
-189
77
79
-72
-127
160
673
230
203
-347
370
-503
99
657
-247
-127
303
1126
-448
438
-505
-225
94
-1160
-216
701
832
231
494
472
174
352
443
87
-8
9
46
-378
181
-248
576
-712
